FANN_FLO_2.1
num_layers=3
learning_rate=0.005000
connection_rate=1.000000
network_type=0
learning_momentum=0.100000
training_algorithm=0
train_error_function=0
train_stop_function=0
cascade_output_change_fraction=0.010000
quickprop_decay=-0.000100
quickprop_mu=1.750000
rprop_increase_factor=1.200000
rprop_decrease_factor=0.500000
rprop_delta_min=0.000000
rprop_delta_max=50.000000
rprop_delta_zero=0.100000
cascade_output_stagnation_epochs=12
cascade_candidate_change_fraction=0.010000
cascade_candidate_stagnation_epochs=12
cascade_max_out_epochs=150
cascade_max_cand_epochs=150
cascade_num_candidate_groups=2
bit_fail_limit=3.49999999999999977796e-01
cascade_candidate_limit=1.00000000000000000000e+03
cascade_weight_multiplier=4.00000000000000022204e-01
cascade_activation_functions_count=10
cascade_activation_functions=3 5 7 8 10 11 14 15 16 17 
cascade_activation_steepnesses_count=4
cascade_activation_steepnesses=2.50000000000000000000e-01 5.00000000000000000000e-01 7.50000000000000000000e-01 1.00000000000000000000e+00 
layer_sizes=370 51 3 
scale_included=0
neurons (num_inputs, activation_function, activation_steepness)=(0, 0, 0.00000000000000000000e+00) (0, 0, 0.00000000000000000000e+00) (0, 0, 0.00000000000000000000e+00) (0, 0, 0.00000000000000000000e+00) (0, 0, 0.00000000000000000000e+00) (0, 0, 0.00000000000000000000e+00) (0, 0, 0.00000000000000000000e+00) (0, 0, 0.00000000000000000000e+00) (0, 0, 0.00000000000000000000e+00) (0, 0, 0.00000000000000000000e+00) (0, 0, 0.00000000000000000000e+00) (0, 0, 0.00000000000000000000e+00) (0, 0, 0.00000000000000000000e+00) (0, 0, 0.00000000000000000000e+00) (0, 0, 0.00000000000000000000e+00) (0, 0, 0.00000000000000000000e+00) (0, 0, 0.00000000000000000000e+00) (0, 0, 0.00000000000000000000e+00) (0, 0, 0.00000000000000000000e+00) (0, 0, 0.00000000000000000000e+00) (0, 0, 0.00000000000000000000e+00) (0, 0, 0.00000000000000000000e+00) (0, 0, 0.00000000000000000000e+00) (0, 0, 0.00000000000000000000e+00) (0, 0, 0.00000000000000000000e+00) (0, 0, 0.00000000000000000000e+00) (0, 0, 0.00000000000000000000e+00) (0, 0, 0.00000000000000000000e+00) (0, 0, 0.00000000000000000000e+00) (0, 0, 0.00000000000000000000e+00) (0, 0, 0.00000000000000000000e+00) (0, 0, 0.00000000000000000000e+00) (0, 0, 0.00000000000000000000e+00) (0, 0, 0.00000000000000000000e+00) (0, 0, 0.00000000000000000000e+00) (0, 0, 0.00000000000000000000e+00) (0, 0, 0.00000000000000000000e+00) (0, 0, 0.00000000000000000000e+00) (0, 0, 0.00000000000000000000e+00) (0, 0, 0.00000000000000000000e+00) (0, 0, 0.00000000000000000000e+00) (0, 0, 0.00000000000000000000e+00) (0, 0, 0.00000000000000000000e+00) (0, 0, 0.00000000000000000000e+00) (0, 0, 0.00000000000000000000e+00) (0, 0, 0.00000000000000000000e+00) (0, 0, 0.00000000000000000000e+00) (0, 0, 0.00000000000000000000e+00) (0, 0, 0.00000000000000000000e+00) (0, 0, 0.00000000000000000000e+00) (0, 0, 0.00000000000000000000e+00) (0, 0, 0.00000000000000000000e+00) (0, 0, 0.00000000000000000000e+00) (0, 0, 0.00000000000000000000e+00) (0, 0, 0.00000000000000000000e+00) (0, 0, 0.00000000000000000000e+00) (0, 0, 0.00000000000000000000e+00) (0, 0, 0.00000000000000000000e+00) (0, 0, 0.00000000000000000000e+00) (0, 0, 0.00000000000000000000e+00) (0, 0, 0.00000000000000000000e+00) (0, 0, 0.00000000000000000000e+00) (0, 0, 0.00000000000000000000e+00) (0, 0, 0.00000000000000000000e+00) (0, 0, 0.00000000000000000000e+00) (0, 0, 0.00000000000000000000e+00) (0, 0, 0.00000000000000000000e+00) (0, 0, 0.00000000000000000000e+00) (0, 0, 0.00000000000000000000e+00) (0, 0, 0.00000000000000000000e+00) (0, 0, 0.00000000000000000000e+00) (0, 0, 0.00000000000000000000e+00) (0, 0, 0.00000000000000000000e+00) (0, 0, 0.00000000000000000000e+00) (0, 0, 0.00000000000000000000e+00) (0, 0, 0.00000000000000000000e+00) (0, 0, 0.00000000000000000000e+00) (0, 0, 0.00000000000000000000e+00) (0, 0, 0.00000000000000000000e+00) (0, 0, 0.00000000000000000000e+00) (0, 0, 0.00000000000000000000e+00) (0, 0, 0.00000000000000000000e+00) (0, 0, 0.00000000000000000000e+00) (0, 0, 0.00000000000000000000e+00) (0, 0, 0.00000000000000000000e+00) (0, 0, 0.00000000000000000000e+00) (0, 0, 0.00000000000000000000e+00) (0, 0, 0.00000000000000000000e+00) (0, 0, 0.00000000000000000000e+00) (0, 0, 0.00000000000000000000e+00) (0, 0, 0.00000000000000000000e+00) (0, 0, 0.00000000000000000000e+00) (0, 0, 0.00000000000000000000e+00) (0, 0, 0.00000000000000000000e+00) (0, 0, 0.00000000000000000000e+00) (0, 0, 0.00000000000000000000e+00) (0, 0, 0.00000000000000000000e+00) (0, 0, 0.00000000000000000000e+00) (0, 0, 0.00000000000000000000e+00) (0, 0, 0.00000000000000000000e+00) (0, 0, 0.00000000000000000000e+00) (0, 0, 0.00000000000000000000e+00) (0, 0, 0.00000000000000000000e+00) (0, 0, 0.00000000000000000000e+00) (0, 0, 0.00000000000000000000e+00) (0, 0, 0.00000000000000000000e+00) (0, 0, 0.00000000000000000000e+00) (0, 0, 0.00000000000000000000e+00) (0, 0, 0.00000000000000000000e+00) (0, 0, 0.00000000000000000000e+00) (0, 0, 0.00000000000000000000e+00) (0, 0, 0.00000000000000000000e+00) (0, 0, 0.00000000000000000000e+00) (0, 0, 0.00000000000000000000e+00) (0, 0, 0.00000000000000000000e+00) (0, 0, 0.00000000000000000000e+00) (0, 0, 0.00000000000000000000e+00) (0, 0, 0.00000000000000000000e+00) (0, 0, 0.00000000000000000000e+00) (0, 0, 0.00000000000000000000e+00) (0, 0, 0.00000000000000000000e+00) (0, 0, 0.00000000000000000000e+00) (0, 0, 0.00000000000000000000e+00) (0, 0, 0.00000000000000000000e+00) (0, 0, 0.00000000000000000000e+00) (0, 0, 0.00000000000000000000e+00) (0, 0, 0.00000000000000000000e+00) (0, 0, 0.00000000000000000000e+00) (0, 0, 0.00000000000000000000e+00) (0, 0, 0.00000000000000000000e+00) (0, 0, 0.00000000000000000000e+00) (0, 0, 0.00000000000000000000e+00) (0, 0, 0.00000000000000000000e+00) (0, 0, 0.00000000000000000000e+00) (0, 0, 0.00000000000000000000e+00) (0, 0, 0.00000000000000000000e+00) (0, 0, 0.00000000000000000000e+00) (0, 0, 0.00000000000000000000e+00) (0, 0, 0.00000000000000000000e+00) (0, 0, 0.00000000000000000000e+00) (0, 0, 0.00000000000000000000e+00) (0, 0, 0.00000000000000000000e+00) (0, 0, 0.00000000000000000000e+00) (0, 0, 0.00000000000000000000e+00) (0, 0, 0.00000000000000000000e+00) (0, 0, 0.00000000000000000000e+00) (0, 0, 0.00000000000000000000e+00) (0, 0, 0.00000000000000000000e+00) (0, 0, 0.00000000000000000000e+00) (0, 0, 0.00000000000000000000e+00) (0, 0, 0.00000000000000000000e+00) (0, 0, 0.00000000000000000000e+00) (0, 0, 0.00000000000000000000e+00) (0, 0, 0.00000000000000000000e+00) (0, 0, 0.00000000000000000000e+00) (0, 0, 0.00000000000000000000e+00) (0, 0, 0.00000000000000000000e+00) (0, 0, 0.00000000000000000000e+00) (0, 0, 0.00000000000000000000e+00) (0, 0, 0.00000000000000000000e+00) (0, 0, 0.00000000000000000000e+00) (0, 0, 0.00000000000000000000e+00) (0, 0, 0.00000000000000000000e+00) (0, 0, 0.00000000000000000000e+00) (0, 0, 0.00000000000000000000e+00) (0, 0, 0.00000000000000000000e+00) (0, 0, 0.00000000000000000000e+00) (0, 0, 0.00000000000000000000e+00) (0, 0, 0.00000000000000000000e+00) (0, 0, 0.00000000000000000000e+00) (0, 0, 0.00000000000000000000e+00) (0, 0, 0.00000000000000000000e+00) (0, 0, 0.00000000000000000000e+00) (0, 0, 0.00000000000000000000e+00) (0, 0, 0.00000000000000000000e+00) (0, 0, 0.00000000000000000000e+00) (0, 0, 0.00000000000000000000e+00) (0, 0, 0.00000000000000000000e+00) (0, 0, 0.00000000000000000000e+00) (0, 0, 0.00000000000000000000e+00) (0, 0, 0.00000000000000000000e+00) (0, 0, 0.00000000000000000000e+00) (0, 0, 0.00000000000000000000e+00) (0, 0, 0.00000000000000000000e+00) (0, 0, 0.00000000000000000000e+00) (0, 0, 0.00000000000000000000e+00) (0, 0, 0.00000000000000000000e+00) (0, 0, 0.00000000000000000000e+00) (0, 0, 0.00000000000000000000e+00) (0, 0, 0.00000000000000000000e+00) (0, 0, 0.00000000000000000000e+00) (0, 0, 0.00000000000000000000e+00) (0, 0, 0.00000000000000000000e+00) (0, 0, 0.00000000000000000000e+00) (0, 0, 0.00000000000000000000e+00) (0, 0, 0.00000000000000000000e+00) (0, 0, 0.00000000000000000000e+00) (0, 0, 0.00000000000000000000e+00) (0, 0, 0.00000000000000000000e+00) (0, 0, 0.00000000000000000000e+00) (0, 0, 0.00000000000000000000e+00) (0, 0, 0.00000000000000000000e+00) (0, 0, 0.00000000000000000000e+00) (0, 0, 0.00000000000000000000e+00) (0, 0, 0.00000000000000000000e+00) (0, 0, 0.00000000000000000000e+00) (0, 0, 0.00000000000000000000e+00) (0, 0, 0.00000000000000000000e+00) (0, 0, 0.00000000000000000000e+00) (0, 0, 0.00000000000000000000e+00) (0, 0, 0.00000000000000000000e+00) (0, 0, 0.00000000000000000000e+00) (0, 0, 0.00000000000000000000e+00) (0, 0, 0.00000000000000000000e+00) (0, 0, 0.00000000000000000000e+00) (0, 0, 0.00000000000000000000e+00) (0, 0, 0.00000000000000000000e+00) (0, 0, 0.00000000000000000000e+00) (0, 0, 0.00000000000000000000e+00) (0, 0, 0.00000000000000000000e+00) (0, 0, 0.00000000000000000000e+00) (0, 0, 0.00000000000000000000e+00) (0, 0, 0.00000000000000000000e+00) (0, 0, 0.00000000000000000000e+00) (0, 0, 0.00000000000000000000e+00) (0, 0, 0.00000000000000000000e+00) (0, 0, 0.00000000000000000000e+00) (0, 0, 0.00000000000000000000e+00) (0, 0, 0.00000000000000000000e+00) (0, 0, 0.00000000000000000000e+00) (0, 0, 0.00000000000000000000e+00) (0, 0, 0.00000000000000000000e+00) (0, 0, 0.00000000000000000000e+00) (0, 0, 0.00000000000000000000e+00) (0, 0, 0.00000000000000000000e+00) (0, 0, 0.00000000000000000000e+00) (0, 0, 0.00000000000000000000e+00) (0, 0, 0.00000000000000000000e+00) (0, 0, 0.00000000000000000000e+00) (0, 0, 0.00000000000000000000e+00) (0, 0, 0.00000000000000000000e+00) (0, 0, 0.00000000000000000000e+00) (0, 0, 0.00000000000000000000e+00) (0, 0, 0.00000000000000000000e+00) (0, 0, 0.00000000000000000000e+00) (0, 0, 0.00000000000000000000e+00) (0, 0, 0.00000000000000000000e+00) (0, 0, 0.00000000000000000000e+00) (0, 0, 0.00000000000000000000e+00) (0, 0, 0.00000000000000000000e+00) (0, 0, 0.00000000000000000000e+00) (0, 0, 0.00000000000000000000e+00) (0, 0, 0.00000000000000000000e+00) (0, 0, 0.00000000000000000000e+00) (0, 0, 0.00000000000000000000e+00) (0, 0, 0.00000000000000000000e+00) (0, 0, 0.00000000000000000000e+00) (0, 0, 0.00000000000000000000e+00) (0, 0, 0.00000000000000000000e+00) (0, 0, 0.00000000000000000000e+00) (0, 0, 0.00000000000000000000e+00) (0, 0, 0.00000000000000000000e+00) (0, 0, 0.00000000000000000000e+00) (0, 0, 0.00000000000000000000e+00) (0, 0, 0.00000000000000000000e+00) (0, 0, 0.00000000000000000000e+00) (0, 0, 0.00000000000000000000e+00) (0, 0, 0.00000000000000000000e+00) (0, 0, 0.00000000000000000000e+00) (0, 0, 0.00000000000000000000e+00) (0, 0, 0.00000000000000000000e+00) (0, 0, 0.00000000000000000000e+00) (0, 0, 0.00000000000000000000e+00) (0, 0, 0.00000000000000000000e+00) (0, 0, 0.00000000000000000000e+00) (0, 0, 0.00000000000000000000e+00) (0, 0, 0.00000000000000000000e+00) (0, 0, 0.00000000000000000000e+00) (0, 0, 0.00000000000000000000e+00) (0, 0, 0.00000000000000000000e+00) (0, 0, 0.00000000000000000000e+00) (0, 0, 0.00000000000000000000e+00) (0, 0, 0.00000000000000000000e+00) (0, 0, 0.00000000000000000000e+00) (0, 0, 0.00000000000000000000e+00) (0, 0, 0.00000000000000000000e+00) (0, 0, 0.00000000000000000000e+00) (0, 0, 0.00000000000000000000e+00) (0, 0, 0.00000000000000000000e+00) (0, 0, 0.00000000000000000000e+00) (0, 0, 0.00000000000000000000e+00) (0, 0, 0.00000000000000000000e+00) (0, 0, 0.00000000000000000000e+00) (0, 0, 0.00000000000000000000e+00) (0, 0, 0.00000000000000000000e+00) (0, 0, 0.00000000000000000000e+00) (0, 0, 0.00000000000000000000e+00) (0, 0, 0.00000000000000000000e+00) (0, 0, 0.00000000000000000000e+00) (0, 0, 0.00000000000000000000e+00) (0, 0, 0.00000000000000000000e+00) (0, 0, 0.00000000000000000000e+00) (0, 0, 0.00000000000000000000e+00) (0, 0, 0.00000000000000000000e+00) (0, 0, 0.00000000000000000000e+00) (0, 0, 0.00000000000000000000e+00) (0, 0, 0.00000000000000000000e+00) (0, 0, 0.00000000000000000000e+00) (0, 0, 0.00000000000000000000e+00) (0, 0, 0.00000000000000000000e+00) (0, 0, 0.00000000000000000000e+00) (0, 0, 0.00000000000000000000e+00) (0, 0, 0.00000000000000000000e+00) (0, 0, 0.00000000000000000000e+00) (0, 0, 0.00000000000000000000e+00) (0, 0, 0.00000000000000000000e+00) (0, 0, 0.00000000000000000000e+00) (0, 0, 0.00000000000000000000e+00) (0, 0, 0.00000000000000000000e+00) (0, 0, 0.00000000000000000000e+00) (0, 0, 0.00000000000000000000e+00) (0, 0, 0.00000000000000000000e+00) (0, 0, 0.00000000000000000000e+00) (0, 0, 0.00000000000000000000e+00) (0, 0, 0.00000000000000000000e+00) (0, 0, 0.00000000000000000000e+00) (0, 0, 0.00000000000000000000e+00) (0, 0, 0.00000000000000000000e+00) (0, 0, 0.00000000000000000000e+00) (0, 0, 0.00000000000000000000e+00) (0, 0, 0.00000000000000000000e+00) (0, 0, 0.00000000000000000000e+00) (0, 0, 0.00000000000000000000e+00) (0, 0, 0.00000000000000000000e+00) (0, 0, 0.00000000000000000000e+00) (0, 0, 0.00000000000000000000e+00) (0, 0, 0.00000000000000000000e+00) (0, 0, 0.00000000000000000000e+00) (0, 0, 0.00000000000000000000e+00) (0, 0, 0.00000000000000000000e+00) (0, 0, 0.00000000000000000000e+00) (0, 0, 0.00000000000000000000e+00) (0, 0, 0.00000000000000000000e+00) (0, 0, 0.00000000000000000000e+00) (0, 0, 0.00000000000000000000e+00) (0, 0, 0.00000000000000000000e+00) (0, 0, 0.00000000000000000000e+00) (0, 0, 0.00000000000000000000e+00) (0, 0, 0.00000000000000000000e+00) (0, 0, 0.00000000000000000000e+00) (0, 0, 0.00000000000000000000e+00) (0, 0, 0.00000000000000000000e+00) (0, 0, 0.00000000000000000000e+00) (0, 0, 0.00000000000000000000e+00) (0, 0, 0.00000000000000000000e+00) (0, 0, 0.00000000000000000000e+00) (0, 0, 0.00000000000000000000e+00) (0, 0, 0.00000000000000000000e+00) (0, 0, 0.00000000000000000000e+00) (0, 0, 0.00000000000000000000e+00) (0, 0, 0.00000000000000000000e+00) (0, 0, 0.00000000000000000000e+00) (0, 0, 0.00000000000000000000e+00) (0, 0, 0.00000000000000000000e+00) (0, 0, 0.00000000000000000000e+00) (0, 0, 0.00000000000000000000e+00) (0, 0, 0.00000000000000000000e+00) (0, 0, 0.00000000000000000000e+00) (0, 0, 0.00000000000000000000e+00) (0, 0, 0.00000000000000000000e+00) (370, 3, 5.00000000000000000000e-01) (370, 3, 5.00000000000000000000e-01) (370, 3, 5.00000000000000000000e-01) (370, 3, 5.00000000000000000000e-01) (370, 3, 5.00000000000000000000e-01) (370, 3, 5.00000000000000000000e-01) (370, 3, 5.00000000000000000000e-01) (370, 3, 5.00000000000000000000e-01) (370, 3, 5.00000000000000000000e-01) (370, 3, 5.00000000000000000000e-01) (370, 3, 5.00000000000000000000e-01) (370, 3, 5.00000000000000000000e-01) (370, 3, 5.00000000000000000000e-01) (370, 3, 5.00000000000000000000e-01) (370, 3, 5.00000000000000000000e-01) (370, 3, 5.00000000000000000000e-01) (370, 3, 5.00000000000000000000e-01) (370, 3, 5.00000000000000000000e-01) (370, 3, 5.00000000000000000000e-01) (370, 3, 5.00000000000000000000e-01) (370, 3, 5.00000000000000000000e-01) (370, 3, 5.00000000000000000000e-01) (370, 3, 5.00000000000000000000e-01) (370, 3, 5.00000000000000000000e-01) (370, 3, 5.00000000000000000000e-01) (370, 3, 5.00000000000000000000e-01) (370, 3, 5.00000000000000000000e-01) (370, 3, 5.00000000000000000000e-01) (370, 3, 5.00000000000000000000e-01) (370, 3, 5.00000000000000000000e-01) (370, 3, 5.00000000000000000000e-01) (370, 3, 5.00000000000000000000e-01) (370, 3, 5.00000000000000000000e-01) (370, 3, 5.00000000000000000000e-01) (370, 3, 5.00000000000000000000e-01) (370, 3, 5.00000000000000000000e-01) (370, 3, 5.00000000000000000000e-01) (370, 3, 5.00000000000000000000e-01) (370, 3, 5.00000000000000000000e-01) (370, 3, 5.00000000000000000000e-01) (370, 3, 5.00000000000000000000e-01) (370, 3, 5.00000000000000000000e-01) (370, 3, 5.00000000000000000000e-01) (370, 3, 5.00000000000000000000e-01) (370, 3, 5.00000000000000000000e-01) (370, 3, 5.00000000000000000000e-01) (370, 3, 5.00000000000000000000e-01) (370, 3, 5.00000000000000000000e-01) (370, 3, 5.00000000000000000000e-01) (370, 3, 5.00000000000000000000e-01) (0, 3, 0.00000000000000000000e+00) (51, 3, 5.00000000000000000000e-01) (51, 3, 5.00000000000000000000e-01) (0, 3, 0.00000000000000000000e+00) 
connections (connected_to_neuron, weight)=(0, 1.10648497519886646057e-01) (1, -5.42163433385944998344e-02) (2, -1.33069374064476386721e-01) (3, 6.48010838590998006215e-02) (4, 2.06884454070200042575e-02) (5, -2.64640042275635700708e-01) (6, -9.05352818223312677537e-02) (7, 5.71785172604741820379e-02) (8, 6.33125880792266421127e-02) (9, 1.31236344690395440038e-01) (10, -3.08603985215478229809e-02) (11, -3.24674575395602765804e-02) (12, -7.18910220097933733152e-02) (13, 1.08971186759037177993e-01) (14, -1.14749380637591491539e-01) (15, -8.56359549035519002080e-02) (16, -1.53766253676193131311e-02) (17, 2.62085815281715706071e-02) (18, -9.72624766943034901878e-02) (19, 1.10290131872666896662e-01) (20, 6.45262089131374422246e-02) (21, -2.91862358303828714479e-02) (22, -6.39634740048488914521e-02) (23, 1.31970562395729545946e-01) (24, 7.36633568953255907230e-02) (25, -3.06418818758282147929e-03) (26, 2.88891448099642391897e-03) (27, -1.88683625370670432497e-01) (28, 3.25288612425052720001e-02) (29, 6.72894030216243527187e-02) (30, -1.31349762247433745482e-02) (31, 4.26805358524450714763e-02) (32, 3.20116894688790704082e-02) (33, -4.81692934199594441358e-02) (34, -1.74717201870451560586e-01) (35, -4.99021273886978353196e-02) (36, -4.12016442509742855660e-02) (37, -7.07904506914399933581e-02) (38, 6.05881553947152234896e-02) (39, 5.11892118215469650935e-04) (40, -3.87613973852817331189e-02) (41, -7.00290904915825823673e-02) (42, -2.72357244206583269663e-02) (43, -4.23702291971010149008e-03) (44, 1.68134992541669997523e-01) (45, -7.34373127911206336621e-03) (46, 8.90557889338714492311e-02) (47, 2.88720194050180664624e-02) (48, -1.63148152933853873847e-01) (49, 8.24873826483844274637e-02) (50, -1.03056705611804980127e-01) (51, 3.84042638538148947691e-02) (52, -3.97125260980698419067e-02) (53, -5.18081893258653253254e-02) (54, 3.99315190854718296554e-02) (55, -1.39612518979630756411e-01) (56, -1.43500264209017302369e-02) (57, 2.25850244093007898605e-02) (58, -1.04868623995779286506e-01) (59, 1.17883810120917170705e-02) (60, -6.66654641826058824705e-02) (61, -6.76734852978013307068e-02) (62, -9.95954855860361615294e-02) (63, 4.79465508143305726985e-02) (64, -4.36500978637436171104e-02) (65, -5.38468426621226334272e-02) (66, -2.74035613815120961123e-02) (67, 6.59328363309153765714e-03) (68, 3.25698090451954982982e-02) (69, -1.75994475045239101574e-01) (70, -6.93590466163483271300e-02) (71, 1.25366205065108510253e-01) (72, 1.50076346735746671279e-02) (73, 5.44857920577311257739e-04) (74, -6.43409873691064716078e-03) (75, -8.78860029753621152526e-02) (76, -1.33138322237881578936e-01) (77, -2.14958773035280395480e-02) (78, 1.00355407776885480198e-01) (79, -8.00512478461278820241e-02) (80, -4.79862668761306832704e-03) (81, -9.92034988196878741995e-02) (82, -2.25994466836605643889e-02) (83, 7.14647706474679511590e-02) (84, -3.36399017733574967962e-03) (85, -8.65446280773217863080e-02) (86, -1.72782056678589188148e-02) (87, -1.32059110528587476258e-02) (88, 2.93479899961882895187e-02) (89, 1.14623353112224060646e-01) (90, -9.34106092751169070354e-02) (91, 8.08552921323723722269e-02) (92, -2.65666449239756810585e-02) (93, 3.02434355238457644455e-02) (94, 1.07833543385030927730e-01) (95, 6.59617216007743201178e-02) (96, -1.07010251804633013673e-01) (97, -1.49839598718073369055e-01) (98, -6.05274394387742484258e-02) (99, 6.70342064647851676451e-02) (100, -1.27424430563305074449e-01) (101, -8.46706881157931467996e-02) (102, 3.77643054842207448463e-02) (103, -2.07782834768295288086e-02) (104, 5.31056434651223721599e-02) (105, -8.79899506051141505614e-02) (106, 1.11294066809938807516e-02) (107, -9.34085244547381010616e-02) (108, -2.38957638365150902560e-02) (109, -5.81219435608489043421e-02) (110, -4.15006493196456230366e-02) (111, 3.85709803910368048685e-02) (112, -2.50515184001744127540e-02) (113, 4.65664066681340041431e-02) (114, 1.15777474360453658253e-01) (115, 4.19770688500108249408e-02) (116, 9.88557312270475635474e-02) (117, 2.33939774737402933491e-02) (118, -2.97425114806806785428e-02) (119, 2.66100266822561076774e-02) (120, 4.57893149932470863717e-02) (121, 6.45379257739674416783e-02) (122, -2.52554181666676189066e-02) (123, 2.51095266737278027813e-02) (124, 4.17558848857879638672e-03) (125, -2.88731270161916367401e-02) (126, -3.38249434846280908062e-02) (127, -1.55185038616550575324e-02) (128, 9.38442225570759389064e-03) (129, -1.29877722454984668998e-02) (130, -1.21725723153331012033e-02) (131, 7.08038556921756351281e-02) (132, -2.13098307267331581183e-02) (133, -1.30529815335407362031e-01) (134, -1.04779954807050781906e-01) (135, 5.99901669012657609570e-02) (136, -4.63900048710396278873e-02) (137, -1.74266595986136379852e-03) (138, 6.12206566194246487589e-02) (139, 9.58288391535261768750e-02) (140, 6.36614737728370544412e-02) (141, 6.40831929637809133427e-02) (142, 3.91167536459031961460e-02) (143, -9.57120608849619664005e-02) (144, -1.75075716126645410456e-03) (145, 5.97842782735824584961e-03) (146, 9.50374269989338604780e-02) (147, -1.14090723240199129473e-01) (148, -6.40398325009793878415e-02) (149, -1.51247154215861129289e-01) (150, 1.05206193463402888910e-01) (151, 1.65762612157363570242e-01) (152, -4.49134161801714379414e-03) (153, -1.22318059632945674853e-01) (154, -4.90925599766343784269e-02) (155, 5.10177925413020788570e-02) (156, 1.01805611616018962251e-01) (157, 1.13893508367508541901e-01) (158, -7.82904268331877650766e-02) (159, -4.51747177144576836372e-02) (160, -6.38725538840922008044e-02) (161, 3.77483641939614575356e-02) (162, 1.52531076518379049567e-01) (163, -3.82863309701215667746e-02) (164, -5.19931005038272511798e-02) (165, 1.42767257584330231612e-01) (166, -6.17686174809932708740e-02) (167, 1.15548175189785592987e-01) (168, -8.10647058270437190219e-03) (169, 7.93475623168385102435e-02) (170, 3.63841010772684228525e-02) (171, -4.65557644627853511876e-02) (172, 2.63475597579680455296e-02) (173, 2.44507614131513895117e-02) (174, -5.84712803171485787090e-02) (175, -2.48279193636178965865e-02) (176, 5.25505870301296654223e-02) (177, -2.78630487451954865497e-03) (178, 8.52246033900172367259e-02) (179, -1.07729664044949477453e-01) (180, -1.15154822001861806280e-02) (181, 3.15212302467132304828e-02) (182, 5.65713633953654482234e-02) (183, 9.53201854749935635625e-03) (184, -4.90428254398003957149e-02) (185, -2.41029704940794939350e-02) (186, 3.07596448715317634728e-03) (187, -8.83987545967102050781e-02) (188, -7.69103104057139719263e-02) (189, 1.01161452713481887083e-02) (190, -7.41679320124974741923e-03) (191, -4.02081496793304585258e-02) (192, -7.45102599904849532964e-02) (193, -9.75131704336239663045e-02) (194, 8.26016628125417623485e-02) (195, 4.97934221690467734844e-02) (196, -9.95467724211722276850e-02) (197, -6.84837283714009870117e-02) (198, 1.04939992939898724122e-01) (199, 1.94207393139801121063e-02) (200, 6.34533664751469328458e-02) (201, 6.77734110774675432148e-03) (202, 5.60611560999058830546e-02) (203, -5.86927082134800371521e-03) (204, 9.83779957068952604082e-02) (205, -7.47124570800924425740e-02) (206, 4.47773915536891428668e-02) (207, 9.55799007319557691886e-02) (208, -1.31398141384124755859e-02) (209, 1.37682350401890033625e-02) (210, -8.13613024261836959017e-02) (211, 4.28021497052781182968e-02) (212, -4.28289769452376914427e-03) (213, -1.41166422193301693833e-01) (214, 3.38344164236416763969e-02) (215, 3.81711864638826989249e-02) (216, -2.33540034490123775412e-02) (217, 7.77041347913969976391e-02) (218, 4.38603190078851248868e-02) (219, 9.22269513922832906427e-02) (220, 3.92562801176102801892e-02) (221, 5.76545360319197369714e-02) (222, 9.17599152572737691846e-02) (223, -1.77454489519483192550e-02) (224, -4.03518966154434444160e-02) (225, 7.53639065296268922944e-02) (226, 4.10956915933787230583e-03) (227, -1.09103969708223821899e-01) (228, 1.43395544312123063291e-01) (229, -4.72250543534755706787e-02) (230, 2.13344481063718685587e-02) (231, 8.24596266043327863482e-02) (232, 4.12220896160988697909e-02) (233, -3.68604885570466209166e-02) (234, -2.27620306171586184174e-02) (235, -2.85676682360389922258e-03) (236, 5.19432040788197005310e-02) (237, 1.39334986166919378575e-02) (238, 3.78150785684434678768e-02) (239, -1.26722108702234603772e-01) (240, 1.09175254862234616393e-01) (241, 3.04129873753276082360e-02) (242, 1.50208873666621157278e-02) (243, -4.11006322813100150038e-02) (244, 9.07330914277991174011e-02) (245, -2.12982542429824249497e-02) (246, 9.05675764371635244609e-02) (247, -6.66504798816086041491e-02) (248, -8.77046680382108229113e-02) (249, -8.50044297099226617287e-03) (250, -7.73591010955970576068e-02) (251, 3.48483692345158413417e-02) (252, 1.31916544254528107089e-02) (253, -1.14703185685304451247e-01) (254, -3.03298423552254732549e-02) (255, 5.48935752037434023659e-03) (256, -1.66172719687785880316e-01) (257, 1.58635937722683036111e-02) (258, -1.37702385449310099608e-01) (259, -9.53431914675448993757e-02) (260, -6.40466165822138194796e-02) (261, 4.94921287516246269367e-02) (262, 8.47152723149487418830e-02) (263, 7.48662769892867591137e-02) (264, -8.46022519265311884196e-02) (265, -5.49566849421171260692e-02) (266, -9.75606534206593239977e-03) (267, -4.13542724689805740734e-02) (268, -4.97513064394667151036e-02) (269, 2.28242607228697561017e-02) (270, -1.36072965736840745254e-01) (271, 3.62845390151211658059e-02) (272, -9.26130857356728814933e-02) (273, 3.50074454771377788220e-02) (274, -1.94738771403058091858e-01) (275, -1.68063352533621868101e-01) (276, -5.90089469723209525398e-02) (277, 1.68475661960386102756e-01) (278, -2.25269473279885168449e-02) (279, 6.07830448910944617230e-03) (280, 2.36388291960149855842e-03) (281, 2.68619974877693894200e-02) (282, -5.28444349765777587891e-03) (283, -4.79541718959808349609e-02) (284, -4.24125499588153057062e-02) (285, 1.55116277240822775241e-01) (286, -6.09490252197446777394e-02) (287, 1.22061439527801643412e-01) (288, -2.31579977024804678498e-01) (289, -1.96691469911761840361e-01) (290, 2.87208216948436345639e-02) (291, 1.26076332450171135768e-01) (292, -7.72829415403392117057e-02) (293, 6.13178710930838144488e-02) (294, 1.85390305894577098189e-02) (295, 7.51170657485821513522e-02) (296, -1.05583314303207859153e-01) (297, -6.52734163690023017068e-02) (298, 8.85984166100044732983e-03) (299, 6.04644008259473259015e-02) (300, 6.49098662000317239151e-02) (301, -8.86389762586193147298e-02) (302, -3.85689264128846395763e-02) (303, 1.92682820966462942103e-01) (304, 1.32950804285580037600e-01) (305, 2.04066937135443660090e-02) (306, 7.06641751742999452146e-02) (307, -9.88244327006050499174e-02) (308, -4.93288665070784337896e-02) (309, 2.79435058856900668534e-02) (310, 1.97733416908787484889e-01) (311, -1.82313853937184161547e-01) (312, -5.61956056416533789033e-02) (313, 2.25231333494653324090e-02) (314, -1.36581510305404663086e-02) (315, -2.58349347936282728450e-03) (316, -6.67653492403093434815e-02) (317, 9.84050620985683736908e-03) (318, 1.41680442179752882903e-02) (319, 8.97725845863105581524e-02) (320, -4.38009946034782701729e-02) (321, -4.90004962614388750453e-02) (322, 2.93134589302472721439e-02) (323, -5.31292467502771439958e-02) (324, -5.08265425029338080432e-02) (325, 8.06938771564783170753e-03) (326, -1.19063846595911446147e-01) (327, -4.51420643565638400607e-03) (328, -1.47751785110204036933e-01) (329, -4.21560324138062492150e-02) (330, -8.29757339207175814710e-02) (331, 2.03536799908744653331e-02) (332, 8.28619931709553142474e-02) (333, 8.69270908553014393094e-02) (334, 5.77280601481148028520e-02) (335, 8.37870044783780021369e-02) (336, -2.20089808007859835670e-02) (337, 3.59263938869281082567e-02) (338, -1.01119461591117482113e-01) (339, 5.14503052500535490443e-02) (340, -1.51523087128105582444e-01) (341, 1.09982690562514685145e-02) (342, -1.99891223199362699781e-02) (343, -2.35199811335061348405e-01) (344, -2.88416714360029968756e-02) (345, -1.11840214618358808896e-02) (346, -8.17237884176909984424e-02) (347, -8.55296883823826320503e-02) (348, -1.67526866027159382355e-01) (349, 5.97261093981769630723e-02) (350, 7.68897501499872931818e-02) (351, 8.59017006022272855068e-04) (352, -3.64824666185639828742e-02) (353, -5.14081195389716194555e-02) (354, 7.44778236176808494662e-02) (355, 6.64798691868782043457e-02) (356, 9.31515768170356750488e-02) (357, -1.12057714514650685889e-01) (358, -1.83133353698105225127e-02) (359, 8.34885776913549676470e-02) (360, 1.58202869661348277663e-02) (361, 3.43918797813252408169e-02) (362, 5.78636860482325578181e-03) (363, 5.30584442354704935441e-02) (364, 6.82865495042749431898e-02) (365, 2.54449940918387339586e-03) (366, -3.17371153636458736003e-02) (367, -7.93811704111838101205e-02) (368, -8.90676895737025076105e-02) (369, -7.38397049319518099242e-03) (0, 7.19079835006435352796e-02) (1, -4.08825890929395835416e-02) (2, 4.12730355522946887326e-02) (3, -1.00511272193143597065e-01) (4, 3.12132430445352139492e-02) (5, 1.56630378065346992367e-01) (6, 3.67735752885584438188e-02) (7, 2.70973542893122604919e-03) (8, -1.75585081596968360651e-02) (9, 3.17478608295288164398e-02) (10, 1.31054689329016156585e-02) (11, -5.22477703970805271161e-02) (12, -2.52388189250209241110e-02) (13, -1.25551837971443036590e-01) (14, 7.93855180523121879699e-03) (15, -3.31514966743415018247e-02) (16, 8.66641097974846369434e-02) (17, -1.49586062914039141791e-02) (18, -5.67589633076477848017e-02) (19, -9.83543740705323937812e-02) (20, -1.63297067731098081989e-02) (21, 4.62924278927621668522e-02) (22, 3.63175580518171753353e-02) (23, -1.10318634472093904386e-01) (24, -3.93741180430074652619e-02) (25, -5.07641845448604978226e-04) (26, 7.77266020247200234428e-02) (27, -9.24046028658655205223e-02) (28, -1.51359750218831093371e-02) (29, 3.61090331459400296077e-02) (30, -3.01206933245095967444e-02) (31, -1.59714619927345154171e-02) (32, -8.09368452301029023266e-02) (33, -6.36176323594646597748e-02) (34, 3.44221705075328163193e-02) (35, 5.60361821156889691742e-02) (36, -9.31716470330339191497e-02) (37, -5.73210477317975738987e-02) (38, -2.63913557148670457897e-02) (39, 3.92287544066641929996e-02) (40, -1.23460227428060273502e-01) (41, -9.97451817447180394405e-02) (42, 4.19355713639728011621e-02) (43, -3.47258106363885488133e-02) (44, -1.32729204856596616491e-01) (45, -3.77448016590531398862e-02) (46, 4.22490162567800038584e-03) (47, 8.24761783632877304440e-02) (48, 7.21978439093326485043e-02) (49, 6.70254110380517631462e-02) (50, -5.62228576861865739223e-02) (51, -4.86129073538345279903e-02) (52, 5.70121074146185957687e-02) (53, -9.29823657493253491468e-02) (54, -2.67528320020753961062e-02) (55, -4.78862324621205995290e-02) (56, 2.47566267940380752011e-02) (57, -8.43460259151069258188e-02) (58, -5.56814104126941156192e-02) (59, -6.95952216387592526026e-02) (60, -1.08347909707952591574e-01) (61, 7.15191314365783842311e-02) (62, 6.15828778470678683821e-02) (63, -3.15138168846294877690e-02) (64, -5.95685947397592702179e-02) (65, 1.81044935368976714352e-03) (66, -6.73954844287780324708e-02) (67, -2.45942315890924044497e-02) (68, 6.21817725343063801291e-02) (69, 7.56248796983879090217e-02) (70, -2.87740267824755160952e-02) (71, -1.17403838245123237627e-01) (72, -1.36300626284091230822e-01) (73, -7.31795703430255239930e-02) (74, 7.99151896513471994565e-03) (75, -7.74955063502531515951e-02) (76, 2.16708503457209225584e-02) (77, -7.21871974039012542779e-02) (78, -9.57210126480017714501e-02) (79, -6.90532191070207784084e-03) (80, -1.09336042171859937344e-01) (81, -3.76088150568988158207e-02) (82, -1.33860996491918047419e-02) (83, 6.28785292164685122307e-02) (84, -1.58299433493266500372e-02) (85, -8.51681430485445450929e-02) (86, -4.29696861726108977897e-02) (87, -3.01250370002997536201e-02) (88, -4.19283435134513507436e-02) (89, -2.66419818713243515551e-02) (90, 1.06209601969565990698e-02) (91, -2.73810584562980616208e-02) (92, -4.56742224294397966555e-02) (93, -6.93540283948465285935e-02) (94, 1.27718464030574397478e-02) (95, 3.22871498665582750201e-05) (96, 5.21200097357201463932e-02) (97, 1.23385915837531140449e-01) (98, -8.92904718870773939088e-02) (99, 1.54674057767649336670e-02) (100, 9.51959597092795345441e-02) (101, 1.95242397221877272452e-03) (102, 2.73145208336322276033e-02) (103, 7.69242122769355773926e-02) (104, 3.39249009636332990447e-02) (105, -7.12226803888403037224e-02) (106, -8.96193241374770299679e-02) (107, -5.03576423379802351477e-02) (108, -1.65903522110256024247e-02) (109, -3.68367479345857520845e-02) (110, 2.54960161694641300467e-02) (111, -8.45951241195591792377e-03) (112, 3.11500936135239228642e-02) (113, -4.13446663412910808688e-02) (114, -5.73900322503772611360e-02) (115, -7.97161744902551150371e-02) (116, -3.28678489431821069244e-02) (117, -1.35560364129145988210e-02) (118, -2.68560898610207612891e-02) (119, 1.21016011387968247526e-02) (120, 5.27300738416949035803e-02) (121, 5.28502540408831433805e-02) (122, 9.97014037956068938096e-02) (123, -4.39467125718296866554e-02) (124, 9.03045609593391418457e-02) (125, 6.09556048855221417615e-03) (126, 7.20728019140369491335e-02) (127, 4.95294001072510148287e-02) (128, -9.57265257501000756124e-03) (129, -9.95895789276815129876e-02) (130, -4.24258415660716259321e-02) (131, -4.72160530784976953389e-02) (132, 6.70729596283501598025e-03) (133, 1.11407660216563647593e-01) (134, -3.57226530457103660932e-02) (135, -8.70905314203404279372e-02) (136, -8.77127822219136571436e-02) (137, -2.52094037915825512630e-02) (138, -3.71483546197980685211e-02) (139, -2.43499531755455404791e-02) (140, 2.86089563485857588387e-02) (141, -6.98881349401039575486e-02) (142, 6.99330194502752605645e-02) (143, -2.79971407520434936722e-02) (144, -1.22074906149704127956e-02) (145, -8.06108415126800537109e-02) (146, -3.45468398250899505486e-02) (147, 1.00649187232217468546e-01) (148, -1.02709602504201594209e-02) (149, 1.00332651455142779495e-01) (150, -1.79527676106682743118e-02) (151, -7.46721786908770140956e-02) (152, -6.66888922801485862363e-03) (153, -3.19319878759708342814e-03) (154, 4.94501783897831892478e-02) (155, 1.56921998139413626516e-03) (156, 5.59125132782472764048e-02) (157, -3.82610383756523744769e-02) (158, -5.23436995633832988228e-02) (159, -5.50990167044077602115e-03) (160, -8.94151784572122174111e-03) (161, -7.73183545468846510074e-03) (162, 3.88790563409652789595e-02) (163, 1.22178099554734950760e-01) (164, 2.10478195273759334516e-02) (165, -8.20965075921401554737e-02) (166, -8.59692171216011047363e-02) (167, -2.22591547052754116023e-03) (168, 3.74521733178956079020e-04) (169, -1.05102457925005353390e-02) (170, -8.97924507364422225253e-02) (171, -5.44574304139171586070e-02) (172, 1.99956374479524426335e-02) (173, 5.81923054419955163019e-02) (174, 3.57226763165841530723e-03) (175, -1.07927967153169199199e-01) (176, -8.88134584475818583682e-02) (177, -1.30713701340595178646e-01) (178, 5.14197884689082881926e-02) (179, 2.48339503012608361909e-02) (180, 7.23509842867619545892e-02) (181, -4.32522498407101191331e-02) (182, 8.85024829934178830504e-02) (183, -1.79859795272191880407e-03) (184, 1.29656674770350227588e-02) (185, -7.72743482673723860316e-03) (186, 6.81105688848370471877e-02) (187, -8.25005769729614257812e-03) (188, 8.32293899386470775736e-02) (189, -8.01686883598897448433e-02) (190, 6.13304077859142329765e-02) (191, -2.64233376425223598361e-02) (192, 4.41101033030473488328e-02) (193, 6.43734930821494855113e-02) (194, -5.16043608471261974757e-02) (195, -6.84044758384573375887e-02) (196, 9.44240523689388461248e-02) (197, -2.61186699271180149118e-02) (198, 5.96158202782440596601e-02) (199, -2.36284752263552534635e-02) (200, 7.68884904202853242117e-02) (201, 5.60485015436610542472e-02) (202, 2.79697852363193534553e-02) (203, 2.98837430665475911606e-03) (204, 3.52954058208213017345e-02) (205, -6.08367954937982374775e-02) (206, 7.19948428074145777705e-03) (207, 4.68348196914464831586e-02) (208, -6.47385567426681518555e-02) (209, -3.35966203667344837092e-02) (210, -5.89968186994327820072e-02) (211, -7.59601660412669021927e-02) (212, -3.90874028478917050211e-03) (213, -6.93714031290117300044e-02) (214, -1.66498395267964949262e-02) (215, -9.05515340003415492021e-02) (216, 1.93154794657253818524e-02) (217, -1.18592023459643172018e-02) (218, 5.11084446438268402008e-03) (219, -5.21795674571856188395e-02) (220, 6.62308815964173999702e-03) (221, 1.11678555890653008476e-02) (222, 4.38902844834943434149e-02) (223, -2.08495474597312803466e-02) (224, -7.33598978895467906947e-02) (225, -8.70822110951598032935e-02) (226, -1.54826438836885450084e-02) (227, -5.37338896298085316738e-02) (228, -3.65479161878306813005e-02) (229, -5.00954873859882354736e-02) (230, 3.42013828680185483222e-02) (231, -4.69700890114654462382e-02) (232, -8.82922036039347907233e-02) (233, -6.75906535641786349045e-02) (234, 4.75368669945299762714e-02) (235, 5.24509735997398390817e-02) (236, -1.75662959955459919981e-02) (237, -8.62249777779286463719e-02) (238, 3.15550045801623550018e-03) (239, 1.80310742657176989456e-02) (240, -1.11088574654528947361e-02) (241, 3.61850593357078906265e-02) (242, 6.21974336947450148760e-02) (243, -1.07837798425408248892e-01) (244, 5.99433879795466459384e-02) (245, -6.88489473264629892046e-02) (246, -8.20947771290157363167e-02) (247, -7.19118822016408115738e-02) (248, 3.94340318148463028769e-02) (249, -7.95364640686550654347e-03) (250, 4.25359518490161098159e-02) (251, -3.55056840191712644317e-02) (252, -7.58618904232577495605e-02) (253, -2.49309695135950908085e-02) (254, 4.71163011079604732156e-03) (255, -2.85049424094215853032e-02) (256, 2.66572889730496871696e-02) (257, -9.76757059534463373263e-02) (258, 2.36138985315827443223e-02) (259, 7.69705149873543548189e-02) (260, -5.77211328576181237349e-02) (261, -7.86419730102078384792e-02) (262, -6.26486744670274597890e-02) (263, -5.71970209123025055686e-02) (264, 5.26229951526896617964e-03) (265, 8.57549011990078186018e-02) (266, -5.44292875834280417968e-02) (267, -6.85303059844542122869e-02) (268, -3.28482784623225637644e-02) (269, 1.12592823974573628260e-02) (270, 1.10006111510168549938e-01) (271, 1.26385406385446149441e-02) (272, 1.72318704962187881080e-03) (273, -5.94652821567830669469e-02) (274, 8.08792073239240905114e-02) (275, -4.48206759840567361963e-02) (276, 7.55966459426891598805e-03) (277, 3.32262142997621634510e-02) (278, 3.53946813840577065302e-02) (279, -9.04459669405949517884e-02) (280, -3.24856986945511617276e-03) (281, -3.86002556125377913054e-02) (282, -2.61598452925682067871e-02) (283, 1.76007524132728576660e-02) (284, 9.18578581273196553836e-02) (285, 3.22385069849881605863e-02) (286, 3.99208786818904884375e-02) (287, -7.55043571647205924435e-02) (288, 1.83673226308617598690e-01) (289, 9.44994993470818327175e-03) (290, -3.83605732591479064997e-02) (291, -8.96962480454449317957e-02) (292, 9.97193801558976244959e-02) (293, -2.01717477280552708735e-03) (294, -5.33854683330329312513e-03) (295, -4.04512308718741817049e-02) (296, 3.51222520945320727803e-03) (297, 5.33971390732849993110e-02) (298, -3.20768292765705939629e-02) (299, 1.48363189346582980549e-02) (300, -2.96351004115148197737e-02) (301, -7.77788959932833728894e-02) (302, -3.42241602393769731028e-02) (303, 4.22213511149707731995e-02) (304, -2.62163738278771048240e-02) (305, 9.46480204286753168397e-02) (306, -5.83585117217221213681e-02) (307, 1.06544614930920059082e-01) (308, 7.55050740688777560772e-02) (309, 5.26409239582892318765e-02) (310, -1.32263082643896578983e-01) (311, 2.25403068853226437249e-03) (312, -7.13990321609644928991e-02) (313, -3.12207189420514730216e-02) (314, 7.56976976990699768066e-02) (315, 1.23225020154867581645e-01) (316, -3.45774911133952395081e-02) (317, 5.73678265753182550779e-02) (318, -4.07609774570822577799e-02) (319, -4.26797864356832645782e-02) (320, -6.69068876304299980928e-02) (321, 2.60891776984093944070e-02) (322, -4.20796152207618678887e-02) (323, -7.60063691773086580472e-02) (324, 1.18416277765193131422e-01) (325, 9.92438601375027484863e-02) (326, -3.05397069823145107803e-02) (327, -1.86661832880428979475e-02) (328, 2.76030629354482998083e-02) (329, 7.94395488545526912150e-02) (330, -9.62878043492707696993e-02) (331, -8.82003843029500328443e-02) (332, 5.16013327583105252394e-02) (333, -4.96138618121717278608e-02) (334, 4.39068716550903084817e-02) (335, -6.10150117365718946960e-02) (336, -6.57352931441169546778e-02) (337, -1.02691114805670238863e-01) (338, -6.59022964254368376347e-02) (339, -6.19631209679394542866e-02) (340, 9.22454076381158255549e-02) (341, -1.02931487504020970254e-03) (342, -4.81057442553612796265e-02) (343, -2.33328390642342994865e-02) (344, 4.34127465616192392828e-02) (345, -3.84265128469509290032e-02) (346, -1.31776653721650455209e-01) (347, -1.50862861465077043727e-02) (348, -8.75459335595713677991e-02) (349, -3.66637333759328581939e-02) (350, -2.33242884773370504070e-02) (351, -2.32558162024710038396e-03) (352, 5.19857988541595691934e-02) (353, -9.39250414604508587768e-02) (354, 5.13717078764754173786e-03) (355, 7.01938793063163757324e-02) (356, -9.79699566960334777832e-02) (357, 1.00268378131111723928e-01) (358, -5.27810724904884259745e-02) (359, 2.79746281517051151311e-02) (360, 2.00360271675974234429e-02) (361, -4.47751858514249187482e-02) (362, 2.30918117459487544363e-02) (363, -2.21903873903830407832e-03) (364, -1.13954068288513940543e-02) (365, -4.70301432774963921318e-03) (366, 4.44536791841973685790e-02) (367, 6.43457203381587738988e-02) (368, -1.55628289909347950620e-02) (369, -1.30209014016757190779e-01) (0, -2.97885111843736649292e-03) (1, -6.62528957360885295547e-02) (2, 2.62193215778181061559e-02) (3, -1.12407429090386909443e-01) (4, 3.13326194274353639346e-02) (5, 1.71982757961865129204e-01) (6, 4.23836316485111802566e-02) (7, -1.61408010639323196145e-01) (8, -1.25149523964449838065e-01) (9, 2.62325468349071909413e-02) (10, 9.17923309682213833804e-02) (11, 2.04704749858304169141e-01) (12, -5.38493524140520353483e-03) (13, -5.35504154064189996642e-02) (14, 1.68278424597457398892e-01) (15, 1.66857919036757035292e-01) (16, 8.01219254902717226141e-02) (17, 9.49306952003332316092e-02) (18, 7.22385777992176486562e-02) (19, -8.16761106198919395460e-02) (20, 2.66484529984992030149e-02) (21, 1.15591166540205542157e-01) (22, -1.07360895455861582448e-01) (23, -2.05053127654758721166e-01) (24, -3.64073802449063455011e-01) (25, -2.22821713435604362719e-01) (26, -5.11765990758030198116e-02) (27, 2.28704194256636461624e-01) (28, 7.64716988454502005768e-02) (29, -1.17476489341993603488e-01) (30, 4.25751943096201804217e-02) (31, -1.21273530895179615374e-01) (32, 6.96684182440634319766e-02) (33, 5.01543845215108273494e-03) (34, 2.88880901609683771181e-01) (35, -1.39512180761033038195e-02) (36, -1.06454767037038391941e-02) (37, 8.62555131969187233176e-02) (38, 7.58447738017839906410e-02) (39, 1.38895683065512087762e-01) (40, 1.05947052605335351183e-02) (41, 6.00663573516433471622e-02) (42, 6.92120096052190186819e-02) (43, 5.54287611347949946139e-02) (44, -1.23720132889898193351e-01) (45, 3.19527886107684802597e-02) (46, 2.94147670048539901233e-02) (47, 3.39520057486024026683e-02) (48, 2.57000173109510010594e-01) (49, 1.08456265187200168176e-01) (50, 1.01773956153006460423e-02) (51, -5.21265682792091625958e-03) (52, 1.03816500925552238077e-01) (53, 1.04952133477189984978e-01) (54, 1.72015334781770584671e-01) (55, -3.67810872413062359132e-02) (56, 7.61907835934013399903e-02) (57, -4.25739363595161110498e-02) (58, 1.95779234730493439942e-01) (59, -5.65725844335610641989e-02) (60, 1.00538982147894834229e-01) (61, 6.59273661153025603010e-02) (62, 1.14849188399892374046e-01) (63, 4.41866279909492107314e-02) (64, -6.86296047686118099174e-02) (65, 1.05773146483292543318e-01) (66, 2.87349314654877160957e-02) (67, 8.53279181100011913097e-02) (68, 6.98223280002584628656e-02) (69, 1.08128669064212243334e-01) (70, 9.41808487206888256260e-02) (71, -1.71069566956623918264e-02) (72, -1.58686016781207278603e-01) (73, 1.69276012565700739732e-01) (74, 8.12339730364975004528e-02) (75, 1.12565756593999810597e-01) (76, 1.10805162938066876360e-02) (77, -2.51269902975008972701e-02) (78, 2.23334520139043708753e-02) (79, 2.45157808025706136501e-01) (80, 7.39563620046980452205e-02) (81, 3.69656537590713971109e-02) (82, -1.12928410612300758609e-01) (83, 5.83956022295407245482e-02) (84, -1.68498500050239113923e-02) (85, 1.03974192865592215962e-01) (86, 1.20608366498200919592e-01) (87, 7.52675777398311013355e-02) (88, 5.07235034552229041571e-02) (89, -8.33972635302886594610e-02) (90, 1.22927053873389396932e-01) (91, 2.45681828644108909976e-02) (92, -6.44778999412186637485e-02) (93, -1.43291166013885251651e-01) (94, -9.64162313292311057289e-02) (95, -1.34724594094222688279e-01) (96, 1.62263868507546621389e-01) (97, 1.09270488629460524321e-01) (98, -5.04713395700568320801e-02) (99, 6.35355464544104381330e-02) (100, 1.06666864222033502818e-01) (101, 8.04173565234768128462e-02) (102, 4.80790379574370096982e-02) (103, 9.46213677525520324707e-02) (104, -1.34134369943317538487e-01) (105, 3.68466140395107069616e-02) (106, -4.11062269310327049743e-02) (107, -7.70496947899612927291e-02) (108, -8.62834669163033661510e-03) (109, 1.08040302644281438482e-01) (110, -8.91649230193979486225e-02) (111, 2.09566382955090918516e-01) (112, -3.27661710262525064305e-03) (113, -7.05688663473884141009e-03) (114, -1.79522769829934730756e-01) (115, -1.53767282744865646515e-01) (116, -8.68772681422231574100e-02) (117, 4.70135866721089618059e-02) (118, 9.36060670785077569844e-02) (119, 8.00834064506295989494e-02) (120, 1.09847303541140930983e-01) (121, -2.76003569937290187120e-02) (122, 3.57327868752157912224e-02) (123, -3.64895460767677981551e-02) (124, -2.19363123178482055664e-02) (125, 2.89556038348628072554e-02) (126, 1.02312621795914403255e-02) (127, -3.57871430979291096919e-02) (128, -4.32139945984770165732e-02) (129, 9.48220018826875787887e-02) (130, 6.66040487159702404574e-02) (131, 1.71157937851224677128e-02) (132, 1.92287521176164460934e-02) (133, 7.61185941787013431448e-02) (134, 7.80891835632313013882e-02) (135, 5.78802728869424049085e-02) (136, -1.52395420273171211534e-01) (137, -3.23303953553093076367e-02) (138, 9.05634065444345659479e-02) (139, -3.83115784831454617848e-03) (140, -3.52609578984953223046e-02) (141, -3.83971459619990018730e-02) (142, -2.95646508246169420486e-02) (143, 4.73849795753820135502e-02) (144, -1.84399041820681348913e-02) (145, -3.23392525315284729004e-02) (146, 3.73525744730250630621e-02) (147, 3.22820413435173703132e-01) (148, 8.72510543451534004156e-02) (149, 1.57670117838901030494e-01) (150, 9.48740292699408044319e-02) (151, -1.67967536350520002530e-01) (152, 3.19433356574837234998e-02) (153, 1.88812335007011555810e-01) (154, -5.51168720529457978330e-02) (155, -9.61438196315268917003e-02) (156, -1.88050186930079736569e-02) (157, 7.60424776226133330992e-02) (158, -8.32677997463439761860e-02) (159, -4.20559141479065617952e-02) (160, 4.56488260919398411430e-02) (161, -2.27780531035139920115e-02) (162, -3.06141539508490712063e-01) (163, 1.64917178004935355284e-01) (164, 6.66232230628451826959e-02) (165, -7.16411695139084897521e-02) (166, -3.06600481271743774414e-02) (167, 4.38817192825852950278e-02) (168, -9.09697479078467596825e-02) (169, -5.05925691238810204542e-02) (170, -3.89266183676889587773e-02) (171, -8.68606519638810692374e-02) (172, 9.42383030933160201030e-04) (173, -1.28181716323755384712e-01) (174, 1.11056994911865811182e-01) (175, 6.10696295692640320207e-02) (176, 8.81716857811421089730e-02) (177, 2.81515163863255216126e-02) (178, -6.90929767937239341924e-02) (179, 1.12651652468314725231e-01) (180, 1.67171888677113966715e-01) (181, -2.94439161149019669461e-02) (182, 1.04535545788977794236e-03) (183, -1.02770813894328457566e-02) (184, -3.54871275045350667576e-02) (185, 7.01830980497070849866e-02) (186, 6.03711979220273309288e-02) (187, 6.83801248669624328613e-02) (188, -4.39997540601640285685e-02) (189, 5.86679494714712895798e-02) (190, 8.07307554358438622666e-02) (191, -2.25691781300656549303e-02) (192, 7.07080787330047616512e-02) (193, 9.06966728711269959406e-02) (194, 3.76350080323481078759e-02) (195, 1.70518580860329671545e-01) (196, 1.08611703580191135132e-01) (197, -3.18256310903029318582e-02) (198, -2.74386926208310469311e-02) (199, 1.76443905606946151166e-02) (200, 6.21719295157370233085e-02) (201, 2.49347556661742783546e-02) (202, -6.81547869394932559484e-02) (203, 9.86528949633320572255e-05) (204, 6.46457816078158387096e-02) (205, 7.50280457921675969502e-02) (206, 4.25782376878193757896e-02) (207, -1.72438404565105896094e-01) (208, -4.19495813548564910889e-02) (209, 6.05578182013085455915e-02) (210, 3.18934857888842557272e-02) (211, -4.53379512485665367438e-02) (212, -3.18194777877423146117e-02) (213, -2.39448957012252973409e-02) (214, 5.54637693369282383515e-02) (215, -3.39930537759525058794e-02) (216, 1.87297799474757414862e-01) (217, 3.03706144518439240254e-02) (218, -6.63572812747953155732e-02) (219, -6.61277849372325227106e-02) (220, -7.43822239866497730842e-02) (221, -7.81902110495410890278e-02) (222, 1.17509190092238993697e-01) (223, 1.59484874380093795410e-02) (224, 7.29874866326462173882e-02) (225, 9.30856090810909669875e-02) (226, -9.95333022939890038616e-02) (227, 6.77031378040729575618e-02) (228, -4.10363083951313309394e-02) (229, -9.10646393895149230957e-02) (230, 8.22365079851947178291e-02) (231, 6.66311061531350001808e-02) (232, 1.18161521510831521442e-01) (233, 1.27720200403503736375e-01) (234, 9.69354160633919131884e-02) (235, -4.04271925384158958838e-02) (236, 2.89633571573775124020e-02) (237, 1.18522861685064470616e-01) (238, -4.56974505640804912199e-02) (239, -4.43211458042115091782e-02) (240, 3.89781482486084643324e-02) (241, 1.84399033414403917819e-01) (242, 1.07856567990259513690e-01) (243, -3.25830629337003699342e-02) (244, -5.42704054043247063888e-02) (245, -1.14068063956993148711e-01) (246, -6.82285309255167421449e-02) (247, 1.66870226763940025794e-02) (248, 8.60692665387031152768e-02) (249, -3.88563220809451312365e-02) (250, -1.40241552646264630577e-02) (251, -2.12680432057147927871e-01) (252, -1.23834898292337625136e-02) (253, 5.52929132103902667983e-02) (254, 1.04284750092978363567e-02) (255, 3.10107348690598708107e-02) (256, 1.55422483240872627563e-01) (257, -1.69000627551815163496e-01) (258, -1.32362088536931172406e-02) (259, -1.65577726569269105539e-02) (260, 5.80928933500597221434e-03) (261, 2.02018698189165013535e-01) (262, 6.09640927870468921773e-03) (263, 1.29393710483088730800e-01) (264, 1.64058572727846907480e-01) (265, -9.62937431072965893675e-02) (266, 1.00207221038847854588e-01) (267, 7.32387244706130813299e-02) (268, 9.65945109532213574965e-02) (269, 1.41325130558539374670e-01) (270, 3.42522463903677354402e-01) (271, -7.25255009613781365108e-02) (272, 9.13706579229484894267e-02) (273, -1.42066194202123685653e-01) (274, 2.19517945630205352225e-01) (275, -2.17614460500890546935e-02) (276, -1.72565829899435198638e-03) (277, 2.37958432834345229301e-01) (278, 4.62583944293399954018e-02) (279, 3.90753694924787300935e-02) (280, -4.19188291254552966580e-02) (281, 9.20856613703970455775e-02) (282, -6.90500214695930480957e-02) (283, -4.00537736713886260986e-02) (284, 1.90160764459242098701e-01) (285, -3.09816780638078152765e-02) (286, -6.49031627682325751305e-02) (287, -8.73594066862762863579e-02) (288, 5.77619241752503675968e-01) (289, -8.31789762820982492286e-02) (290, 2.89390069776929048651e-01) (291, -4.87440265355549434689e-02) (292, 2.26598065488907485232e-01) (293, 2.12995424401337396514e-02) (294, 1.77623124013907424112e-01) (295, -9.86258915984883355321e-03) (296, 1.80135680664289393738e-01) (297, 9.16563336744005974221e-02) (298, -1.10611240860663664898e-01) (299, 6.18433007963725689393e-02) (300, -1.06489734833505877987e-01) (301, 1.39788177503745919550e-01) (302, -1.06536642694426419986e-01) (303, -2.51642732190158813221e-01) (304, -2.12450595947321664581e-03) (305, -4.62691826360188337985e-02) (306, 7.72710607121066678227e-02) (307, 1.75419057355135632470e-02) (308, 1.35464258638602175200e-01) (309, -6.15318603326158730660e-02) (310, -1.76999315520789957112e-01) (311, 2.05919418797182701697e-01) (312, 8.23733415754672460007e-02) (313, -1.14176576663497977154e-02) (314, 8.20392444729804992676e-02) (315, 1.51437502395587231252e-01) (316, -1.78868343518984840301e-01) (317, 3.40438968613104853134e-02) (318, -2.46546147887904965046e-02) (319, 9.36431407511200547544e-02) (320, -1.25708734462338211912e-01) (321, 2.07371781807010907572e-01) (322, -2.30438244949289910979e-02) (323, 9.13910474126157085228e-02) (324, -3.43773583924513459475e-01) (325, -2.87863527952972181323e-02) (326, -9.63770286321661562301e-02) (327, 1.68189124928808969583e-01) (328, 1.28093513680518134024e-01) (329, 7.99331671052240649855e-02) (330, -2.63702215705646614285e-01) (331, -7.18086868283253874912e-03) (332, -1.41089064082154380664e-01) (333, -8.94737346780376252564e-02) (334, 6.00833608542888919501e-02) (335, -9.53404217783652002671e-02) (336, 2.05527490664498491135e-01) (337, -7.37188838083262590328e-03) (338, -1.30831609818917143917e-01) (339, 5.60152794199307718648e-02) (340, 1.58091500406248759714e-02) (341, 2.03402357529210375819e-01) (342, -1.94030781621523304437e-02) (343, 2.72291763828040322970e-01) (344, -1.44604824193549336142e-01) (345, 1.42491594793520859330e-01) (346, 3.12840431078180020164e-02) (347, 2.01153337342396515419e-01) (348, -8.23262322458449269380e-02) (349, 6.10380251989107794341e-02) (350, 1.81465500693518050346e-01) (351, 4.32978689762492582882e-02) (352, 2.31415615531872578825e-02) (353, 1.17400750475830470410e-01) (354, -5.45967183625318749907e-03) (355, -1.60769671201705932617e-02) (356, -9.71370562911033630371e-02) (357, -2.49910297958068697288e-02) (358, -1.53309130519568848072e-02) (359, 8.49364023969077647225e-02) (360, 4.94528421600367307231e-02) (361, 4.09408887298924953346e-03) (362, 9.73920752709738768438e-02) (363, 1.36129706570174407315e-02) (364, 4.14108500736056692193e-02) (365, -6.55944644667473819588e-02) (366, 8.27229731366156267880e-02) (367, -1.71646289559064316177e-02) (368, 4.10387762656551913221e-02) (369, 1.85447052534230327758e-01) (0, 4.49605642807680769280e-02) (1, -6.10926112667313503390e-03) (2, 5.08928088481003862431e-02) (3, 5.52309344834136933811e-02) (4, 8.19356368645286076147e-02) (5, -8.45382178967275452197e-03) (6, 6.05985223515262891314e-02) (7, 3.18471762002159389238e-02) (8, 6.74993643623841704793e-02) (9, -6.49286985986482073629e-02) (10, -1.59659399336954666015e-02) (11, 4.92158184262367782297e-03) (12, 5.11448869680979217867e-02) (13, 3.02022042344142586934e-02) (14, -3.56206366415306383000e-02) (15, 9.31936749697622746069e-02) (16, -6.04620426157584309190e-02) (17, -4.14056905259139740316e-02) (18, -6.05162725922075497853e-02) (19, -2.07145008162858863809e-02) (20, -9.24563254969890807589e-02) (21, 2.03865430741895538314e-02) (22, 3.61346345709608607333e-02) (23, 2.01903228066935801210e-02) (24, -7.07569875847581797323e-02) (25, -6.52427696424879993709e-02) (26, 8.21184869158415042811e-02) (27, -7.58233651646449818839e-02) (28, 3.97463922241564140969e-02) (29, -1.17170593622647173371e-01) (30, -1.39880727096850537849e-01) (31, -1.47350006474546210006e-02) (32, -6.81866794142146990382e-03) (33, 2.75789288729642416420e-02) (34, -1.61508260979602302765e-02) (35, -1.78392342545675951226e-02) (36, -1.23440402079934632984e-01) (37, -8.50537072823901035834e-02) (38, -7.36091148708073877982e-02) (39, 7.60414970369915621529e-02) (40, -3.67820631640671871776e-02) (41, 2.13154601750820613115e-02) (42, -3.90227795779669942022e-02) (43, -7.67712856376064484154e-02) (44, -7.82428951712252074291e-02) (45, 2.44164784359145702053e-02) (46, -9.68151495500553654905e-02) (47, -1.41556925937149150063e-03) (48, -9.00815601602673043935e-02) (49, -4.39385089820873916966e-02) (50, -8.88033001860616261203e-02) (51, -9.22645048730830336092e-02) (52, -8.20098947203942579831e-02) (53, -1.10876502260029569102e-01) (54, 8.58062169457989437626e-02) (55, 6.43690747675480182816e-03) (56, -1.75483731098155758266e-02) (57, 7.36844190140463206617e-02) (58, 2.94884468665338461690e-02) (59, -6.62680778704820422353e-02) (60, -9.94548342054254325140e-02) (61, 4.59359680823474003653e-02) (62, 6.09930052617826470862e-02) (63, 4.10249314537902073918e-02) (64, -7.87082223307000749569e-04) (65, -4.91725367264918694632e-02) (66, -6.74826455232675204154e-02) (67, 9.13218726796106994303e-03) (68, 3.93253089252950348287e-03) (69, 1.26962580332202271127e-02) (70, 1.69233708396978287103e-02) (71, -1.00939985013325683738e-01) (72, -8.49699475506290463622e-02) (73, -9.31797415426314501463e-02) (74, -4.29282950022967652037e-02) (75, 3.05884159670489798322e-02) (76, 5.24688089101024504601e-02) (77, -1.76150255270530499419e-02) (78, -6.56937136359304757471e-02) (79, 5.74616833756881884021e-02) (80, 4.36730011711567098209e-02) (81, -4.01905543384307589738e-02) (82, 3.65662161913626534981e-02) (83, 8.03193815918492176609e-02) (84, -3.48097742449770125583e-02) (85, 6.28241427041155847677e-02) (86, 1.94620774668127737017e-02) (87, 8.61204081822427858217e-02) (88, 5.33639448556829792958e-02) (89, -6.84878330325662948441e-02) (90, -7.40003389761021146409e-02) (91, 7.08138047643521728602e-02) (92, -1.09924475247215727713e-01) (93, 7.84269768323939964194e-02) (94, -1.93368849226963892760e-03) (95, -4.28083900946336914917e-03) (96, -5.26525940557643346018e-02) (97, 8.10781714486768778638e-02) (98, -6.84156824712277011891e-02) (99, 5.67690009090695835159e-02) (100, -1.04222951386472861834e-02) (101, 7.60243877689308761303e-02) (102, 8.02608709379625667735e-02) (103, 2.49820128083229064941e-02) (104, 7.83573501038418163134e-02) (105, -5.28280199552159310250e-02) (106, -4.10177581252748682528e-02) (107, 1.75315448113385861928e-02) (108, 4.68099352922686159917e-02) (109, 2.59046421912125790499e-02) (110, -1.65109316121096784402e-02) (111, 3.63190133870751330480e-03) (112, 9.52300035950517931305e-02) (113, -5.12772364758478510494e-02) (114, -3.90127905231072089065e-02) (115, -4.05140373363969477638e-02) (116, -9.78769082003908552636e-02) (117, 8.25851165320853619622e-02) (118, -6.00493092998538105509e-02) (119, 5.96765978635167143596e-02) (120, -8.95503730683169102411e-02) (121, -4.61219456301140695587e-02) (122, 4.29010499977472703481e-02) (123, -6.55383725637347508419e-02) (124, -6.64510875940322875977e-02) (125, -6.17428203536160846721e-02) (126, 4.00700931465483786709e-02) (127, -1.30791916210256983083e-02) (128, -9.90350333418814482433e-02) (129, 8.34952254022497536434e-02) (130, -6.34887773034133323646e-02) (131, -3.68632978885470238839e-02) (132, 5.41678351911475119973e-02) (133, -7.55410968784485381544e-02) (134, -8.92225264672100309982e-02) (135, 1.35314069895471188881e-02) (136, -5.14518733860314173012e-02) (137, -2.86561561329336592086e-02) (138, -5.41855681511250047988e-02) (139, 8.26105430170879923013e-02) (140, 8.60087870408277332945e-02) (141, 4.05632068216882288314e-02) (142, -8.28527721166251972240e-03) (143, 9.44661828092753508290e-02) (144, 9.82003954977432036433e-02) (145, 6.87831565737724304199e-02) (146, -6.53365160706392833490e-02) (147, -6.95856575622851858398e-02) (148, 4.61288743522661262575e-02) (149, 1.94347333257628082648e-02) (150, 7.52304984664277781592e-02) (151, 3.31744217372324234905e-02) (152, 2.97806813788707713808e-02) (153, 2.88397132414774971798e-02) (154, 1.12556807695327984464e-01) (155, 7.02297206059157158586e-02) (156, 2.31341567897799943454e-02) (157, 2.37342343254927888585e-02) (158, -3.79073044672454811943e-02) (159, 5.06267975130108710546e-02) (160, 2.77218215739393342156e-02) (161, -2.24271162541707265448e-02) (162, -9.44950008532290525176e-02) (163, 2.51779098238171525695e-03) (164, 4.19480620458536831996e-02) (165, -7.25130787937540294275e-02) (166, -9.62916910648345947266e-02) (167, 5.57044091750136458052e-02) (168, 4.89475323826489647910e-03) (169, -4.81081248602183847440e-02) (170, 6.11595603609600829698e-02) (171, 9.27691287952365876979e-03) (172, 1.02612953264544323750e-01) (173, -6.60970145747466486519e-02) (174, -4.94437767144638527089e-03) (175, 8.57788620761262138315e-02) (176, -6.64993883069440044897e-02) (177, 3.97514474429564931834e-02) (178, 9.10910841180439800890e-02) (179, 8.49685661917507217833e-02) (180, -4.95309123553131502860e-02) (181, 6.16480143244074324516e-02) (182, 5.17636647942924590926e-02) (183, 9.93256052263188082829e-02) (184, -3.98814181988120658451e-02) (185, 4.59775570089352783598e-02) (186, 6.43520682821600853440e-02) (187, -9.76962521672248840332e-02) (188, -8.18920603737080532447e-03) (189, -7.11359738021652421303e-02) (190, 4.04557303218980035542e-02) (191, -9.05607795935628040462e-02) (192, 3.62552958562806781906e-02) (193, 9.30750395059301155465e-02) (194, -1.69926330310975828852e-02) (195, -5.75012918966462324710e-02) (196, -7.10259033375163634227e-02) (197, -6.82735211894193363275e-03) (198, -9.34694763938395123404e-02) (199, 2.64337834479114637543e-02) (200, 5.95300646114893874938e-02) (201, 7.72292882135380553965e-02) (202, -6.45332928737764460747e-02) (203, 6.16569183658463165765e-02) (204, -7.06027804248698515055e-02) (205, 4.03732393144383069905e-02) (206, 5.88589161500081559097e-02) (207, -5.20593302953378384013e-02) (208, -1.23786926269531250000e-02) (209, 4.80107073227812874983e-02) (210, -7.19667359253827049193e-02) (211, 4.38152072077752849366e-02) (212, -1.37724845812415056488e-03) (213, 8.36192191188265265822e-02) (214, 2.34489942223613904992e-02) (215, 5.54440089165925617531e-02) (216, 2.26503800582804233621e-02) (217, 3.98537653970508672086e-03) (218, 6.96979325573072600042e-02) (219, 8.43298887774782401916e-02) (220, 2.34590655673372894263e-02) (221, 3.56486356372406401616e-02) (222, -8.87613771338187362847e-02) (223, -2.25815585528094733836e-02) (224, 8.36870095168688182818e-03) (225, 7.10899319975436243951e-03) (226, 7.54460950468756243875e-03) (227, 4.33529229489647352502e-02) (228, -1.07594869301957704599e-01) (229, 2.79416218400001525879e-02) (230, -1.94382273934249442948e-02) (231, 3.40678352218396970907e-02) (232, 7.57729616882849010828e-03) (233, -1.92112874490280288037e-03) (234, 1.86878534422060191278e-02) (235, 2.74165374967247667259e-02) (236, -4.96400889526946512142e-02) (237, -7.44166626968536387698e-02) (238, 9.52857713503278414002e-02) (239, 2.13740680829759104042e-02) (240, -9.60461362489867936931e-02) (241, -1.05581788429181019917e-01) (242, -9.83142798477483785199e-04) (243, -1.05508102103465534194e-02) (244, 8.59585452915522102435e-02) (245, -1.02477920530970059709e-01) (246, -1.41059256350570122462e-02) (247, -2.09670732841471460506e-02) (248, 3.39391486069549885851e-02) (249, -5.47745635449549544971e-02) (250, 9.38355353334431076251e-03) (251, -6.20753689936022340357e-02) (252, 8.44561796342062076626e-02) (253, 5.61584039948492472205e-03) (254, 2.83383890677643898726e-02) (255, -9.24048115016380504361e-03) (256, -5.74455540876791653782e-02) (257, -6.48113835449775077535e-02) (258, -6.10190333897597594892e-02) (259, -9.22649621726208263306e-02) (260, 6.93141184940717081098e-02) (261, -8.77625911333839228701e-03) (262, 9.04411684696648232595e-02) (263, -4.67139670395504760791e-02) (264, -7.07281047322187716997e-02) (265, -1.27738100832374048416e-02) (266, -7.21695821300445822244e-02) (267, -1.76669500831242026750e-02) (268, 8.99080122737839909641e-02) (269, -1.12266068642511707143e-01) (270, -2.25345148556115697225e-02) (271, 5.55862758981176263706e-02) (272, -5.96749111272767626679e-02) (273, -1.18873112027890800307e-02) (274, 1.94566252140513720748e-02) (275, -8.87468622092253689448e-02) (276, 2.59329858137837751531e-02) (277, 4.56667238721242679800e-02) (278, 3.16973447106727521105e-02) (279, -7.45491026845436638437e-02) (280, -6.01723464011433839538e-02) (281, -8.75556149556803581246e-02) (282, -1.44838541746139526367e-03) (283, -8.07520151138305664062e-02) (284, 7.52241492862196353686e-02) (285, -9.11128073805989174838e-02) (286, -3.18593192052582649051e-03) (287, 5.24357921304587151767e-02) (288, 5.02956940962718118682e-02) (289, 3.75309732467350928853e-02) (290, 1.08300733452479189256e-01) (291, -7.36406545612843660420e-02) (292, -7.80877871298590355009e-03) (293, 7.59932485049480688222e-02) (294, 2.48580658063376411238e-02) (295, -2.50536730159761703018e-02) (296, 3.51777688648764828155e-03) (297, 5.20011037420695168554e-02) (298, 6.79650583166748895048e-02) (299, -3.41915432593564438957e-02) (300, 4.11376743075496514868e-02) (301, -8.64387614519494251741e-02) (302, -5.39621471863753060516e-02) (303, 5.63105057809511963529e-02) (304, 1.13556378079514123935e-02) (305, 1.51685879020014395546e-02) (306, -8.70192480048268962589e-02) (307, -5.27871274585250960243e-02) (308, 2.28053442441384472683e-02) (309, 2.15295180196084755264e-02) (310, -6.03485796505293381475e-02) (311, 7.71265014504000784301e-02) (312, 5.59999480545866831771e-02) (313, 5.81948439184792262746e-02) (314, 6.24028816819190979004e-02) (315, 2.86435470528064797802e-02) (316, -1.20180262438887561216e-01) (317, -2.92943145989107214811e-02) (318, -3.53122477518799174345e-02) (319, -2.27690211689038635168e-02) (320, -1.03462241135591520580e-01) (321, -8.54807781964632418248e-03) (322, 6.60821816924514037622e-03) (323, -1.86353978826705943272e-02) (324, -5.81894553533415931357e-02) (325, -5.88598955716028160445e-02) (326, 4.60341747047705238116e-02) (327, 5.43647125054599333893e-02) (328, 7.41253988027452404008e-02) (329, 4.43950090307784067667e-02) (330, -9.04251720603053421588e-02) (331, 3.46123201673501565412e-02) (332, 5.71335407483676213647e-03) (333, -4.58026453659130111662e-02) (334, -6.46695910790270975937e-03) (335, -5.81409957284858072701e-02) (336, 6.16977548456553101519e-02) (337, 1.86360886476590534300e-02) (338, -3.83714271133783896284e-02) (339, 4.37315296974758686149e-03) (340, -4.98917728725535442047e-02) (341, 8.15742249517398959613e-02) (342, -8.77011765889056382761e-02) (343, -3.45834447853452658928e-02) (344, 1.88216094600120280311e-02) (345, 1.05585664584455687920e-01) (346, 5.69044871876278265943e-03) (347, 7.30625095276394020960e-02) (348, -3.87391538385355518881e-02) (349, -8.93235919163972158508e-02) (350, -1.09390505229530338172e-01) (351, -7.90114770088932907161e-04) (352, -3.22929113116666721695e-02) (353, 4.61532129169221760900e-02) (354, 5.19379771277740168167e-02) (355, 4.46937158703804016113e-02) (356, 8.22574868798255920410e-02) (357, 2.83492750146035650538e-02) (358, -2.76747834581644557017e-02) (359, 6.09148329210577738069e-02) (360, -7.37021121035350557094e-02) (361, 2.04384567604204356317e-02) (362, -2.50268774298021794145e-02) (363, 6.88601139415166429991e-02) (364, 3.70336369237796864118e-02) (365, 9.73371695084012666932e-02) (366, -1.05803915439444187752e-01) (367, 5.73707134238164301321e-02) (368, -1.14150774563938541689e-02) (369, -3.41757634431642254302e-02) (0, 1.24621323012313378609e-01) (1, 1.27425391742260529782e-01) (2, -1.24148144888061223723e-01) (3, 1.80011622464201409555e-01) (4, -1.16314899196820909638e-02) (5, -3.87819387010180816056e-01) (6, -1.37873640177944740970e-02) (7, 3.11515484969689393502e-01) (8, 2.36083196910468307017e-01) (9, 1.31653846362075860332e-01) (10, -5.60677336450030247561e-02) (11, -1.40650489273546147606e-01) (12, -1.18863269507294838645e-01) (13, 8.70282057819811438737e-02) (14, -8.75861760509040188083e-02) (15, -2.89237127783284087013e-01) (16, -1.31497253732881347332e-01) (17, 1.22496811657605181615e-04) (18, 8.91522937443218338460e-02) (19, 1.77219473995969017954e-01) (20, -4.92287315909065714692e-02) (21, -2.39208620611710498505e-01) (22, 1.49465559429533295654e-01) (23, 6.71410289081374345166e-01) (24, 9.15966084838797933720e-01) (25, 6.39134158606461388885e-01) (26, -1.51921860540922298854e-01) (27, -4.14434968435714201629e-01) (28, -3.30284214868615477734e-01) (29, -1.16411542638024917418e-01) (30, -3.48171142280216047715e-02) (31, 1.38957649956866270170e-03) (32, -5.62671117768295050987e-02) (33, 1.04121046936085523416e-01) (34, -4.09046082728007631690e-01) (35, -3.30217004996904206493e-01) (36, -3.04174576023254414348e-02) (37, 1.89303487568121542317e-01) (38, 2.51370313288787556108e-03) (39, -1.52309186004007696136e-01) (40, -1.84719467291852401658e-01) (41, -2.13722939977343345808e-01) (42, -2.97108978187459016329e-01) (43, -5.21912305385435343341e-02) (44, 4.53503859833401301582e-01) (45, -3.58544650299801245796e-02) (46, 5.72259138796694794005e-02) (47, -3.16127712068986661820e-03) (48, -1.75106581751234696709e-01) (49, -1.72496424386899653569e-02) (50, 2.48098513418112606721e-02) (51, -3.06301952682581368759e-01) (52, 3.57164010711993329394e-02) (53, -5.94090329758590329767e-02) (54, -8.83034829527251652337e-02) (55, -2.06292805322525862888e-01) (56, -1.51076171025351146948e-01) (57, 9.91803586799133995999e-02) (58, 9.25596872115285324023e-02) (59, 4.12654537712481561673e-02) (60, -1.19868884866007580081e-01) (61, -1.26377192277308786350e-01) (62, -1.93041816370106367184e-01) (63, -1.09193654700991030215e-01) (64, 8.94011500599379838050e-02) (65, 8.10513518753419315299e-02) (66, 1.80327952255919590763e-02) (67, 5.05430768421831627668e-02) (68, -2.33779873993879491745e-02) (69, -2.76795507595924361599e-01) (70, -2.73332924956221079427e-02) (71, 9.27831913945043745828e-02) (72, 3.45551414272296464336e-01) (73, 2.40961368697565209152e-02) (74, 1.96645653317547575156e-02) (75, 1.25259639776841985581e-01) (76, -3.70906717327384505278e-01) (77, 4.25845657030817364985e-02) (78, 1.24078594604141112523e-01) (79, -9.02763151912729933102e-02) (80, 7.44161883342539798303e-02) (81, -3.56110514845882908386e-02) (82, -1.04115397355955721648e-01) (83, 7.92547968619080056563e-02) (84, 8.71033963512668069074e-02) (85, -6.36059938774272692896e-02) (86, -2.05612843807936818141e-01) (87, -9.88524705008471948897e-02) (88, -2.24895135485338265591e-01) (89, -6.32441482678778726934e-02) (90, -4.38589881087926500292e-02) (91, 1.33761899634412234628e-01) (92, 1.20178297143499729360e-01) (93, 3.47046839521085014740e-03) (94, 1.02921621526730802665e-01) (95, 1.25129762941427052914e-01) (96, -3.65245173298374276039e-02) (97, -3.18311869032723238071e-01) (98, 1.92508859347658656258e-01) (99, -8.18884215669225951073e-02) (100, -6.37237844196630182081e-02) (101, -1.20687225416340193629e-01) (102, -1.49144948484724509941e-01) (103, 4.00160178542137145996e-02) (104, -1.14447850334281495122e-01) (105, -7.02805381211085156146e-02) (106, -6.36170772792158528697e-03) (107, -1.19928379368610088518e-01) (108, -1.12582692454399072024e-01) (109, -1.56880615822173746787e-01) (110, -2.45297286500954697663e-01) (111, 4.14125050444621098378e-02) (112, 7.01966983672982214326e-02) (113, -2.10660594996410543978e-01) (114, 3.54172709635211024892e-01) (115, -1.34647819155534698154e-01) (116, 1.25128302503124788636e-01) (117, 7.11544148409271187683e-02) (118, -1.55836285621568110954e-02) (119, 7.09189399489240090979e-02) (120, -9.47888882174352867538e-03) (121, 1.22116363700959421057e-01) (122, 1.22875688635142213401e-01) (123, 2.60456171542851645795e-02) (124, -9.48841869831085205078e-02) (125, 3.27583411523889520001e-02) (126, 2.61385687599074295617e-02) (127, -8.05307271271867297635e-02) (128, -1.45083640574220490427e-01) (129, 2.38197803540155829405e-02) (130, -1.28696006670250745474e-01) (131, 1.35571842854789154087e-01) (132, -3.46451928357036711970e-02) (133, -4.51426530273376924729e-02) (134, -1.21745083082766339388e-01) (135, -3.03902985045483783888e-02) (136, -2.30887517247754858740e-01) (137, 9.49836048209623112770e-02) (138, 2.88660500814285736482e-01) (139, 1.71604234259657706385e-01) (140, -2.93227945840688827839e-02) (141, 2.43353756226484634062e-02) (142, -4.41685825492928105240e-02) (143, -1.10654156463938599386e-01) (144, 3.83644245745789549962e-02) (145, 9.45122912526130676270e-02) (146, 4.57395286985170401728e-01) (147, -2.48944272757084777981e-01) (148, 2.84310117917297489054e-01) (149, -3.55779705488883046804e-01) (150, -1.75928907146633922709e-01) (151, 4.47300184503746145470e-01) (152, -1.59356460196999116796e-01) (153, -4.85772417749166518508e-01) (154, -1.44281769124893544110e-01) (155, 1.35982786472339411965e-01) (156, 1.92708028398425962324e-01) (157, 1.22835167124187863430e-01) (158, -1.49069116668296058892e-01) (159, -6.23509143899937251510e-02) (160, -3.97728842912703842161e-02) (161, 7.38708846935482305041e-02) (162, 2.75300415700253618689e-02) (163, -2.34262787612237816104e-01) (164, -4.13640249343106336521e-01) (165, 2.54323066490703464382e-01) (166, 9.62339341640472412109e-03) (167, 6.70047982522238572134e-02) (168, 1.08932488332310895007e-01) (169, -3.48695194190179955096e-02) (170, 3.49103538015775038961e-02) (171, -5.76552538240739584352e-02) (172, -2.01406099638434921140e-01) (173, 9.15874597873793730440e-03) (174, -1.02587344531054086572e-01) (175, -7.61250337923772397129e-04) (176, -1.33694804283419121926e-01) (177, 3.06442328491604243368e-01) (178, 1.08256080905029153372e-01) (179, -8.82171544083516223633e-02) (180, 1.66040234340864900631e-01) (181, 9.23888720423426540451e-02) (182, 4.90429604632550211751e-02) (183, -1.26578567874194997112e-01) (184, 7.89530758361091655750e-02) (185, -1.89654215690137573080e-01) (186, 4.60123597800283015702e-02) (187, 9.47079882025718688965e-02) (188, 6.69400363133495907020e-02) (189, -3.29528741186942836228e-02) (190, -1.36191703996119961584e-01) (191, 2.71131627205007351422e-02) (192, -1.26929304153648003783e-01) (193, -1.89405715312593418698e-02) (194, -1.93466487495285305309e-02) (195, 4.28282970456935127568e-02) (196, 1.33815986283052829053e-01) (197, 7.91949207399381682748e-02) (198, 9.57989707986189181765e-02) (199, 7.72198683184676520908e-02) (200, -1.99705237504091054346e-01) (201, 9.03867507398598869772e-03) (202, 2.13353316590373598416e-01) (203, 1.65123501421219030794e-02) (204, 8.08504524701729870850e-02) (205, 8.34044550989027771992e-02) (206, -1.47993999998370817650e-01) (207, 5.69729809051023189381e-02) (208, 1.59283280372619628906e-02) (209, 3.27994803951454916291e-02) (210, -1.75895598908941602767e-01) (211, -5.37220968728624667654e-02) (212, 1.36377735184233850330e-01) (213, -1.76629876429831161877e-01) (214, -3.00686509085744610448e-02) (215, -5.50860794320682176095e-02) (216, 2.31009398586067671300e-01) (217, -8.74831133302339178370e-03) (218, 7.28464837163552425547e-02) (219, -1.72430615387910435299e-01) (220, 1.15191621588386264308e-01) (221, -1.72380478674717230181e-01) (222, 2.48535693933257084698e-01) (223, 5.64813634396022640205e-02) (224, -1.92601283968843850491e-01) (225, 1.75107019870214153379e-01) (226, 8.51529013811280766078e-02) (227, -2.81315352413406105647e-01) (228, 2.87544859513785999727e-01) (229, 6.14874437451362609863e-02) (230, -1.42911547845286063252e-01) (231, 1.21921242965462982982e-02) (232, -5.16388929723517881021e-02) (233, 4.66020407018804677657e-02) (234, -1.74354164566245778412e-01) (235, -1.30009857715562473363e-02) (236, -8.86978814938405718538e-02) (237, -3.03700564704220479784e-02) (238, -9.18252916127644674971e-02) (239, 8.83883898072561902115e-02) (240, -9.24265547524418251690e-02) (241, 7.31651044037952280608e-02) (242, -2.52730915490586183214e-01) (243, 2.44072284719263954411e-01) (244, -1.22861002028664581531e-01) (245, -9.20980197121987025077e-03) (246, -1.31789105495171227078e-01) (247, -2.09340661841973002533e-01) (248, -3.12267298010123983687e-01) (249, -3.48804004496774122668e-01) (250, -1.42288803330525653879e-01) (251, -5.89683099531762983103e-02) (252, -2.84614577706668488155e-02) (253, -1.38565723088802023044e-01) (254, -7.46443498517314202312e-02) (255, 2.18456491111231831947e-01) (256, -2.75677066705153961390e-01) (257, 2.01166841048242041323e-02) (258, -1.84946610874277245218e-01) (259, -1.50302026613580080872e-01) (260, 4.42361145250986555200e-03) (261, 1.09806814767926835819e-01) (262, -3.05397628006990884408e-02) (263, 3.93224953829884205092e-01) (264, -1.68696450460533470261e-01) (265, 4.55225630879258144623e-02) (266, -4.97903095932176881222e-02) (267, 1.40520370761447910279e-01) (268, -3.66594144051417714092e-01) (269, -2.09992259860911634206e-01) (270, -5.25555496304702329802e-01) (271, -1.26987721344848203398e-01) (272, -9.79873622553199957741e-02) (273, -1.35318403091898631363e-01) (274, -3.84128494235401629631e-01) (275, 6.73278535417898629789e-03) (276, -1.10747193865226481457e-01) (277, 7.11408206914180551994e-02) (278, -1.77603334880179736244e-01) (279, -1.63540097889419422383e-01) (280, -9.71962565484993795684e-02) (281, 3.68566178594906090904e-01) (282, 1.75511464476585388184e-02) (283, 8.48923698067665100098e-02) (284, -5.05142583275838497059e-01) (285, -1.16436130173499213791e-01) (286, -2.69579441194275848392e-01) (287, 2.68464035267240823390e-02) (288, -9.10638488385302258266e-01) (289, -8.05619579658793660837e-02) (290, -1.74363839866877173845e-01) (291, -9.09345215229876713270e-02) (292, -4.00501576085125210458e-01) (293, -6.44554503378991922036e-02) (294, -5.27339266237222936695e-01) (295, 1.26434313454923874173e-03) (296, -6.76089023685550877252e-02) (297, -1.87093019758789919083e-01) (298, 4.23076455428509357048e-02) (299, -3.35741717021307783941e-01) (300, 7.39686888364670530605e-02) (301, -1.11798893010374322809e-01) (302, 5.59171961773307080179e-02) (303, 7.11173867742053267271e-01) (304, 4.89484441775578260625e-01) (305, -2.87289881784511647034e-01) (306, -1.09030430447763823643e-01) (307, -1.58179204697613984276e-01) (308, -2.12450816411153764474e-01) (309, 3.88311570135528097425e-02) (310, 3.07045869770494028739e-01) (311, -3.97749516449368678561e-01) (312, 2.13670537131221111027e-01) (313, 4.14147715045013242730e-01) (314, 5.45982345938682556152e-02) (315, -1.48793207649194764164e-01) (316, 7.50649312346199915069e-02) (317, -1.27104942143641319596e-01) (318, -1.57995797388702820252e-02) (319, -1.17968718072130010488e-01) (320, -2.42666415948016855886e-01) (321, -2.85799892750521866702e-01) (322, -2.37576756632796093349e-01) (323, -8.57901193414941781734e-02) (324, -1.87596869363748447457e-01) (325, 6.78017944280301099180e-02) (326, 1.85599809016646702386e-02) (327, -1.05707064607271236656e-01) (328, 2.90379091380555065527e-01) (329, -2.00775389037063961561e-01) (330, -7.84575109523212577134e-02) (331, -1.89651991522650914535e-01) (332, -9.10272190412128728854e-02) (333, -7.48630458212648369765e-02) (334, -4.70865577677750807295e-02) (335, 6.38559641184735515829e-02) (336, 3.39850633561250448089e-01) (337, -5.44419273918797450018e-02) (338, -6.57153465569191574946e-02) (339, -1.22384155020250018353e-01) (340, 2.10171758393343399707e-01) (341, -3.13906990831241017315e-01) (342, -1.65555101008096505755e-01) (343, -4.45885491758043372990e-01) (344, -1.54950689098258570509e-01) (345, -1.69859019179800979638e-01) (346, -1.51710678782926378094e-01) (347, -3.81098816218498503972e-01) (348, -6.93827930588248875665e-02) (349, -1.33729247323919109292e-01) (350, 8.79908861313570128670e-02) (351, -8.70446681443033526415e-02) (352, -1.60054775890823064444e-01) (353, -1.69118938774193428021e-01) (354, 3.15623522614312201906e-01) (355, 9.24079492688179016113e-02) (356, -9.07670557498931884766e-02) (357, -1.57735759442730244517e-01) (358, 4.94602860702316252106e-02) (359, -2.36586614632483371867e-01) (360, -2.23866252364969750555e-02) (361, -7.22696470873009366720e-02) (362, -4.32967787386393451743e-02) (363, -3.85506423750224952451e-02) (364, 9.41216053166065297342e-02) (365, -6.14266545564139399005e-02) (366, 1.38778154664315356986e-02) (367, -8.34240293930494369867e-02) (368, 6.08594647195878427071e-02) (369, -1.21377257905831606455e-01) (0, 6.28084713216454232354e-02) (1, -6.34017378364182399020e-02) (2, -1.03354604649797329752e-01) (3, -4.92315388696816583214e-02) (4, 7.03947409882301200490e-02) (5, -9.94278285362848179840e-02) (6, -1.85591101088393092833e-02) (7, 5.31758714259058639512e-03) (8, -2.24148953105527751206e-02) (9, 9.23523610246038961780e-02) (10, -9.27532740253555337828e-02) (11, 2.23137771593333485154e-02) (12, 2.05641068258944556546e-02) (13, 1.01668268425133490052e-01) (14, 5.54826497602306303869e-02) (15, -6.95773784724650762312e-02) (16, 7.52357704620406075868e-02) (17, 7.29148433367160231366e-02) (18, 4.98672123962228958094e-02) (19, 1.00958311825157815572e-02) (20, 7.89307296194669549827e-02) (21, 3.98080428649342510372e-02) (22, -5.75212688665723073655e-02) (23, -7.50369813711324745720e-02) (24, -5.97160326091890000799e-02) (25, -7.19832569254251486424e-02) (26, -6.87755236850816180361e-03) (27, 1.69186548660213605111e-02) (28, -2.48482470897980131652e-02) (29, 8.30481305573820410837e-02) (30, -3.62778658051503832827e-02) (31, -6.53007830198442107417e-02) (32, -9.90299572698722374575e-02) (33, -3.47753642078097863211e-02) (34, -4.72838663971194700375e-02) (35, 6.68394183700827537731e-02) (36, -1.32600606479312231600e-02) (37, 4.85076600493116183443e-02) (38, -3.72335080300034704237e-02) (39, 4.87590417364886577478e-02) (40, 3.58904531558869727137e-02) (41, -2.33825303258592895328e-02) (42, -1.03729028854992392887e-03) (43, -2.94491850199153290535e-02) (44, -1.85489960689406950534e-02) (45, -4.37225825376776761066e-02) (46, 1.14618126320065669144e-02) (47, -3.95100182833231991508e-02) (48, -8.27457148153977750660e-02) (49, -3.97795332936018986025e-02) (50, 5.66474942870297884512e-02) (51, -9.98626828995776288922e-02) (52, -7.42750897977910995440e-02) (53, -8.61669505603220170498e-02) (54, -5.34594749412841477310e-02) (55, -1.92290955784615337498e-02) (56, -4.02943343888527427676e-02) (57, 7.16426827571181173981e-02) (58, -7.96943995796003668008e-02) (59, 4.84447395979927600274e-02) (60, 5.08435663072829627240e-02) (61, -1.16476650440966150030e-02) (62, -1.11489130291983720711e-01) (63, 5.63645143154355987569e-02) (64, 6.45227784390853403851e-02) (65, -2.70069268339168840065e-02) (66, 4.92572604043795825302e-02) (67, -3.43474511635013593502e-02) (68, -6.25838305296164687519e-02) (69, -7.80966976822235897648e-02) (70, -7.55111130209735748053e-02) (71, -1.07330128729160839685e-01) (72, 2.23596888084637464289e-02) (73, 2.57396093152829734396e-02) (74, -2.76821856426532897366e-02) (75, -1.04168252931259225358e-01) (76, -1.01523425880315806835e-01) (77, -1.06100576994513542961e-01) (78, -2.11995332533088318150e-02) (79, -5.81902875969636523834e-02) (80, -3.22792938346629434965e-02) (81, -5.27322476645715534915e-02) (82, -3.79832367076247262583e-02) (83, 6.15095540004697346331e-03) (84, -1.92256552623826307280e-02) (85, 1.93300441732053018828e-02) (86, -1.12944135484217167420e-01) (87, 4.00001965478722285030e-02) (88, 5.19344683014602809083e-04) (89, -6.20120511445081956658e-02) (90, -1.09274286378109901016e-03) (91, -4.40361126430164270817e-02) (92, 4.30556817137301151011e-02) (93, 1.43290835057096905408e-02) (94, -5.21548441067594473197e-02) (95, 1.61479686372264334693e-02) (96, 9.24925808863764353784e-02) (97, 8.00105246415174498065e-02) (98, 8.14436093509375985677e-02) (99, -5.11272974396285995180e-02) (100, -7.92082708306687116595e-02) (101, -8.14479581970610488906e-02) (102, -4.70508497077554987964e-02) (103, 6.20961710810661315918e-02) (104, 6.06170126542483825305e-02) (105, 3.13257682950496690877e-02) (106, 7.89432382565451035150e-02) (107, 7.73998623660514251110e-02) (108, 3.07511150121997194062e-02) (109, -3.92642499057529181794e-02) (110, -7.38129793206741269262e-02) (111, -9.57425734720707410919e-02) (112, 1.58934379247653197187e-02) (113, -5.09166258771121416765e-03) (114, 2.90302865084602901291e-02) (115, 9.87003729402634033541e-02) (116, -7.54011918183212920264e-02) (117, 2.69205221348357455480e-02) (118, 4.23707524577212960026e-02) (119, 2.29864258106676072613e-02) (120, 6.62907347836220045556e-02) (121, -4.60324709423685501930e-02) (122, 7.59717940668086511025e-02) (123, -4.36068138358936072813e-03) (124, 7.07333162426948547363e-02) (125, -8.27494578080750636806e-02) (126, -9.12247676055818329521e-02) (127, 6.17905396656141178702e-02) (128, -8.70023409742178566173e-02) (129, 9.08398527049167903158e-02) (130, -8.66762257253075457664e-02) (131, -5.35308601818624205104e-02) (132, -8.91475372924912384809e-02) (133, -3.93330809644358986299e-02) (134, -9.96341132918145966357e-02) (135, 7.98038430928607461778e-02) (136, 1.03590135141591196954e-01) (137, 7.55075601594501627511e-02) (138, 5.44197153197957181336e-02) (139, 3.86391054574013390055e-02) (140, -5.51987072007600887424e-02) (141, 7.85105831749491195337e-02) (142, 4.75536831217023281404e-02) (143, 5.65830770447399086787e-02) (144, -3.16079154385849256381e-02) (145, -2.44550630450248718262e-02) (146, 5.28751209908951691485e-02) (147, -2.34621284618736249128e-02) (148, -9.42005455378004952216e-02) (149, -1.22957369932897905146e-02) (150, -8.35019751394071030326e-02) (151, 9.11405295310163121592e-02) (152, 6.36445129846200108314e-02) (153, -1.19852197573055985202e-01) (154, -3.24282812179975676870e-02) (155, 2.43569518735861773040e-02) (156, -7.42938037185699035048e-02) (157, -1.41146891337458769283e-02) (158, -7.36450331734601112282e-03) (159, -6.98293074837055549597e-02) (160, -3.47192360164560245850e-02) (161, 1.03753363311120724161e-02) (162, -2.15896523377864420212e-02) (163, -3.01549553769963687988e-02) (164, 6.67289190289393346900e-02) (165, -2.54522627744605545175e-02) (166, -4.41046468913555145264e-02) (167, 7.57179147703383459422e-02) (168, -4.61923844781328488129e-02) (169, -9.11907671900968053169e-02) (170, 1.17864183809238010775e-02) (171, -4.42650962504020570321e-03) (172, 8.56520122850271820036e-02) (173, -3.35187841131959554652e-02) (174, -4.59376792003562545164e-02) (175, -3.38388577612408064654e-02) (176, 2.84187731124835446517e-02) (177, -8.65603732203133607870e-02) (178, 5.62646145244050238654e-02) (179, 3.48316483579230173895e-02) (180, 1.15065373568714861968e-02) (181, 6.82247751841008331919e-02) (182, 7.52372008596907497491e-03) (183, -2.85307668784087371805e-02) (184, 6.89791631950639472226e-02) (185, 7.72615291732397790891e-02) (186, -9.49864418919964675903e-02) (187, 8.88719931244850158691e-02) (188, -5.04805197415902212610e-02) (189, 4.03247833912379755050e-03) (190, -7.93697231528099067521e-02) (191, 2.08908556347165604017e-02) (192, -9.18462663774076704115e-02) (193, -1.93134123051656968195e-02) (194, 9.79294371250987311095e-02) (195, 8.58770752066565917771e-02) (196, 5.48645658651455564447e-02) (197, -4.28573166321360651820e-02) (198, 7.28950951655251561112e-02) (199, -8.74062043597850640841e-02) (200, -3.75020177997411816029e-02) (201, -2.23135383030366035717e-02) (202, 2.88360114659686741709e-03) (203, -5.36093315250719334997e-02) (204, 3.56515396142354223930e-02) (205, 6.19270651906255326091e-02) (206, 7.52778418606717472650e-03) (207, -2.48734684799087335527e-02) (208, 7.72534385323524475098e-02) (209, -3.56128927607848519421e-02) (210, -8.39031839200400086920e-02) (211, -1.12468738093492899577e-02) (212, -5.80763441599373778090e-02) (213, 1.95222015683496410987e-02) (214, 6.65786026357413074361e-02) (215, -8.86711436528777457999e-02) (216, -1.62149951271939297102e-03) (217, 6.53818412944873472714e-02) (218, 9.46713831587224080577e-02) (219, 6.39265667440774149055e-02) (220, -3.22554835609899157034e-02) (221, -9.09349937193887625231e-02) (222, -2.00221400333284831052e-02) (223, -2.81814841892566274317e-02) (224, 6.37061702754238793484e-03) (225, -1.74116474235830771822e-02) (226, -2.94748281288732746908e-02) (227, -4.44628056542153773933e-02) (228, 3.69585445563772457822e-02) (229, -6.65812194347381591797e-02) (230, -3.16963990041794763108e-02) (231, 9.60002559655431797481e-02) (232, 1.19135052834985939729e-02) (233, 6.07713704681568517296e-02) (234, -4.81496939969193599174e-02) (235, -6.43010454464223030202e-02) (236, 4.21507682000567054925e-02) (237, 5.91561545593265875054e-02) (238, 2.37574778973847385022e-02) (239, 1.69887418274502973196e-04) (240, -5.89757049318168011243e-02) (241, 2.65967633371017829480e-02) (242, -1.05448699437284562630e-01) (243, -4.43464252104284056832e-02) (244, -3.05838493184140899905e-02) (245, 6.27088847509654767620e-02) (246, -1.24603591237670407316e-02) (247, 5.22709401373404186630e-02) (248, 2.70889174612975562606e-02) (249, -2.50710706482403129780e-02) (250, 3.40838631222918769792e-02) (251, -1.00608377301664317360e-01) (252, 2.80872145827877010144e-03) (253, -8.53823926339669359020e-02) (254, -2.30890805430123205455e-02) (255, -1.03143103540643946148e-01) (256, -1.49097140200071566485e-02) (257, 2.59485709794135162298e-02) (258, -4.05887670805341743696e-02) (259, -6.37635278917233899731e-02) (260, 7.90257623202997999678e-02) (261, 1.68549642653659584313e-02) (262, -6.70410081183945016914e-02) (263, -2.87418635297396300732e-02) (264, 1.01393365883565809982e-02) (265, -2.62943300323278290886e-02) (266, 3.31669483112810303815e-02) (267, -6.79436742361275297641e-02) (268, -6.11947464795969675588e-02) (269, -3.77549644050894361857e-02) (270, 3.13639594788547582116e-02) (271, -8.92286170041347269366e-03) (272, -9.96135330461932061441e-02) (273, 5.65813024842650100221e-02) (274, 5.45042336627687071249e-02) (275, -4.15130247090753565220e-02) (276, 3.78471143579661162271e-02) (277, -4.14899423050788460077e-02) (278, -6.05849538109720364698e-02) (279, -2.61797971438787607790e-02) (280, 4.18333443489721096276e-02) (281, 5.94558461205472940647e-02) (282, -2.25348025560379028320e-02) (283, -4.78051863610744476318e-02) (284, 8.08943244751631346245e-02) (285, 5.70840165327048468247e-02) (286, -3.21730300341458094748e-02) (287, -1.38894364573421535275e-02) (288, -4.05996895118071465802e-02) (289, -1.80096936987669906799e-03) (290, 2.37856495266709835890e-02) (291, -8.62582683677914734133e-03) (292, -5.64852432999605955088e-02) (293, 6.01260320676782200611e-02) (294, 6.82737998606608720298e-02) (295, 6.82366267172086621295e-02) (296, -6.11589272803804845369e-02) (297, -3.01992856107414662722e-03) (298, -8.39752574198424500684e-02) (299, -5.73540915671795405867e-03) (300, 7.46024181381895468146e-02) (301, 7.37293293456646875450e-02) (302, 8.50244768866968841925e-02) (303, 8.59026470535000918893e-02) (304, 4.95335919998689880317e-02) (305, 5.84511458554363635964e-02) (306, -5.93529919834583988281e-02) (307, -2.16783230324629865027e-02) (308, -9.43876500101463594694e-02) (309, -6.59538857658046803745e-03) (310, 7.50177208126174277503e-02) (311, 4.41725056536314830691e-02) (312, -2.69678958363886479843e-02) (313, -6.56975904495683687978e-02) (314, -8.61143693327903747559e-02) (315, -4.79337786065611518027e-02) (316, 7.09941354642515259910e-02) (317, -2.39584205225986113241e-02) (318, 4.98276355615870775173e-02) (319, -7.80367919546378664697e-03) (320, 7.83767463688425647383e-02) (321, -2.47175249782588778158e-02) (322, 5.81710328092167952563e-02) (323, -4.13231389989182212874e-02) (324, -5.79385073423135180115e-02) (325, 3.74608055704447190370e-02) (326, -7.46079590211434495739e-02) (327, -1.28169576234562279660e-02) (328, -6.29623347229866375807e-02) (329, -6.99518914587395346238e-02) (330, 6.64443242676868855989e-02) (331, -8.79020400335560753158e-02) (332, -7.72445413685627219058e-02) (333, 7.38579055078226881514e-02) (334, 7.68353269191017068662e-02) (335, 6.54126197659934682793e-02) (336, 1.13545386385377044397e-02) (337, -5.78274300670860233464e-02) (338, -6.17236475364894010553e-02) (339, 3.81446365046022584089e-02) (340, 1.60352655653269206282e-02) (341, -1.03893208042001514158e-01) (342, 4.59271264693041168098e-03) (343, 6.86308397526699948132e-02) (344, -5.15057498565890184428e-02) (345, 1.65723705029993534366e-02) (346, -4.86368993914257988220e-02) (347, -7.27380818978095450289e-02) (348, 8.12983150865200371316e-02) (349, -8.02523441576810936393e-02) (350, 3.59244250428768577277e-02) (351, 8.83321810402462187506e-02) (352, 3.91431978231423366443e-03) (353, 2.48978609711266504062e-03) (354, -6.70340204043932963440e-02) (355, 5.02291843295097351074e-02) (356, -5.24966530501842498779e-02) (357, -1.97640557596244423322e-02) (358, -6.47988897330035173994e-02) (359, -4.56261179099176367863e-03) (360, 9.65059005977907287399e-03) (361, -7.69312086117388826967e-02) (362, -2.80758200910803115084e-04) (363, 4.67337991391588783441e-02) (364, 8.79271377784726221316e-02) (365, 7.73688187001336010601e-03) (366, -7.63124299573433861887e-03) (367, 2.94468058411205234337e-02) (368, 3.53069837932250621404e-02) (369, 3.33606648482092579822e-02) (0, 1.45026685341574940874e-02) (1, -1.77530446326370442561e-03) (2, 3.88806655187958552511e-02) (3, 1.20032775402185154512e-01) (4, -4.50994558255577160377e-02) (5, -1.96664071536688328523e-01) (6, -6.31929367286103611800e-03) (7, 1.08070793138806686695e-01) (8, 7.94499495068069078174e-03) (9, 1.45379113229009149233e-02) (10, 4.92373203791615574043e-02) (11, 3.47539606343251900045e-02) (12, -3.48137108363276229217e-02) (13, 1.02596680119065621073e-02) (14, -3.27338045589566917215e-02) (15, -1.37687611684944762047e-02) (16, -1.20061085622868879419e-01) (17, 4.76792127902973816855e-02) (18, -8.44739908520351773236e-02) (19, 1.95112262405184623548e-02) (20, -5.73869847375328284711e-02) (21, 1.49331357966458085074e-02) (22, -1.38955623083319920741e-02) (23, 6.88019046006209944455e-02) (24, -1.15023713517542671564e-02) (25, -3.34889445613719277661e-02) (26, -8.19321889933347924373e-02) (27, 4.25201356549122291839e-02) (28, -1.12125586286053749441e-01) (29, -5.85968874736630881972e-02) (30, 6.05736292752713095799e-02) (31, -1.43165892834552586216e-02) (32, -2.39038113046194586331e-02) (33, 4.36185926937932445108e-03) (34, -1.09766456890848421168e-01) (35, 4.88103677955170553449e-02) (36, 4.12514808754803757873e-02) (37, 5.22248180681760126864e-02) (38, 4.32999762930302845021e-03) (39, 6.42174351461472919800e-02) (40, -5.93498436154160299849e-02) (41, -2.68024573315164479914e-02) (42, 9.82105750299807622739e-02) (43, 2.32017219451037398636e-02) (44, 8.52158140636943561841e-02) (45, -2.95084898848617487033e-02) (46, -4.39023041412083328550e-02) (47, 4.99426371262554694153e-02) (48, -1.27480995278409225957e-01) (49, -3.56827107864789230818e-02) (50, -9.89145643173231087220e-02) (51, -6.55601921206217103100e-02) (52, -1.08915083039498816753e-01) (53, -4.14087280607105309022e-03) (54, -9.22866934081141843116e-02) (55, -3.20006669760299206073e-02) (56, 6.45413562414963865033e-02) (57, -2.10100555846952502526e-02) (58, -2.19335422723803546985e-02) (59, 6.81957254175525884321e-02) (60, -2.77355836279456107255e-03) (61, -8.61942168349280335438e-02) (62, -7.69348748688564731957e-02) (63, 8.00007535864955543481e-02) (64, 2.30495721875917450316e-02) (65, -2.98584252714408819943e-03) (66, 5.62991843375157188789e-02) (67, -3.70950891368815802163e-02) (68, -5.55052596026332639711e-02) (69, -7.35088363355735352478e-02) (70, -7.03208192364847550770e-02) (71, 2.29877249403432175334e-02) (72, 8.01193185315570155502e-02) (73, -8.32686994075596959020e-02) (74, -6.24028229085034080725e-02) (75, -2.68193354925807918299e-02) (76, -2.86740924778189250344e-02) (77, -2.04424598144149968770e-02) (78, -3.10155365981857021607e-02) (79, 1.91066731068115606973e-02) (80, 5.77966395235811128406e-02) (81, -1.54138037678989304330e-02) (82, -8.02550555676595500643e-02) (83, 6.66366944009900707968e-02) (84, 9.94397675602633479564e-02) (85, -8.65219955984069255539e-02) (86, -8.17175674949208730169e-02) (87, 1.03534290932160225052e-02) (88, 1.13573249891058929151e-02) (89, 8.25102437243786512866e-02) (90, 9.13345562977358957357e-03) (91, -9.60535301693404980350e-02) (92, 1.22107820544555156772e-01) (93, -8.74403360820825426014e-02) (94, -4.52951359212540941024e-02) (95, 7.18640402160352215200e-02) (96, -1.55884201776798842279e-03) (97, 2.73862934672963534433e-02) (98, -7.15738007560838829235e-02) (99, 9.18141708094289410447e-02) (100, -8.32424786808709238350e-02) (101, -5.69525193725018558100e-02) (102, -1.98213432395937839969e-02) (103, -8.57632234692573547363e-02) (104, -1.87158307430260358040e-02) (105, 1.33028740349144785488e-02) (106, 2.47322143967535872100e-02) (107, -8.31189684225150660080e-02) (108, 7.31519149093495385516e-02) (109, 6.63942755928207395399e-02) (110, 3.73244890206703913704e-02) (111, 2.28767422436349371351e-02) (112, -4.67848302737664395456e-02) (113, 7.20050958935617296808e-02) (114, 4.96877444906632936839e-02) (115, -4.44515243106160876096e-02) (116, 9.02653282130943951378e-02) (117, -1.04049319130623291185e-01) (118, 8.14921428775899486796e-02) (119, -5.76518151834518131210e-03) (120, 9.22559444192269928475e-02) (121, 3.70548659459908127922e-02) (122, -1.03594708695993464875e-02) (123, 6.32077825600650677895e-02) (124, 5.20382300019264221191e-02) (125, 3.87725644271231031923e-02) (126, -9.95510534851675767121e-03) (127, -4.80507202514254064263e-02) (128, 3.22624322081764974834e-02) (129, 1.32909104053320018674e-02) (130, -4.27266448147321023510e-02) (131, 1.04349176346492156231e-01) (132, 5.72029313113820853109e-02) (133, 1.22344290632399686075e-02) (134, 9.01695317336950047382e-02) (135, -2.09254245906823552192e-02) (136, -4.67873811679408030395e-02) (137, -1.46231676595187879558e-02) (138, -1.43680585270266111125e-02) (139, -4.99091371081117202158e-02) (140, -3.29685603674097563176e-02) (141, -1.00336977628828427633e-01) (142, -1.02682924394223690223e-01) (143, 6.94710379290811551323e-03) (144, 5.33530567826796947584e-02) (145, 3.98445501923561096191e-02) (146, 7.51550051910986616210e-02) (147, -1.67641824615408774335e-02) (148, 7.30463284973708742998e-02) (149, -1.05186316544509730897e-02) (150, -6.05101825693551559349e-02) (151, 1.13123151499244775642e-01) (152, 3.58953609556291464155e-02) (153, -1.63749243040328951171e-02) (154, -2.84137619937698156225e-02) (155, -4.33833068897693588384e-02) (156, 1.86445243889034398266e-02) (157, 1.08281454889070552494e-01) (158, 1.82339704390086371211e-02) (159, 1.01662150507939016975e-01) (160, -2.56165271938975057375e-02) (161, 7.94765905678637418763e-02) (162, 1.12350679052090340893e-01) (163, -9.96765029525719520320e-02) (164, -2.26494296262927871655e-02) (165, 9.33536205435807897590e-02) (166, 4.69915568828582763672e-03) (167, 7.56296319398537808532e-02) (168, -3.23536310253801848158e-02) (169, 7.35601091389026517930e-02) (170, 9.38828419096332245086e-02) (171, 2.62790766788916878294e-02) (172, 7.99285465376463333254e-02) (173, 1.23596460805749180922e-01) (174, -5.28846338424924927724e-02) (175, 5.27688232835979501023e-02) (176, 1.44753329652944923850e-02) (177, -5.70354253943125485971e-02) (178, -2.16048902248578075791e-02) (179, -3.72802276311258590225e-02) (180, 7.73400603744211490032e-02) (181, 1.17969058876875605019e-02) (182, -1.03208119782470394976e-01) (183, -1.60579562049550685077e-02) (184, -4.55307148803410985383e-02) (185, 6.88647998373216434220e-03) (186, 8.46748850284620158124e-02) (187, 4.62777689099311828613e-02) (188, -3.47504211922537442625e-02) (189, -1.14637573786932171760e-02) (190, 6.12296061241903236128e-02) (191, 7.74952315825727794385e-02) (192, -4.00867497081074039555e-02) (193, 1.66957136979427236273e-03) (194, -8.73737141817895468510e-02) (195, 5.65961622229098834658e-02) (196, -2.98169386681976511522e-02) (197, 4.18448256897864176440e-02) (198, 6.46275860568671506323e-02) (199, 5.05461550777102780474e-02) (200, -8.18416963374472145043e-03) (201, 3.74780296342955496214e-02) (202, -2.33486768162581501129e-02) (203, -4.22178462505128221371e-02) (204, 3.19266252685837595426e-02) (205, 2.45729267791985409031e-02) (206, -1.10622992643481327102e-01) (207, -2.06035702583418807443e-02) (208, 6.16893097758293151855e-02) (209, -1.92039250971309388705e-02) (210, 5.56741970027821719835e-02) (211, 2.86865832230563562455e-02) (212, -8.71955806010539929973e-02) (213, 4.61305454987631369246e-02) (214, -4.11629362231696258045e-02) (215, -2.14553679990760123864e-02) (216, -4.12744800630441485700e-02) (217, 9.80233120085069326022e-02) (218, -8.19177174765503973708e-02) (219, 7.89367664595793383508e-02) (220, -1.74728984599516017073e-03) (221, 3.25095303147974398761e-02) (222, 3.39447940588517432792e-02) (223, 2.45000717739819427743e-02) (224, -8.88231706642217920533e-03) (225, 5.44647918723059273893e-02) (226, 4.42892851989116764777e-02) (227, 5.79041094281656371079e-02) (228, -4.06841965192112058752e-03) (229, -3.53341847658157348633e-02) (230, -8.16263970989097864539e-03) (231, 7.23349280845718561883e-02) 