FANN_FLO_2.1
num_layers=3
learning_rate=0.005000
connection_rate=1.000000
network_type=0
learning_momentum=0.100000
training_algorithm=0
train_error_function=0
train_stop_function=0
cascade_output_change_fraction=0.010000
quickprop_decay=-0.000100
quickprop_mu=1.750000
rprop_increase_factor=1.200000
rprop_decrease_factor=0.500000
rprop_delta_min=0.000000
rprop_delta_max=50.000000
rprop_delta_zero=0.100000
cascade_output_stagnation_epochs=12
cascade_candidate_change_fraction=0.010000
cascade_candidate_stagnation_epochs=12
cascade_max_out_epochs=150
cascade_max_cand_epochs=150
cascade_num_candidate_groups=2
bit_fail_limit=3.49999999999999977796e-01
cascade_candidate_limit=1.00000000000000000000e+03
cascade_weight_multiplier=4.00000000000000022204e-01
cascade_activation_functions_count=10
cascade_activation_functions=3 5 7 8 10 11 14 15 16 17 
cascade_activation_steepnesses_count=4
cascade_activation_steepnesses=2.50000000000000000000e-01 5.00000000000000000000e-01 7.50000000000000000000e-01 1.00000000000000000000e+00 
layer_sizes=355 26 3 
scale_included=0
neurons (num_inputs, activation_function, activation_steepness)=(0, 0, 0.00000000000000000000e+00) (0, 0, 0.00000000000000000000e+00) (0, 0, 0.00000000000000000000e+00) (0, 0, 0.00000000000000000000e+00) (0, 0, 0.00000000000000000000e+00) (0, 0, 0.00000000000000000000e+00) (0, 0, 0.00000000000000000000e+00) (0, 0, 0.00000000000000000000e+00) (0, 0, 0.00000000000000000000e+00) (0, 0, 0.00000000000000000000e+00) (0, 0, 0.00000000000000000000e+00) (0, 0, 0.00000000000000000000e+00) (0, 0, 0.00000000000000000000e+00) (0, 0, 0.00000000000000000000e+00) (0, 0, 0.00000000000000000000e+00) (0, 0, 0.00000000000000000000e+00) (0, 0, 0.00000000000000000000e+00) (0, 0, 0.00000000000000000000e+00) (0, 0, 0.00000000000000000000e+00) (0, 0, 0.00000000000000000000e+00) (0, 0, 0.00000000000000000000e+00) (0, 0, 0.00000000000000000000e+00) (0, 0, 0.00000000000000000000e+00) (0, 0, 0.00000000000000000000e+00) (0, 0, 0.00000000000000000000e+00) (0, 0, 0.00000000000000000000e+00) (0, 0, 0.00000000000000000000e+00) (0, 0, 0.00000000000000000000e+00) (0, 0, 0.00000000000000000000e+00) (0, 0, 0.00000000000000000000e+00) (0, 0, 0.00000000000000000000e+00) (0, 0, 0.00000000000000000000e+00) (0, 0, 0.00000000000000000000e+00) (0, 0, 0.00000000000000000000e+00) (0, 0, 0.00000000000000000000e+00) (0, 0, 0.00000000000000000000e+00) (0, 0, 0.00000000000000000000e+00) (0, 0, 0.00000000000000000000e+00) (0, 0, 0.00000000000000000000e+00) (0, 0, 0.00000000000000000000e+00) (0, 0, 0.00000000000000000000e+00) (0, 0, 0.00000000000000000000e+00) (0, 0, 0.00000000000000000000e+00) (0, 0, 0.00000000000000000000e+00) (0, 0, 0.00000000000000000000e+00) (0, 0, 0.00000000000000000000e+00) (0, 0, 0.00000000000000000000e+00) (0, 0, 0.00000000000000000000e+00) (0, 0, 0.00000000000000000000e+00) (0, 0, 0.00000000000000000000e+00) (0, 0, 0.00000000000000000000e+00) (0, 0, 0.00000000000000000000e+00) (0, 0, 0.00000000000000000000e+00) (0, 0, 0.00000000000000000000e+00) (0, 0, 0.00000000000000000000e+00) (0, 0, 0.00000000000000000000e+00) (0, 0, 0.00000000000000000000e+00) (0, 0, 0.00000000000000000000e+00) (0, 0, 0.00000000000000000000e+00) (0, 0, 0.00000000000000000000e+00) (0, 0, 0.00000000000000000000e+00) (0, 0, 0.00000000000000000000e+00) (0, 0, 0.00000000000000000000e+00) (0, 0, 0.00000000000000000000e+00) (0, 0, 0.00000000000000000000e+00) (0, 0, 0.00000000000000000000e+00) (0, 0, 0.00000000000000000000e+00) (0, 0, 0.00000000000000000000e+00) (0, 0, 0.00000000000000000000e+00) (0, 0, 0.00000000000000000000e+00) (0, 0, 0.00000000000000000000e+00) (0, 0, 0.00000000000000000000e+00) (0, 0, 0.00000000000000000000e+00) (0, 0, 0.00000000000000000000e+00) (0, 0, 0.00000000000000000000e+00) (0, 0, 0.00000000000000000000e+00) (0, 0, 0.00000000000000000000e+00) (0, 0, 0.00000000000000000000e+00) (0, 0, 0.00000000000000000000e+00) (0, 0, 0.00000000000000000000e+00) (0, 0, 0.00000000000000000000e+00) (0, 0, 0.00000000000000000000e+00) (0, 0, 0.00000000000000000000e+00) (0, 0, 0.00000000000000000000e+00) (0, 0, 0.00000000000000000000e+00) (0, 0, 0.00000000000000000000e+00) (0, 0, 0.00000000000000000000e+00) (0, 0, 0.00000000000000000000e+00) (0, 0, 0.00000000000000000000e+00) (0, 0, 0.00000000000000000000e+00) (0, 0, 0.00000000000000000000e+00) (0, 0, 0.00000000000000000000e+00) (0, 0, 0.00000000000000000000e+00) (0, 0, 0.00000000000000000000e+00) (0, 0, 0.00000000000000000000e+00) (0, 0, 0.00000000000000000000e+00) (0, 0, 0.00000000000000000000e+00) (0, 0, 0.00000000000000000000e+00) (0, 0, 0.00000000000000000000e+00) (0, 0, 0.00000000000000000000e+00) (0, 0, 0.00000000000000000000e+00) (0, 0, 0.00000000000000000000e+00) (0, 0, 0.00000000000000000000e+00) (0, 0, 0.00000000000000000000e+00) (0, 0, 0.00000000000000000000e+00) (0, 0, 0.00000000000000000000e+00) (0, 0, 0.00000000000000000000e+00) (0, 0, 0.00000000000000000000e+00) (0, 0, 0.00000000000000000000e+00) (0, 0, 0.00000000000000000000e+00) (0, 0, 0.00000000000000000000e+00) (0, 0, 0.00000000000000000000e+00) (0, 0, 0.00000000000000000000e+00) (0, 0, 0.00000000000000000000e+00) (0, 0, 0.00000000000000000000e+00) (0, 0, 0.00000000000000000000e+00) (0, 0, 0.00000000000000000000e+00) (0, 0, 0.00000000000000000000e+00) (0, 0, 0.00000000000000000000e+00) (0, 0, 0.00000000000000000000e+00) (0, 0, 0.00000000000000000000e+00) (0, 0, 0.00000000000000000000e+00) (0, 0, 0.00000000000000000000e+00) (0, 0, 0.00000000000000000000e+00) (0, 0, 0.00000000000000000000e+00) (0, 0, 0.00000000000000000000e+00) (0, 0, 0.00000000000000000000e+00) (0, 0, 0.00000000000000000000e+00) (0, 0, 0.00000000000000000000e+00) (0, 0, 0.00000000000000000000e+00) (0, 0, 0.00000000000000000000e+00) (0, 0, 0.00000000000000000000e+00) (0, 0, 0.00000000000000000000e+00) (0, 0, 0.00000000000000000000e+00) (0, 0, 0.00000000000000000000e+00) (0, 0, 0.00000000000000000000e+00) (0, 0, 0.00000000000000000000e+00) (0, 0, 0.00000000000000000000e+00) (0, 0, 0.00000000000000000000e+00) (0, 0, 0.00000000000000000000e+00) (0, 0, 0.00000000000000000000e+00) (0, 0, 0.00000000000000000000e+00) (0, 0, 0.00000000000000000000e+00) (0, 0, 0.00000000000000000000e+00) (0, 0, 0.00000000000000000000e+00) (0, 0, 0.00000000000000000000e+00) (0, 0, 0.00000000000000000000e+00) (0, 0, 0.00000000000000000000e+00) (0, 0, 0.00000000000000000000e+00) (0, 0, 0.00000000000000000000e+00) (0, 0, 0.00000000000000000000e+00) (0, 0, 0.00000000000000000000e+00) (0, 0, 0.00000000000000000000e+00) (0, 0, 0.00000000000000000000e+00) (0, 0, 0.00000000000000000000e+00) (0, 0, 0.00000000000000000000e+00) (0, 0, 0.00000000000000000000e+00) (0, 0, 0.00000000000000000000e+00) (0, 0, 0.00000000000000000000e+00) (0, 0, 0.00000000000000000000e+00) (0, 0, 0.00000000000000000000e+00) (0, 0, 0.00000000000000000000e+00) (0, 0, 0.00000000000000000000e+00) (0, 0, 0.00000000000000000000e+00) (0, 0, 0.00000000000000000000e+00) (0, 0, 0.00000000000000000000e+00) (0, 0, 0.00000000000000000000e+00) (0, 0, 0.00000000000000000000e+00) (0, 0, 0.00000000000000000000e+00) (0, 0, 0.00000000000000000000e+00) (0, 0, 0.00000000000000000000e+00) (0, 0, 0.00000000000000000000e+00) (0, 0, 0.00000000000000000000e+00) (0, 0, 0.00000000000000000000e+00) (0, 0, 0.00000000000000000000e+00) (0, 0, 0.00000000000000000000e+00) (0, 0, 0.00000000000000000000e+00) (0, 0, 0.00000000000000000000e+00) (0, 0, 0.00000000000000000000e+00) (0, 0, 0.00000000000000000000e+00) (0, 0, 0.00000000000000000000e+00) (0, 0, 0.00000000000000000000e+00) (0, 0, 0.00000000000000000000e+00) (0, 0, 0.00000000000000000000e+00) (0, 0, 0.00000000000000000000e+00) (0, 0, 0.00000000000000000000e+00) (0, 0, 0.00000000000000000000e+00) (0, 0, 0.00000000000000000000e+00) (0, 0, 0.00000000000000000000e+00) (0, 0, 0.00000000000000000000e+00) (0, 0, 0.00000000000000000000e+00) (0, 0, 0.00000000000000000000e+00) (0, 0, 0.00000000000000000000e+00) (0, 0, 0.00000000000000000000e+00) (0, 0, 0.00000000000000000000e+00) (0, 0, 0.00000000000000000000e+00) (0, 0, 0.00000000000000000000e+00) (0, 0, 0.00000000000000000000e+00) (0, 0, 0.00000000000000000000e+00) (0, 0, 0.00000000000000000000e+00) (0, 0, 0.00000000000000000000e+00) (0, 0, 0.00000000000000000000e+00) (0, 0, 0.00000000000000000000e+00) (0, 0, 0.00000000000000000000e+00) (0, 0, 0.00000000000000000000e+00) (0, 0, 0.00000000000000000000e+00) (0, 0, 0.00000000000000000000e+00) (0, 0, 0.00000000000000000000e+00) (0, 0, 0.00000000000000000000e+00) (0, 0, 0.00000000000000000000e+00) (0, 0, 0.00000000000000000000e+00) (0, 0, 0.00000000000000000000e+00) (0, 0, 0.00000000000000000000e+00) (0, 0, 0.00000000000000000000e+00) (0, 0, 0.00000000000000000000e+00) (0, 0, 0.00000000000000000000e+00) (0, 0, 0.00000000000000000000e+00) (0, 0, 0.00000000000000000000e+00) (0, 0, 0.00000000000000000000e+00) (0, 0, 0.00000000000000000000e+00) (0, 0, 0.00000000000000000000e+00) (0, 0, 0.00000000000000000000e+00) (0, 0, 0.00000000000000000000e+00) (0, 0, 0.00000000000000000000e+00) (0, 0, 0.00000000000000000000e+00) (0, 0, 0.00000000000000000000e+00) (0, 0, 0.00000000000000000000e+00) (0, 0, 0.00000000000000000000e+00) (0, 0, 0.00000000000000000000e+00) (0, 0, 0.00000000000000000000e+00) (0, 0, 0.00000000000000000000e+00) (0, 0, 0.00000000000000000000e+00) (0, 0, 0.00000000000000000000e+00) (0, 0, 0.00000000000000000000e+00) (0, 0, 0.00000000000000000000e+00) (0, 0, 0.00000000000000000000e+00) (0, 0, 0.00000000000000000000e+00) (0, 0, 0.00000000000000000000e+00) (0, 0, 0.00000000000000000000e+00) (0, 0, 0.00000000000000000000e+00) (0, 0, 0.00000000000000000000e+00) (0, 0, 0.00000000000000000000e+00) (0, 0, 0.00000000000000000000e+00) (0, 0, 0.00000000000000000000e+00) (0, 0, 0.00000000000000000000e+00) (0, 0, 0.00000000000000000000e+00) (0, 0, 0.00000000000000000000e+00) (0, 0, 0.00000000000000000000e+00) (0, 0, 0.00000000000000000000e+00) (0, 0, 0.00000000000000000000e+00) (0, 0, 0.00000000000000000000e+00) (0, 0, 0.00000000000000000000e+00) (0, 0, 0.00000000000000000000e+00) (0, 0, 0.00000000000000000000e+00) (0, 0, 0.00000000000000000000e+00) (0, 0, 0.00000000000000000000e+00) (0, 0, 0.00000000000000000000e+00) (0, 0, 0.00000000000000000000e+00) (0, 0, 0.00000000000000000000e+00) (0, 0, 0.00000000000000000000e+00) (0, 0, 0.00000000000000000000e+00) (0, 0, 0.00000000000000000000e+00) (0, 0, 0.00000000000000000000e+00) (0, 0, 0.00000000000000000000e+00) (0, 0, 0.00000000000000000000e+00) (0, 0, 0.00000000000000000000e+00) (0, 0, 0.00000000000000000000e+00) (0, 0, 0.00000000000000000000e+00) (0, 0, 0.00000000000000000000e+00) (0, 0, 0.00000000000000000000e+00) (0, 0, 0.00000000000000000000e+00) (0, 0, 0.00000000000000000000e+00) (0, 0, 0.00000000000000000000e+00) (0, 0, 0.00000000000000000000e+00) (0, 0, 0.00000000000000000000e+00) (0, 0, 0.00000000000000000000e+00) (0, 0, 0.00000000000000000000e+00) (0, 0, 0.00000000000000000000e+00) (0, 0, 0.00000000000000000000e+00) (0, 0, 0.00000000000000000000e+00) (0, 0, 0.00000000000000000000e+00) (0, 0, 0.00000000000000000000e+00) (0, 0, 0.00000000000000000000e+00) (0, 0, 0.00000000000000000000e+00) (0, 0, 0.00000000000000000000e+00) (0, 0, 0.00000000000000000000e+00) (0, 0, 0.00000000000000000000e+00) (0, 0, 0.00000000000000000000e+00) (0, 0, 0.00000000000000000000e+00) (0, 0, 0.00000000000000000000e+00) (0, 0, 0.00000000000000000000e+00) (0, 0, 0.00000000000000000000e+00) (0, 0, 0.00000000000000000000e+00) (0, 0, 0.00000000000000000000e+00) (0, 0, 0.00000000000000000000e+00) (0, 0, 0.00000000000000000000e+00) (0, 0, 0.00000000000000000000e+00) (0, 0, 0.00000000000000000000e+00) (0, 0, 0.00000000000000000000e+00) (0, 0, 0.00000000000000000000e+00) (0, 0, 0.00000000000000000000e+00) (0, 0, 0.00000000000000000000e+00) (0, 0, 0.00000000000000000000e+00) (0, 0, 0.00000000000000000000e+00) (0, 0, 0.00000000000000000000e+00) (0, 0, 0.00000000000000000000e+00) (0, 0, 0.00000000000000000000e+00) (0, 0, 0.00000000000000000000e+00) (0, 0, 0.00000000000000000000e+00) (0, 0, 0.00000000000000000000e+00) (0, 0, 0.00000000000000000000e+00) (0, 0, 0.00000000000000000000e+00) (0, 0, 0.00000000000000000000e+00) (0, 0, 0.00000000000000000000e+00) (0, 0, 0.00000000000000000000e+00) (0, 0, 0.00000000000000000000e+00) (0, 0, 0.00000000000000000000e+00) (0, 0, 0.00000000000000000000e+00) (0, 0, 0.00000000000000000000e+00) (0, 0, 0.00000000000000000000e+00) (0, 0, 0.00000000000000000000e+00) (0, 0, 0.00000000000000000000e+00) (0, 0, 0.00000000000000000000e+00) (0, 0, 0.00000000000000000000e+00) (0, 0, 0.00000000000000000000e+00) (0, 0, 0.00000000000000000000e+00) (0, 0, 0.00000000000000000000e+00) (0, 0, 0.00000000000000000000e+00) (0, 0, 0.00000000000000000000e+00) (0, 0, 0.00000000000000000000e+00) (0, 0, 0.00000000000000000000e+00) (0, 0, 0.00000000000000000000e+00) (0, 0, 0.00000000000000000000e+00) (0, 0, 0.00000000000000000000e+00) (0, 0, 0.00000000000000000000e+00) (0, 0, 0.00000000000000000000e+00) (0, 0, 0.00000000000000000000e+00) (0, 0, 0.00000000000000000000e+00) (0, 0, 0.00000000000000000000e+00) (0, 0, 0.00000000000000000000e+00) (0, 0, 0.00000000000000000000e+00) (0, 0, 0.00000000000000000000e+00) (0, 0, 0.00000000000000000000e+00) (0, 0, 0.00000000000000000000e+00) (0, 0, 0.00000000000000000000e+00) (0, 0, 0.00000000000000000000e+00) (0, 0, 0.00000000000000000000e+00) (0, 0, 0.00000000000000000000e+00) (0, 0, 0.00000000000000000000e+00) (0, 0, 0.00000000000000000000e+00) (0, 0, 0.00000000000000000000e+00) (0, 0, 0.00000000000000000000e+00) (0, 0, 0.00000000000000000000e+00) (0, 0, 0.00000000000000000000e+00) (0, 0, 0.00000000000000000000e+00) (355, 3, 5.00000000000000000000e-01) (355, 3, 5.00000000000000000000e-01) (355, 3, 5.00000000000000000000e-01) (355, 3, 5.00000000000000000000e-01) (355, 3, 5.00000000000000000000e-01) (355, 3, 5.00000000000000000000e-01) (355, 3, 5.00000000000000000000e-01) (355, 3, 5.00000000000000000000e-01) (355, 3, 5.00000000000000000000e-01) (355, 3, 5.00000000000000000000e-01) (355, 3, 5.00000000000000000000e-01) (355, 3, 5.00000000000000000000e-01) (355, 3, 5.00000000000000000000e-01) (355, 3, 5.00000000000000000000e-01) (355, 3, 5.00000000000000000000e-01) (355, 3, 5.00000000000000000000e-01) (355, 3, 5.00000000000000000000e-01) (355, 3, 5.00000000000000000000e-01) (355, 3, 5.00000000000000000000e-01) (355, 3, 5.00000000000000000000e-01) (355, 3, 5.00000000000000000000e-01) (355, 3, 5.00000000000000000000e-01) (355, 3, 5.00000000000000000000e-01) (355, 3, 5.00000000000000000000e-01) (355, 3, 5.00000000000000000000e-01) (0, 3, 0.00000000000000000000e+00) (26, 3, 5.00000000000000000000e-01) (26, 3, 5.00000000000000000000e-01) (0, 3, 0.00000000000000000000e+00) 
connections (connected_to_neuron, weight)=(0, 2.11076868789966815010e-02) (1, 8.74537364123506438807e-02) (2, -2.33590872285217195092e-02) (3, 1.05425988467477971255e-01) (4, -3.38539037446080812166e-02) (5, -4.47485162128403394372e-03) (6, -6.66441722581321005503e-02) (7, 3.27460387828318738590e-02) (8, 5.63028890024197883890e-02) (9, 9.27392026929630131082e-02) (10, -8.85767213560532257199e-02) (11, -1.05647938544600292210e-01) (12, 4.52546708444079709421e-02) (13, -2.82971828558842147805e-02) (14, -4.99401341223686262571e-02) (15, -1.04844193514910560827e-01) (16, -1.04663826828956585402e-01) (17, 3.21600990611387652085e-02) (18, 5.53385893079913968040e-02) (19, 1.19688129880456725629e-01) (20, -2.75835109588341807763e-02) (21, -1.08587984635165585301e-01) (22, -1.06801049891389263080e-02) (23, -1.58897175257517508928e-01) (24, -9.44559833735383047593e-02) (25, -1.11556365220248768222e-01) (26, -1.00728032035264078448e-01) (27, -2.43664090385666389296e-04) (28, -7.76235914206283572625e-02) (29, 5.40396016271547860454e-02) (30, 6.09480067594425217736e-02) (31, -1.49687835181453003652e-02) (32, 3.06932335109522322347e-02) (33, -1.44275747884784356218e-02) (34, 2.01399266335151455598e-02) (35, -5.32791772191342702381e-02) (36, -8.04173922550688313748e-02) (37, 3.08427346328779099227e-02) (38, 2.42526731513398180473e-02) (39, 6.17129813684419853415e-02) (40, -3.16762836499401637114e-02) (41, 1.05827675633523767690e-02) (42, 5.01879402114515371647e-02) (43, -6.60326551971954223141e-02) (44, -1.33600891477844069266e-01) (45, -5.83670696937055866194e-02) (46, -1.85318788675361808063e-03) (47, -7.52021164872570119231e-02) (48, 9.42498411341976677358e-02) (49, 1.25603418734293800774e-02) (50, 9.65996011626978345888e-02) (51, -3.31781129367924379481e-02) (52, -4.83930557578336750790e-02) (53, -1.37019461670936891495e-02) (54, -3.12460197176368005556e-02) (55, 4.54972080880075360754e-02) (56, 6.06401313521884744590e-03) (57, 4.93136326307636388422e-03) (58, -4.40942166642404806409e-02) (59, 3.77638365607404699609e-02) (60, -3.21619474761156085019e-02) (61, -7.59886083142287949155e-02) (62, -1.94468003291253209441e-02) (63, -4.78880682844071009496e-02) (64, 3.01567421736021953893e-02) (65, 5.35008289230057068608e-02) (66, -4.46371546402012306376e-02) (67, 5.26878149383253127636e-02) (68, 5.72111967505737825657e-03) (69, 9.53910227630292151257e-02) (70, 6.05166673152920074619e-03) (71, -6.20218896739186606459e-02) (72, 9.71605916520090588662e-03) (73, -4.08061204492524490228e-02) (74, -2.55705055915146917123e-02) (75, 1.55409009346997931122e-02) (76, 6.57994939759772995425e-02) (77, -5.74488329642527315033e-02) (78, 5.48640632813937878520e-02) (79, 2.06216365232714353428e-02) (80, 1.61730858085552993419e-02) (81, 9.49666542687693099323e-02) (82, -8.55568948357273290073e-02) (83, -1.00559732109917754350e-01) (84, -5.30360254554919849368e-02) (85, -1.65946563180075050414e-02) (86, 3.67722139170907832972e-02) (87, 7.67695195866173046850e-02) (88, 1.06833034045321795258e-01) (89, 6.55649943189061945592e-02) (90, -2.05049475134568308030e-03) (91, -2.60724225382109597859e-02) (92, -8.18776432805934234471e-02) (93, 6.10201481244738927479e-02) (94, 9.47569498976232570120e-03) (95, 5.78863441218896504492e-02) (96, 3.62468734383583068848e-02) (97, -8.50998026984707556242e-02) (98, -3.05879374818078600407e-02) (99, -4.43714869344932483219e-02) (100, -1.04518156949557197710e-01) (101, 6.16537290641232804678e-02) (102, 6.05405442417244511744e-03) (103, 6.80658010760695902919e-02) (104, -7.45057143997582410622e-02) (105, 8.61783161353067705956e-02) (106, 2.82687651315530960594e-02) (107, -8.09110180482409541147e-02) (108, -6.23752044756479412380e-02) (109, -1.77979505662594142401e-02) (110, 1.11986768767322775187e-01) (111, 4.71686486658691381257e-02) (112, -3.47761794003982743773e-02) (113, 1.12480117247096056410e-01) (114, 5.59291526273488284748e-02) (115, 2.14984906777569428904e-02) (116, -1.94115749989565884726e-02) (117, -7.39356130361557006836e-03) (118, -3.91511832818055224847e-02) (119, -1.11674035977993020390e-03) (120, -1.51350199487276966537e-02) (121, 9.44108563728332655929e-02) (122, 6.48077805287749914021e-02) (123, -1.32692409362503704884e-02) (124, 4.07670509713792886264e-02) (125, 1.73599847269427717822e-02) (126, -8.74337581828006638052e-02) (127, 3.08687185979751692322e-02) (128, 2.13509179105861902903e-02) (129, -1.85225666546271414137e-02) (130, 6.20097030953888073146e-02) (131, 3.53595964129619633187e-02) (132, 5.25534449184629492979e-03) (133, -6.21407351627488238610e-02) (134, 7.70443905881889722770e-03) (135, 7.79922659401914020183e-02) (136, -7.67182938553610943577e-02) (137, 5.03349462177322473644e-02) (138, -9.39176008105278015137e-02) (139, -3.30037121009958689388e-02) (140, -3.98619493236914007595e-02) (141, 7.44253813769934075006e-02) (142, -8.57183423228937979577e-02) (143, 3.98170314275444470198e-02) (144, 1.05651684237166101910e-01) (145, 1.02297301346563826452e-01) (146, -1.69918907294899362848e-02) (147, -3.32057917052560186422e-02) (148, 2.41088552815395219461e-03) (149, 5.17400720669276489860e-02) (150, 4.03368032868516926404e-02) (151, 4.96295993585415678995e-02) (152, 3.84148955094015531753e-02) (153, 3.21676923820203922166e-02) (154, -4.76504883332991360789e-02) (155, -2.11637144112862378431e-02) (156, -7.31467807980324402628e-02) (157, -6.66554316056750528752e-02) (158, 5.69896018565676926171e-02) (159, 5.73165789246559143066e-02) (160, 7.94698826696547122594e-02) (161, 4.02040438105652139789e-02) (162, 9.24986835801795519163e-03) (163, -7.69000485914027170908e-02) (164, 1.14763432638279247455e-01) (165, 1.31728024185172515326e-01) (166, -9.57549426464614772403e-02) (167, -8.44027150728423047887e-02) (168, 7.60648209716441453532e-02) (169, -1.02895786535884062318e-01) (170, 5.79065669185554435412e-04) (171, -5.03287907331572068048e-02) (172, -9.57686387331620758712e-02) (173, 2.38268202735760145639e-02) (174, 5.04873883287502780992e-02) (175, 1.13474674499891153845e-01) (176, 3.97653421148260431683e-03) (177, -1.11149641496966183896e-01) (178, -5.43408312231181619967e-02) (179, 9.42986889502863967483e-02) (180, 5.09680435061454772949e-02) (181, -5.24332286232485553223e-02) (182, 5.88828021090354383760e-02) (183, -1.81120149308561170787e-02) (184, 6.64355638942557835680e-02) (185, 8.44548907878800853011e-02) (186, 9.67447557562155086019e-02) (187, 9.45681487140288129511e-02) (188, -9.98414495043984800970e-02) (189, 7.15164677556403421965e-02) (190, 5.34164458202042446988e-02) (191, 8.50567591534673178577e-02) (192, 2.10184382499938775604e-03) (193, -5.48851961907650259809e-02) (194, -6.70420598817079715914e-02) (195, 1.77002489614980808297e-02) (196, -9.63779117365542725704e-02) (197, -9.27940819773504649293e-02) (198, 3.67285441668810594407e-02) (199, 1.14369617557131139640e-01) (200, -6.38362044993411453797e-02) (201, -3.86474207043647766113e-02) (202, -6.20073872522931487938e-02) (203, -5.60538768652642516166e-02) (204, 9.89559133057502787745e-02) (205, 9.98976896834708333328e-02) (206, -4.80524797824033109150e-02) (207, -2.87901525743572347937e-02) (208, -9.77140502533525440176e-02) (209, 1.39561596196853040380e-02) (210, -2.01508418023467125724e-02) (211, 7.47324998741618201636e-02) (212, 5.85211860915480913681e-02) (213, -7.07782766052963696612e-02) (214, -3.90053478879965678794e-02) (215, 1.77762991910116116556e-02) (216, -7.35596992796083981592e-02) (217, -8.08542208106744486606e-02) (218, 6.33720659421912677067e-03) (219, -6.72250287282436104208e-02) (220, 1.04710115099764536351e-01) (221, -3.63766340402060309178e-02) (222, -9.14656743407249450684e-02) (223, 2.42717809249202477739e-02) (224, -8.10573230375365855194e-03) (225, -7.60606112510587573095e-02) (226, -3.81335210146764649886e-02) (227, 2.70798585794346964584e-02) (228, -5.47420352571266269348e-02) (229, -7.72665880927205089845e-02) (230, 6.31308072691905402402e-03) (231, -3.69626556074643536354e-02) (232, -5.87396851830330191113e-02) (233, 6.68491033645695342802e-02) (234, 1.17837060595210076086e-02) (235, -7.52673897180718975974e-02) (236, 6.71886441451099991617e-02) (237, 4.65135103578017475301e-02) (238, 7.05344896078245325866e-02) (239, 6.26148145582998000291e-02) (240, -2.87349625558021917748e-02) (241, -2.54885065059881101013e-02) (242, 3.19122553220571661403e-02) (243, -7.20427575727289326579e-02) (244, -1.03417830246760340113e-02) (245, 8.30774168218675890252e-02) (246, 4.07245004555443837480e-02) (247, 2.23288501013580893695e-02) (248, -1.02918025537699339700e-01) (249, -5.82111170710959899277e-02) (250, 6.44605659379826612110e-02) (251, -1.09349115567611218647e-01) (252, -2.74898200187051328092e-02) (253, 7.79535361716385544195e-02) (254, 3.38237983710310760599e-02) (255, 9.10497037796458574821e-02) (256, 5.21511476550662600449e-02) (257, 8.67020752006028294634e-02) (258, 3.64590733008250192371e-02) (259, -7.95580833165566436715e-02) (260, 4.47078778308790600327e-02) (261, -4.84980585960795851364e-02) (262, -3.71572904100755524448e-02) (263, -7.83607708864852148256e-02) (264, 9.71374131762176989957e-02) (265, -1.09508980361387786573e-01) (266, -3.56300944147468282019e-02) (267, 3.18946562735789654330e-02) (268, 4.77256112725492065429e-02) (269, -9.25454599945950001638e-02) (270, -8.60152103590575839442e-03) (271, -6.71084425526938116446e-02) (272, -5.46740976150266039246e-02) (273, -5.65797888684958019678e-02) (274, -4.27642722251992332683e-02) (275, 8.88286173827769059974e-02) (276, -8.71962341120350037382e-02) (277, -9.65144473158127264023e-02) (278, 5.20519763959221247462e-03) (279, -7.40983875624855181652e-02) (280, -7.21963790060241583646e-02) (281, -6.33534252960653160303e-02) (282, -5.79060042675590067041e-02) (283, 5.65503789841932738569e-02) (284, 3.79115898342084062245e-02) (285, -8.44182420288599674740e-03) (286, 5.22674129578870119706e-02) (287, 9.59638168872949393062e-02) (288, 9.61451139958488382176e-02) (289, -6.54935172968906936797e-02) (290, 8.51876939018872680887e-02) (291, 8.07363502837588260276e-04) (292, 1.66668438445497675560e-02) (293, -2.88135770560816184549e-02) (294, 4.00416021487855627869e-02) (295, 5.67772874656432419149e-03) (296, 3.48558719174105816063e-02) (297, -8.30973238386301105152e-02) (298, -6.15488685184874748102e-02) (299, -4.65887373342867283643e-02) (300, -2.45187035197871674996e-02) (301, 5.09340876604158845908e-02) (302, 3.18734710483724384411e-02) (303, 6.17529641378583155076e-02) (304, -6.88000046698127171174e-02) (305, 5.57370819198197489652e-02) (306, 8.16046208923409538416e-02) (307, -2.95141574314960117298e-02) (308, 5.11160450815525690960e-02) (309, 3.56525379324882469786e-03) (310, -1.21684310235874795780e-02) (311, -7.54827633500099182129e-02) (312, -1.72899901915918967343e-02) (313, 2.71581589360634020891e-02) (314, 8.60079842100635455493e-02) (315, -4.33987640753401154869e-02) (316, 5.82778878406227992398e-03) (317, -1.36821351784278347902e-02) (318, -3.17090041330224670091e-02) (319, -4.06948079914971269644e-02) (320, 8.96487830482531194987e-02) (321, -5.79431764832833151591e-02) (322, 6.52844611095837745740e-02) (323, -1.11953436652522629602e-02) (324, 6.21648596797690286553e-02) (325, -2.05238706898900960529e-02) (326, 6.10544285386262278181e-02) (327, -6.27767016416892337238e-02) (328, 2.90227631355986330497e-02) (329, -6.95821168638438708465e-02) (330, 3.51958100242416582759e-03) (331, -1.03775340507363172948e-01) (332, -7.73158885044834542910e-02) (333, -1.17869174518829972209e-01) (334, 1.17683335407998260203e-01) (335, -8.87983102740813740050e-02) (336, 5.22638648751903786560e-02) (337, 5.67032361050339786535e-02) (338, -1.08551017708662170258e-02) (339, -1.09351425085469078358e-02) (340, -1.58148275144895572586e-01) (341, -4.72749116742645289491e-02) (342, 5.25899463805088451807e-02) (343, 6.65860293029914146468e-02) (344, 3.31082720362822977012e-02) (345, 6.25316357528225424955e-02) (346, -2.85753624292349218960e-02) (347, 6.94493024948032982441e-03) (348, -4.81280014832264277369e-02) (349, 2.52893755652004587064e-02) (350, 2.92745668841258160908e-02) (351, -8.26169679792605610169e-02) (352, -6.41713812947273254395e-02) (353, 1.68955549597740173340e-02) (354, 1.05416183950145028736e-02) (0, 2.38493450733838041611e-01) (1, 1.42533797060883284796e-02) (2, -3.62516988949389343255e-02) (3, 3.95440959879541087396e-02) (4, 1.30523028219743097988e-02) (5, -7.43657071789800977468e-02) (6, 8.64620433651386646745e-03) (7, 1.00298805938528468040e-01) (8, -1.24239536125810238337e-02) (9, 1.53226590843576093715e-01) (10, 4.69898085536717413646e-02) (11, -1.49830240405338765974e-01) (12, -3.80407993835351135314e-02) (13, 6.98846883591092565835e-02) (14, 1.23624882525959940704e-02) (15, -2.07789246298618862641e-01) (16, 2.27152908744734371993e-02) (17, -7.55438207974969133662e-02) (18, -5.57631494297526064674e-02) (19, 2.18547071327590824996e-01) (20, 9.24149281781762588217e-02) (21, 1.26954082818375696418e-01) (22, 3.23112502352057183105e-03) (23, -1.42848414323381356361e-01) (24, -2.66721734960004876192e-02) (25, 8.41652498340476340477e-02) (26, -1.83497674466387622472e-01) (27, -4.83732317365468192372e-02) (28, -1.01072188335612114796e-01) (29, 1.13615453924180501155e-01) (30, -4.03622165980527386475e-02) (31, -1.02874997307428009408e-01) (32, 1.40492018642808275120e-01) (33, 1.09218567892076526271e-01) (34, 1.16464006852517218404e-01) (35, 1.11090909657574482550e-01) (36, 9.89907008100729124411e-02) (37, 1.61767410753468010576e-01) (38, 1.67180059193683366869e-01) (39, 2.98954861168689647877e-02) (40, 4.77514021805549859767e-02) (41, 1.03963069573844421600e-01) (42, 5.59719119286468044794e-02) (43, -8.84506189826937821996e-02) (44, -8.09234854526853092382e-02) (45, 3.47365560744238091595e-02) (46, 4.77378122811754207477e-02) (47, 9.37058472408419246280e-02) (48, 1.22904249065445253519e-01) (49, 2.27399397506215433795e-01) (50, 1.50643939589998176326e-02) (51, 1.40951303905688829499e-01) (52, 3.77502478212246167510e-02) (53, 6.06636495980148113261e-02) (54, -2.03547376148556884157e-02) (55, 4.77185196396963384746e-02) (56, 1.77212932097422122546e-02) (57, 2.74153696130702284606e-02) (58, 2.54650096495217517431e-03) (59, -2.44642405367758823675e-02) (60, -1.06427113162619019215e-01) (61, -5.03664168543292503633e-02) (62, 4.73228052971698190388e-02) (63, -9.30582482066409921728e-02) (64, 1.54522854890778624758e-03) (65, 1.08657645743382921810e-02) (66, 5.55027379885708604945e-02) (67, 5.50537579651528552471e-02) (68, 5.83188084276368493009e-02) (69, 5.98365442321453500085e-02) (70, -1.08199192953369865283e-02) (71, 6.87214075707985316832e-02) (72, -5.64699444265156641487e-02) (73, -1.19161520582621346942e-01) (74, -1.06909300153314925502e-02) (75, -1.77051789944631193796e-01) (76, 1.04544316974553755384e-01) (77, 3.17657465725312351812e-02) (78, -6.42244883150322187770e-02) (79, -7.95677133766574916363e-03) (80, -8.00897437887333057960e-02) (81, 1.84838104596069363605e-01) (82, 2.51719167873771798583e-02) (83, -8.96376747212087321426e-02) (84, -5.47802844393089558017e-02) (85, 2.31656801252855190643e-02) (86, -9.80059305234985272959e-02) (87, 1.17729324961831235963e-01) (88, -4.29218464842187896746e-02) (89, 2.17798806612856388210e-02) (90, -1.11015752546743950990e-01) (91, -7.54654650394957771109e-02) (92, -6.10381089186984929218e-02) (93, -2.33390667772499643684e-02) (94, -1.41579977493610342787e-01) (95, 2.16393092259947522268e-03) (96, -6.03233054280281066895e-02) (97, -7.87705118370325696464e-02) (98, -6.89336707417542021714e-02) (99, 2.48223970548534129954e-02) (100, 4.07413316018345132014e-03) (101, -1.02695959590802396444e-01) (102, 3.44430724099050178388e-02) (103, -4.52925602001006278458e-03) (104, -1.12291583942844358512e-01) (105, 1.83146455786682635369e-02) (106, -1.40361248380869510499e-02) (107, -6.33595588118021635360e-02) (108, 4.73654628660936799500e-02) (109, 1.00228552616246691098e-01) (110, -5.52877142996073892012e-02) (111, 4.10343023995815986416e-02) (112, 5.77487671710545935611e-02) (113, 2.14260035570850541908e-02) (114, 5.22329368861665227497e-02) (115, -7.36454789392204794973e-02) (116, -7.47054319087295248814e-02) (117, -7.20610022544860839844e-02) (118, 4.27106320988311291553e-02) (119, 6.21941136736459034701e-03) (120, 8.01262232391811157761e-02) (121, -2.97928227700431924596e-02) (122, -3.94757532387473644708e-02) (123, -9.75275902716330467257e-02) (124, 4.41179333075196120073e-02) (125, 7.06988345954262520365e-03) (126, -2.29544631848693607423e-02) (127, 9.07768770437940852869e-02) (128, 5.06514618231930086045e-02) (129, 3.85248048727987110751e-02) (130, 4.98320860420512767863e-02) (131, 6.04858004165233047178e-03) (132, -6.76483390518651112044e-02) (133, 6.75815103752938489690e-02) (134, 7.08789506508359645753e-02) (135, 4.07992707001164009450e-02) (136, -3.10573655703238298009e-02) (137, 2.08317766615420257859e-02) (138, 7.30593428015708923340e-02) (139, -6.30079249736523877568e-02) (140, 1.94494656385086998884e-02) (141, 4.52860273636605942249e-02) (142, 1.26870637245608236521e-01) (143, 1.22951486503226469632e-02) (144, 2.59826609887665038734e-02) (145, 1.12194460946421659120e-01) (146, 4.01828573140970216060e-02) (147, -1.74017092352201242084e-03) (148, 1.11182115247044716044e-01) (149, 8.62343435964262605697e-02) (150, 1.40633144667717119303e-01) (151, 2.27162481819316863785e-02) (152, 1.03773563378230567616e-02) (153, 2.79738767839694674189e-02) (154, 8.84613382203066345166e-02) (155, -5.87011849234092483729e-02) (156, -9.40513772632195488299e-02) (157, -3.70907775382605109371e-02) (158, -1.84712977451499615889e-01) (159, 9.71662327647209167480e-02) (160, 2.48367378663076510126e-01) (161, -9.31693931950831749633e-02) (162, -1.35440362698295655580e-02) (163, -1.71247241088383697627e-02) (164, 3.74199474801255038692e-02) (165, 5.63523668732133498072e-02) (166, -3.30813042819573313591e-02) (167, -4.45438442382341329151e-02) (168, 5.93297215128952160762e-03) (169, -6.53575558427011999579e-03) (170, 6.63424245347655205940e-02) (171, 9.87709244298842943544e-03) (172, -3.73185831006735344029e-02) (173, 1.09134027210001597480e-02) (174, 9.44372784641878126877e-02) (175, 7.65953750900389140899e-02) (176, -1.64876977478074678019e-02) (177, -1.34022555545375010588e-01) (178, -1.37748841019607853875e-01) (179, 3.31969965313776080307e-02) (180, -9.27423685789108276367e-02) (181, 3.84741667661481837048e-02) (182, 1.56441311848582731425e-01) (183, 4.50120673659222814145e-02) (184, 1.19786596989152629988e-01) (185, 1.08095955752643718695e-01) (186, 1.23384693118911856202e-01) (187, -1.31846073475015701515e-02) (188, -1.24494717666729454164e-01) (189, 6.74737739950345555284e-02) (190, -1.12053805239728354604e-01) (191, -7.61060750384416756509e-02) (192, -8.84053935762261003384e-03) (193, -2.30504567056791995205e-02) (194, -3.28275288101121595630e-02) (195, -7.37539653973371123197e-02) (196, -7.29388004711429976945e-02) (197, -5.35674584044856516574e-02) (198, -3.75284282222229648163e-02) (199, 4.27695032263800747896e-02) (200, 1.19249649053382728026e-01) (201, 8.53891298174858093262e-02) (202, -1.31541508079124097597e-01) (203, -4.45818336767581022140e-02) (204, 2.48400447820377101235e-04) (205, 7.62264356460291975237e-02) (206, 5.55496502333386044103e-02) (207, -3.73435871278506234527e-02) (208, -3.53319039751818428363e-02) (209, -6.89600184808656230251e-02) (210, 2.04228466824751958564e-02) (211, 9.17108754467318640358e-03) (212, 3.96931823723888493882e-02) (213, 7.71961641854826408071e-02) (214, -4.35624366638224791437e-02) (215, 1.41346929150412102538e-02) (216, 1.00718758853877515813e-01) (217, 7.00041161742488565745e-02) (218, 4.02084249829748330285e-02) (219, 5.71622089189755891447e-02) (220, 7.54290946384107707789e-02) (221, 6.83840703268903116196e-02) (222, 9.17740538716316223145e-02) (223, -2.09038635122899205121e-02) (224, -6.57515426716140383157e-02) (225, -1.03190503463093524728e-01) (226, 6.62764935464944388022e-02) (227, 5.04687236094442798207e-02) (228, 3.74317848543036790776e-02) (229, 1.90732457757316009594e-01) (230, -1.11876829735644681141e-01) (231, -2.96872056390330880948e-02) (232, -1.46936990217919755120e-02) (233, -1.18565843357704061439e-02) (234, 7.14032408724568495861e-02) (235, -1.66781140819596246372e-01) (236, -3.45830672623395549148e-02) (237, -2.53100297077581241900e-02) (238, 8.69246929308006427428e-02) (239, -3.80062407765055093600e-02) (240, 9.20054259152021797208e-02) (241, 3.57874969924399724541e-02) (242, 1.09021245055194657136e-01) (243, -1.28743185476166647346e-02) (244, -5.75345830750136205678e-02) (245, -9.65010502983485174422e-02) (246, 7.91179961279278032293e-02) (247, 9.94711874498206138906e-02) (248, -1.16916897635393132737e-01) (249, -5.35972914227727560699e-03) (250, 9.85873282397930761345e-02) (251, 5.13169820054509354113e-02) (252, -1.56527857014596372132e-01) (253, 1.30843191624725158073e-01) (254, -2.32561331796450436460e-02) (255, -4.02368283074068591731e-02) (256, -1.37941218852322706329e-02) (257, 7.42679407874789893063e-02) (258, -7.77482990989934175108e-02) (259, -1.16821467152601957129e-03) (260, -6.01405345955105530287e-02) (261, -1.17409261386390711968e-02) (262, 2.77764853811227965807e-02) (263, -1.64021231336410611146e-02) (264, 1.27409004489133659971e-02) (265, -2.89286464972757263736e-02) (266, -2.74809310782247531724e-02) (267, 4.49546850452009760790e-02) (268, -9.10484233998589964632e-02) (269, -1.14313610526798184464e-01) (270, -8.96206857036251497428e-02) (271, 9.75231048860971255765e-02) (272, -4.44072235788168720449e-02) (273, -2.80853034264857484570e-02) (274, -2.54341719780090472214e-02) (275, -4.93362208986247025022e-02) (276, -2.54050950556085237964e-02) (277, -1.24363055054486151829e-02) (278, 1.47951688667769393204e-01) (279, -8.30434205030819959370e-03) (280, 2.64565516775400640104e-02) (281, -1.01432490839032211916e-02) (282, -3.40501205890786085018e-02) (283, 1.69430213711120519759e-01) (284, -3.25080300684395667732e-02) (285, -3.40014286712638114096e-01) (286, -1.00881743485220276568e-01) (287, -1.14458832224853715442e-01) (288, 5.05953083613931847706e-02) (289, -2.62857507186669225874e-01) (290, 4.19553282517461170742e-02) (291, 1.50332382077274312460e-01) (292, -1.65686687779852473423e-02) (293, -6.03914818916891638079e-02) (294, -1.79580664571005715890e-01) (295, 8.81841417315220449380e-02) (296, -1.19804026107914289578e-02) (297, -6.81662491361686301294e-02) (298, -2.12772043702199528670e-02) (299, -6.76441772383002820623e-02) (300, 6.57801441886571719442e-02) (301, 5.92109169402740484478e-03) (302, -3.12381808434840993471e-02) (303, -5.07149217708788985215e-02) (304, -3.48599656419877057534e-02) (305, -8.87253629049623571134e-02) (306, 6.49595938482611101605e-02) (307, 1.50271355677209644819e-01) (308, -1.12048204937068893172e-01) (309, 9.02149403693592727427e-02) (310, -8.73716175807639772177e-02) (311, -5.78540824353694915771e-02) (312, -1.81262993227316870914e-01) (313, -2.30392495394258212116e-02) (314, 1.03923045618573003934e-01) (315, -4.97776944162387699477e-02) (316, 1.24720554880562283645e-02) (317, -1.26820410974429892415e-01) (318, -5.74999976771455589830e-02) (319, 5.01908629464679970078e-02) (320, -8.86023265060850162556e-02) (321, 9.24780245630026087600e-02) (322, 1.66840536064566946628e-02) (323, -6.72700925129370280037e-03) (324, 5.68982175312352164709e-02) (325, -1.10755839487081814143e-01) (326, -1.71328274996198459679e-01) (327, -1.93142073999342245294e-01) (328, -1.42026827096396190964e-01) (329, 9.44913165551105466156e-02) (330, -3.66757980782220285865e-02) (331, 4.76875488472372488502e-02) (332, 6.13692027638018597346e-02) (333, 1.12982904450643906191e-02) (334, -4.78054781354505312074e-02) (335, -8.22859582326908034489e-02) (336, -5.49289679636911568061e-02) (337, 6.59219341088400356821e-02) (338, -8.36985619151432297391e-02) (339, -6.24940220849876711812e-03) (340, -4.01858874614211103449e-01) (341, 1.12907989861828164657e-01) (342, -1.01882010127706756908e-01) (343, -3.96590806124926739673e-02) (344, -2.75366276521666009103e-01) (345, -4.17946857674498170598e-02) (346, -8.72426566277064163835e-02) (347, 2.08176016969345928365e-01) (348, -4.46708423527635289929e-02) (349, 2.08815315265990231186e-01) (350, -7.49439773134845908797e-03) (351, 5.85439626271526923629e-03) (352, -3.16066890954971313477e-02) (353, -5.95610551536083221436e-02) (354, 1.10168519174634729763e-01) (0, 6.62359741520036626738e-02) (1, 1.14321244297694954439e-01) (2, -1.29251021778675118101e-01) (3, 4.10525071156523577165e-02) (4, 1.15175389459950643090e-02) (5, -1.88691722717933725584e-02) (6, -1.48423238801495098460e-02) (7, 1.63236982934687191449e-01) (8, 1.28077200025537490946e-01) (9, 1.53505312453430992070e-01) (10, 1.05442803327443195699e-02) (11, -7.53748578742418316734e-03) (12, -4.94808762675469221426e-02) (13, 3.16184795490991217559e-03) (14, -3.48223551924447538575e-02) (15, -1.10436238256127680635e-01) (16, -2.73128081580368275993e-02) (17, -1.65848228106748353528e-02) (18, -1.02003618495335887650e-01) (19, 3.87238193868029920153e-02) (20, -1.54075270358173827684e-02) (21, -5.96410503311753034672e-02) (22, -6.45116975609160842042e-02) (23, -1.85460773765943109925e-01) (24, 7.67378688622517290963e-02) (25, 8.36737260042741404220e-02) (26, -1.59256251923185661312e-02) (27, -1.09200733904536634311e-01) (28, -5.92232355395623660810e-02) (29, -8.79488294667250675163e-02) (30, -1.06759905889128758893e-01) (31, -4.57212952927204749343e-03) (32, 7.09733518760924941837e-02) (33, -2.57508101357212838833e-02) (34, 1.77665610943366081287e-01) (35, 9.87546419452638990499e-02) (36, -2.70561274407488949745e-02) (37, 2.53253253956920408585e-02) (38, -2.01015274771475585536e-02) (39, 5.08613613123655369797e-02) (40, -7.29406886803109083539e-02) (41, 4.64694198985926218426e-02) (42, -8.73310249153213050133e-03) (43, 6.86676120312190718664e-03) (44, -1.31985481598538845205e-01) (45, -4.39384547836454628089e-02) (46, -3.18665833824374675198e-02) (47, -7.41111786040881820314e-02) (48, 2.86743493640651513077e-02) (49, 9.18773861501180344469e-02) (50, -7.37077332746926133789e-02) (51, -4.25398303601151883679e-02) (52, -1.04094775968808020417e-02) (53, 5.05569712961765303783e-03) (54, -2.49824823202127350996e-02) (55, 1.43725657352003821643e-01) (56, -8.22356370632665485687e-03) (57, -5.13127143933870960568e-02) (58, 2.12719041573629884245e-02) (59, -1.91084854229240305723e-02) (60, -8.64052366962247408999e-02) (61, -2.00550013813588119682e-02) (62, -3.58461765458415113073e-02) (63, -1.11832297891744619767e-01) (64, 1.45330388053773268409e-01) (65, -6.65706537359827404954e-02) (66, 9.37701418225888976010e-03) (67, -1.03463657259467295413e-01) (68, 3.61204293336966422712e-02) (69, 6.77238817995533259886e-02) (70, 5.83175956812076595748e-02) (71, 2.46271769251778654963e-02) (72, 2.99218464666855393785e-02) (73, -8.76182612798893749317e-03) (74, -1.12101746560449924695e-01) (75, -1.04539868339906777406e-01) (76, -8.71015612524205923295e-02) (77, 1.26348783928873026339e-01) (78, -5.06772407249070702684e-02) (79, 3.24608547480459974643e-02) (80, -5.52484316352556820151e-02) (81, 1.23334828500131193918e-01) (82, -1.37219459450644253040e-02) (83, -8.07260016314076678245e-02) (84, -1.18337637210996188264e-01) (85, -7.03505207284532176060e-03) (86, -9.50991256646541993636e-02) (87, 6.74781210493900773795e-02) (88, 1.40270093474296753122e-01) (89, 6.13175116899452171682e-02) (90, -1.11836603529981898353e-01) (91, -8.43193473314353958425e-02) (92, 4.31231207753727530108e-02) (93, -4.30269379624648659610e-02) (94, -1.02444304149764534029e-01) (95, 9.71187352339089593478e-02) (96, 3.33344712853431701660e-02) (97, 9.21713278904387339763e-02) (98, 1.08787658423503283411e-01) (99, -2.18550678054081695678e-02) (100, 3.60579500005244746319e-02) (101, -1.93738537251038483999e-02) (102, 1.65786314628542180705e-01) (103, 1.37619985269574363063e-01) (104, -9.94916450886648290330e-02) (105, -1.19157423515092092403e-01) (106, 5.73995711639624373035e-03) (107, 4.98744695068440158092e-02) (108, -4.73194859855632088408e-02) (109, 9.38600593583113762541e-02) (110, 7.80681779421968508048e-02) (111, -4.69916174526507912645e-02) (112, -5.98207513774157758485e-03) (113, -1.00221590280291997233e-01) (114, 4.69964024893076565137e-02) (115, 2.00034196575377479221e-02) (116, 2.22195528546206035048e-02) (117, -9.97405052185058593750e-02) (118, -1.29080378048290561610e-01) (119, 6.24048067348005192079e-02) (120, 1.47635728275278654831e-01) (121, 4.06861167326349505713e-03) (122, 6.88308293110523501668e-03) (123, 8.98555574663417733206e-02) (124, 3.58190937686833285603e-02) (125, 1.79834333768558139732e-02) (126, 1.71216296324314433408e-02) (127, -1.53594923534312866042e-02) (128, 8.76524643365970551612e-02) (129, 3.48673715442395434905e-02) (130, 7.15751637366826842790e-02) (131, 7.08564766398065842834e-02) (132, 2.50475516682494882270e-02) (133, -2.51627881155548766001e-02) (134, 6.93041654168272402980e-02) (135, -6.33160905795199790980e-02) (136, -2.45018592497590614876e-02) (137, -3.24035497246810428457e-03) (138, 7.85634443163871765137e-02) (139, 4.73307001336325527951e-02) (140, 5.69266542159241155374e-03) (141, -2.19377185758783503633e-02) (142, -1.94630833280500688265e-02) (143, -2.13910939223798148012e-02) (144, 8.42305600193572756584e-02) (145, -4.80561953125671018766e-03) (146, -1.12996140102055858678e-01) (147, -7.84339879220895541678e-02) (148, -5.09724303364896547119e-02) (149, -3.12721593277597367799e-02) (150, 6.97251678074774366989e-02) (151, -8.55455794721868695296e-02) (152, 5.09725339532474119864e-03) (153, 4.17424157595564712664e-02) (154, -8.70410091046526224190e-02) (155, 9.23723326453520093837e-02) (156, -4.05721600721965711123e-02) (157, 5.17412500753031898149e-02) (158, -1.19388703622873779131e-01) (159, -3.86929027736186981201e-02) (160, 1.79645247840238865555e-02) (161, -2.06772770553020901474e-01) (162, -6.38536101283587037569e-02) (163, -6.62913910456090511164e-03) (164, 5.69531177230221535845e-02) (165, 1.59772563286719626596e-01) (166, 7.93219116146644531717e-02) (167, -2.42745104424639188134e-03) (168, -2.57208194175569809792e-02) (169, 8.15472531330160843588e-02) (170, 3.30542832320159171711e-02) (171, 4.92570063149005629710e-03) (172, -3.18899146173668096918e-03) (173, 2.60916974915913341126e-02) (174, 4.50362620754929318667e-02) (175, -6.09137609294862006348e-02) (176, 1.01535565701206920153e-01) (177, -1.25492027656789850720e-01) (178, -1.22967728001370582569e-01) (179, 1.78670289447905278335e-01) (180, 4.76662293076515197754e-02) (181, -2.00042412977342216884e-02) (182, -4.53935742438600214888e-02) (183, -3.88070746803975616390e-02) (184, 9.22642560589776727920e-02) (185, -4.01697104068396218524e-02) (186, -2.14473166102956726287e-02) (187, 2.17692935556713026979e-02) (188, 1.96512986574291122210e-02) (189, -3.35944879941771495924e-02) (190, -3.91924733025709251533e-02) (191, -5.53287873177470690411e-02) (192, -3.36867126991753501608e-02) (193, -4.25305235791532260103e-03) (194, -6.30300120290528814726e-02) (195, -8.90971293316836360221e-02) (196, -1.19705574467425773788e-01) (197, -5.03119574404794697720e-03) (198, 1.33678668927075233047e-02) (199, 1.27272855369891108035e-01) (200, 6.01212486319851954764e-02) (201, -9.53816026449203491211e-02) (202, -1.19076143275604590110e-01) (203, -3.00227775125115996235e-02) (204, 6.66293121098917306977e-02) (205, 6.98585148653377979722e-02) (206, -6.25132960746918181494e-02) (207, -3.52952925664915748150e-02) (208, -4.37823582323195112376e-02) (209, 2.96742694982699457829e-02) (210, -3.86294189945245100559e-02) (211, -3.60319583975210466775e-02) (212, -6.57889817111217273249e-02) (213, 5.83602846809295819352e-02) (214, 5.78977690319891838411e-03) (215, 7.42811847747141540399e-02) (216, 1.17809227610189262703e-01) (217, -7.34092482437710136534e-02) (218, 1.15001468398752776379e-01) (219, 6.13128708485345327861e-02) (220, 7.24878884014751312392e-03) (221, -1.60038221963628969841e-04) (222, 8.83846208453178405762e-02) (223, -5.69884604812706044297e-02) (224, -1.07680361571699689804e-01) (225, 6.12788118802285661224e-02) (226, -1.41740080060998602934e-02) (227, -4.94106166353576875538e-02) (228, 1.07038266288430064521e-01) (229, 1.59801517017346905725e-01) (230, -1.33971934280724125355e-01) (231, -1.35388742753223181164e-02) (232, 3.46767401759478371970e-02) (233, 3.08862397767480194311e-02) (234, 1.06726761744482326333e-01) (235, -7.55176913207129263395e-02) (236, 1.17611336966859016812e-02) (237, -1.10970316477795191701e-01) (238, -3.27665146345455446375e-02) (239, 5.20890376739099880687e-03) (240, 1.02978063849124570894e-01) (241, 1.55179734966784804717e-02) (242, 9.79435706430666769284e-02) (243, 8.89296715928799275108e-02) (244, -7.16682212409514296514e-02) (245, -5.36815550507389951940e-02) (246, 5.00777406837887226199e-02) (247, -8.53260908507117166177e-02) (248, -1.27739133978702901207e-02) (249, 5.36943131402791637430e-02) (250, 4.84144217752635053209e-02) (251, -9.27629799601667748288e-02) (252, -1.34622335315610935913e-01) (253, 8.29465194438659819687e-02) (254, 4.33186055335971903490e-02) (255, -7.09251952798345408624e-02) (256, -4.14551795111393478477e-02) (257, 4.03118924769292966137e-02) (258, 3.19846672263521050739e-02) (259, 5.65576617992651076161e-03) (260, -6.37298900952622676686e-02) (261, 9.23352468395747250085e-02) (262, -1.12167831042847263023e-01) (263, 1.22375137863931730126e-02) (264, -3.60228030167589682864e-02) (265, -1.19845129875725195379e-02) (266, -1.95047885104781743015e-01) (267, -8.46411689646481106564e-03) (268, 3.53523319561126342370e-02) (269, -1.65844869205913930665e-01) (270, -9.92548913399655258205e-02) (271, 2.44779713788294758792e-02) (272, -1.24104023446146682907e-01) (273, -5.92051364107138780590e-02) (274, 6.45597952781705279601e-03) (275, 4.69325036717111454543e-02) (276, -1.52021866401019587617e-02) (277, 1.03645248157248834331e-02) (278, 5.93250472285180713294e-02) (279, -9.92576760601275587259e-02) (280, -1.26165069836206372722e-01) (281, -6.98622503482740769831e-02) (282, 3.82368928377031583321e-02) (283, 6.22509335000294844464e-02) (284, -7.27754765831056943393e-02) (285, -2.37476377234398544624e-01) (286, -7.55434044230175877344e-02) (287, 6.67826652762279066033e-02) (288, 1.56097646068959344801e-01) (289, -2.52023264730087737107e-01) (290, -6.57464078053652950517e-02) (291, 5.75753680742404055221e-03) (292, 8.06746033135188334029e-02) (293, -2.76867668797981074380e-02) (294, -4.20074892015165624048e-02) (295, -4.85299558808103895235e-02) (296, 5.32294726854888530787e-02) (297, 1.26565978178870761073e-02) (298, 1.12467795067481765581e-02) (299, -3.22239102154733489392e-02) (300, 9.97945911601125362766e-02) (301, -9.28600858509189830414e-02) (302, 7.22117606431185807964e-03) (303, -5.54251873898662511531e-02) (304, 4.09335373385820849856e-02) (305, -1.23186001283297749676e-01) (306, 7.85791443558568614147e-03) (307, 4.26836433012115143426e-02) (308, -8.71537511747770693438e-02) (309, -2.31558589060897601630e-02) (310, 3.68415909504171273925e-02) (311, 7.39221945405006408691e-02) (312, -5.24758879552744000874e-02) (313, -1.31902669327396748766e-01) (314, -3.95437637338824019007e-02) (315, -1.83900622520775075541e-01) (316, -1.00142782530413684827e-01) (317, 8.00226875543244703382e-02) (318, -4.90819898603079146637e-02) (319, 1.25744096366050384095e-01) (320, 6.67256366165457359685e-02) (321, -9.08582564203754133869e-02) (322, 7.59536125401820416680e-02) (323, 3.82743581536809790444e-02) (324, 4.37905759889937601370e-02) (325, -4.18260927905405449634e-02) (326, -4.08048120274244266459e-02) (327, -7.18246724526022395363e-02) (328, -1.21654317383265847541e-01) (329, 2.59115476697203972467e-02) (330, 5.91300035777576754592e-02) (331, 4.78366962284571071301e-03) (332, 8.95488084873949791165e-02) (333, -1.42615252087701482875e-01) (334, -1.71226796212319010149e-02) (335, 3.86261596746321697604e-02) (336, -1.32977861026408045175e-01) (337, -7.88244782066860882885e-02) (338, -1.89815945309386974182e-01) (339, 5.67028466645145765024e-02) (340, -2.25448409979730229891e-01) (341, 1.36833193493914651029e-01) (342, -3.44039946214797290325e-02) (343, 2.91757863275539756909e-02) (344, -2.70679711851241233678e-01) (345, 8.67437774158830443572e-02) (346, 1.07920892880588505797e-02) (347, 4.68773684425129594233e-02) (348, 2.23399626776185043775e-02) (349, 4.86612938834860286885e-02) (350, 6.54494686691605154216e-02) (351, -7.86261506231307333303e-02) (352, 5.45811578631401062012e-02) (353, 7.79768154025077819824e-02) (354, -8.17666501581675309041e-02) (0, -1.12021801117981895796e-02) (1, -4.07796304773872658744e-02) (2, -7.08646660708535103268e-02) (3, 6.64096652883964244651e-02) (4, 3.41836894644825459166e-02) (5, 8.62447021608683389582e-02) (6, 5.05171098566433163235e-02) (7, -4.49097976962527789535e-02) (8, 3.03337034714975077587e-02) (9, 3.15947437431133640318e-02) (10, 8.21852479657069895369e-02) (11, 2.46456358988002798005e-02) (12, 1.12155152116644979410e-01) (13, 1.52892761734646194863e-03) (14, 4.26635814610856964335e-02) (15, 1.05914595603156982961e-01) (16, -1.90889376522413202475e-02) (17, -1.87858681177094505310e-02) (18, 5.26204975087875715528e-03) (19, 2.94908690522638038123e-02) (20, -1.69465080328570043278e-02) (21, -5.80290890833959904782e-02) (22, -9.21540648239482784732e-02) (23, -2.18927956691726093019e-02) (24, -1.61227678537073343401e-01) (25, -2.40678389126002117981e-02) (26, -3.95440852609929699435e-02) (27, 6.10914271786922383201e-02) (28, 2.10285468895434410341e-02) (29, -4.61467503424948244373e-02) (30, 6.51325100870191187052e-02) (31, -6.82215804427118155395e-02) (32, 1.95073573077994104341e-02) (33, -1.39834496556875437223e-01) (34, -1.21153549360624515630e-01) (35, -7.82981136354110179854e-02) (36, 6.95060754201441265837e-04) (37, 6.40474842603248467610e-02) (38, 1.67604379511096593380e-02) (39, -2.98161948951091403115e-02) (40, 2.30997743018883927579e-02) (41, 4.22099682547140628297e-02) (42, -1.12115779495199421878e-01) (43, 5.41193136052734100061e-02) (44, -1.66970871489176379832e-02) (45, 1.70705186031552859360e-02) (46, -1.19059337561960784657e-02) (47, -5.69330736248444425202e-03) (48, -1.25889994471069216475e-01) (49, -1.53404576474864329239e-01) (50, -4.87855781893782591840e-02) (51, -5.26846801519229648858e-02) (52, -6.58263690981310094219e-03) (53, 4.60279569821159736942e-02) (54, -9.04843367551041583008e-02) (55, -4.75688643748610612283e-02) (56, 2.64625831505171764391e-02) (57, 8.23531180548631863703e-03) (58, 5.47287178583960500639e-03) (59, -1.55272785016685524462e-02) (60, -5.61448940698127188509e-02) (61, 2.40510904743295172992e-02) (62, 3.60239243714838633381e-02) (63, -1.11686494072836942082e-01) (64, -1.34586139348467307558e-02) (65, -1.00344443738011268596e-01) (66, -9.40310082152443979520e-03) (67, -3.55044935470547121104e-02) (68, 7.85374050203109241863e-02) (69, -4.43201783718431621684e-02) (70, -1.26812142267443195287e-01) (71, 8.87528979610339475992e-03) (72, -4.81820696742808335378e-02) (73, -1.02570317297347710084e-01) (74, -3.38897919119166869673e-03) (75, 3.49245130440401715943e-02) (76, 5.55085714713772632178e-02) (77, -1.01153510835052196093e-01) (78, 5.06046696608663561234e-03) (79, 1.00845662578848541124e-01) (80, -3.37956419207769698243e-02) (81, 6.09613247573542738067e-02) (82, -1.43046972182041057242e-02) (83, 9.32677703486163994784e-02) (84, 1.00013176676039927671e-01) (85, 6.05409925284515204602e-02) (86, 3.56424414236479747409e-02) (87, 3.37847463156564012388e-02) (88, -3.74210640602137822874e-02) (89, -5.21359323220826550993e-02) (90, -3.26770067027117028235e-02) (91, 1.43295859270524354040e-02) (92, 4.91751037676922964081e-02) (93, -8.21445079110512954568e-02) (94, 4.29435272677624463311e-02) (95, -3.55942951749657204852e-02) (96, -8.13417732715606689453e-02) (97, -9.93887848995270301034e-02) (98, 4.13818989440039031180e-02) (99, -7.49026221157486488123e-02) (100, 1.81213498908055249681e-02) (101, 9.23379848963244015403e-02) (102, 4.15330347721656889526e-02) (103, 3.17201799008604221064e-02) (104, 1.14353932009112979618e-01) (105, -1.32100955186041629091e-02) (106, -1.32319306646317834571e-03) (107, 6.26701201865185880679e-02) (108, -2.34362568561990690374e-02) (109, 5.97254702085075542262e-02) (110, 5.21750708406971616671e-02) (111, 5.94227340981442267442e-02) (112, 7.25714715571746105116e-02) (113, -4.24517594369676690147e-02) (114, 3.63038221860947502018e-02) (115, 7.04699494862850994714e-02) (116, 1.01245236034950808479e-01) (117, -5.43533787131309509277e-02) (118, 3.36270958436656400292e-02) (119, -5.04912519042846688611e-02) (120, -2.77328556555096056302e-02) (121, 5.88558447336287940410e-02) (122, 1.08176063113017126294e-01) (123, -7.55509483110960444741e-02) (124, 9.60395862386349274953e-02) (125, 2.07484680311736981173e-02) (126, 2.95733952695238820965e-03) (127, -9.49832902062489187189e-02) (128, 2.37180338678553252751e-02) (129, -6.28467269599366634703e-02) (130, -7.86705954332885259994e-02) (131, -7.33152730709992761504e-02) (132, -9.92631149385635319637e-02) (133, -9.73708262330349599845e-02) (134, -1.11797280983337452009e-01) (135, 8.38862234245797283583e-02) (136, 1.23650458459268908912e-02) (137, 3.54261855383527501928e-02) (138, 4.82505336403846740723e-02) (139, 8.89873555525068499206e-02) (140, -4.15345536726894910134e-03) (141, 2.01247829780562860480e-02) (142, 2.13259567293815829880e-02) (143, -4.15633660294929332957e-02) (144, 4.50848138516983867885e-02) (145, -8.14964190333672261479e-02) (146, -7.53849506872498464904e-02) (147, 5.24095989845068943591e-02) (148, -9.77944855875510603294e-03) (149, 2.50004054602860764644e-02) (150, -9.65444987613916644209e-02) (151, 7.81874779133173991585e-02) (152, 3.94798973277568146512e-02) (153, 7.71760044593115535072e-02) (154, -1.08778282831644326767e-01) (155, 4.97973526768367563688e-02) (156, 1.50190743060347863674e-02) (157, 1.10337258376504631849e-03) (158, 8.35811873531897842060e-02) (159, -7.15855136513710021973e-02) (160, -2.43042194111968527792e-02) (161, 1.51214516459660663905e-01) (162, -4.29102596847583672712e-02) (163, 1.11674744941392706243e-01) (164, -9.26554775612235259619e-02) (165, -9.61415337206508457957e-02) (166, 5.45439487859918359369e-02) (167, 5.32878056416457874384e-03) (168, 1.18786314715800214725e-01) (169, -2.08723691749897778680e-02) (170, -5.70657189198221018178e-02) (171, -6.16217835350878276324e-02) (172, -1.04889596755984040866e-01) (173, 8.66428799881571592989e-02) (174, 1.96870361825477978301e-02) (175, 3.93056412488149917173e-02) (176, -8.99691351294464036759e-02) (177, 1.22785538846844954897e-01) (178, 5.76190447538834776831e-02) (179, -2.83982610610269969875e-03) (180, 2.59260311722755432129e-02) (181, -1.09943811069940725750e-02) (182, -8.62037012352986041497e-03) (183, -4.84443848024026443855e-02) (184, -2.70958207929306808120e-03) (185, 1.23536767790720421883e-02) (186, -1.12277028475341211777e-01) (187, -1.19966698744735825177e-01) (188, -3.49276294294769834581e-02) (189, 7.31696955105090862670e-02) (190, -3.86498508817363847778e-02) (191, 6.45361034376314562921e-02) (192, 6.68899420196938793159e-02) (193, 1.65677611107736856566e-02) (194, 2.17566144124106894409e-02) (195, 6.52981555239570410354e-02) (196, 9.61460089878825724385e-02) (197, 2.86377474748194943421e-02) (198, -3.01863887869405246589e-02) (199, 3.37938630578533683035e-02) (200, -1.08285584921542041292e-01) (201, 1.93272680044174194336e-02) (202, -9.37602172094181007811e-02) (203, -9.95025944635579001618e-02) (204, 3.95667800489687623844e-03) (205, 4.33429175326348961605e-02) (206, 7.56736328312948292041e-02) (207, 7.62826149768428690701e-02) (208, 1.63261103032865274171e-03) (209, -1.56086263109756900880e-02) (210, 1.05425122185498765237e-02) (211, -8.19087107657276020101e-02) (212, 4.22770948939211466122e-02) (213, -1.02221063597646558141e-01) (214, -1.13361824691862698999e-02) (215, -2.77086462404092827294e-02) (216, 2.00400260715464031969e-02) (217, 4.39703479507601233123e-02) (218, -1.30407992130133370580e-03) (219, 6.46821578923384987725e-02) (220, 9.08598992033468762751e-04) (221, 2.52467433596293873432e-02) (222, 3.70882228016853332520e-02) (223, -5.01121108996278250003e-02) (224, -5.94326742235064681141e-02) (225, -1.18317235088849191660e-02) (226, -9.43195298262369530296e-02) (227, -6.45421454984325543291e-02) (228, 6.39710854887892144127e-02) (229, -4.79054376574501797337e-02) (230, 1.02591615178197523295e-01) (231, 1.03806862485525938644e-01) (232, -6.39291763391511141945e-02) (233, 5.88736333370155628941e-02) (234, 6.66413276202716259311e-02) (235, 6.58975224250987895447e-02) (236, -1.03437984612943191173e-03) (237, 6.62192349275123881558e-02) (238, -3.28455484855872878458e-02) (239, -5.10112298821136650462e-02) (240, -8.18027587200300665415e-02) (241, 7.92501204262022057589e-02) (242, -3.75398133512672704803e-02) (243, -9.98601400332586597308e-02) (244, 9.57666200350749535763e-02) (245, 5.52684296733465182938e-02) (246, -2.26880587884691169165e-02) (247, 2.57187897390266893838e-02) (248, 9.74824356949732274968e-03) (249, 8.67468098126673303749e-02) (250, -2.77666902141545275662e-02) (251, 9.48191766130290214498e-02) (252, 6.05521878150636905236e-02) (253, -1.01663336002507459499e-01) (254, -6.97400271077573130629e-02) (255, 6.76006634398241684769e-02) (256, 3.50247429547583741249e-02) (257, -1.23485640440682362812e-02) (258, -1.07721305012801388257e-01) (259, -8.15852306485717083950e-03) (260, 1.14522993229396102821e-01) (261, 5.73271943736008912640e-02) (262, -1.19823302256346891220e-02) (263, -8.66012934195167088935e-02) (264, 4.15843332141938304414e-02) (265, -2.55797728190693546280e-02) (266, 4.73576919506014243355e-02) (267, -5.99736968272134851610e-02) (268, -9.69727271011025376835e-02) (269, -8.32609382736456543617e-02) (270, -2.90461227306436572948e-02) (271, -8.17737714494293083112e-02) (272, -8.24847285689460085756e-02) (273, 4.40168144969301511349e-02) (274, -6.65056793754563724264e-02) (275, -1.21215222105199957325e-01) (276, -1.03576355784343473142e-03) (277, -1.24204944546762816732e-02) (278, -9.02025381209810295235e-03) (279, -1.05303749618666370180e-01) (280, 5.87291757152198692221e-03) (281, -2.36759144906805336916e-02) (282, -9.71798886020782404227e-02) (283, -5.87502816800453686596e-02) (284, -4.42784709742684370881e-02) (285, 1.24338012603246270138e-01) (286, -5.60984363808189404055e-02) (287, 8.54355977706553887385e-02) (288, 5.47472033115288525540e-02) (289, 3.00157710780614289670e-02) (290, -5.14677865199259579332e-02) (291, 4.50223887196598837601e-02) (292, -8.81691817309602915431e-02) (293, 2.95732758379313280528e-02) (294, 1.21689925059833559118e-01) (295, 6.19192512168377923176e-02) (296, 4.52581081372498000848e-02) (297, 3.86260783843545563165e-02) (298, -5.50670310827027012501e-02) (299, 9.84364517768467756076e-02) (300, 2.34435301479296656635e-02) (301, 2.83485727320572297727e-02) (302, -7.58211393162984692573e-02) (303, 7.64637919382269437563e-02) (304, -2.60200873617505261393e-02) (305, 1.41505461185087201559e-02) (306, 6.26472151746024219499e-02) (307, -1.49868313790610052649e-01) (308, -1.28291634207339001750e-02) (309, 1.99763517419245016996e-03) (310, -9.92813848130654902358e-02) (311, 6.65265396237373352051e-02) (312, 7.91719536223955688836e-02) (313, -8.15765177738288077558e-02) (314, -6.47049748603036878336e-02) (315, 1.01779502363808990739e-01) (316, 4.59170256599462436875e-02) (317, -5.89856545489676822869e-02) (318, 1.12328877508858712697e-01) (319, -3.24367853451300106049e-02) (320, 4.03784040077539291280e-02) (321, 7.19426666557857474871e-02) (322, -1.77018716594277703003e-02) (323, 2.55437070003890175085e-02) (324, 1.22504468534132531649e-02) (325, 4.09147092696726753097e-03) (326, 5.26087420725243615216e-02) (327, -5.52133266711190839882e-02) (328, -7.56119438863846471399e-02) (329, 3.87718639781527846244e-02) (330, -4.06696585583359512817e-02) (331, 3.37844575516865405773e-02) (332, -4.93582236624488662757e-02) (333, -3.26378603425017607687e-02) (334, 4.91371545228268119532e-02) (335, -7.72095679728333501163e-03) (336, -6.89425045140622666517e-02) (337, 2.71877304468999270171e-02) (338, 5.49398387836366394743e-02) (339, -7.78093712834421052937e-02) (340, 3.61397681147457017214e-02) (341, -1.94560355517494330303e-03) (342, -6.05869239066683107353e-02) (343, 5.37010600425478074049e-02) (344, 1.62115961460826935037e-01) (345, -8.04236612229058539514e-02) (346, 8.51125225295241982781e-02) (347, -3.53567248720544624607e-02) (348, 2.13392919668795935650e-02) (349, 5.41769326457419275050e-03) (350, -6.24563052340164556742e-02) (351, -8.52134995188831567692e-02) (352, 2.13341265916824340820e-02) (353, 1.29480808973312377930e-02) (354, 3.50501617306768417648e-02) (0, 2.53461032394249496935e-01) (1, 2.21775976423730952769e-01) (2, -1.41602487268584820157e-01) (3, 2.34841494779198967091e-01) (4, -1.28794125681227750180e-01) (5, -4.94887036239148647709e-01) (6, -7.37532822040547729470e-03) (7, 5.14454564904365474476e-01) (8, 1.74366038924137795041e-01) (9, 1.48189898374885137278e-01) (10, -1.63079462417979159650e-01) (11, -1.24418814296569618660e-01) (12, -2.05257803867173127532e-01) (13, -4.00388069304474930599e-02) (14, -1.39449810991168016150e-01) (15, -5.02744482068277820375e-01) (16, -3.03206831196918158433e-01) (17, -2.59805297086881971380e-02) (18, 4.66965407901613754893e-02) (19, 3.01470888910470524724e-01) (20, -7.00798879483580938743e-02) (21, -8.07364332314043087191e-02) (22, 3.18628414985166974471e-01) (23, 5.86894479204229546632e-01) (24, 6.66370087851860470884e-01) (25, 5.50257702963564465648e-01) (26, -2.29629373604225806016e-01) (27, -3.58323151296206565686e-01) (28, -3.98841000525020139555e-01) (29, -3.48635452047147742505e-01) (30, 1.81649285885088600245e-02) (31, -2.00494433575890751431e-01) (32, -1.28732846282143126304e-01) (33, 7.71358551557525390363e-02) (34, -2.99844882457618970573e-02) (35, 1.67492525267455866222e-01) (36, 2.21539874082681519096e-03) (37, 2.64372881321900010665e-01) (38, 2.43482963707160937616e-01) (39, -2.02108987668701356802e-03) (40, 3.87187064304619840693e-02) (41, -1.84274774798374951779e-01) (42, 3.10287981757113084935e-01) (43, 2.18926660138789586085e-01) (44, -2.51475313588070292781e-01) (45, -2.19624202508721638738e-01) (46, -2.27269940893951111205e-01) (47, -1.11507181352709663913e-01) (48, 1.35411754343810170065e-01) (49, 2.09538052706544131176e-01) (50, -1.64152505531232867364e-01) (51, 1.83410778588226283659e-02) (52, -1.72486987490696082326e-02) (53, -1.61523291378426914200e-01) (54, -9.86009065952717644876e-02) (55, 4.99168472565872156643e-01) (56, 3.43787801294359110504e-02) (57, 9.66330367589808732209e-03) (58, 2.42084813158306488834e-01) (59, -1.38688937632001879630e-01) (60, -5.67148524724663261054e-01) (61, -5.09773418538480571627e-02) (62, -4.02812388050035469211e-02) (63, -2.66213055831584444189e-01) (64, -2.04690264978902497495e-01) (65, -2.23853677795293276587e-01) (66, -2.02253668636865474584e-01) (67, -2.14773972166764193226e-01) (68, -1.02243147657388774863e-01) (69, 1.89278658399574528648e-01) (70, -1.95615360197919918583e-01) (71, -1.46254287025075375983e-02) (72, -1.88305062101310982658e-01) (73, 4.38465403339890272272e-02) (74, 3.23372511166882259381e-02) (75, -4.94287401701282297362e-02) (76, -2.87626890070269369826e-01) (77, 1.03748782156352872819e-01) (78, -4.07737840811303708932e-01) (79, -2.43468551523551984817e-02) (80, -1.20575383474816069662e-01) (81, -1.02933992183573588819e-01) (82, 1.21618239421467683181e-01) (83, -2.36973000652039189617e-01) (84, -7.52627504898449040116e-02) (85, 2.06783908228884705238e-01) (86, 4.51533616666603188072e-01) (87, 1.33548641413497093389e-01) (88, 2.46130134672932557316e-02) (89, -1.49470755479340994265e-01) (90, -1.61248303627536948568e-01) (91, -1.08358630865116059572e-01) (92, -2.61987946788236170104e-01) (93, 2.06918153549359301602e-02) (94, 1.11194657999376056434e-01) (95, -1.89624531767993320663e-01) (96, 4.87068966031074523926e-02) (97, 2.22645361567175625872e-01) (98, 1.43617825380881303232e-01) (99, -1.74268830449183587464e-03) (100, 1.25486520723369354702e-01) (101, -1.95238212960984397482e-01) (102, -1.80073154008297875439e-01) (103, 5.54429838742993216782e-02) (104, -7.24941488373653519783e-02) (105, 2.22903246366774922260e-02) (106, 7.89547053109697881401e-03) (107, 1.07561939091269626045e-01) (108, -2.22772422982577988915e-01) (109, -1.60564067440646496276e-01) (110, 4.05900146071642375922e-01) (111, 5.19414233142759876327e-02) (112, -9.93391790605130733938e-03) (113, -8.25905992624774987210e-02) (114, -8.52831603934212957585e-03) (115, -6.79039019034994723034e-02) (116, -6.73862768155732705377e-02) (117, 6.85982182621955871582e-02) (118, -3.66481791858064065437e-01) (119, -1.25450486025368540544e-01) (120, 2.13952998831026308668e-01) (121, 5.00412517429336817232e-02) (122, -3.49422421686910122940e-01) (123, 2.74492733756024221564e-03) (124, -1.24210098962288004176e-01) (125, 1.00720197150763746130e-01) (126, 3.83036918457564171114e-02) (127, -1.16786407864628530295e-01) (128, 1.98277231572474399446e-01) (129, -2.83156365352789041179e-01) (130, -2.28424232622490633315e-02) (131, 7.78149187956437247971e-03) (132, 1.75834929430731978783e-01) (133, 1.16558353209117615545e-01) (134, 1.64272149085240098954e-01) (135, 1.45692646265277753193e-01) (136, 1.89106030774031458330e-01) (137, -7.13645606936132714804e-02) (138, -8.02242755889892578125e-02) (139, -1.72921724739523831674e-03) (140, 2.95660534393475220305e-02) (141, -6.98040074657112069589e-02) (142, -6.47076921350832889868e-02) (143, -4.95828430102250999889e-02) (144, -1.80541879727270870859e-01) (145, -5.82185325174580173280e-02) (146, -6.50760148403814187024e-02) (147, -2.88987517944055555263e-02) (148, -2.85371707435920329843e-01) (149, -6.30135607169634258395e-03) (150, -1.41058784930045477690e-01) (151, 1.28787190786903010808e-01) (152, 3.32167356388318679716e-01) (153, 3.30636495334987567940e-01) (154, -1.00098938131449252675e-01) (155, 6.25606331233065082742e-02) (156, 1.47835512073136637889e-01) (157, -1.10152559870166755207e-01) (158, 3.42482679723658811621e-02) (159, 3.63265499472618103027e-02) (160, 6.88990621251102774991e-01) (161, -1.02836757639563514122e-01) (162, 1.48121700867572314575e-01) (163, -4.11482389018352101573e-01) (164, -3.86373934426490706073e-01) (165, 1.07468872731132980558e-01) (166, 9.95796891760198643606e-02) (167, -1.80871934553272190049e-01) (168, -2.88510362859024538373e-01) (169, 2.78011424158654263383e-01) (170, 3.42071055236163990010e-01) (171, 4.10460358646087056234e-02) (172, -6.27437423981618280777e-02) (173, 1.78746209100330705200e-01) (174, -9.00014791886009080102e-02) (175, 6.69845656087440649573e-02) (176, -2.41962345530448208475e-01) (177, -2.79135363503099698246e-01) (178, -6.65320109449849317329e-01) (179, 1.27576050545829072780e-01) (180, -4.06218245625495910645e-02) (181, -8.18745944765138233823e-02) (182, -9.66577255159564302511e-02) (183, 6.73493822419810039825e-02) (184, 1.91820500669161425611e-01) (185, -1.28259982718593290585e-01) (186, -2.35806780740643512351e-01) (187, 1.46789349604612540112e-01) (188, 2.26639091665877479009e-01) (189, 1.23029821099145078578e-01) (190, -4.87745211370350512103e-02) (191, 3.05899965346848101699e-01) (192, -1.33085384185673810675e-01) (193, -2.66193811778138028634e-02) (194, 1.68713095363157400408e-01) (195, 3.50806737863871148653e-02) (196, -1.95727352444039687240e-01) (197, -2.93932123233412556651e-01) (198, 2.16906541753539322537e-01) (199, -2.64477301891583360671e-01) (200, 1.73868363434572792414e-01) (201, 7.75526836514472961426e-02) (202, -1.67831111562705442841e-01) (203, -7.87193539612335707600e-02) (204, -1.55478745918504468460e-01) (205, 2.02395420261307301679e-01) (206, -2.55202295021902780814e-01) (207, 3.58663394747954916708e-02) (208, 2.78977597133152517561e-02) (209, 4.93601620044093539197e-02) (210, 6.02808603361636580198e-02) (211, 1.33162426294691604856e-01) (212, 3.77479228083826834350e-02) (213, -1.56329717850812260904e-01) (214, -9.28434471362147850648e-02) (215, 3.00931112379048293359e-01) (216, 3.65756912027189462489e-01) (217, -1.74650660334368296178e-01) (218, 2.23568906679940775095e-02) (219, -8.63028299020179856527e-02) (220, 5.32699324522826686557e-02) (221, 3.50222247395822194882e-02) (222, 5.84871545433998107910e-02) (223, -2.16835388701131281941e-01) (224, -2.12618388015138569391e-02) (225, -1.49172819579163323106e-02) (226, 3.85106128454430263197e-01) (227, -3.26407682054127512572e-01) (228, 6.06969239431149956698e-02) (229, 9.66210534449684632641e-02) (230, 2.56764789082809807841e-01) (231, -1.35221858949414158735e-01) (232, 1.34448210965861347788e-01) (233, -1.91467388159155399441e-01) (234, -7.28382911230828072879e-02) (235, -2.51811813614737478595e-01) (236, 5.04604234239258042649e-01) (237, 1.24794034368651038380e-01) (238, -7.25187711527390671540e-02) (239, 1.30637893817051542467e-01) (240, 9.11609586784682263128e-02) (241, -2.83657091310666464867e-01) (242, 2.16009803751283008255e-01) (243, 8.25411109365999373644e-02) (244, 2.53810592241501875588e-01) (245, 5.41491834240072425488e-02) (246, 9.16628943521490685553e-02) (247, 1.47065833003445084470e-01) (248, -1.55061766913463988660e-01) (249, 3.97711486124446012003e-02) (250, -7.02234371228352277639e-02) (251, -1.24217281420379549450e-01) (252, 1.68124513814878029372e-01) (253, -1.22891478077792215551e-01) (254, -2.81193563661378320706e-01) (255, 1.54230619382634603909e-01) (256, 2.83373272021515548724e-02) (257, -1.00145316741033191255e-01) (258, -1.39617069996551684818e-02) (259, -6.25502965702901952971e-02) (260, -2.12018584939994148009e-01) (261, 1.23752521252418187792e-01) (262, 1.15422609593199540501e-01) (263, -3.51407781982797928766e-01) (264, -8.74992493771863111274e-02) (265, -1.33562098854661442937e-01) (266, -1.43694909834012368721e-01) (267, -3.11025461866391295107e-02) (268, -2.41724421636805991698e-02) (269, -2.33256862843813750352e-01) (270, -1.21403098228830188393e-02) (271, -7.52663771341682136251e-02) (272, -1.57268069372217267343e-01) (273, -1.80353703911345947253e-01) (274, -1.19837731840368139080e-01) (275, -5.24127433094117994861e-02) (276, 1.09998928864707273823e-01) (277, 1.04987087357312644520e-01) (278, 1.63480259269328520588e-01) (279, 1.03054572206785211019e-01) (280, -8.29225868774347146806e-02) (281, -2.79739548885716227122e-01) (282, -4.20286292370474046098e-01) (283, -6.59928127940434261500e-02) (284, 4.15864812741494116466e-01) (285, -9.41280879797657288321e-01) (286, -2.66445950313373203233e-01) (287, 8.47550028027934526653e-02) (288, 2.28584953820615333075e-01) (289, -7.19035513012338145522e-01) (290, -1.21756445042796271339e-01) (291, -3.95239507671485024165e-01) (292, 3.92284004234731212279e-02) (293, 4.73073464316897049353e-02) (294, -2.02979888247503154064e-01) (295, 2.03248336475159885328e-01) (296, 4.34122906123774257581e-02) (297, 2.44090254611558116205e-01) (298, -4.65386088813640741435e-01) (299, -2.81089015063078206946e-01) (300, 3.46015191873358274322e-01) (301, 3.91771110656840282349e-01) (302, -2.06018493623753053134e-02) (303, -1.52928875561603366817e-01) (304, -3.21710001184477636937e-02) (305, -1.53086656788590735889e-01) (306, -8.14799312496183869570e-02) (307, 7.27007485840766021212e-02) (308, -4.91630241598974504491e-01) (309, 3.52523653546968407380e-01) (310, 4.04134145232780128687e-01) (311, 3.46629321575164794922e-03) (312, -1.86754952150098824104e-01) (313, 1.81358145665690612125e-01) (314, -9.30348780358006104130e-03) (315, -2.84631428352455195796e-01) (316, -2.24781991702149991363e-01) (317, -3.14170242184557135801e-01) (318, -3.02395201112839406843e-01) (319, -3.55551219342841118287e-01) (320, -2.10643387897971046119e-01) (321, -8.99639308724210828849e-01) (322, -9.67138617219678448089e-02) (323, -2.38298314081904494266e-01) (324, -2.03233537342783071589e-02) (325, 4.34401220986650904443e-01) (326, -4.41997075446067033688e-01) (327, -2.81469357082929305669e-01) (328, -1.51617922860860177003e-01) (329, -2.97888264819128334437e-01) (330, 3.50936537312633231589e-02) (331, 7.98361054182287616099e-02) (332, -8.25724814658993361283e-02) (333, 6.90220223064961224679e-01) (334, 6.58506043787699391068e-02) (335, -1.61105425223818342351e-02) (336, -3.57557839933253684972e-01) (337, -1.96014637631776483806e-01) (338, -4.37101398733963641963e-01) (339, 1.04190653215391025588e-02) (340, -7.45224301519082588108e-01) (341, -6.09716004645125098094e-01) (342, -2.46823596318280102935e-01) (343, -1.56921731179380685717e-01) (344, -5.81450718447314551796e-01) (345, -3.62921987937902978949e-01) (346, -1.49109666845917976374e-01) (347, 6.45917056598257266486e-01) (348, -1.97843197024257289041e-01) (349, -1.44585749403330965368e-01) (350, -1.70837893682117325511e-01) (351, 4.82079031567021143445e-01) (352, -7.48337805271148681641e-03) (353, -5.60650639235973358154e-02) (354, -1.78284600103201157362e-01) (0, -2.66193183340192429664e-01) (1, -2.11440291907039223940e-01) (2, 4.16734186371906303870e-02) (3, -1.01863725967650683990e-01) (4, 2.11621683529545884239e-01) (5, 1.87889090939171360395e-01) (6, 1.22877003299625323085e-01) (7, -2.45832670464157437840e-01) (8, -7.51396680986473330943e-02) (9, -1.18422249503638554735e-01) (10, 1.10319200012851864612e-01) (11, 8.97008470645502403729e-02) (12, 1.47809664288475445248e-01) (13, 5.66386161196999540768e-02) (14, 8.98146649370163974169e-02) (15, 1.94009463144823313119e-01) (16, 2.21249299497817852878e-01) (17, -2.11949939958364225179e-02) (18, 7.60197157549070828830e-02) (19, -2.25149232788493414148e-01) (20, 3.68772140507752158034e-02) (21, -1.54876452929467944841e-01) (22, -2.17909559446490180834e-01) (23, 1.38566977917501443773e-01) (24, -1.52118793903590759919e-01) (25, -2.81914914957350701274e-02) (26, 3.39965513549950248962e-01) (27, 1.44374574658792748094e-01) (28, -2.18024538031215513179e-02) (29, -9.91326097842416820161e-02) (30, -1.85522361013340131297e-01) (31, -1.29791219223990894616e-01) (32, -3.97988383131955114624e-01) (33, -4.20353175418774482885e-01) (34, -4.71039185145780303632e-01) (35, 4.40317066243475843668e-02) (36, -3.12262068130508496644e-01) (37, -4.06524506624428849655e-01) (38, -2.45772011758073810617e-01) (39, -6.26615118468016873976e-02) (40, -5.36932659268843440192e-02) (41, -1.28485071945072443222e-01) (42, -4.65929281416787854919e-02) (43, 7.09125282313690097347e-02) (44, 2.18329521885737481979e-01) (45, 5.98000772605663949433e-02) (46, 4.29242912822932684569e-02) (47, -9.50282752809068209654e-02) (48, -2.70375660955037622202e-01) (49, -2.50561160347044564745e-01) (50, -1.00746542279721740254e-01) (51, -1.50795576629600414087e-01) (52, 3.66276876444705662417e-02) (53, -2.04731161212649170889e-01) (54, -1.30980896682544895038e-01) (55, -2.03571264050775080356e-01) (56, -2.21552322363884363066e-01) (57, -1.35818682756402325795e-01) (58, 1.42395874762607177466e-01) (59, -5.73021106811824193494e-02) (60, 1.28007747129105751982e-02) (61, 4.81314180545446002046e-02) (62, 5.34203331574435516527e-02) (63, 1.20566643000134796071e-01) (64, -1.23272090813181578461e-01) (65, 1.37072657389851831899e-01) (66, 2.73261162335092858133e-02) (67, 1.78896667744128379240e-01) (68, 1.19889448116218641505e-01) (69, -1.95962164977864172766e-01) (70, -9.39631921719874807497e-02) (71, -1.64105328763175378759e-01) (72, -3.67511850549085555828e-02) (73, -3.11315523126907307827e-02) (74, 3.92701661556750653004e-02) (75, 1.21417763300203734866e-01) (76, -1.48159104421769771687e-02) (77, -1.12126556920343720125e-01) (78, 9.20866808756759941401e-02) (79, 9.75080480817902689461e-02) (80, 4.54665142853730927519e-02) (81, -2.50699849848921574313e-01) (82, -7.39034126504465316287e-02) (83, 1.34321138827133451654e-01) (84, 8.54909660885068284353e-02) (85, 7.53323752431066390178e-02) (86, 3.21072042322451289831e-01) (87, -8.16114470629268479174e-02) (88, -5.31749532459957902075e-02) (89, 8.20160220036373344143e-02) (90, -1.49212445261395574431e-02) (91, 7.18194649062881412815e-02) (92, 8.84822953709962223279e-02) (93, 8.93265443836172012837e-02) (94, 1.04469869861036401826e-01) (95, 2.22250278062386674716e-02) (96, -2.79298946261405944824e-02) (97, 3.31091254800897002997e-02) (98, -2.64849532168232905394e-02) (99, -2.07598536095240891741e-02) (100, 4.69451048690790809226e-02) (101, 1.39852048638332615571e-01) (102, -1.58443265349168166400e-01) (103, -3.21216067559542517440e-01) (104, 2.09523899417848880056e-01) (105, 8.54123188262249921632e-02) (106, 2.48102447266210293653e-02) (107, 1.02548213093341014646e-01) (108, -2.40958832321106930507e-01) (109, 3.17766676125886896043e-02) (110, -4.70179119878264273336e-02) (111, 7.66183348886758791574e-02) (112, -4.67235121619888477129e-02) (113, -5.91335769002532610217e-02) (114, 7.69695610804618651768e-02) (115, 9.95594766497730210286e-02) (116, 2.06500930045021402481e-01) (117, -7.56975933909416198730e-02) (118, 1.00533233523830700662e-01) (119, -1.01742000765024598330e-01) (120, 5.67826363226015332075e-02) (121, -2.28824363190243573740e-01) (122, 4.02258470697764713986e-02) (123, 1.02215073799813205291e-01) (124, -2.25478448798351716054e-01) (125, -6.33010239843360550394e-02) (126, 1.60045354524033539567e-01) (127, 8.81455139309070268006e-02) (128, 1.07065023015916974819e-02) (129, -3.59607043550795174580e-02) (130, 7.94213467351753132917e-02) (131, 3.71800468385788188130e-02) (132, -1.06595255417808579268e-01) (133, 2.72468907917152100562e-02) (134, 7.23338801306269013613e-02) (135, -1.60865277517375004912e-01) (136, 1.82318084937254876188e-01) (137, 2.53635963996113267260e-01) (138, 2.34302431344985961914e-02) (139, 3.06145435344550888301e-02) (140, 7.36742124412673032863e-02) (141, -4.07692584672631475051e-02) (142, -1.41306095614825572016e-01) (143, 4.85749611768945127599e-02) (144, -6.79492549375206450479e-02) (145, -1.70650012249235843997e-01) (146, 6.89122401808209689156e-02) (147, 1.62759207858925836199e-01) (148, 9.59908877539016880398e-02) (149, -1.58919806696911136701e-01) (150, -1.33047553621462699702e-01) (151, 6.43090477444052815992e-02) (152, -3.23430974618904368278e-02) (153, -9.28587237837149026554e-02) (154, -5.62031119946677024113e-02) (155, -1.10815650102826009776e-02) (156, 3.16009615583832115249e-02) (157, -3.94921789024076722030e-02) (158, 6.93527767363820851765e-02) (159, 1.65093690156936645508e-02) (160, -7.18469406486311634730e-01) (161, 3.65166514117907681225e-01) (162, -5.73529527469953184782e-02) (163, 3.27244673654118634065e-01) (164, -1.63237815799599193800e-02) (165, -3.38183878521416569907e-01) (166, 2.17355009321005987477e-01) (167, 1.72008515522886040738e-01) (168, 3.55898497012798964434e-01) (169, -1.10283635952417635728e-01) (170, -2.22720013981386966151e-01) (171, 4.52439491463855966713e-02) (172, -1.82415911625867427359e-01) (173, -9.94024347103026478800e-02) (174, 5.97757782836830578455e-03) (175, -7.27140528734992602766e-02) (176, -2.51244849117890078904e-01) (177, 1.87563578746008569054e-01) (178, 1.62207849651539975921e-01) (179, -3.10551008582745646791e-01) (180, -8.08559358119964599609e-04) (181, -7.51120399282280831743e-02) (182, -1.17154764275170936161e-01) (183, -7.98093718729803031087e-02) (184, -1.84498631763312187504e-01) (185, -1.20428409223239593628e-01) (186, -1.91635191704353946562e-01) (187, -2.30396951573173081051e-01) (188, 1.24049663590225928145e-01) (189, -6.50956226843867474807e-02) (190, 5.86039621915646832817e-02) (191, -4.61546484490822292446e-03) (192, -3.56980716537996026205e-02) (193, 7.90384529919762879313e-02) (194, -1.35676329684278035304e-01) (195, -1.22972717708472845111e-01) (196, 1.54639470873886603064e-01) (197, 2.73135213294873557821e-01) (198, 1.53094129150638580406e-01) (199, -1.15747899758340544452e-01) (200, -1.70147042196258889424e-02) (201, -9.86707210540771484375e-02) (202, 1.54860977215340728241e-01) (203, -6.69599082821599883575e-02) (204, -7.02816992365697668088e-02) (205, -3.48317285564645334750e-02) (206, 1.84137558379346422122e-02) (207, 1.03330633622619377787e-01) (208, -2.14013140263259793450e-01) (209, 7.75959491148984076281e-02) (210, 1.39523332373077235680e-01) (211, 7.63159786608807733099e-02) (212, -3.64404723691007514930e-02) (213, -8.14690169569503436220e-02) (214, -1.70578188108356287866e-01) (215, 2.73430839068582089840e-03) (216, -2.77248808179453520850e-01) (217, 9.58801969732264447455e-02) (218, -7.05980148624293646353e-02) (219, 9.61661665242653090901e-02) (220, 3.14861262177626929915e-02) (221, -4.67734251696257374853e-02) (222, 7.01982304453849792480e-02) (223, 7.49060894737578336633e-02) (224, -1.43774434273737233836e-01) (225, 2.20822829372897128097e-02) (226, -1.40050506521776862989e-01) (227, 9.81980670681059514271e-02) (228, -1.69995692641793594291e-01) (229, -2.94256943075922983155e-01) (230, 2.66427372002651485783e-01) (231, 1.71193047590094210575e-01) (232, 1.58930812030732726559e-01) (233, -6.41348324013903264840e-02) (234, -8.00725482870950633352e-02) (235, 7.21509304498537118455e-02) (236, -3.71824105058582918271e-02) (237, 2.30262975134360795004e-02) (238, -1.79234809941672817990e-02) (239, 2.08844435971631547933e-01) (240, -5.34914695067364651115e-03) (241, 1.10190642920770839885e-01) (242, 4.78150481709974095601e-02) (243, -7.98055515055602904262e-02) (244, 2.05808420417121412660e-01) (245, 1.48160080362993006736e-02) (246, 4.90089712863608639726e-02) (247, 3.30366037494579170564e-02) (248, -3.85704510992609800324e-02) (249, 1.06711277974551196901e-01) (250, -5.26620549813694577290e-02) (251, -8.33070351005000663686e-04) (252, 9.13824379825199928362e-02) (253, -2.35521172055430577652e-01) (254, -2.11841703331088260231e-01) (255, -1.47879082646698384318e-01) (256, 1.61820979916413448807e-01) (257, -2.36765827832834591105e-01) (258, -1.03006711645823589851e-01) (259, 7.76580258010042406847e-02) (260, 1.30778524370499721341e-01) (261, -1.21489899603700018949e-01) (262, 1.42559307815663921515e-01) (263, -5.36175118044689355545e-02) (264, 4.39554093454020688991e-02) (265, 1.61823522071808445499e-01) (266, 1.30102270669241654177e-01) (267, 1.12347491286795657384e-02) (268, 9.54199853242839769740e-03) (269, 1.18699408007379464403e-01) (270, 4.25286374644340131601e-02) (271, -8.52072467484498857759e-02) (272, 1.30781700173565995637e-01) (273, 7.90006813456443635069e-02) (274, -3.97828718299346531517e-02) (275, 4.98506605714446396349e-02) (276, -9.26862532770740890631e-03) (277, -1.69985307601460161608e-01) (278, -1.04887824585255168275e-01) (279, -8.91088166120536373516e-03) (280, 4.94698952294823496301e-02) (281, 2.80425751931030309283e-01) (282, -1.00969488016430686272e-01) (283, -1.10055777449789879419e-01) (284, 1.54355990784813379424e-01) (285, 7.73058836199161936165e-01) (286, -3.11569435545824974243e-02) (287, 4.43173480364589922331e-01) (288, 1.62110395377773192083e-01) (289, 4.05580181579206944242e-01) (290, -2.21015987371800670669e-02) (291, -2.74919342197584015697e-01) (292, 6.29416066782865352147e-02) (293, 3.23756879753153536949e-01) (294, 3.50564675445019457989e-01) (295, -1.14489434881389906540e-01) (296, -1.11716930777349926496e-01) (297, 1.77314953472829356373e-01) (298, 1.87119386259530728900e-01) (299, 1.90249401979552504489e-03) (300, -1.54847638076165729226e-02) (301, 1.12805127592259940572e-01) (302, -3.83041821051121680886e-02) (303, 2.88268648411443874358e-02) (304, -2.71981256849627706096e-02) (305, -8.67455025955720521180e-03) (306, -1.06934560760147762126e-01) (307, -3.02896940165996442218e-01) (308, 1.78005377775153655895e-01) (309, -9.04807080509628935960e-02) (310, -2.96324692408372669661e-01) (311, -8.95625799894332885742e-02) (312, 3.22833855204469166722e-01) (313, -1.75018209786475781309e-01) (314, -2.02733132881796826452e-02) (315, 1.37353328449336925532e-01) (316, 1.68762193721934232460e-02) (317, -2.81522205665116154183e-01) (318, 2.31420010732841435752e-01) (319, -1.39862451074174221066e-01) (320, -1.06442334155128492945e-01) (321, -9.11327390065699294297e-02) (322, 2.41648658348867263757e-02) (323, -1.87258515719897246365e-02) (324, 1.27513609428372948207e-01) (325, 3.53432676320705962958e-01) (326, 1.66750052801453912954e-01) (327, -6.87354562430968346609e-02) (328, 3.81805467234632434081e-02) (329, 2.09712217019551089292e-01) (330, -2.05825300313201807467e-02) (331, -1.54557445278504096420e-01) (332, -6.70645142685292322549e-02) (333, -3.10222018107547126142e-01) (334, 4.85425748332027895415e-02) (335, 1.11256305975294955690e-01) (336, 1.43564482742707222318e-01) (337, 8.69617589253945527661e-02) (338, 2.13782965809792141476e-01) (339, -7.74608201611965835331e-02) (340, 5.98616404388636280665e-01) (341, -1.86907727687728980603e-01) (342, 1.83759816530900038645e-01) (343, -2.18564805386667025677e-02) (344, 4.64848615981290458343e-01) (345, 3.75905378147186192139e-02) (346, 4.35152023465117873680e-02) (347, -1.20805288005257874251e-01) (348, 1.62218278271870658402e-01) (349, -8.42747763644168396135e-02) (350, 5.87205628143891780746e-02) (351, 1.72707047835149674064e-01) (352, -4.92424145340919494629e-02) (353, -7.70029127597808837891e-02) (354, -4.82458615519169436991e-02) (0, 7.03112474721479252526e-02) (1, 5.28134565052140389496e-02) (2, 5.47716406822000845267e-02) (3, 3.76699376960993939645e-02) (4, 6.69170062298812540202e-02) (5, 4.12208957560443733925e-02) (6, -7.68536963033891601382e-02) (7, 8.43452802211848012837e-02) (8, 6.27293991771721154427e-02) (9, -1.74235383862799859955e-02) (10, -5.01331189937973195625e-02) (11, 3.67866085126107925096e-02) (12, 4.30178672860983685178e-02) (13, 8.10975137343300650494e-02) (14, -9.12062202457457754656e-02) (15, -6.91939849008017665577e-02) (16, -3.09168358542005992928e-02) (17, 4.39345557719769512495e-03) (18, 4.24806517344722411877e-02) (19, 4.17875560423282416123e-02) (20, -3.53836976504570775021e-03) (21, -8.36764888003097839775e-02) (22, -9.74714342964677765702e-02) (23, -3.07925301278487613399e-02) (24, -1.54734588059085270695e-01) (25, -2.30550924540195781298e-02) (26, -1.34807561923710822471e-01) (27, -6.64231966632339715373e-02) (28, -8.10433301506986586427e-02) (29, -6.07209635551693785449e-02) (30, 6.01270887097026113244e-02) (31, 6.73408882018582122253e-02) (32, 6.79402927463078898374e-02) (33, 1.27514032284715903010e-02) (34, 4.87320419298121598056e-03) (35, 3.17896557530660955893e-02) (36, -6.22608052328459185554e-02) (37, 2.96151980639400708162e-02) (38, 1.22847615542715157821e-02) (39, -9.38757747340249193435e-02) (40, -1.01655840291809060338e-01) (41, -1.21555207199512016469e-01) (42, 3.93893150290463428531e-02) (43, 5.09076923981759271731e-02) (44, 7.83731331401248398905e-02) (45, 8.58890099574660809134e-02) (46, -1.00992137845758944703e-01) (47, -5.87108035706476946713e-02) (48, -3.10078066410063649117e-02) (49, 4.29898489541507417000e-02) (50, 6.70798642131021360946e-02) (51, 7.34374597821556562849e-02) (52, -1.23699096014001821975e-01) (53, -7.53784425986495504324e-02) (54, 3.43528409088435099372e-02) (55, -1.21164233652603092750e-01) (56, -1.12563754493868850570e-01) (57, 5.53149549660840386678e-02) (58, -9.63963685713320646287e-03) (59, -7.18941931601773664973e-02) (60, -8.86559721075044354643e-02) (61, -4.08491871006385412479e-02) (62, -7.67228994551543835856e-02) (63, -7.67142004863469867404e-02) (64, 8.33717551814433521784e-02) (65, 3.90007143468561814914e-02) (66, 8.45007243095780707920e-02) (67, -4.41894574371476181462e-02) (68, -2.42392659936378276897e-02) (69, 1.75038426331961260995e-02) (70, -1.18210937543650820847e-02) (71, 1.94154968963672312776e-02) (72, 2.41712877549792107268e-02) (73, -4.39084901043213238214e-02) (74, -1.26302804501821266253e-02) (75, 6.89353389186018149226e-03) (76, -3.24605595847728342629e-02) (77, 2.52609835122688426712e-02) (78, 7.97328735294368512454e-02) (79, 6.05862378780558166746e-02) (80, 6.21007900438924522190e-06) (81, 6.51859378220372709389e-02) (82, 5.75849929741069632705e-02) (83, 1.75979841123160320182e-02) (84, -9.71246246918405914395e-02) (85, 2.65092858529695114822e-02) (86, 6.26866795183818048542e-02) (87, -9.79560676219085463279e-02) (88, -2.40908934362733563594e-02) (89, -5.07886253422090497289e-02) (90, -6.93556086192623905129e-02) (91, -3.92219838819217025278e-03) (92, -1.28809933832206026903e-03) (93, -5.55519443979928528865e-02) (94, 1.22284105657633757058e-02) (95, -7.17356847610329997206e-03) (96, 9.04066637158393859863e-02) (97, -1.04125337178274865457e-02) (98, 3.63330151358591812993e-02) (99, -1.12033309440077739200e-02) (100, -7.48452582344728972741e-02) (101, -5.02748829987765682992e-02) (102, -8.73872119290974164185e-02) (103, 4.70901369883396370142e-02) (104, 1.76006498409913871017e-02) (105, 2.87761591851531106645e-02) (106, -3.10698416214083171158e-03) (107, 8.33983205758931228635e-02) (108, -5.36356867510111856578e-02) (109, -4.70461928404823301331e-02) (110, 7.00069144738433291053e-02) (111, 4.26227377577265073572e-02) (112, -6.32636034443976175146e-02) (113, 4.18148593800571136136e-02) (114, -4.65133064149531663678e-02) (115, -6.18828764310612872146e-02) (116, -5.28974656650982102968e-02) (117, -8.65115299820899963379e-02) (118, -5.12617400799146930024e-02) (119, 1.80148057863421043323e-02) (120, -4.23576514663528483351e-02) (121, -2.82287412722784410157e-02) (122, -7.63120771892635413325e-02) (123, 6.21432194956970870847e-02) (124, 2.35887919838725611255e-02) (125, 4.04508672345039177465e-02) (126, -5.06207568821232731238e-02) (127, 3.44864864636077739224e-02) (128, -9.30113120596431780518e-02) (129, 8.19958009755244743300e-02) (130, -1.00764185432032651879e-01) (131, -4.50056415852194899307e-02) (132, -6.46251042777586381938e-02) (133, -7.76903232663848364314e-02) (134, -7.36244962347946396708e-02) (135, 5.00072983209072022270e-02) (136, 4.00259587949637202220e-02) (137, 8.67960429161397130360e-03) (138, 4.37438860535621643066e-02) (139, 9.44994262306242394089e-02) (140, 6.83725543583551254034e-02) (141, 7.02805358807560235507e-03) (142, 4.46098277055249625711e-02) (143, -9.35943169445877520829e-02) (144, -6.14914986293659607264e-02) (145, -1.05606473186409116627e-01) (146, -5.52014909822874239032e-02) (147, -2.34251912510956943059e-02) (148, -7.28984646978775990833e-02) (149, -1.84295202766434976227e-02) (150, 7.63071324653260690818e-02) (151, -3.34793259877649157508e-02) (152, 5.79456379515464262142e-02) (153, -1.08674408057953114648e-01) (154, -5.88360740769900206204e-02) (155, -1.75796293441540991444e-03) (156, 2.75227010794546721184e-02) (157, -1.48857577923063883613e-02) (158, -8.58406327089357157334e-02) (159, 5.46968802809715270996e-02) (160, -6.43930082252053420655e-02) (161, -4.45874123750601772387e-02) (162, -8.82598730016239396701e-02) (163, 2.77036323544991337775e-02) (164, -2.27826698969228400027e-02) (165, -7.86486814158346703163e-02) (166, -4.10732042946334377498e-02) (167, 1.13729441801520336774e-01) (168, 7.46243219379196243146e-02) (169, -1.28352921551032034264e-01) (170, 8.25051389058243239694e-02) (171, 9.25755295401061578664e-03) (172, 3.41451839010878507776e-04) (173, 4.31041072440080386130e-02) (174, 5.19244420943957597780e-03) (175, 3.01506287037300417520e-02) (176, 1.15405843097781696943e-02) (177, 7.03228911109503723731e-02) (178, -4.59378990369355977297e-02) (179, 1.96280322091256301253e-02) (180, -6.02293126285076141357e-02) (181, -8.95281424266825276437e-02) (182, -7.74935118507387443731e-02) (183, -9.63100015049788565902e-02) (184, -9.39413937549566369078e-02) (185, -3.03807271103040156535e-02) (186, 8.53847285623783591735e-03) (187, 2.28877861357371127637e-02) (188, 4.92636808919893962044e-02) (189, 2.63484202177817587731e-02) (190, 6.60577900228320226417e-03) (191, -8.80130676090929292554e-02) (192, 3.46987156507568630937e-02) (193, 2.12175801405408356870e-02) (194, 2.66588737458309833761e-02) (195, -1.02307990779248333957e-01) (196, 4.99380868048857756714e-02) (197, 9.35250820939824145661e-02) (198, 9.51308297103169303588e-02) (199, -2.11342098952611986626e-03) (200, 8.44800465023174407264e-02) (201, 9.02492627501487731934e-02) (202, -9.47908170741643268942e-02) (203, -2.07268450677892132963e-03) (204, 3.17603638450413700012e-02) (205, 1.94761656695814355800e-02) (206, -4.30378386406746957227e-02) (207, -3.80760033018469820632e-02) (208, -3.02766506783180844309e-02) (209, -2.22018981508981493034e-02) (210, -7.45955351786427856009e-02) (211, 1.73715076947639074367e-02) (212, -3.70387249235083829135e-02) (213, -5.84983302858033543670e-02) (214, 3.39406309259306163129e-02) (215, -5.14482913651265628269e-03) (216, 9.52425713748595095809e-03) (217, -5.16275213565285176487e-02) (218, -5.27504101697940930293e-02) (219, -4.38009105032435841487e-02) (220, 6.43748891882574558743e-02) (221, 3.50933837383977861868e-02) (222, -2.61477604508399963379e-02) (223, 3.49611561771149756406e-03) (224, -4.32607101385236031410e-02) (225, 1.03111682357560616174e-01) (226, 2.55130816169658351995e-05) (227, -7.74145835214790078993e-02) (228, 7.68038746324016252665e-02) (229, -5.95013748842584261345e-03) (230, 7.31170744120844106478e-03) (231, 7.14226009362412955772e-02) (232, -1.00446293538588651839e-02) (233, 1.15552779891468192230e-02) (234, -4.02552736142732375813e-02) (235, -7.17771394877906171450e-02) (236, -7.23702395161466560669e-02) (237, 1.43598668032730025779e-02) (238, 4.33664824235107000672e-03) (239, 2.24587811096589561044e-02) (240, 9.19425549299471150944e-02) (241, 2.77400845069129507736e-02) (242, -6.21382000834506953435e-02) (243, -2.72360211026197902850e-02) (244, 7.08941748485927974999e-02) (245, 5.99748608606479743921e-02) (246, 7.04686995772123986326e-02) (247, -1.94553457295287800244e-02) (248, -9.32574640524400089170e-02) (249, -8.75568661700258793479e-02) (250, 2.66836070079426168622e-02) (251, 6.05239296759963810168e-02) (252, 5.88260522574520286487e-02) (253, -8.69642677970948602129e-02) (254, -4.20169441760643025408e-02) (255, -1.03212434898888968937e-01) (256, -8.24417214245305451925e-02) (257, 7.24537967415480599342e-02) (258, -7.48104033229422676898e-02) (259, 1.07562609705087131040e-01) (260, -1.54875091727292770599e-02) (261, 1.92544225829567212938e-02) (262, 7.84810287679720969267e-02) (263, 7.64977843754539033050e-02) (264, -7.27886174902777766116e-02) (265, -4.09423050089585544020e-02) (266, -9.61148805330125782787e-02) (267, -5.32129836651988596952e-02) (268, 5.23544461453790549443e-02) (269, -1.03376151846773078197e-02) (270, 5.60247331107696089347e-02) (271, 4.16686548986632890323e-02) (272, -9.34664229973069665691e-02) (273, -7.76184987433360396025e-02) (274, -6.87793786703450871212e-02) (275, 8.51684271322937086479e-02) (276, 6.22387299037921656875e-02) (277, -1.17253601901228854398e-01) (278, -3.95300120761595263907e-02) (279, 7.01058671993791404642e-02) (280, -9.83615678854823094479e-02) (281, -3.88513023812059876683e-02) (282, 5.65842342988267660298e-02) (283, 1.05800421938164163072e-01) (284, -8.05521695961571304601e-02) (285, -3.67996854913470242132e-02) (286, 6.35374043994531290114e-02) (287, -5.26812136682561910073e-03) (288, 1.15646219310652817458e-01) (289, -3.58295060138174858988e-02) (290, -4.14261686713985888275e-02) (291, -9.48409266900722414118e-03) (292, 3.77261908282442437468e-02) (293, -6.47405663284736226926e-02) (294, -3.90201789532972492802e-02) (295, 6.75494262257856914466e-02) (296, -1.02867679423878800177e-02) (297, -5.82219517511967168955e-02) (298, -6.40366805536643490804e-02) (299, -4.16928581391304287074e-02) (300, 1.95509498282738988784e-02) (301, -1.09664179331021585662e-01) (302, -8.69861465362486430131e-02) (303, 7.71569936525227512147e-02) (304, -6.40509083241607157788e-02) (305, -3.85960854229845246044e-02) (306, 7.33463520278049146972e-02) (307, -1.07894408078339151813e-01) (308, -2.13441444120671605655e-02) (309, -1.74738283550057958704e-02) (310, -1.32243530848877799411e-01) (311, -1.84584558010101318359e-02) (312, -2.57589103406377119276e-03) (313, -8.42456988565261181978e-03) (314, -1.76508077753486439243e-02) (315, 1.83510818475875955857e-02) (316, 6.62860738164659096805e-02) (317, -6.56820592321942925418e-02) (318, 1.23685996410834830872e-01) (319, 3.02141009181539910156e-02) (320, 8.56562599172609696538e-04) (321, -9.02304592405709232628e-02) (322, -8.87537303103553693040e-02) (323, -8.97619940790285869570e-02) (324, -7.91019293103321224914e-03) (325, -4.18940520599671017976e-02) (326, 8.63551726995561846900e-02) (327, 2.30749145135437892795e-02) (328, 2.03564943116230148701e-02) (329, -9.33080598995705279286e-02) (330, -9.08513827533985740548e-02) (331, -5.03782913189837477930e-02) (332, -8.10005810725235031455e-02) (333, -1.09376628683215709748e-01) (334, -4.95226266876531810712e-03) (335, -8.71225511762410836925e-02) (336, -2.48623399882003451311e-02) (337, -6.32455338880665851597e-02) (338, -4.37309318420726136911e-02) (339, 1.35927290711326132638e-02) (340, 2.04291635020837636372e-02) (341, -4.58392319320783322989e-02) (342, -7.64073692914640917317e-02) (343, -8.99975646541291973701e-02) (344, 1.17377412097558433968e-01) (345, -3.29124292406586041460e-02) (346, 6.47255219498626410690e-02) (347, 6.35747505369709114964e-02) (348, 3.55183337478186048064e-02) (349, 4.59788984913401324595e-02) (350, -1.25751440833842659771e-03) (351, -1.25591458344805950720e-01) (352, 8.69759544730186462402e-02) (353, 9.70564037561416625977e-03) (354, -1.11942567893036873383e-01) (0, -2.97609815315406540936e-02) (1, 7.69948451305733777561e-02) (2, 9.07933587970217587104e-02) (3, -8.33980859278142805380e-02) (4, -2.29659364656040997088e-02) (5, -1.14214009729923002268e-01) (6, -9.61870912010622525212e-02) (7, 7.70346221021419030883e-02) (8, -7.98750213767636940698e-02) (9, -6.22338388972516406983e-02) 