FANN_FLO_2.1
num_layers=3
learning_rate=0.005000
connection_rate=1.000000
network_type=0
learning_momentum=0.100000
training_algorithm=0
train_error_function=0
train_stop_function=0
cascade_output_change_fraction=0.010000
quickprop_decay=-0.000100
quickprop_mu=1.750000
rprop_increase_factor=1.200000
rprop_decrease_factor=0.500000
rprop_delta_min=0.000000
rprop_delta_max=50.000000
rprop_delta_zero=0.100000
cascade_output_stagnation_epochs=12
cascade_candidate_change_fraction=0.010000
cascade_candidate_stagnation_epochs=12
cascade_max_out_epochs=150
cascade_max_cand_epochs=150
cascade_num_candidate_groups=2
bit_fail_limit=3.49999999999999977796e-01
cascade_candidate_limit=1.00000000000000000000e+03
cascade_weight_multiplier=4.00000000000000022204e-01
cascade_activation_functions_count=10
cascade_activation_functions=3 5 7 8 10 11 14 15 16 17 
cascade_activation_steepnesses_count=4
cascade_activation_steepnesses=2.50000000000000000000e-01 5.00000000000000000000e-01 7.50000000000000000000e-01 1.00000000000000000000e+00 
layer_sizes=355 26 3 
scale_included=0
neurons (num_inputs, activation_function, activation_steepness)=(0, 0, 0.00000000000000000000e+00) (0, 0, 0.00000000000000000000e+00) (0, 0, 0.00000000000000000000e+00) (0, 0, 0.00000000000000000000e+00) (0, 0, 0.00000000000000000000e+00) (0, 0, 0.00000000000000000000e+00) (0, 0, 0.00000000000000000000e+00) (0, 0, 0.00000000000000000000e+00) (0, 0, 0.00000000000000000000e+00) (0, 0, 0.00000000000000000000e+00) (0, 0, 0.00000000000000000000e+00) (0, 0, 0.00000000000000000000e+00) (0, 0, 0.00000000000000000000e+00) (0, 0, 0.00000000000000000000e+00) (0, 0, 0.00000000000000000000e+00) (0, 0, 0.00000000000000000000e+00) (0, 0, 0.00000000000000000000e+00) (0, 0, 0.00000000000000000000e+00) (0, 0, 0.00000000000000000000e+00) (0, 0, 0.00000000000000000000e+00) (0, 0, 0.00000000000000000000e+00) (0, 0, 0.00000000000000000000e+00) (0, 0, 0.00000000000000000000e+00) (0, 0, 0.00000000000000000000e+00) (0, 0, 0.00000000000000000000e+00) (0, 0, 0.00000000000000000000e+00) (0, 0, 0.00000000000000000000e+00) (0, 0, 0.00000000000000000000e+00) (0, 0, 0.00000000000000000000e+00) (0, 0, 0.00000000000000000000e+00) (0, 0, 0.00000000000000000000e+00) (0, 0, 0.00000000000000000000e+00) (0, 0, 0.00000000000000000000e+00) (0, 0, 0.00000000000000000000e+00) (0, 0, 0.00000000000000000000e+00) (0, 0, 0.00000000000000000000e+00) (0, 0, 0.00000000000000000000e+00) (0, 0, 0.00000000000000000000e+00) (0, 0, 0.00000000000000000000e+00) (0, 0, 0.00000000000000000000e+00) (0, 0, 0.00000000000000000000e+00) (0, 0, 0.00000000000000000000e+00) (0, 0, 0.00000000000000000000e+00) (0, 0, 0.00000000000000000000e+00) (0, 0, 0.00000000000000000000e+00) (0, 0, 0.00000000000000000000e+00) (0, 0, 0.00000000000000000000e+00) (0, 0, 0.00000000000000000000e+00) (0, 0, 0.00000000000000000000e+00) (0, 0, 0.00000000000000000000e+00) (0, 0, 0.00000000000000000000e+00) (0, 0, 0.00000000000000000000e+00) (0, 0, 0.00000000000000000000e+00) (0, 0, 0.00000000000000000000e+00) (0, 0, 0.00000000000000000000e+00) (0, 0, 0.00000000000000000000e+00) (0, 0, 0.00000000000000000000e+00) (0, 0, 0.00000000000000000000e+00) (0, 0, 0.00000000000000000000e+00) (0, 0, 0.00000000000000000000e+00) (0, 0, 0.00000000000000000000e+00) (0, 0, 0.00000000000000000000e+00) (0, 0, 0.00000000000000000000e+00) (0, 0, 0.00000000000000000000e+00) (0, 0, 0.00000000000000000000e+00) (0, 0, 0.00000000000000000000e+00) (0, 0, 0.00000000000000000000e+00) (0, 0, 0.00000000000000000000e+00) (0, 0, 0.00000000000000000000e+00) (0, 0, 0.00000000000000000000e+00) (0, 0, 0.00000000000000000000e+00) (0, 0, 0.00000000000000000000e+00) (0, 0, 0.00000000000000000000e+00) (0, 0, 0.00000000000000000000e+00) (0, 0, 0.00000000000000000000e+00) (0, 0, 0.00000000000000000000e+00) (0, 0, 0.00000000000000000000e+00) (0, 0, 0.00000000000000000000e+00) (0, 0, 0.00000000000000000000e+00) (0, 0, 0.00000000000000000000e+00) (0, 0, 0.00000000000000000000e+00) (0, 0, 0.00000000000000000000e+00) (0, 0, 0.00000000000000000000e+00) (0, 0, 0.00000000000000000000e+00) (0, 0, 0.00000000000000000000e+00) (0, 0, 0.00000000000000000000e+00) (0, 0, 0.00000000000000000000e+00) (0, 0, 0.00000000000000000000e+00) (0, 0, 0.00000000000000000000e+00) (0, 0, 0.00000000000000000000e+00) (0, 0, 0.00000000000000000000e+00) (0, 0, 0.00000000000000000000e+00) (0, 0, 0.00000000000000000000e+00) (0, 0, 0.00000000000000000000e+00) (0, 0, 0.00000000000000000000e+00) (0, 0, 0.00000000000000000000e+00) (0, 0, 0.00000000000000000000e+00) (0, 0, 0.00000000000000000000e+00) (0, 0, 0.00000000000000000000e+00) (0, 0, 0.00000000000000000000e+00) (0, 0, 0.00000000000000000000e+00) (0, 0, 0.00000000000000000000e+00) (0, 0, 0.00000000000000000000e+00) (0, 0, 0.00000000000000000000e+00) (0, 0, 0.00000000000000000000e+00) (0, 0, 0.00000000000000000000e+00) (0, 0, 0.00000000000000000000e+00) (0, 0, 0.00000000000000000000e+00) (0, 0, 0.00000000000000000000e+00) (0, 0, 0.00000000000000000000e+00) (0, 0, 0.00000000000000000000e+00) (0, 0, 0.00000000000000000000e+00) (0, 0, 0.00000000000000000000e+00) (0, 0, 0.00000000000000000000e+00) (0, 0, 0.00000000000000000000e+00) (0, 0, 0.00000000000000000000e+00) (0, 0, 0.00000000000000000000e+00) (0, 0, 0.00000000000000000000e+00) (0, 0, 0.00000000000000000000e+00) (0, 0, 0.00000000000000000000e+00) (0, 0, 0.00000000000000000000e+00) (0, 0, 0.00000000000000000000e+00) (0, 0, 0.00000000000000000000e+00) (0, 0, 0.00000000000000000000e+00) (0, 0, 0.00000000000000000000e+00) (0, 0, 0.00000000000000000000e+00) (0, 0, 0.00000000000000000000e+00) (0, 0, 0.00000000000000000000e+00) (0, 0, 0.00000000000000000000e+00) (0, 0, 0.00000000000000000000e+00) (0, 0, 0.00000000000000000000e+00) (0, 0, 0.00000000000000000000e+00) (0, 0, 0.00000000000000000000e+00) (0, 0, 0.00000000000000000000e+00) (0, 0, 0.00000000000000000000e+00) (0, 0, 0.00000000000000000000e+00) (0, 0, 0.00000000000000000000e+00) (0, 0, 0.00000000000000000000e+00) (0, 0, 0.00000000000000000000e+00) (0, 0, 0.00000000000000000000e+00) (0, 0, 0.00000000000000000000e+00) (0, 0, 0.00000000000000000000e+00) (0, 0, 0.00000000000000000000e+00) (0, 0, 0.00000000000000000000e+00) (0, 0, 0.00000000000000000000e+00) (0, 0, 0.00000000000000000000e+00) (0, 0, 0.00000000000000000000e+00) (0, 0, 0.00000000000000000000e+00) (0, 0, 0.00000000000000000000e+00) (0, 0, 0.00000000000000000000e+00) (0, 0, 0.00000000000000000000e+00) (0, 0, 0.00000000000000000000e+00) (0, 0, 0.00000000000000000000e+00) (0, 0, 0.00000000000000000000e+00) (0, 0, 0.00000000000000000000e+00) (0, 0, 0.00000000000000000000e+00) (0, 0, 0.00000000000000000000e+00) (0, 0, 0.00000000000000000000e+00) (0, 0, 0.00000000000000000000e+00) (0, 0, 0.00000000000000000000e+00) (0, 0, 0.00000000000000000000e+00) (0, 0, 0.00000000000000000000e+00) (0, 0, 0.00000000000000000000e+00) (0, 0, 0.00000000000000000000e+00) (0, 0, 0.00000000000000000000e+00) (0, 0, 0.00000000000000000000e+00) (0, 0, 0.00000000000000000000e+00) (0, 0, 0.00000000000000000000e+00) (0, 0, 0.00000000000000000000e+00) (0, 0, 0.00000000000000000000e+00) (0, 0, 0.00000000000000000000e+00) (0, 0, 0.00000000000000000000e+00) (0, 0, 0.00000000000000000000e+00) (0, 0, 0.00000000000000000000e+00) (0, 0, 0.00000000000000000000e+00) (0, 0, 0.00000000000000000000e+00) (0, 0, 0.00000000000000000000e+00) (0, 0, 0.00000000000000000000e+00) (0, 0, 0.00000000000000000000e+00) (0, 0, 0.00000000000000000000e+00) (0, 0, 0.00000000000000000000e+00) (0, 0, 0.00000000000000000000e+00) (0, 0, 0.00000000000000000000e+00) (0, 0, 0.00000000000000000000e+00) (0, 0, 0.00000000000000000000e+00) (0, 0, 0.00000000000000000000e+00) (0, 0, 0.00000000000000000000e+00) (0, 0, 0.00000000000000000000e+00) (0, 0, 0.00000000000000000000e+00) (0, 0, 0.00000000000000000000e+00) (0, 0, 0.00000000000000000000e+00) (0, 0, 0.00000000000000000000e+00) (0, 0, 0.00000000000000000000e+00) (0, 0, 0.00000000000000000000e+00) (0, 0, 0.00000000000000000000e+00) (0, 0, 0.00000000000000000000e+00) (0, 0, 0.00000000000000000000e+00) (0, 0, 0.00000000000000000000e+00) (0, 0, 0.00000000000000000000e+00) (0, 0, 0.00000000000000000000e+00) (0, 0, 0.00000000000000000000e+00) (0, 0, 0.00000000000000000000e+00) (0, 0, 0.00000000000000000000e+00) (0, 0, 0.00000000000000000000e+00) (0, 0, 0.00000000000000000000e+00) (0, 0, 0.00000000000000000000e+00) (0, 0, 0.00000000000000000000e+00) (0, 0, 0.00000000000000000000e+00) (0, 0, 0.00000000000000000000e+00) (0, 0, 0.00000000000000000000e+00) (0, 0, 0.00000000000000000000e+00) (0, 0, 0.00000000000000000000e+00) (0, 0, 0.00000000000000000000e+00) (0, 0, 0.00000000000000000000e+00) (0, 0, 0.00000000000000000000e+00) (0, 0, 0.00000000000000000000e+00) (0, 0, 0.00000000000000000000e+00) (0, 0, 0.00000000000000000000e+00) (0, 0, 0.00000000000000000000e+00) (0, 0, 0.00000000000000000000e+00) (0, 0, 0.00000000000000000000e+00) (0, 0, 0.00000000000000000000e+00) (0, 0, 0.00000000000000000000e+00) (0, 0, 0.00000000000000000000e+00) (0, 0, 0.00000000000000000000e+00) (0, 0, 0.00000000000000000000e+00) (0, 0, 0.00000000000000000000e+00) (0, 0, 0.00000000000000000000e+00) (0, 0, 0.00000000000000000000e+00) (0, 0, 0.00000000000000000000e+00) (0, 0, 0.00000000000000000000e+00) (0, 0, 0.00000000000000000000e+00) (0, 0, 0.00000000000000000000e+00) (0, 0, 0.00000000000000000000e+00) (0, 0, 0.00000000000000000000e+00) (0, 0, 0.00000000000000000000e+00) (0, 0, 0.00000000000000000000e+00) (0, 0, 0.00000000000000000000e+00) (0, 0, 0.00000000000000000000e+00) (0, 0, 0.00000000000000000000e+00) (0, 0, 0.00000000000000000000e+00) (0, 0, 0.00000000000000000000e+00) (0, 0, 0.00000000000000000000e+00) (0, 0, 0.00000000000000000000e+00) (0, 0, 0.00000000000000000000e+00) (0, 0, 0.00000000000000000000e+00) (0, 0, 0.00000000000000000000e+00) (0, 0, 0.00000000000000000000e+00) (0, 0, 0.00000000000000000000e+00) (0, 0, 0.00000000000000000000e+00) (0, 0, 0.00000000000000000000e+00) (0, 0, 0.00000000000000000000e+00) (0, 0, 0.00000000000000000000e+00) (0, 0, 0.00000000000000000000e+00) (0, 0, 0.00000000000000000000e+00) (0, 0, 0.00000000000000000000e+00) (0, 0, 0.00000000000000000000e+00) (0, 0, 0.00000000000000000000e+00) (0, 0, 0.00000000000000000000e+00) (0, 0, 0.00000000000000000000e+00) (0, 0, 0.00000000000000000000e+00) (0, 0, 0.00000000000000000000e+00) (0, 0, 0.00000000000000000000e+00) (0, 0, 0.00000000000000000000e+00) (0, 0, 0.00000000000000000000e+00) (0, 0, 0.00000000000000000000e+00) (0, 0, 0.00000000000000000000e+00) (0, 0, 0.00000000000000000000e+00) (0, 0, 0.00000000000000000000e+00) (0, 0, 0.00000000000000000000e+00) (0, 0, 0.00000000000000000000e+00) (0, 0, 0.00000000000000000000e+00) (0, 0, 0.00000000000000000000e+00) (0, 0, 0.00000000000000000000e+00) (0, 0, 0.00000000000000000000e+00) (0, 0, 0.00000000000000000000e+00) (0, 0, 0.00000000000000000000e+00) (0, 0, 0.00000000000000000000e+00) (0, 0, 0.00000000000000000000e+00) (0, 0, 0.00000000000000000000e+00) (0, 0, 0.00000000000000000000e+00) (0, 0, 0.00000000000000000000e+00) (0, 0, 0.00000000000000000000e+00) (0, 0, 0.00000000000000000000e+00) (0, 0, 0.00000000000000000000e+00) (0, 0, 0.00000000000000000000e+00) (0, 0, 0.00000000000000000000e+00) (0, 0, 0.00000000000000000000e+00) (0, 0, 0.00000000000000000000e+00) (0, 0, 0.00000000000000000000e+00) (0, 0, 0.00000000000000000000e+00) (0, 0, 0.00000000000000000000e+00) (0, 0, 0.00000000000000000000e+00) (0, 0, 0.00000000000000000000e+00) (0, 0, 0.00000000000000000000e+00) (0, 0, 0.00000000000000000000e+00) (0, 0, 0.00000000000000000000e+00) (0, 0, 0.00000000000000000000e+00) (0, 0, 0.00000000000000000000e+00) (0, 0, 0.00000000000000000000e+00) (0, 0, 0.00000000000000000000e+00) (0, 0, 0.00000000000000000000e+00) (0, 0, 0.00000000000000000000e+00) (0, 0, 0.00000000000000000000e+00) (0, 0, 0.00000000000000000000e+00) (0, 0, 0.00000000000000000000e+00) (0, 0, 0.00000000000000000000e+00) (0, 0, 0.00000000000000000000e+00) (0, 0, 0.00000000000000000000e+00) (0, 0, 0.00000000000000000000e+00) (0, 0, 0.00000000000000000000e+00) (0, 0, 0.00000000000000000000e+00) (0, 0, 0.00000000000000000000e+00) (0, 0, 0.00000000000000000000e+00) (0, 0, 0.00000000000000000000e+00) (0, 0, 0.00000000000000000000e+00) (0, 0, 0.00000000000000000000e+00) (0, 0, 0.00000000000000000000e+00) (0, 0, 0.00000000000000000000e+00) (0, 0, 0.00000000000000000000e+00) (0, 0, 0.00000000000000000000e+00) (0, 0, 0.00000000000000000000e+00) (0, 0, 0.00000000000000000000e+00) (0, 0, 0.00000000000000000000e+00) (0, 0, 0.00000000000000000000e+00) (0, 0, 0.00000000000000000000e+00) (0, 0, 0.00000000000000000000e+00) (0, 0, 0.00000000000000000000e+00) (0, 0, 0.00000000000000000000e+00) (0, 0, 0.00000000000000000000e+00) (0, 0, 0.00000000000000000000e+00) (0, 0, 0.00000000000000000000e+00) (0, 0, 0.00000000000000000000e+00) (0, 0, 0.00000000000000000000e+00) (0, 0, 0.00000000000000000000e+00) (0, 0, 0.00000000000000000000e+00) (0, 0, 0.00000000000000000000e+00) (0, 0, 0.00000000000000000000e+00) (0, 0, 0.00000000000000000000e+00) (0, 0, 0.00000000000000000000e+00) (0, 0, 0.00000000000000000000e+00) (0, 0, 0.00000000000000000000e+00) (0, 0, 0.00000000000000000000e+00) (0, 0, 0.00000000000000000000e+00) (0, 0, 0.00000000000000000000e+00) (0, 0, 0.00000000000000000000e+00) (0, 0, 0.00000000000000000000e+00) (0, 0, 0.00000000000000000000e+00) (0, 0, 0.00000000000000000000e+00) (0, 0, 0.00000000000000000000e+00) (0, 0, 0.00000000000000000000e+00) (0, 0, 0.00000000000000000000e+00) (0, 0, 0.00000000000000000000e+00) (0, 0, 0.00000000000000000000e+00) (0, 0, 0.00000000000000000000e+00) (355, 3, 5.00000000000000000000e-01) (355, 3, 5.00000000000000000000e-01) (355, 3, 5.00000000000000000000e-01) (355, 3, 5.00000000000000000000e-01) (355, 3, 5.00000000000000000000e-01) (355, 3, 5.00000000000000000000e-01) (355, 3, 5.00000000000000000000e-01) (355, 3, 5.00000000000000000000e-01) (355, 3, 5.00000000000000000000e-01) (355, 3, 5.00000000000000000000e-01) (355, 3, 5.00000000000000000000e-01) (355, 3, 5.00000000000000000000e-01) (355, 3, 5.00000000000000000000e-01) (355, 3, 5.00000000000000000000e-01) (355, 3, 5.00000000000000000000e-01) (355, 3, 5.00000000000000000000e-01) (355, 3, 5.00000000000000000000e-01) (355, 3, 5.00000000000000000000e-01) (355, 3, 5.00000000000000000000e-01) (355, 3, 5.00000000000000000000e-01) (355, 3, 5.00000000000000000000e-01) (355, 3, 5.00000000000000000000e-01) (355, 3, 5.00000000000000000000e-01) (355, 3, 5.00000000000000000000e-01) (355, 3, 5.00000000000000000000e-01) (0, 3, 0.00000000000000000000e+00) (26, 3, 5.00000000000000000000e-01) (26, 3, 5.00000000000000000000e-01) (0, 3, 0.00000000000000000000e+00) 
connections (connected_to_neuron, weight)=(0, 1.11924312929898309155e-01) (1, 7.53713346433304148819e-02) (2, -3.30432670769119432586e-02) (3, 1.86129447737792247386e-01) (4, -1.74227028795221512703e-02) (5, -3.43627005921811334854e-01) (6, -1.86260444379590904551e-02) (7, 2.10462424253249041906e-01) (8, 7.30336647173371045216e-02) (9, 1.03273359947314055662e-01) (10, -9.39814575843167937519e-02) (11, -1.50382207161641051618e-01) (12, -1.63586017150688906030e-01) (13, 8.17885066159358548044e-02) (14, -1.65118163823986002781e-01) (15, -2.29367102868404865168e-01) (16, -1.66028766778067660148e-01) (17, 2.82861748636576530724e-02) (18, 8.37284762647386160417e-02) (19, 2.77857333480538037929e-01) (20, 4.64037602456623191061e-02) (21, -7.02912452826173414500e-03) (22, 5.02441715563729171534e-02) (23, -5.76091383031931830727e-02) (24, 7.92368352342858461856e-02) (25, 2.19845546173813133350e-01) (26, -1.94514064609515285875e-01) (27, -6.77769161808744469155e-02) (28, -6.61519679364498958130e-02) (29, 3.12241117589047824724e-03) (30, 1.00564026996445565754e-01) (31, 8.25566374838784533541e-02) (32, 1.61786020531183738491e-01) (33, 8.81769875852809609240e-02) (34, 2.98600400870980275947e-01) (35, 6.59216978952679721893e-02) (36, 1.62383717754244177867e-01) (37, 1.86877099423197440276e-01) (38, 2.87868821176902656145e-01) (39, 1.24739363176127646127e-01) (40, 8.59336834878811628435e-02) (41, 2.13969632101974893690e-02) (42, -1.04454365332421070245e-01) (43, 4.38081277027211821173e-02) (44, -5.62437389373041385365e-02) (45, -8.77651285856049373502e-02) (46, -4.34151617421873192715e-02) (47, 1.88267561087636148276e-01) (48, 1.39385816699209436065e-01) (49, 4.89894732613471370342e-02) (50, 3.35411335348591785332e-02) (51, 8.23078076859794366404e-02) (52, -1.02955199159517410412e-01) (53, 1.95491843848664970107e-02) (54, 5.83842999491503006348e-02) (55, 1.21541272830358149104e-01) (56, 2.11884275096226343260e-01) (57, 1.06746130388272922329e-01) (58, -3.14273284606534225594e-02) (59, -3.19196380226960327309e-02) (60, 6.20855103666811056207e-02) (61, -6.62237470625057778051e-02) (62, -4.35688090069644151647e-02) (63, -2.85779662588810136337e-02) (64, 5.79136077163205920115e-02) (65, -6.64413730599940164506e-03) (66, -7.32306513042932649693e-02) (67, 7.64622935080276483477e-02) (68, -4.21146701674806889226e-02) (69, 1.45342336128209098645e-01) (70, 7.32104849157142606453e-02) (71, -3.88982568675154821713e-02) (72, -8.89109686499597456910e-02) (73, 3.06689995635375939331e-02) (74, -2.07216891784224241380e-02) (75, -1.80800786358000814547e-01) (76, 9.27629287851013673016e-02) (77, 4.72214015854116805904e-02) (78, -3.06918128757079390623e-02) (79, -2.62296525588182651012e-02) (80, -2.96643654086118473134e-02) (81, 1.27228612640762489550e-01) (82, 1.80904717600330666727e-01) (83, -2.63127884548754534255e-02) (84, -1.36549644770548733730e-02) (85, -8.11596779226342185387e-02) (86, -3.39587768152138438915e-02) (87, 1.66275827527210623424e-01) (88, 9.64822210755833381546e-02) (89, -9.76184393131740019145e-02) (90, 2.46954631785466713345e-02) (91, -4.73092917636123780345e-02) (92, -5.72746495045435219384e-02) (93, -1.02608851486153493382e-01) (94, -9.34770083706790294586e-02) (95, 5.74228939790364170670e-02) (96, 7.29624852538108825684e-02) (97, 3.99944376845109625385e-02) (98, 1.69431481229160088575e-02) (99, -1.28512016860443112343e-01) (100, -2.62932767376066345993e-03) (101, -1.16356165924931670430e-01) (102, 1.49489872238451181746e-02) (103, 1.87060023625656157709e-01) (104, -2.04819007557049626023e-01) (105, -7.89274753578985133196e-02) (106, 3.71224540110158054973e-02) (107, -1.14953068272004632622e-01) (108, 2.10850391008216037081e-01) (109, 1.13791614788550932147e-01) (110, 8.76661215155859208092e-02) (111, 2.68569880197522710408e-02) (112, 3.58901130216497527003e-02) (113, 4.12531754246975735506e-03) (114, -1.32966227600134004327e-02) (115, -1.25124937554216553171e-01) (116, -7.49362987647150535775e-02) (117, -2.98004597425460815430e-02) (118, 8.27392591705351614084e-03) (119, 4.14818794987912853323e-02) (120, 6.78582048523892200631e-02) (121, 1.71071795446265551011e-01) (122, -1.20856297881073521117e-01) (123, 2.49905477581874972681e-02) (124, 5.80421005106446508126e-02) (125, 4.36970662620324232228e-02) (126, -2.72230874282000413766e-02) (127, 2.55515341715744602469e-02) (128, -3.53446134098818476321e-02) (129, 1.70295507827451265970e-03) (130, 1.29424412342010214383e-01) (131, 5.97577173762477917296e-02) (132, 1.54714533841804280367e-01) (133, 6.34376707476777823569e-02) (134, 8.38530913282365952810e-02) (135, 5.91076034554518445208e-02) (136, -2.89524032789719096281e-02) (137, -7.71836600699850466922e-02) (138, 1.69775635004043579102e-03) (139, -8.22240115419817646503e-02) (140, -5.44520236567788001869e-02) (141, -1.17321345819593900184e-01) (142, 5.56442249771772687317e-02) (143, 1.00276184895461625834e-01) (144, 3.84554583629304821968e-02) (145, 2.37344321239318173378e-01) (146, 1.10474323085096221009e-01) (147, -6.93235085392418931560e-02) (148, 4.01869668175803135268e-02) (149, 8.45628878872407702127e-02) (150, 9.93725091700085189084e-02) (151, 2.75330217901063878383e-02) (152, -7.37224911477777078428e-02) (153, 1.92330232813909651757e-01) (154, 8.29894393853247286374e-02) (155, 1.18125702536970751677e-02) (156, 1.96269999932733273107e-02) (157, -4.84147069031859444976e-03) (158, -3.26494783066533719729e-02) (159, -8.80257189273834228516e-02) (160, 2.46411663465339270118e-01) (161, -3.13390211615086011765e-01) (162, -1.08934764678171175367e-01) (163, -2.38004173991434281321e-01) (164, -1.71586556007415520775e-02) (165, 3.51513567152589412323e-01) (166, -4.12821180647698557364e-02) (167, -1.69495522696513301053e-01) (168, -1.45434898294264425278e-01) (169, 1.05453541107816309297e-01) (170, 1.56910134019571961828e-01) (171, 1.47083045953579405474e-01) (172, 1.10405917460830338417e-01) (173, 9.26954148237323360959e-02) (174, 2.51806796422919670908e-02) (175, 1.08146715103295779081e-01) (176, 1.92466092308083536189e-01) (177, -1.50958459450280579883e-01) (178, -9.99104547719265184691e-02) (179, 3.84107413263494040789e-02) (180, -5.62465377151966094971e-02) (181, 7.89552004404104057489e-02) (182, -5.42434692453066663598e-02) (183, 6.40875925149784614332e-02) (184, 2.35529657154454584445e-02) (185, 1.25212578969049997957e-01) (186, -1.60092547857134670508e-02) (187, 2.38909575870742268977e-02) (188, -9.30143885647439910835e-02) (189, -4.66282552567397964860e-02) (190, -1.56291056536116607090e-01) (191, -7.87313393519442489277e-02) (192, -8.06505556137927515081e-02) (193, -1.22287065130413930003e-01) (194, -5.71036075554041608338e-02) (195, 1.90912378096722568088e-02) (196, 3.33678221536206215392e-02) (197, -1.20750490736483834242e-01) (198, -3.73842964676639327726e-02) (199, 2.97568804145235885072e-02) (200, 1.22453695345077412382e-01) (201, -7.84942805767059326172e-02) (202, -1.03675287300560664550e-01) (203, 1.07436309698294055193e-01) (204, -8.58001388688028193696e-03) (205, -2.32983218765140318030e-02) (206, -8.10917478217665077533e-02) (207, -2.11977723948010704502e-02) (208, 8.28942251499053955888e-02) (209, 7.44223312453085178442e-02) (210, -1.31344584000820441272e-01) (211, 7.91042775247799839766e-02) (212, 4.09154725918416256603e-02) (213, -7.19832949509010278089e-02) (214, -4.57147550291753107521e-02) (215, 8.64015362902961353564e-02) (216, 2.04369724087527071532e-01) (217, 6.21172339979532178895e-04) (218, 5.69435881504790630814e-02) (219, -6.44493885652150377830e-02) (220, 3.09569690385110077302e-02) (221, 1.61627117788395759101e-02) (222, -1.12018734216690063477e-02) (223, -1.45797283487497819632e-01) (224, -2.92315430026599300251e-02) (225, -4.12627145358048438850e-02) (226, 1.63540524126914332825e-01) (227, -1.39881239209573432491e-01) (228, 1.53064513097086324356e-01) (229, 6.96614232441244707328e-02) (230, -1.10786182239876004885e-01) (231, -5.39091375000994230127e-02) (232, -1.56054164089274388649e-01) (233, 9.16021969802129909510e-02) (234, 1.19631261641336389401e-01) (235, -2.19848071628695629354e-01) (236, 5.98703255996945182815e-02) (237, -4.49342269120294596219e-02) (238, -1.20536964791152542698e-01) (239, -2.96320670710163609762e-02) (240, 6.28695012018695154055e-02) (241, -4.98223722001597812969e-02) (242, -6.00370825458039353295e-02) (243, 1.06147026929214724489e-01) (244, -1.51843717084361506942e-01) (245, 2.50134689723075197276e-02) (246, 2.84682787094500920622e-02) (247, 1.25958507647067702306e-01) (248, -2.91849633742072046838e-02) (249, 3.01893531358779568241e-02) (250, 8.53374678274969843128e-03) (251, -1.56598053680710641578e-01) (252, -1.53131312545117831414e-01) (253, 1.32681968884270529152e-01) (254, -6.54159578781321748853e-02) (255, 9.13554571194917924837e-02) (256, -2.04965848524902682914e-01) (257, 8.14861598540884135566e-02) (258, 8.06863790780397854840e-02) (259, 5.91547610987659816528e-02) (260, 5.05990274415568999644e-03) (261, -1.94634410784187486532e-02) (262, -1.06099238608890963920e-01) (263, 6.31080829575621782279e-02) (264, 8.72892534975384243312e-02) (265, 3.34103655222815461648e-03) (266, -6.68954872837799058294e-02) (267, 4.60533705621364863880e-02) (268, -6.52985596839516808237e-03) (269, -5.96189235111068555062e-02) (270, -1.19482489000055203121e-01) (271, -1.29624137050726312426e-02) (272, -2.69359340226848868738e-02) (273, -5.15999736646045661925e-02) (274, -5.35034155644948661301e-02) (275, 1.52555380853751199055e-01) (276, 1.24473066284689834471e-01) (277, 1.32278498633578128763e-01) (278, 7.64140998491666112447e-02) (279, -1.68781626091324687966e-02) (280, -3.78386027770301752726e-02) (281, -1.12532907210202703929e-01) (282, 3.51194439713549480531e-02) (283, 7.36029671401746271586e-02) (284, -2.77689104948006075524e-02) (285, -5.88867972453346100181e-01) (286, -9.07472776862595781333e-02) (287, -8.76139157848377786442e-02) (288, 1.61098197609547327813e-01) (289, -2.84492158525167682104e-01) (290, 2.83730094170072701110e-02) (291, 7.20567006203179788448e-02) (292, -2.41044924784568834197e-02) (293, -2.00998464349135513851e-01) (294, -1.82333442818707947009e-01) (295, 6.40242886277554851260e-02) (296, 7.97506187223827184285e-02) (297, 7.00720319650936229738e-02) (298, -1.48707765554366766469e-01) (299, 1.54483981222196132405e-02) (300, 1.86904210367882850363e-01) (301, -4.05452707768312672898e-02) (302, 6.97159379520302102673e-02) (303, -5.09489831954013181609e-04) (304, 1.37389806731199076717e-01) (305, -1.20326996607641498183e-01) (306, 9.96363145530078653245e-02) (307, 2.26494115632449810604e-01) (308, -1.88849243821249401787e-01) (309, 7.17516612658890967635e-02) (310, 1.88993595298830890927e-01) (311, -6.26823455095291137695e-02) (312, -2.49903681094110013960e-01) (313, 1.27178911077924141487e-02) (314, -7.16765954210388522849e-02) (315, -1.06009771999785026506e-03) (316, -3.94645488494053120476e-02) (317, -2.76511030371893694324e-02) (318, -2.66044224824103225924e-01) (319, 7.75489415510788315800e-02) (320, 2.99308298206017800447e-02) (321, 1.50854369666562487806e-01) (322, 1.01982924752545153768e-01) (323, 2.37896202171504589362e-01) (324, 4.61834835516113303977e-02) (325, -4.24119707994765268722e-02) (326, -2.24592509303600612602e-01) (327, 6.90766106367499826968e-02) (328, -2.04464948121614170651e-01) (329, 7.69471136885047785059e-02) (330, -4.68082681306725076342e-02) (331, 9.80401674785006949087e-02) (332, -1.21203790101541114543e-01) (333, 1.33417429375434687389e-01) (334, -2.02010684216927041690e-02) (335, 4.97626654244644021918e-03) (336, -9.95573391710023875012e-02) (337, -1.24710996908589749621e-01) (338, -2.11442087110810417183e-01) (339, 5.98873781979884847737e-02) (340, -5.00786398613068062247e-01) (341, 1.14864312743981816789e-01) (342, -1.24504169239508286071e-01) (343, -1.47644181671125335198e-01) (344, -2.68926928290569910995e-01) (345, 1.91390363271241106813e-02) (346, 3.88460806257181767709e-02) (347, 9.70803833075701699817e-02) (348, 2.22385588794726425654e-02) (349, 1.13022286880922306906e-01) (350, -4.36070155328603242806e-02) (351, -1.87445592456301879380e-01) (352, -8.41901302337646484375e-02) (353, 5.49154356122016906738e-02) (354, 1.34327867519940316599e-02) (0, 8.07134557303334915224e-02) (1, 8.08531271973529225283e-02) (2, 4.94217624403690478085e-02) (3, 4.74207380650320808879e-02) (4, -9.22000436491108438242e-02) (5, -1.07602207614169841782e-02) (6, -7.78305884053727137228e-02) (7, 7.69957214072222867474e-02) (8, -1.61328860794464450101e-02) (9, -9.22568730488271954160e-02) (10, 2.37747378808039191642e-03) (11, -5.16096089996553666901e-02) (12, 4.78074284604032562207e-02) (13, 3.44583135438368479142e-02) (14, 5.27766697752823782386e-02) (15, -9.03206887783041117990e-02) (16, -3.26007182862433353421e-02) (17, -5.53624285901924070852e-02) (18, -2.50259696371905393866e-03) (19, -3.69820553426849080170e-02) (20, 8.36552466819905082840e-02) (21, -7.39211498301401842559e-02) (22, -8.81948675807402437954e-02) (23, -8.81976550189507851885e-02) (24, -9.47137540846325759469e-02) (25, -2.32707809985916030948e-02) (26, 1.05865238075282766528e-01) (27, -2.83474009724086518924e-02) (28, -8.49376917449210996902e-03) (29, 2.58271300920462285045e-02) (30, 2.36429761929480737603e-02) (31, -2.02073927595854720141e-02) (32, 1.06797479652293806490e-02) (33, -2.61094066140474811988e-02) (34, -7.60268587880147533875e-02) (35, 1.56589156937296317129e-02) (36, 5.60333359406419220794e-02) (37, -5.05884657463224890472e-02) (38, 3.84069822536570962962e-03) (39, -5.37749599467033240208e-02) (40, -3.45322719155596313811e-02) (41, -8.94740941355051527806e-02) (42, -6.65798371197828808832e-03) (43, -9.00784930744883693965e-02) (44, 4.57809299641283584670e-02) (45, -5.95180140048710074052e-02) (46, -9.05407304909782023605e-02) (47, -9.21413938863609727203e-02) (48, -1.64945881999379664884e-02) (49, 2.28780506790409246531e-03) (50, -2.15132302432986081964e-02) (51, -3.38450868257751044665e-02) (52, 6.92046555528987444861e-02) (53, 2.94340141820111506066e-02) (54, 2.10460457795385719182e-02) (55, -1.04724700118839109120e-01) (56, -7.15201372816948038880e-02) (57, 1.20258844473005270526e-02) (58, 5.23339999324256644267e-04) (59, 3.95674287898596308000e-02) (60, -2.75039912638559980174e-02) (61, -5.67127759981351370344e-02) (62, -6.32591942584567190622e-02) (63, -9.90562682117145099081e-02) (64, 3.50092355724868076194e-02) (65, -1.57438151005196702581e-02) (66, 3.98296247528930127957e-02) (67, 1.78164866338076065266e-02) (68, 5.50765977842093551464e-02) (69, -3.48659342369665101180e-02) (70, 8.21240168847620494175e-02) (71, -6.25473744232118711306e-02) (72, -1.57796468577610002858e-03) (73, 8.21635951822886055097e-04) (74, -2.69719059229975091641e-02) (75, -3.35076859323170453409e-02) (76, 7.70426796586443918269e-02) (77, 1.15921315892203551090e-02) (78, 1.98200031927972114554e-02) (79, -8.23338698301252780443e-03) (80, -4.18270386120363074633e-02) (81, -8.72418695052851050908e-02) (82, 7.94664100083079111281e-02) (83, -4.67626157222185215301e-02) (84, 6.79664703616939813724e-02) (85, 2.55009863524579202809e-02) (86, -3.30783304899088873019e-02) (87, -9.93202558979728034050e-02) (88, -4.65502247013034956002e-02) (89, 8.17776029791257297319e-02) (90, 6.58727731315175563109e-02) (91, 3.79025307869990391030e-02) (92, -5.64679026878784698362e-02) (93, -9.07362289545991795858e-02) (94, 4.95920947605858961071e-02) (95, 9.44715112081798702448e-02) (96, 1.15811973810195922852e-02) (97, -2.29030213441517790929e-03) (98, 2.55179265175828097478e-02) (99, -1.66430437003046091671e-02) (100, 7.91950349434174805108e-02) (101, 3.42198535669079526023e-02) (102, 3.17969814210688900280e-02) (103, -1.54622458831872415519e-02) (104, -5.41325901270101259022e-02) (105, -7.76445516537696556192e-02) (106, 7.09333732836648217512e-02) (107, -8.38224726788906887576e-02) (108, 3.02030537836553147901e-02) (109, -2.11658437903524017376e-02) (110, 1.30287702501193577986e-02) (111, 1.01351101537445031919e-01) (112, -7.39038368410121332928e-04) (113, 3.98731486073245627866e-03) (114, -5.07119048539319342006e-02) (115, -2.80738492087190330548e-02) (116, -6.90725515914893256619e-02) (117, 2.01300010085105895996e-02) (118, -2.05179449851268271010e-02) (119, -2.36766198948449198280e-02) (120, -9.41456668233822896799e-04) (121, -6.25982653347557649326e-02) (122, -8.07409695968591273330e-02) (123, 4.38083597130966423405e-02) (124, -4.29538437680438978106e-02) (125, 5.96160229973306393658e-02) (126, 3.97149124184669466420e-02) (127, 6.96257165144719414318e-02) (128, -4.90482022843189285899e-02) (129, -3.81241165189700748073e-02) (130, -5.60773031134709151746e-02) (131, -5.62550494079861185259e-02) (132, 9.14738528467204659034e-02) (133, 8.49580974865998539425e-02) (134, 2.99000905052954069063e-02) (135, -7.03800300037201870262e-02) (136, -8.74964175184646392180e-02) (137, 6.79631910563940292574e-03) (138, -4.32687364518642425537e-02) (139, 5.32357702701757307118e-02) (140, 8.91073351659941725877e-02) (141, 7.12096393211835571035e-02) (142, 4.50239511513471982185e-02) (143, -1.08061079276041849956e-02) (144, -2.64502873752316819411e-02) (145, 9.31045349637788371977e-02) (146, 5.54725383150056969295e-02) (147, -1.41435805801699040866e-03) (148, 1.60303669838442880424e-02) (149, -6.33317624430951991998e-02) (150, 7.49915743352778940700e-02) (151, -7.56028577432822646021e-02) (152, -1.61743330769201082431e-02) (153, 8.53236778410721014021e-02) (154, 6.38839425147740558319e-02) (155, 4.63072927552171595411e-02) (156, 4.97342152289555056166e-02) (157, 3.26278522966060849017e-03) (158, 1.35132629082183406549e-02) (159, -9.03969481587409973145e-02) (160, 5.74138086923171656051e-02) (161, 7.69352228537898280569e-02) (162, -4.63586367873655980087e-02) (163, 7.68236062976783568024e-02) (164, 4.94931113202123421080e-02) (165, 6.83327134446458789307e-02) (166, 8.98829503163436210889e-02) (167, 6.37076902624555407861e-02) (168, -5.52599122648527417423e-03) (169, -5.13516011615002473945e-02) (170, 8.73955010288573206148e-04) (171, -3.20669559306844265123e-02) (172, -7.53517124555582729073e-02) (173, -4.27160835279469727754e-02) (174, 6.36221940799876067851e-02) (175, -2.20086209338612206728e-04) (176, -4.76276757388931007431e-02) (177, 4.22655234912660479618e-02) (178, -8.47072892304557428789e-02) (179, 6.82570530347123699544e-02) (180, 7.10337534546852111816e-02) (181, 7.84178187987698838146e-02) (182, -1.04089643380153404340e-01) (183, -4.58553311225680659824e-02) (184, 6.58528149423258241102e-02) (185, 6.40575196897157222997e-02) (186, -9.62678587724187934116e-02) (187, 1.48299169301556281464e-02) (188, -3.18867422105220052475e-02) (189, 1.14234548548578073585e-02) (190, 3.24302866018122276648e-02) (191, -6.40627715605190939385e-02) (192, -2.60806818575092559664e-02) (193, 8.79057907970685892263e-02) (194, -9.93700789451845145628e-02) (195, -6.73725310685154704649e-02) (196, 7.01859677548272581360e-02) (197, -9.65877093122403662662e-02) (198, 9.09787587274123454861e-02) (199, -4.59406714422190137759e-02) (200, -4.58074590239684123483e-02) (201, 2.96983867883682250977e-03) (202, 3.06689828618076643085e-02) (203, -2.05696494602852324174e-02) (204, 6.11366946592566337659e-02) (205, -6.88358263363341577046e-03) (206, 8.82223732999258963838e-02) (207, -6.96002846436000743857e-02) (208, -7.34986910456357639410e-02) (209, 8.62145854031745317858e-02) (210, -9.11506426442786760189e-02) (211, -1.03363813901803033857e-01) (212, 5.79310985192784122511e-02) (213, -9.49787696054536917378e-02) (214, -4.03333374691040025262e-02) (215, 3.23717815879989712080e-02) (216, 7.27713950569170292537e-02) (217, -3.86367466175596696587e-02) (218, -4.18936445594184359020e-02) (219, -5.47414042552510707318e-02) (220, 7.76510613224506984764e-02) (221, 8.89947457464388830273e-02) (222, -1.35555416345596313477e-02) (223, -4.65865002539784939239e-02) (224, 7.23769082616375625250e-02) (225, -7.87551102001520474116e-03) (226, -2.32774853556928888743e-02) (227, 4.58518672828940182518e-02) (228, -1.50623853935298816081e-02) (229, -3.06322134793861056146e-02) (230, 1.00078464438840372686e-01) (231, 5.09651822695008221986e-02) (232, 7.72424546155414948334e-02) (233, 2.18744231800376588704e-02) (234, -7.53086376022324699431e-02) (235, 4.99528138384758568780e-02) (236, -7.63897403755639248235e-02) (237, -8.04875103264384578194e-02) (238, 7.39417525752457255317e-02) (239, -4.49628503794406164662e-02) (240, -9.97339639530674948453e-02) (241, 7.96819643609725236644e-02) (242, -4.74146775439206955016e-02) (243, 6.74209697553851128315e-02) (244, 8.72175312868264801525e-02) (245, 1.01912464328470283442e-02) (246, 8.37312996731298837816e-03) (247, 6.20247084319551014731e-02) (248, 7.47666256636918269418e-02) (249, 5.87528732582196441814e-02) (250, -9.36096601626675989261e-02) (251, 4.81579477911443024074e-02) (252, 6.22271081992625679780e-02) (253, -2.85705492191915249450e-03) (254, -9.96858912843068684095e-02) (255, 2.26992846228791789187e-02) (256, 9.52938611247190342501e-02) (257, -1.64890458752072234516e-02) (258, -3.08259915669806434935e-02) (259, -1.64833793038979409262e-02) (260, 6.56183385378550781963e-02) (261, -3.98425916046294750772e-02) (262, -6.24822524892767669491e-02) (263, 4.20457720202482287952e-02) (264, 9.15801330822840209400e-02) (265, -4.95472072463404925036e-02) (266, -2.25601113433794887853e-02) (267, -1.03322361516543836935e-01) (268, -3.70986760292097150771e-02) (269, -4.87428832011392795809e-02) (270, -4.38917377129160179994e-02) (271, -3.72482295694225098992e-02) (272, -7.19121616536045060730e-02) (273, 1.34836712786216318671e-02) (274, -6.74020998871502491356e-02) (275, -9.20435092661022469240e-02) (276, -7.81653355380880487946e-02) (277, 3.38624132853066611704e-02) (278, 7.81804351785599094260e-02) (279, -1.00212355183192713959e-01) (280, 5.89964557170004951642e-03) (281, -8.20289836906689245888e-02) (282, 3.81329296082996080375e-02) (283, -4.03428910803319967782e-02) (284, -2.72188145973588195570e-03) (285, 1.06938327375752179060e-01) (286, -9.79823683748549945083e-02) (287, -1.90153902102156908450e-03) (288, -5.37914927420799146573e-02) (289, -1.77570330492254763177e-02) (290, 6.92612037676806346909e-02) (291, -8.25627719669519283263e-02) (292, 3.89121139304990371066e-02) (293, -7.60426790887192421975e-02) (294, 8.44986445197637298099e-02) (295, 2.55327146031885422739e-02) (296, -1.75608909071443067273e-02) (297, -4.12098252287396923932e-02) (298, 5.15289725011669197396e-02) (299, 6.54465046205139622248e-02) (300, 1.06633749405894914797e-02) (301, -8.19321342467709406998e-02) (302, -5.79841740310791248225e-02) (303, 6.65664648101803729796e-02) (304, 5.23937337517914394902e-02) (305, 1.39534762270292107822e-02) (306, -1.08202454827334287879e-01) (307, -1.08398192824576550253e-01) (308, -2.33444638276403097776e-02) (309, 9.72483480428125435235e-02) (310, -8.35642299943671063023e-02) (311, 8.18409845232963562012e-02) (312, -8.29277092131284893073e-02) (313, 7.89004564352821652351e-02) (314, -4.63828562845886235855e-02) (315, 4.68910644802745992660e-03) (316, 6.15298179476557738354e-02) (317, -5.72032201161989592442e-02) (318, -6.49622945000029317075e-02) (319, -1.01249829129720830823e-01) (320, 3.26951066778540383462e-02) (321, -1.04312463870333771432e-01) (322, -5.11334684554491242237e-02) (323, -4.73156842104943894944e-02) (324, -7.93098107911725663799e-02) (325, -8.74396842083884628938e-02) (326, -7.96893888542475614667e-02) (327, -8.87936775976105700792e-03) (328, -6.55271021328851423909e-03) (329, 3.69280825648128016581e-02) (330, -3.48557635568060922293e-02) (331, -8.39826194839179140939e-02) (332, 8.62286744097759128014e-02) (333, 1.13870523367580328555e-02) (334, 8.23703527331660634303e-02) (335, 2.81212947282112601943e-02) (336, -7.39906770062306318181e-02) (337, 8.47024047866808404983e-02) (338, 5.54794843981386565090e-02) (339, -3.57388122424675755417e-02) (340, 1.06002483443526404616e-01) (341, 3.94704903133996573561e-02) (342, -3.39242405509553660026e-02) (343, 8.04634507025158429716e-02) (344, 7.33275461902176128870e-02) (345, 3.69926487039260159378e-03) (346, 2.32761030720244413428e-02) (347, -5.40395570908017326694e-03) (348, 8.70713586386368809666e-02) (349, 3.03868819744894207158e-02) (350, 4.24658987203688498280e-02) (351, 1.78670214639449730087e-02) (352, 5.99317327141761779785e-02) (353, 9.63914915919303894043e-02) (354, -1.28407616392125278892e-01) (0, 6.12881750953482365429e-02) (1, -9.33845591589683443612e-02) (2, -7.62706511856662966453e-02) (3, -3.57299072821732136007e-02) (4, 2.25383217343754702067e-02) (5, 1.32394331461490960544e-01) (6, 7.57720048478328772612e-02) (7, -2.09050525940179011963e-02) (8, 4.44433076683704714194e-02) (9, -5.16622655107662268059e-02) (10, 3.38592558942654650589e-02) (11, 2.56426378293329038094e-02) (12, 9.29041756909236744744e-03) (13, -1.48461586321161249924e-02) (14, -3.29371885268544897785e-02) (15, 1.15641683499970046589e-01) (16, 2.65134327091529715600e-03) (17, -8.34600929088898380037e-02) (18, -7.25482751677058168571e-02) (19, -5.90304098261361515076e-02) (20, 8.04820099512810332998e-02) (21, 6.73150082158884260214e-03) (22, -1.56737060041401282673e-01) (23, -6.61581272529467301347e-02) (24, -3.65588523268333756566e-02) (25, -3.01786968857781293107e-02) (26, -4.30226332507451861287e-02) (27, -2.97657296496508620709e-02) (28, 7.90502549902420172112e-03) (29, -7.15050033902395326679e-02) (30, -6.21806696621742746589e-02) (31, -5.07448780941162358449e-03) (32, -8.33677779054711742823e-02) (33, -6.63223695180808342498e-02) (34, 2.90878995390848778257e-02) (35, 3.50111698453451193960e-03) (36, -8.47634729378648199560e-02) (37, -2.13172527720773908114e-03) (38, -6.31808347666693720379e-02) (39, -1.14467335500869710208e-01) (40, -9.61926553137870954391e-02) (41, -9.52350801409755365334e-02) (42, 9.63802707545757635088e-03) (43, -1.81021405677335919804e-02) (44, 2.62365610950607078267e-02) (45, 6.79006563436686944035e-02) (46, -2.44841915171022071751e-02) (47, -1.46060126019819297438e-01) (48, -1.37911923862898633253e-01) (49, -3.91825097300783145582e-02) (50, -5.24804827774050935973e-02) (51, -1.72058894716286908677e-01) (52, -2.44359584951043470880e-02) (53, -4.10994366108121608749e-02) (54, -1.74029096163561165789e-02) (55, -1.68346799396776908297e-01) (56, -6.83908342416946757325e-02) (57, 5.47192368157939715290e-03) (58, 1.55267600791582846553e-02) (59, 7.28060403453402171792e-02) (60, 1.07666027093540506154e-01) (61, 6.97301838692140490972e-02) (62, -3.78718784266061231358e-02) (63, -4.60537321337168015223e-02) (64, -6.48982627489224223050e-02) (65, -3.42665814604159388312e-02) (66, -7.33942164448609518645e-02) (67, 1.20849310078248364103e-02) (68, -8.87914771863218404979e-02) (69, 1.37478256103393189913e-02) (70, 2.67646681392950634704e-02) (71, -8.18135838859949948709e-02) (72, 3.87145987815321404590e-02) (73, -2.79998612239989314032e-03) (74, 9.38775196116486410070e-02) (75, -2.80381378628728854252e-02) (76, 1.80500928302869435849e-02) (77, -3.10094614546695644675e-02) (78, 4.21995927043719021299e-02) (79, 3.04757867055111368593e-02) (80, -5.27479015075741700103e-02) (81, 8.00443055112038531762e-02) (82, 8.46391907819851220529e-03) (83, 4.64404035920629801315e-02) (84, 1.23148995249043862604e-02) (85, -5.50042816747243062947e-02) (86, 7.71407111269036410706e-02) (87, 3.78990552718698192614e-02) (88, 6.80106588624189850600e-02) (89, 1.06607259555222266822e-02) (90, 6.70647208885768869591e-02) (91, 1.05791691543703658684e-01) (92, -7.01795210208930493601e-03) (93, -5.92387172357040567294e-02) (94, -6.06490712210758856071e-02) (95, 4.43608702853636946428e-02) (96, 2.88616642355918884277e-02) (97, -5.00031880260546762740e-02) (98, -1.37283791041175416009e-02) (99, 7.90623848240502857809e-02) (100, 7.83271943132651249364e-02) (101, -2.10401063805955440555e-02) (102, -8.70954146945578100425e-02) (103, 1.47076486622935258264e-02) (104, 9.78317094206712506432e-02) (105, -7.21658098751377791169e-02) (106, -7.21958934076410707714e-02) (107, -2.82979673246720846158e-02) (108, -1.50065436090224060828e-02) (109, 1.11463640814724626420e-03) (110, 8.92639105863091697479e-02) (111, 7.75426085256565589265e-02) (112, 1.66149090021800692474e-02) (113, 2.77506296697666472728e-02) (114, 2.32212532900473271613e-02) (115, -5.55934458787460603069e-02) (116, 7.00394809802480783345e-02) (117, 1.13070011138916015625e-04) (118, -8.68325834053960826653e-02) (119, 2.49747864364534173653e-02) (120, 8.61226023292302189649e-02) (121, 4.04650471373255785079e-02) (122, 3.75099216426886816755e-02) (123, -2.30956340965044401581e-02) (124, -7.26720604407667253311e-02) (125, 4.83468082661655182419e-02) (126, -6.57431506446455871107e-02) (127, 3.83027782349325343625e-02) (128, 7.64806548364870553147e-02) (129, 7.47381888727878529455e-03) (130, -1.89387147143894075951e-02) (131, 9.25301894848818834438e-02) (132, 4.05284438026857624093e-02) (133, 4.10930999896966867024e-02) (134, 2.58682275112806225881e-02) (135, -2.39838948646278098467e-03) (136, 9.35570891461447867732e-02) (137, 8.89066374627678485121e-02) (138, 8.39005187153816223145e-02) (139, 1.38532501912746932454e-02) (140, -1.48751335133762889809e-03) (141, 8.26334919351688623745e-02) (142, -4.90843159398483275258e-02) (143, -9.35184455689970356440e-02) (144, -9.25838991863902759268e-04) (145, 5.12240076569382279947e-02) (146, -5.88882014156149810602e-02) (147, -4.59582694247492526407e-02) (148, -3.70466474197923625877e-02) (149, -7.32599171985999914058e-02) (150, 6.82085771772752424980e-02) (151, -1.89474703576384961856e-02) (152, -6.87889731403416720967e-02) (153, -2.19034204875965948789e-02) (154, 6.61312033510703528583e-02) (155, -2.68798766331091211479e-02) (156, -7.11899737445422092774e-02) (157, 8.72708389607633056029e-02) (158, 1.10386916048516164901e-01) (159, -7.59085491299629211426e-02) (160, -7.27676984653520403379e-02) (161, 8.99623806966805689145e-02) (162, -9.34708169710180836187e-02) (163, 2.29144687230823269897e-02) (164, -4.34085374889606745441e-02) (165, -4.44026094604310084257e-02) (166, 6.44255404402054587809e-02) (167, -4.26004497747281621334e-02) (168, 4.40703284949888682287e-02) (169, 3.09399832297036041229e-02) (170, -9.34059015944355315597e-03) (171, 4.48853226275227612518e-02) (172, 3.75007677469883782262e-02) (173, 1.07166477963702308496e-01) (174, 7.92597705475962810429e-02) (175, -7.34955866174201860597e-02) (176, 4.45880262389872356055e-02) (177, -9.42831230642082566973e-03) (178, 6.71979877157624083672e-02) (179, -1.04058906600985198732e-01) (180, 8.93414020538330078125e-04) (181, -3.67971060832846946775e-02) (182, 1.05294133453296967495e-02) (183, 1.38804665034191268558e-02) (184, 7.83773189511984130773e-02) (185, -1.26173657138061463129e-02) (186, 8.42961775693965437162e-02) (187, -1.12730989244635537716e-01) (188, 4.41457819289055048567e-03) (189, 7.37880804620921898485e-02) (190, -5.16542834913728682311e-02) (191, 7.26917960934055223943e-02) (192, -1.80431359413210506970e-02) (193, -3.79463201245912595816e-02) (194, -4.52233030006834457737e-02) (195, 4.72857092751876387227e-02) (196, 1.11738859194474834946e-01) (197, -3.68569227989011399815e-02) (198, 7.99840461847306921639e-02) (199, -2.84528123833075741178e-02) (200, -1.15537620664234841339e-01) (201, -3.39097529649734497070e-03) (202, -4.00632280860022602087e-02) (203, 2.88040827265779592059e-02) (204, -3.56942251037779684220e-02) (205, -6.66888125641350720807e-02) (206, 1.05911024214579138625e-01) (207, -1.32687548250028011093e-02) (208, -2.85700673478468218647e-02) (209, 1.09828081371058025595e-02) (210, 3.85064587530227833700e-02) (211, 6.36851181672739297124e-02) (212, 6.07811766435492478733e-02) (213, -4.68560116812996932389e-02) (214, 1.57071303906044582033e-02) (215, 6.21397405476335346064e-02) (216, 5.15465201734830805180e-02) (217, 1.03292760153949007146e-02) (218, 8.43635466014470009055e-02) (219, -4.56884011541536169676e-02) (220, -1.22673752579175922989e-02) (221, -7.46825575646847816813e-02) (222, -4.86308336257934570312e-02) (223, 6.44382227178059707740e-02) (224, -3.00712160179788488834e-02) (225, 2.27989382270718937695e-02) (226, -2.80973102001734267863e-02) (227, -2.10567310491506162751e-02) (228, 2.74929295643683221928e-02) (229, -5.32550651877644054544e-02) (230, 6.28271458604752475186e-02) (231, 8.51390237164545010673e-02) (232, 8.57565294930768273751e-02) (233, 4.78438257998004962124e-02) (234, -2.06892830554864896875e-02) (235, -3.18903974422072048964e-03) (236, -9.58142662202968453666e-02) (237, 3.65065578582894137427e-02) (238, 3.07936520896354738730e-02) (239, 5.36386013446846568464e-03) (240, -8.99514950861286244344e-02) (241, -3.74313994873931993324e-02) (242, -3.24008758613120312342e-02) (243, 9.40899107874414719621e-02) (244, 5.35337591917779825890e-02) (245, 8.93215220493533967883e-02) (246, 5.17968568855226435543e-02) (247, -4.93855756697465612948e-03) (248, 2.69454605945938904712e-04) (249, 3.73078686914754056869e-02) (250, 3.50319281472100882424e-02) (251, 7.30386783339547623894e-02) (252, 9.98249822992947344336e-02) (253, -1.13158139424389458938e-01) (254, 4.11115126257968824253e-02) (255, -6.61118382921049851930e-02) (256, 5.23844970040587831761e-02) (257, -7.13844509263564797052e-02) (258, -5.12436447509486293211e-03) (259, -2.47383294182941908257e-02) (260, 2.15898423914444512195e-02) (261, -8.98851247608289938285e-02) (262, -2.62063050423418757162e-02) (263, -6.95344304214657107921e-03) (264, -9.63863426622129926269e-02) (265, 5.44137424845592479472e-02) (266, 7.27107663087907529764e-02) (267, -1.05750984162700539803e-01) (268, -5.14725808600169920659e-02) (269, 5.10785194599899707718e-03) (270, -2.78698573598650043825e-04) (271, -5.21505991226662302118e-02) (272, 6.56064986819568374266e-02) (273, -1.07346236044684101296e-01) (274, -3.32759027276530866546e-02) (275, -2.96676050646229455543e-02) (276, -1.35333796100279124541e-01) (277, -9.50933533159916827282e-02) (278, -1.29195639540861773042e-01) (279, -4.07432714088121830653e-02) (280, 8.30094565301625481046e-02) (281, 1.23213440888820496832e-01) (282, -4.75297601252084936374e-02) (283, 5.19374207436069448840e-02) (284, 5.96975050973839391211e-02) (285, 7.57924382795535228619e-02) (286, -1.08145145573710591003e-01) (287, 4.84499677589461941185e-02) (288, -6.17137263336137026348e-02) (289, 1.07039861707529992962e-01) (290, 1.03991776730483348468e-01) (291, 7.64779563358140151985e-02) (292, 4.40723940102104722039e-02) (293, -3.83608864106368130376e-02) (294, 2.36666856314582084442e-02) (295, 3.52336999495082778266e-02) (296, 7.98175055095460550536e-02) (297, -5.14617495848424255644e-02) (298, 9.31461206714473965995e-02) (299, -1.58221296714854409160e-02) (300, 2.79588460574004037465e-03) (301, -2.31602090319811687591e-02) (302, 5.58085844710978565275e-02) (303, 1.70420099075430687974e-02) (304, -1.25205361668006553977e-02) (305, 1.37929414414580606141e-02) (306, -1.04563795670430670359e-01) (307, -6.02023144433724427538e-02) (308, 7.79720527832617749109e-02) (309, -7.14937740792799675260e-02) (310, -1.47695654312187507617e-01) (311, 1.78343802690505981445e-02) (312, -4.98678182522294052847e-02) (313, -6.35976279025786267463e-02) (314, -4.50131769288057183298e-03) (315, 9.95660179233995301651e-02) (316, 6.33285207686656338721e-03) (317, -3.92781205689730836261e-02) (318, 7.35385912146486742103e-02) (319, -1.46702092355456160250e-02) (320, -7.84573184955998509382e-02) (321, -9.23159506318832825955e-03) (322, 3.49531484190428315406e-02) (323, 2.86292674887365442005e-02) (324, 3.57902616092330982944e-02) (325, -4.60425891798205630390e-02) (326, 5.57447845501706368276e-02) (327, -1.34018459760745587556e-02) (328, -2.94448777289801812834e-03) (329, -2.20212390206622303512e-02) (330, 8.93910833134194116045e-02) (331, -1.04755853375366525526e-01) (332, 7.10944728276093479424e-02) (333, 6.99462084623233282255e-02) (334, 6.38814291573825548953e-02) (335, -3.75699811600877370266e-02) (336, -4.88560692524820719407e-02) (337, 1.16930101105927650162e-01) (338, 1.07262463448241820996e-01) (339, 2.59294930660892812557e-02) (340, 1.70331137390857881297e-02) (341, 8.06051616825069136563e-03) (342, -1.06206813605829383795e-02) (343, -1.25187098518269618319e-01) (344, 1.30323450068583323452e-02) (345, 1.09633295510116902244e-02) (346, -6.55340535668523516133e-02) (347, -4.18287578311996987440e-03) (348, -4.14092658685415240805e-02) (349, -4.36271600577284660027e-03) (350, -6.62542635737630065951e-03) (351, -6.03731903475562964312e-02) (352, -8.19026008248329162598e-02) (353, -8.28933268785476684570e-02) (354, -1.33383027732950409927e-01) (0, 1.97312742379392974668e-01) (1, 1.38813313193366233422e-02) (2, -4.03846124396298397641e-02) (3, 1.24721308790776017061e-01) (4, -9.62554767343981598771e-02) (5, -2.83072712463100895075e-01) (6, -1.71197529588218932961e-01) (7, 3.87834207852137735628e-01) (8, 2.10955965659282151936e-01) (9, 2.03112058793303407178e-01) (10, -1.74918814322466475986e-01) (11, -1.73993787338115574181e-01) (12, -2.01532345811715668527e-01) (13, 5.69720154305980858167e-02) (14, -3.34909990556763806357e-02) (15, -2.56201584152115136028e-01) (16, -1.65785924116529231886e-01) (17, 8.46056405480521550588e-02) (18, -3.37553675823812626700e-02) (19, 2.69112395633975098885e-01) (20, 6.86199580876482584380e-02) (21, -2.67961699187355580076e-02) (22, 1.26009809496751612468e-01) (23, 2.61887785532812833456e-01) (24, 5.78575360870345667408e-01) (25, 4.68455552645302364390e-01) (26, 2.22216970509318961779e-01) (27, 3.70304035758486638219e-02) (28, -4.50539764565746139735e-02) (29, 1.62441389875917385766e-01) (30, 9.97448253758187880491e-02) (31, -1.69536915424087220039e-01) (32, -3.60448152540831512347e-02) (33, 9.03078598933280546346e-02) (34, 8.32786313947660727930e-02) (35, 2.12888057477792408401e-01) (36, 2.60370225662803489453e-01) (37, -2.98703888245081296271e-02) (38, -1.66179489858926471291e-01) (39, 4.36020819073603266292e-02) (40, 2.23448138333674911626e-02) (41, 2.50304966373463666507e-01) (42, 2.27238708719498888611e-01) (43, 1.29630230472832841393e-01) (44, -3.94890899943459550148e-01) (45, -4.96134513750584663083e-02) (46, -1.26702897356401555928e-01) (47, 2.92218573935911600514e-02) (48, -1.23776507216913481124e-01) (49, -1.51076759676228872947e-02) (50, 1.71919934707468052837e-02) (51, -6.08828405107171358179e-02) (52, 1.00826937588817354408e-02) (53, 2.37526771642587418432e-02) (54, -7.90594313287956707015e-02) (55, 4.19082263054577131012e-01) (56, 8.43687008350053890826e-02) (57, -5.25538669973872538121e-02) (58, -1.20317113811588161099e-01) (59, -2.57641174485297386187e-01) (60, -5.61133374427252723526e-02) (61, -6.49306231815395800550e-03) (62, -3.16861899812493130746e-01) (63, -5.10863574337113088286e-02) (64, 1.48327282237785910285e-02) (65, -9.49604188620158384815e-02) (66, -1.28485126138564692555e-01) (67, -1.16098637532373219483e-01) (68, 1.07462410752165782313e-01) (69, -1.52768721874158075469e-01) (70, -1.26115748270090560768e-01) (71, -8.85745297422416977273e-02) (72, -5.40172672960633187128e-03) (73, 2.51458058190447177049e-02) (74, 1.75962855095391917937e-02) (75, -4.49503994548525118158e-02) (76, 2.41888399565671541325e-01) (77, 1.84433720101607745434e-01) (78, -8.46903695998405953160e-02) (79, -9.23238303314547342771e-02) (80, -8.48118416729978646940e-02) (81, 7.99619697726067640842e-02) (82, -5.15281250915827493397e-02) (83, -2.47303376507950922747e-01) (84, -1.12824954208230354702e-01) (85, 2.29641786690486376932e-02) (86, -1.35360660808904825769e-01) (87, 4.04636735969962288428e-02) (88, -5.44790708055513037134e-02) (89, -3.74371473115189614430e-05) (90, -1.77890513680348839876e-02) (91, -1.89631641653109292434e-02) (92, 1.01986072210075370825e-02) (93, 8.76964197005450918354e-02) (94, -2.07521390529272015124e-01) (95, -1.35699882724209491824e-01) (96, 8.48561897873878479004e-02) (97, 5.04997066269584904408e-02) (98, 1.00030518774453347497e-01) (99, -1.30813603466163164146e-01) (100, -7.28185732013108405480e-02) (101, -1.97401684886930224583e-02) (102, 6.15932192903604694423e-02) (103, 2.19650836965119500288e-01) (104, 6.05169768461686352623e-02) (105, -5.04539302336602657473e-02) (106, -2.66092061771747954990e-02) (107, 1.19718243945527894057e-01) (108, 9.49687632879287896293e-02) (109, 8.68201480497495792221e-02) (110, -1.95777282028880811326e-01) (111, -1.89046634980289729455e-01) (112, -8.07225407724495996886e-02) (113, 4.39890395231428352196e-02) (114, 7.47261288483741237254e-02) (115, -3.20865845357392459603e-02) (116, -5.25252289106695330334e-02) (117, -4.69691269099712371826e-02) (118, -6.52553688094214129345e-02) (119, 6.78006529613136565970e-02) (120, 1.15315204093947853980e-01) (121, 2.02918144690214352632e-01) (122, -5.10221012064567599337e-03) (123, 5.15582290005310306391e-02) (124, 5.81857821319830582907e-03) (125, -2.65664782306387001198e-02) (126, -5.66414595057112210674e-02) (127, -1.42736658694390561308e-01) (128, 1.47727133667211518731e-01) (129, 8.52324635004249181458e-02) (130, 1.92976852685881432314e-02) (131, -4.10093086859077554651e-02) (132, 3.09931847183895145537e-02) (133, -1.13288440770993897866e-01) (134, 1.73048690569897051228e-01) (135, 1.38636420196364434920e-01) (136, 8.52917222417030364279e-03) (137, -3.64100568343961872309e-02) (138, -5.97659051418304443359e-02) (139, -4.57089350722673440353e-02) (140, -6.86709046965430780496e-03) (141, -6.33439236010299860924e-02) (142, 7.37956850807233721845e-02) (143, 1.61747640773133427973e-04) (144, 9.82634228591721253787e-02) (145, -1.13315460063560281834e-02) (146, -2.17800588171936176929e-01) (147, 2.31991834480172395838e-02) (148, -1.89314137200038534736e-01) (149, 8.87319185792006526192e-02) (150, 2.00833208521891098952e-01) (151, -8.32658753480952917858e-02) (152, 7.57235250494065342819e-02) (153, 1.70577087346540479107e-01) (154, -1.01020778636088534586e-01) (155, -8.27156200801486135576e-02) (156, 7.65301664484332178073e-02) (157, 3.16002990398448757592e-02) (158, -2.35768824560539207169e-02) (159, 9.59462001919746398926e-02) (160, 3.06161981532651131244e-02) (161, -4.31456146942342799733e-01) (162, 4.47514966244085682368e-02) (163, -1.03723403842374356509e-01) (164, -1.19837067764523783064e-01) (165, 3.64561072030515020970e-01) (166, -3.85786053438975720664e-02) (167, -2.45228908747466105289e-02) (168, -2.61122238414270013696e-01) (169, 1.92927864492008632746e-01) (170, 3.97858515427802039710e-01) (171, 2.13188860659527940067e-03) (172, 4.10026723357294203831e-02) (173, -1.28866719911847504854e-01) (174, 1.46132804747279798629e-01) (175, 6.78195884930671843982e-02) (176, 1.95818493704000090583e-01) (177, -3.12558669791700716178e-01) (178, -1.48717801371855973258e-01) (179, 5.22319953107007961535e-01) (180, -2.07086503505706787109e-02) (181, -1.04803799181861834189e-01) (182, 9.43628810571167098153e-02) (183, -1.14622658096976387521e-01) (184, 2.38036997782990283890e-01) (185, 3.05378484220250982772e-02) (186, -8.33679727227803479828e-02) (187, 1.43089312793739958929e-01) (188, 1.90396574740720192498e-01) (189, 1.09325483161897815676e-01) (190, 6.10502359677622188916e-02) (191, -6.13527672807083618300e-02) (192, 1.15652446848689929859e-01) (193, -1.20613104737468168626e-01) (194, -1.27631076052422409717e-01) (195, 1.10796201376522681498e-02) (196, -2.46828916769260664488e-01) (197, -7.52282482113508788046e-02) (198, -2.45750710677321640429e-02) (199, 4.89425649262783882265e-02) (200, 2.22651901288804715540e-01) (201, -3.08163166046142578125e-02) (202, -9.98996939571058228946e-02) (203, -3.59349222349490890482e-02) (204, -2.61432476983592503028e-02) (205, 2.45238436932209508123e-01) (206, 4.77202007467479871750e-02) (207, 1.43126033746022451876e-01) (208, 2.07319941562321419237e-02) (209, -1.68448522090995339573e-01) (210, -5.58652574218413411344e-02) (211, 1.37170264432411814770e-01) (212, 8.64370168570431363086e-02) (213, 1.00291716656854060230e-01) (214, 8.26446942894657615719e-02) (215, -4.77438116453096431102e-02) (216, -5.80147518747887933066e-02) (217, -2.03830598279176322674e-01) (218, -1.57285277766507303188e-01) (219, 2.97972669034764714446e-01) (220, -3.09382057076442340549e-01) (221, -3.16231273263723744460e-02) (222, 1.41484141349792480469e-02) (223, 1.71147035740979058804e-01) (224, 2.89677626761272871692e-02) (225, -1.74503595023250190899e-01) (226, -2.42873827511590895112e-02) (227, -1.87023252505122028477e-01) (228, 5.87991480675168903813e-02) (229, 1.28002148110372526713e-01) (230, -2.19844316766149433517e-01) (231, 1.20397323921592178109e-01) (232, 4.43371520068846641793e-02) (233, 6.29737150792824135204e-02) (234, 8.86609592682283953469e-02) (235, -4.63309349401535165019e-03) (236, 4.05806380205680633511e-02) (237, -4.83555861547728740857e-02) (238, -1.25123642817639602054e-01) (239, -1.34337831857734901764e-01) (240, 1.65967549586268470208e-01) (241, 2.01322901807242313210e-02) (242, 7.95493157475877787910e-02) (243, 4.01018344627573145034e-02) (244, -1.17616390786468683061e-01) (245, 1.46785340510588141472e-01) (246, -8.73648067958441576497e-02) (247, -1.53513379779422448612e-01) (248, 5.48190335574489442938e-02) (249, 7.74031587168505924579e-02) (250, 1.72467829522833210332e-01) (251, -2.26152016766918123603e-01) (252, -1.03884402805709513684e-01) (253, -5.81531501328244326832e-02) (254, 1.22688972892324082986e-01) (255, 1.32799274585683940719e-01) (256, -1.20764097616127510926e-01) (257, 5.05640755601544714115e-02) (258, 2.97501676107601725763e-02) (259, -1.60065205804628601927e-01) (260, 5.54356592062523693271e-03) (261, 2.15980467188270630619e-01) (262, -8.63185510376240083819e-02) (263, 7.56911909448495651143e-02) (264, 6.61391669456276865002e-02) (265, -3.15794372560113389969e-01) (266, -3.93168121982072349407e-01) (267, -5.79528978220675422550e-02) (268, -2.57260126770686603503e-01) (269, -2.17901010559602148486e-01) (270, -1.83893083443731369941e-01) (271, 3.52726009246277713571e-02) (272, -3.31029339919892251487e-01) (273, -2.00481722946696472309e-01) (274, -1.25550677064355409307e-01) (275, 6.57942628122080569453e-02) (276, -1.48384382992720303962e-01) (277, 1.33906288457590772617e-02) (278, -1.63328703798461399854e-01) (279, -1.43610217928165691953e-02) (280, -2.23691281072526060303e-01) (281, -1.74937069407177125946e-01) (282, -1.02055026515929542219e-01) (283, 1.37784452395649098522e-01) (284, 5.06987113050604704112e-02) (285, -8.01188272066323259324e-01) (286, 3.79084680613526580489e-03) (287, -2.93907361742388573145e-01) (288, 1.43731324998680482646e-02) (289, -5.51235242320308516106e-01) (290, -1.53729319304364314691e-01) (291, -2.72494460797454152168e-01) (292, -2.14394435633225272086e-01) (293, -8.84302259731610945659e-02) (294, -7.46640602613488912898e-02) (295, 1.84191495691895471692e-03) (296, -1.69056473587095995592e-01) (297, 2.16286489091412681418e-01) (298, -5.49109092130808315591e-02) (299, 1.97702898108015300005e-02) (300, 3.03108727075875994394e-01) (301, 2.61564082551465244830e-02) (302, 6.70003068173894572590e-02) (303, 1.06711396833362198722e-01) (304, 6.88614288219436820881e-02) (305, -1.98547922169396484637e-01) (306, 1.05958784256330901252e-01) (307, 1.26375929331049824400e-01) (308, -2.70635145928241005464e-01) (309, 4.92939771377187557766e-02) (310, 2.85696447371906914192e-01) (311, 8.25999677181243896484e-03) (312, -2.60511198384714037779e-01) (313, -1.79654438288890591635e-02) (314, -1.96228050416570098946e-01) (315, -1.70321542786076272902e-02) (316, -1.77220190715961678496e-01) (317, 2.89621551221747541849e-01) (318, -3.86296443885595031098e-01) (319, 3.72760194079422790825e-01) (320, -2.42362607184727490983e-01) (321, -6.83570051185973352748e-03) (322, 1.81934758762273447730e-02) (323, 1.36462917586453440916e-02) (324, -3.04176721007995753965e-01) (325, 1.90393184638250528851e-01) (326, -2.87236518917611427515e-01) (327, 2.03078881481660283859e-01) (328, -1.84865006844144669218e-01) (329, 6.65231381526045287278e-03) (330, -1.68796756877462594826e-01) (331, -4.75312902313950291777e-01) (332, -1.12764235461291398299e-01) (333, -3.63810609181005772950e-01) (334, -1.43102331173706992518e-01) (335, 1.65782713120414620933e-01) (336, -9.17987864380803847419e-02) (337, -2.69723169322949096749e-01) (338, -2.77177839351375132626e-01) (339, 2.40669853988360965547e-01) (340, -7.15559502306181371978e-01) (341, -1.03750144099732433123e-01) (342, -1.13086468168114281929e-01) (343, -5.38452799587845545859e-02) (344, -4.42351627393977153702e-01) (345, -1.39136396681242002771e-01) (346, -1.18084517583568221477e-01) (347, 8.37001168182605614909e-02) (348, 4.99597884950812032301e-02) (349, 2.20876231331321198903e-01) (350, -1.58087164878247976585e-01) (351, -2.03196461852837906292e-01) (352, -2.91875451803207397461e-02) (353, -1.19831338524818420410e-02) (354, -3.34432859162450413226e-02) (0, 3.63166945018057255035e-02) (1, 1.34165986516970703324e-01) (2, -8.61360568640955198694e-02) (3, 1.34745946423912604795e-01) (4, -6.08985642490653400483e-02) (5, -1.94008675588414586377e-01) (6, 1.17378795429818744145e-02) (7, 1.14369355329757130257e-01) (8, 1.03783229439478041911e-01) (9, 6.10120798491905168282e-03) (10, -1.26985086451757683834e-01) (11, -3.96872014568312725391e-02) (12, 4.96513447874840432861e-02) (13, 1.06283598436092599493e-01) (14, -1.30176683957450772811e-01) (15, -1.66662207638543641286e-01) (16, -1.09632582419272539553e-01) (17, -6.27529447062535328250e-02) (18, -2.94618019181582604937e-02) (19, 1.36858757804135838798e-01) (20, 3.33847904172470330564e-02) (21, -3.47008738871031827133e-02) (22, 3.62173092301715446317e-02) (23, 2.58218675825942836632e-02) (24, -2.61172429932301428113e-02) (25, 6.89394096942066714195e-02) (26, -1.23119307017500498325e-01) (27, -5.00361113544808971954e-02) (28, 1.00958535263442616969e-02) (29, -7.39811056386818488573e-02) (30, -3.62220451424663317241e-02) (31, -1.36883573995374513421e-01) (32, 9.81336785569110331418e-02) (33, 5.82889190378740786741e-03) (34, 1.25982462761519503625e-01) (35, -5.12368967722809445786e-02) (36, 7.74714362824053537349e-02) (37, 8.18677890171390504337e-02) (38, -7.99964284963918491334e-03) (39, 1.06846176874840774647e-03) (40, 3.50303692854745940544e-02) (41, -7.19451866059899608485e-03) (42, -1.71220145771455639627e-01) (43, 7.36370010660169355132e-02) (44, -1.25944259180965689726e-01) (45, -8.64340731614845758646e-02) (46, -9.06309187980171848675e-02) (47, 6.04103747669932911180e-02) (48, -7.17662842611447443497e-02) (49, 8.43897023064442558526e-02) (50, -3.48908086719765322958e-02) (51, 1.40511486663334905778e-01) (52, -1.47490271881394220677e-02) (53, 9.27679848388363037515e-02) (54, -3.74761754526985110814e-02) (55, -2.00327579467107254330e-03) (56, -3.22641635875599575023e-02) (57, 7.82497241397148574071e-02) (58, 8.24990553470967558081e-02) (59, 3.87000023201943404993e-02) (60, -5.31034696235257591690e-02) (61, -1.44074471806536041907e-01) (62, -6.47258486583590780805e-02) (63, -1.03727395430943294952e-01) (64, 2.44847723495677967176e-02) (65, 5.08780553114964936845e-02) (66, -1.17064356506557179505e-01) (67, -4.21475067949749482299e-02) (68, 9.90710011508854210271e-02) (69, -1.53007349278913573620e-02) (70, 5.97035764927675016711e-02) (71, 9.41242483802788854064e-02) (72, -9.06738410375550613063e-02) (73, -4.28966414084385253003e-03) (74, -4.30614112979807520110e-02) (75, -6.84398313759829873826e-02) (76, -9.77214118573002110679e-02) (77, 1.10606625288171334098e-01) (78, 4.05476938222765030673e-03) (79, -6.07064035430120232939e-02) (80, -3.43569183091343016700e-02) (81, -7.11574478670251586720e-02) (82, -2.57883152548771948931e-02) (83, -2.74610871295132147329e-02) (84, 8.57380531497272529995e-03) (85, 6.50149073517602010819e-02) (86, 4.89422916215993125677e-02) (87, 1.20758747729918139435e-01) (88, 4.47909463350487854760e-02) (89, -7.14361820211595888175e-02) (90, 2.62000220954368250037e-02) (91, 3.45453618977510715227e-02) (92, -5.69414003934387430439e-02) (93, 6.79494624545707859298e-02) (94, -1.21998739146387036314e-01) (95, 7.18839936424350151034e-02) (96, 5.94227239489555358887e-02) (97, -5.03096930489204050008e-02) (98, -7.70740867261481693573e-02) (99, -3.35410540237899568172e-02) (100, 3.71754911067864318719e-02) (101, -5.88365239700818810908e-03) (102, 2.74926385195541217454e-02) (103, 3.35408534065139082858e-02) (104, 1.75186177080892541147e-02) (105, -7.11175493197650498978e-02) (106, 8.22262522489111691293e-02) (107, 2.70388068865227253201e-02) (108, -1.39596555825601464570e-03) (109, 9.03676127519481009465e-02) (110, -8.99811882313825139867e-02) (111, -2.34974885830590944635e-02) (112, 1.07714621810197988538e-01) (113, 3.82411263949788277072e-02) (114, 5.53279493426333188189e-02) (115, -8.88006983852125501844e-03) (116, -1.01357294873725481410e-01) (117, -2.58334949612617492676e-02) (118, -7.15548155546019970519e-02) (119, 6.86630915635599026192e-02) (120, 8.17033817043948951131e-02) (121, -1.28110242232193655837e-02) (122, 1.14564029880718232235e-02) (123, -7.91629499084172821854e-02) (124, -1.53711981387587681702e-01) (125, 5.59999713537453688850e-02) (126, 8.55871458242601773625e-02) (127, 1.54391688816796157635e-01) (128, 1.00685587359841260957e-01) (129, -1.02765937589617536996e-01) (130, 2.41371873630737455996e-02) (131, -4.40941038961241912886e-02) (132, -4.58393405273250370557e-02) (133, 6.02380057761898596302e-02) (134, 1.49032494710621771228e-01) (135, 1.21665449794209970524e-01) (136, 3.26844263645671845309e-02) (137, 1.22502587478341661009e-02) (138, 5.41605874896049499512e-02) (139, -1.21872508902576878742e-01) (140, 2.04260986959844924316e-02) (141, 7.19328339595289439901e-02) (142, 6.92474804711119273914e-02) (143, 2.57658672128578819516e-02) (144, -3.64466546386020464471e-03) (145, 1.11345497944703997195e-02) (146, -9.05856945753713421743e-02) (147, 1.86278876087505734782e-02) (148, 9.19453089401353895749e-02) (149, 9.83850270729231812794e-02) (150, 3.65236916157803195859e-02) (151, 3.93475838937259059930e-03) (152, 1.16483798145916875311e-01) (153, -8.95596395617038326664e-03) (154, 5.55487613631512914744e-04) (155, -1.26495004574523461222e-02) (156, -8.24815652378013547397e-02) (157, 1.05402597082195001454e-02) (158, 7.46703425095108196119e-03) (159, 8.88435766100883483887e-02) (160, 2.68293860909394089875e-02) (161, -2.01957965574394271435e-01) (162, -3.81353807927145016521e-02) (163, -7.60160392976290955058e-02) (164, 1.12620476979112593696e-01) (165, 8.63126294261424703569e-02) (166, 9.23557536885865060228e-02) (167, 1.82196277170135895185e-02) (168, -1.49743851988285714416e-01) (169, 3.90458506534394622633e-02) (170, 9.19802189710948112089e-03) (171, 1.33909032554065443588e-01) (172, 8.45097784735753866127e-04) (173, 2.98568990243372536786e-02) (174, 4.35960111877027392535e-02) (175, 5.89428428720370212179e-02) (176, -8.09404539000414292860e-03) (177, -9.49587443563324473672e-02) (178, -7.85205320416015040141e-02) (179, 4.16805371231634760876e-02) (180, -7.66773968935012817383e-02) (181, 1.26979869073602563700e-01) (182, 2.49594888366757652887e-02) (183, 1.36513362556414330484e-01) (184, -7.31623021856192129464e-02) (185, -1.53537025837961541019e-02) (186, 9.24054004029941228326e-02) (187, -1.41511087241165036538e-02) (188, 1.12525436623497876974e-03) (189, -2.09706966833979949194e-02) (190, -6.25750223039466119124e-02) (191, 8.61966252179266062550e-02) (192, -4.38891479008183607591e-02) (193, -6.02640338153237562629e-03) (194, -2.10787910397672063889e-02) (195, -4.42768814159525680996e-02) (196, 2.51135043835344663743e-02) (197, -1.41381014658738840550e-01) (198, -4.29878553002760038781e-02) (199, -4.04718823572192964999e-02) (200, 4.87452336477930056602e-02) (201, -3.44003811478614807129e-02) (202, -1.01765011554385498282e-01) (203, 9.43208733319437081510e-02) (204, -6.31458637444798770444e-02) (205, 2.72883544918512202515e-02) (206, 7.57702326437040690754e-02) (207, -1.02000597404671364266e-01) (208, -6.65997549692567136770e-02) (209, -9.56841015754236606794e-02) (210, -9.56672840439504040821e-02) (211, 9.37523697286345158997e-03) (212, -3.12610653332438597971e-03) (213, 1.07926728156711865259e-01) (214, -7.99169947664193081049e-02) (215, -2.90241211752629811593e-02) (216, -5.66731119446926071004e-02) (217, 4.22238551989330274106e-02) (218, 5.37488615725209631369e-02) (219, -7.06668418192709091308e-02) (220, -6.72546741357330918332e-02) (221, 7.65842603153627926593e-02) (222, 4.59095612168312072754e-02) (223, 3.77332884697428525000e-02) (224, -4.19898648281540054494e-02) (225, -7.97935419620936503549e-02) (226, 1.21293909052460319176e-01) (227, -9.14526186298496579496e-02) (228, -4.50676034771118824707e-03) (229, -3.80645448014316351015e-02) (230, -6.71571109644021890794e-02) (231, 3.39762979760989333733e-02) (232, -9.35882315431151717844e-03) (233, 3.67143120245210577424e-02) (234, 1.46784601744209514118e-01) (235, -5.70653634711437221516e-02) (236, -4.73105853715805602100e-02) (237, -5.00029868615493519601e-03) (238, 5.91042782896961452210e-02) (239, -3.65251776225525431885e-02) (240, -5.51756366920569188417e-02) (241, -5.95261355060042116061e-02) (242, 1.52769983673345828568e-02) (243, -3.40034518312469918877e-02) (244, 5.17789438196698259542e-02) (245, 3.49386358647784320275e-02) (246, 5.46454940854630838443e-02) (247, 1.03101491621422597378e-01) (248, -1.85616740633329571630e-02) (249, -1.52424915657318714446e-02) (250, -5.56142418414290184980e-02) (251, 2.71138240843554097215e-02) (252, -1.27952193149839438258e-01) (253, 1.18243206865727867871e-01) (254, -3.06721480608716581817e-02) (255, -5.47684361112756659673e-02) (256, 4.24393161526909548642e-02) (257, -5.31559118532726262996e-02) (258, 9.63781376689484270415e-02) (259, -7.23751889778528334496e-02) (260, 2.40161774068755363987e-02) (261, -2.24671681015013030569e-02) (262, -1.14364276480397625280e-01) (263, -5.86069558397014633844e-02) (264, 5.22131020585070784734e-02) (265, -1.35035725196836625672e-01) (266, -5.62972862569662280130e-02) (267, 4.70237250198427339520e-02) (268, 3.93530641483977386419e-02) (269, -1.07260993533344020645e-01) (270, -1.22183518469853119592e-01) (271, 8.00317977969603050470e-02) (272, -1.07145492560135627280e-01) (273, -1.76392905456264417752e-02) (274, -6.44730576999006516070e-02) (275, -3.08198826644086182336e-02) (276, -4.38375602696975535943e-02) (277, 9.29631663497104548943e-02) (278, -5.52779977359850807628e-02) (279, 5.32322338513854936837e-02) (280, -1.25751874756127451915e-01) (281, -1.08576937732381265111e-01) (282, 9.29764900836535929107e-02) (283, 3.15575640762256054428e-02) (284, -3.15506942837359694032e-02) (285, -2.70465163768892846718e-01) (286, -2.40486187439633070095e-01) (287, -1.09765734060876501976e-01) (288, -8.61578820068120004860e-03) (289, -9.97099410873688168921e-02) (290, -6.55144414562130045221e-02) (291, 4.40330758188720444712e-02) (292, -9.99168680302582462582e-02) (293, -1.44094065411157785245e-02) (294, -2.83649964692678606404e-02) (295, 8.04332108059643002829e-02) (296, 4.59400871287649961716e-02) (297, -4.57951428184905431906e-02) (298, -3.77975715084383143139e-02) (299, -5.06600465772857125324e-02) (300, 1.14868262856358510637e-01) (301, 8.85796951487639872003e-02) (302, -4.70527595265957665482e-02) (303, -8.24689311248976847368e-02) (304, 1.50915614325546672964e-02) (305, -1.31825371574551236664e-01) (306, 6.50480917359388538523e-02) (307, 1.15519623713799660103e-01) (308, -1.58655983019117541311e-01) (309, 1.00501625177822809243e-01) (310, 5.24648807582674611694e-02) (311, 7.05128908157348632812e-03) (312, -1.86684301071569275221e-01) (313, -8.36495707818611655693e-02) (314, -1.15236607239859650820e-01) (315, -1.14351323774400409627e-01) (316, 2.59742448079441461128e-02) (317, -1.52510151598246768145e-01) (318, -1.73264995829638723812e-01) (319, 1.44712554355437700293e-01) (320, 8.15790081423971302765e-02) (321, -5.06114414885753954865e-02) (322, -1.36214528555899036522e-02) (323, 1.05697733501976559589e-01) (324, -1.14375079282890479426e-01) (325, -1.14302355890980811282e-01) (326, -7.13969308582413503261e-02) (327, -1.18035856529928151470e-01) (328, -8.74399684850680480874e-02) (329, -5.29326904495155889374e-02) (330, 7.31478867805641919109e-02) (331, -1.07838282933653731299e-01) (332, -6.31895350901901381446e-02) (333, -1.25126298455272733090e-01) (334, -3.86632786308660422736e-02) (335, -4.96032065414663894676e-02) (336, -7.45414219651189396965e-02) (337, -4.92037626714260378780e-02) (338, -1.31126030587357805812e-01) (339, 1.60327848372804587784e-01) (340, -2.38043820871874256540e-01) (341, -8.87983360715424441256e-02) (342, -1.17792576484618702337e-01) (343, 5.53467694472632651403e-02) (344, -2.55803012276806185366e-01) (345, -1.43350352203939712670e-01) (346, -9.97667664330030568021e-02) (347, 2.43549085333145592935e-01) (348, -5.85978478439211150630e-02) (349, 5.48243083818941850938e-02) (350, 1.88071346695008190242e-02) (351, -3.82322950195475783075e-02) (352, 6.46045878529548645020e-02) (353, -3.87754514813423156738e-02) (354, -6.68467524123236567224e-02) (0, 1.55159051031990707914e-01) (1, 3.55012419786731106552e-02) (2, 5.53527925435239043228e-02) (3, 8.23346648528297669900e-02) (4, 1.81607632931553505951e-02) (5, -2.49576660979146353059e-01) (6, -1.14932234457850265819e-01) (7, 2.96950980466541836211e-01) (8, 1.37027676529341418954e-01) (9, 1.03212922986935046188e-01) (10, -1.25467517413240553514e-01) (11, -8.90801586239671483458e-02) (12, 3.47077548830923496292e-02) (13, 2.31009437908786426086e-02) (14, 3.01605190507145126677e-02) (15, -1.37763179521060236121e-01) (16, -1.68031996010756135007e-01) (17, 1.21033862876163245126e-01) (18, 1.38649434863488435488e-01) (19, 2.58671774220597505689e-01) (20, -8.86381894709266510146e-02) (21, -7.47817407364519681767e-02) (22, 9.00384252523741823726e-02) (23, 2.84441134264942253884e-02) (24, -2.89416281474361471171e-02) (25, -3.16962715226422192538e-02) (26, -1.14609350227839953962e-01) (27, 3.56817266061418489342e-02) (28, -1.12696731650100273603e-01) (29, -1.35208918373145497993e-01) (30, -6.49574631184878792389e-02) (31, 4.75856255894618190849e-02) (32, 7.84969548482450790727e-02) (33, -6.77907495605443999320e-02) (34, 5.64552108515261608090e-02) (35, 4.71978818718905221430e-02) (36, 4.43263902642858781400e-02) (37, 6.18034946007024049708e-02) (38, 3.10635041256081545491e-02) (39, -3.99736156622887625622e-02) (40, -1.05076184683193296632e-01) (41, 5.51088342615272709646e-03) (42, -2.93858224312312371618e-02) (43, -1.31014848123872013064e-01) (44, -4.18827794312061282844e-02) (45, -2.04781457758306754263e-03) (46, 7.10109781221889974079e-02) (47, 1.39135834903793387252e-01) (48, 1.98735493144846335489e-02) (49, 1.80198204501294312330e-01) (50, 7.05737632323941571633e-02) (51, 8.70331827042513106463e-02) (52, -1.73834478889249272049e-01) (53, 1.12635854843810223613e-01) (54, 1.07203700423073172709e-02) (55, 1.73156110735085688734e-01) (56, -2.36005634517308764131e-02) (57, 1.12231442388419089262e-02) (58, 4.66440896609274027740e-02) (59, -7.87762237572260659579e-02) (60, -2.66273388910833810894e-02) (61, 2.60800692772412481824e-02) (62, -2.37713402372579825361e-02) (63, -8.63840262908688316656e-02) (64, 1.70422202340969108914e-01) (65, -4.39316584375611662860e-02) (66, -2.85158420965166518879e-02) (67, 1.45989652193304307592e-02) (68, -3.86138290582760251857e-02) (69, 4.66767080943136514204e-02) (70, 6.33936237917417239052e-02) (71, 2.75509411554444617887e-02) (72, -2.60569560398977127791e-02) (73, -6.39773071397500836532e-02) (74, -7.08674806533779594320e-02) (75, -6.36579401952565016032e-02) (76, -4.80900533878299493717e-02) (77, 3.49816924849190163949e-02) (78, -9.17922041868956817279e-02) (79, 5.50504617219685840612e-02) (80, -2.04890562754484958918e-02) (81, 4.76488194169472981110e-02) (82, 8.88600670251046415027e-02) (83, 1.21762152502774556595e-02) (84, -9.36643659946514717252e-02) (85, -2.63217891607935849940e-02) (86, 7.10128475687669437344e-03) (87, 7.07082604787639956712e-02) (88, 1.03124134767529643253e-01) (89, -6.93758343085160156249e-02) (90, -1.60527354139329840772e-03) (91, -3.46335609415022796509e-02) (92, -7.73065224976940967849e-02) (93, 5.32328587732414648670e-02) (94, -7.35452836333192264129e-03) (95, -4.38470851430696403894e-02) (96, -4.45729978382587432861e-02) (97, -5.03253856664305360136e-02) (98, 5.80402090065810366548e-02) (99, -3.75456228776644140854e-02) (100, -5.96744935953520128091e-02) (101, -7.45999886045728977102e-02) (102, 1.52832470392634117706e-01) (103, 1.26645539284897773458e-01) (104, -2.02134748902348254651e-01) (105, 6.20514092641497646413e-03) (106, -3.86004279168373765074e-02) (107, -5.98760393874959787053e-02) (108, 2.21444545111588939057e-02) (109, 9.54579904712971882841e-02) (110, -8.43682378318649263405e-03) (111, -4.34215452024612740684e-03) (112, -3.07087264088776908111e-02) (113, -4.43202085880689128361e-02) (114, -6.69933986082879712187e-02) (115, -4.02262877941527083325e-02) (116, -3.83138907485371452144e-02) (117, 7.18462690711021423340e-02) (118, 1.69021757766488062158e-02) (119, 3.41298032167928408476e-02) (120, -1.58823925110920770309e-02) (121, 4.42647381950466364819e-02) (122, -1.10470612847338708895e-01) (123, -2.11829365379498125999e-02) (124, -9.80777852112842685184e-02) (125, 5.38488540591414918679e-02) (126, -8.52272466671954607650e-04) (127, 6.32980132037251203014e-02) (128, -2.45678533433029908095e-02) (129, -1.08243150581464574189e-02) (130, 1.44879848812960371207e-01) (131, -3.92493651128983239706e-02) (132, -8.09630682957266922806e-02) (133, 5.49179553049570501333e-02) (134, -2.43628771019914862339e-02) (135, 9.74251080189437318468e-04) (136, -9.07690513824301464796e-02) (137, -9.45676680285535697923e-02) (138, 3.56558039784431457520e-02) (139, -1.53043461372712619878e-02) (140, -7.66327724821090072727e-02) (141, -1.26528348333945966919e-01) (142, -3.84508047908246400337e-02) (143, 2.39962067375558349425e-02) (144, -2.91369296549082966441e-02) (145, 1.63703603026121059794e-02) (146, 6.04639142111407651425e-02) (147, 5.68996662541600140006e-02) (148, -1.58796159256282252460e-03) (149, 1.11757080127543095838e-01) (150, 1.14097447200554543735e-03) (151, -5.88655545198506838234e-02) (152, -5.93594447213494566529e-02) (153, 6.73499545368000385182e-02) (154, 7.02317959400311636609e-02) (155, -8.57833353881383153805e-02) (156, -2.31503452287353771177e-02) (157, 2.35640131034699981671e-02) (158, 2.34832935493349825862e-02) (159, 2.28567942976951599121e-02) (160, 1.37640032387892324861e-01) (161, -1.20282288608985279965e-01) (162, -9.04792108693086988280e-02) (163, -2.72290490468433066251e-01) (164, 8.12738103306515358160e-02) (165, 1.39102450508394842599e-01) (166, 8.05785893026347670165e-03) (167, -1.30727465358383060368e-01) (168, -3.08950568165589252445e-02) (169, 1.09392366720952649572e-01) (170, 1.10517237188722569630e-01) (171, 1.25281628621034812898e-01) (172, -1.05576232235774877810e-01) (173, 3.01244174440052983610e-02) (174, -9.49523316020348291666e-03) (175, -1.19493337765022734215e-02) (176, -1.56342288034965921917e-02) (177, -2.04462585083559356125e-01) (178, -1.67453835408588824762e-01) (179, 9.02809471970644344951e-02) (180, 6.96965381503105163574e-02) (181, 8.41407615946867665224e-02) (182, 9.38658939499191630196e-02) (183, 1.43146310824711742171e-01) (184, -7.33913536316294357054e-02) (185, 1.01526946600823050892e-01) (186, -9.09297209593789602933e-03) (187, 3.60909878933131228473e-02) (188, -1.20267529603400313842e-01) (189, -6.03656505557672098949e-02) (190, -1.19848957689651189340e-01) (191, -2.67125886692541371359e-02) (192, 5.32067515607220486995e-02) (193, -1.30438190612032461901e-01) (194, -2.36199513919915643489e-02) (195, 7.90563150999684487175e-03) (196, -1.27566209641054945090e-01) (197, -5.44842030090519763297e-02) (198, 3.33884023012982495554e-03) (199, 1.28297486100691610078e-01) (200, 4.36507572762474815864e-02) (201, -3.36232334375381469727e-02) (202, 1.77189296743887163277e-02) (203, 1.26082610005502308154e-02) (204, -1.35168691439710823843e-02) (205, -3.57376253304325999793e-02) (206, 6.20131375688736247165e-02) (207, -1.22915993018385946711e-01) (208, -4.44887678625905461094e-02) (209, 6.28778580724973362726e-02) (210, -1.47260258085665750316e-02) (211, -2.27167147134330338343e-02) (212, 3.75934345398106078973e-02) (213, 2.03541488154496824636e-02) (214, -5.28110622072672855620e-02) (215, -3.37587227710885911039e-03) (216, 6.35029073852498831404e-03) (217, -5.79677482774326388593e-02) (218, 1.02426541321663136519e-01) (219, 2.98928850859735834034e-02) (220, -1.05266198090569616970e-03) (221, 6.65737646381113629124e-02) (222, 8.54745730757713317871e-02) (223, -5.48387623201415513874e-02) (224, 9.63618689296403263533e-02) (225, -6.84779014253430323711e-02) (226, -1.92595636428808981988e-02) (227, -8.33292341332259184350e-02) (228, 1.03477033946463597980e-01) (229, 1.15959293525725024021e-01) (230, -1.52040875874485087449e-01) (231, -1.18397410498716673666e-01) (232, -1.43288590970275048209e-01) (233, -1.36365211020402065517e-02) (234, 1.16156827163405446113e-01) (235, -1.52626534311896211449e-01) (236, -5.52884026366171066336e-02) (237, -5.87858006567328686409e-02) (238, -2.83686761915620290486e-02) (239, -1.23509038133186518915e-02) (240, 3.99683172935533410908e-03) (241, -5.52330096895550307079e-02) (242, 9.12946342239486507975e-02) (243, 7.02139872816423260549e-02) (244, -2.51447255352947873774e-02) (245, -9.65600350381987382331e-02) (246, -3.92516928875418016909e-02) (247, 6.06439085070411346146e-02) (248, -1.75845419307856464484e-03) (249, -5.63770887050586075318e-02) (250, 2.98905592545879901512e-02) (251, -1.23475507288945393625e-01) (252, -2.04770356818467114124e-01) (253, 3.66195125539825472316e-02) (254, 1.76348903380266416874e-02) (255, 7.93318741974963353991e-02) (256, -6.71588865024995845809e-02) (257, 3.77337312519810327838e-02) (258, -1.94938281124326338867e-02) (259, -5.13813763564914191551e-02) (260, -4.89533399880701450280e-02) (261, 2.84366863151965659773e-03) (262, -5.27830631233812755387e-02) (263, -2.46783531907617259549e-02) (264, -2.03149368458806281468e-02) (265, -1.15172686931657747289e-01) (266, -1.26742201158851292009e-01) (267, -1.04717469715801536623e-02) (268, 7.11061017306892969442e-03) (269, -6.98077258761665708775e-02) (270, -1.39864813401119419956e-01) (271, -8.22644735031661938907e-02) (272, -6.20413952166096599461e-02) (273, -1.17069856899054483557e-01) (274, 8.51036276247164741315e-02) (275, -2.65183031638201796576e-02) (276, -1.07086684114959390657e-01) (277, -5.25388156633544503582e-02) (278, -1.10731706600241147642e-01) (279, -6.30936276749112685824e-03) (280, -1.17728207623879921329e-01) (281, -1.05018671672538782547e-01) (282, 1.08786631500140895668e-01) (283, 8.64085533066988875639e-02) (284, 7.26945050940791537286e-02) (285, -4.60605762656682460321e-01) (286, -1.20309416517216688503e-01) (287, -3.88172445902262575057e-02) (288, 2.10925193872418981211e-01) (289, -1.80156927398770788651e-01) (290, 3.42781412894078429954e-02) (291, 1.17824686545787454817e-01) (292, 7.39296110349764723502e-02) (293, -8.67210928346058701477e-02) (294, -9.42802756043069484226e-02) (295, 6.25506186228144689387e-03) (296, 2.95676038263960432040e-02) (297, 3.78853733408496401447e-02) (298, -6.37661106335248310979e-04) (299, -2.41570414090989116218e-02) (300, 9.69709805041432670869e-02) (301, -7.12389786022299548174e-02) (302, 4.54304987045961797265e-02) (303, -4.45761756814564980012e-02) (304, -1.11864673969216885108e-02) (305, -1.23352077067343607331e-01) (306, 1.30295615839360445776e-01) (307, 7.43438184292145864962e-02) (308, -1.24830016798187948268e-01) (309, 1.27679956239679232022e-01) (310, -4.43458140160664232576e-02) (311, 9.43825319409370422363e-02) (312, -1.86720100986919518293e-01) (313, 3.65490582657209961415e-02) (314, -3.47853732396043932584e-02) (315, -1.05776200969303485477e-01) (316, 2.07529940100640679368e-02) (317, 3.20313976386134846575e-02) (318, -1.76031039368747060925e-01) (319, 7.31944269190311219697e-02) (320, -2.66437347383124056507e-03) (321, -9.78941047383070223065e-02) (322, 4.34904257869421061872e-03) (323, -1.81027376499214298633e-02) (324, -2.26895696022343150780e-03) (325, 7.67841665306627941395e-04) (326, -1.61527170168357020463e-01) (327, -9.46178247452340859258e-02) (328, -5.85186783285084055617e-02) (329, -4.72683089729305019877e-02) (330, 5.31025601094799095531e-03) (331, -6.06602859053934490019e-02) (332, 1.07106564212707585509e-02) (333, -1.53951133649851801266e-01) (334, 3.62513623280798225057e-02) (335, 2.47239081119560236144e-02) (336, -1.11537899001071555416e-01) (337, -1.08298681132666593796e-01) (338, -1.93011982756085109791e-01) (339, -6.68686970007340147903e-02) (340, -4.18301425288978290240e-01) (341, 1.16904943679235581722e-01) (342, -1.89145334673778475754e-01) (343, 7.19397660964978119535e-02) (344, -3.20869295068423154849e-01) (345, -4.05772408785709873258e-02) (346, -1.05148344568006590904e-01) (347, 1.68971802210001159628e-01) (348, -9.97502982536853793905e-02) (349, 7.40490956480344408863e-02) (350, -7.30059612455733336622e-02) (351, -8.02508818277915952910e-02) (352, 6.44601657986640930176e-02) (353, -8.88168290257453918457e-02) (354, 1.21013700622681647651e-02) (0, -1.91914178324824935551e-01) (1, 1.13924093390321539560e-02) (2, 2.06649971828707298971e-02) (3, -1.88856457971576019439e-01) (4, 1.79778911693780824033e-01) (5, 5.26886932014314024464e-01) (6, 4.89658573656669079965e-02) (7, -3.49695482425692150130e-01) (8, -2.19408747810153154090e-01) (9, -1.67071333352023010388e-01) (10, 2.09725520170238460826e-01) (11, 7.43879683566697341712e-02) (12, 1.92468771164227975268e-01) (13, -2.13187059472452117292e-01) (14, 1.38218333578063207190e-01) (15, 4.66166994130175538213e-01) (16, 2.17562243279957406861e-01) (17, -1.51893582366531942895e-01) (18, -4.97620391678965171001e-02) (19, -3.21761167673065395789e-01) (20, -6.94021562897103178047e-02) (21, 8.81917636986459946291e-02) (22, -2.91012984194915835801e-01) (23, -8.24858683905174916440e-01) (24, -8.05858180133844026471e-01) (25, -7.64624460952443851802e-01) (26, -1.61466421520354647123e-01) (27, 3.82143581389302489093e-01) (28, 3.24666674251495257497e-01) (29, 1.06317073501487488474e-01) (30, -9.16902743046351526024e-02) (31, 1.85551519139570769701e-01) (32, -6.21720780380246237917e-02) (33, 6.52730355740407594545e-03) (34, 1.44216976493490800504e-01) (35, -1.13386645105123626265e-01) (36, -1.13168265873947501698e-01) (37, -1.23268443756616608020e-01) (38, -2.55784102746056896116e-01) (39, -5.61978461494241701701e-02) (40, -2.56772746987984246125e-01) (41, 2.13568704687518928775e-01) (42, -3.77996614512507933537e-01) (43, -4.37766521432858768392e-01) (44, 3.22488001233239840460e-01) (45, 2.42949770465947262332e-01) (46, 2.47503804557314022183e-01) (47, -3.42589470263324723243e-03) (48, -3.40738053653806757803e-02) (49, 4.53174191583005578354e-02) (50, 1.23479235166099543530e-01) (51, 7.17342050749228965500e-02) (52, -1.32160771398735721327e-01) (53, 1.27539156073985360251e-01) (54, 9.83305266454344295557e-02) (55, -6.39072607126949909784e-01) (56, 1.50992506169297352470e-01) (57, 1.03562008374706818192e-01) (58, -4.28194155380420549140e-02) (59, 9.36497998920415991586e-02) (60, 2.98321440064262255465e-01) (61, 8.35701794897051458699e-02) (62, 1.25630126048734719335e-01) (63, 2.13707373075908896309e-01) (64, 3.56274799875109182690e-01) (65, 6.45062852475174336453e-02) (66, 1.25585034192804340103e-01) (67, 9.27434511712619535917e-02) (68, 5.76163339161819970657e-02) (69, -3.28798366454961174532e-02) (70, 1.60091736289321273645e-01) (71, 1.80908751370109283085e-01) (72, 2.16074451247369403450e-01) (73, 1.63682971388020126469e-01) (74, -1.36287346565678816473e-02) (75, 1.31671567734574251896e-01) (76, 2.14759508202870902371e-01) (77, -1.81906250018830401016e-01) (78, 2.23235005134469782773e-01) (79, 8.37836617815859302505e-02) (80, 2.76223427217650530086e-01) (81, -7.62063923541187737687e-02) (82, 4.51432462925421742334e-03) (83, 3.85862753131557878472e-01) (84, -4.43052586199369699549e-02) (85, -1.56647526082313331974e-01) (86, -3.71915719493935703621e-01) (87, -5.77808570228702175764e-02) (88, 1.87293274219234640032e-01) (89, 7.73769171863353533158e-02) (90, 1.28177695276210673603e-01) (91, 1.38584186737934610817e-02) (92, 3.11642879622409829654e-01) (93, -2.40302683943733691452e-01) (94, -1.64118726940613968157e-01) (95, 8.42106824363369615982e-02) (96, 6.03795051574707031250e-04) (97, -1.46155780247108929570e-01) (98, -1.44301838104354901438e-01) (99, 1.56344472354016633675e-01) (100, -1.85612769481836414887e-01) (101, 1.21863175111865743028e-01) (102, 1.33974089243385607872e-01) (103, -1.86854990601960119223e-01) (104, -6.09598515556424164208e-02) (105, 2.84692701976891789084e-02) (106, 1.28967585753773511525e-01) (107, -4.13854179768347318902e-02) (108, 2.83461096834186979110e-02) (109, -5.22740440697477964926e-02) (110, 3.92145783220562982319e-02) (111, 9.32436563742995300208e-02) (112, -9.82430563937149586851e-02) (113, 1.43015772607668512073e-01) (114, -1.86681611497643423769e-02) (115, 2.18040172660129150106e-01) (116, 2.72712738682251876199e-01) (117, 6.23620823025703430176e-02) (118, 2.92245648432356452950e-01) (119, 1.18390854659030375640e-01) (120, -7.25122224486601102411e-02) (121, -1.13893956153357248096e-01) (122, 2.57699206152940452075e-01) (123, 1.74376823493769178564e-01) (124, -3.82738521161270980886e-02) (125, -3.01275720834863203201e-02) (126, -1.59688677897606989831e-01) (127, 3.24649851763770924684e-01) (128, -5.02755930720045832172e-02) (129, -1.13736742695254560570e-03) (130, -4.84206003156182392816e-03) (131, -2.36581574808381704667e-02) (132, -5.51517597888831825892e-02) (133, -2.99877833120257807076e-02) (134, -8.87706528388556154185e-02) (135, -1.30658890703789526411e-01) (136, -1.72218536028596186371e-01) (137, 6.91720854643368271431e-02) (138, 1.11610144376754760742e-02) (139, -2.68420124454609269893e-02) (140, -2.35170796795189764386e-03) (141, -6.13802506772682943126e-02) (142, 1.98176142252380182301e-03) (143, 3.44485431672700570527e-02) (144, 1.26396830582557934131e-01) (145, -7.60708086016952111930e-02) (146, -1.58062089307209677203e-02) (147, -8.73862855056745380100e-02) (148, 1.62122067780502254752e-01) (149, -1.07305151194258801411e-02) (150, 9.81938537101103153804e-02) (151, 2.71022984993899915263e-02) (152, -2.57213329009358726562e-01) (153, -2.68847997457914544839e-01) (154, 2.03093149804477013376e-01) (155, 6.68688574695783244373e-02) (156, -1.31391141636939878801e-01) (157, 1.89521932571251328081e-01) (158, -5.99336070831336040210e-02) (159, -1.79671794176101684570e-02) (160, -5.95602668230161835794e-01) (161, 2.18973461571955879679e-01) (162, -2.13797928625101801847e-01) (163, 5.28709081433097582980e-01) (164, 3.74561749925604980938e-01) (165, -3.10823272982855780544e-01) (166, -1.00378301147766579859e-01) (167, 3.40876023004593298182e-01) (168, 2.42078094547412858706e-01) (169, -3.41045437326802869382e-01) (170, -3.19580555104829577839e-01) (171, -2.34314412102866222176e-02) (172, -3.68888972279650118047e-02) (173, -7.94087077744322078487e-02) (174, 1.69141856715282146162e-01) (175, -2.56440720509781283631e-01) (176, -6.76795805236891923062e-03) (177, 2.84385516969068941062e-01) (178, 5.93845876766769698030e-01) (179, -4.47343867880520773550e-01) (180, -9.42527875304222106934e-02) (181, 7.20819223763030231256e-02) (182, -4.57880480812911938582e-02) (183, 3.57583760827253419046e-02) (184, -2.76204604322825120200e-01) (185, 5.16221312088736665469e-03) (186, 1.62539217223152648861e-01) (187, -1.44613649396006016534e-01) (188, 3.78431251461311055073e-02) (189, -1.82663493772074553290e-01) (190, -6.17357608386965711622e-02) (191, -1.58484631088742999871e-01) (192, -1.32487013446784901438e-01) (193, 2.17392866657232813887e-01) (194, -1.09440300307198826180e-01) (195, -7.34811304761677636099e-02) (196, 1.68206868798317588087e-01) (197, 1.79494647820837599506e-01) (198, -7.06119615209850198800e-02) (199, 1.75065048782544641082e-01) (200, -1.13522276836675151124e-01) (201, 4.15183976292610168457e-02) (202, 1.39836971690860095707e-01) (203, 1.03910816167834041401e-01) (204, 9.39190838674835437594e-02) (205, -2.26606917426253690051e-01) (206, 2.97696855944507288161e-01) (207, 2.21126428227657378933e-01) (208, -3.27995566699152557577e-02) (209, 1.14612026161721156092e-01) (210, -1.29368062830405250452e-01) (211, -9.04627201970468752812e-02) (212, -1.48436857949998168849e-01) (213, 5.33687939063479527269e-02) (214, 1.35733194890517216979e-01) (215, -2.85954801024172922119e-01) (216, -2.12807665787152655579e-01) (217, 7.58249972955935686025e-02) (218, 7.90713298332408609514e-02) (219, 2.31307154069310405564e-02) (220, 3.31690762700182356637e-02) (221, -2.28802683839917225805e-02) (222, -9.73981320858001708984e-02) (223, 9.85121533677947303076e-02) (224, 1.04537876732129678126e-01) (225, 7.09562540624726362931e-03) (226, -1.91871708129393359066e-01) (227, 3.87443355796438015926e-01) (228, -1.85523409790133222974e-02) (229, -7.84071252126138790173e-02) (230, -1.75609780589619096647e-01) (231, -4.74154134538363608575e-02) (232, -1.84422106440464056432e-01) (233, 2.01048794319481916038e-01) (234, -1.45940764538087047741e-01) (235, 1.62909778019551754191e-01) (236, -2.13073511075256682989e-01) (237, -2.07516658046055568754e-01) (238, 1.32195933403312898546e-01) (239, -1.71800792837692589687e-01) (240, -1.37823184151180999635e-01) (241, 2.65234347223034794272e-01) (242, 6.49922492308217109036e-02) (243, 5.32672829929456762010e-03) (244, -8.60413591528032262179e-02) (245, -1.89242002287300842278e-01) (246, 4.94554482559489833049e-02) (247, -2.13176862830693730766e-01) (248, 7.17149948933410996688e-02) (249, -1.25908068097396769192e-01) (250, -1.63425459163476949342e-01) (251, 3.54026374206525551447e-02) (252, -6.10982579413341525543e-02) (253, 5.16800138089458099833e-02) (254, 1.44635728004178398809e-01) (255, -1.20889063122026879649e-01) (256, 7.65944077157776626041e-02) (257, -5.49709206584035325882e-02) (258, 1.48332273935893932393e-01) (259, -9.82669747400104348634e-02) (260, 7.85127780017126769563e-02) (261, -9.70044107276007983032e-02) (262, -9.74330286104320604512e-03) (263, 1.58576416841349709941e-01) (264, -9.93275811543461034647e-02) (265, 1.91195830376157421826e-01) (266, 2.99871316697778833582e-01) (267, 1.88060443020063278174e-01) (268, 7.24658050269189196735e-02) (269, 2.40729799814467237962e-01) (270, 4.44043013120205970479e-02) (271, 9.34395391402611519283e-02) (272, 5.22646611220960385924e-02) (273, 7.76365554613850372689e-02) (274, 3.20383352834360812800e-02) (275, 4.83793515281406918960e-02) (276, -1.68684124849839162108e-01) (277, -9.25766527047138312878e-03) (278, -5.56080877944203424978e-02) (279, 9.12100019001433337529e-02) (280, -9.75512539244269630268e-03) (281, 2.29291548555125207498e-01) (282, 4.33012728328983409476e-01) (283, 3.84031014754969146630e-02) (284, 4.59212856091026702665e-02) (285, 8.06396964173164310097e-01) (286, -3.21156795962667107602e-02) (287, 9.50899451915371146660e-02) (288, -1.21642755041159400520e-01) (289, 6.07683508740010536187e-01) (290, 1.68645596572804451485e-01) (291, 6.55743400908918583347e-01) (292, 1.21257557787429567919e-01) (293, -4.32343007044789784388e-02) (294, 1.23072142690790337083e-01) (295, -1.53156659320316385076e-01) (296, 2.82315599072800405001e-01) (297, -6.00105022079694960802e-02) (298, 1.31071628810052381864e-01) (299, 2.41461801054134783673e-01) (300, -7.08666204622815154579e-01) (301, -4.69381710305124211224e-01) (302, 1.22018033435308537182e-01) (303, -1.09314959779558920627e-01) (304, 2.42419080746726051112e-01) (305, 1.82563764764772346050e-01) (306, 1.31349655338941606608e-01) (307, -1.09559227572456174826e-01) (308, 3.98139397135414907503e-01) (309, -9.66240911853079309513e-02) (310, -4.69672544857556384379e-01) (311, 7.03841447830200195312e-03) (312, 2.72096066917838108612e-01) (313, -2.45209158181575015423e-01) (314, 1.30845055864107939758e-01) (315, 1.16998602319037747765e-01) (316, 1.09538172946917158890e-01) (317, 2.62640192230511382299e-01) (318, 4.53284739504392464315e-01) (319, 6.28566961505316740277e-02) (320, 1.99463788734594166252e-01) (321, 4.42451401945295641482e-01) (322, -3.78620389961200759510e-02) (323, 8.67022108912292865934e-02) (324, 1.37534222206197181970e-01) (325, -2.64295193116882931594e-01) (326, 2.76167769880251046111e-01) (327, 5.70528008237741121600e-02) (328, 2.49338588776107011880e-01) (329, 1.83222394215433737052e-01) (330, 1.03358464810267655642e-01) (331, 1.29313120206462295325e-01) (332, 5.72363990619571966212e-02) (333, -4.33027228512804285288e-01) (334, 1.87933894049125693737e-01) (335, 2.30410649887305939154e-02) (336, 1.99929339550728946140e-01) (337, -5.58012117661621856457e-03) (338, 2.90309068773476897096e-01) (339, -7.49933901244217299142e-02) (340, 7.67638638138560147617e-01) (341, 3.58180131408931012871e-01) (342, 2.21965004619000844110e-01) (343, 2.81077261480373208347e-01) (344, 5.83557629643725483959e-01) (345, 1.42952903239646489375e-01) (346, 1.85616763119499067480e-01) (347, -3.15755487239637033792e-01) (348, 6.81939823583279230990e-02) (349, 2.23178623388297026064e-01) (350, 2.18711613913521035757e-01) (351, -1.84654790879460212194e-01) (352, -2.48485058546066284180e-02) (353, -9.85854342579841613770e-02) (354, 1.38080760968894739049e-01) (0, 2.80553953061992537854e-02) (1, 3.14292142475332408891e-02) (2, 5.04374985272698223016e-02) (3, -1.97576952097293090382e-02) (4, -4.22903134160910118555e-02) (5, -1.83660929716461911176e-02) (6, -8.05199277385042627708e-02) (7, -9.46747518585899366927e-02) (8, 7.18313848472514893118e-02) (9, 1.33739434593233633142e-02) (10, 