FANN_FLO_2.1
num_layers=3
learning_rate=0.005000
connection_rate=1.000000
network_type=0
learning_momentum=0.100000
training_algorithm=0
train_error_function=0
train_stop_function=0
cascade_output_change_fraction=0.010000
quickprop_decay=-0.000100
quickprop_mu=1.750000
rprop_increase_factor=1.200000
rprop_decrease_factor=0.500000
rprop_delta_min=0.000000
rprop_delta_max=50.000000
rprop_delta_zero=0.100000
cascade_output_stagnation_epochs=12
cascade_candidate_change_fraction=0.010000
cascade_candidate_stagnation_epochs=12
cascade_max_out_epochs=150
cascade_max_cand_epochs=150
cascade_num_candidate_groups=2
bit_fail_limit=3.49999999999999977796e-01
cascade_candidate_limit=1.00000000000000000000e+03
cascade_weight_multiplier=4.00000000000000022204e-01
cascade_activation_functions_count=10
cascade_activation_functions=3 5 7 8 10 11 14 15 16 17 
cascade_activation_steepnesses_count=4
cascade_activation_steepnesses=2.50000000000000000000e-01 5.00000000000000000000e-01 7.50000000000000000000e-01 1.00000000000000000000e+00 
layer_sizes=370 51 3 
scale_included=0
neurons (num_inputs, activation_function, activation_steepness)=(0, 0, 0.00000000000000000000e+00) (0, 0, 0.00000000000000000000e+00) (0, 0, 0.00000000000000000000e+00) (0, 0, 0.00000000000000000000e+00) (0, 0, 0.00000000000000000000e+00) (0, 0, 0.00000000000000000000e+00) (0, 0, 0.00000000000000000000e+00) (0, 0, 0.00000000000000000000e+00) (0, 0, 0.00000000000000000000e+00) (0, 0, 0.00000000000000000000e+00) (0, 0, 0.00000000000000000000e+00) (0, 0, 0.00000000000000000000e+00) (0, 0, 0.00000000000000000000e+00) (0, 0, 0.00000000000000000000e+00) (0, 0, 0.00000000000000000000e+00) (0, 0, 0.00000000000000000000e+00) (0, 0, 0.00000000000000000000e+00) (0, 0, 0.00000000000000000000e+00) (0, 0, 0.00000000000000000000e+00) (0, 0, 0.00000000000000000000e+00) (0, 0, 0.00000000000000000000e+00) (0, 0, 0.00000000000000000000e+00) (0, 0, 0.00000000000000000000e+00) (0, 0, 0.00000000000000000000e+00) (0, 0, 0.00000000000000000000e+00) (0, 0, 0.00000000000000000000e+00) (0, 0, 0.00000000000000000000e+00) (0, 0, 0.00000000000000000000e+00) (0, 0, 0.00000000000000000000e+00) (0, 0, 0.00000000000000000000e+00) (0, 0, 0.00000000000000000000e+00) (0, 0, 0.00000000000000000000e+00) (0, 0, 0.00000000000000000000e+00) (0, 0, 0.00000000000000000000e+00) (0, 0, 0.00000000000000000000e+00) (0, 0, 0.00000000000000000000e+00) (0, 0, 0.00000000000000000000e+00) (0, 0, 0.00000000000000000000e+00) (0, 0, 0.00000000000000000000e+00) (0, 0, 0.00000000000000000000e+00) (0, 0, 0.00000000000000000000e+00) (0, 0, 0.00000000000000000000e+00) (0, 0, 0.00000000000000000000e+00) (0, 0, 0.00000000000000000000e+00) (0, 0, 0.00000000000000000000e+00) (0, 0, 0.00000000000000000000e+00) (0, 0, 0.00000000000000000000e+00) (0, 0, 0.00000000000000000000e+00) (0, 0, 0.00000000000000000000e+00) (0, 0, 0.00000000000000000000e+00) (0, 0, 0.00000000000000000000e+00) (0, 0, 0.00000000000000000000e+00) (0, 0, 0.00000000000000000000e+00) (0, 0, 0.00000000000000000000e+00) (0, 0, 0.00000000000000000000e+00) (0, 0, 0.00000000000000000000e+00) (0, 0, 0.00000000000000000000e+00) (0, 0, 0.00000000000000000000e+00) (0, 0, 0.00000000000000000000e+00) (0, 0, 0.00000000000000000000e+00) (0, 0, 0.00000000000000000000e+00) (0, 0, 0.00000000000000000000e+00) (0, 0, 0.00000000000000000000e+00) (0, 0, 0.00000000000000000000e+00) (0, 0, 0.00000000000000000000e+00) (0, 0, 0.00000000000000000000e+00) (0, 0, 0.00000000000000000000e+00) (0, 0, 0.00000000000000000000e+00) (0, 0, 0.00000000000000000000e+00) (0, 0, 0.00000000000000000000e+00) (0, 0, 0.00000000000000000000e+00) (0, 0, 0.00000000000000000000e+00) (0, 0, 0.00000000000000000000e+00) (0, 0, 0.00000000000000000000e+00) (0, 0, 0.00000000000000000000e+00) (0, 0, 0.00000000000000000000e+00) (0, 0, 0.00000000000000000000e+00) (0, 0, 0.00000000000000000000e+00) (0, 0, 0.00000000000000000000e+00) (0, 0, 0.00000000000000000000e+00) (0, 0, 0.00000000000000000000e+00) (0, 0, 0.00000000000000000000e+00) (0, 0, 0.00000000000000000000e+00) (0, 0, 0.00000000000000000000e+00) (0, 0, 0.00000000000000000000e+00) (0, 0, 0.00000000000000000000e+00) (0, 0, 0.00000000000000000000e+00) (0, 0, 0.00000000000000000000e+00) (0, 0, 0.00000000000000000000e+00) (0, 0, 0.00000000000000000000e+00) (0, 0, 0.00000000000000000000e+00) (0, 0, 0.00000000000000000000e+00) (0, 0, 0.00000000000000000000e+00) (0, 0, 0.00000000000000000000e+00) (0, 0, 0.00000000000000000000e+00) (0, 0, 0.00000000000000000000e+00) (0, 0, 0.00000000000000000000e+00) (0, 0, 0.00000000000000000000e+00) (0, 0, 0.00000000000000000000e+00) (0, 0, 0.00000000000000000000e+00) (0, 0, 0.00000000000000000000e+00) (0, 0, 0.00000000000000000000e+00) (0, 0, 0.00000000000000000000e+00) (0, 0, 0.00000000000000000000e+00) (0, 0, 0.00000000000000000000e+00) (0, 0, 0.00000000000000000000e+00) (0, 0, 0.00000000000000000000e+00) (0, 0, 0.00000000000000000000e+00) (0, 0, 0.00000000000000000000e+00) (0, 0, 0.00000000000000000000e+00) (0, 0, 0.00000000000000000000e+00) (0, 0, 0.00000000000000000000e+00) (0, 0, 0.00000000000000000000e+00) (0, 0, 0.00000000000000000000e+00) (0, 0, 0.00000000000000000000e+00) (0, 0, 0.00000000000000000000e+00) (0, 0, 0.00000000000000000000e+00) (0, 0, 0.00000000000000000000e+00) (0, 0, 0.00000000000000000000e+00) (0, 0, 0.00000000000000000000e+00) (0, 0, 0.00000000000000000000e+00) (0, 0, 0.00000000000000000000e+00) (0, 0, 0.00000000000000000000e+00) (0, 0, 0.00000000000000000000e+00) (0, 0, 0.00000000000000000000e+00) (0, 0, 0.00000000000000000000e+00) (0, 0, 0.00000000000000000000e+00) (0, 0, 0.00000000000000000000e+00) (0, 0, 0.00000000000000000000e+00) (0, 0, 0.00000000000000000000e+00) (0, 0, 0.00000000000000000000e+00) (0, 0, 0.00000000000000000000e+00) (0, 0, 0.00000000000000000000e+00) (0, 0, 0.00000000000000000000e+00) (0, 0, 0.00000000000000000000e+00) (0, 0, 0.00000000000000000000e+00) (0, 0, 0.00000000000000000000e+00) (0, 0, 0.00000000000000000000e+00) (0, 0, 0.00000000000000000000e+00) (0, 0, 0.00000000000000000000e+00) (0, 0, 0.00000000000000000000e+00) (0, 0, 0.00000000000000000000e+00) (0, 0, 0.00000000000000000000e+00) (0, 0, 0.00000000000000000000e+00) (0, 0, 0.00000000000000000000e+00) (0, 0, 0.00000000000000000000e+00) (0, 0, 0.00000000000000000000e+00) (0, 0, 0.00000000000000000000e+00) (0, 0, 0.00000000000000000000e+00) (0, 0, 0.00000000000000000000e+00) (0, 0, 0.00000000000000000000e+00) (0, 0, 0.00000000000000000000e+00) (0, 0, 0.00000000000000000000e+00) (0, 0, 0.00000000000000000000e+00) (0, 0, 0.00000000000000000000e+00) (0, 0, 0.00000000000000000000e+00) (0, 0, 0.00000000000000000000e+00) (0, 0, 0.00000000000000000000e+00) (0, 0, 0.00000000000000000000e+00) (0, 0, 0.00000000000000000000e+00) (0, 0, 0.00000000000000000000e+00) (0, 0, 0.00000000000000000000e+00) (0, 0, 0.00000000000000000000e+00) (0, 0, 0.00000000000000000000e+00) (0, 0, 0.00000000000000000000e+00) (0, 0, 0.00000000000000000000e+00) (0, 0, 0.00000000000000000000e+00) (0, 0, 0.00000000000000000000e+00) (0, 0, 0.00000000000000000000e+00) (0, 0, 0.00000000000000000000e+00) (0, 0, 0.00000000000000000000e+00) (0, 0, 0.00000000000000000000e+00) (0, 0, 0.00000000000000000000e+00) (0, 0, 0.00000000000000000000e+00) (0, 0, 0.00000000000000000000e+00) (0, 0, 0.00000000000000000000e+00) (0, 0, 0.00000000000000000000e+00) (0, 0, 0.00000000000000000000e+00) (0, 0, 0.00000000000000000000e+00) (0, 0, 0.00000000000000000000e+00) (0, 0, 0.00000000000000000000e+00) (0, 0, 0.00000000000000000000e+00) (0, 0, 0.00000000000000000000e+00) (0, 0, 0.00000000000000000000e+00) (0, 0, 0.00000000000000000000e+00) (0, 0, 0.00000000000000000000e+00) (0, 0, 0.00000000000000000000e+00) (0, 0, 0.00000000000000000000e+00) (0, 0, 0.00000000000000000000e+00) (0, 0, 0.00000000000000000000e+00) (0, 0, 0.00000000000000000000e+00) (0, 0, 0.00000000000000000000e+00) (0, 0, 0.00000000000000000000e+00) (0, 0, 0.00000000000000000000e+00) (0, 0, 0.00000000000000000000e+00) (0, 0, 0.00000000000000000000e+00) (0, 0, 0.00000000000000000000e+00) (0, 0, 0.00000000000000000000e+00) (0, 0, 0.00000000000000000000e+00) (0, 0, 0.00000000000000000000e+00) (0, 0, 0.00000000000000000000e+00) (0, 0, 0.00000000000000000000e+00) (0, 0, 0.00000000000000000000e+00) (0, 0, 0.00000000000000000000e+00) (0, 0, 0.00000000000000000000e+00) (0, 0, 0.00000000000000000000e+00) (0, 0, 0.00000000000000000000e+00) (0, 0, 0.00000000000000000000e+00) (0, 0, 0.00000000000000000000e+00) (0, 0, 0.00000000000000000000e+00) (0, 0, 0.00000000000000000000e+00) (0, 0, 0.00000000000000000000e+00) (0, 0, 0.00000000000000000000e+00) (0, 0, 0.00000000000000000000e+00) (0, 0, 0.00000000000000000000e+00) (0, 0, 0.00000000000000000000e+00) (0, 0, 0.00000000000000000000e+00) (0, 0, 0.00000000000000000000e+00) (0, 0, 0.00000000000000000000e+00) (0, 0, 0.00000000000000000000e+00) (0, 0, 0.00000000000000000000e+00) (0, 0, 0.00000000000000000000e+00) (0, 0, 0.00000000000000000000e+00) (0, 0, 0.00000000000000000000e+00) (0, 0, 0.00000000000000000000e+00) (0, 0, 0.00000000000000000000e+00) (0, 0, 0.00000000000000000000e+00) (0, 0, 0.00000000000000000000e+00) (0, 0, 0.00000000000000000000e+00) (0, 0, 0.00000000000000000000e+00) (0, 0, 0.00000000000000000000e+00) (0, 0, 0.00000000000000000000e+00) (0, 0, 0.00000000000000000000e+00) (0, 0, 0.00000000000000000000e+00) (0, 0, 0.00000000000000000000e+00) (0, 0, 0.00000000000000000000e+00) (0, 0, 0.00000000000000000000e+00) (0, 0, 0.00000000000000000000e+00) (0, 0, 0.00000000000000000000e+00) (0, 0, 0.00000000000000000000e+00) (0, 0, 0.00000000000000000000e+00) (0, 0, 0.00000000000000000000e+00) (0, 0, 0.00000000000000000000e+00) (0, 0, 0.00000000000000000000e+00) (0, 0, 0.00000000000000000000e+00) (0, 0, 0.00000000000000000000e+00) (0, 0, 0.00000000000000000000e+00) (0, 0, 0.00000000000000000000e+00) (0, 0, 0.00000000000000000000e+00) (0, 0, 0.00000000000000000000e+00) (0, 0, 0.00000000000000000000e+00) (0, 0, 0.00000000000000000000e+00) (0, 0, 0.00000000000000000000e+00) (0, 0, 0.00000000000000000000e+00) (0, 0, 0.00000000000000000000e+00) (0, 0, 0.00000000000000000000e+00) (0, 0, 0.00000000000000000000e+00) (0, 0, 0.00000000000000000000e+00) (0, 0, 0.00000000000000000000e+00) (0, 0, 0.00000000000000000000e+00) (0, 0, 0.00000000000000000000e+00) (0, 0, 0.00000000000000000000e+00) (0, 0, 0.00000000000000000000e+00) (0, 0, 0.00000000000000000000e+00) (0, 0, 0.00000000000000000000e+00) (0, 0, 0.00000000000000000000e+00) (0, 0, 0.00000000000000000000e+00) (0, 0, 0.00000000000000000000e+00) (0, 0, 0.00000000000000000000e+00) (0, 0, 0.00000000000000000000e+00) (0, 0, 0.00000000000000000000e+00) (0, 0, 0.00000000000000000000e+00) (0, 0, 0.00000000000000000000e+00) (0, 0, 0.00000000000000000000e+00) (0, 0, 0.00000000000000000000e+00) (0, 0, 0.00000000000000000000e+00) (0, 0, 0.00000000000000000000e+00) (0, 0, 0.00000000000000000000e+00) (0, 0, 0.00000000000000000000e+00) (0, 0, 0.00000000000000000000e+00) (0, 0, 0.00000000000000000000e+00) (0, 0, 0.00000000000000000000e+00) (0, 0, 0.00000000000000000000e+00) (0, 0, 0.00000000000000000000e+00) (0, 0, 0.00000000000000000000e+00) (0, 0, 0.00000000000000000000e+00) (0, 0, 0.00000000000000000000e+00) (0, 0, 0.00000000000000000000e+00) (0, 0, 0.00000000000000000000e+00) (0, 0, 0.00000000000000000000e+00) (0, 0, 0.00000000000000000000e+00) (0, 0, 0.00000000000000000000e+00) (0, 0, 0.00000000000000000000e+00) (0, 0, 0.00000000000000000000e+00) (0, 0, 0.00000000000000000000e+00) (0, 0, 0.00000000000000000000e+00) (0, 0, 0.00000000000000000000e+00) (0, 0, 0.00000000000000000000e+00) (0, 0, 0.00000000000000000000e+00) (0, 0, 0.00000000000000000000e+00) (0, 0, 0.00000000000000000000e+00) (0, 0, 0.00000000000000000000e+00) (0, 0, 0.00000000000000000000e+00) (0, 0, 0.00000000000000000000e+00) (0, 0, 0.00000000000000000000e+00) (0, 0, 0.00000000000000000000e+00) (0, 0, 0.00000000000000000000e+00) (0, 0, 0.00000000000000000000e+00) (0, 0, 0.00000000000000000000e+00) (0, 0, 0.00000000000000000000e+00) (0, 0, 0.00000000000000000000e+00) (0, 0, 0.00000000000000000000e+00) (0, 0, 0.00000000000000000000e+00) (0, 0, 0.00000000000000000000e+00) (0, 0, 0.00000000000000000000e+00) (0, 0, 0.00000000000000000000e+00) (0, 0, 0.00000000000000000000e+00) (0, 0, 0.00000000000000000000e+00) (0, 0, 0.00000000000000000000e+00) (0, 0, 0.00000000000000000000e+00) (0, 0, 0.00000000000000000000e+00) (0, 0, 0.00000000000000000000e+00) (0, 0, 0.00000000000000000000e+00) (0, 0, 0.00000000000000000000e+00) (0, 0, 0.00000000000000000000e+00) (0, 0, 0.00000000000000000000e+00) (0, 0, 0.00000000000000000000e+00) (0, 0, 0.00000000000000000000e+00) (0, 0, 0.00000000000000000000e+00) (0, 0, 0.00000000000000000000e+00) (0, 0, 0.00000000000000000000e+00) (0, 0, 0.00000000000000000000e+00) (0, 0, 0.00000000000000000000e+00) (0, 0, 0.00000000000000000000e+00) (0, 0, 0.00000000000000000000e+00) (0, 0, 0.00000000000000000000e+00) (0, 0, 0.00000000000000000000e+00) (0, 0, 0.00000000000000000000e+00) (0, 0, 0.00000000000000000000e+00) (0, 0, 0.00000000000000000000e+00) (0, 0, 0.00000000000000000000e+00) (0, 0, 0.00000000000000000000e+00) (0, 0, 0.00000000000000000000e+00) (0, 0, 0.00000000000000000000e+00) (0, 0, 0.00000000000000000000e+00) (0, 0, 0.00000000000000000000e+00) (0, 0, 0.00000000000000000000e+00) (0, 0, 0.00000000000000000000e+00) (0, 0, 0.00000000000000000000e+00) (0, 0, 0.00000000000000000000e+00) (0, 0, 0.00000000000000000000e+00) (0, 0, 0.00000000000000000000e+00) (0, 0, 0.00000000000000000000e+00) (0, 0, 0.00000000000000000000e+00) (0, 0, 0.00000000000000000000e+00) (0, 0, 0.00000000000000000000e+00) (0, 0, 0.00000000000000000000e+00) (0, 0, 0.00000000000000000000e+00) (0, 0, 0.00000000000000000000e+00) (0, 0, 0.00000000000000000000e+00) (0, 0, 0.00000000000000000000e+00) (0, 0, 0.00000000000000000000e+00) (0, 0, 0.00000000000000000000e+00) (0, 0, 0.00000000000000000000e+00) (0, 0, 0.00000000000000000000e+00) (0, 0, 0.00000000000000000000e+00) (0, 0, 0.00000000000000000000e+00) (0, 0, 0.00000000000000000000e+00) (0, 0, 0.00000000000000000000e+00) (0, 0, 0.00000000000000000000e+00) (370, 3, 5.00000000000000000000e-01) (370, 3, 5.00000000000000000000e-01) (370, 3, 5.00000000000000000000e-01) (370, 3, 5.00000000000000000000e-01) (370, 3, 5.00000000000000000000e-01) (370, 3, 5.00000000000000000000e-01) (370, 3, 5.00000000000000000000e-01) (370, 3, 5.00000000000000000000e-01) (370, 3, 5.00000000000000000000e-01) (370, 3, 5.00000000000000000000e-01) (370, 3, 5.00000000000000000000e-01) (370, 3, 5.00000000000000000000e-01) (370, 3, 5.00000000000000000000e-01) (370, 3, 5.00000000000000000000e-01) (370, 3, 5.00000000000000000000e-01) (370, 3, 5.00000000000000000000e-01) (370, 3, 5.00000000000000000000e-01) (370, 3, 5.00000000000000000000e-01) (370, 3, 5.00000000000000000000e-01) (370, 3, 5.00000000000000000000e-01) (370, 3, 5.00000000000000000000e-01) (370, 3, 5.00000000000000000000e-01) (370, 3, 5.00000000000000000000e-01) (370, 3, 5.00000000000000000000e-01) (370, 3, 5.00000000000000000000e-01) (370, 3, 5.00000000000000000000e-01) (370, 3, 5.00000000000000000000e-01) (370, 3, 5.00000000000000000000e-01) (370, 3, 5.00000000000000000000e-01) (370, 3, 5.00000000000000000000e-01) (370, 3, 5.00000000000000000000e-01) (370, 3, 5.00000000000000000000e-01) (370, 3, 5.00000000000000000000e-01) (370, 3, 5.00000000000000000000e-01) (370, 3, 5.00000000000000000000e-01) (370, 3, 5.00000000000000000000e-01) (370, 3, 5.00000000000000000000e-01) (370, 3, 5.00000000000000000000e-01) (370, 3, 5.00000000000000000000e-01) (370, 3, 5.00000000000000000000e-01) (370, 3, 5.00000000000000000000e-01) (370, 3, 5.00000000000000000000e-01) (370, 3, 5.00000000000000000000e-01) (370, 3, 5.00000000000000000000e-01) (370, 3, 5.00000000000000000000e-01) (370, 3, 5.00000000000000000000e-01) (370, 3, 5.00000000000000000000e-01) (370, 3, 5.00000000000000000000e-01) (370, 3, 5.00000000000000000000e-01) (370, 3, 5.00000000000000000000e-01) (0, 3, 0.00000000000000000000e+00) (51, 3, 5.00000000000000000000e-01) (51, 3, 5.00000000000000000000e-01) (0, 3, 0.00000000000000000000e+00) 
connections (connected_to_neuron, weight)=(0, 6.87880533854593172877e-03) (1, 8.29680225809140275972e-02) (2, -4.07756177296444890373e-03) (3, 6.64322223840457942723e-02) (4, -1.21630900405898828565e-01) (5, -1.70223472102701112174e-01) (6, -9.70069622126908809312e-02) (7, 4.97674966577443256277e-02) (8, 1.31180167824881278166e-02) (9, 2.12286376802999221525e-02) (10, -2.32291211249360113333e-02) (11, -4.41810002368086957025e-02) (12, -1.36905165601279688037e-01) (13, -1.83821752165246148081e-02) (14, -3.76725319086248719436e-02) (15, -1.01184042527465239969e-01) (16, -9.45682238101043654011e-02) (17, 4.07940247760642318853e-02) (18, 1.07628739867490150206e-01) (19, 2.04905050295287022299e-01) (20, -6.79898031760320202543e-03) (21, -6.94618674809918262847e-02) (22, -4.70928778573426673471e-02) (23, -1.66298045176061400074e-02) (24, -3.93671384866200804731e-02) (25, 2.17515564496418324636e-02) (26, -1.79154584897942725785e-01) (27, -1.23624900464837428338e-01) (28, -8.68042039197513687343e-02) (29, 4.56983945309583292071e-02) (30, 2.56123330275699820358e-02) (31, -2.41774771878019781313e-02) (32, -9.37058992112058536383e-02) (33, 6.76203162254430945044e-03) (34, 2.73720131944735489693e-02) (35, -1.18047097831832550896e-01) (36, 7.06169479219613815957e-02) (37, -9.71151882615792910736e-02) (38, -2.96695555582794194549e-02) (39, -1.11790167665762232851e-01) (40, -5.75627278373793960231e-02) (41, 8.14696685000137615917e-02) (42, 5.79666370246163173419e-02) (43, 1.72715430579852939619e-02) (44, -9.90868298277465808788e-02) (45, -8.07401868600266248155e-02) (46, -6.12081468428351468947e-02) (47, -2.62595725040274501072e-02) (48, -8.27611856934525220997e-03) (49, -1.29888746161976681437e-01) (50, -1.54046535511788967171e-02) (51, -8.18443335181622266816e-02) (52, -3.42233751348609629983e-02) (53, 9.25604999555913465770e-02) (54, -1.03575951072590988211e-01) (55, -2.77695819799737356193e-02) (56, 9.15887599011604991439e-02) (57, -8.64699293607825991703e-02) (58, 2.25290718724982519383e-02) (59, -9.84622291830549722924e-02) (60, 2.04673066820009463829e-02) (61, -4.72170368286620456555e-02) (62, -3.33208828919249466782e-02) (63, 1.93407012206605923021e-02) (64, 2.22759110675982627270e-02) (65, -2.76544338530368555285e-02) (66, 1.83612398623871700409e-02) (67, 3.22484898022010052498e-02) (68, -3.91227759181853457227e-02) (69, -2.27322490788459076125e-03) (70, 3.62344981015364359100e-02) (71, -1.03040043158617769525e-01) (72, 3.32107541097162034527e-02) (73, -1.68584980336088530867e-03) (74, -2.91000639014482326977e-03) (75, 1.77805707466063521449e-02) (76, 4.35491578441734722427e-02) (77, 6.00238350395644118529e-02) (78, -6.88426461644871118262e-02) (79, 1.83923119899561532398e-02) (80, 8.63436384404452916819e-02) (81, 1.71656326079163944198e-02) (82, 4.24833090356706508106e-02) (83, -6.57825426153430953269e-02) (84, 6.23616911895343364880e-02) (85, 3.76934684882506074177e-02) (86, 6.52072631232698037701e-03) (87, -7.38973370816451147203e-02) (88, -4.79275776235496830946e-02) (89, 2.18135638444218911414e-02) (90, -8.55036249819370181013e-02) (91, 2.73418650650056015150e-02) (92, 1.57434223366402947786e-01) (93, -7.61129962149398459070e-02) (94, 4.27825166340220428007e-02) (95, 1.15184999146424313365e-01) (96, -1.34584860988690678540e-02) (97, 1.72752375497925887704e-02) (98, 2.99293312143020899529e-02) (99, -2.49759027389187295010e-02) (100, 4.15997836576435277289e-03) (101, -5.00500052189158106675e-02) (102, -5.75048568762858286485e-02) (103, 6.55470043420791625977e-03) (104, 6.10491284838117487244e-02) (105, 1.25167021974033981779e-01) (106, 2.83038929710166566045e-02) (107, 2.60606264792575814671e-02) (108, -1.13948822035112463241e-02) (109, 5.68764156921199443007e-02) (110, -1.03601850349886864811e-01) (111, -4.03930424492894707411e-02) (112, -2.19650609568889897127e-02) (113, 1.82177360982970354408e-01) (114, 6.44253151335559826052e-02) (115, -8.94838572196298975836e-02) (116, 8.34457532135657181760e-02) (117, 9.61695983062634679461e-03) (118, 1.42937859002758120563e-02) (119, -1.19585950842245103409e-01) (120, -9.30738991412929095315e-02) (121, -4.61648320009988427648e-02) (122, 1.95802399972479831275e-03) (123, -1.37153187993340031081e-01) (124, -4.53592948615550994873e-02) (125, -8.10837967050546393200e-02) (126, 5.02580462804356475903e-02) (127, 5.12956186496913643658e-02) (128, -3.71507661496092711495e-02) (129, 6.30363957335329863629e-03) (130, 8.11333915907387348554e-02) (131, 1.39051829342308475024e-01) (132, 1.00989038504114378436e-01) (133, -1.05466036025458592684e-01) (134, -3.08847796039912357233e-03) (135, 5.63519882589116477556e-02) (136, 1.02719572412846016363e-01) (137, 1.54184414919037709318e-02) (138, -4.27423652692006869613e-02) (139, 1.17159107373914217476e-02) (140, 2.54017510004530613910e-02) (141, -1.83111944745998726780e-02) (142, 7.52705916403686170479e-02) (143, -1.02152086909628916911e-01) (144, -5.21473128802133409354e-02) (145, 3.88964638113975524902e-02) (146, -1.54698718018381059514e-01) (147, -8.58758898083555322067e-02) (148, -1.22299980234747435875e-02) (149, 2.19121894801119774035e-03) (150, -1.06692461229167308984e-02) (151, 8.27338405917864977424e-02) (152, 7.52925682920730088288e-02) (153, -1.41073351665195800830e-01) (154, -1.59948486321688197742e-02) (155, -5.78801288078183984176e-02) (156, 3.24569052619410594249e-03) (157, -1.96048166354313062668e-03) (158, 1.00156894321326531139e-01) (159, -1.68958755513178085494e-02) (160, 4.52647789351331153451e-02) (161, 7.28844533522911702805e-02) (162, -2.21107510879877920684e-02) (163, -8.82949956010035952314e-03) (164, -1.08211799587111717758e-01) (165, 8.25186064465649043997e-02) (166, -3.85472737252712249756e-02) (167, 1.17693319984825919833e-01) (168, 3.26593531130336262036e-02) (169, 6.18746776782277546625e-02) (170, -2.59010512275310231245e-02) (171, -5.39173210398925586984e-02) (172, -3.79514161456695475749e-02) (173, -1.76505653219303504375e-02) (174, -8.87747250255642855743e-02) (175, -4.45761393967158362633e-03) (176, -1.21494706388384887674e-01) (177, 1.84390560078610959982e-02) (178, 2.91613160977840617238e-02) (179, -4.62057097016805792822e-02) (180, -8.36852917271831836521e-02) (181, -1.18154916038100452069e-01) (182, 2.47781358124927082731e-02) (183, -1.27177981956787089501e-01) (184, -7.09322323467423271337e-02) (185, -4.60873178749111531149e-03) (186, -3.49343507595069671656e-02) (187, 4.08764183521270751953e-03) (188, 5.46489725686168711233e-03) (189, -3.02387185601062334628e-02) (190, 1.24266442864607418173e-01) (191, 4.30434616479576440118e-03) (192, -7.50685529059147843567e-02) (193, -4.48776129138546836517e-02) (194, -1.22800677850903927624e-01) (195, -8.35599278943754547599e-02) (196, -1.27195363766762103985e-01) (197, -3.72421905600744673759e-02) (198, -9.50883421011494422981e-02) (199, 5.01265913170189925108e-02) (200, 9.57344997111984341576e-02) (201, -7.28795253693006756662e-03) (202, 8.11802185302152590207e-02) (203, -9.46087224625814793288e-02) (204, 1.11109917965820273467e-01) (205, -9.02742775504077332727e-02) (206, -8.91805321396034152755e-05) (207, 1.35721907497146770938e-01) (208, -8.96640866994857788086e-03) (209, -7.81065534830859553583e-02) (210, -4.17659360706924692730e-02) (211, 9.82767385685496836639e-04) (212, -2.24634328384624611108e-02) (213, -6.96493630329008822644e-02) (214, 2.40419748260450143185e-02) (215, 3.13459215471627999916e-02) (216, -8.12868887676228280004e-02) (217, 1.29337580389380316787e-02) (218, -9.97182904260986019418e-02) (219, -1.60334829403189216279e-02) (220, -4.31627162640700542950e-02) (221, -1.42697456138902140088e-01) (222, -2.12287137850893353058e-03) (223, -6.38663179111662315801e-02) (224, 4.13399376938684837146e-02) (225, 2.69105215566311749276e-02) (226, -2.88240569429310707072e-02) (227, -2.65561220650765671125e-02) (228, 8.56357303006109182864e-02) (229, -8.75015103253307460762e-03) (230, -8.19027915321781790903e-02) (231, 1.11644998326964603463e-01) (232, 1.22552221096048921667e-01) (233, 5.76487559923673578699e-02) (234, -8.37843513536854073154e-02) (235, 7.43591686377670230135e-02) (236, -7.47872561524167839275e-02) (237, 2.38618823816628099210e-02) (238, 6.74560474637128232311e-02) (239, -2.80282215308566284850e-02) (240, 8.50716601605859268354e-02) (241, -6.15511622745149519775e-02) (242, -1.38747687371928191125e-01) (243, -1.10472853688663052996e-01) (244, -1.28787768471271910770e-02) (245, 7.78083286108538236397e-03) (246, 6.70369654642657131216e-02) (247, 1.15830144479884440678e-02) (248, -3.68701431202275789478e-02) (249, 7.75140355728299972060e-03) (250, -4.55083672478024184316e-02) (251, -4.31472563872563261156e-02) (252, 8.79382410718631962743e-02) (253, 5.81378269568547725865e-02) (254, 5.03960353414048337073e-02) (255, -1.16297545482282951856e-01) (256, -9.89218368220846910877e-02) (257, -1.76968602239310018875e-01) (258, -2.09947031540017557683e-02) (259, -1.06639514134217169850e-01) (260, 1.25115468760640374118e-02) (261, -3.89495085226680172463e-03) (262, -5.54990015377124432105e-02) (263, -3.91247410088185476607e-02) (264, 1.78361047478784000286e-02) (265, -8.86863903342729048562e-02) (266, -3.94767169134748949211e-02) (267, 4.19036782068645807797e-02) (268, 3.04481957124445694329e-02) (269, -3.09283458078259305968e-02) (270, -1.94444724625144810259e-01) (271, 9.99011122401907009083e-02) (272, -6.22675474421954464055e-03) (273, -1.02223691453785223149e-01) (274, 5.82954964487319704514e-02) (275, -1.09686322915845142073e-02) (276, 7.34881373143906196921e-02) (277, 1.35876430987622448532e-01) (278, 8.04222212658247254113e-02) (279, -1.82817980374016565703e-03) (280, 1.40309507075637510121e-02) (281, 5.17489921232778121718e-02) (282, 5.59039041399955749512e-02) (283, 2.49662622809410095215e-02) (284, -4.37746786610036450749e-02) (285, -1.44943889159088981806e-03) (286, 1.36165649372013086715e-01) (287, 1.03768310647215686315e-01) (288, -1.29966503652240966682e-01) (289, -1.56727403892680527964e-01) (290, 4.91534097906483405382e-02) (291, -4.04036361336805247002e-02) (292, -1.60405475836298022640e-01) (293, -2.76868666592982107244e-02) (294, 5.54006143608991030725e-02) (295, 3.79504738366723687326e-02) (296, -6.27354777349748288229e-02) (297, -1.28026620543155028598e-01) (298, 5.51732203118599374286e-03) (299, -4.42579962469609802800e-02) (300, -9.06957967184102986646e-02) (301, -2.75939080844193468378e-02) (302, 9.65435741971448768695e-02) (303, 9.30700565908573057561e-02) (304, 3.12928860600705863182e-02) (305, 1.29270417088779510095e-01) (306, 3.75063617792591799671e-02) (307, 1.31020838907133069760e-03) (308, 1.98270194276663827559e-02) (309, 9.78475992689748497178e-02) (310, 1.12179940060791460965e-01) (311, -5.82248367080797288309e-02) (312, 1.12354712051874004036e-02) (313, 2.76401477579705859289e-02) (314, -8.02444219589233398438e-02) (315, -1.42675432296958532019e-01) (316, -1.31963286010692654182e-01) (317, 9.43405541193308994075e-02) (318, 3.87093775612313353851e-02) (319, 5.12008905159550761765e-02) (320, -8.18557077452458231592e-02) (321, 2.26510849547983603158e-02) (322, -2.42363084651391275451e-03) (323, 6.03096063659322376149e-02) (324, 3.25133076181184296760e-02) (325, -5.79216390116224499884e-03) (326, -6.47709112609444036951e-03) (327, -3.93817360421191073327e-02) (328, -6.98513263956268143362e-02) (329, -1.14172599304297080203e-02) (330, -9.28596907846321178992e-02) (331, 1.12313303547767230628e-02) (332, -1.04014510677149049633e-01) (333, 1.95275541745700735932e-03) (334, -1.56343091581961357583e-02) (335, -9.23328577925294075035e-02) (336, -5.40138844161648090658e-02) (337, -2.36186425713432353313e-02) (338, -1.53157026707178411246e-02) (339, -8.00296645836920117478e-02) (340, -8.15434419828029305455e-02) (341, -4.49840750528602562053e-02) (342, 4.68162014698678269342e-02) (343, -1.14207611685770496490e-01) (344, -2.77895233813490460939e-02) (345, 4.17518699572841309187e-02) (346, -2.59143159888743125630e-02) (347, -9.08855603189691746424e-02) (348, -5.57706870544250402078e-02) (349, -1.92739231490403652158e-02) (350, 1.70859291075956182260e-01) (351, -5.78185556902651928701e-02) (352, -3.50690270933074199622e-02) (353, 3.88387763921136247580e-02) (354, 1.93261962315169830151e-02) (355, 9.83236208558082580566e-02) (356, -4.39563207328319549561e-02) (357, -8.99295627795651114633e-02) (358, -2.74809299557653083368e-02) (359, 7.56059041385784696976e-02) (360, 8.75624307485252384442e-03) (361, 6.15583637308630693408e-02) (362, -2.02952570818257585494e-03) (363, 1.00725311010096948983e-01) (364, -4.96475127408698285736e-02) (365, -8.48400411722086550403e-02) (366, 5.71954755950559515232e-02) (367, 3.80730401273207674784e-02) (368, -7.94770685020534939369e-03) (369, -5.83425590673200128444e-02) (0, 1.40288064214234342586e-01) (1, 7.23243026115894943606e-02) (2, 5.66829603809351698085e-02) (3, 1.19113812254166701043e-01) (4, -1.21955900988290719122e-01) (5, -3.21667332383278825603e-01) (6, -9.41084907884259802557e-02) (7, 2.38316695542406919994e-01) (8, 5.96522861271642293457e-02) (9, 2.03042859764027182681e-03) (10, -1.86979323315352524704e-01) (11, -1.06254137990863847807e-01) (12, -1.28414279549494331212e-01) (13, -2.15838312374460987442e-03) (14, -1.16609431421778486637e-01) (15, -1.08698493469966933622e-01) (16, -1.49303739341741265045e-01) (17, 1.31143859238891172247e-02) (18, 1.29090351183068802188e-01) (19, 1.57590742394930066750e-01) (20, -6.09848094907580878798e-02) (21, -2.64860581163445726882e-02) (22, -5.11558128730077235624e-02) (23, 1.62124830085535985569e-02) (24, -5.04987506213977199732e-02) (25, -2.78588059417724694111e-02) (26, -5.40122697793237252495e-02) (27, -6.40745751792786699674e-02) (28, -8.68237712952666801369e-02) (29, 9.06795338716997884054e-02) (30, -9.46902147271550531649e-02) (31, 1.32784442173655342634e-01) (32, 1.03645291745566942021e-01) (33, -7.27122298427582136604e-02) (34, -1.06144337413488526467e-01) (35, -1.11067016859686035213e-01) (36, -4.20212645297477552231e-02) (37, 5.14059845702752940544e-02) (38, 9.82743245792556258111e-02) (39, -2.39505218273115237648e-02) (40, 8.21508061060680638832e-02) (41, 9.86164209468179536744e-02) (42, 1.27936186859191641796e-01) (43, -8.51973695566258099054e-02) (44, 1.49759283001331816587e-01) (45, 1.07719406486214891450e-01) (46, -8.57053275089767613304e-02) (47, -6.30740599322778677793e-02) (48, -1.43519702899437578969e-01) (49, 1.31545519294537532895e-01) (50, -3.69562685550700684850e-03) (51, 2.37904103856541766782e-02) (52, 9.42938647084728943058e-04) (53, 1.24565163556984506710e-01) (54, -4.36320298004025663996e-02) (55, -1.14255250584561471316e-01) (56, -5.43657209798640780885e-02) (57, -8.36833174198727131055e-02) (58, 4.07690405142174250308e-02) (59, -4.21630868548654377803e-02) (60, 1.60620525517370972557e-02) (61, 2.34868503193557537356e-02) (62, -9.42026093981936651911e-02) (63, -4.28747823061150432067e-02) (64, 3.66487106066891235590e-02) (65, 6.52826929865979732615e-02) (66, -4.71375175179166022721e-02) (67, 7.52093326988103466624e-02) (68, -8.82894563358001044015e-04) (69, -1.42640083387636618095e-01) (70, -1.32367337265671489860e-02) (71, 4.22246672706904427330e-02) (72, 1.38374761337628632285e-01) (73, -2.31928032438357203948e-02) (74, 4.51043741886236818073e-02) (75, 4.57547633123893751628e-02) (76, -9.60750280764363639996e-02) (77, 3.21595894564494430568e-02) (78, -6.07305005653520565967e-02) (79, 2.51086737371732995894e-02) (80, 8.22760603641362747718e-02) (81, 1.67581910146431048436e-02) (82, -7.90466416156091894463e-02) (83, -1.95036479878909728425e-02) (84, 3.03075208902642660724e-02) (85, -4.00849695470928482632e-02) (86, -6.89355896715844462808e-02) (87, -7.55341578819143377732e-02) (88, 6.33294478008507161215e-02) (89, 4.85932897766718895766e-03) (90, -1.97425431200378531660e-01) (91, -9.15141189033724516966e-02) (92, -2.05507835943141564661e-02) (93, 3.10255759740092548760e-02) (94, 7.30628555135472840254e-02) (95, 1.48115321370561020542e-01) (96, -3.15623572670035018595e-02) (97, 2.66942991209358944371e-02) (98, 1.04062229847451628850e-01) (99, -1.17865071220363531318e-02) (100, -1.64520902434512839019e-01) (101, -9.18445573749289700949e-02) (102, 1.14895127694394361129e-01) (103, -9.15392413735389709473e-02) (104, -5.25834449158851732764e-02) (105, 5.24444457726120916163e-02) (106, 1.56488630969748021560e-01) (107, 5.84569350132082554694e-02) (108, -5.41194441035772119686e-02) (109, -9.27447514770503717019e-02) (110, -6.78730233927906656533e-02) (111, -2.08878091200080488743e-02) (112, 4.04600006547281010327e-02) (113, 1.30378053834058593718e-01) (114, 2.35258389278289459234e-02) (115, -5.54650920004303299438e-02) (116, -2.53723860409003874883e-02) (117, -1.08517468931557378720e-01) (118, -1.02860579721789968666e-01) (119, 5.51668611835657018982e-02) (120, 4.16145753016995759155e-02) (121, -1.56377141343999499778e-02) (122, -1.57608003459334566898e-01) (123, 1.82541514633845630700e-02) (124, 8.14243480563163757324e-02) (125, 1.90415642552588075531e-03) (126, -2.52342879918792117877e-02) (127, -5.09350519591716677237e-02) (128, 5.64130085613100268338e-02) (129, 2.82029874339102155922e-02) (130, 3.58725013800440598044e-02) (131, 9.80849595724527512086e-02) (132, 7.61289398608589462647e-02) (133, -2.76068015790418459787e-02) (134, 4.55059910228874028859e-02) (135, -3.63246429360156511401e-02) (136, -5.95433856470573494302e-02) (137, 2.00347644750977042782e-02) (138, 7.00747672994741083174e-02) (139, 5.93972467791963124051e-02) (140, 7.89088946848667538436e-02) (141, -1.38588255495902201719e-01) (142, 4.79857132406818001624e-02) (143, 3.46251578540420837382e-02) (144, -1.08877033302676555493e-02) (145, -2.74112522602081298828e-02) (146, 4.65882366831242011873e-02) (147, 3.62158374243263733727e-02) (148, 3.05452407959244769120e-02) (149, -1.61123925600096140620e-01) (150, 6.65468277783347328391e-02) (151, 4.06167075694325724333e-02) (152, -1.66162272732598495506e-02) (153, -5.15092544665651241864e-02) (154, 4.28889876577904990973e-02) (155, -1.06970730954971775251e-02) (156, 6.91537473807752045563e-02) (157, 4.06318797944447279713e-03) (158, 1.75902188334831066641e-02) (159, -7.65927014596472499619e-02) (160, 6.11515846931826867472e-02) (161, 9.24590805646893949821e-03) (162, 1.39583596322390951494e-01) (163, -5.25779363836774427110e-02) (164, -1.83532991102616886703e-02) (165, 2.27074358321019027784e-02) (166, 1.21686309576034545898e-02) (167, 9.10340525631543884266e-02) (168, -8.50601891562732387309e-02) (169, 2.24116546550168459218e-02) (170, -4.07367908870945316657e-02) (171, 1.04555083800137352257e-01) (172, 7.45804849806593478379e-02) (173, -1.28682793475451244525e-02) (174, -2.79316444114940699850e-02) (175, -3.26013309015105931521e-02) (176, -2.75791814599713122624e-02) (177, 5.64680981220216440808e-02) (178, -5.60057815063575367698e-02) (179, -1.09075633622577508608e-01) (180, 4.57378670339922063781e-03) (181, -7.48611142287966269127e-02) (182, -7.42036146933396645320e-02) (183, 6.03308285912624239766e-02) (184, -1.13719969361567238564e-01) (185, -3.23957249493831422882e-02) (186, -1.03268345339210185219e-02) (187, 1.36381238698959350586e-02) (188, -3.75064359981389164322e-02) (189, 1.22167446969051435302e-01) (190, 8.51513240149564115677e-02) (191, 5.54384616844756639414e-05) (192, -1.91336437975609882645e-02) (193, -7.85285528085277878541e-02) (194, 4.16295895960395734292e-02) (195, -6.39182417396290392109e-02) (196, -6.21527345897046959444e-03) (197, -3.48648365128219547837e-02) (198, 1.17640356031017134786e-01) (199, 1.06719803646013258747e-01) (200, 3.99252662546795838994e-02) (201, -8.31486885455032589953e-03) (202, 7.05231038933306492167e-02) (203, -4.04294170533264080047e-02) (204, 6.26641431046894153978e-02) (205, -5.67432733941721501036e-02) (206, 3.52119085886633959026e-02) (207, -8.19382683389075078262e-02) (208, 5.46440109610557556152e-02) (209, -8.98931112004052179643e-02) (210, -6.85673441822929746747e-02) (211, -3.60551379127931961865e-02) (212, -9.22092832607301904346e-03) (213, 5.65941375506560061248e-03) (214, -4.51298208928146635244e-02) (215, 6.93571359159361831154e-03) (216, -3.14675671985229551270e-03) (217, -4.09047125294434640863e-02) (218, -1.06120488666866755190e-01) (219, 1.14738860551750893046e-02) (220, 5.71736945347098568515e-02) (221, -3.68891358151922782449e-02) (222, -1.35928400713740318156e-03) (223, 4.13824174467443840070e-03) (224, 1.73213891095338773374e-01) (225, -2.59631886656842073013e-02) (226, 7.87062646541940996725e-02) (227, 4.43696908171867937520e-02) (228, 7.02744124089361155150e-02) (229, 8.32242882937334754745e-02) (230, 3.48804609520124153654e-02) (231, -5.93683375723219677877e-02) (232, -7.44043772634573902930e-03) (233, -2.57785768889844044138e-02) (234, 9.96670847864107034564e-02) (235, 2.21393081645133819879e-02) (236, 8.75667546257774265239e-02) (237, 2.37970962630638938062e-02) (238, 8.89282623033576108407e-02) (239, 5.35964090289161379510e-02) (240, 7.61015414503131426560e-02) (241, -1.12217092175378771457e-01) (242, 1.99662899978596541928e-02) (243, -6.79249811714543183516e-02) (244, 3.27644440778537895942e-02) (245, -1.06060468733262552865e-01) (246, 5.26179915359122896135e-02) (247, -9.54557206665390400868e-02) (248, -1.06143264669927850363e-02) (249, -3.72354292177207932268e-02) (250, 4.14142506356910272691e-02) (251, -3.64077891957292343328e-02) (252, -2.02712267913548217779e-02) (253, -5.09797539297210666742e-02) (254, -1.00334993327048524470e-01) (255, -8.21226420420965580460e-02) (256, -2.01824862982766216335e-02) (257, -2.86974847483099787526e-02) (258, -1.35613916730830924573e-01) (259, 1.79561765131098088899e-02) (260, 8.20307584323974742224e-02) (261, 2.00513446245409003577e-02) (262, -6.90517234430644277765e-02) (263, -7.66548521211700695233e-02) (264, -6.98497267193298188026e-02) (265, -1.27222749830803061322e-01) (266, 6.51322050699139343255e-02) (267, -8.41375921276623084388e-02) (268, -2.05886402452235819580e-03) (269, 7.18092322455092940681e-02) (270, -1.44492753900416687207e-01) (271, 4.43515437731361039653e-02) (272, -9.54153434288948498754e-02) (273, 4.32311184469775441896e-02) (274, 6.51290320697352144615e-04) (275, -3.27213364707243728469e-02) (276, 7.24603568535806402684e-02) (277, 7.38006003842212182642e-02) (278, -4.50232587544839718552e-02) (279, 7.74903714870218453259e-03) (280, -9.52426288560578732101e-02) (281, 3.28761617034858816266e-02) (282, 3.70220020413398742676e-02) (283, -1.90563499927520751953e-03) (284, -1.00044516377843326072e-01) (285, 1.03535524593958969120e-01) (286, 1.41045698569120414589e-01) (287, 1.35749955251066617423e-01) (288, -2.13056103914023492463e-01) (289, -3.38815239540741566793e-02) (290, -9.19635501373013419801e-02) (291, 4.48293893828544537383e-02) (292, -1.06082819569799965964e-01) (293, 6.01976868966876965672e-02) (294, 2.36282790149409151204e-02) (295, 9.21818721408129010397e-02) (296, -2.74376942288048868146e-02) (297, -3.68892718586875736908e-02) (298, 8.97175649179533796218e-02) (299, -1.10599929524396768665e-02) (300, -9.47043098638716690507e-02) (301, 1.23581507002450217275e-02) (302, 5.24677226308288419121e-02) (303, 6.57131346233599672457e-02) (304, -3.78387865340574780504e-02) (305, 9.82289206119222185754e-02) (306, -5.37496999869458563781e-02) (307, -1.00309825952658471238e-01) (308, -1.21963138658102918099e-01) (309, 8.06016064239689633553e-02) (310, 1.06439484154048177866e-01) (311, -8.28321469192700998718e-02) (312, -1.92689504500389574559e-02) (313, -1.93590561865995868310e-03) (314, 8.69838073849678039551e-02) (315, -6.11397022001217704812e-02) (316, -1.10085570419394707109e-01) (317, 3.67553475745958854737e-02) (318, -5.74278022646389496586e-02) (319, 4.68640273501965826108e-02) (320, -5.92973303233458939876e-02) (321, 1.91162766318744986593e-02) (322, -1.57944468488584260912e-01) (323, -5.39412041966251670777e-02) (324, -3.65363618250286615458e-03) (325, 4.00892384074056223886e-02) (326, -9.83550641420977700413e-02) (327, 8.14731654282539047296e-02) (328, -1.17400947453431117595e-01) (329, -1.57877567830265963522e-01) (330, -1.66926340775429449259e-01) (331, -3.98639201283001801124e-02) (332, 6.25920758780597746851e-02) (333, -5.03935365161808160317e-02) (334, -1.17889010020712475812e-01) (335, -6.77000391111705068781e-02) (336, 8.34579907962722522541e-02) (337, -4.83022005981905838690e-02) (338, -8.36742515281012066986e-02) (339, -9.42811773410927589367e-02) (340, 6.83785419556189044687e-02) (341, 2.47678752866989544679e-02) (342, 1.10913217173358932821e-02) (343, -2.44759769297958257317e-01) (344, -3.93559154978139202896e-02) (345, -3.19392689589308902479e-03) (346, 6.18581063810876227715e-02) (347, -1.25216761923484021235e-01) (348, -1.36509000794768436959e-01) (349, -6.02799991744927959880e-02) (350, 1.42178594385132694988e-01) (351, 8.73474553437389583666e-02) (352, 1.04739302100880990465e-01) (353, 5.24263363047856936761e-02) (354, -1.30108582010845269528e-01) (355, -3.32335829734802246094e-02) (356, 6.12379610538482666016e-03) (357, -8.12169222491018333310e-02) (358, -1.20209793627960873086e-01) (359, 6.36441435891779289102e-02) (360, -9.69383941673784832460e-02) (361, 1.06600126356976004222e-02) (362, -1.10416873236508325529e-01) (363, 1.01855612205012130422e-01) (364, 8.71943081487517278327e-03) (365, -4.85374680061317897994e-02) (366, -6.58165495930513044787e-02) (367, 1.16528197434309643832e-02) (368, -1.88401352952834583165e-02) (369, -9.46707895969435830885e-02) (0, -3.17378453196235244677e-03) (1, -3.79079710192584268258e-02) (2, -4.93541476359351041769e-02) (3, -9.41041038323391781928e-02) (4, 6.96831909248137870705e-02) (5, 9.19638918149296852311e-02) (6, 1.01446636593006470073e-01) (7, -1.17660144812366210254e-01) (8, -4.08679563632128803330e-02) (9, -1.24974891031803717056e-01) (10, 6.55487547294203581894e-02) (11, 1.36652587137783831928e-02) (12, -6.13362339060217684472e-02) (13, -2.32342982676093622041e-02) (14, -9.75541911881458445599e-03) (15, 2.33145342235679823087e-03) (16, 1.18180662135689867887e-01) (17, 5.91890877151111174936e-02) (18, -9.01884594940389611173e-02) (19, -1.65922695835376610152e-01) (20, -8.21434243354914788229e-04) (21, -9.50976365012351776418e-02) (22, -2.54940768157451772002e-02) (23, 2.49322437617225216300e-02) (24, -8.74011298631579974794e-02) (25, -8.37935080160140816075e-02) (26, 1.25000119225294581415e-01) (27, -4.28227159563359244254e-02) (28, 2.33146796735958401758e-02) (29, -1.54761385387582967033e-01) (30, -3.66993489850048551504e-02) (31, -6.32866353258216690625e-02) (32, -1.29783792004839443335e-01) (33, -2.19061352730026415170e-02) (34, 7.82375779482340771853e-02) (35, 1.32906424878952260371e-02) (36, 6.56260482344856732606e-02) (37, -4.28862684304243887978e-02) (38, -1.49918157368568061294e-01) (39, -4.31614769387687682856e-02) (40, 3.93547827366700422869e-02) (41, 6.15857094902054202912e-02) (42, 4.99215476391058829431e-02) (43, 3.03593357947119363294e-02) (44, -8.48455728272534404066e-02) (45, -6.34780693296339848519e-02) (46, 5.77216938189949319016e-02) (47, -1.37786023566995544792e-02) (48, -3.79088995699230907332e-02) (49, -7.48565908762959669742e-02) (50, -2.48191663489090441619e-03) (51, 2.47427810379551478548e-02) (52, -3.39283700577088856432e-02) (53, -1.46284765053326826223e-01) (54, -2.63483225067962928412e-02) (55, 1.01251115214070156606e-02) (56, 1.00084660624568944076e-02) (57, -8.90703489496719735818e-02) (58, 1.87308953975225157829e-02) (59, -7.92589936464838246133e-02) (60, 1.38511608855663055639e-02) (61, -2.64619641275768494038e-02) (62, 6.54048917898703841001e-02) (63, 1.33272931692215490518e-01) (64, -1.21502457860394458278e-01) (65, -2.20247509480946714044e-02) (66, 2.05319690593335074658e-02) (67, -1.56029291721469121068e-01) (68, -1.49947690356130348965e-02) (69, -3.70195805261125596153e-02) (70, 2.68009414714487186060e-02) (71, -2.26614688733935490395e-02) (72, -1.60139153034055292668e-01) (73, -1.65420816543201260052e-02) (74, -7.05773317624128898595e-02) (75, 3.88180982707378371965e-02) (76, 3.28702558816578380152e-02) (77, -8.26145767807921066472e-02) (78, 5.95189027461984140888e-02) (79, 4.35253209743881319671e-02) (80, -7.56535219686627347091e-02) (81, -7.61056996089799070448e-02) (82, -6.83608493320286836337e-02) (83, 1.09974036837732658256e-01) (84, -1.26695939963959100516e-02) (85, 1.00822661533336563333e-01) (86, 6.68511271237078597007e-02) (87, 1.51105781346563688983e-01) (88, -9.46369280713413585371e-02) (89, -8.52533367898503785520e-02) (90, 1.85711486838067395266e-02) (91, 1.32147923290314689426e-01) (92, -2.02824228775404027947e-02) (93, -1.21211695099096919415e-01) (94, -1.55124168670381507029e-02) (95, -2.97174230425163417649e-03) (96, 7.64549695357609332413e-02) (97, 1.25707940847863158806e-01) (98, 6.64551899809869978109e-02) (99, -1.25232916165144397835e-01) (100, 1.22951576210621554841e-01) (101, 2.37682931895387833388e-02) (102, 4.88361731853578506790e-02) (103, 8.00624862313270568848e-02) (104, 1.01205022992461451947e-01) (105, 6.19050281055500348226e-02) (106, -3.66532379058419066631e-02) (107, 2.32353452938455912191e-03) (108, -5.54465688440480761190e-02) (109, -2.17821776369301126075e-02) (110, -6.62186472469480924552e-02) (111, 6.28091031740547894868e-02) (112, 4.43647357815708381912e-02) (113, -8.27836077554563454228e-02) (114, -7.87564905427671907434e-02) (115, -1.31232094391112524834e-01) (116, 8.04865523696916690399e-02) (117, 7.95897667562649596684e-02) (118, -5.83877023221551633148e-02) (119, -5.48341286694248655764e-02) (120, -7.63554519081912352885e-02) (121, -5.72078273165343778595e-02) (122, -6.94359016680988136438e-03) (123, 1.12659718111755971504e-01) (124, -3.12667191028594970703e-02) (125, -1.24611258022666357426e-01) (126, 7.07390543677190036798e-02) (127, -4.98364803936777456261e-02) (128, 1.94889771232516564869e-02) (129, -2.30459712919737526315e-02) (130, -4.36858743930227041985e-02) (131, 1.08856047347886224219e-02) (132, 1.03821617559913995099e-01) (133, -6.99873711503577883297e-02) (134, 4.10806446417618861822e-02) (135, 2.23890897883821833603e-02) (136, 3.58219854210616792112e-02) (137, 1.29760345955144129615e-01) (138, 4.55436954582948069770e-02) (139, -1.53996365348598340805e-01) (140, -1.11025582918935161736e-01) (141, -9.60755807615592122284e-02) (142, 6.05617110638677833001e-02) (143, 3.94522655666835406207e-02) (144, -1.29919080894008460297e-02) (145, -5.89085817337036132812e-02) (146, 4.02613429397388547515e-02) (147, -2.11004118351184183355e-02) (148, -8.67541235177930886158e-02) (149, 1.05426878782086730357e-01) (150, -5.89595561369532922269e-02) (151, -1.50174935351949062623e-01) (152, -8.45231388293423563374e-02) (153, 3.90430633606129173785e-02) (154, -5.72310426187820631139e-02) (155, -3.09405492404232519699e-02) (156, -8.21533390409127511900e-02) (157, 6.62659900837753862435e-02) (158, -9.92921714591944032380e-03) (159, -1.07832376107693320155e-01) (160, 2.22752402393015212778e-02) (161, 5.37809590231983630781e-02) (162, 3.19559185084526062304e-02) (163, 2.83223851769840995196e-02) (164, 1.37212508665809446162e-01) (165, -2.12065383253432736266e-02) (166, -5.23855574429035186768e-02) (167, 4.53544665451234702003e-02) (168, -6.71847632894713026053e-02) (169, 6.81970139993517132648e-02) (170, -1.31167166294975212626e-01) (171, -3.90324548173845084498e-02) (172, 8.74553609177267932129e-02) (173, 5.95336196893037940259e-03) (174, -8.34067226570470998670e-02) (175, -8.40913833780895375591e-02) (176, 1.09674318960297473291e-01) (177, 6.02587994118547395916e-02) (178, -4.23907111595004659765e-02) (179, -4.60642392684903270728e-02) (180, 2.32156363743454309534e-02) (181, 4.93930689826416399746e-02) (182, -1.82567029966278801360e-03) (183, 8.76583068441279117389e-02) (184, -8.20324948247458107797e-02) (185, 5.92326530327580424995e-03) (186, -8.78367287894744053212e-02) (187, -2.90991067886352539062e-02) (188, 9.12036157732724894753e-02) (189, -2.36487509496185466240e-02) (190, -3.50521473813386816309e-02) (191, -1.08686589339308220525e-01) (192, 1.49028070415669084553e-02) (193, 1.29908754218045047711e-03) (194, 4.35868848531546365654e-02) (195, -1.40093527487997245723e-02) (196, 2.30632740180180331735e-02) (197, 7.29054664816784492309e-02) (198, -1.14820823282403533527e-01) (199, 6.48346678626701145021e-02) (200, 2.31305576695472019100e-02) (201, -3.67947534256876929160e-02) (202, -3.40306815875186172149e-02) (203, 1.83206939706000784818e-02) (204, -1.19612658195843948872e-01) (205, 1.04564883063401163621e-02) (206, 8.05929512473622378099e-02) (207, -1.42931733355550733000e-01) (208, -1.60418003797531127930e-02) (209, -4.47420801392361608406e-02) (210, -8.86689137934872778635e-02) (211, -7.40770250663197876717e-02) (212, -4.20529312096940780658e-03) (213, -2.91076062592116567573e-02) (214, 4.67337554265666380027e-02) (215, 4.33407389563609607647e-05) (216, 2.18289474425267587473e-03) (217, 7.11813624467788758077e-02) (218, -6.78185526017388295994e-02) (219, 2.68260043954789660636e-02) (220, -3.55585442628792922082e-02) (221, 4.38783738868444642134e-02) (222, -6.10964584003665864276e-02) (223, -9.37886782947110336783e-02) (224, 7.10446268388121582316e-02) (225, 6.31167066853937641646e-02) (226, -2.35437987943248605571e-02) (227, -2.63028441076452526581e-02) (228, 5.90116639357597151661e-03) (229, 3.31169466438651360907e-02) (230, -2.00668301025601070187e-02) (231, -6.03146658997539067415e-02) (232, 5.09055787417507094039e-02) (233, 4.26689022196538522702e-02) (234, 1.31159150539397958979e-02) (235, 7.40110790376217186903e-02) (236, -7.15889967775303198705e-02) (237, -3.24300380628161841190e-02) (238, -9.10536251609672109275e-02) (239, 3.82448032112932961857e-02) (240, -7.24672040831527974891e-02) (241, -1.73556455074883542178e-01) (242, 1.07020948598436416166e-01) (243, -3.96943248925248903802e-02) (244, 1.95115991362068558201e-02) (245, -4.78445140384998815475e-02) (246, 3.80184245229510456299e-02) (247, 1.91435718536423146729e-02) (248, 3.74881551808863358599e-02) (249, 7.53995411937653930989e-02) (250, 1.72227034477168312876e-02) (251, -1.72889830176500419734e-01) (252, -3.59022110193753449248e-02) (253, 1.25392207210622969038e-02) (254, -9.04752774352404615099e-02) (255, -7.67906929445288516378e-02) (256, 4.37064829997028045372e-02) (257, 2.38578763113888384084e-02) (258, 6.04904539556374576392e-02) (259, 2.19873331303849853247e-02) (260, -7.19123568965008008735e-02) (261, -4.09631524602325214346e-02) (262, -8.95497799380374492895e-02) (263, -8.51913409163318202655e-02) (264, 6.73361662399044463845e-02) (265, 1.91333370905877944712e-02) (266, -5.44290706983273364639e-02) (267, -1.35765246271502659781e-01) (268, -5.91190989995046961569e-02) (269, -1.43979770389282751841e-01) (270, 2.12445011529062338651e-01) (271, -1.56065443189242897271e-01) (272, -4.31981399652829611835e-02) (273, 5.04302494417172356145e-02) (274, 2.88394728809366375499e-02) (275, 4.99339226683449197153e-02) (276, -2.49518544573925499241e-02) (277, -2.09015486252711019111e-01) (278, 4.17492577925798954985e-02) (279, -3.17164666429771147094e-02) (280, 1.06756192025574292437e-01) (281, 6.52645578389065839087e-02) (282, -9.92463976144790649414e-02) (283, -3.42161804437637329102e-02) (284, -6.04166928871885736130e-03) (285, -2.09586488330300385607e-01) (286, -1.18848714079593797965e-01) (287, 4.91462314475991507434e-02) (288, 1.92124258222775429195e-01) (289, -7.51282372963966854629e-02) (290, 6.33309222859991943766e-02) (291, 2.92686680476729188527e-02) (292, 1.35581452783208218638e-02) (293, -3.04914350897447401778e-02) (294, -8.33691775137737067780e-02) (295, -8.51513425730071604747e-02) (296, 4.37835498633190461915e-02) (297, -3.28548046981824923285e-02) (298, -5.64484942888083471302e-02) (299, 1.69109934002350977000e-02) (300, -9.24168880068656703464e-03) (301, -3.74218376245282549619e-02) (302, 1.05674711688202499493e-01) (303, -6.99279240869637858102e-02) (304, 5.50872081380072847745e-02) (305, -6.60987585398951915661e-02) (306, -7.57852304112196519491e-05) (307, -3.56391228033509782636e-02) (308, 5.95384225616236648082e-02) (309, -1.17301652035626147175e-01) (310, -1.25058263926599383398e-01) (311, 5.37702592437117668500e-02) (312, 3.47863705306118639604e-02) (313, -6.47947158464545480694e-02) (314, 6.54847696423530578613e-02) (315, 1.23397548267900086794e-01) (316, 2.91251756134034006651e-02) (317, -4.03731502167225947408e-02) (318, -5.06585014724104734651e-02) (319, -1.07232089626708743113e-01) (320, -4.82257327437404445525e-02) (321, -8.63070029548801583019e-03) (322, 8.95632886236192166107e-02) (323, 1.78665081170997323834e-02) (324, -1.62306690220508503808e-01) (325, 7.35316858202467726890e-02) (326, 1.30130925481875096839e-02) (327, 2.65689031963776307876e-02) (328, -1.00113997895715636788e-01) (329, -4.26957246132888615375e-02) (330, -2.35352296127410709481e-02) (331, 4.51106053302846154301e-03) (332, -1.35888431984641983030e-01) (333, -5.83210524750742143052e-02) (334, 1.33535994180063039005e-01) (335, -8.84212255938602587069e-02) (336, 1.89428387353976178387e-02) (337, -2.56174412000924195398e-02) (338, -4.15770409006128646712e-02) (339, -3.82879950574088329107e-02) (340, -5.30405409330307470173e-02) (341, 7.47736532306569751105e-02) (342, -2.93885444075731964986e-02) (343, 7.96217938688995319207e-02) (344, -3.35063875032450553260e-02) (345, 1.24711416664192043663e-02) (346, -6.60163871754507608491e-02) (347, 2.02180335432069792356e-02) (348, 4.57184735735654199096e-02) (349, 5.57875170211646967400e-02) (350, -1.62887436759889064897e-01) (351, -2.98354958995763440421e-02) (352, -1.97095946170468688807e-01) (353, -3.29520065814134094362e-02) (354, -5.67639863444301812079e-03) (355, -5.40427453815937042236e-02) (356, -6.44904822111129760742e-02) (357, 7.76166666706867153236e-02) (358, 9.59995730061566632241e-02) (359, -8.65977360215611224881e-02) (360, 6.70199477089668538277e-02) (361, -7.00744031430714231501e-02) (362, 1.96977611823448894510e-03) (363, -1.14241670796857694437e-01) (364, 1.14833263475861025588e-02) (365, 1.54772498066004376982e-02) (366, -6.30364857999335531646e-02) (367, -9.96288656186667120895e-02) (368, -1.32207429400533118397e-02) (369, -2.09121247071940435935e-02) (0, 1.63670022143368926182e-01) (1, 9.42962897466470967300e-02) (2, -1.19852457292009148548e-01) (3, 1.19302893654316469196e-01) (4, -8.38223092341878472933e-02) (5, -4.35917462064971283908e-01) (6, -6.13995400726209533682e-02) (7, 4.47802751721703140575e-01) (8, 2.10583731624427950013e-01) (9, 1.20087566440989251815e-01) (10, -1.23252405547685767173e-01) (11, -1.74758627642371294764e-01) (12, -4.07284243240069940284e-02) (13, 1.48613033881344697162e-01) (14, -1.35593874821912180328e-01) (15, -4.45996403703679822339e-01) (16, -2.57619142905312958902e-01) (17, 4.57098531540439459442e-02) (18, 1.41003161251210429317e-01) (19, 1.86321214369580573367e-01) (20, 6.71197400359741791487e-02) (21, -1.88271790414208411990e-01) (22, -1.13040683084644974499e-01) (23, 2.24957357369057586727e-01) (24, 3.42484437409669106867e-01) (25, 1.95304969560009533680e-01) (26, 2.59896552380586454145e-01) (27, -1.96364274403973554373e-01) (28, -1.27567385850264225500e-01) (29, -5.37638269005056290695e-02) (30, -1.50985511044912590339e-01) (31, -9.27491128892942058581e-03) (32, -1.47127871512249236430e-01) (33, -8.95423660340544796954e-02) (34, -4.16079153047668737209e-01) (35, 2.34895164768488956542e-02) (36, 2.34705114024554323260e-01) (37, -7.67688426370510216407e-03) (38, 5.16144780713145845397e-03) (39, -2.49579974508197313665e-02) (40, -1.01367290420132316608e-01) (41, -1.37586231330590003097e-01) (42, -2.79889476289130745279e-02) (43, -1.76187053753079192475e-01) (44, 1.97763541087512512151e-01) (45, 5.64998109184775085950e-03) (46, 5.20062312780319828398e-03) (47, -1.18988347206316902316e-02) (48, -4.41177446871927003702e-01) (49, -1.79522148600979619681e-01) (50, 2.01339870404847215424e-01) (51, 5.57943416190337382332e-03) (52, -2.86675418687456329270e-01) (53, -3.42771813182699502942e-01) (54, -1.43734055293200491121e-01) (55, -2.94047735897353779144e-01) (56, 4.48185125615751939199e-02) (57, 2.11536530990281634868e-01) (58, -1.29311637947591068221e-01) (59, 8.64210374384620505506e-02) (60, 6.65053038295866372209e-02) (61, 6.30218408247805034206e-02) (62, -4.17611673481735390379e-01) (63, -8.95478658467882410177e-02) (64, 1.79728222412116889206e-01) (65, -9.68932925056930210994e-02) (66, 3.47976547303811417633e-02) (67, -6.81362767259243579110e-03) (68, 7.48624842851969424240e-02) (69, -2.06577455741715321214e-01) (70, -6.02251333784616718625e-02) (71, 1.52513017940685835505e-01) (72, 1.24391738080973535130e-01) (73, -1.46669925051845506658e-01) (74, 2.19528316016664226673e-01) (75, -2.77772908940822293999e-01) (76, -3.11251733978583688955e-01) (77, 1.83507771663614094315e-01) (78, 6.42284122005999571353e-03) (79, -2.43410096225932376379e-02) (80, 2.89879690159467795496e-01) (81, 1.36626815515686839131e-01) (82, -1.81882076007830295605e-01) (83, 3.88577673973519652217e-02) (84, -1.00764016861363825406e-01) (85, -1.66425316446777576962e-01) (86, -5.35620046935570276458e-02) (87, -7.53527889611344398046e-02) (88, -9.56670835439024924707e-02) (89, 1.37409262246310989730e-02) (90, 1.01336800516945740869e-01) (91, -1.08387104649904045250e-01) (92, 3.00950210936797094008e-02) (93, 1.83423513148219613500e-01) (94, 2.00552330816688106907e-01) (95, 7.19236449351753626136e-02) (96, -2.32008738874808745356e-01) (97, -1.64269101066141093304e-01) (98, 9.90837292995728480260e-02) (99, -2.86514362461989191555e-01) (100, -5.82984985230298752984e-03) (101, 1.52021199469917333430e-02) (102, 2.16795579557210356392e-02) (103, -6.95473253726959228516e-02) (104, -1.05097275270857978824e-01) (105, 1.00096811672225491363e-01) (106, -1.27466242623092751440e-01) (107, 1.38972705326465884035e-01) (108, -7.48154245423364450129e-02) (109, -9.05591119350541290389e-02) (110, 6.74497310691730550536e-02) (111, -1.35970855290455855391e-01) (112, -1.23258796268319523182e-02) (113, 8.78539446677951002540e-02) (114, -1.18827577570437860344e-02) (115, 1.29382885650447754244e-01) (116, 1.64215325152908347972e-01) (117, 1.21478374751272724663e-02) (118, -2.90407376645877568500e-01) (119, -3.49041830250945844805e-02) (120, 1.50971111761386382610e-02) (121, -7.98481811170774352648e-02) (122, 1.84159647689984451620e-03) (123, -3.88861635791298426712e-02) (124, 8.00215378403663635254e-02) (125, 3.71716523504725532279e-02) (126, 2.74062021602912708751e-01) (127, -7.13847686535440117961e-02) (128, -1.63026319043548112431e-01) (129, 8.98224395528243596543e-02) (130, -6.23801419027631073866e-02) (131, 1.27361479739788452381e-01) (132, 9.32553627152027247993e-02) (133, 6.16193650829108610645e-02) (134, 4.29776391845039795747e-02) (135, 8.49272186317980432024e-02) (136, -3.96765823492477090473e-02) (137, -5.63221007957282956968e-02) (138, 1.15754229695355630864e-02) (139, -2.64717034444477306021e-01) (140, -2.38809381798617686998e-01) (141, -3.80910559973354680835e-03) (142, 8.40381130974598017369e-02) (143, 1.76404473778835162168e-02) (144, 1.82979795464024957985e-01) (145, -9.03579220175743103027e-02) (146, -2.36061376531932681777e-01) (147, -1.24477943287919584625e-01) (148, 9.89727609197493946036e-02) (149, -4.26301092056162511668e-01) (150, -1.13824508213220182418e-01) (151, 4.33877527228376191903e-01) (152, 9.52777014546330736078e-02) (153, -3.73558927242650551381e-01) (154, 2.22440461923417917567e-02) (155, -2.35049502916133343233e-02) (156, 1.65439975871365163584e-01) (157, -1.04502910386598577008e-01) (158, 1.30270019106195261704e-01) (159, -2.56687992161055908436e-02) (160, -3.21644335667142566848e-01) (161, -1.36485246628014533776e-01) (162, 4.08696442117644220815e-01) (163, -1.47330104151937091306e-01) (164, -1.67821344143214395972e-01) (165, 1.97659402209219653423e-01) (166, -8.67496877908706665039e-02) (167, 9.47606817632895039039e-03) (168, 5.34168816806786656004e-02) (169, -1.17849902940283787767e-01) (170, 2.34719857053305794303e-02) (171, -5.92798748674649017554e-02) (172, 6.07815062250336643479e-02) (173, 7.25083701868247249012e-02) (174, -1.43580320018629054024e-01) (175, 1.46627878565309316405e-01) (176, 6.85866247800151901393e-02) (177, -8.50037402669051068982e-03) (178, 1.95704407285857723275e-01) (179, -1.76018662970877037832e-01) (180, 8.74768142597937836680e-02) (181, -1.41956283669468275033e-01) (182, -1.71321925565145721793e-01) (183, -3.08563907151803040740e-01) (184, -9.97416353796678478716e-02) (185, 1.45275433228278877396e-01) (186, -1.17737980063719726437e-02) (187, 6.27829656004905700684e-02) (188, 2.58544953353824935594e-01) (189, 1.90051015614898566319e-01) (190, -1.56788411745082539861e-01) (191, 2.04730492762967897225e-01) (192, -5.71979831417256112669e-02) (193, -1.47973388841601913996e-02) (194, -1.20199473769057554873e-01) (195, 1.86907122578657373946e-02) (196, -8.42210450114263958765e-02) (197, 2.02321819539602126836e-01) (198, -1.57201700258028081308e-03) (199, 9.84991142571971373121e-02) (200, 1.11200271740944225951e-01) (201, 1.83309314663207933993e-01) (202, -3.78747629662578022547e-02) (203, -2.01760608521999562637e-01) (204, -2.20582815713977586913e-01) (205, -4.90682102621330731851e-02) (206, -1.36250514923474286277e-01) (207, 6.70249740606530253206e-02) (208, -5.42676895856857299805e-02) (209, 2.48819125363054172162e-01) (210, -4.98058830062370200276e-02) (211, 1.83524333525446975424e-01) (212, -2.30741182782712439536e-01) (213, -8.79595457420653537017e-02) (214, 1.16125219297058962509e-01) (215, -6.58838801971777104916e-02) (216, 2.03621111139271143697e-01) (217, -1.43873151193322917907e-01) (218, -7.32298499932892837938e-02) (219, -1.87170756132807869498e-01) (220, 7.01485561891689868297e-02) (221, -3.38882030299292175135e-02) (222, -6.80078570641874519120e-02) (223, 1.33258891854799027543e-03) (224, -3.74788114215109602334e-01) (225, 1.44609806846371119482e-01) (226, 1.10563675124164512154e-01) (227, -1.47731879882064265352e-01) (228, -9.13534186581805573990e-02) (229, -4.06505962420148497793e-02) (230, 7.13097233596432789060e-02) (231, -8.70093624668933224298e-02) (232, -9.81712809236488237463e-02) (233, -9.46871838815704358616e-02) (234, -2.75021494250541065352e-02) (235, -6.44558603727500567526e-02) (236, -4.72482756560179198435e-02) (237, 2.02578959776229146350e-02) (238, -1.13807959654102522351e-01) (239, 1.39290690751551950871e-02) (240, -3.08826043010466226579e-02) (241, -9.84391177579897330707e-02) (242, -1.95582407810629771427e-01) (243, 1.40115605521775626885e-01) (244, -7.81211336020020824522e-02) (245, 2.32815527304371716610e-01) (246, 5.86718161065668680765e-02) (247, -1.14679601479913295670e-01) (248, -1.87355169089368889246e-01) (249, -6.00260768414142761862e-02) (250, 4.77125308627983357734e-02) (251, 1.87219305573942257359e-02) (252, 8.96193970068416972952e-02) (253, 3.10831768792036167159e-01) (254, -8.80778578027622272018e-02) (255, -7.95785714610229427679e-02) (256, -7.37949211110648789491e-02) (257, -9.91362759955452810257e-02) (258, -1.96984797962387603310e-01) (259, -2.54271734473320409897e-01) (260, 2.69398737622019365801e-02) (261, -1.48298483849279016944e-01) (262, -3.63138709797192690831e-02) (263, 1.08037122115155117402e-02) (264, -2.47763868608575806018e-02) (265, 2.73895386493538339767e-01) (266, -1.48403233375772131142e-01) (267, 3.48742657474513884086e-01) (268, -1.37513147556888870593e-01) (269, -2.15182640574577199732e-01) (270, -3.29907197757539516481e-01) (271, 2.33183553763290307703e-01) (272, -9.59151660310490206118e-02) (273, 1.53447159281559553090e-01) (274, -2.45008698090172033490e-01) (275, 4.99511003851495632988e-02) (276, -1.76874002734286328575e-01) (277, 2.01343477600237824587e-01) (278, -1.08841740019790064742e-01) (279, -8.61135561164281387869e-02) (280, -1.58791661788972887637e-01) (281, 1.88077956245440797156e-01) (282, -5.33944442868232727051e-02) (283, -3.79447340965270996094e-02) (284, -2.96071721593198722289e-01) (285, -5.55045308638182008365e-02) (286, -2.64697126241649038914e-01) (287, -3.54691824412856515636e-01) (288, -6.13397178767900563834e-01) (289, -7.49769772088703101431e-02) (290, -2.35425943020524414129e-01) (291, 7.90946495510112673744e-02) (292, -2.87722659270824888955e-02) (293, -2.02226447574320400413e-01) (294, -2.60707935364668297318e-01) (295, 3.93790040561293880339e-02) (296, -2.18068607437608613653e-01) (297, 8.29634109661402802116e-03) (298, 1.78419991665147048554e-01) (299, -2.87176427567716219258e-01) (300, -1.62111411047121505014e-02) (301, -1.16424212117815797929e-01) (302, 1.47165796048948832597e-01) (303, 3.16792023109772447054e-01) (304, 1.70025500305137938772e-01) (305, 4.95627801993579752970e-02) (306, -2.38269145610114640998e-02) (307, 4.69939531057160589378e-02) (308, -3.68951844548118634837e-01) (309, -2.84819146511285578582e-02) (310, 2.35669150828617668392e-01) (311, -2.02703549650015829586e-01) (312, 5.74411367463271288480e-02) (313, 3.15290785473131482397e-02) (314, 5.60574159026145935059e-02) (315, -2.28448982634489122789e-01) (316, 1.45596014190293193691e-01) (317, -1.02972858107437989506e-01) (318, 2.56012887641151043461e-01) (319, 2.52382446487026054771e-02) (320, -1.64951015700251057972e-01) (321, -1.33078784676132266807e-01) (322, -1.68460437315771760503e-01) (323, 4.72494400257955499134e-02) (324, -8.35992521152100127348e-04) (325, 3.46859980448246951745e-02) (326, 3.07992441933512328678e-01) (327, -8.33509833660366766805e-03) (328, -2.39652991734343845387e-01) (329, -1.74223759393894533920e-01) (330, -4.56783825643719276766e-02) (331, -9.86300113279353629636e-02) (332, -2.65808772263142145675e-01) (333, -7.97600176262228677260e-02) (334, -1.00227717817537365086e-01) (335, 3.29466293917370298128e-02) (336, -2.23633892313025162135e-02) (337, -5.03091093339981670907e-02) (338, 1.93586420154909816249e-01) (339, -3.01553294923083033130e-02) (340, 3.17055084876048220988e-01) (341, -4.87245711327611782937e-02) (342, -2.10701608083843638930e-01) (343, -3.00205338998621118485e-01) (344, 1.84587432392504691148e-01) (345, 5.54548601401515170450e-02) (346, 1.50282450667210965012e-01) (347, -8.81244078121570378892e-02) (348, 1.76469409501520041461e-01) (349, -1.56841351011853036290e-01) (350, 1.24794182264240924307e-01) (351, -3.25948525743268505139e-02) (352, -2.11804530411566771519e-01) (353, -1.43775292267356330500e-01) (354, 2.63861767755034670735e-01) (355, 1.35666131973266601562e-03) (356, -7.78617858886718750000e-02) (357, 3.79099179330536772969e-02) (358, -4.58044852691550721802e-02) (359, -6.03935627670700303504e-02) (360, -1.60489996457873068669e-01) (361, -1.14469558082128913812e-01) (362, -1.23910107728216950518e-01) (363, -6.64250866358649799670e-02) (364, -6.40170069621773391022e-02) (365, -1.50445757291456146815e-02) (366, 7.86536783309367132366e-02) (367, 4.23330814837725305511e-02) (368, -9.16875059291868826916e-02) (369, -3.12733027817903630474e-01) (0, -2.68037250740483616596e-02) (1, 7.50590735119652519014e-02) (2, 8.48213004204913523232e-02) (3, 3.06696488250951092985e-03) (4, -2.87683368435573544319e-02) (5, -5.51068954600743357575e-02) (6, -4.26231264494540545984e-02) (7, -4.27140604646589275295e-02) (8, -4.99684458053117480647e-02) (9, -3.06551116809136436903e-02) (10, -3.43636213703701412503e-02) (11, -2.44612470276474522346e-02) (12, 5.73775821713321462769e-02) (13, 4.17469028738243132671e-04) (14, 7.18339276049307362548e-02) (15, 2.91143857020110460865e-02) (16, 8.09017157597001629332e-02) (17, -9.51597198570244551252e-02) (18, 2.51420337135800087136e-02) (19, -8.05564640549469301867e-03) (20, -4.33713766905948830410e-02) (21, -2.10625244122712674752e-03) (22, -5.94793882534162682285e-02) (23, -8.93388771588949082147e-02) (24, 6.48498622344991556415e-03) (25, -5.17210547012337817918e-02) (26, 7.19405833702036531102e-03) (27, -6.87340221579930878842e-03) (28, -5.70636834413975682634e-02) (29, 7.69735989326002373323e-02) (30, 4.23691826054536022084e-02) (31, -4.39719969831692952811e-03) (32, 3.43656316126228766894e-02) (33, 3.17787838214085502364e-02) (34, -1.25545910577089581128e-01) (35, -1.00768408163111097831e-01) (36, -8.21166171884092493949e-02) (37, -6.12370048853641685271e-02) (38, -5.64428071124695035499e-02) (39, -6.30787677877432395590e-02) (40, 4.21304903227843943053e-03) (41, 2.93714488907708959342e-02) (42, 5.31173571283313078473e-02) (43, -1.06970314253243235780e-02) (44, -8.69446170897152648127e-02) (45, 3.35125342246269247726e-02) (46, -6.87986491343463985038e-02) (47, -9.14579361142327657008e-02) (48, 2.28689427600538043583e-02) (49, 7.08797659307860150601e-02) (50, -6.61163984185525899911e-03) (51, 8.07425783035378569208e-02) (52, 4.66269745596829821022e-03) (53, 7.48956611348615408641e-02) (54, -5.32118219274783921247e-02) (55, -2.90548294598736468741e-02) (56, -2.54886180869945272454e-02) (57, -8.09174137574422275287e-02) (58, -9.95882212955645218511e-02) (59, 2.39479450098726426299e-02) (60, -8.36733862778388098880e-02) (61, 5.70556650680158344846e-02) (62, -6.11606445816705590612e-02) (63, 5.39983966404952372975e-02) (64, 2.24887491651715488994e-02) (65, -5.19827230664794831538e-02) (66, -1.07196826327006333734e-01) (67, 6.81554212554258131984e-02) (68, 9.71698187236693169955e-03) (69, -3.28053536755453165052e-02) (70, -6.85591565623233506477e-02) (71, -2.99187457483262170266e-02) (72, -1.06400667534224974142e-01) (73, -1.06332038002729042936e-01) (74, 5.18707965637547063764e-02) (75, -6.25486141864846634242e-02) (76, 3.77895568344999849275e-02) (77, -8.65833882313385705398e-02) (78, -1.94905867490144102394e-02) (79, -1.76553521016334716287e-02) (80, -1.02738081236252706829e-01) (81, 7.81879279453785713816e-02) (82, -1.92492119470670103309e-02) (83, 3.20963998905700736985e-02) (84, 6.75756224483181899831e-02) (85, 4.70483144465702121662e-02) (86, -9.37670175851275933265e-02) (87, -4.57217688858705534338e-02) (88, 8.95858904862232158228e-02) (89, -7.00238842599675004319e-02) (90, -1.07948921894995997217e-01) (91, -8.90808636134223508218e-02) (92, -7.57992468326482010665e-02) (93, -3.54815248754159554001e-02) (94, 9.09273865922581719934e-02) (95, 5.48457105465586583493e-02) (96, 2.74209780922319117102e-02) (97, 8.23778217141724333761e-02) (98, 2.32246669271185292305e-02) (99, -3.29708350235381891791e-02) (100, -4.80368244764725962903e-02) (101, 6.73628388132658240117e-02) (102, 3.51951369352009532654e-02) (103, -2.19104811549186706543e-02) (104, 6.54774535106994182154e-02) (105, 5.65822346315877130335e-03) (106, 3.92064133677080747797e-02) (107, 3.04501451415978077741e-02) (108, 4.28724223725646322314e-02) (109, -7.96487419316229128263e-02) (110, -6.88412576954951643815e-02) (111, 4.50020877581902012388e-02) (112, -9.20173075463139311658e-02) (113, 1.95960401752007032372e-02) (114, -1.40722619884701815457e-02) (115, 8.50139714981021088480e-02) (116, -2.26659027421751528564e-02) (117, -4.52516076444547336172e-03) (118, -3.91893208171637183468e-02) (119, -3.17737505081370566473e-02) (120, 3.36005536459444698050e-02) (121, -4.36676355111405081755e-02) (122, -3.79548576785984012605e-02) (123, 4.14393624562797158184e-02) (124, 2.36076489090919494629e-02) (125, -3.98728286243442697767e-02) (126, -1.02996306230751077243e-02) (127, -6.07867190414968436296e-02) (128, -4.76283366628039231405e-02) (129, -6.67137744364826729138e-02) (130, 6.57314621107516448839e-03) (131, 2.06879438018152568557e-02) (132, 8.79287223560169667325e-02) (133, -6.04437925119397159723e-02) (134, 9.88032109222340831911e-02) (135, 8.07469096168730721130e-02) (136, 4.47573227480013297042e-02) (137, 2.37960598004061732458e-02) (138, 4.41212701748985164363e-03) (139, -1.44861219250292019151e-02) (140, 5.33974962931225843876e-02) (141, 2.84204791043686268159e-02) (142, -7.26046620910465873022e-02) (143, 6.08568799724287720632e-02) (144, -5.60203752149779840575e-02) (145, 8.50655138492584228516e-03) (146, 4.19805686489162568908e-02) (147, 3.59593054650450966170e-02) (148, -9.33603765568123272756e-02) (149, -9.87071824002653114283e-02) (150, 9.35152278220645893914e-02) (151, 4.58535552692015888065e-02) (152, -4.04809165518162789033e-02) (153, -2.97907548968579169446e-02) (154, -7.72487651382700382663e-03) (155, 8.87179274589076360957e-02) (156, 4.30354285459403768099e-02) (157, 7.84393124613061293315e-02) (158, -7.41373405082536018895e-02) (159, 9.37763709394985878198e-02) (160, -8.71303448366109040135e-02) (161, 3.94703370836284039846e-02) (162, 5.83806163703354339539e-03) (163, -9.20654563050069679742e-02) (164, 8.17863280948064458320e-02) (165, -2.42989221066622872180e-03) (166, 8.33045616745948791504e-02) (167, 2.93355136263693354326e-02) (168, -7.12930071921026031756e-02) (169, -5.35837355338783863368e-03) (170, -8.85522559642631240662e-02) (171, 7.71706456320385980607e-02) (172, -6.88107210159833171392e-02) (173, -7.38802275493238291837e-02) (174, 3.06002929022998679254e-02) (175, -1.84020436989473755440e-02) (176, 3.95513140056280090850e-02) (177, -1.65577795563154432645e-02) (178, -1.06274231816171293996e-01) (179, 5.01580567503699184528e-02) (180, -9.82246187953422604522e-03) (181, -1.02719132054831893686e-01) (182, -6.75130634940099890601e-03) (183, 5.12135362112966438519e-02) (184, -2.67756487983943983200e-02) (185, 8.47254385116087832541e-02) (186, 5.70447724470817679743e-02) (187, -8.33966508507728576660e-02) (188, 5.54200695477425897550e-02) (189, 9.68285832630045306679e-02) (190, -8.34174175069269108196e-02) (191, 7.30683162093820615102e-02) (192, 3.82468351873650816430e-02) (193, 8.02755711682103141602e-03) (194, 7.71576179298709696752e-02) (195, 1.84699844878201749343e-02) (196, -8.44979495992473628174e-02) (197, 6.65721600992834894317e-02) (198, -5.61574980355407787913e-02) (199, -5.08864830474047916131e-02) (200, -4.09876788945714998214e-02) (201, -4.65958698194004067306e-02) (202, -7.23975445798924754914e-02) (203, -2.60467575867880142548e-02) (204, -7.13440623981408898052e-03) (205, 5.75718196868883133610e-02) (206, 6.01940790615053400447e-02) (207, -7.06226414909242455886e-02) (208, -4.96950633823871612549e-02) (209, 4.99983189016311377340e-02) (210, 8.82695523359118688900e-02) (211, 4.95275095810629381599e-02) (212, 6.55268070690566278858e-02) (213, -1.19132669863652278230e-02) (214, 3.30683703602878322630e-03) (215, -5.47281605523392625234e-02) (216, -4.55190527528425287196e-02) (217, -5.40568270539216882975e-02) (218, -4.02537316906990821908e-02) (219, -6.52258526460918197643e-02) (220, -6.19257662954481036266e-02) (221, -3.42728391530074533167e-02) (222, -9.30387209531622766390e-02) (223, 6.56078320241976903349e-02) (224, 9.55166127339182047251e-02) (225, 7.84681481961316540374e-02) (226, -6.38531917991301718740e-03) (227, -9.26792283423610863125e-02) (228, 5.87131457625925667898e-02) (229, 3.79934629061955547735e-02) (230, -5.31159632783063037631e-02) (231, -9.34334576284276130398e-02) (232, 9.29919088580150043910e-02) (233, -4.84374700750645967307e-02) (234, 6.24047377975305971737e-03) (235, -4.68877345684112212254e-02) (236, -6.50247530492996661522e-02) (237, -5.42014332011612962048e-02) (238, 1.13371079653198335302e-02) (239, -3.49698349909983510764e-02) (240, -6.70263601084569587973e-02) (241, -1.88847088589982545215e-02) (242, -7.50088104355468715534e-02) (243, 8.73516931287670744810e-02) (244, 7.84125121517792456061e-02) (245, 1.86930128238175126409e-02) (246, -5.96061684038070166425e-02) (247, -7.40425666679684624238e-02) (248, 7.88899516444366150081e-02) (249, -3.08639835804759635196e-02) (250, -3.04314824059993306593e-02) (251, -8.77220261872920514801e-02) (252, 7.40124209018688250517e-02) (253, -4.24457147433159390215e-02) (254, -1.02072866531170855509e-01) (255, 3.23393316521613724546e-02) (256, -3.15469368111282594258e-02) (257, -3.09520500358259481599e-02) (258, 5.98563018328794813061e-02) (259, -7.47962947693740776156e-02) (260, -6.51023112544360377241e-02) (261, -9.72294909468892076809e-02) (262, -3.57047418469331467872e-02) (263, -7.64034236830162527543e-02) (264, -1.19017804462302530938e-02) (265, 5.90297330909055409376e-02) (266, 4.11726646486554152815e-03) (267, 2.62695465902581838658e-02) (268, -6.04489385564259545935e-02) (269, -9.96632395843822932457e-02) (270, -9.60606519943703884845e-02) (271, -2.92023315351250534189e-02) (272, 2.61146829530161453392e-02) (273, -5.36980895857141343752e-02) (274, -2.92338548370576212232e-02) (275, -1.39518016472414164986e-02) (276, 8.98384241323204324470e-02) (277, 1.93523767347401065564e-02) (278, 6.42008879791086811695e-02) (279, 6.92706785788336221188e-02) (280, -8.21621510157096723859e-02) (281, -8.42637590729239382981e-02) (282, -8.84955301880836486816e-02) (283, -9.97316092252731323242e-02) (284, 2.05949015471482040074e-02) (285, -8.87788229620794511199e-02) (286, 6.43627338662548648118e-02) (287, 9.37945284041316329482e-02) (288, -7.05064386052990286179e-04) (289, 2.04687106690265782638e-02) (290, -7.22610105839620181500e-02) (291, 5.96072859025800275146e-02) (292, 3.44429135241372183507e-02) (293, -9.47290992965296209383e-03) (294, 7.36648668558612662594e-02) (295, -4.94867755460203576079e-02) (296, -1.73066979771663229104e-02) (297, -7.10357931520963839511e-03) (298, 7.83232319058538573042e-02) (299, 3.18067613573522062209e-02) (300, -7.00665826703865488728e-03) (301, -1.03821656471718676285e-01) (302, -9.59076209266650075991e-02) (303, -5.47468799433273797805e-02) (304, -5.13396549768824067561e-02) (305, -6.54520084236102743513e-03) (306, 5.51457103936821776968e-02) (307, -4.97438758648793000194e-02) (308, -9.91741010531665551087e-02) (309, 2.42668557080461255726e-02) (310, -7.16426606819375172419e-02) (311, -6.98474077395386805378e-02) (312, 6.23409887005638985169e-02) (313, -5.81829500115404879557e-02) (314, -6.90935552120208740234e-02) (315, -2.43770041811544151134e-02) (316, -5.51352404900213935446e-02) (317, 8.61197056456223242193e-02) (318, -3.65667364695087815374e-02) (319, 7.17663951371288744152e-02) (320, 3.91109605532899071156e-03) (321, 9.40912270356613483768e-03) (322, -5.72332555950372939835e-03) (323, -2.87436055258303742310e-02) (324, -9.21346921504649640777e-02) (325, 1.04913933368527938217e-02) (326, 5.07620005432428346610e-04) (327, 1.72634246749039303552e-03) (328, -1.29177528475295511079e-01) (329, 2.83068536602116400079e-04) (330, -9.14464803990000796308e-02) (331, 6.96040569611518569748e-03) (332, -2.15496679219731980884e-03) (333, -5.71252353796321554746e-02) (334, 4.23920797594874998460e-02) (335, 7.06227397209266971601e-02) (336, 2.43743290144528036711e-02) (337, 1.32486676376485663226e-02) (338, -9.58174343414055634804e-02) (339, 2.87471499330196507416e-02) (340, -6.20871308525368856279e-02) (341, -5.69040938694409387244e-02) (342, 3.86805789013703882340e-02) (343, -1.10533576167248653865e-01) (344, -2.03229605477115993217e-02) (345, 9.02032510444064489219e-02) (346, -1.75392075042052550393e-02) (347, 3.71585892370983605915e-02) (348, 5.78439673885761188044e-02) (349, 7.07375494699211404548e-02) (350, 1.71173813695967569348e-02) (351, 1.39503130327010629874e-02) (352, -1.93110250244394980601e-02) (353, -5.92564958104530928318e-02) (354, 6.71735309399136837349e-02) (355, 1.85101032257080078125e-02) (356, 5.96530213952064514160e-02) (357, 9.31098750422990235898e-03) (358, -8.89915555869923713406e-02) (359, 6.27324933507090731766e-02) (360, -9.96739356483685168264e-02) (361, -3.46026106747844286460e-02) (362, -5.18830359342624808372e-02) (363, 3.67129771557522521785e-02) (364, -1.02719159320293160903e-02) (365, -6.87173837930468572877e-02) (366, -1.02525189595410026050e-02) (367, -5.97059821327473663755e-02) (368, 3.48718187436804424872e-02) (369, -6.48913224122636862756e-03) (0, 1.07249002981613175689e-01) (1, -6.39512745486739420109e-02) (2, 5.46389480542789837680e-02) (3, 9.14487802547460371105e-02) (4, -1.11709722334660380150e-01) (5, -1.69509882990787258406e-01) (6, -3.94425959434646731389e-03) (7, 1.07994822549455082861e-01) (8, -4.06647366064864929092e-02) (9, 7.90728816141542806273e-02) (10, -8.59675777762472781429e-02) (11, -1.80376801776118735054e-02) (12, -1.05922449082940059450e-01) (13, 1.04982902331652722117e-01) (14, 5.56985360398500536916e-02) (15, -1.93054809168945212816e-01) (16, -6.44124502879964005997e-02) (17, 5.38674869118745403007e-02) (18, 5.74417101591257611704e-02) (19, 9.89009627879121888672e-02) (20, 1.22683993339772149517e-03) (21, 2.95694162496963446063e-03) (22, 5.72234677425638854631e-02) (23, 2.07332339245644356462e-02) (24, -1.51114493222608559098e-01) (25, -1.31583565761391435567e-01) (26, -2.52928828494114577019e-01) (27, -1.74419131968877122452e-01) (28, 8.32218428539483953688e-03) (29, 1.03558752428910258447e-01) (30, -3.12961140007046792477e-02) (31, -2.80525927490695610456e-02) (32, 1.96823853410516245999e-02) (33, 1.55724278665729243265e-02) (34, -1.24974480379728289381e-01) (35, 4.15036655567235235331e-02) (36, 9.60959227356612127879e-02) (37, 3.76409086361365954887e-02) (38, 3.87316697338002105186e-03) (39, -1.08838761551708851361e-01) (40, -3.10164596381273388603e-02) (41, 8.96806124991495340337e-02) (42, 5.41792646163994917607e-02) (43, 3.04193410102356022115e-03) (44, -1.90275464540385109979e-02) (45, 7.52247447919989625786e-02) (46, 2.26075374194233541525e-02) (47, -1.10753503646469714239e-01) (48, -7.81929853193732843364e-02) (49, 1.47959399272632168704e-02) (50, 5.16765482616396779059e-03) (51, 4.48214503292336183260e-02) (52, -6.41490271452562488275e-02) (53, 5.29923932279593445926e-02) (54, 6.11088217288960552920e-02) (55, -3.07786504996755590213e-02) (56, 8.44155338335081245615e-02) (57, 2.39781312014045282222e-02) (58, 4.94342976975603656808e-02) (59, -1.69702393542752634492e-02) (60, 5.00937474474923219447e-02) (61, -8.03395521365881716026e-04) (62, -1.51432448033112398988e-01) (63, -1.10257467988678320263e-03) (64, -1.19787626626103704819e-01) (65, -4.35004192201674314000e-02) (66, -4.17618279300351266659e-02) (67, -6.28008255005006454930e-02) (68, -8.30474019558787718287e-02) (69, 9.72023708915131928743e-02) (70, -7.31386115910041406663e-02) (71, 7.31003616263963401645e-02) (72, 6.64465392946387983786e-02) (73, 1.28745147269864301798e-01) (74, 1.00056559580752810201e-02) (75, 2.64882971798631461358e-03) (76, -5.59565559477528950971e-02) (77, -1.34372521697847968625e-01) (78, -3.93655532237285610275e-02) (79, 8.00341494598244690417e-02) (80, -5.00501057818243250130e-02) (81, 1.07557866884011268938e-01) (82, -3.05644915375392275947e-02) (83, 4.25602391736686069823e-02) (84, -3.87583745712613003676e-02) (85, -7.98656061141599649122e-02) (86, -4.84592075645471423440e-02) (87, -8.96085325756205419712e-02) (88, 7.62362008120674172762e-02) (89, -8.80587004310766918724e-02) (90, 4.09862638474510487807e-02) (91, 9.56511379020770838300e-03) (92, 6.65554916092158527219e-02) (93, -1.02256621309764636485e-01) (94, -8.64448992626889040070e-02) (95, 7.37064777996061654131e-02) (96, -6.30288501889619909996e-03) (97, -1.93399018169437310333e-02) (98, 5.90575465881606961882e-02) (99, 6.23778724025476766224e-02) (100, -4.25028943943091264135e-02) (101, 5.56508527623587184729e-02) (102, -2.63850068432740676727e-02) (103, -6.72136992216110229492e-02) (104, 2.09367088926060637699e-02) (105, -2.34854482408571041407e-02) (106, 2.78835689171600502323e-02) (107, -1.01743788165137044599e-01) (108, -5.01888602391314681689e-03) (109, 8.78769929333490795731e-02) (110, 4.21358556532592590238e-02) (111, 1.46413988010971135578e-01) (112, 7.06572424244150676387e-02) (113, 5.21286325606411943268e-02) (114, -3.72054269771631210273e-02) (115, -5.41975832387147707370e-02) (116, 4.35943094688174340168e-02) (117, 6.74889698518531672145e-02) (118, 4.20561307943387585606e-02) (119, 7.14518014649348606922e-04) (120, 1.63681714699393049406e-01) (121, 4.25762352955791623099e-02) (122, -8.09998887624248375960e-02) (123, -2.43087076232338036852e-02) (124, 3.98703143000602722168e-02) (125, -3.58766181376348053389e-02) (126, -8.19636328892313775762e-02) (127, -9.16057765924385841716e-02) (128, 1.08868031377210433552e-01) (129, 1.35037240503898203769e-01) (130, 2.60708999130784511988e-02) (131, -1.61439923105100927025e-02) (132, 1.15630061049179833077e-01) (133, 6.71034175186413645031e-02) (134, 9.69848776591522229729e-03) (135, 4.32957179774418957074e-02) (136, -2.88297151892168666831e-03) (137, 8.64275399384921150236e-02) (138, 6.00394508195784756821e-02) (139, -5.04089130572797639029e-02) (140, 1.00834176920271037514e-01) (141, -4.18651852534861201871e-02) (142, -7.04827346746521032905e-02) (143, 3.55531315208978196396e-02) (144, -1.49321652424994344432e-01) (145, 3.48610207438468933105e-02) (146, 7.10995607464732642944e-02) (147, 4.07767826130614463587e-02) (148, 5.09628844485072937665e-02) (149, -1.42025871757037042142e-02) (150, -2.20976286758893594731e-02) (151, -1.22065254282408067188e-02) (152, -4.90022147129727941861e-02) (153, -6.35232386479289840020e-02) (154, -1.02910161868032243304e-01) (155, 1.01066345942083024578e-01) (156, 1.05987880674640239098e-01) (157, -4.59607054136234385866e-02) (158, -1.10750467015399159387e-01) (159, 6.84622634679931396651e-02) (160, -6.17847801258655168755e-02) (161, 7.70785839169181863362e-02) (162, -1.26157187908012363708e-01) (163, -6.84716836924158939182e-02) (164, 4.72983045736252716296e-02) (165, 2.50829455892698539865e-02) (166, 2.42259949445724487305e-02) (167, 8.86996075548788370790e-03) (168, -4.41498705040461042470e-02) (169, 1.66392293559773155054e-02) (170, -3.79880484919420651629e-03) (171, -1.70049105415780929529e-02) (172, 1.44661301515292467501e-01) (173, -1.42008446284352558842e-02) (174, -1.30353946158679318001e-01) (175, -9.00252043031111448546e-02) (176, -5.85948263928503590425e-02) (177, -7.96266166435205396956e-02) (178, -1.37543079504526544188e-02) (179, 6.13528235776228531018e-02) (180, 3.72430902988503398365e-02) (181, -1.02507416782710858438e-01) (182, -6.02997007882579011406e-02) (183, 9.89138742149785477054e-02) (184, -1.04814641720398261937e-02) (185, -5.39772535989058513395e-02) (186, 1.28201833234683898466e-01) (187, -1.62959545850753784180e-02) (188, 9.68702273824492482088e-04) (189, 1.06718306913036145578e-01) (190, -9.20858575658896200133e-02) (191, 6.42543691758174079220e-02) (192, 8.49584035388134539701e-02) (193, -1.09318012503713549166e-01) (194, 3.91919232170768044865e-02) (195, -2.78960162366838418380e-02) (196, 1.33285584358784573583e-02) (197, 7.09233620696837901987e-02) (198, 5.15627912124686921258e-02) (199, -7.23451396617767195085e-02) (200, 6.81261289151481319593e-02) (201, -5.58584708259503119610e-03) (202, 1.42612448365303143803e-03) (203, 6.61263913509448769679e-02) (204, 1.36502556394384244598e-01) (205, -4.76147211152017912905e-02) (206, 1.21872695426975902189e-01) (207, -7.83063872367306956779e-02) (208, 3.81419807672500610352e-03) (209, -1.10326933920134734324e-02) (210, 1.02128208355075036917e-01) (211, -5.18725654886543693922e-02) (212, 4.63783522319809668466e-02) (213, -5.36626649951800413496e-02) (214, -1.22232167363954966066e-01) (215, -1.17628766316446947693e-01) (216, 3.62394619933983155868e-02) (217, -1.50114822168025047189e-01) (218, 6.53808406063790658463e-03) (219, 4.11185197852631592608e-02) (220, 1.10379835276290624857e-01) (221, 1.04968643792114520175e-02) (222, -5.26657508950863287311e-02) (223, 2.85155705819064506090e-02) (224, 1.12085296302897569065e-01) (225, -9.07730524019594586793e-02) (226, -8.34020041170795006780e-02) (227, -1.50321441259690172232e-02) (228, 3.49064141735355090712e-02) (229, -6.87772709221964040349e-02) (230, 1.61857594612855003324e-02) (231, -1.09648348306728062734e-02) (232, 7.58852527990283836495e-03) (233, -1.05967177372554996473e-01) (234, -2.22714004516955839386e-02) (235, -4.63669693917937511540e-02) (236, 1.39156914106563500688e-02) (237, -9.66124767791524535765e-02) (238, -3.83876064165718320492e-04) (239, -1.26764724625830660365e-01) (240, 4.35952850571086278353e-02) (241, -2.74413619760573747330e-02) (242, -6.77164440692851199444e-02) (243, -4.34839286275961883765e-02) (244, 4.87722671104246080498e-02) (245, -1.41563417084128815443e-02) (246, -1.18720278377876398840e-02) (247, -1.01094197879727953904e-01) (248, -3.22347932401268813529e-02) (249, -7.17246207351802684410e-03) (250, 5.87535633391951944704e-02) (251, -5.36633083301265023657e-02) (252, 3.87740811586665262700e-02) (253, 5.31644860455797313437e-02) (254, -9.11782503703414681784e-02) (255, -5.49051300204021902607e-02) (256, 6.94529792012851948657e-02) (257, -1.81561246041779367211e-01) (258, 6.37327758973695729372e-02) (259, -4.55704257158770012492e-02) (260, -1.29032623165385006841e-02) (261, 1.33671548797882813048e-02) (262, -8.79326317830808890097e-02) (263, 1.05682257777397578535e-01) (264, 2.53177493828971658663e-02) (265, -5.23917824767497347649e-02) (266, -4.50492966586614473901e-02) (267, -5.09459075258718793733e-02) (268, -7.83152194860324384063e-03) (269, 7.38532526654219617646e-02) (270, -1.16769981929098362605e-01) (271, -2.65981251999739508329e-02) (272, -3.51509394079434697722e-02) (273, -4.50992179889883534893e-02) (274, -1.42331133230910178433e-02) (275, -1.62347315675475695196e-01) (276, 7.68754465737392506108e-02) (277, 1.41234889698754917386e-01) (278, 7.06641635236142807291e-03) (279, 8.03812515525979993936e-03) (280, 6.02419116685534092315e-02) (281, -5.39737331434230957483e-02) (282, 2.37292647361755371094e-02) (283, 1.12128406763076782227e-02) (284, -7.09600265525758000518e-02) (285, 5.21346028658612389850e-02) (286, -1.22220288727919776384e-01) (287, 1.18712522905322741262e-02) (288, 1.29338844392931015537e-02) (289, -2.02212678292235464861e-01) (290, 3.09237389047868592440e-02) (291, 1.24088499151377412016e-02) (292, -4.58111707108894358753e-02) (293, 1.01490240644119461555e-01) (294, -1.21988405555920696038e-02) (295, -2.95090314634650352499e-02) (296, -5.67634757656022212458e-02) (297, 3.15152347865915657965e-02) (298, -1.30104758499899886282e-02) (299, 1.04253338420129307296e-01) (300, -7.06951549909606985489e-02) (301, -2.42301096967843668586e-03) (302, -1.17747628825401254304e-01) (303, 1.15141665819934999049e-01) (304, -4.56206785356789781827e-02) (305, 4.51049257574666490056e-02) (306, -1.17069903859226803755e-01) (307, -6.47139618955877710116e-02) (308, -2.52555113049247742518e-02) (309, 4.52353142468926230912e-02) (310, 1.16374843065610057702e-02) (311, -2.25279084925697134500e-02) (312, 6.40769942230468569910e-02) (313, -1.03311083162017869341e-01) (314, -8.83094221353530883789e-02) (315, -1.17169542396202391865e-01) (316, 3.53435270122345185362e-02) (317, -8.12037596034384523414e-02) (318, -5.19157165355622826630e-02) (319, 3.46537634496358326608e-02) (320, -1.64005365620547127747e-01) (321, 8.47775585111860130461e-02) (322, -1.87705655125339071487e-01) (323, 4.88002731151226387674e-02) (324, 4.26494753283767624730e-02) (325, -7.36476422545271052628e-03) (326, 5.36098817536625193991e-02) (327, -8.67117688635169747702e-02) (328, -1.28727576187881026515e-01) (329, -6.18497574982948480904e-02) (330, -6.59275683505590737177e-02) (331, 9.54339191374943725255e-03) (332, -1.60825707045041926824e-01) (333, 8.98051295286819151187e-02) (334, 2.66517487003611504293e-02) (335, -5.71366738899479267855e-02) (336, 3.45189834296205852460e-02) (337, 3.65096688288936502276e-02) (338, -6.32576198123415145425e-02) (339, -7.98039603644965511720e-02) (340, -3.57386504040766786461e-02) (341, 2.62317427789887612499e-02) (342, 3.17763669651968325147e-02) (343, -1.48982123830352891636e-01) (344, 6.65736613169295582404e-02) (345, 3.99428887337466356766e-02) (346, -1.26764458217155318032e-01) (347, -4.22338778718630708520e-02) (348, -1.72294963662515294989e-02) (349, -4.25491610310053600119e-02) (350, -4.02400865428263199153e-02) (351, 8.92730530196127608500e-02) (352, 5.62587675242568353157e-03) (353, -1.01766247194034986645e-01) (354, 1.82796356514968796891e-02) (355, -8.23701992630958557129e-02) (356, 3.06582450866699218750e-03) (357, 2.80792907512330538675e-03) (358, -7.47508944486553333908e-02) (359, 3.34914596523258958904e-02) (360, 5.83742500132583969075e-02) (361, -7.79378620386384779462e-02) (362, -6.19212186784435861253e-02) (363, 8.50344261876326418248e-02) (364, 6.99535598624452942262e-02) (365, 8.64690469714480963725e-02) (366, -1.12937288953550346582e-01) (367, 1.79091923823767665280e-02) (368, 1.20510663267034880825e-02) (369, -5.74029372877004617770e-02) (0, 4.68029714909262636868e-02) (1, 8.61550383990182661043e-02) (2, -6.10163724220660341757e-02) (3, -1.56057171355915604016e-02) (4, -9.21504709912378677794e-02) (5, 8.36125716558121928612e-02) (6, -7.23325548274633411960e-02) (7, -7.02260292284856701972e-02) (8, -2.86765027281790929603e-02) (9, 9.74411163759179715926e-02) (10, -1.42218083743341720121e-02) (11, -2.40996066894971459893e-02) (12, 8.30911388763560798676e-02) (13, 4.44666027745140857164e-02) (14, -1.15539554296604975864e-03) (15, 4.36031845785777184138e-03) (16, 5.93435244820321103343e-02) (17, -9.48543504349318306046e-02) (18, -8.26488652772705140181e-02) (19, 9.36253462162169869387e-02) (20, 3.08072681039339400788e-02) (21, 3.97137994511326600233e-02) (22, -1.58977308181531828968e-01) (23, 1.69104405622607298354e-02) (24, -1.10270508749973350504e-02) (25, -1.77838839148888067099e-01) (26, 4.10252944888183854188e-02) (27, -1.20692529950482393963e-01) (28, -1.14959845205313011124e-02) (29, -8.69350941704646711095e-03) (30, -5.17777831551746656191e-02) (31, -7.41115914667412889472e-02) (32, -2.88269637304289089164e-02) (33, -3.15846164105468719258e-03) (34, 2.02853913168813820844e-02) (35, -1.70820023806851420400e-02) (36, -9.17520155011912995346e-03) (37, 3.49689640291483763712e-02) (38, 4.73008648298075227989e-03) (39, -1.39154045914939239470e-01) (40, 4.00102196738619103611e-02) (41, -7.00886138673830344503e-02) (42, -4.21238667424356991176e-02) (43, 4.87390031945334895047e-02) (44, 2.52754999718365035155e-02) (45, 5.44029281924076069110e-02) (46, -4.34049893269282949237e-02) (47, 2.00462047620215515209e-02) (48, 8.12094680247985867272e-02) (49, -1.45875623862291373123e-02) (50, 3.25586716436748330183e-02) (51, 1.10140741424029145468e-02) (52, -2.20943703378281147698e-02) (53, 3.60043640044429708036e-02) (54, 5.85302610807460210740e-03) (55, -5.06317479524830971194e-02) (56, 3.19429524000798201189e-02) (57, -1.76829819388431251637e-02) (58, -5.21863105786444375633e-02) (59, -5.32012269460217027128e-02) (60, -9.08889017021035500177e-02) (61, 5.64213242427278396929e-02) (62, 1.49791850525801580052e-02) (63, 2.87113608716722465419e-02) (64, -5.71161881927469486375e-03) (65, -3.12213349697990777409e-02) (66, -5.54920297645966065225e-02) (67, -7.22979740272472054530e-02) (68, -3.91693635346752055959e-02) (69, -9.48925335287092025505e-02) (70, -6.09377829331688783410e-02) (71, -4.62905328822372785780e-02) (72, -7.64417347359944571172e-02) (73, 2.46703181944528358860e-02) (74, -7.80217410260651972331e-02) (75, -6.03205173013254200565e-02) (76, 3.57162762118038660392e-03) (77, 4.36258515291492419974e-03) (78, -1.24761383169195924636e-01) (79, -2.21468765385384857430e-03) (80, -9.62407989678499553587e-02) (81, 2.40788742804392830177e-02) (82, -9.00469251073331145019e-02) (83, 2.38173337366269950721e-02) (84, -4.87813687212995412273e-03) (85, 6.46102048538676476674e-02) (86, -9.62246005782513014193e-02) (87, -4.19122723347837358721e-02) (88, -2.99308224783690866866e-02) (89, -2.79244260055649916319e-02) (90, 2.12734070374958166016e-02) (91, 2.70812749714529829581e-03) (92, -4.10526224064235098488e-02) (93, -4.93561297723351111166e-02) (94, -6.55785937755406639349e-02) (95, 7.74870216788680898912e-02) (96, 5.91485740249419536529e-02) (97, 1.73323073413608093329e-02) (98, -6.62233212787367298002e-02) (99, -6.10320667173876799105e-02) (100, 3.23792782103712387110e-02) (101, -6.64356477539178660874e-03) (102, 1.04681854757930625777e-02) (103, 9.85932275652885437012e-02) (104, -6.78686775031217548459e-02) (105, 5.38512495510049607472e-02) (106, -5.26505941337844299288e-02) (107, 5.25990301236641255578e-02) (108, -6.16537119528113609912e-03) (109, -3.94609151213380637824e-02) (110, -3.24757013442401459846e-02) (111, 2.00794085990720211354e-02) (112, -8.89662410731177910606e-02) (113, 2.14010210371862533152e-02) (114, -7.09476750443859965900e-02) (115, 3.36769069985543706425e-03) (116, -3.60045354819268845215e-02) (117, -5.28717002537730171308e-02) (118, 6.08957462550274788993e-02) (119, 3.48780225149488282144e-02) (120, 2.62802733112778817703e-02) (121, -1.65311146931707807217e-02) (122, -5.58067810649500797848e-02) (123, 8.24248133980524377851e-02) (124, 4.70848605036735534668e-02) (125, -1.02177463967020598634e-02) (126, 6.06231138301796049217e-02) (127, -2.38525824989004611937e-04) (128, -9.48755273793621262124e-02) (129, -9.30921105851479080417e-02) (130, 4.20706900501288810768e-02) (131, 3.43791560282881297761e-02) (132, -1.59333668548218153511e-03) (133, -4.55813384209312263962e-02) (134, 4.39113164506146277932e-02) (135, 1.84277121391999802735e-02) (136, -9.42814855551493274932e-02) (137, 8.82787869817497627967e-02) (138, -1.92129392956363227729e-02) (139, -8.61020627532631255274e-03) (140, -4.38554559930157961123e-02) (141, 5.59772837223793326422e-02) (142, -8.54200623572364536873e-02) (143, -3.98427074695916205727e-02) (144, -3.20752332170207293816e-02) (145, -4.01815436780452728271e-02) (146, 4.82697212359053801078e-02) (147, 6.01183868559389406050e-02) (148, 3.30603522590972118828e-03) (149, 4.17468861674234886783e-02) (150, 2.71178313858772782746e-03) (151, -8.95680482636533881191e-02) (152, -9.61000313380488829784e-02) (153, 5.20933272338957031877e-02) (154, -6.98336900204836047434e-02) (155, 4.57289234270726388520e-02) (156, -7.90112224109011523909e-02) (157, 7.24044872379531745388e-02) (158, -4.06361958154506860974e-02) (159, -6.23018628144105246491e-02) (160, 8.85389377783927511434e-02) (161, -9.78143374184306940711e-02) (162, 6.07335769430504476829e-02) (163, -2.26901809205663605598e-04) (164, -1.83713625458228960174e-02) (165, -3.46099159100297451845e-05) (166, -8.51712599396705627441e-02) (167, -2.33152785244749548299e-02) (168, 5.78526386090974335807e-03) (169, -1.87062676842758373284e-03) (170, 6.96928595690837898724e-02) (171, 6.10574522152234136496e-02) (172, -3.92144927975704923884e-02) (173, 7.26876163939612074394e-02) (174, -8.06564869227569675170e-02) (175, 3.33061240672381728145e-02) (176, -5.02326315317067756405e-02) (177, 7.94462973056924426363e-02) (178, -2.85178457010509395220e-02) (179, 6.07988144175171663086e-02) (180, 1.36621370312979602962e-02) (181, 7.03220972732831323126e-02) (182, 8.64664769800822657908e-02) (183, 3.25581689880689098548e-02) (184, 6.19620391623359675903e-03) (185, -8.47850635592077989111e-02) (186, -1.42213291647727939349e-02) (187, 3.28514948487281799316e-02) (188, -9.87537786986664584132e-02) (189, 5.30136302676294871028e-02) (190, 6.25782903726038730596e-02) (191, 8.40821600532525165184e-02) (192, 7.26103635678570502598e-02) (193, 4.02733406463833473743e-02) (194, -2.24614772429562493949e-02) (195, -6.73266941782102446012e-02) (196, -4.02371015558858555194e-02) (197, -5.84146169841832669373e-03) (198, -4.41971182032048146016e-03) (199, 6.53260652180328443839e-02) (200, 1.01556818368314233370e-01) (201, -1.56855627326126338683e-02) (202, 2.25417202891736584425e-02) (203, -3.51970655189516035133e-02) (204, -1.88950228116963082903e-02) (205, 5.13050304744908716725e-02) (206, 9.88658656820628062301e-02) (207, 2.54143678792771374186e-02) (208, 3.46195772290229797363e-02) (209, -2.98841750820045271020e-02) (210, -1.60307150811823152792e-02) (211, -5.12786585333190048086e-02) (212, -6.70823787405184918109e-02) (213, -1.18690232863101832739e-02) (214, 7.00209835112832329473e-02) (215, 4.01974977497546528959e-02) (216, -5.86467276297691908482e-03) (217, -2.94286225950651271488e-02) (218, -1.99564322320278618450e-02) (219, -8.38763920958231559699e-03) (220, -8.06356699751410305188e-02) (221, -4.23300766046878079729e-02) (222, -1.19349737569490986500e-02) (223, 9.36241301500067152341e-02) (224, 1.00552680813315711839e-01) (225, 7.46455492852039353968e-02) (226, -7.13072346603056406167e-02) (227, -3.79597079979786464210e-02) (228, -2.67897463032487417878e-02) (229, 4.24394271527530550503e-02) (230, 