FANN_FLO_2.1
num_layers=3
learning_rate=0.010000
connection_rate=1.000000
network_type=0
learning_momentum=0.300000
training_algorithm=0
train_error_function=0
train_stop_function=0
cascade_output_change_fraction=0.010000
quickprop_decay=-0.000100
quickprop_mu=1.750000
rprop_increase_factor=1.200000
rprop_decrease_factor=0.500000
rprop_delta_min=0.000000
rprop_delta_max=50.000000
rprop_delta_zero=0.100000
cascade_output_stagnation_epochs=12
cascade_candidate_change_fraction=0.010000
cascade_candidate_stagnation_epochs=12
cascade_max_out_epochs=150
cascade_max_cand_epochs=150
cascade_num_candidate_groups=2
bit_fail_limit=3.49999999999999977796e-01
cascade_candidate_limit=1.00000000000000000000e+03
cascade_weight_multiplier=4.00000000000000022204e-01
cascade_activation_functions_count=10
cascade_activation_functions=3 5 7 8 10 11 14 15 16 17 
cascade_activation_steepnesses_count=4
cascade_activation_steepnesses=2.50000000000000000000e-01 5.00000000000000000000e-01 7.50000000000000000000e-01 1.00000000000000000000e+00 
layer_sizes=831 26 3 
scale_included=0
neurons (num_inputs, activation_function, activation_steepness)=(0, 0, 0.00000000000000000000e+00) (0, 0, 0.00000000000000000000e+00) (0, 0, 0.00000000000000000000e+00) (0, 0, 0.00000000000000000000e+00) (0, 0, 0.00000000000000000000e+00) (0, 0, 0.00000000000000000000e+00) (0, 0, 0.00000000000000000000e+00) (0, 0, 0.00000000000000000000e+00) (0, 0, 0.00000000000000000000e+00) (0, 0, 0.00000000000000000000e+00) (0, 0, 0.00000000000000000000e+00) (0, 0, 0.00000000000000000000e+00) (0, 0, 0.00000000000000000000e+00) (0, 0, 0.00000000000000000000e+00) (0, 0, 0.00000000000000000000e+00) (0, 0, 0.00000000000000000000e+00) (0, 0, 0.00000000000000000000e+00) (0, 0, 0.00000000000000000000e+00) (0, 0, 0.00000000000000000000e+00) (0, 0, 0.00000000000000000000e+00) (0, 0, 0.00000000000000000000e+00) (0, 0, 0.00000000000000000000e+00) (0, 0, 0.00000000000000000000e+00) (0, 0, 0.00000000000000000000e+00) (0, 0, 0.00000000000000000000e+00) (0, 0, 0.00000000000000000000e+00) (0, 0, 0.00000000000000000000e+00) (0, 0, 0.00000000000000000000e+00) (0, 0, 0.00000000000000000000e+00) (0, 0, 0.00000000000000000000e+00) (0, 0, 0.00000000000000000000e+00) (0, 0, 0.00000000000000000000e+00) (0, 0, 0.00000000000000000000e+00) (0, 0, 0.00000000000000000000e+00) (0, 0, 0.00000000000000000000e+00) (0, 0, 0.00000000000000000000e+00) (0, 0, 0.00000000000000000000e+00) (0, 0, 0.00000000000000000000e+00) (0, 0, 0.00000000000000000000e+00) (0, 0, 0.00000000000000000000e+00) (0, 0, 0.00000000000000000000e+00) (0, 0, 0.00000000000000000000e+00) (0, 0, 0.00000000000000000000e+00) (0, 0, 0.00000000000000000000e+00) (0, 0, 0.00000000000000000000e+00) (0, 0, 0.00000000000000000000e+00) (0, 0, 0.00000000000000000000e+00) (0, 0, 0.00000000000000000000e+00) (0, 0, 0.00000000000000000000e+00) (0, 0, 0.00000000000000000000e+00) (0, 0, 0.00000000000000000000e+00) (0, 0, 0.00000000000000000000e+00) (0, 0, 0.00000000000000000000e+00) (0, 0, 0.00000000000000000000e+00) (0, 0, 0.00000000000000000000e+00) (0, 0, 0.00000000000000000000e+00) (0, 0, 0.00000000000000000000e+00) (0, 0, 0.00000000000000000000e+00) (0, 0, 0.00000000000000000000e+00) (0, 0, 0.00000000000000000000e+00) (0, 0, 0.00000000000000000000e+00) (0, 0, 0.00000000000000000000e+00) (0, 0, 0.00000000000000000000e+00) (0, 0, 0.00000000000000000000e+00) (0, 0, 0.00000000000000000000e+00) (0, 0, 0.00000000000000000000e+00) (0, 0, 0.00000000000000000000e+00) (0, 0, 0.00000000000000000000e+00) (0, 0, 0.00000000000000000000e+00) (0, 0, 0.00000000000000000000e+00) (0, 0, 0.00000000000000000000e+00) (0, 0, 0.00000000000000000000e+00) (0, 0, 0.00000000000000000000e+00) (0, 0, 0.00000000000000000000e+00) (0, 0, 0.00000000000000000000e+00) (0, 0, 0.00000000000000000000e+00) (0, 0, 0.00000000000000000000e+00) (0, 0, 0.00000000000000000000e+00) (0, 0, 0.00000000000000000000e+00) (0, 0, 0.00000000000000000000e+00) (0, 0, 0.00000000000000000000e+00) (0, 0, 0.00000000000000000000e+00) (0, 0, 0.00000000000000000000e+00) (0, 0, 0.00000000000000000000e+00) (0, 0, 0.00000000000000000000e+00) (0, 0, 0.00000000000000000000e+00) (0, 0, 0.00000000000000000000e+00) (0, 0, 0.00000000000000000000e+00) (0, 0, 0.00000000000000000000e+00) (0, 0, 0.00000000000000000000e+00) (0, 0, 0.00000000000000000000e+00) (0, 0, 0.00000000000000000000e+00) (0, 0, 0.00000000000000000000e+00) (0, 0, 0.00000000000000000000e+00) (0, 0, 0.00000000000000000000e+00) (0, 0, 0.00000000000000000000e+00) (0, 0, 0.00000000000000000000e+00) (0, 0, 0.00000000000000000000e+00) (0, 0, 0.00000000000000000000e+00) (0, 0, 0.00000000000000000000e+00) (0, 0, 0.00000000000000000000e+00) (0, 0, 0.00000000000000000000e+00) (0, 0, 0.00000000000000000000e+00) (0, 0, 0.00000000000000000000e+00) (0, 0, 0.00000000000000000000e+00) (0, 0, 0.00000000000000000000e+00) (0, 0, 0.00000000000000000000e+00) (0, 0, 0.00000000000000000000e+00) (0, 0, 0.00000000000000000000e+00) (0, 0, 0.00000000000000000000e+00) (0, 0, 0.00000000000000000000e+00) (0, 0, 0.00000000000000000000e+00) (0, 0, 0.00000000000000000000e+00) (0, 0, 0.00000000000000000000e+00) (0, 0, 0.00000000000000000000e+00) (0, 0, 0.00000000000000000000e+00) (0, 0, 0.00000000000000000000e+00) (0, 0, 0.00000000000000000000e+00) (0, 0, 0.00000000000000000000e+00) (0, 0, 0.00000000000000000000e+00) (0, 0, 0.00000000000000000000e+00) (0, 0, 0.00000000000000000000e+00) (0, 0, 0.00000000000000000000e+00) (0, 0, 0.00000000000000000000e+00) (0, 0, 0.00000000000000000000e+00) (0, 0, 0.00000000000000000000e+00) (0, 0, 0.00000000000000000000e+00) (0, 0, 0.00000000000000000000e+00) (0, 0, 0.00000000000000000000e+00) (0, 0, 0.00000000000000000000e+00) (0, 0, 0.00000000000000000000e+00) (0, 0, 0.00000000000000000000e+00) (0, 0, 0.00000000000000000000e+00) (0, 0, 0.00000000000000000000e+00) (0, 0, 0.00000000000000000000e+00) (0, 0, 0.00000000000000000000e+00) (0, 0, 0.00000000000000000000e+00) (0, 0, 0.00000000000000000000e+00) (0, 0, 0.00000000000000000000e+00) (0, 0, 0.00000000000000000000e+00) (0, 0, 0.00000000000000000000e+00) (0, 0, 0.00000000000000000000e+00) (0, 0, 0.00000000000000000000e+00) (0, 0, 0.00000000000000000000e+00) (0, 0, 0.00000000000000000000e+00) (0, 0, 0.00000000000000000000e+00) (0, 0, 0.00000000000000000000e+00) (0, 0, 0.00000000000000000000e+00) (0, 0, 0.00000000000000000000e+00) (0, 0, 0.00000000000000000000e+00) (0, 0, 0.00000000000000000000e+00) (0, 0, 0.00000000000000000000e+00) (0, 0, 0.00000000000000000000e+00) (0, 0, 0.00000000000000000000e+00) (0, 0, 0.00000000000000000000e+00) (0, 0, 0.00000000000000000000e+00) (0, 0, 0.00000000000000000000e+00) (0, 0, 0.00000000000000000000e+00) (0, 0, 0.00000000000000000000e+00) (0, 0, 0.00000000000000000000e+00) (0, 0, 0.00000000000000000000e+00) (0, 0, 0.00000000000000000000e+00) (0, 0, 0.00000000000000000000e+00) (0, 0, 0.00000000000000000000e+00) (0, 0, 0.00000000000000000000e+00) (0, 0, 0.00000000000000000000e+00) (0, 0, 0.00000000000000000000e+00) (0, 0, 0.00000000000000000000e+00) (0, 0, 0.00000000000000000000e+00) (0, 0, 0.00000000000000000000e+00) (0, 0, 0.00000000000000000000e+00) (0, 0, 0.00000000000000000000e+00) (0, 0, 0.00000000000000000000e+00) (0, 0, 0.00000000000000000000e+00) (0, 0, 0.00000000000000000000e+00) (0, 0, 0.00000000000000000000e+00) (0, 0, 0.00000000000000000000e+00) (0, 0, 0.00000000000000000000e+00) (0, 0, 0.00000000000000000000e+00) (0, 0, 0.00000000000000000000e+00) (0, 0, 0.00000000000000000000e+00) (0, 0, 0.00000000000000000000e+00) (0, 0, 0.00000000000000000000e+00) (0, 0, 0.00000000000000000000e+00) (0, 0, 0.00000000000000000000e+00) (0, 0, 0.00000000000000000000e+00) (0, 0, 0.00000000000000000000e+00) (0, 0, 0.00000000000000000000e+00) (0, 0, 0.00000000000000000000e+00) (0, 0, 0.00000000000000000000e+00) (0, 0, 0.00000000000000000000e+00) (0, 0, 0.00000000000000000000e+00) (0, 0, 0.00000000000000000000e+00) (0, 0, 0.00000000000000000000e+00) (0, 0, 0.00000000000000000000e+00) (0, 0, 0.00000000000000000000e+00) (0, 0, 0.00000000000000000000e+00) (0, 0, 0.00000000000000000000e+00) (0, 0, 0.00000000000000000000e+00) (0, 0, 0.00000000000000000000e+00) (0, 0, 0.00000000000000000000e+00) (0, 0, 0.00000000000000000000e+00) (0, 0, 0.00000000000000000000e+00) (0, 0, 0.00000000000000000000e+00) (0, 0, 0.00000000000000000000e+00) (0, 0, 0.00000000000000000000e+00) (0, 0, 0.00000000000000000000e+00) (0, 0, 0.00000000000000000000e+00) (0, 0, 0.00000000000000000000e+00) (0, 0, 0.00000000000000000000e+00) (0, 0, 0.00000000000000000000e+00) (0, 0, 0.00000000000000000000e+00) (0, 0, 0.00000000000000000000e+00) (0, 0, 0.00000000000000000000e+00) (0, 0, 0.00000000000000000000e+00) (0, 0, 0.00000000000000000000e+00) (0, 0, 0.00000000000000000000e+00) (0, 0, 0.00000000000000000000e+00) (0, 0, 0.00000000000000000000e+00) (0, 0, 0.00000000000000000000e+00) (0, 0, 0.00000000000000000000e+00) (0, 0, 0.00000000000000000000e+00) (0, 0, 0.00000000000000000000e+00) (0, 0, 0.00000000000000000000e+00) (0, 0, 0.00000000000000000000e+00) (0, 0, 0.00000000000000000000e+00) (0, 0, 0.00000000000000000000e+00) (0, 0, 0.00000000000000000000e+00) (0, 0, 0.00000000000000000000e+00) (0, 0, 0.00000000000000000000e+00) (0, 0, 0.00000000000000000000e+00) (0, 0, 0.00000000000000000000e+00) (0, 0, 0.00000000000000000000e+00) (0, 0, 0.00000000000000000000e+00) (0, 0, 0.00000000000000000000e+00) (0, 0, 0.00000000000000000000e+00) (0, 0, 0.00000000000000000000e+00) (0, 0, 0.00000000000000000000e+00) (0, 0, 0.00000000000000000000e+00) (0, 0, 0.00000000000000000000e+00) (0, 0, 0.00000000000000000000e+00) (0, 0, 0.00000000000000000000e+00) (0, 0, 0.00000000000000000000e+00) (0, 0, 0.00000000000000000000e+00) (0, 0, 0.00000000000000000000e+00) (0, 0, 0.00000000000000000000e+00) (0, 0, 0.00000000000000000000e+00) (0, 0, 0.00000000000000000000e+00) (0, 0, 0.00000000000000000000e+00) (0, 0, 0.00000000000000000000e+00) (0, 0, 0.00000000000000000000e+00) (0, 0, 0.00000000000000000000e+00) (0, 0, 0.00000000000000000000e+00) (0, 0, 0.00000000000000000000e+00) (0, 0, 0.00000000000000000000e+00) (0, 0, 0.00000000000000000000e+00) (0, 0, 0.00000000000000000000e+00) (0, 0, 0.00000000000000000000e+00) (0, 0, 0.00000000000000000000e+00) (0, 0, 0.00000000000000000000e+00) (0, 0, 0.00000000000000000000e+00) (0, 0, 0.00000000000000000000e+00) (0, 0, 0.00000000000000000000e+00) (0, 0, 0.00000000000000000000e+00) (0, 0, 0.00000000000000000000e+00) (0, 0, 0.00000000000000000000e+00) (0, 0, 0.00000000000000000000e+00) (0, 0, 0.00000000000000000000e+00) (0, 0, 0.00000000000000000000e+00) (0, 0, 0.00000000000000000000e+00) (0, 0, 0.00000000000000000000e+00) (0, 0, 0.00000000000000000000e+00) (0, 0, 0.00000000000000000000e+00) (0, 0, 0.00000000000000000000e+00) (0, 0, 0.00000000000000000000e+00) (0, 0, 0.00000000000000000000e+00) (0, 0, 0.00000000000000000000e+00) (0, 0, 0.00000000000000000000e+00) (0, 0, 0.00000000000000000000e+00) (0, 0, 0.00000000000000000000e+00) (0, 0, 0.00000000000000000000e+00) (0, 0, 0.00000000000000000000e+00) (0, 0, 0.00000000000000000000e+00) (0, 0, 0.00000000000000000000e+00) (0, 0, 0.00000000000000000000e+00) (0, 0, 0.00000000000000000000e+00) (0, 0, 0.00000000000000000000e+00) (0, 0, 0.00000000000000000000e+00) (0, 0, 0.00000000000000000000e+00) (0, 0, 0.00000000000000000000e+00) (0, 0, 0.00000000000000000000e+00) (0, 0, 0.00000000000000000000e+00) (0, 0, 0.00000000000000000000e+00) (0, 0, 0.00000000000000000000e+00) (0, 0, 0.00000000000000000000e+00) (0, 0, 0.00000000000000000000e+00) (0, 0, 0.00000000000000000000e+00) (0, 0, 0.00000000000000000000e+00) (0, 0, 0.00000000000000000000e+00) (0, 0, 0.00000000000000000000e+00) (0, 0, 0.00000000000000000000e+00) (0, 0, 0.00000000000000000000e+00) (0, 0, 0.00000000000000000000e+00) (0, 0, 0.00000000000000000000e+00) (0, 0, 0.00000000000000000000e+00) (0, 0, 0.00000000000000000000e+00) (0, 0, 0.00000000000000000000e+00) (0, 0, 0.00000000000000000000e+00) (0, 0, 0.00000000000000000000e+00) (0, 0, 0.00000000000000000000e+00) (0, 0, 0.00000000000000000000e+00) (0, 0, 0.00000000000000000000e+00) (0, 0, 0.00000000000000000000e+00) (0, 0, 0.00000000000000000000e+00) (0, 0, 0.00000000000000000000e+00) (0, 0, 0.00000000000000000000e+00) (0, 0, 0.00000000000000000000e+00) (0, 0, 0.00000000000000000000e+00) (0, 0, 0.00000000000000000000e+00) (0, 0, 0.00000000000000000000e+00) (0, 0, 0.00000000000000000000e+00) (0, 0, 0.00000000000000000000e+00) (0, 0, 0.00000000000000000000e+00) (0, 0, 0.00000000000000000000e+00) (0, 0, 0.00000000000000000000e+00) (0, 0, 0.00000000000000000000e+00) (0, 0, 0.00000000000000000000e+00) (0, 0, 0.00000000000000000000e+00) (0, 0, 0.00000000000000000000e+00) (0, 0, 0.00000000000000000000e+00) (0, 0, 0.00000000000000000000e+00) (0, 0, 0.00000000000000000000e+00) (0, 0, 0.00000000000000000000e+00) (0, 0, 0.00000000000000000000e+00) (0, 0, 0.00000000000000000000e+00) (0, 0, 0.00000000000000000000e+00) (0, 0, 0.00000000000000000000e+00) (0, 0, 0.00000000000000000000e+00) (0, 0, 0.00000000000000000000e+00) (0, 0, 0.00000000000000000000e+00) (0, 0, 0.00000000000000000000e+00) (0, 0, 0.00000000000000000000e+00) (0, 0, 0.00000000000000000000e+00) (0, 0, 0.00000000000000000000e+00) (0, 0, 0.00000000000000000000e+00) (0, 0, 0.00000000000000000000e+00) (0, 0, 0.00000000000000000000e+00) (0, 0, 0.00000000000000000000e+00) (0, 0, 0.00000000000000000000e+00) (0, 0, 0.00000000000000000000e+00) (0, 0, 0.00000000000000000000e+00) (0, 0, 0.00000000000000000000e+00) (0, 0, 0.00000000000000000000e+00) (0, 0, 0.00000000000000000000e+00) (0, 0, 0.00000000000000000000e+00) (0, 0, 0.00000000000000000000e+00) (0, 0, 0.00000000000000000000e+00) (0, 0, 0.00000000000000000000e+00) (0, 0, 0.00000000000000000000e+00) (0, 0, 0.00000000000000000000e+00) (0, 0, 0.00000000000000000000e+00) (0, 0, 0.00000000000000000000e+00) (0, 0, 0.00000000000000000000e+00) (0, 0, 0.00000000000000000000e+00) (0, 0, 0.00000000000000000000e+00) (0, 0, 0.00000000000000000000e+00) (0, 0, 0.00000000000000000000e+00) (0, 0, 0.00000000000000000000e+00) (0, 0, 0.00000000000000000000e+00) (0, 0, 0.00000000000000000000e+00) (0, 0, 0.00000000000000000000e+00) (0, 0, 0.00000000000000000000e+00) (0, 0, 0.00000000000000000000e+00) (0, 0, 0.00000000000000000000e+00) (0, 0, 0.00000000000000000000e+00) (0, 0, 0.00000000000000000000e+00) (0, 0, 0.00000000000000000000e+00) (0, 0, 0.00000000000000000000e+00) (0, 0, 0.00000000000000000000e+00) (0, 0, 0.00000000000000000000e+00) (0, 0, 0.00000000000000000000e+00) (0, 0, 0.00000000000000000000e+00) (0, 0, 0.00000000000000000000e+00) (0, 0, 0.00000000000000000000e+00) (0, 0, 0.00000000000000000000e+00) (0, 0, 0.00000000000000000000e+00) (0, 0, 0.00000000000000000000e+00) (0, 0, 0.00000000000000000000e+00) (0, 0, 0.00000000000000000000e+00) (0, 0, 0.00000000000000000000e+00) (0, 0, 0.00000000000000000000e+00) (0, 0, 0.00000000000000000000e+00) (0, 0, 0.00000000000000000000e+00) (0, 0, 0.00000000000000000000e+00) (0, 0, 0.00000000000000000000e+00) (0, 0, 0.00000000000000000000e+00) (0, 0, 0.00000000000000000000e+00) (0, 0, 0.00000000000000000000e+00) (0, 0, 0.00000000000000000000e+00) (0, 0, 0.00000000000000000000e+00) (0, 0, 0.00000000000000000000e+00) (0, 0, 0.00000000000000000000e+00) (0, 0, 0.00000000000000000000e+00) (0, 0, 0.00000000000000000000e+00) (0, 0, 0.00000000000000000000e+00) (0, 0, 0.00000000000000000000e+00) (0, 0, 0.00000000000000000000e+00) (0, 0, 0.00000000000000000000e+00) (0, 0, 0.00000000000000000000e+00) (0, 0, 0.00000000000000000000e+00) (0, 0, 0.00000000000000000000e+00) (0, 0, 0.00000000000000000000e+00) (0, 0, 0.00000000000000000000e+00) (0, 0, 0.00000000000000000000e+00) (0, 0, 0.00000000000000000000e+00) (0, 0, 0.00000000000000000000e+00) (0, 0, 0.00000000000000000000e+00) (0, 0, 0.00000000000000000000e+00) (0, 0, 0.00000000000000000000e+00) (0, 0, 0.00000000000000000000e+00) (0, 0, 0.00000000000000000000e+00) (0, 0, 0.00000000000000000000e+00) (0, 0, 0.00000000000000000000e+00) (0, 0, 0.00000000000000000000e+00) (0, 0, 0.00000000000000000000e+00) (0, 0, 0.00000000000000000000e+00) (0, 0, 0.00000000000000000000e+00) (0, 0, 0.00000000000000000000e+00) (0, 0, 0.00000000000000000000e+00) (0, 0, 0.00000000000000000000e+00) (0, 0, 0.00000000000000000000e+00) (0, 0, 0.00000000000000000000e+00) (0, 0, 0.00000000000000000000e+00) (0, 0, 0.00000000000000000000e+00) (0, 0, 0.00000000000000000000e+00) (0, 0, 0.00000000000000000000e+00) (0, 0, 0.00000000000000000000e+00) (0, 0, 0.00000000000000000000e+00) (0, 0, 0.00000000000000000000e+00) (0, 0, 0.00000000000000000000e+00) (0, 0, 0.00000000000000000000e+00) (0, 0, 0.00000000000000000000e+00) (0, 0, 0.00000000000000000000e+00) (0, 0, 0.00000000000000000000e+00) (0, 0, 0.00000000000000000000e+00) (0, 0, 0.00000000000000000000e+00) (0, 0, 0.00000000000000000000e+00) (0, 0, 0.00000000000000000000e+00) (0, 0, 0.00000000000000000000e+00) (0, 0, 0.00000000000000000000e+00) (0, 0, 0.00000000000000000000e+00) (0, 0, 0.00000000000000000000e+00) (0, 0, 0.00000000000000000000e+00) (0, 0, 0.00000000000000000000e+00) (0, 0, 0.00000000000000000000e+00) (0, 0, 0.00000000000000000000e+00) (0, 0, 0.00000000000000000000e+00) (0, 0, 0.00000000000000000000e+00) (0, 0, 0.00000000000000000000e+00) (0, 0, 0.00000000000000000000e+00) (0, 0, 0.00000000000000000000e+00) (0, 0, 0.00000000000000000000e+00) (0, 0, 0.00000000000000000000e+00) (0, 0, 0.00000000000000000000e+00) (0, 0, 0.00000000000000000000e+00) (0, 0, 0.00000000000000000000e+00) (0, 0, 0.00000000000000000000e+00) (0, 0, 0.00000000000000000000e+00) (0, 0, 0.00000000000000000000e+00) (0, 0, 0.00000000000000000000e+00) (0, 0, 0.00000000000000000000e+00) (0, 0, 0.00000000000000000000e+00) (0, 0, 0.00000000000000000000e+00) (0, 0, 0.00000000000000000000e+00) (0, 0, 0.00000000000000000000e+00) (0, 0, 0.00000000000000000000e+00) (0, 0, 0.00000000000000000000e+00) (0, 0, 0.00000000000000000000e+00) (0, 0, 0.00000000000000000000e+00) (0, 0, 0.00000000000000000000e+00) (0, 0, 0.00000000000000000000e+00) (0, 0, 0.00000000000000000000e+00) (0, 0, 0.00000000000000000000e+00) (0, 0, 0.00000000000000000000e+00) (0, 0, 0.00000000000000000000e+00) (0, 0, 0.00000000000000000000e+00) (0, 0, 0.00000000000000000000e+00) (0, 0, 0.00000000000000000000e+00) (0, 0, 0.00000000000000000000e+00) (0, 0, 0.00000000000000000000e+00) (0, 0, 0.00000000000000000000e+00) (0, 0, 0.00000000000000000000e+00) (0, 0, 0.00000000000000000000e+00) (0, 0, 0.00000000000000000000e+00) (0, 0, 0.00000000000000000000e+00) (0, 0, 0.00000000000000000000e+00) (0, 0, 0.00000000000000000000e+00) (0, 0, 0.00000000000000000000e+00) (0, 0, 0.00000000000000000000e+00) (0, 0, 0.00000000000000000000e+00) (0, 0, 0.00000000000000000000e+00) (0, 0, 0.00000000000000000000e+00) (0, 0, 0.00000000000000000000e+00) (0, 0, 0.00000000000000000000e+00) (0, 0, 0.00000000000000000000e+00) (0, 0, 0.00000000000000000000e+00) (0, 0, 0.00000000000000000000e+00) (0, 0, 0.00000000000000000000e+00) (0, 0, 0.00000000000000000000e+00) (0, 0, 0.00000000000000000000e+00) (0, 0, 0.00000000000000000000e+00) (0, 0, 0.00000000000000000000e+00) (0, 0, 0.00000000000000000000e+00) (0, 0, 0.00000000000000000000e+00) (0, 0, 0.00000000000000000000e+00) (0, 0, 0.00000000000000000000e+00) (0, 0, 0.00000000000000000000e+00) (0, 0, 0.00000000000000000000e+00) (0, 0, 0.00000000000000000000e+00) (0, 0, 0.00000000000000000000e+00) (0, 0, 0.00000000000000000000e+00) (0, 0, 0.00000000000000000000e+00) (0, 0, 0.00000000000000000000e+00) (0, 0, 0.00000000000000000000e+00) (0, 0, 0.00000000000000000000e+00) (0, 0, 0.00000000000000000000e+00) (0, 0, 0.00000000000000000000e+00) (0, 0, 0.00000000000000000000e+00) (0, 0, 0.00000000000000000000e+00) (0, 0, 0.00000000000000000000e+00) (0, 0, 0.00000000000000000000e+00) (0, 0, 0.00000000000000000000e+00) (0, 0, 0.00000000000000000000e+00) (0, 0, 0.00000000000000000000e+00) (0, 0, 0.00000000000000000000e+00) (0, 0, 0.00000000000000000000e+00) (0, 0, 0.00000000000000000000e+00) (0, 0, 0.00000000000000000000e+00) (0, 0, 0.00000000000000000000e+00) (0, 0, 0.00000000000000000000e+00) (0, 0, 0.00000000000000000000e+00) (0, 0, 0.00000000000000000000e+00) (0, 0, 0.00000000000000000000e+00) (0, 0, 0.00000000000000000000e+00) (0, 0, 0.00000000000000000000e+00) (0, 0, 0.00000000000000000000e+00) (0, 0, 0.00000000000000000000e+00) (0, 0, 0.00000000000000000000e+00) (0, 0, 0.00000000000000000000e+00) (0, 0, 0.00000000000000000000e+00) (0, 0, 0.00000000000000000000e+00) (0, 0, 0.00000000000000000000e+00) (0, 0, 0.00000000000000000000e+00) (0, 0, 0.00000000000000000000e+00) (0, 0, 0.00000000000000000000e+00) (0, 0, 0.00000000000000000000e+00) (0, 0, 0.00000000000000000000e+00) (0, 0, 0.00000000000000000000e+00) (0, 0, 0.00000000000000000000e+00) (0, 0, 0.00000000000000000000e+00) (0, 0, 0.00000000000000000000e+00) (0, 0, 0.00000000000000000000e+00) (0, 0, 0.00000000000000000000e+00) (0, 0, 0.00000000000000000000e+00) (0, 0, 0.00000000000000000000e+00) (0, 0, 0.00000000000000000000e+00) (0, 0, 0.00000000000000000000e+00) (0, 0, 0.00000000000000000000e+00) (0, 0, 0.00000000000000000000e+00) (0, 0, 0.00000000000000000000e+00) (0, 0, 0.00000000000000000000e+00) (0, 0, 0.00000000000000000000e+00) (0, 0, 0.00000000000000000000e+00) (0, 0, 0.00000000000000000000e+00) (0, 0, 0.00000000000000000000e+00) (0, 0, 0.00000000000000000000e+00) (0, 0, 0.00000000000000000000e+00) (0, 0, 0.00000000000000000000e+00) (0, 0, 0.00000000000000000000e+00) (0, 0, 0.00000000000000000000e+00) (0, 0, 0.00000000000000000000e+00) (0, 0, 0.00000000000000000000e+00) (0, 0, 0.00000000000000000000e+00) (0, 0, 0.00000000000000000000e+00) (0, 0, 0.00000000000000000000e+00) (0, 0, 0.00000000000000000000e+00) (0, 0, 0.00000000000000000000e+00) (0, 0, 0.00000000000000000000e+00) (0, 0, 0.00000000000000000000e+00) (0, 0, 0.00000000000000000000e+00) (0, 0, 0.00000000000000000000e+00) (0, 0, 0.00000000000000000000e+00) (0, 0, 0.00000000000000000000e+00) (0, 0, 0.00000000000000000000e+00) (0, 0, 0.00000000000000000000e+00) (0, 0, 0.00000000000000000000e+00) (0, 0, 0.00000000000000000000e+00) (0, 0, 0.00000000000000000000e+00) (0, 0, 0.00000000000000000000e+00) (0, 0, 0.00000000000000000000e+00) (0, 0, 0.00000000000000000000e+00) (0, 0, 0.00000000000000000000e+00) (0, 0, 0.00000000000000000000e+00) (0, 0, 0.00000000000000000000e+00) (0, 0, 0.00000000000000000000e+00) (0, 0, 0.00000000000000000000e+00) (0, 0, 0.00000000000000000000e+00) (0, 0, 0.00000000000000000000e+00) (0, 0, 0.00000000000000000000e+00) (0, 0, 0.00000000000000000000e+00) (0, 0, 0.00000000000000000000e+00) (0, 0, 0.00000000000000000000e+00) (0, 0, 0.00000000000000000000e+00) (0, 0, 0.00000000000000000000e+00) (0, 0, 0.00000000000000000000e+00) (0, 0, 0.00000000000000000000e+00) (0, 0, 0.00000000000000000000e+00) (0, 0, 0.00000000000000000000e+00) (0, 0, 0.00000000000000000000e+00) (0, 0, 0.00000000000000000000e+00) (0, 0, 0.00000000000000000000e+00) (0, 0, 0.00000000000000000000e+00) (0, 0, 0.00000000000000000000e+00) (0, 0, 0.00000000000000000000e+00) (0, 0, 0.00000000000000000000e+00) (0, 0, 0.00000000000000000000e+00) (0, 0, 0.00000000000000000000e+00) (0, 0, 0.00000000000000000000e+00) (0, 0, 0.00000000000000000000e+00) (0, 0, 0.00000000000000000000e+00) (0, 0, 0.00000000000000000000e+00) (0, 0, 0.00000000000000000000e+00) (0, 0, 0.00000000000000000000e+00) (0, 0, 0.00000000000000000000e+00) (0, 0, 0.00000000000000000000e+00) (0, 0, 0.00000000000000000000e+00) (0, 0, 0.00000000000000000000e+00) (0, 0, 0.00000000000000000000e+00) (0, 0, 0.00000000000000000000e+00) (0, 0, 0.00000000000000000000e+00) (0, 0, 0.00000000000000000000e+00) (0, 0, 0.00000000000000000000e+00) (0, 0, 0.00000000000000000000e+00) (0, 0, 0.00000000000000000000e+00) (0, 0, 0.00000000000000000000e+00) (0, 0, 0.00000000000000000000e+00) (0, 0, 0.00000000000000000000e+00) (0, 0, 0.00000000000000000000e+00) (0, 0, 0.00000000000000000000e+00) (0, 0, 0.00000000000000000000e+00) (0, 0, 0.00000000000000000000e+00) (0, 0, 0.00000000000000000000e+00) (0, 0, 0.00000000000000000000e+00) (0, 0, 0.00000000000000000000e+00) (0, 0, 0.00000000000000000000e+00) (0, 0, 0.00000000000000000000e+00) (0, 0, 0.00000000000000000000e+00) (0, 0, 0.00000000000000000000e+00) (0, 0, 0.00000000000000000000e+00) (0, 0, 0.00000000000000000000e+00) (0, 0, 0.00000000000000000000e+00) (0, 0, 0.00000000000000000000e+00) (0, 0, 0.00000000000000000000e+00) (0, 0, 0.00000000000000000000e+00) (0, 0, 0.00000000000000000000e+00) (0, 0, 0.00000000000000000000e+00) (0, 0, 0.00000000000000000000e+00) (0, 0, 0.00000000000000000000e+00) (0, 0, 0.00000000000000000000e+00) (0, 0, 0.00000000000000000000e+00) (0, 0, 0.00000000000000000000e+00) (0, 0, 0.00000000000000000000e+00) (0, 0, 0.00000000000000000000e+00) (0, 0, 0.00000000000000000000e+00) (0, 0, 0.00000000000000000000e+00) (0, 0, 0.00000000000000000000e+00) (0, 0, 0.00000000000000000000e+00) (0, 0, 0.00000000000000000000e+00) (0, 0, 0.00000000000000000000e+00) (0, 0, 0.00000000000000000000e+00) (0, 0, 0.00000000000000000000e+00) (0, 0, 0.00000000000000000000e+00) (0, 0, 0.00000000000000000000e+00) (0, 0, 0.00000000000000000000e+00) (0, 0, 0.00000000000000000000e+00) (0, 0, 0.00000000000000000000e+00) (0, 0, 0.00000000000000000000e+00) (0, 0, 0.00000000000000000000e+00) (0, 0, 0.00000000000000000000e+00) (0, 0, 0.00000000000000000000e+00) (0, 0, 0.00000000000000000000e+00) (0, 0, 0.00000000000000000000e+00) (0, 0, 0.00000000000000000000e+00) (0, 0, 0.00000000000000000000e+00) (0, 0, 0.00000000000000000000e+00) (0, 0, 0.00000000000000000000e+00) (0, 0, 0.00000000000000000000e+00) (0, 0, 0.00000000000000000000e+00) (0, 0, 0.00000000000000000000e+00) (0, 0, 0.00000000000000000000e+00) (0, 0, 0.00000000000000000000e+00) (0, 0, 0.00000000000000000000e+00) (0, 0, 0.00000000000000000000e+00) (0, 0, 0.00000000000000000000e+00) (0, 0, 0.00000000000000000000e+00) (0, 0, 0.00000000000000000000e+00) (0, 0, 0.00000000000000000000e+00) (0, 0, 0.00000000000000000000e+00) (0, 0, 0.00000000000000000000e+00) (0, 0, 0.00000000000000000000e+00) (0, 0, 0.00000000000000000000e+00) (0, 0, 0.00000000000000000000e+00) (0, 0, 0.00000000000000000000e+00) (0, 0, 0.00000000000000000000e+00) (0, 0, 0.00000000000000000000e+00) (0, 0, 0.00000000000000000000e+00) (0, 0, 0.00000000000000000000e+00) (0, 0, 0.00000000000000000000e+00) (0, 0, 0.00000000000000000000e+00) (0, 0, 0.00000000000000000000e+00) (0, 0, 0.00000000000000000000e+00) (0, 0, 0.00000000000000000000e+00) (0, 0, 0.00000000000000000000e+00) (0, 0, 0.00000000000000000000e+00) (0, 0, 0.00000000000000000000e+00) (0, 0, 0.00000000000000000000e+00) (0, 0, 0.00000000000000000000e+00) (0, 0, 0.00000000000000000000e+00) (0, 0, 0.00000000000000000000e+00) (0, 0, 0.00000000000000000000e+00) (0, 0, 0.00000000000000000000e+00) (0, 0, 0.00000000000000000000e+00) (0, 0, 0.00000000000000000000e+00) (0, 0, 0.00000000000000000000e+00) (0, 0, 0.00000000000000000000e+00) (0, 0, 0.00000000000000000000e+00) (0, 0, 0.00000000000000000000e+00) (0, 0, 0.00000000000000000000e+00) (0, 0, 0.00000000000000000000e+00) (0, 0, 0.00000000000000000000e+00) (0, 0, 0.00000000000000000000e+00) (0, 0, 0.00000000000000000000e+00) (0, 0, 0.00000000000000000000e+00) (0, 0, 0.00000000000000000000e+00) (0, 0, 0.00000000000000000000e+00) (0, 0, 0.00000000000000000000e+00) (0, 0, 0.00000000000000000000e+00) (0, 0, 0.00000000000000000000e+00) (0, 0, 0.00000000000000000000e+00) (0, 0, 0.00000000000000000000e+00) (0, 0, 0.00000000000000000000e+00) (0, 0, 0.00000000000000000000e+00) (0, 0, 0.00000000000000000000e+00) (0, 0, 0.00000000000000000000e+00) (0, 0, 0.00000000000000000000e+00) (0, 0, 0.00000000000000000000e+00) (0, 0, 0.00000000000000000000e+00) (0, 0, 0.00000000000000000000e+00) (0, 0, 0.00000000000000000000e+00) (0, 0, 0.00000000000000000000e+00) (0, 0, 0.00000000000000000000e+00) (0, 0, 0.00000000000000000000e+00) (0, 0, 0.00000000000000000000e+00) (0, 0, 0.00000000000000000000e+00) (0, 0, 0.00000000000000000000e+00) (0, 0, 0.00000000000000000000e+00) (0, 0, 0.00000000000000000000e+00) (0, 0, 0.00000000000000000000e+00) (0, 0, 0.00000000000000000000e+00) (0, 0, 0.00000000000000000000e+00) (0, 0, 0.00000000000000000000e+00) (0, 0, 0.00000000000000000000e+00) (0, 0, 0.00000000000000000000e+00) (0, 0, 0.00000000000000000000e+00) (0, 0, 0.00000000000000000000e+00) (0, 0, 0.00000000000000000000e+00) (0, 0, 0.00000000000000000000e+00) (0, 0, 0.00000000000000000000e+00) (0, 0, 0.00000000000000000000e+00) (0, 0, 0.00000000000000000000e+00) (0, 0, 0.00000000000000000000e+00) (0, 0, 0.00000000000000000000e+00) (0, 0, 0.00000000000000000000e+00) (0, 0, 0.00000000000000000000e+00) (0, 0, 0.00000000000000000000e+00) (0, 0, 0.00000000000000000000e+00) (0, 0, 0.00000000000000000000e+00) (0, 0, 0.00000000000000000000e+00) (0, 0, 0.00000000000000000000e+00) (0, 0, 0.00000000000000000000e+00) (0, 0, 0.00000000000000000000e+00) (0, 0, 0.00000000000000000000e+00) (0, 0, 0.00000000000000000000e+00) (0, 0, 0.00000000000000000000e+00) (0, 0, 0.00000000000000000000e+00) (0, 0, 0.00000000000000000000e+00) (0, 0, 0.00000000000000000000e+00) (0, 0, 0.00000000000000000000e+00) (0, 0, 0.00000000000000000000e+00) (0, 0, 0.00000000000000000000e+00) (0, 0, 0.00000000000000000000e+00) (0, 0, 0.00000000000000000000e+00) (0, 0, 0.00000000000000000000e+00) (0, 0, 0.00000000000000000000e+00) (0, 0, 0.00000000000000000000e+00) (0, 0, 0.00000000000000000000e+00) (0, 0, 0.00000000000000000000e+00) (0, 0, 0.00000000000000000000e+00) (0, 0, 0.00000000000000000000e+00) (0, 0, 0.00000000000000000000e+00) (0, 0, 0.00000000000000000000e+00) (0, 0, 0.00000000000000000000e+00) (0, 0, 0.00000000000000000000e+00) (0, 0, 0.00000000000000000000e+00) (0, 0, 0.00000000000000000000e+00) (0, 0, 0.00000000000000000000e+00) (0, 0, 0.00000000000000000000e+00) (0, 0, 0.00000000000000000000e+00) (0, 0, 0.00000000000000000000e+00) (0, 0, 0.00000000000000000000e+00) (0, 0, 0.00000000000000000000e+00) (0, 0, 0.00000000000000000000e+00) (0, 0, 0.00000000000000000000e+00) (0, 0, 0.00000000000000000000e+00) (0, 0, 0.00000000000000000000e+00) (0, 0, 0.00000000000000000000e+00) (0, 0, 0.00000000000000000000e+00) (0, 0, 0.00000000000000000000e+00) (0, 0, 0.00000000000000000000e+00) (0, 0, 0.00000000000000000000e+00) (0, 0, 0.00000000000000000000e+00) (831, 3, 5.00000000000000000000e-01) (831, 3, 5.00000000000000000000e-01) (831, 3, 5.00000000000000000000e-01) (831, 3, 5.00000000000000000000e-01) (831, 3, 5.00000000000000000000e-01) (831, 3, 5.00000000000000000000e-01) (831, 3, 5.00000000000000000000e-01) (831, 3, 5.00000000000000000000e-01) (831, 3, 5.00000000000000000000e-01) (831, 3, 5.00000000000000000000e-01) (831, 3, 5.00000000000000000000e-01) (831, 3, 5.00000000000000000000e-01) (831, 3, 5.00000000000000000000e-01) (831, 3, 5.00000000000000000000e-01) (831, 3, 5.00000000000000000000e-01) (831, 3, 5.00000000000000000000e-01) (831, 3, 5.00000000000000000000e-01) (831, 3, 5.00000000000000000000e-01) (831, 3, 5.00000000000000000000e-01) (831, 3, 5.00000000000000000000e-01) (831, 3, 5.00000000000000000000e-01) (831, 3, 5.00000000000000000000e-01) (831, 3, 5.00000000000000000000e-01) (831, 3, 5.00000000000000000000e-01) (831, 3, 5.00000000000000000000e-01) (0, 3, 0.00000000000000000000e+00) (26, 3, 5.00000000000000000000e-01) (26, 3, 5.00000000000000000000e-01) (0, 3, 0.00000000000000000000e+00) 
connections (connected_to_neuron, weight)=(0, 9.11616949122420472396e-02) (1, -8.61868715254967242279e-03) (2, 8.61294096878706672005e-02) (3, -9.26842932877125075253e-02) (4, -2.49469318736086145827e-02) (5, 9.64572288982899345156e-02) (6, -7.90274364487051628192e-02) (7, -1.50286371292650353798e-02) (8, 9.38231413251214424465e-02) (9, 2.95355900137254934190e-02) (10, -7.86228787753177199571e-02) (11, -7.08209881233709537263e-02) (12, -5.19155430671530901399e-02) (13, 3.46142425305950296455e-02) (14, -6.04604512544170968891e-02) (15, -1.54837993206941963720e-02) (16, -3.35258133943875935579e-02) (17, -5.01892686786622674311e-02) (18, -9.48593652363920597503e-02) (19, -4.99112208511962168744e-02) (20, -8.35881296442621546383e-02) (21, 5.15171582543437998891e-03) (22, -6.22477401361401089241e-02) (23, 9.58752934258282341062e-02) (24, 5.44292685881881191379e-02) (25, 4.95127351984599450851e-02) (26, 8.61654630675035421161e-02) (27, -7.42127001285552978516e-02) (28, 9.10957679152488708496e-02) (29, -4.73589087392906685214e-02) (30, 4.00993844415206412979e-02) (31, 5.82021500160773488930e-02) (32, 3.60811667428960411441e-02) (33, 5.08413573403125040873e-02) (34, -1.14450036682805997290e-01) (35, -1.17097185610234799658e-01) (36, 1.63889400476714404246e-03) (37, -1.27944684218306681256e-01) (38, 2.13330575615857664928e-02) (39, -1.48561282526304509755e-02) (40, 4.81186583638191223145e-02) (41, -6.54890826733421291261e-04) (42, 4.65230075669665829596e-02) (43, 6.33915625415991806912e-02) (44, -4.26539774859389653194e-02) (45, 4.61964006340501373571e-02) (46, -3.64950814747818513828e-02) (47, -8.90028963520468098525e-03) (48, -1.65401211968251776741e-01) (49, -2.14339314026734915897e-02) (50, 9.40572444929601708674e-02) (51, -1.27172749887598968144e-01) (52, 7.54295658448387723594e-02) (53, -5.65685008209396017476e-02) (54, -8.48083429056348259145e-02) (55, 5.81991915233782200478e-02) (56, -7.96924953786835588154e-02) (57, 7.63976856196357384521e-02) (58, 8.21370754106160866348e-02) (59, -1.02934530472935034662e-01) (60, -2.70868016148503691631e-02) (61, -2.79457355847904194077e-03) (62, 8.30590127161044827764e-02) (63, 8.46950568520178220799e-02) (64, -1.08579450656281814580e-01) (65, 1.08169593912338865560e-01) (66, 5.21043044702901442244e-02) (67, -4.31485899139873799180e-02) (68, -1.17093756084110697802e-01) (69, -3.55881741968680428978e-02) (70, 1.02534915674525994866e-01) (71, 2.38769192997622808905e-02) (72, 1.00561297623629503084e-01) (73, -2.50598576936595547615e-02) (74, 6.89623199296444111539e-02) (75, -2.10468539247874071585e-02) (76, -7.81733011565443336455e-02) (77, -7.65962741041341793613e-02) (78, -8.35779286416767075441e-02) (79, -2.97738144774351842781e-02) (80, -1.52275800008799012952e-02) (81, 6.05093896421742619141e-02) (82, -9.49013073398825846017e-03) (83, -1.25345876314164675347e-02) (84, -4.60031609728610985099e-02) (85, -1.94413513726699807571e-02) (86, -5.90732471581681198303e-02) (87, -8.40571487120020388595e-02) (88, -5.20707723533977151487e-02) (89, -1.03212092941620106612e-01) (90, -4.95797083342059477507e-02) (91, -3.63138187810069165695e-02) (92, 8.63860504654370177369e-03) (93, -4.98471983267844212517e-02) (94, -4.79494739900828206847e-02) (95, 4.83380508889180715570e-02) (96, -7.66243533661749715025e-02) (97, -9.65817156253959974155e-02) (98, -6.07905732539037041429e-02) (99, -4.13927047096154243633e-02) (100, -5.75532413195073075385e-03) (101, 7.83963466462993252559e-02) (102, -1.07308254437074590548e-01) (103, -2.86692933439840896837e-03) (104, -2.16777990103805551225e-02) (105, 8.40827337827028953310e-02) (106, 6.30813399002175534402e-02) (107, 1.26363488174443695106e-02) (108, 1.02816295074686883670e-01) (109, 8.51092588726084370299e-02) (110, 7.13570366604610456518e-02) (111, -4.26607408108140018221e-02) (112, 6.65257239308649633847e-02) (113, -8.00032277650263440316e-02) (114, 6.44304583301097133496e-02) (115, -1.16618114771961461917e-01) (116, -2.51481340985953948086e-02) (117, -1.23027304539405857309e-01) (118, -9.99579517227839470239e-03) (119, 7.19031279125409011899e-02) (120, -7.88262468350623551894e-02) (121, -1.33628587936584723034e-02) (122, -9.85849542987840277153e-02) (123, 4.37134261589915418256e-02) (124, 8.25583662898952547193e-02) (125, -2.17655128789898087704e-02) (126, -9.24740677128180199595e-04) (127, -8.12045729932841658938e-02) (128, 1.77670644370269414924e-02) (129, 1.21563491811403027315e-03) (130, -3.61502183991342582181e-02) (131, -1.06469000705077060376e-01) (132, -2.35162637682575156872e-02) (133, 1.13057705024693071899e-02) (134, 4.45597876644167820159e-02) (135, 6.16032751073913587003e-02) (136, -4.09522568881168919086e-02) (137, 2.27102115961156335311e-02) (138, 1.13242581075908579046e-03) (139, -5.21604571287561380455e-02) (140, -1.64300541393886598285e-02) (141, -8.11640199351927743576e-02) (142, 2.02843368546349739345e-02) (143, -6.23734111555786577274e-02) (144, -1.56442921370133734837e-02) (145, 2.40724350700585315588e-02) (146, -4.08513879603707164012e-02) (147, -8.94070830750733208658e-02) (148, 7.37823779786174333006e-02) (149, 3.20833620862528631767e-02) (150, 1.19576482334121606682e-02) (151, -9.56503758133615128445e-02) (152, -5.92328082389757676340e-02) (153, -9.81503919966924959217e-02) (154, 1.06143196814780169102e-01) (155, -2.05560201606265757768e-02) (156, -1.15979941727263839019e-02) (157, -8.11127254490792148900e-02) (158, 2.86169364706617412875e-02) (159, -5.24118532861122671251e-02) (160, 2.89554000317336218684e-02) (161, -1.21384483870296350227e-01) (162, -6.04693590878177464343e-02) (163, -9.13891615803976431476e-02) (164, 2.34074676594786396100e-02) (165, -9.47104771703222853008e-02) (166, 7.41535307860001768887e-02) (167, 3.88995626422571280645e-02) (168, 1.26819615591250347414e-02) (169, 2.35208648984053213249e-02) (170, -9.36702252793737977221e-02) (171, -1.22674258427580978870e-01) (172, 2.82347007133621832886e-02) (173, 2.63756467395655572195e-02) (174, -7.75465012305458223363e-02) (175, -5.65994822214871198818e-02) (176, -2.59954771554115268706e-02) (177, -1.24565428183670209861e-02) (178, -5.77054412524025950315e-02) (179, -2.90457388814722682058e-02) (180, -8.68909554943408241057e-02) (181, -1.31903400896963757249e-01) (182, -3.56999180415383532416e-02) (183, 3.04209537141832565138e-03) (184, -8.71871605166568974798e-02) (185, -3.44887046667827143476e-02) (186, 6.14794426971421725803e-02) (187, 4.14823034698103085965e-03) (188, 1.02136263931280144718e-02) (189, -1.56920174589560978973e-02) (190, 4.40957183364787813629e-02) (191, -4.83569586679394522455e-02) (192, -1.21137413576187583097e-02) (193, -7.22849108615247759602e-02) (194, -8.49923679686939714806e-03) (195, -1.02319103185785395538e-01) (196, -3.71438555730492295237e-02) (197, -2.68131139484904593151e-02) (198, 8.90337469481581322839e-02) (199, 6.72424463286730306200e-02) (200, 4.69111947678911844761e-02) (201, 1.14765353564577426981e-01) (202, 8.39390848259763538985e-02) (203, -2.71945088523220766807e-02) (204, 4.55332291083196671888e-02) (205, -7.92192613502196441022e-02) (206, 2.75253269124678991153e-02) (207, -7.10628928296759276861e-02) (208, 2.44461682936706753422e-02) (209, 7.53253294155013380928e-02) (210, 1.30136435386046245277e-02) (211, 3.76186320882591559989e-02) (212, 7.88166207918815087119e-02) (213, 9.09937150509583236868e-02) (214, -3.93609498705115232187e-02) (215, -8.99097446493501012421e-02) (216, -5.37881239506038666409e-02) (217, -8.42270159668281614973e-02) (218, 2.38043382399980713027e-02) (219, 8.97276366141887132821e-02) (220, -2.75686691064347400015e-02) (221, -1.52637950961627792690e-02) (222, -4.39977265421892457797e-02) (223, 5.04705968748077188346e-02) (224, 2.61510774527627526398e-02) (225, 1.43970745141024231151e-02) (226, 7.66714438546939325292e-02) (227, 7.03999473710119200165e-02) (228, 8.18726535597507215636e-02) (229, 5.98414527364215034777e-02) (230, 3.98985487348421166698e-02) (231, 4.78933905100850515479e-02) (232, 3.90003143228442733514e-02) (233, 3.62926805406002250809e-02) (234, -5.32527092140668290021e-02) (235, -2.12953721527563410174e-04) (236, 4.43960047635509058583e-02) (237, 7.08075291081236429802e-02) (238, 9.90279906666069985322e-03) (239, -2.63642493364859425986e-02) (240, 7.09385400223188494762e-02) (241, -8.01705824641367886807e-02) (242, -6.21054677658368914361e-02) (243, 4.56009005101679562588e-02) (244, -6.92743394114043731236e-02) (245, -2.68757030203113332634e-02) (246, 5.29592629047853785673e-02) (247, -3.27214224798408823136e-02) (248, -1.67857880529708736184e-02) (249, 1.80511060195318170582e-03) (250, -5.37271901285956074434e-02) (251, 5.92982840989291631884e-02) (252, 8.24226971148410009205e-02) (253, -9.71198422815482652337e-03) (254, 5.24965648181217325874e-02) (255, -4.64286086718282593744e-03) (256, -9.27345803333644996824e-02) (257, 4.35903027521054309279e-02) (258, -3.37359269468747377529e-02) (259, 1.06107207227628411172e-01) (260, -4.55918755546845799742e-02) (261, -7.51992888967590311644e-02) (262, 5.58357780459039082510e-02) (263, 9.59979650416457330753e-02) (264, 4.04464354803242970293e-02) (265, 5.79104353185067102783e-02) (266, -2.08514110080384174051e-02) (267, 3.30901390052732793934e-02) (268, 4.50403113417497738546e-02) (269, -9.45299292875081825782e-02) (270, -9.66881138634770459506e-02) (271, 2.01596654361066128514e-02) (272, -8.44327912222236909301e-02) (273, -5.68524353332198403854e-02) (274, 5.15744553178081217848e-03) (275, -4.79045855628971450901e-02) (276, 2.46632714975435138327e-02) (277, -5.16297730592980425035e-02) (278, 3.13871832979564606425e-03) (279, -8.05009231397731950253e-02) (280, 2.07059463273789774729e-02) (281, 5.87759572595616466839e-02) (282, 8.26526033420644373750e-02) (283, 9.01313440846416603913e-03) (284, -5.03718512130355358658e-02) (285, 3.38675508621105736395e-02) (286, -9.34708987237089089506e-02) (287, -3.17973127640924155268e-02) (288, -5.20164542451626160657e-02) (289, -1.53614010723348778931e-02) (290, -5.88180420491216174317e-02) (291, -1.05243726878880387854e-02) (292, 6.76750659813075538390e-03) (293, 9.94137496596355502154e-02) (294, 7.15330798595741057522e-03) (295, -1.04022441490417387466e-02) (296, 5.79004339685614197175e-02) (297, 8.88513741156507774743e-02) (298, -6.41898428662205783324e-02) (299, 1.15171856361628403842e-02) (300, 8.08331348221529855103e-02) (301, -6.88108060693980033706e-02) (302, -6.95912025445220711051e-02) (303, -8.78504070508022011365e-02) (304, -2.34823600409935946687e-02) (305, 1.91585913443231663222e-02) (306, -3.21386722600081747858e-02) (307, -9.61905237827687387142e-02) (308, 4.62290102664382196451e-02) (309, 1.17390811036321998651e-01) (310, -9.87987189071887900171e-02) (311, 7.45914198582358148326e-03) (312, 6.49189256255924551642e-02) (313, 9.84092365079568542896e-02) (314, 9.99410811932572307192e-02) (315, -6.89340784796765582154e-02) (316, 3.12688990485203155423e-02) (317, -9.28284524655719200936e-02) (318, -5.38969405749461626803e-03) (319, 6.24316545002458408997e-02) (320, -2.94130993520473338343e-02) (321, 4.15485998359797978341e-02) (322, -1.42514437568449538196e-02) (323, -9.29310413668960472178e-02) (324, 3.36333168531300075177e-02) (325, 9.13404906414331946296e-02) (326, -1.00949737824253208546e-02) (327, -3.66648185405079934593e-03) (328, 5.65631821654485403283e-02) (329, 2.88354024701493599769e-02) (330, -8.83844630520828206111e-02) (331, 3.76070806929683712494e-02) (332, 7.15022502160780615288e-02) (333, -3.38769277738998272897e-02) (334, 8.92177679228590564398e-02) (335, -6.44702552956343266644e-02) (336, 7.53157416747961688808e-02) (337, -7.56119985245180814548e-02) (338, -3.25063006316858096878e-02) (339, 1.49506978099844534125e-02) (340, -5.74021218670631994119e-02) (341, -3.52324514444283462544e-02) (342, -8.13986936065533850382e-02) (343, -9.92928460419128661174e-02) (344, -6.44027729229792733623e-02) (345, -7.60915549933298546170e-02) (346, -7.62695131813649340735e-02) (347, 8.10086708771851765620e-02) (348, -9.05312073719044818620e-02) (349, 2.34872694237963537678e-02) (350, 6.09164013373913043603e-02) (351, 1.03174966857342374077e-02) (352, -4.66721443718566813413e-03) (353, -6.15785893383840113313e-02) (354, 2.66221096748822973199e-02) (355, -4.46512837732289460946e-02) (356, -8.00156531413706711975e-02) (357, -8.46842615461208952921e-02) (358, 5.48017915340390862622e-02) (359, 6.76557504074728616184e-02) (360, 2.25576297249294108194e-02) (361, 5.67266541461951198655e-02) (362, 2.58173426919820758751e-02) (363, -1.89257481870094869392e-02) (364, -8.36312025709349954328e-02) (365, -6.75123084018766812797e-03) (366, 3.56524928017225711807e-02) (367, 8.20144981372204207037e-02) (368, 5.77133162393225346287e-02) (369, 7.86827430378466419203e-02) (370, 1.00293631998240716924e-02) (371, 8.98916581107144369023e-02) (372, -5.95026161573382547654e-02) (373, 2.32569226679287047177e-02) (374, 9.41203831481342845233e-02) (375, -1.96408422634055043754e-02) (376, 2.66214891570880490823e-02) (377, -9.69633979751113039836e-02) (378, -2.32765097430104976606e-02) (379, 4.45765704799862133578e-02) (380, 7.07534586781367880182e-02) (381, -8.08008758401740634358e-02) (382, -5.88546586555727252454e-02) (383, -6.51584743857580583892e-02) (384, -4.79425665752638910377e-02) (385, 6.22020558308351151355e-02) (386, -2.46959418470593661254e-02) (387, -1.83343002996288646778e-02) (388, 7.60063996958373622181e-02) (389, -7.32867027918579078127e-02) (390, -2.94895906781489254567e-02) (391, 7.89687803173763115672e-03) (392, 6.68334410044208876434e-02) (393, -9.39736288808636494041e-02) (394, -7.59141947286281065788e-02) (395, 2.29460960242546495313e-02) (396, -3.28435140583052329055e-02) (397, 5.37435732265463123047e-02) (398, 8.45478365682382632107e-02) (399, -7.07246109215770302203e-02) (400, 3.04632286485968552248e-02) (401, -6.16026915694854113048e-02) (402, -8.08091727257131547946e-02) (403, 5.11928825302562715005e-02) (404, -1.21050283059053229162e-01) (405, -7.82407850867727211464e-02) (406, -3.68904675481838070783e-02) (407, 4.21125707885243658057e-02) (408, -3.55837525748462640829e-02) (409, 3.61893675752776103338e-02) (410, 1.92807360163834949629e-02) (411, -9.33480013120345231137e-02) (412, 9.93163908688410590475e-02) (413, -8.70603406952323022328e-02) (414, -1.03158282873223455800e-02) (415, -7.24356870836938004921e-02) (416, 8.15991218665847034552e-02) (417, 5.51426433423889000851e-02) (418, 5.23801967557035799694e-02) (419, 7.64621206940497150084e-02) (420, 6.81672179865272370725e-02) (421, -1.16615990655322895875e-01) (422, -8.82210810631402914117e-03) (423, 4.10665984725378241382e-02) (424, -1.22969740365603846799e-01) (425, 4.05610600643403138021e-02) (426, 8.77124541292118205249e-03) (427, 1.15801141711609351104e-02) (428, -1.81313535970688520516e-02) (429, -3.91949233397560561909e-02) (430, 9.15281710981350193901e-02) (431, -6.01117963922317144476e-02) (432, 2.48347973299955886162e-02) (433, -4.37351968828688167368e-02) (434, -5.45398069794514397945e-02) (435, 1.47243555132441465705e-02) (436, -3.65992840284454362676e-02) (437, 6.88785528182709119727e-03) (438, 3.03950076811379463204e-02) (439, 4.72680770079255199723e-02) (440, -1.51305576572961664877e-02) (441, -5.80564943999869950697e-02) (442, -1.07874055054897000083e-01) (443, -4.26526280057802908985e-02) (444, -5.30242347907138589225e-02) (445, -2.14458436241870831207e-02) (446, 1.76963513899029180332e-02) (447, -7.61061256294605498196e-02) (448, -1.52568638911438295841e-02) (449, -5.81650116390474217209e-02) (450, -8.85897493542150138435e-02) (451, -6.95275995205758973183e-02) (452, -5.73666562330678656001e-02) (453, 1.99762467612165789399e-02) (454, 6.06233464059853788264e-02) (455, -3.63921685902211175523e-02) (456, -6.71372763947434003651e-02) (457, -1.44008933978669022985e-02) (458, -7.11814846900652026251e-02) (459, 3.94236420939482815062e-02) (460, 4.99838346614440431903e-02) (461, -1.14198356249870153212e-01) (462, -1.22671182722201538295e-01) (463, 3.61994464170466417191e-03) (464, -5.71989869516964510865e-02) (465, -4.68490794146774539031e-02) (466, -5.84050630251626984313e-02) (467, 6.40873471593159799164e-02) (468, 1.83726503056030332495e-02) (469, 6.65221352682542760304e-02) (470, 2.24270928572244607202e-02) (471, -7.65849587087793770568e-02) (472, -9.10040130620636822378e-02) (473, 7.17860608416997780790e-02) (474, 1.73466517263395625381e-02) (475, -1.33106052467207702089e-02) (476, -3.32370323568993361607e-02) (477, -9.23713046721377634141e-02) (478, 2.66757499418697951662e-03) (479, 3.55429422413513218526e-02) (480, -4.49666807014342806426e-02) (481, 4.96021010102130344155e-02) (482, 8.38786035182159384060e-02) (483, 1.59203837955686883752e-03) (484, -6.72509624028556629582e-02) (485, 7.12216980785849301805e-02) (486, -7.78233800923874702304e-02) (487, -4.40954787022369565364e-02) (488, -2.34256069703260433323e-02) (489, -4.00466479159072574756e-02) (490, -6.50132677065902025992e-02) (491, -8.95065814256668090820e-02) (492, -2.80925918066824292785e-02) (493, -7.33472405409937439069e-02) (494, -1.06037099860317035604e-02) (495, 4.47940480133582896727e-02) (496, -1.95056251438036620804e-02) (497, 4.57101679365406465827e-02) (498, -3.27729965940839898866e-03) (499, -4.96829501414021781902e-02) (500, 2.17736243494038583801e-02) (501, -7.55024461812479202871e-02) (502, -2.55287076752190797424e-02) (503, 3.55523175728679058372e-02) (504, 7.39205140852129960471e-02) (505, 5.06684422899994213463e-02) (506, 7.67431924834856143969e-02) (507, -7.15045194000980266491e-02) (508, 4.56765081495106861631e-02) (509, 1.78410629209265712012e-04) (510, 1.04625811390178305449e-01) (511, -2.82860347205528550596e-02) (512, -8.73475894331932067871e-02) (513, 9.26914552997779861432e-02) (514, -8.65372801740661168335e-02) (515, -4.74209186889598122150e-02) (516, 4.39371861591225654209e-02) (517, -3.54737831129804045971e-02) (518, 1.78438777192482592171e-02) (519, 8.65710584013847234131e-02) (520, -2.18550129545111784801e-02) (521, 5.60660789516213356465e-02) (522, -1.21264488809489090482e-01) (523, 5.47908267987567976220e-02) (524, 9.55733003568585842702e-02) (525, -2.31607106665733487524e-03) (526, -5.21997938146552195593e-03) (527, -3.02173459560328289131e-02) (528, -5.65323633111606826951e-02) (529, 7.58582791775072734497e-02) (530, 3.90112301535416308371e-03) (531, 9.65108778472590633779e-02) (532, -8.08986675849256708926e-02) (533, 7.01635256409645080566e-02) (534, -3.44289607224816940345e-02) (535, -4.55971227147643209943e-02) (536, 9.60942635300484140903e-03) (537, 1.20033083353515111769e-02) (538, -4.02365422927152133203e-02) (539, -3.01094183565771902900e-02) (540, 1.01652719316641035330e-01) (541, -1.32718293198416849993e-02) (542, 7.33944336236578009913e-02) (543, -1.42006604472308728404e-01) (544, -9.28234502562507446388e-02) (545, 9.45867240870430087130e-02) (546, -6.40183979168977429497e-02) (547, 2.82424007504289593939e-02) (548, -1.08922891527190313088e-01) (549, 4.32298924667811335087e-02) (550, 3.20797437382867242639e-02) (551, 6.09418556248199974612e-02) (552, 9.83730390403865090354e-02) (553, 4.01964271571278036754e-02) (554, -1.78454816341400146484e-03) (555, 1.32559298993168428460e-02) (556, -8.14844180808748097533e-02) (557, 8.98803538239751620420e-02) (558, -6.36220538865679280383e-02) (559, 1.34131465489466337321e-02) (560, 6.89655031500726045657e-02) (561, 1.46970159477277043797e-02) (562, -3.77501926214449598507e-02) (563, 1.02387885855947227687e-01) (564, -2.56256855843294620301e-02) (565, 5.49243183856622588235e-02) (566, 1.01245297800828595869e-01) (567, -8.57607789719708329956e-02) (568, -4.16217203049582956664e-02) (569, -5.61455559207641036190e-02) (570, 2.63561104676352173093e-02) (571, -3.97950329307228331532e-02) (572, -2.46392666689114053780e-02) (573, -3.63452112334744503741e-03) (574, -4.46076247374901993514e-02) (575, -1.06431394815444946289e-02) (576, -1.18730774667537789663e-02) (577, -4.25462453025365616721e-02) (578, -7.79084333324606415072e-02) (579, 1.14313151088956382190e-02) (580, -7.03123182127877131842e-03) (581, 8.14213925033986790636e-02) (582, -4.08966598217829491180e-02) (583, -9.40325014442392470571e-02) (584, 1.89304242747845505312e-02) (585, 4.64421294515894381161e-02) (586, 4.85769937224903164408e-02) (587, 6.09670883997735293947e-02) (588, 4.20034386343396057284e-02) (589, 7.01890037353247314700e-02) (590, -5.72549362266864120263e-02) (591, 6.47385656836237371320e-03) (592, -4.80312554873800548472e-02) (593, 4.55252777319081411433e-02) (594, 1.71941379576096113613e-02) (595, 4.08584685693737098555e-02) (596, 5.64783811569213867188e-03) (597, -1.59119158616281460017e-02) (598, 6.40856388541243687795e-02) (599, 5.28266712219549669505e-02) (600, 8.42826149025577633922e-03) (601, 1.94651698666673880767e-02) (602, -6.73946560186454990404e-02) (603, 8.28954181670081002853e-02) (604, -7.37386197190863790230e-02) (605, -2.84912406244422176937e-02) (606, -1.66422972786338177476e-02) (607, -3.42219241797223072687e-02) (608, 1.01737075980402824626e-01) (609, 2.85435005295627992894e-02) (610, 8.97162595257905148838e-02) (611, -3.03086218780658431249e-02) (612, -1.88429016725632954288e-02) (613, -5.94902072709182286325e-02) (614, -2.10331896308062864243e-02) (615, -1.09651784018237816176e-01) (616, 9.06245572146917588441e-02) (617, -7.17937931109235427662e-02) (618, 5.73894182935370464338e-02) (619, 2.17027822924938489091e-02) (620, 8.99619082396465458151e-02) (621, -7.96387021394248106887e-02) (622, -1.11882933626290051454e-01) (623, -3.42208224250483902806e-02) (624, 5.47942347866591100702e-02) (625, -8.39125682842148910845e-03) (626, -8.22545120550590008746e-02) (627, -2.95846790625048372547e-02) (628, -9.65681117224248541930e-02) (629, -6.49018353402625453041e-02) (630, -7.22202950755262834681e-02) (631, 2.13085399025779095861e-02) (632, 1.50049729178688782266e-02) (633, -4.86894076190373045754e-02) (634, 9.56708698747543544172e-03) (635, 5.51880779078631894530e-02) (636, 2.78014227502404384640e-02) (637, 7.44780146705820711439e-02) (638, -7.15583598142514459850e-02) (639, -4.90614403126890669116e-02) (640, 5.35707695217427642964e-02) (641, -7.28238773343716505604e-02) (642, 5.39612398869452614125e-02) (643, -1.41860725812268079205e-01) (644, -1.44908275738886167111e-02) (645, -4.26280846521429543361e-02) (646, -1.27089978339704451349e-01) (647, -8.31293478320562495565e-02) (648, -1.27697134315325430166e-03) (649, 6.50014216573351344408e-02) (650, 8.14780089055588824243e-02) (651, -6.34691776875118268686e-02) (652, 9.74140157899851810708e-02) (653, -6.35543862591411712337e-02) (654, 2.64953815780919338385e-02) (655, 4.89644184983903212049e-04) (656, 6.10863986482826221147e-02) (657, 7.26460268489864807728e-02) (658, -7.83759646436571061345e-02) (659, 1.57578428498946765401e-02) (660, 1.13215893749051263462e-01) (661, -9.70690943584780335796e-02) (662, -7.04018979414276907525e-02) (663, -2.02202291467252666390e-02) (664, -2.07907281425588549850e-02) (665, 7.17592129906152453866e-02) (666, -5.40682826682419848119e-02) (667, -1.19946341744486720260e-01) (668, 1.07426608295518075109e-01) (669, -4.99228129791570301999e-02) (670, 1.52804449242251293856e-02) (671, -2.96939593357256476081e-02) (672, -1.09138159945338722445e-02) (673, -2.36655254392540599639e-02) (674, 1.95267265008014284308e-03) (675, 5.66554389922286627534e-02) (676, 5.17185103006522831071e-02) (677, 1.71068276820639623981e-02) (678, 7.31556700337148424484e-02) (679, -7.66718008179462090501e-02) (680, 7.49488325956106484285e-04) (681, 5.29632221820590248784e-02) (682, -1.83576508387641723630e-02) (683, -4.06637713061646297041e-02) (684, 9.34904219023063726146e-02) (685, -7.99446181644594272564e-02) (686, -1.14605095383289307120e-01) (687, 7.58366089767365837704e-03) (688, -1.00066736119693439067e-01) (689, -8.07945713085220784677e-02) (690, -5.75237196254474239532e-02) (691, -1.47527479505472930432e-01) (692, -8.39865991677006817895e-02) (693, 1.28600349350484772365e-02) (694, 1.96678167233880034359e-02) (695, 3.95408148991858512944e-02) (696, -1.84441123364816293717e-02) (697, 6.79088934057870824423e-02) (698, 8.13425376706861102960e-02) (699, -6.21911718895989673594e-02) (700, -6.33224549509653622525e-02) (701, -5.71148201815109418655e-02) (702, 2.35011307556819946940e-02) (703, 1.32808772382663978912e-02) (704, 5.72404858553221679296e-02) (705, -7.08047784181058265096e-02) (706, -6.66726681613259708481e-02) (707, 2.53574715418023940994e-02) (708, 4.42479508017200456882e-02) (709, -8.90772475782521250265e-02) (710, 4.72798230049791892715e-02) (711, -7.51286825703793847975e-02) (712, 1.00397527957932303222e-01) (713, -4.66203362724476183532e-02) (714, 8.34363748330188906288e-03) (715, 5.46233514704957956454e-02) (716, -1.70099878818796811097e-02) (717, 4.39247647426329948517e-02) (718, -4.47003316689368185299e-02) (719, 1.00692330001422494096e-02) (720, 6.03986253481336998750e-02) (721, 1.48481502677903411808e-02) (722, 9.65111868773305126012e-03) (723, -1.80259310646824003066e-02) (724, -3.31255747465495700710e-02) (725, 5.32808840971600791714e-02) (726, 7.51792218972607284577e-02) (727, 2.62201511096583350646e-01) (728, -1.06689899039457927743e-01) (729, 2.10022627316670644493e-02) (730, -8.50316446119005614479e-02) (731, -3.69368035010707654320e-02) (732, 8.02984503760452439369e-02) (733, 6.13139534549290016185e-02) (734, 7.04427023691088227686e-02) (735, 5.82246739555092596152e-02) (736, 3.16309911959186257358e-02) (737, -6.14834392011489108687e-02) (738, -1.83466556848295332671e-02) (739, 3.43887531084862418940e-02) (740, -2.49492696843727039535e-02) (741, 5.81139677815473570943e-02) (742, 1.11532007686608675145e-01) (743, -9.34837842248980865900e-02) (744, -1.93340676141602677007e-02) (745, -3.20522463661286919831e-03) (746, 2.62421498899550603712e-02) (747, 6.31054392809542591403e-02) (748, -9.90137762921016600925e-02) (749, 4.28904595915821362784e-02) (750, -1.62217448852030571294e-01) (751, -1.04612984874370346100e-01) (752, -5.36285249839865488242e-02) (753, -9.27435712824680597022e-02) (754, -2.96501383232680090773e-02) (755, -5.61129428270558464065e-02) (756, -3.07643544878162221445e-02) (757, 1.47019146815315332466e-01) (758, -2.05164287003016670985e-02) (759, 8.63515242163295608513e-03) (760, -2.83475271250381542776e-02) (761, -1.82428707266832010325e-02) (762, 1.01273593354865895644e-01) (763, -3.43967311371274064857e-02) (764, -8.53773427003074597552e-02) (765, 9.62826002942910041948e-02) (766, -1.03880093295522085706e-01) (767, -1.32885118921153511096e-01) (768, 8.00315488617659998027e-02) (769, -1.00218567420354894709e-02) (770, 3.21382713894961119516e-02) (771, -9.27473753690719604492e-02) (772, 6.29299213568291354592e-02) (773, 1.50841694352525784728e-02) (774, -3.46695140496990697465e-02) (775, -1.05929683003651423090e-01) (776, -4.93319844868587292774e-02) (777, -6.83037695139742523365e-02) (778, 1.13777234557488046707e-01) (779, -2.15151356708740797152e-02) (780, 5.86276164043714326235e-02) (781, -3.01061568654478334262e-02) (782, -3.41990756177972237556e-03) (783, 7.03319994534432196831e-02) (784, 5.72225043608508895238e-03) (785, -6.06628657472822047092e-02) (786, -7.17315025687953813915e-03) (787, 7.02319607359047359818e-02) (788, 2.00763530773596862722e-02) (789, 2.77824662363704531776e-02) (790, 3.06006791080950038553e-02) (791, 9.74709057339057938218e-02) (792, -1.10363744705352442854e-01) (793, -7.24234667407660931415e-02) (794, 1.77190123948174384216e-02) (795, -9.69892197825808766165e-02) (796, -9.35989618730551919956e-02) (797, -1.13975205480511959655e-02) (798, -8.69406211153214841802e-02) (799, 1.00283853013917567676e-01) (800, -4.12366120382823483914e-02) (801, 7.93646291356043254162e-02) (802, -7.44361740192171633668e-02) (803, 5.16535681350987138649e-02) (804, 8.95620269705715323083e-03) (805, -8.67264720634818297995e-02) (806, 7.92996751676332128911e-02) (807, 6.75564878347887920462e-02) (808, -1.38931573000026318404e-02) (809, 9.12731203227298976133e-02) (810, -2.61231942044283099724e-02) (811, -7.99060004841679188958e-02) (812, -1.04451115792570554952e-02) (813, 1.21691598215569306979e-02) (814, -7.14788112243280870928e-02) (815, 6.97421419060275660229e-02) (816, -3.99611572327838379670e-02) (817, -2.15028780507968107771e-02) (818, 6.62002754387449460216e-02) (819, -2.94589753939533335880e-02) (820, -3.72319929883438774376e-02) (821, -8.70352171004124819387e-02) (822, 2.79491845344426934061e-02) (823, -1.05051983323007844251e-01) (824, 3.14798492179328565088e-02) (825, 8.72537204182503300931e-02) (826, -6.71952177077166090680e-02) (827, 9.92357961875992879153e-03) (828, -2.86093354225158691406e-02) (829, -4.51687239110469818115e-02) (830, 1.63024419494345283732e-02) (0, -1.18071843037028060414e-02) (1, -7.26841052768726347821e-02) (2, 1.08130808402817479158e-02) (3, -2.71705533729779636840e-03) (4, -3.14474678215742112219e-02) (5, -6.80361826240772488150e-02) (6, -9.06205885657359738738e-02) (7, -4.00583390956837492175e-03) (8, -8.65089976146872670359e-03) (9, -8.94565704298858066501e-02) (10, -1.71183925868757351452e-02) (11, -3.06003586691090158356e-02) (12, -2.44859075573932230552e-02) (13, 1.65770657237209573243e-01) (14, -1.53567768562566740048e-02) (15, -5.32556621436993671281e-02) (16, 6.85106201891191035624e-02) (17, 4.81403041948540721950e-02) (18, 1.10758859829531583485e-01) (19, 4.12858121379002743906e-03) (20, 8.91845766553935881404e-02) (21, -1.17575938293219203756e-01) (22, -2.76345176585854002127e-01) (23, -1.37870966665785993355e-01) (24, 4.63859036412433214935e-02) (25, 1.78009465853030734994e-01) (26, -4.76321482285564160031e-02) (27, -4.68848608434200286865e-02) (28, -5.21333254873752593994e-02) (29, -6.97147468358615962636e-02) (30, 2.75995817006534971405e-01) (31, 2.14546214226688597426e-01) (32, 4.88714848365695286869e-02) (33, -7.22511367387090736036e-02) (34, 4.52754124180596684290e-01) (35, 2.52978903080724459862e-01) (36, -1.40657286895037814123e-01) (37, 5.73592300716077030387e-02) (38, 1.44623947390870068175e-02) (39, 2.01560139970373662643e-02) (40, -7.47772157192230224609e-02) (41, 2.11245511380614509056e-01) (42, -2.60148854832919829150e-01) (43, -2.43889457293045563979e-01) (44, 9.14759808557965084508e-03) (45, 2.47979982322584467658e-03) (46, 7.00160949948862576520e-02) (47, 8.74805198768717900970e-02) (48, -3.51272798404389241522e-02) (49, -2.11723855869858507139e-01) (50, -4.03589707510567330395e-01) (51, 1.82326623199158197042e-02) (52, 2.86016935374870176489e-02) (53, -9.03795567552552747692e-02) (54, -1.13485952166206049974e-01) (55, -3.11481803685499492040e-01) (56, -2.42889816864340579716e-01) (57, 2.05334635511791110951e-02) (58, -8.93394158540558314119e-02) (59, 6.72633203517182809428e-02) (60, -1.34716380076556258016e-01) (61, 1.56167516701161417265e-03) (62, 1.84462969226317968774e-01) (63, -1.95571366575979316282e-01) (64, -1.31088473518935461071e-01) (65, -6.22181014111320498938e-02) (66, 9.52613359781235985446e-02) (67, -2.26547675052499244974e-02) (68, 1.15616448697075185903e-01) (69, 2.87249015280466174493e-02) (70, 6.10701469982917639900e-03) (71, -1.35390476070275482534e-02) (72, -9.66216359190177481731e-02) (73, 1.44706111729906689023e-01) (74, 8.03146966524594385639e-02) (75, -9.28659114131365898137e-03) (76, -6.95388380804793510004e-02) (77, -3.80495990273335554788e-02) (78, -6.55910576094479585985e-02) (79, -1.20818488355880118701e-01) (80, 9.70391881794611527168e-02) (81, 1.49895243285912999065e-01) (82, -4.19006396230725969287e-02) (83, 9.05428291668725765406e-02) (84, 7.27317073220897919450e-02) (85, -8.35457456016055893810e-02) (86, -1.44005830133229512091e-01) (87, 8.33536711577779754201e-02) (88, 1.79453270404904247082e-01) (89, 1.67727395624934549900e-01) (90, -1.86435763931426551343e-01) (91, 1.17102836670442092548e-01) (92, -6.33679405909300663691e-02) (93, -8.07211473118514197256e-03) (94, 6.71160246575386171264e-02) (95, -2.84329337175111718228e-01) (96, -3.64302249865162269815e-02) (97, 1.95038531438291695697e-01) (98, -1.50408277518861627220e-01) (99, -7.32347921476750735037e-02) (100, 7.33067625661096289313e-02) (101, 3.31768366418436766452e-02) (102, 1.07543518278731028981e-01) (103, -1.35612443697349732696e-01) (104, -4.07525604361955798294e-02) (105, -2.08937771492133578244e-01) (106, -6.66645715014584361313e-02) (107, 5.79727654962642335867e-02) (108, -3.96329231610074508851e-02) (109, 4.07347432612555557241e-02) (110, 5.26889706103952845662e-02) (111, 2.02577460132879638710e-01) (112, -2.20175927756878719865e-01) (113, 6.66797269909837619917e-02) (114, 2.07200237278604426638e-01) (115, 1.59718545363596205189e-02) (116, 1.27683580465681262295e-01) (117, 2.71325390604068183986e-01) (118, -8.58233206965348070783e-03) (119, 7.19065628501588255395e-02) (120, 5.50296028247500637609e-02) (121, 2.77640626635275666878e-01) (122, 2.43683588014187824111e-01) (123, 1.30100400661710205452e-02) (124, 1.10284393755105999957e-01) (125, 1.53368540341853348830e-01) (126, -8.58949472974602085129e-02) (127, 6.87601788471801089742e-02) (128, 2.48786971508115739571e-01) (129, -1.00406555427731830621e-01) (130, 2.04648969578958422888e-01) (131, 1.14376663851002549621e-01) (132, -5.78977976425983850706e-02) (133, -1.37740059366977002364e-01) (134, 1.14042904231663105863e-01) (135, -7.58020722729258189521e-02) (136, -1.40715065425999243109e-02) (137, 1.71542177363763176379e-01) (138, -3.98589389540829411307e-02) (139, 1.16873274169085078489e-01) (140, -8.31829828200837673169e-02) (141, 3.12232819152671647878e-01) (142, 3.70206168272908600625e-02) (143, -1.28085832603253596540e-01) (144, -4.33766767362727609370e-02) (145, -1.66206340917349593145e-01) (146, -1.23766257542688135063e-01) (147, -9.34466033000019569155e-02) (148, 2.42622057440935762207e-01) (149, -4.36681905807410480902e-02) (150, 1.21693205957922503946e-01) (151, -1.18650794578534710122e-01) (152, -1.50283350411744787145e-01) (153, -1.04810605749914784179e-01) (154, 4.81636789582112825880e-02) (155, -2.01032907331525984018e-01) (156, -6.08675290141809377520e-02) (157, 1.72043344825242167095e-01) (158, -8.57024593980688642603e-02) (159, 6.93813137736731672112e-02) (160, -9.83292414257892488649e-02) (161, 1.03830556307651977743e-01) (162, 1.39851517783429902392e-02) (163, 3.23183662686873582337e-02) (164, 1.34184979075614597283e-02) (165, -4.07740865822365516902e-02) (166, -3.94444930234245649814e-02) (167, -1.27447678221278365429e-01) (168, 4.93933932796097457940e-02) (169, -2.27515889552474953605e-01) (170, 5.90870447878592570251e-03) (171, -8.12818085972569909226e-02) (172, -1.06371639891474120687e-01) (173, -3.05730190070883298126e-02) (174, 2.54984166172192786015e-02) (175, -1.94067906698876968541e-01) (176, 2.00391779064850672487e-01) (177, 1.82643774906425859772e-01) (178, 2.62299483394919201451e-02) (179, 4.53395201166647693336e-02) (180, 2.10015180697450641600e-02) (181, -4.65955508810597593405e-02) (182, 9.78504885782736227862e-02) (183, -7.50329002552331449788e-03) (184, -5.35143901590013348901e-02) (185, -1.71799529597853967156e-01) (186, -5.93124391831836364486e-02) (187, 2.76903346920792728381e-02) (188, -2.67420510213543377587e-02) (189, -2.04948897183060488314e-02) (190, 1.21022430410580056348e-01) (191, 1.11964795136787809149e-01) (192, 5.17253393722179183323e-02) (193, 1.30382155664725357669e-01) (194, 5.22719445515281086467e-02) (195, 7.71537507645995122851e-03) (196, -1.01317470942977230774e-01) (197, -4.87359729764408958208e-02) (198, -2.15726498167874113088e-02) (199, 6.24765405786798927457e-02) (200, 1.66047595623518041974e-02) (201, -6.59210604386958609613e-02) (202, 1.57998957174667366277e-02) (203, 1.45125522575641957568e-01) (204, -2.71235553105225492276e-02) (205, 2.69411695933551992299e-02) (206, 4.38522124992064225163e-03) (207, -3.91985078317934471093e-02) (208, 6.29934765858339573708e-02) (209, 3.56097241791719434922e-02) (210, -7.05800980446260883827e-02) (211, 1.53730989086432456858e-01) (212, 1.70244143615841531103e-02) (213, -1.57246913985711160577e-02) (214, 1.10990737165635212913e-02) (215, 1.53281571457477370363e-02) (216, 4.39863618818873355898e-02) (217, -7.78298813088039997954e-02) (218, -1.58909060680289607181e-02) (219, -9.09836090772189742815e-02) (220, 1.03454014174864286635e-01) (221, 2.71194252190730226981e-02) (222, -6.29498494380403561532e-02) (223, 1.18513165520973892675e-01) (224, 5.32806559322429248993e-02) (225, -4.86108607917020291156e-02) (226, -7.18203889643985321500e-02) (227, 3.28020337115372470627e-02) (228, 3.75415640292422608804e-02) (229, 7.77486018806326228958e-02) (230, 1.81870968941127489349e-02) (231, -8.77571990827742121066e-02) (232, 2.46935146825673877691e-02) (233, 1.08851419419911693565e-01) (234, 4.67609392793641928665e-02) (235, -1.52734625394175344004e-01) (236, 3.83705688356150362295e-02) (237, -6.51112658494008705867e-02) (238, 1.23063123320838341962e-03) (239, 4.52258103319878035364e-02) (240, -7.70067210038650334925e-02) (241, -6.92679228626044436040e-03) (242, -4.73869703293256783194e-02) (243, 8.09552274115373643459e-02) (244, 2.07867631396728529125e-02) (245, 7.05634057542349479863e-02) (246, -5.13954675629959591154e-03) (247, 4.73421045844045068618e-02) (248, -7.23072648759316150002e-02) (249, -1.55911862124752352565e-02) (250, 6.73224469623171228871e-02) (251, 1.24889343757399406964e-01) (252, -1.02543647703576781827e-01) (253, -6.01981541684198651065e-02) (254, -5.15360654011665867552e-03) (255, -4.80248008223110173232e-02) (256, -4.02865185327984862140e-02) (257, -1.52452794207490915923e-01) (258, 2.22704774497859331328e-01) (259, -1.26164107029905714352e-01) (260, 1.00874277261680231343e-01) (261, -2.19376121552176013563e-02) (262, -1.65555339586885730263e-01) (263, 4.48235236051118882128e-02) (264, 8.81998156674009964329e-02) (265, 2.12803501503262409988e-01) (266, 4.19488939067623675672e-02) (267, -1.23131192221844730506e-02) (268, -3.27840516733124212601e-02) (269, -9.46351043370610295336e-02) (270, -2.82788287336583517295e-02) (271, -4.50671663963238475215e-02) (272, -1.21122382554676756572e-02) (273, -5.62746434586105515052e-02) (274, -1.89720331757497667757e-01) (275, -2.56893661063127796973e-02) (276, 5.46019041711620495283e-02) (277, 1.27962577535892206571e-02) (278, 8.54630634684442197502e-02) (279, -1.15973911252463479649e-01) (280, 1.25300890668844644438e-01) (281, 4.36353828457794259976e-02) (282, 1.05387747659161354341e-01) (283, -2.84876901880436149417e-02) (284, 9.86427555643021453102e-02) (285, -3.60219583870097781464e-02) (286, -3.29867307865269465683e-02) (287, -3.51864550733715572561e-02) (288, -1.53251995529997409040e-03) (289, -3.18944572884114277422e-02) (290, 2.44479889434136218873e-02) (291, -5.33624536746722059194e-03) (292, 9.70879152420414323621e-03) (293, -2.76635577543474994733e-02) (294, 5.35097800595734432449e-02) (295, 1.54624873706660677375e-02) (296, -5.47080098876834373250e-03) (297, -2.61847889706398606613e-03) (298, -1.32941149877586567429e-01) (299, 4.85003559349610133267e-02) (300, 8.89057293196577475003e-02) (301, 2.66093767456167967257e-04) (302, -9.66561356443355890189e-02) (303, -6.08954802000823830488e-02) (304, 2.96362888800188427341e-02) (305, -7.64060185144834064230e-02) (306, -2.72813441521008517854e-02) (307, -6.52360706067668660868e-02) (308, 3.90546923769576198593e-02) (309, -1.63727864755183888379e-01) (310, 1.57606457564492654158e-03) (311, -1.62849542969420502114e-01) (312, -4.68576217755560086448e-03) (313, -7.07572038136604353209e-02) (314, 3.86160096474802861516e-03) (315, -5.47699374467278538026e-02) (316, 6.74781352896371700023e-02) (317, 1.10788619258896853248e-01) (318, 1.05988645165829287187e-02) (319, 3.71898490227314387768e-02) (320, -1.84176080268052370925e-02) (321, 4.43297718301628937421e-02) (322, -2.99306910680155772650e-03) (323, 4.38855177864609438676e-02) (324, 7.44859638596911000780e-03) (325, -5.92189590519279912550e-02) (326, -1.72322974778146738306e-02) (327, 9.07068659948303407381e-02) (328, 1.35924360117784776003e-01) (329, 6.51120943977842765726e-05) (330, 1.09768066636498309863e-01) (331, 2.31087580427908265146e-02) (332, -2.55434920524695921462e-02) (333, -8.55757787709193057379e-02) (334, -9.04784522254877127123e-02) (335, -7.08452591006697874471e-03) (336, 4.07461228221546734041e-02) (337, 1.08890428475042627676e-01) (338, -1.41765990775151506931e-01) (339, 8.24836016201018623617e-02) (340, -3.70907699719375053005e-02) (341, 1.86363492335530449295e-02) (342, -9.45688334947712878897e-03) (343, 1.27845180021284900163e-02) (344, -8.97886745764736593500e-03) (345, 4.05243683671118425094e-03) (346, 1.65053146356507161874e-02) (347, -1.61048023776337728696e-01) (348, 9.29405146532103487722e-02) (349, 8.79503252883204883483e-02) (350, -6.44680548971065386921e-02) (351, -1.66210801309916861301e-01) (352, -3.35358591644076414751e-02) (353, -1.06747414126295639414e-01) (354, 7.13387948249253056598e-02) (355, -1.02304360919434747523e-01) (356, -5.83809898295858595296e-02) (357, -9.89504340250526165379e-02) (358, -2.46758453813774758512e-01) (359, 4.31377750168241008710e-02) (360, -2.87564196333321940580e-02) (361, -2.59649793927034938656e-02) (362, 1.34507888334613495696e-01) (363, 2.91134205702591256082e-02) (364, -8.69713017978863550672e-02) (365, 2.92915108517429259583e-02) (366, 7.44490966715852520164e-02) (367, -2.02809973425588339901e-02) (368, -3.73235714288499415003e-02) (369, -8.24761407743981045382e-02) (370, -8.54707276185530731571e-03) (371, 2.64381469315697753553e-02) (372, -1.30578419688121366571e-01) (373, -2.99875684388571789318e-02) (374, -2.09420540877744310038e-01) (375, 1.23842621880037445647e-01) (376, -5.81487812511358032053e-02) (377, 1.24436348363628448976e-01) (378, -1.24902994163625755131e-01) (379, 1.77483255794050498455e-01) (380, -3.45259730716954149621e-02) (381, 1.86564332301989654894e-01) (382, 7.78349089453533454774e-02) (383, 3.69825942512382599414e-02) (384, -4.07528842107611755097e-02) (385, -2.66398445213087906036e-02) (386, 4.91947227598542660698e-03) (387, -2.47977283088970310021e-02) (388, 7.58727808784302598655e-02) (389, 5.14673447270292752642e-02) (390, 2.31850322839152293841e-02) (391, 2.01210636278998350468e-01) (392, -1.42081367416982101703e-01) (393, 1.42357061008110546974e-01) (394, -7.67463252688890015633e-04) (395, 3.14391709004779029701e-01) (396, 2.74274366560616600363e-01) (397, 8.84987616411714722586e-02) (398, -2.54552051227757425433e-01) (399, 3.19974214499521902866e-01) (400, 9.61856914505433424623e-02) (401, 6.31330372775211062786e-02) (402, 1.95588014033926199664e-01) (403, 2.09610291873214810154e-01) (404, 6.69033248847849537633e-02) (405, 1.77481029308965143620e-01) (406, 9.80706137535408001282e-02) (407, 8.91141722610209602307e-02) (408, -1.49339622588896797639e-01) (409, 7.27108287391386720611e-02) (410, 4.96848871549848761231e-02) (411, 1.27516250296026673050e-01) (412, -2.38230357122335111020e-02) (413, 5.20116275533944460996e-02) (414, -9.69885260733646809017e-02) (415, 1.74288708577227891006e-01) (416, -1.49743346518949826951e-01) (417, 1.34270771334092098304e-01) (418, -2.57721418549443359591e-01) (419, 1.85415964484754933195e-02) (420, -8.20736888836431643934e-02) (421, -3.65199031522133177319e-02) (422, 1.40606897363907384912e-01) (423, -7.81132615739243280073e-02) (424, 2.19074822099934785058e-01) (425, -2.18421923056690947540e-01) (426, 4.36383577237311401364e-02) (427, 3.65983316173997333398e-02) (428, 1.74452945277115828437e-01) (429, -7.03708068708394224311e-02) (430, -1.17598956829487302778e-01) (431, -2.58892114339895514086e-03) (432, -7.78252550572102325122e-02) (433, -4.33953256434082626503e-02) (434, -2.75258990923558204134e-02) (435, 1.82039446281877410894e-02) (436, 4.20620313559592132191e-02) (437, 6.26227119063443860014e-02) (438, -6.03020037980259229760e-02) (439, 2.26607210286319499248e-01) (440, -5.69787724691056471360e-02) (441, 5.15016838793040665490e-02) (442, -2.35884653639511186751e-03) (443, -1.04962608823298969574e-01) (444, 1.06629488126689792038e-02) (445, 9.28558396635553590093e-02) (446, 3.33775817655829337705e-02) (447, -3.14801417062337135500e-02) (448, -1.30823289697579586699e-01) (449, 4.76074701703051942486e-03) (450, -4.41660535859419653426e-02) (451, -2.19166961854621242245e-02) (452, -5.57251019383672857588e-02) (453, -1.23339028852411561332e-01) (454, 1.10972818263279912609e-01) (455, 1.38794795314578028878e-01) (456, 1.43068948168656832898e-02) (457, 2.76418455636805969478e-02) (458, -2.38298829247680393761e-01) (459, 4.84309727308737877904e-02) (460, -6.07215421435137250872e-02) (461, -4.76124738404202635378e-02) (462, 1.59553985280063148622e-01) (463, -6.38279080791350900137e-02) (464, 1.33060797345489589816e-01) (465, -1.45973854953412224278e-01) (466, -1.22589135091280068690e-01) (467, -1.66136514874165502897e-01) (468, 9.50292830300922541920e-02) (469, 1.06615438925653477353e-01) (470, 7.53029291843280434993e-02) (471, 3.60743234726687012071e-02) (472, 2.81997148011156641145e-02) (473, -1.98957127262782307309e-01) (474, 4.26492433295104014790e-02) (475, -5.31722695040114240461e-02) (476, 1.74947607649431180477e-01) (477, 1.07261823696955013729e-01) (478, -8.72298856534832883769e-02) (479, -4.24788307739521822648e-02) (480, 1.78831887993827452765e-02) (481, -1.31054583888751879917e-01) (482, 6.25080791489362880275e-02) (483, 2.41640436371388239722e-01) (484, -1.12754807403958726142e-01) (485, -4.13910698419757971944e-02) (486, 1.15093318791117268929e-01) (487, 4.60674644794514115409e-02) (488, -1.97497707593993071518e-01) (489, 2.47463458097252030077e-02) (490, 2.48280291902151256656e-01) (491, 5.70457652211189270020e-02) (492, 3.77604848800502240769e-02) (493, 8.86801935065522767276e-02) (494, 3.34668295293299097870e-02) (495, 8.90084453237785094837e-02) (496, 8.22867505410177918490e-02) (497, -3.59739989087512522861e-03) (498, 1.91575607001600147286e-03) (499, 1.79548704503171493996e-02) (500, -5.78146848127205834067e-02) (501, 3.45648606330356961136e-02) (502, -8.96303662345810658874e-02) (503, 2.18291358334196744506e-01) (504, -6.75439307473229416656e-02) (505, -8.67473971488769667049e-03) (506, 1.99045136702728525657e-01) (507, 1.66843068938156730008e-01) (508, -9.17881689072891013281e-03) (509, -1.46352147991061193322e-01) (510, 4.90017033431515702802e-02) (511, -7.02384977436614210689e-02) (512, 5.78178390860557556152e-02) (513, -9.13948369273240475430e-03) (514, -5.89903076880205837207e-02) (515, -8.10516496416030240990e-02) (516, -2.64160453110944513921e-02) (517, 2.79867394288758133958e-02) (518, 6.83112058004897576557e-02) (519, -6.63640426360370683234e-03) (520, 1.14812349989816389617e-01) (521, 2.14943798549213187232e-02) (522, 2.72425248851303619668e-02) (523, 1.43343687374997585948e-01) (524, 1.32574229444476332507e-01) (525, 4.33950980527333732284e-02) (526, -7.33036603523946894700e-02) (527, -1.30250067625914567326e-01) (528, 3.23850124432454658518e-02) (529, 1.14736003544931700060e-01) (530, -1.17008330322706785576e-01) (531, -1.29569011314250911310e-02) (532, -1.56552772008167251361e-01) (533, 3.36156561970710754395e-02) (534, 3.34710298230718794610e-01) (535, -4.43828344089001403105e-01) (536, 3.85016838154465912414e-01) (537, 1.13306460455170148437e-03) (538, 1.36852250898806648838e-01) (539, 1.75211508888424738473e-01) (540, -1.29580446565685708515e-01) (541, -2.55026749425673660010e-01) (542, -4.24896745798866506960e-02) (543, 1.36907612173059883842e-01) (544, 1.82446728419604908833e-02) (545, 7.70918986174127240929e-02) (546, 4.54296595324660060222e-02) (547, 1.19878274894021391583e-01) (548, 3.13900996579300761713e-01) (549, 1.17068323861466802582e-01) (550, -2.70347606823490571593e-02) (551, -1.07299564825362236942e-01) (552, -1.48247451178281114403e-01) (553, 7.90277085163218206976e-02) (554, 9.14854034781455993652e-02) (555, -3.57184449811481508075e-02) (556, 1.27384354194786220127e-01) (557, -6.64694110489129491581e-02) (558, -1.70317099016478346041e-01) (559, 5.51332136452653137626e-02) (560, 9.79584700633932686786e-02) (561, 1.50799565619874981204e-01) (562, 4.33829671284077181964e-03) (563, -1.23981156015152443883e-01) (564, 1.27319389291267077990e-02) (565, 6.79025322479146903332e-02) (566, -8.51815195718193807206e-02) (567, -1.89519784423050029198e-02) (568, -3.19383336997359351672e-02) (569, -7.59820658821638676705e-03) (570, 1.14882982749236074033e-02) (571, -1.21942898048895131957e-01) (572, 3.30151902973458352686e-02) (573, 1.13629278543244827820e-02) (574, -2.43511326773594412656e-03) (575, 9.19165834784507751465e-02) (576, -4.42331244166708423271e-02) (577, -1.78772828366262070965e-02) (578, 2.21808661260418149563e-01) (579, 7.88265538104975516109e-02) (580, -1.91953376153161603401e-01) (581, -5.11642845790443653864e-02) (582, -3.10059799364539243061e-02) (583, 1.14011019994276943668e-01) (584, -9.53823786328336920004e-02) (585, 4.94804933645411797530e-04) (586, 3.33570180770939514470e-02) (587, 4.10768639185433367955e-02) (588, -9.15114398817853391677e-02) (589, -2.92175823311966349760e-02) (590, 5.13435204568657432844e-02) (591, -9.79721669950679718841e-03) (592, 7.59861601434817651723e-02) (593, -6.86786379798886709169e-02) (594, -1.57961750098917080853e-01) (595, 1.75423314596277052368e-01) (596, -8.31062570214271545410e-02) (597, -1.27938690817831962621e-01) (598, -5.81880999603196710779e-02) (599, -1.08848745597970406052e-01) (600, 1.20686376850297399921e-01) (601, -1.09190386098507799528e-01) (602, 9.45850396344230931467e-02) (603, 1.71289349501922705254e-01) (604, 4.42501827321333494891e-04) (605, 1.11312410835494632333e-01) (606, 5.06638323980378585398e-02) (607, -6.90881615640480117868e-02) (608, -1.10925518581314636046e-01) (609, 9.72343684648629622003e-03) (610, 1.58465073919834970040e-01) (611, -5.83250646931080182767e-02) (612, 1.79839586378770475983e-02) (613, -5.57288886669880106917e-02) (614, 1.63206187863932164483e-02) (615, -3.64309271774105672415e-02) (616, 8.60366570034013511403e-02) (617, -8.82111195110893420157e-02) (618, 1.74259281205886296107e-01) (619, -2.23950172648239353990e-01) (620, 3.22737362512426517736e-01) (621, 6.35260687999595619058e-02) (622, 4.37896948317342549206e-02) (623, 2.18205442906252294888e-01) (624, 1.34413857858397350897e-01) (625, 1.36242419750808696488e-01) (626, 3.93782324163430119679e-01) (627, 1.21008562347008907789e-01) (628, -2.13110413028875095298e-01) (629, 1.61994038161047515523e-01) (630, 6.32575052501323370491e-02) (631, -1.06630308091618469790e-01) (632, 2.64765978608669239058e-01) (633, -7.78925744691315920937e-03) (634, -1.31619081613362581828e-01) (635, 7.84527402851861732636e-02) (636, 7.86618703272359692802e-02) (637, -1.22387969799142792837e-01) (638, 1.24916831261732239056e-01) (639, 1.14715627262822500443e-01) (640, -1.72168585594302953057e-01) (641, 2.59814634297437715982e-02) (642, 1.37343090573232656793e-01) (643, -2.31150976182695408467e-02) (644, -1.07603067228309118297e-01) (645, 1.08732613328046984202e-01) (646, 3.26728646105169828751e-01) (647, 2.06855067829467192952e-01) (648, 3.86701931570787027503e-02) (649, -1.06586021319684823294e-01) (650, 1.78647972853119535452e-01) (651, 1.82623299698335461727e-01) (652, 3.09627605456501107939e-02) (653, -1.90755885660261692571e-01) (654, 3.01881890243836992216e-01) (655, 1.45375717321555797401e-01) (656, -6.93994898008201133166e-02) (657, -5.04378369874861828825e-02) (658, 4.68521121628535236470e-02) (659, -9.15623755685986487340e-03) (660, 4.85163503219565861446e-02) (661, -8.01740725685138738710e-02) (662, 2.02633199273465458568e-01) (663, 9.69746231713102674332e-02) (664, 1.33586722512121197637e-01) (665, -2.58041558767535095242e-01) (666, -6.45582494542487964062e-03) (667, 1.59629666573490758275e-01) (668, -2.24764001273822261462e-01) (669, 1.03119350361366209773e-02) (670, 4.68082914456392149005e-02) (671, 2.19077656289600131156e-01) (672, -1.46947303725439459843e-01) (673, 2.54219967890184639359e-01) (674, 7.37242004104178838553e-02) (675, -9.39218829451922282425e-02) (676, -8.58012114294172817397e-02) (677, 1.44122151643544055277e-01) (678, 2.65256906599847130934e-01) (679, 2.56837456593735302679e-01) (680, -1.36651373141045473503e-01) (681, -4.67258877877326905120e-03) (682, 7.22752981005815031690e-02) (683, 1.94555995573334861160e-01) (684, -5.79800275516806767895e-02) (685, 4.00665299813874262180e-02) (686, 2.23733957093357437029e-02) (687, -6.88017238531647146171e-02) (688, -9.49089232564033352668e-02) (689, -1.69314775188837973730e-01) (690, 5.52092348346340106024e-02) (691, 3.10965321317129839152e-01) (692, -1.25856436801748579335e-02) (693, 9.26888398626448707651e-03) (694, 6.46207255282747663333e-03) (695, 1.37691476115620638210e-02) (696, 4.22766464504124236945e-02) (697, -6.23364864473914051524e-02) (698, -3.08554517089332902557e-01) (699, 1.32082268713445249997e-01) (700, -2.04201295393910936538e-01) (701, 7.29853523324489744661e-03) (702, 1.91249090264574289622e-01) (703, -1.69693517451995901091e-01) (704, 1.32911610558111098479e-01) (705, 5.33235999574322439010e-02) (706, -1.65756787919082056171e-02) (707, -6.41764569720525701602e-02) (708, 3.69485710264672723158e-02) (709, 1.64579173594827689320e-02) (710, 2.82716704246795333400e-02) (711, 1.48467971788758368312e-01) (712, -2.11758304341098269052e-01) (713, 2.15771045904522756897e-01) (714, 3.36770341813933046793e-02) (715, 6.07988049886935555399e-02) (716, 1.80599222161103356576e-01) (717, -1.97042837993705553801e-02) (718, 1.09489976840853334150e-01) (719, 2.10474838382140705395e-01) (720, 1.04430776777477335449e-01) (721, 6.62932072194330340720e-02) (722, 1.47206836701232357534e-01) (723, -1.93053217759566381195e-01) (724, -1.59671307664892916933e-02) (725, -4.46962960041881129936e-01) (726, 2.25439508723183829053e-01) (727, -1.00230531678249312755e+00) (728, 1.04821143406525763009e-01) (729, 9.49596719571097480639e-02) (730, 7.87690639094075079063e-02) (731, -6.70467290634162438323e-02) (732, 1.04338205890339791315e-01) (733, 3.70250644361548655881e-02) (734, 2.13890346972268718950e-01) (735, -5.98604592349219616354e-02) (736, 2.50659006114557603162e-01) (737, -1.40359158768583014432e-01) (738, -1.95907492947064248989e-01) (739, 9.66206454166024519825e-02) (740, -3.73128829819079008145e-02) (741, -5.95819620113208547885e-01) (742, -6.91565460031735024238e-02) (743, 1.82369375084770919682e-02) (744, 1.03238084404057392507e-01) (745, -2.34977371224139690298e-02) (746, -4.90164844554024203838e-01) (747, -2.12247579950549138117e-02) (748, 3.00468306929579320741e-01) (749, -3.13656073112677846737e-01) (750, 8.44819107694660731411e-01) (751, 2.82652454749146742063e-01) (752, -1.03976673385260842686e-01) (753, 1.10627069904166555614e-01) (754, -1.49949158526478387721e-01) (755, 2.89228422340244817335e-01) (756, -4.32926782672528112639e-02) (757, -2.22059122814347559283e-01) (758, -1.44079418772581985264e-01) (759, -4.40519170636551535281e-02) (760, 4.83171480397467864587e-02) (761, 3.35567732511734065359e-02) (762, -2.49319308833362951461e-01) (763, 1.09471337238370478029e-01) (764, -4.60125748399275794065e-02) (765, -1.40622095636774496752e-01) (766, 2.32427678655160563359e-01) (767, 1.51108783846359062686e-01) (768, -1.74418169468541057153e-03) (769, -5.07053751328727167480e-02) (770, -5.34476768951778966055e-02) (771, 4.11241725087165832520e-02) (772, -9.03154977399932001880e-02) (773, 1.53201806939278761810e-01) (774, -4.91308563357198413435e-02) (775, -6.72267437834521280893e-02) (776, -1.08492750746211244484e-01) (777, 1.71280224574863249032e-01) (778, -9.78028371989332206971e-02) (779, 7.19713131949014650601e-02) (780, -1.31283520918307628628e-02) (781, 7.00257288291282059545e-02) (782, -5.80322416011607306041e-02) (783, 6.08801281110206843339e-02) (784, 1.00625246082706926165e-01) (785, 2.03005292171778983779e-01) (786, 6.58094654306060483639e-02) (787, -2.60728632313297764567e-02) (788, -8.98811038326479821992e-02) (789, 1.83748523118863020531e-02) (790, -8.87055240200312483667e-02) (791, -1.12020052737889577732e-01) (792, 1.47267063914140017289e-01) (793, -1.86480225286417729269e-02) (794, -1.53930189176102988347e-01) (795, -1.81473844362343254832e-02) (796, 2.36205208583363635011e-01) (797, 6.35360262773937561898e-02) (798, 6.64729740070586633260e-02) (799, 1.41250240424739076373e-01) (800, -1.22891158576171485861e-01) (801, 2.52266952310714887009e-01) (802, -1.55678166357484548676e-01) (803, -1.20314882016821389499e-01) (804, 3.93088554372057683017e-02) (805, 1.20922258671956356357e-01) (806, -6.99001475302273977269e-03) (807, 2.77138514396366789083e-02) (808, 1.00537949138731416698e-01) (809, 8.73654490089077750969e-03) (810, -1.92558354537476883461e-01) (811, -7.42177149396587121193e-04) (812, -1.28454863267204455468e-01) (813, -4.76469101590380999644e-04) (814, -2.09235183157689269562e-01) (815, 5.49854449046850088378e-02) (816, -2.07283392966843948990e-01) (817, 1.02542871468645852007e-01) (818, 2.59514219474099290617e-04) (819, -1.69319294681670950986e-01) (820, -1.02356005015017736959e-01) (821, 4.00204579822561259950e-02) (822, -1.60823018533162248600e-01) (823, 1.51625823092866512942e-01) (824, -1.01538280478815606811e-01) (825, -6.78737739521450278435e-02) (826, -2.23934889414693812093e-02) (827, -6.17427387228475441083e-02) (828, 8.95705893635749816895e-02) (829, 3.91950979828834533691e-02) (830, -5.69853547031449955695e-02) (0, 5.46424856376721279627e-02) (1, -2.64393387587289162288e-02) (2, -3.63562767665420449870e-02) (3, 6.33220587584523708635e-02) (4, -7.69526213072979081709e-02) (5, -4.61449868190523092987e-03) (6, -9.12751303205316943945e-02) (7, 8.55366827952859648532e-02) (8, -2.75852442156510925531e-02) (9, 1.30932772520736648465e-03) (10, -1.58140120982207558684e-03) (11, 6.72503517479025314518e-02) (12, -7.84196516185492742412e-02) (13, -5.07384772704345538008e-02) (14, 8.10058004828248107154e-02) (15, 2.69611439967599661460e-02) (16, 9.34000842127595543030e-02) (17, 7.42944788372319614433e-02) (18, 2.05208724750766159650e-02) (19, -7.04363214872311960146e-02) (20, 2.94029864827962464369e-02) (21, -6.35796419557342618045e-02) (22, -6.03325231327701758111e-02) (23, -5.13352762199292475542e-02) (24, 9.21362978122719916696e-02) (25, -6.54941989803084874877e-05) (26, -4.26302769462007374868e-02) (27, -2.45175734162330627441e-02) (28, 2.39546597003936767578e-03) (29, 7.95801161420442298988e-02) (30, -2.27592118987530733776e-02) (31, -4.23685995805819712312e-02) (32, -2.66604691116989721278e-02) (33, 4.25300513185770667768e-02) (34, -6.81655376406983259940e-02) (35, -4.91028408590780366012e-04) (36, -6.48087070416236421533e-02) (37, -1.13452039494143022691e-01) (38, -6.64897644623542102837e-03) (39, 1.94113460055403983309e-03) (40, 3.80328819155693054199e-02) (41, 5.27854329237773048367e-02) (42, -4.63129831579068076963e-02) (43, 2.83841500440675104100e-02) (44, -6.68672867260910186449e-02) (45, -7.34705924816305977476e-02) (46, -4.11706110639628516945e-02) (47, -1.09607872549832327524e-01) (48, -1.38255555477819980226e-01) (49, -1.28329937755029543922e-01) (50, -6.68908300281162437884e-02) (51, 3.50841472216714134191e-02) (52, -4.40666245443208925980e-02) (53, 3.62687416507443891045e-02) (54, -9.89730386437473325101e-02) (55, -4.13613575749885026278e-02) (56, -4.44323088389114509433e-02) (57, -4.74152213216534196283e-02) (58, 3.80209422947737699094e-02) (59, 7.13905478450119340694e-02) (60, -4.02981121257015989512e-02) (61, -1.00411214624083103275e-01) (62, -9.13522776931107866050e-02) (63, 2.32292039475997524889e-02) (64, 4.35239020915944921364e-02) (65, -5.62088614521089463549e-02) (66, -9.80533289557513620949e-02) (67, 4.75722205341114617871e-02) (68, -1.68995368015630205438e-02) (69, 1.00995838686544145424e-02) (70, -2.58492361453154829987e-02) (71, -8.51369737502583184829e-02) (72, -4.36289341602812564408e-03) (73, 3.78838983997674405568e-02) (74, 8.46591487077289484020e-02) (75, 3.39666383562731225010e-02) (76, 8.56141685019677356472e-02) (77, -4.02600551328604963630e-02) (78, 8.26198478026143462438e-02) (79, -6.49312606006636899858e-02) (80, -4.18301979135273921395e-02) (81, -6.73893413198620450100e-02) (82, 7.92526787444090830004e-02) (83, 4.40338434560986063948e-02) (84, 9.15850012936755553117e-02) (85, 7.84389575882953188346e-02) (86, -9.55393488075365893142e-02) (87, -7.02243631124992717663e-02) (88, -5.91178567372057719997e-02) (89, 4.61066627407505369440e-02) (90, -9.27741662550158746603e-02) (91, 3.19082526705732070008e-03) (92, 7.03018005992386563197e-02) (93, -5.20591424886497344815e-02) (94, -5.94721828863640777918e-02) (95, 1.77866094373423490674e-03) (96, -6.64406234094325805900e-03) (97, -4.20086183057177126043e-02) (98, 2.96672046256913094983e-03) (99, 9.45868127049410006846e-02) (100, 5.29436353180344140834e-02) (101, 5.59864026573926795716e-02) (102, -8.72288181578340371392e-02) (103, -4.13976481129758738797e-02) (104, 1.12407205033940096883e-02) (105, 9.73729328922395831469e-02) (106, -9.15406058703888830808e-02) (107, 1.94593019316271660657e-02) (108, -3.05752221750349960361e-02) (109, 8.02948045550277433868e-02) (110, 3.46867336219191871316e-02) (111, 4.24544806763879345457e-02) (112, -8.32414868594391899048e-02) (113, 2.04210221057165887404e-02) (114, -1.46881979102196167514e-02) (115, -9.79935492514272810105e-02) (116, -8.66072746805966395267e-03) (117, -2.13739612838531010952e-02) (118, -1.52849477491435754156e-02) (119, 5.98147911914083535434e-02) (120, -4.37048368862649749822e-02) (121, -1.24154036517121792171e-02) (122, -5.44724014103821416177e-02) (123, -8.26250489371226914947e-02) (124, 5.32923648801515020823e-02) (125, 1.05641282628978361996e-02) (126, 4.28483247753361565224e-02) (127, -5.88832157639726794240e-02) (128, 7.77954180579906728887e-02) (129, -6.33298155753206776231e-02) (130, -5.86007473191665906320e-02) (131, 4.63879996195518326529e-02) (132, -9.11050044797788172168e-02) (133, -4.58819596380345348652e-02) (134, -7.39589531909761455086e-02) (135, 3.24305963839327873743e-02) (136, -3.64705120693620127303e-02) (137, -5.31053271315835295763e-02) (138, -3.87637168676184945548e-02) (139, 3.41930015990723895625e-02) (140, -6.81286924793086667851e-02) (141, -9.92158952625527279512e-02) (142, -1.96039591655598928466e-02) (143, -4.16738875288790930340e-02) (144, 4.92397704298917007759e-02) (145, 8.53685587513124538583e-02) (146, -2.17684766628836665059e-02) (147, -3.78284488906951918419e-02) (148, 1.60959474151276260567e-02) (149, 7.49728058927795482091e-02) (150, -8.43924779997839713541e-02) (151, 6.68949994437132156033e-02) (152, -3.28869993585871253639e-02) (153, 8.59301827545221291564e-04) (154, 1.05972506794657889140e-01) (155, -7.19151178840411048343e-02) (156, -9.11015035569142372918e-02) (157, 2.08606839551632380902e-02) (158, -1.34849868599672411025e-03) (159, -8.85887578175319906348e-02) (160, 6.55158465536298945109e-02) (161, 3.17518228306499228353e-02) (162, 5.20611457683777534289e-02) (163, 7.98930949684478752815e-02) (164, -7.55244706960632311565e-02) (165, -9.29610674572606821009e-02) (166, 2.28095220600396109134e-02) (167, -3.51769774618542058198e-02) (168, -4.42553835135659628941e-02) (169, -7.69314682812631128739e-02) (170, -8.21693255652713172577e-02) (171, -2.97369427815897743872e-02) (172, -7.71844000332093244099e-02) (173, 1.01719626726598988062e-03) (174, 4.47160966398370759989e-02) (175, 7.62099128053733421151e-02) (176, 9.49679738715910291835e-03) (177, -6.53865667275517481460e-02) (178, -5.39003289116674264014e-02) (179, -7.27911128057936868130e-02) (180, -8.82211906632756337476e-02) (181, -2.09115459314549723135e-02) (182, 7.85792004524274029231e-02) (183, -1.41214940392711731793e-02) (184, -9.49182831791931386212e-02) (185, 8.07640243937376434147e-02) (186, 1.15673378010188471904e-02) (187, -8.80494914115494686779e-02) (188, 2.82199458296068204921e-02) (189, -6.33179019941052662057e-02) (190, -6.86881901531021105134e-02) (191, 6.77558452817049895051e-03) (192, 8.39550401409452223822e-02) (193, -9.65711594680462304119e-02) (194, 8.60362977753469440612e-03) (195, -9.38445177674915032018e-02) (196, -7.65300390151130438543e-02) (197, -5.04296342969941663315e-02) (198, 2.97689801818067090178e-03) (199, -2.51546213019065434402e-02) (200, -4.65839043417047848905e-02) (201, 3.33551156583822491775e-02) (202, 7.13671820908332171784e-02) (203, -1.56510033048970383096e-02) (204, -5.23614881475215898643e-02) (205, 2.61927406882576617464e-02) (206, -2.19478251316118470882e-02) (207, 6.16859947610955347552e-02) (208, 7.84295923954447804505e-02) (209, 4.45628843878843328152e-02) (210, 9.15089152321637705478e-02) (211, 9.07495878139198963730e-02) (212, -6.37562047284728067309e-02) (213, 8.79345883138395734147e-02) (214, -9.28178548586339018100e-03) (215, -4.97222854864102156713e-02) (216, 7.62859915689260287275e-02) (217, -7.87758893057930731363e-02) (218, -2.14621156376316700454e-02) (219, 1.79692320063065784363e-02) (220, -5.45530927487178837754e-02) (221, 1.68252160652571230992e-02) (222, -7.23086522848907231609e-02) (223, -6.97710780129475044431e-02) (224, 2.73232643067547222027e-02) (225, 2.35758656232557609056e-02) (226, -5.05130746942843850134e-02) (227, 3.95067165335711012464e-02) (228, 7.18783777859759998030e-02) (229, 5.36896777678651029864e-02) (230, -8.64758561565796418646e-02) (231, -6.03770451399708724116e-02) (232, -2.45153780808985005679e-02) (233, 9.44624278024072672189e-02) (234, 3.41821431670352518517e-02) (235, 2.88877841256899338396e-02) (236, 1.81106093463816210376e-02) (237, -8.61961400352537071567e-02) (238, -1.38366976754828764629e-02) (239, -4.01680647623132709538e-04) (240, 6.35716267767432313684e-02) (241, -2.60948659153333525906e-02) (242, -1.07244987583500483996e-03) (243, -9.64458164642684329104e-02) (244, -2.45107457422449256934e-02) (245, 7.72177017551278904728e-02) (246, -4.67372165952390436483e-02) (247, -5.03841293078638938208e-02) (248, -9.73350059573483139541e-02) (249, 4.56432602094749492738e-02) (250, 5.75660361117801763764e-02) (251, -4.55794070939292902955e-02) (252, -4.37110214180441644660e-02) (253, 9.04071158376876238272e-02) (254, -2.22971665837058989276e-03) (255, 8.05242183293158192425e-02) (256, 1.38006964775167894482e-02) (257, 5.38466633358502949624e-02) (258, 2.52966464647085831352e-02) (259, -7.46225920999948107853e-03) (260, -8.10816498719371669957e-03) (261, 4.59742444338078828925e-02) (262, 2.44528640968382157683e-02) (263, 6.67587680864377974732e-02) (264, 3.69590251847081510683e-02) (265, -4.85511379405025936262e-02) (266, -7.83449713086984550481e-03) (267, -2.99354745431221723473e-02) (268, -3.26094768209320290397e-02) (269, 8.75316903366631093864e-02) (270, 7.11357103582891947546e-02) (271, -5.66772027966861158266e-02) (272, -3.74791657667609204307e-02) (273, -3.33784203280926491941e-02) (274, -4.19998308332891964745e-02) (275, 4.20986097336078571307e-02) (276, -4.77735168752396882619e-02) (277, 1.21707910575436419748e-02) (278, 7.80297748832255305684e-02) (279, -3.96053039701960082897e-02) (280, -5.77837602215924145410e-02) (281, 4.43476344993549362328e-02) (282, 1.36309252368391128907e-02) (283, 4.56079561521495827070e-03) (284, 3.93164021304946986746e-02) (285, -8.42873407496116944237e-02) (286, -1.17917632959058053116e-02) (287, -4.33408048837988710278e-02) (288, 6.48498749260864315591e-02) (289, -8.29448396241785762539e-02) (290, 3.89708795235695487635e-02) (291, -5.49637322904814595859e-02) (292, 6.36994555872019557752e-02) (293, -2.89998547766866059117e-02) (294, -7.53796065991457903133e-02) (295, 1.83684937102793384434e-02) (296, 1.55926762219564026685e-02) (297, 1.95229122685997152908e-02) (298, 9.70426761577499186195e-02) (299, 9.00003800553055149924e-02) (300, 2.16087345468484381614e-03) (301, 6.13679778248932758511e-02) (302, -6.90934969743956656218e-02) (303, 7.14320274805498867110e-02) (304, -6.70778868037061881680e-02) (305, -1.35418583923595809565e-02) (306, 1.46085768224069358079e-02) (307, -1.49875425018656423248e-02) (308, 8.94864658185434147519e-02) (309, 1.91709141385228744314e-02) (310, 3.57586210536461682197e-02) (311, -5.57842026912133068239e-02) (312, -3.36504066388359779349e-02) (313, -4.26519244876297984326e-02) (314, 5.07987679044305390219e-02) (315, -8.91908088886510519444e-02) (316, -2.70630406030114289972e-02) (317, -6.13333464362750893639e-02) (318, -3.75115943785114744347e-02) (319, -7.17517864734749238886e-02) (320, -5.12336500037455858103e-02) (321, -9.52585050672612870803e-02) (322, -1.19408974106863085413e-02) (323, -7.55806152950893594955e-02) (324, -2.44150559065834590888e-02) (325, 1.26476677638937967663e-02) (326, 3.83580796470558357814e-02) (327, 9.22221435250237392411e-02) (328, -7.27146529728420060179e-02) (329, 4.01179462523616608971e-02) (330, 9.05848322550959206279e-02) (331, 1.53944690967420545064e-02) (332, -4.56289331450690938824e-03) (333, -8.13187474461614517862e-02) (334, 4.75138133291583796003e-03) (335, 2.52909158163976202638e-02) (336, 2.56717892791611052364e-03) (337, 