FANN_FLO_2.1
num_layers=3
learning_rate=0.005000
connection_rate=1.000000
network_type=0
learning_momentum=0.100000
training_algorithm=0
train_error_function=0
train_stop_function=0
cascade_output_change_fraction=0.010000
quickprop_decay=-0.000100
quickprop_mu=1.750000
rprop_increase_factor=1.200000
rprop_decrease_factor=0.500000
rprop_delta_min=0.000000
rprop_delta_max=50.000000
rprop_delta_zero=0.100000
cascade_output_stagnation_epochs=12
cascade_candidate_change_fraction=0.010000
cascade_candidate_stagnation_epochs=12
cascade_max_out_epochs=150
cascade_max_cand_epochs=150
cascade_num_candidate_groups=2
bit_fail_limit=3.49999999999999977796e-01
cascade_candidate_limit=1.00000000000000000000e+03
cascade_weight_multiplier=4.00000000000000022204e-01
cascade_activation_functions_count=10
cascade_activation_functions=3 5 7 8 10 11 14 15 16 17 
cascade_activation_steepnesses_count=4
cascade_activation_steepnesses=2.50000000000000000000e-01 5.00000000000000000000e-01 7.50000000000000000000e-01 1.00000000000000000000e+00 
layer_sizes=929 11 3 
scale_included=0
neurons (num_inputs, activation_function, activation_steepness)=(0, 0, 0.00000000000000000000e+00) (0, 0, 0.00000000000000000000e+00) (0, 0, 0.00000000000000000000e+00) (0, 0, 0.00000000000000000000e+00) (0, 0, 0.00000000000000000000e+00) (0, 0, 0.00000000000000000000e+00) (0, 0, 0.00000000000000000000e+00) (0, 0, 0.00000000000000000000e+00) (0, 0, 0.00000000000000000000e+00) (0, 0, 0.00000000000000000000e+00) (0, 0, 0.00000000000000000000e+00) (0, 0, 0.00000000000000000000e+00) (0, 0, 0.00000000000000000000e+00) (0, 0, 0.00000000000000000000e+00) (0, 0, 0.00000000000000000000e+00) (0, 0, 0.00000000000000000000e+00) (0, 0, 0.00000000000000000000e+00) (0, 0, 0.00000000000000000000e+00) (0, 0, 0.00000000000000000000e+00) (0, 0, 0.00000000000000000000e+00) (0, 0, 0.00000000000000000000e+00) (0, 0, 0.00000000000000000000e+00) (0, 0, 0.00000000000000000000e+00) (0, 0, 0.00000000000000000000e+00) (0, 0, 0.00000000000000000000e+00) (0, 0, 0.00000000000000000000e+00) (0, 0, 0.00000000000000000000e+00) (0, 0, 0.00000000000000000000e+00) (0, 0, 0.00000000000000000000e+00) (0, 0, 0.00000000000000000000e+00) (0, 0, 0.00000000000000000000e+00) (0, 0, 0.00000000000000000000e+00) (0, 0, 0.00000000000000000000e+00) (0, 0, 0.00000000000000000000e+00) (0, 0, 0.00000000000000000000e+00) (0, 0, 0.00000000000000000000e+00) (0, 0, 0.00000000000000000000e+00) (0, 0, 0.00000000000000000000e+00) (0, 0, 0.00000000000000000000e+00) (0, 0, 0.00000000000000000000e+00) (0, 0, 0.00000000000000000000e+00) (0, 0, 0.00000000000000000000e+00) (0, 0, 0.00000000000000000000e+00) (0, 0, 0.00000000000000000000e+00) (0, 0, 0.00000000000000000000e+00) (0, 0, 0.00000000000000000000e+00) (0, 0, 0.00000000000000000000e+00) (0, 0, 0.00000000000000000000e+00) (0, 0, 0.00000000000000000000e+00) (0, 0, 0.00000000000000000000e+00) (0, 0, 0.00000000000000000000e+00) (0, 0, 0.00000000000000000000e+00) (0, 0, 0.00000000000000000000e+00) (0, 0, 0.00000000000000000000e+00) (0, 0, 0.00000000000000000000e+00) (0, 0, 0.00000000000000000000e+00) (0, 0, 0.00000000000000000000e+00) (0, 0, 0.00000000000000000000e+00) (0, 0, 0.00000000000000000000e+00) (0, 0, 0.00000000000000000000e+00) (0, 0, 0.00000000000000000000e+00) (0, 0, 0.00000000000000000000e+00) (0, 0, 0.00000000000000000000e+00) (0, 0, 0.00000000000000000000e+00) (0, 0, 0.00000000000000000000e+00) (0, 0, 0.00000000000000000000e+00) (0, 0, 0.00000000000000000000e+00) (0, 0, 0.00000000000000000000e+00) (0, 0, 0.00000000000000000000e+00) (0, 0, 0.00000000000000000000e+00) (0, 0, 0.00000000000000000000e+00) (0, 0, 0.00000000000000000000e+00) (0, 0, 0.00000000000000000000e+00) (0, 0, 0.00000000000000000000e+00) (0, 0, 0.00000000000000000000e+00) (0, 0, 0.00000000000000000000e+00) (0, 0, 0.00000000000000000000e+00) (0, 0, 0.00000000000000000000e+00) (0, 0, 0.00000000000000000000e+00) (0, 0, 0.00000000000000000000e+00) (0, 0, 0.00000000000000000000e+00) (0, 0, 0.00000000000000000000e+00) (0, 0, 0.00000000000000000000e+00) (0, 0, 0.00000000000000000000e+00) (0, 0, 0.00000000000000000000e+00) (0, 0, 0.00000000000000000000e+00) (0, 0, 0.00000000000000000000e+00) (0, 0, 0.00000000000000000000e+00) (0, 0, 0.00000000000000000000e+00) (0, 0, 0.00000000000000000000e+00) (0, 0, 0.00000000000000000000e+00) (0, 0, 0.00000000000000000000e+00) (0, 0, 0.00000000000000000000e+00) (0, 0, 0.00000000000000000000e+00) (0, 0, 0.00000000000000000000e+00) (0, 0, 0.00000000000000000000e+00) (0, 0, 0.00000000000000000000e+00) (0, 0, 0.00000000000000000000e+00) (0, 0, 0.00000000000000000000e+00) (0, 0, 0.00000000000000000000e+00) (0, 0, 0.00000000000000000000e+00) (0, 0, 0.00000000000000000000e+00) (0, 0, 0.00000000000000000000e+00) (0, 0, 0.00000000000000000000e+00) (0, 0, 0.00000000000000000000e+00) (0, 0, 0.00000000000000000000e+00) (0, 0, 0.00000000000000000000e+00) (0, 0, 0.00000000000000000000e+00) (0, 0, 0.00000000000000000000e+00) (0, 0, 0.00000000000000000000e+00) (0, 0, 0.00000000000000000000e+00) (0, 0, 0.00000000000000000000e+00) (0, 0, 0.00000000000000000000e+00) (0, 0, 0.00000000000000000000e+00) (0, 0, 0.00000000000000000000e+00) (0, 0, 0.00000000000000000000e+00) (0, 0, 0.00000000000000000000e+00) (0, 0, 0.00000000000000000000e+00) (0, 0, 0.00000000000000000000e+00) (0, 0, 0.00000000000000000000e+00) (0, 0, 0.00000000000000000000e+00) (0, 0, 0.00000000000000000000e+00) (0, 0, 0.00000000000000000000e+00) (0, 0, 0.00000000000000000000e+00) (0, 0, 0.00000000000000000000e+00) (0, 0, 0.00000000000000000000e+00) (0, 0, 0.00000000000000000000e+00) (0, 0, 0.00000000000000000000e+00) (0, 0, 0.00000000000000000000e+00) (0, 0, 0.00000000000000000000e+00) (0, 0, 0.00000000000000000000e+00) (0, 0, 0.00000000000000000000e+00) (0, 0, 0.00000000000000000000e+00) (0, 0, 0.00000000000000000000e+00) (0, 0, 0.00000000000000000000e+00) (0, 0, 0.00000000000000000000e+00) (0, 0, 0.00000000000000000000e+00) (0, 0, 0.00000000000000000000e+00) (0, 0, 0.00000000000000000000e+00) (0, 0, 0.00000000000000000000e+00) (0, 0, 0.00000000000000000000e+00) (0, 0, 0.00000000000000000000e+00) (0, 0, 0.00000000000000000000e+00) (0, 0, 0.00000000000000000000e+00) (0, 0, 0.00000000000000000000e+00) (0, 0, 0.00000000000000000000e+00) (0, 0, 0.00000000000000000000e+00) (0, 0, 0.00000000000000000000e+00) (0, 0, 0.00000000000000000000e+00) (0, 0, 0.00000000000000000000e+00) (0, 0, 0.00000000000000000000e+00) (0, 0, 0.00000000000000000000e+00) (0, 0, 0.00000000000000000000e+00) (0, 0, 0.00000000000000000000e+00) (0, 0, 0.00000000000000000000e+00) (0, 0, 0.00000000000000000000e+00) (0, 0, 0.00000000000000000000e+00) (0, 0, 0.00000000000000000000e+00) (0, 0, 0.00000000000000000000e+00) (0, 0, 0.00000000000000000000e+00) (0, 0, 0.00000000000000000000e+00) (0, 0, 0.00000000000000000000e+00) (0, 0, 0.00000000000000000000e+00) (0, 0, 0.00000000000000000000e+00) (0, 0, 0.00000000000000000000e+00) (0, 0, 0.00000000000000000000e+00) (0, 0, 0.00000000000000000000e+00) (0, 0, 0.00000000000000000000e+00) (0, 0, 0.00000000000000000000e+00) (0, 0, 0.00000000000000000000e+00) (0, 0, 0.00000000000000000000e+00) (0, 0, 0.00000000000000000000e+00) (0, 0, 0.00000000000000000000e+00) (0, 0, 0.00000000000000000000e+00) (0, 0, 0.00000000000000000000e+00) (0, 0, 0.00000000000000000000e+00) (0, 0, 0.00000000000000000000e+00) (0, 0, 0.00000000000000000000e+00) (0, 0, 0.00000000000000000000e+00) (0, 0, 0.00000000000000000000e+00) (0, 0, 0.00000000000000000000e+00) (0, 0, 0.00000000000000000000e+00) (0, 0, 0.00000000000000000000e+00) (0, 0, 0.00000000000000000000e+00) (0, 0, 0.00000000000000000000e+00) (0, 0, 0.00000000000000000000e+00) (0, 0, 0.00000000000000000000e+00) (0, 0, 0.00000000000000000000e+00) (0, 0, 0.00000000000000000000e+00) (0, 0, 0.00000000000000000000e+00) (0, 0, 0.00000000000000000000e+00) (0, 0, 0.00000000000000000000e+00) (0, 0, 0.00000000000000000000e+00) (0, 0, 0.00000000000000000000e+00) (0, 0, 0.00000000000000000000e+00) (0, 0, 0.00000000000000000000e+00) (0, 0, 0.00000000000000000000e+00) (0, 0, 0.00000000000000000000e+00) (0, 0, 0.00000000000000000000e+00) (0, 0, 0.00000000000000000000e+00) (0, 0, 0.00000000000000000000e+00) (0, 0, 0.00000000000000000000e+00) (0, 0, 0.00000000000000000000e+00) (0, 0, 0.00000000000000000000e+00) (0, 0, 0.00000000000000000000e+00) (0, 0, 0.00000000000000000000e+00) (0, 0, 0.00000000000000000000e+00) (0, 0, 0.00000000000000000000e+00) (0, 0, 0.00000000000000000000e+00) (0, 0, 0.00000000000000000000e+00) (0, 0, 0.00000000000000000000e+00) (0, 0, 0.00000000000000000000e+00) (0, 0, 0.00000000000000000000e+00) (0, 0, 0.00000000000000000000e+00) (0, 0, 0.00000000000000000000e+00) (0, 0, 0.00000000000000000000e+00) (0, 0, 0.00000000000000000000e+00) (0, 0, 0.00000000000000000000e+00) (0, 0, 0.00000000000000000000e+00) (0, 0, 0.00000000000000000000e+00) (0, 0, 0.00000000000000000000e+00) (0, 0, 0.00000000000000000000e+00) (0, 0, 0.00000000000000000000e+00) (0, 0, 0.00000000000000000000e+00) (0, 0, 0.00000000000000000000e+00) (0, 0, 0.00000000000000000000e+00) (0, 0, 0.00000000000000000000e+00) (0, 0, 0.00000000000000000000e+00) (0, 0, 0.00000000000000000000e+00) (0, 0, 0.00000000000000000000e+00) (0, 0, 0.00000000000000000000e+00) (0, 0, 0.00000000000000000000e+00) (0, 0, 0.00000000000000000000e+00) (0, 0, 0.00000000000000000000e+00) (0, 0, 0.00000000000000000000e+00) (0, 0, 0.00000000000000000000e+00) (0, 0, 0.00000000000000000000e+00) (0, 0, 0.00000000000000000000e+00) (0, 0, 0.00000000000000000000e+00) (0, 0, 0.00000000000000000000e+00) (0, 0, 0.00000000000000000000e+00) (0, 0, 0.00000000000000000000e+00) (0, 0, 0.00000000000000000000e+00) (0, 0, 0.00000000000000000000e+00) (0, 0, 0.00000000000000000000e+00) (0, 0, 0.00000000000000000000e+00) (0, 0, 0.00000000000000000000e+00) (0, 0, 0.00000000000000000000e+00) (0, 0, 0.00000000000000000000e+00) (0, 0, 0.00000000000000000000e+00) (0, 0, 0.00000000000000000000e+00) (0, 0, 0.00000000000000000000e+00) (0, 0, 0.00000000000000000000e+00) (0, 0, 0.00000000000000000000e+00) (0, 0, 0.00000000000000000000e+00) (0, 0, 0.00000000000000000000e+00) (0, 0, 0.00000000000000000000e+00) (0, 0, 0.00000000000000000000e+00) (0, 0, 0.00000000000000000000e+00) (0, 0, 0.00000000000000000000e+00) (0, 0, 0.00000000000000000000e+00) (0, 0, 0.00000000000000000000e+00) (0, 0, 0.00000000000000000000e+00) (0, 0, 0.00000000000000000000e+00) (0, 0, 0.00000000000000000000e+00) (0, 0, 0.00000000000000000000e+00) (0, 0, 0.00000000000000000000e+00) (0, 0, 0.00000000000000000000e+00) (0, 0, 0.00000000000000000000e+00) (0, 0, 0.00000000000000000000e+00) (0, 0, 0.00000000000000000000e+00) (0, 0, 0.00000000000000000000e+00) (0, 0, 0.00000000000000000000e+00) (0, 0, 0.00000000000000000000e+00) (0, 0, 0.00000000000000000000e+00) (0, 0, 0.00000000000000000000e+00) (0, 0, 0.00000000000000000000e+00) (0, 0, 0.00000000000000000000e+00) (0, 0, 0.00000000000000000000e+00) (0, 0, 0.00000000000000000000e+00) (0, 0, 0.00000000000000000000e+00) (0, 0, 0.00000000000000000000e+00) (0, 0, 0.00000000000000000000e+00) (0, 0, 0.00000000000000000000e+00) (0, 0, 0.00000000000000000000e+00) (0, 0, 0.00000000000000000000e+00) (0, 0, 0.00000000000000000000e+00) (0, 0, 0.00000000000000000000e+00) (0, 0, 0.00000000000000000000e+00) (0, 0, 0.00000000000000000000e+00) (0, 0, 0.00000000000000000000e+00) (0, 0, 0.00000000000000000000e+00) (0, 0, 0.00000000000000000000e+00) (0, 0, 0.00000000000000000000e+00) (0, 0, 0.00000000000000000000e+00) (0, 0, 0.00000000000000000000e+00) (0, 0, 0.00000000000000000000e+00) (0, 0, 0.00000000000000000000e+00) (0, 0, 0.00000000000000000000e+00) (0, 0, 0.00000000000000000000e+00) (0, 0, 0.00000000000000000000e+00) (0, 0, 0.00000000000000000000e+00) (0, 0, 0.00000000000000000000e+00) (0, 0, 0.00000000000000000000e+00) (0, 0, 0.00000000000000000000e+00) (0, 0, 0.00000000000000000000e+00) (0, 0, 0.00000000000000000000e+00) (0, 0, 0.00000000000000000000e+00) (0, 0, 0.00000000000000000000e+00) (0, 0, 0.00000000000000000000e+00) (0, 0, 0.00000000000000000000e+00) (0, 0, 0.00000000000000000000e+00) (0, 0, 0.00000000000000000000e+00) (0, 0, 0.00000000000000000000e+00) (0, 0, 0.00000000000000000000e+00) (0, 0, 0.00000000000000000000e+00) (0, 0, 0.00000000000000000000e+00) (0, 0, 0.00000000000000000000e+00) (0, 0, 0.00000000000000000000e+00) (0, 0, 0.00000000000000000000e+00) (0, 0, 0.00000000000000000000e+00) (0, 0, 0.00000000000000000000e+00) (0, 0, 0.00000000000000000000e+00) (0, 0, 0.00000000000000000000e+00) (0, 0, 0.00000000000000000000e+00) (0, 0, 0.00000000000000000000e+00) (0, 0, 0.00000000000000000000e+00) (0, 0, 0.00000000000000000000e+00) (0, 0, 0.00000000000000000000e+00) (0, 0, 0.00000000000000000000e+00) (0, 0, 0.00000000000000000000e+00) (0, 0, 0.00000000000000000000e+00) (0, 0, 0.00000000000000000000e+00) (0, 0, 0.00000000000000000000e+00) (0, 0, 0.00000000000000000000e+00) (0, 0, 0.00000000000000000000e+00) (0, 0, 0.00000000000000000000e+00) (0, 0, 0.00000000000000000000e+00) (0, 0, 0.00000000000000000000e+00) (0, 0, 0.00000000000000000000e+00) (0, 0, 0.00000000000000000000e+00) (0, 0, 0.00000000000000000000e+00) (0, 0, 0.00000000000000000000e+00) (0, 0, 0.00000000000000000000e+00) (0, 0, 0.00000000000000000000e+00) (0, 0, 0.00000000000000000000e+00) (0, 0, 0.00000000000000000000e+00) (0, 0, 0.00000000000000000000e+00) (0, 0, 0.00000000000000000000e+00) (0, 0, 0.00000000000000000000e+00) (0, 0, 0.00000000000000000000e+00) (0, 0, 0.00000000000000000000e+00) (0, 0, 0.00000000000000000000e+00) (0, 0, 0.00000000000000000000e+00) (0, 0, 0.00000000000000000000e+00) (0, 0, 0.00000000000000000000e+00) (0, 0, 0.00000000000000000000e+00) (0, 0, 0.00000000000000000000e+00) (0, 0, 0.00000000000000000000e+00) (0, 0, 0.00000000000000000000e+00) (0, 0, 0.00000000000000000000e+00) (0, 0, 0.00000000000000000000e+00) (0, 0, 0.00000000000000000000e+00) (0, 0, 0.00000000000000000000e+00) (0, 0, 0.00000000000000000000e+00) (0, 0, 0.00000000000000000000e+00) (0, 0, 0.00000000000000000000e+00) (0, 0, 0.00000000000000000000e+00) (0, 0, 0.00000000000000000000e+00) (0, 0, 0.00000000000000000000e+00) (0, 0, 0.00000000000000000000e+00) (0, 0, 0.00000000000000000000e+00) (0, 0, 0.00000000000000000000e+00) (0, 0, 0.00000000000000000000e+00) (0, 0, 0.00000000000000000000e+00) (0, 0, 0.00000000000000000000e+00) (0, 0, 0.00000000000000000000e+00) (0, 0, 0.00000000000000000000e+00) (0, 0, 0.00000000000000000000e+00) (0, 0, 0.00000000000000000000e+00) (0, 0, 0.00000000000000000000e+00) (0, 0, 0.00000000000000000000e+00) (0, 0, 0.00000000000000000000e+00) (0, 0, 0.00000000000000000000e+00) (0, 0, 0.00000000000000000000e+00) (0, 0, 0.00000000000000000000e+00) (0, 0, 0.00000000000000000000e+00) (0, 0, 0.00000000000000000000e+00) (0, 0, 0.00000000000000000000e+00) (0, 0, 0.00000000000000000000e+00) (0, 0, 0.00000000000000000000e+00) (0, 0, 0.00000000000000000000e+00) (0, 0, 0.00000000000000000000e+00) (0, 0, 0.00000000000000000000e+00) (0, 0, 0.00000000000000000000e+00) (0, 0, 0.00000000000000000000e+00) (0, 0, 0.00000000000000000000e+00) (0, 0, 0.00000000000000000000e+00) (0, 0, 0.00000000000000000000e+00) (0, 0, 0.00000000000000000000e+00) (0, 0, 0.00000000000000000000e+00) (0, 0, 0.00000000000000000000e+00) (0, 0, 0.00000000000000000000e+00) (0, 0, 0.00000000000000000000e+00) (0, 0, 0.00000000000000000000e+00) (0, 0, 0.00000000000000000000e+00) (0, 0, 0.00000000000000000000e+00) (0, 0, 0.00000000000000000000e+00) (0, 0, 0.00000000000000000000e+00) (0, 0, 0.00000000000000000000e+00) (0, 0, 0.00000000000000000000e+00) (0, 0, 0.00000000000000000000e+00) (0, 0, 0.00000000000000000000e+00) (0, 0, 0.00000000000000000000e+00) (0, 0, 0.00000000000000000000e+00) (0, 0, 0.00000000000000000000e+00) (0, 0, 0.00000000000000000000e+00) (0, 0, 0.00000000000000000000e+00) (0, 0, 0.00000000000000000000e+00) (0, 0, 0.00000000000000000000e+00) (0, 0, 0.00000000000000000000e+00) (0, 0, 0.00000000000000000000e+00) (0, 0, 0.00000000000000000000e+00) (0, 0, 0.00000000000000000000e+00) (0, 0, 0.00000000000000000000e+00) (0, 0, 0.00000000000000000000e+00) (0, 0, 0.00000000000000000000e+00) (0, 0, 0.00000000000000000000e+00) (0, 0, 0.00000000000000000000e+00) (0, 0, 0.00000000000000000000e+00) (0, 0, 0.00000000000000000000e+00) (0, 0, 0.00000000000000000000e+00) (0, 0, 0.00000000000000000000e+00) (0, 0, 0.00000000000000000000e+00) (0, 0, 0.00000000000000000000e+00) (0, 0, 0.00000000000000000000e+00) (0, 0, 0.00000000000000000000e+00) (0, 0, 0.00000000000000000000e+00) (0, 0, 0.00000000000000000000e+00) (0, 0, 0.00000000000000000000e+00) (0, 0, 0.00000000000000000000e+00) (0, 0, 0.00000000000000000000e+00) (0, 0, 0.00000000000000000000e+00) (0, 0, 0.00000000000000000000e+00) (0, 0, 0.00000000000000000000e+00) (0, 0, 0.00000000000000000000e+00) (0, 0, 0.00000000000000000000e+00) (0, 0, 0.00000000000000000000e+00) (0, 0, 0.00000000000000000000e+00) (0, 0, 0.00000000000000000000e+00) (0, 0, 0.00000000000000000000e+00) (0, 0, 0.00000000000000000000e+00) (0, 0, 0.00000000000000000000e+00) (0, 0, 0.00000000000000000000e+00) (0, 0, 0.00000000000000000000e+00) (0, 0, 0.00000000000000000000e+00) (0, 0, 0.00000000000000000000e+00) (0, 0, 0.00000000000000000000e+00) (0, 0, 0.00000000000000000000e+00) (0, 0, 0.00000000000000000000e+00) (0, 0, 0.00000000000000000000e+00) (0, 0, 0.00000000000000000000e+00) (0, 0, 0.00000000000000000000e+00) (0, 0, 0.00000000000000000000e+00) (0, 0, 0.00000000000000000000e+00) (0, 0, 0.00000000000000000000e+00) (0, 0, 0.00000000000000000000e+00) (0, 0, 0.00000000000000000000e+00) (0, 0, 0.00000000000000000000e+00) (0, 0, 0.00000000000000000000e+00) (0, 0, 0.00000000000000000000e+00) (0, 0, 0.00000000000000000000e+00) (0, 0, 0.00000000000000000000e+00) (0, 0, 0.00000000000000000000e+00) (0, 0, 0.00000000000000000000e+00) (0, 0, 0.00000000000000000000e+00) (0, 0, 0.00000000000000000000e+00) (0, 0, 0.00000000000000000000e+00) (0, 0, 0.00000000000000000000e+00) (0, 0, 0.00000000000000000000e+00) (0, 0, 0.00000000000000000000e+00) (0, 0, 0.00000000000000000000e+00) (0, 0, 0.00000000000000000000e+00) (0, 0, 0.00000000000000000000e+00) (0, 0, 0.00000000000000000000e+00) (0, 0, 0.00000000000000000000e+00) (0, 0, 0.00000000000000000000e+00) (0, 0, 0.00000000000000000000e+00) (0, 0, 0.00000000000000000000e+00) (0, 0, 0.00000000000000000000e+00) (0, 0, 0.00000000000000000000e+00) (0, 0, 0.00000000000000000000e+00) (0, 0, 0.00000000000000000000e+00) (0, 0, 0.00000000000000000000e+00) (0, 0, 0.00000000000000000000e+00) (0, 0, 0.00000000000000000000e+00) (0, 0, 0.00000000000000000000e+00) (0, 0, 0.00000000000000000000e+00) (0, 0, 0.00000000000000000000e+00) (0, 0, 0.00000000000000000000e+00) (0, 0, 0.00000000000000000000e+00) (0, 0, 0.00000000000000000000e+00) (0, 0, 0.00000000000000000000e+00) (0, 0, 0.00000000000000000000e+00) (0, 0, 0.00000000000000000000e+00) (0, 0, 0.00000000000000000000e+00) (0, 0, 0.00000000000000000000e+00) (0, 0, 0.00000000000000000000e+00) (0, 0, 0.00000000000000000000e+00) (0, 0, 0.00000000000000000000e+00) (0, 0, 0.00000000000000000000e+00) (0, 0, 0.00000000000000000000e+00) (0, 0, 0.00000000000000000000e+00) (0, 0, 0.00000000000000000000e+00) (0, 0, 0.00000000000000000000e+00) (0, 0, 0.00000000000000000000e+00) (0, 0, 0.00000000000000000000e+00) (0, 0, 0.00000000000000000000e+00) (0, 0, 0.00000000000000000000e+00) (0, 0, 0.00000000000000000000e+00) (0, 0, 0.00000000000000000000e+00) (0, 0, 0.00000000000000000000e+00) (0, 0, 0.00000000000000000000e+00) (0, 0, 0.00000000000000000000e+00) (0, 0, 0.00000000000000000000e+00) (0, 0, 0.00000000000000000000e+00) (0, 0, 0.00000000000000000000e+00) (0, 0, 0.00000000000000000000e+00) (0, 0, 0.00000000000000000000e+00) (0, 0, 0.00000000000000000000e+00) (0, 0, 0.00000000000000000000e+00) (0, 0, 0.00000000000000000000e+00) (0, 0, 0.00000000000000000000e+00) (0, 0, 0.00000000000000000000e+00) (0, 0, 0.00000000000000000000e+00) (0, 0, 0.00000000000000000000e+00) (0, 0, 0.00000000000000000000e+00) (0, 0, 0.00000000000000000000e+00) (0, 0, 0.00000000000000000000e+00) (0, 0, 0.00000000000000000000e+00) (0, 0, 0.00000000000000000000e+00) (0, 0, 0.00000000000000000000e+00) (0, 0, 0.00000000000000000000e+00) (0, 0, 0.00000000000000000000e+00) (0, 0, 0.00000000000000000000e+00) (0, 0, 0.00000000000000000000e+00) (0, 0, 0.00000000000000000000e+00) (0, 0, 0.00000000000000000000e+00) (0, 0, 0.00000000000000000000e+00) (0, 0, 0.00000000000000000000e+00) (0, 0, 0.00000000000000000000e+00) (0, 0, 0.00000000000000000000e+00) (0, 0, 0.00000000000000000000e+00) (0, 0, 0.00000000000000000000e+00) (0, 0, 0.00000000000000000000e+00) (0, 0, 0.00000000000000000000e+00) (0, 0, 0.00000000000000000000e+00) (0, 0, 0.00000000000000000000e+00) (0, 0, 0.00000000000000000000e+00) (0, 0, 0.00000000000000000000e+00) (0, 0, 0.00000000000000000000e+00) (0, 0, 0.00000000000000000000e+00) (0, 0, 0.00000000000000000000e+00) (0, 0, 0.00000000000000000000e+00) (0, 0, 0.00000000000000000000e+00) (0, 0, 0.00000000000000000000e+00) (0, 0, 0.00000000000000000000e+00) (0, 0, 0.00000000000000000000e+00) (0, 0, 0.00000000000000000000e+00) (0, 0, 0.00000000000000000000e+00) (0, 0, 0.00000000000000000000e+00) (0, 0, 0.00000000000000000000e+00) (0, 0, 0.00000000000000000000e+00) (0, 0, 0.00000000000000000000e+00) (0, 0, 0.00000000000000000000e+00) (0, 0, 0.00000000000000000000e+00) (0, 0, 0.00000000000000000000e+00) (0, 0, 0.00000000000000000000e+00) (0, 0, 0.00000000000000000000e+00) (0, 0, 0.00000000000000000000e+00) (0, 0, 0.00000000000000000000e+00) (0, 0, 0.00000000000000000000e+00) (0, 0, 0.00000000000000000000e+00) (0, 0, 0.00000000000000000000e+00) (0, 0, 0.00000000000000000000e+00) (0, 0, 0.00000000000000000000e+00) (0, 0, 0.00000000000000000000e+00) (0, 0, 0.00000000000000000000e+00) (0, 0, 0.00000000000000000000e+00) (0, 0, 0.00000000000000000000e+00) (0, 0, 0.00000000000000000000e+00) (0, 0, 0.00000000000000000000e+00) (0, 0, 0.00000000000000000000e+00) (0, 0, 0.00000000000000000000e+00) (0, 0, 0.00000000000000000000e+00) (0, 0, 0.00000000000000000000e+00) (0, 0, 0.00000000000000000000e+00) (0, 0, 0.00000000000000000000e+00) (0, 0, 0.00000000000000000000e+00) (0, 0, 0.00000000000000000000e+00) (0, 0, 0.00000000000000000000e+00) (0, 0, 0.00000000000000000000e+00) (0, 0, 0.00000000000000000000e+00) (0, 0, 0.00000000000000000000e+00) (0, 0, 0.00000000000000000000e+00) (0, 0, 0.00000000000000000000e+00) (0, 0, 0.00000000000000000000e+00) (0, 0, 0.00000000000000000000e+00) (0, 0, 0.00000000000000000000e+00) (0, 0, 0.00000000000000000000e+00) (0, 0, 0.00000000000000000000e+00) (0, 0, 0.00000000000000000000e+00) (0, 0, 0.00000000000000000000e+00) (0, 0, 0.00000000000000000000e+00) (0, 0, 0.00000000000000000000e+00) (0, 0, 0.00000000000000000000e+00) (0, 0, 0.00000000000000000000e+00) (0, 0, 0.00000000000000000000e+00) (0, 0, 0.00000000000000000000e+00) (0, 0, 0.00000000000000000000e+00) (0, 0, 0.00000000000000000000e+00) (0, 0, 0.00000000000000000000e+00) (0, 0, 0.00000000000000000000e+00) (0, 0, 0.00000000000000000000e+00) (0, 0, 0.00000000000000000000e+00) (0, 0, 0.00000000000000000000e+00) (0, 0, 0.00000000000000000000e+00) (0, 0, 0.00000000000000000000e+00) (0, 0, 0.00000000000000000000e+00) (0, 0, 0.00000000000000000000e+00) (0, 0, 0.00000000000000000000e+00) (0, 0, 0.00000000000000000000e+00) (0, 0, 0.00000000000000000000e+00) (0, 0, 0.00000000000000000000e+00) (0, 0, 0.00000000000000000000e+00) (0, 0, 0.00000000000000000000e+00) (0, 0, 0.00000000000000000000e+00) (0, 0, 0.00000000000000000000e+00) (0, 0, 0.00000000000000000000e+00) (0, 0, 0.00000000000000000000e+00) (0, 0, 0.00000000000000000000e+00) (0, 0, 0.00000000000000000000e+00) (0, 0, 0.00000000000000000000e+00) (0, 0, 0.00000000000000000000e+00) (0, 0, 0.00000000000000000000e+00) (0, 0, 0.00000000000000000000e+00) (0, 0, 0.00000000000000000000e+00) (0, 0, 0.00000000000000000000e+00) (0, 0, 0.00000000000000000000e+00) (0, 0, 0.00000000000000000000e+00) (0, 0, 0.00000000000000000000e+00) (0, 0, 0.00000000000000000000e+00) (0, 0, 0.00000000000000000000e+00) (0, 0, 0.00000000000000000000e+00) (0, 0, 0.00000000000000000000e+00) (0, 0, 0.00000000000000000000e+00) (0, 0, 0.00000000000000000000e+00) (0, 0, 0.00000000000000000000e+00) (0, 0, 0.00000000000000000000e+00) (0, 0, 0.00000000000000000000e+00) (0, 0, 0.00000000000000000000e+00) (0, 0, 0.00000000000000000000e+00) (0, 0, 0.00000000000000000000e+00) (0, 0, 0.00000000000000000000e+00) (0, 0, 0.00000000000000000000e+00) (0, 0, 0.00000000000000000000e+00) (0, 0, 0.00000000000000000000e+00) (0, 0, 0.00000000000000000000e+00) (0, 0, 0.00000000000000000000e+00) (0, 0, 0.00000000000000000000e+00) (0, 0, 0.00000000000000000000e+00) (0, 0, 0.00000000000000000000e+00) (0, 0, 0.00000000000000000000e+00) (0, 0, 0.00000000000000000000e+00) (0, 0, 0.00000000000000000000e+00) (0, 0, 0.00000000000000000000e+00) (0, 0, 0.00000000000000000000e+00) (0, 0, 0.00000000000000000000e+00) (0, 0, 0.00000000000000000000e+00) (0, 0, 0.00000000000000000000e+00) (0, 0, 0.00000000000000000000e+00) (0, 0, 0.00000000000000000000e+00) (0, 0, 0.00000000000000000000e+00) (0, 0, 0.00000000000000000000e+00) (0, 0, 0.00000000000000000000e+00) (0, 0, 0.00000000000000000000e+00) (0, 0, 0.00000000000000000000e+00) (0, 0, 0.00000000000000000000e+00) (0, 0, 0.00000000000000000000e+00) (0, 0, 0.00000000000000000000e+00) (0, 0, 0.00000000000000000000e+00) (0, 0, 0.00000000000000000000e+00) (0, 0, 0.00000000000000000000e+00) (0, 0, 0.00000000000000000000e+00) (0, 0, 0.00000000000000000000e+00) (0, 0, 0.00000000000000000000e+00) (0, 0, 0.00000000000000000000e+00) (0, 0, 0.00000000000000000000e+00) (0, 0, 0.00000000000000000000e+00) (0, 0, 0.00000000000000000000e+00) (0, 0, 0.00000000000000000000e+00) (0, 0, 0.00000000000000000000e+00) (0, 0, 0.00000000000000000000e+00) (0, 0, 0.00000000000000000000e+00) (0, 0, 0.00000000000000000000e+00) (0, 0, 0.00000000000000000000e+00) (0, 0, 0.00000000000000000000e+00) (0, 0, 0.00000000000000000000e+00) (0, 0, 0.00000000000000000000e+00) (0, 0, 0.00000000000000000000e+00) (0, 0, 0.00000000000000000000e+00) (0, 0, 0.00000000000000000000e+00) (0, 0, 0.00000000000000000000e+00) (0, 0, 0.00000000000000000000e+00) (0, 0, 0.00000000000000000000e+00) (0, 0, 0.00000000000000000000e+00) (0, 0, 0.00000000000000000000e+00) (0, 0, 0.00000000000000000000e+00) (0, 0, 0.00000000000000000000e+00) (0, 0, 0.00000000000000000000e+00) (0, 0, 0.00000000000000000000e+00) (0, 0, 0.00000000000000000000e+00) (0, 0, 0.00000000000000000000e+00) (0, 0, 0.00000000000000000000e+00) (0, 0, 0.00000000000000000000e+00) (0, 0, 0.00000000000000000000e+00) (0, 0, 0.00000000000000000000e+00) (0, 0, 0.00000000000000000000e+00) (0, 0, 0.00000000000000000000e+00) (0, 0, 0.00000000000000000000e+00) (0, 0, 0.00000000000000000000e+00) (0, 0, 0.00000000000000000000e+00) (0, 0, 0.00000000000000000000e+00) (0, 0, 0.00000000000000000000e+00) (0, 0, 0.00000000000000000000e+00) (0, 0, 0.00000000000000000000e+00) (0, 0, 0.00000000000000000000e+00) (0, 0, 0.00000000000000000000e+00) (0, 0, 0.00000000000000000000e+00) (0, 0, 0.00000000000000000000e+00) (0, 0, 0.00000000000000000000e+00) (0, 0, 0.00000000000000000000e+00) (0, 0, 0.00000000000000000000e+00) (0, 0, 0.00000000000000000000e+00) (0, 0, 0.00000000000000000000e+00) (0, 0, 0.00000000000000000000e+00) (0, 0, 0.00000000000000000000e+00) (0, 0, 0.00000000000000000000e+00) (0, 0, 0.00000000000000000000e+00) (0, 0, 0.00000000000000000000e+00) (0, 0, 0.00000000000000000000e+00) (0, 0, 0.00000000000000000000e+00) (0, 0, 0.00000000000000000000e+00) (0, 0, 0.00000000000000000000e+00) (0, 0, 0.00000000000000000000e+00) (0, 0, 0.00000000000000000000e+00) (0, 0, 0.00000000000000000000e+00) (0, 0, 0.00000000000000000000e+00) (0, 0, 0.00000000000000000000e+00) (0, 0, 0.00000000000000000000e+00) (0, 0, 0.00000000000000000000e+00) (0, 0, 0.00000000000000000000e+00) (0, 0, 0.00000000000000000000e+00) (0, 0, 0.00000000000000000000e+00) (0, 0, 0.00000000000000000000e+00) (0, 0, 0.00000000000000000000e+00) (0, 0, 0.00000000000000000000e+00) (0, 0, 0.00000000000000000000e+00) (0, 0, 0.00000000000000000000e+00) (0, 0, 0.00000000000000000000e+00) (0, 0, 0.00000000000000000000e+00) (0, 0, 0.00000000000000000000e+00) (0, 0, 0.00000000000000000000e+00) (0, 0, 0.00000000000000000000e+00) (0, 0, 0.00000000000000000000e+00) (0, 0, 0.00000000000000000000e+00) (0, 0, 0.00000000000000000000e+00) (0, 0, 0.00000000000000000000e+00) (0, 0, 0.00000000000000000000e+00) (0, 0, 0.00000000000000000000e+00) (0, 0, 0.00000000000000000000e+00) (0, 0, 0.00000000000000000000e+00) (0, 0, 0.00000000000000000000e+00) (0, 0, 0.00000000000000000000e+00) (0, 0, 0.00000000000000000000e+00) (0, 0, 0.00000000000000000000e+00) (0, 0, 0.00000000000000000000e+00) (0, 0, 0.00000000000000000000e+00) (0, 0, 0.00000000000000000000e+00) (0, 0, 0.00000000000000000000e+00) (0, 0, 0.00000000000000000000e+00) (0, 0, 0.00000000000000000000e+00) (0, 0, 0.00000000000000000000e+00) (0, 0, 0.00000000000000000000e+00) (0, 0, 0.00000000000000000000e+00) (0, 0, 0.00000000000000000000e+00) (0, 0, 0.00000000000000000000e+00) (0, 0, 0.00000000000000000000e+00) (0, 0, 0.00000000000000000000e+00) (0, 0, 0.00000000000000000000e+00) (0, 0, 0.00000000000000000000e+00) (0, 0, 0.00000000000000000000e+00) (0, 0, 0.00000000000000000000e+00) (0, 0, 0.00000000000000000000e+00) (0, 0, 0.00000000000000000000e+00) (0, 0, 0.00000000000000000000e+00) (0, 0, 0.00000000000000000000e+00) (0, 0, 0.00000000000000000000e+00) (0, 0, 0.00000000000000000000e+00) (0, 0, 0.00000000000000000000e+00) (0, 0, 0.00000000000000000000e+00) (0, 0, 0.00000000000000000000e+00) (0, 0, 0.00000000000000000000e+00) (0, 0, 0.00000000000000000000e+00) (0, 0, 0.00000000000000000000e+00) (0, 0, 0.00000000000000000000e+00) (0, 0, 0.00000000000000000000e+00) (0, 0, 0.00000000000000000000e+00) (0, 0, 0.00000000000000000000e+00) (0, 0, 0.00000000000000000000e+00) (0, 0, 0.00000000000000000000e+00) (0, 0, 0.00000000000000000000e+00) (0, 0, 0.00000000000000000000e+00) (0, 0, 0.00000000000000000000e+00) (0, 0, 0.00000000000000000000e+00) (0, 0, 0.00000000000000000000e+00) (0, 0, 0.00000000000000000000e+00) (0, 0, 0.00000000000000000000e+00) (0, 0, 0.00000000000000000000e+00) (0, 0, 0.00000000000000000000e+00) (0, 0, 0.00000000000000000000e+00) (0, 0, 0.00000000000000000000e+00) (0, 0, 0.00000000000000000000e+00) (0, 0, 0.00000000000000000000e+00) (0, 0, 0.00000000000000000000e+00) (0, 0, 0.00000000000000000000e+00) (0, 0, 0.00000000000000000000e+00) (0, 0, 0.00000000000000000000e+00) (0, 0, 0.00000000000000000000e+00) (0, 0, 0.00000000000000000000e+00) (0, 0, 0.00000000000000000000e+00) (0, 0, 0.00000000000000000000e+00) (0, 0, 0.00000000000000000000e+00) (0, 0, 0.00000000000000000000e+00) (0, 0, 0.00000000000000000000e+00) (0, 0, 0.00000000000000000000e+00) (0, 0, 0.00000000000000000000e+00) (0, 0, 0.00000000000000000000e+00) (0, 0, 0.00000000000000000000e+00) (0, 0, 0.00000000000000000000e+00) (0, 0, 0.00000000000000000000e+00) (0, 0, 0.00000000000000000000e+00) (0, 0, 0.00000000000000000000e+00) (0, 0, 0.00000000000000000000e+00) (0, 0, 0.00000000000000000000e+00) (0, 0, 0.00000000000000000000e+00) (0, 0, 0.00000000000000000000e+00) (0, 0, 0.00000000000000000000e+00) (0, 0, 0.00000000000000000000e+00) (0, 0, 0.00000000000000000000e+00) (0, 0, 0.00000000000000000000e+00) (0, 0, 0.00000000000000000000e+00) (0, 0, 0.00000000000000000000e+00) (0, 0, 0.00000000000000000000e+00) (0, 0, 0.00000000000000000000e+00) (0, 0, 0.00000000000000000000e+00) (0, 0, 0.00000000000000000000e+00) (0, 0, 0.00000000000000000000e+00) (0, 0, 0.00000000000000000000e+00) (0, 0, 0.00000000000000000000e+00) (0, 0, 0.00000000000000000000e+00) (0, 0, 0.00000000000000000000e+00) (0, 0, 0.00000000000000000000e+00) (0, 0, 0.00000000000000000000e+00) (0, 0, 0.00000000000000000000e+00) (0, 0, 0.00000000000000000000e+00) (0, 0, 0.00000000000000000000e+00) (0, 0, 0.00000000000000000000e+00) (0, 0, 0.00000000000000000000e+00) (0, 0, 0.00000000000000000000e+00) (0, 0, 0.00000000000000000000e+00) (0, 0, 0.00000000000000000000e+00) (0, 0, 0.00000000000000000000e+00) (0, 0, 0.00000000000000000000e+00) (0, 0, 0.00000000000000000000e+00) (0, 0, 0.00000000000000000000e+00) (0, 0, 0.00000000000000000000e+00) (0, 0, 0.00000000000000000000e+00) (0, 0, 0.00000000000000000000e+00) (0, 0, 0.00000000000000000000e+00) (0, 0, 0.00000000000000000000e+00) (0, 0, 0.00000000000000000000e+00) (0, 0, 0.00000000000000000000e+00) (0, 0, 0.00000000000000000000e+00) (0, 0, 0.00000000000000000000e+00) (0, 0, 0.00000000000000000000e+00) (0, 0, 0.00000000000000000000e+00) (0, 0, 0.00000000000000000000e+00) (0, 0, 0.00000000000000000000e+00) (0, 0, 0.00000000000000000000e+00) (0, 0, 0.00000000000000000000e+00) (0, 0, 0.00000000000000000000e+00) (0, 0, 0.00000000000000000000e+00) (0, 0, 0.00000000000000000000e+00) (0, 0, 0.00000000000000000000e+00) (0, 0, 0.00000000000000000000e+00) (0, 0, 0.00000000000000000000e+00) (0, 0, 0.00000000000000000000e+00) (0, 0, 0.00000000000000000000e+00) (0, 0, 0.00000000000000000000e+00) (0, 0, 0.00000000000000000000e+00) (0, 0, 0.00000000000000000000e+00) (0, 0, 0.00000000000000000000e+00) (0, 0, 0.00000000000000000000e+00) (0, 0, 0.00000000000000000000e+00) (0, 0, 0.00000000000000000000e+00) (0, 0, 0.00000000000000000000e+00) (0, 0, 0.00000000000000000000e+00) (0, 0, 0.00000000000000000000e+00) (0, 0, 0.00000000000000000000e+00) (0, 0, 0.00000000000000000000e+00) (0, 0, 0.00000000000000000000e+00) (0, 0, 0.00000000000000000000e+00) (0, 0, 0.00000000000000000000e+00) (0, 0, 0.00000000000000000000e+00) (0, 0, 0.00000000000000000000e+00) (0, 0, 0.00000000000000000000e+00) (0, 0, 0.00000000000000000000e+00) (0, 0, 0.00000000000000000000e+00) (929, 3, 5.00000000000000000000e-01) (929, 3, 5.00000000000000000000e-01) (929, 3, 5.00000000000000000000e-01) (929, 3, 5.00000000000000000000e-01) (929, 3, 5.00000000000000000000e-01) (929, 3, 5.00000000000000000000e-01) (929, 3, 5.00000000000000000000e-01) (929, 3, 5.00000000000000000000e-01) (929, 3, 5.00000000000000000000e-01) (929, 3, 5.00000000000000000000e-01) (0, 3, 0.00000000000000000000e+00) (11, 3, 5.00000000000000000000e-01) (11, 3, 5.00000000000000000000e-01) (0, 3, 0.00000000000000000000e+00) 
connections (connected_to_neuron, weight)=(0, -2.06589943792000567402e-02) (1, -5.81047627649327533272e-02) (2, 3.86731413543675087152e-02) (3, -9.28836504932685630420e-02) (4, -3.80653398938656031825e-02) (5, 2.82519822389637118021e-03) (6, 8.23652014993620090744e-02) (7, -8.61359667897849817786e-02) (8, 5.71871933599649162616e-03) (9, 5.45581474886562764470e-02) (10, -1.74621769662324129169e-02) (11, -7.88962274237608833516e-03) (12, -3.22236601521321899821e-02) (13, -6.58976811120814964795e-03) (14, -4.42075604653731704663e-02) (15, 5.40808829881414612761e-02) (16, -4.07167416620690045259e-02) (17, -5.11068708968622636979e-02) (18, 4.49823730235966862123e-02) (19, -6.32781905376244013794e-02) (20, -1.80127887364295302675e-04) (21, 9.34610071969466972563e-03) (22, 5.26519799875744612394e-02) (23, 2.09471299714159731042e-01) (24, -5.53212700130603987625e-02) (25, -1.46708243604753985068e-01) (26, 8.66128667651088444968e-03) (27, -3.52665632963180541992e-02) (28, -9.85199362039566040039e-02) (29, -1.15214009623149527678e-02) (30, 1.50483351336625752886e-02) (31, -1.08351349471495453369e-01) (32, -2.54734451089826743897e-02) (33, -8.55359760505222804783e-02) (34, 1.71252680646278576670e-01) (35, 7.22910288741757892789e-03) (36, 7.05946039063246461032e-02) (37, -2.18501211527364486154e-01) (38, 1.26883377928319496242e-01) (39, -7.03023422712901052689e-02) (40, -3.61764132976531982422e-02) (41, -1.36084080428672704599e-01) (42, 1.49852431339221020545e-01) (43, -9.31726759996120701413e-02) (44, 3.65474176669539282947e-02) (45, 8.45417947526257290702e-02) (46, -5.83790425787299935290e-02) (47, 3.20296107053410633592e-02) (48, -2.74685947258121399006e-01) (49, -2.03288935827136169054e-01) (50, -2.07013858720115268008e-01) (51, 2.60046231302103183700e-03) (52, -2.66668455367957552005e-02) (53, 4.22432952217654048011e-02) (54, 5.50610835979525869988e-02) (55, 8.45399178006336210478e-02) (56, 1.33803326862086846560e-01) (57, 7.74164579067461167128e-02) (58, 1.69394240078027225049e-01) (59, 1.40130060847783066702e-01) (60, -4.31288790190399520807e-02) (61, -4.65913761139976276282e-02) (62, 4.19336110454446853169e-02) (63, 1.67782252892143796119e-01) (64, 5.08688591531599523798e-02) (65, 1.41452868102700829445e-01) (66, 2.84066721636789150385e-02) (67, 4.98283344751754356250e-02) (68, 7.62124543002360849142e-02) (69, 1.16663611184183876879e-01) (70, 1.48264770163625686505e-01) (71, 1.70187133435752424582e-02) (72, -5.66314892742222630861e-02) (73, 5.47427726596960498306e-02) (74, -2.10371233490055202509e-02) (75, 4.90913145227432137774e-02) (76, 3.64658639265463173709e-03) (77, -9.93416457032083102807e-03) (78, 2.05585980312189220420e-01) (79, -3.51889397942124135255e-02) (80, -4.36571227493289595878e-02) (81, -4.64571946699570206829e-02) (82, 6.45650143689278366299e-02) (83, 1.52076188523302652245e-01) (84, 1.15574020087568906517e-02) (85, -1.76858123742992465188e-02) (86, 1.07256720467431523880e-01) (87, 1.39038990460002547661e-02) (88, -3.26264566788456722435e-02) (89, -1.28033453266700701645e-02) (90, -6.84246899792440160804e-02) (91, -1.27303881696554016534e-01) (92, -5.29224005035753147785e-02) (93, -1.62063312678118215393e-01) (94, -2.21705964569448993329e-01) (95, 1.03593813418550548255e-01) (96, -1.17552250263112237350e-01) (97, -3.15677916433631133852e-01) (98, 2.01304376222900573146e-02) (99, -1.27687315232347022714e-02) (100, 7.51047931184120193260e-02) (101, 4.03599729570646853505e-02) (102, -2.38732683438033221890e-01) (103, 1.14117959357545817323e-01) (104, 2.68732956374656217768e-01) (105, -1.28135149482501237150e-01) (106, -6.59281161033858781328e-02) (107, -1.55902965599988507783e-01) (108, 6.92237962780266752327e-02) (109, 1.83891567128885186078e-01) (110, 1.53714953612344214923e-02) (111, -1.46494041961714144273e-01) (112, -6.60600556444665837352e-02) (113, -5.47382251518112109001e-02) (114, -7.13161110376154538937e-02) (115, 2.04201620654620615014e-02) (116, -3.01593646645132509865e-02) (117, 1.72640111930508835525e-02) (118, 1.88771622040470543613e-01) (119, -9.55309219500411477277e-02) (120, -3.13314374695541630889e-02) (121, -1.08047039869156105696e-01) (122, 7.16746206998463697424e-02) (123, 1.47914912064200210207e-01) (124, 8.73943288258227229948e-02) (125, 1.02538152671190017223e-02) (126, -7.94360079819415171309e-03) (127, 4.00969235690204900413e-02) (128, -2.21609105028230217449e-02) (129, -4.11879313853049933147e-02) (130, -1.08344962108395045930e-01) (131, 3.64678913091877722821e-04) (132, 1.35573411625143028930e-02) (133, -1.86295708252949485106e-02) (134, 9.23423580161517459919e-02) (135, 7.75816038758017217924e-02) (136, -4.11427086208362574604e-02) (137, -2.93525379895118072870e-02) (138, 1.41406228476663620164e-01) (139, 1.41153634545639367071e-01) (140, -7.46458905102640596363e-02) (141, -3.35560366180571167938e-02) (142, -1.00002479400963656397e-01) (143, 7.71239244789058836504e-02) (144, 1.59903989154313558307e-01) (145, -5.36636092909602846479e-02) (146, -7.96288670161970357775e-02) (147, -6.57210459015657028070e-02) (148, -6.98921619756503048615e-02) (149, 2.36337634232900196951e-02) (150, -7.43859210711749208045e-02) (151, -1.16667978435868957554e-01) (152, -4.86650571661812001573e-03) (153, -2.56513528280075155108e-02) (154, 8.26427587206140096265e-02) (155, -4.22268848827034373739e-02) (156, -5.72343536293263080439e-02) (157, -9.64472317588058875026e-03) (158, -6.79219116890624474703e-02) (159, -1.48591188116735835323e-02) (160, 1.57622576668755426388e-02) (161, 3.22748616080584735388e-02) (162, 4.53451660066664374860e-02) (163, -5.80679171965584883797e-02) (164, 4.89409038164046669706e-02) (165, -5.44167264861528179876e-02) (166, 2.57538997371862463104e-02) (167, 5.73389000712989649333e-02) (168, -8.37496188733021645900e-02) (169, -8.20596104013540487976e-03) (170, 3.03296786529408321509e-02) (171, 3.05880770443514582446e-02) (172, 3.11810482693065937898e-02) (173, 1.06637168504535737035e-01) (174, 1.41163493749116686349e-01) (175, -5.02146317857465052104e-02) (176, -6.13544171347924494064e-02) (177, 4.30092792533206605410e-02) (178, 1.35340130594518229246e-02) (179, 5.08791569385908838685e-03) (180, 7.76857016199359318165e-02) (181, 1.01387265615927466000e-01) (182, 3.18943743286593736630e-02) (183, 7.64741297389796292894e-02) (184, -3.55150931202329114833e-02) (185, -3.69167170652112477947e-02) (186, 1.61086663641933192093e-01) (187, 1.56028658001881280482e-02) (188, -6.36634163046769369076e-02) (189, 5.02985104621785222845e-02) (190, 1.08890005750927901240e-01) (191, 4.66871188439034329187e-02) (192, 1.31618715055750012954e-01) (193, -1.83741574662919446292e-02) (194, -2.37903602961845421493e-02) (195, 6.48067206697372066165e-03) (196, 1.32295499680373018769e-01) (197, 4.59250550633794954458e-02) (198, 1.29193239560380840336e-01) (199, -6.16806815808489741770e-02) (200, -1.32874281314615903110e-02) (201, -3.13879064988029296557e-02) (202, 3.92201192037344298358e-02) (203, -3.08599087262552002064e-02) (204, -5.16130252378831089199e-02) (205, 2.49642022788875437081e-03) (206, 1.11647675545998009000e-03) (207, 3.60692587219091573281e-02) (208, 6.65131713365905430368e-02) (209, 6.28466640089910127953e-02) (210, 5.99728197041818691937e-02) (211, -4.71285779059205447994e-02) (212, -4.68106258579091064065e-02) (213, 8.16814827178999058876e-02) (214, -4.94827260995386250531e-02) (215, -3.38021674262685353773e-02) (216, -7.45867309262320671293e-02) (217, 5.49037382992916059288e-02) (218, 1.10450414242385011598e-01) (219, -3.75702241922484178605e-02) (220, 4.20804069240133735152e-02) (221, -2.46548685220903673887e-02) (222, -9.83012337795473728486e-02) (223, 5.56560700501028682297e-02) (224, 1.82128063793220440481e-01) (225, -8.61914329702587050930e-02) (226, 1.05196493418423256405e-01) (227, 1.28839107458791540806e-01) (228, -2.95001838818264999764e-02) (229, 2.91583984183064401363e-02) (230, 1.37249379053714953836e-01) (231, -1.15537433778478360047e-01) (232, 4.05651731103144480572e-02) (233, 5.73170086155193603261e-02) (234, 4.18840990265649179558e-02) (235, 2.84594280755675541061e-02) (236, 1.13028165180105097387e-01) (237, 1.41256822994378569702e-02) (238, -4.12040201646026761628e-03) (239, 7.17132634572537341899e-02) (240, 2.41817482200665304082e-02) (241, 1.22184274616090507437e-01) (242, -5.98530897444097681470e-02) (243, 8.20139920807591848995e-02) (244, 2.46638149778556775571e-02) (245, -5.41606677637456040975e-02) (246, -5.09459165177756773124e-02) (247, 1.20985530898083226692e-01) (248, -5.67794308619531881699e-02) (249, -1.35916700350659808150e-01) (250, -3.67604171525846975740e-03) (251, 1.41993310898036375484e-02) (252, 1.06981899312372074479e-02) (253, 3.38356692970488356909e-02) (254, 7.90962251159590401528e-02) (255, 3.03041615488158465330e-02) (256, 7.76765539938658877706e-02) (257, 7.21694455813086648693e-03) (258, 1.19858617380026160476e-02) (259, 6.45068546723356062156e-02) (260, 3.77534925027069589998e-02) (261, -5.30308024110006936969e-02) (262, -6.33837515618427688180e-02) (263, -3.79312909148292326522e-02) (264, 6.06248990901958953459e-02) (265, -4.06293471864966129758e-02) (266, -1.03699515575325848515e-01) (267, 1.49566979646029909329e-02) (268, 6.78809842235669202992e-02) (269, 1.16850922411437254354e-03) (270, -1.26669246797193064263e-02) (271, -5.96688370493454744992e-02) (272, -5.96251193072317095534e-02) (273, 4.75763811691824224648e-03) (274, 1.39849750940016726020e-01) (275, -1.16698583587573553877e-01) (276, 3.98270966738936069151e-02) (277, -1.23850784513696451916e-01) (278, -5.76524159920959039516e-02) (279, -8.87855763627747388012e-03) (280, -3.68659397833325519489e-02) (281, -6.91017241894161388105e-02) (282, -4.94354623058871067709e-02) (283, 9.07278335850526390649e-02) (284, 8.16246503008233037502e-02) (285, -1.13237126694229361945e-01) (286, -3.96891728410985675235e-02) (287, 9.33206065734944190115e-02) (288, -9.04653745110066687118e-02) (289, 1.00779135357958640751e-01) (290, 1.03118035445838071573e-01) (291, -9.33298153388638918049e-02) (292, -1.01045242148822475570e-01) (293, -1.55925885933422297969e-01) (294, -7.54966769403541682060e-02) (295, -3.34026293794141421190e-02) (296, -1.59817566151930406937e-01) (297, -9.23290219326973055081e-02) (298, -7.88342287782720224643e-02) (299, -1.79894587673033401476e-01) (300, 9.22192688202843752210e-02) (301, -4.93387572178372937892e-02) (302, -2.26774518814347680884e-01) (303, -4.88707966169098853570e-02) (304, 1.36789471128253625754e-01) (305, -1.49348891023325630600e-01) (306, -1.55577371559041666149e-01) (307, -1.63633365435944505561e-01) (308, 7.06205796555486736699e-02) (309, 9.58516417059093184250e-02) (310, -1.30262429076974523001e-01) (311, -6.32165905485249368656e-02) (312, 9.72490320794742318933e-02) (313, 6.80117310116182816060e-02) (314, -4.91248945292150976383e-02) (315, 3.48429446001285655909e-02) (316, 5.35370503601071828781e-02) (317, -9.30479773876970034374e-02) (318, 9.73537011280131286961e-02) (319, 2.69647149184985140957e-02) (320, 1.90445612655309841343e-02) (321, -1.11642433873787513821e-02) (322, -9.12097755379718821978e-02) (323, 1.62510042623280670515e-01) (324, 6.74250260762049389435e-03) (325, 4.53880514306154447812e-02) (326, 5.22653594547892244582e-02) (327, -2.71769775861839743558e-02) (328, -1.61092935410251381079e-02) (329, 1.04552954792238528281e-01) (330, 6.68565832751681909940e-02) (331, -1.07947521634117853118e-02) (332, 4.68186294725601651057e-02) (333, 4.97198815529424006932e-02) (334, 5.56954550107868553988e-02) (335, -6.32077741344166527115e-02) (336, -8.34602420560277510377e-04) (337, -1.41766793035293520164e-01) (338, 1.22177759040302133520e-01) (339, -1.43240185756025456554e-01) (340, 5.29748686321750081318e-02) (341, 8.50097578952453553081e-02) (342, 2.28229333775102072313e-02) (343, 3.36609742768866140872e-02) (344, 2.95943350683197554940e-02) (345, -1.21344982655794408899e-01) (346, -1.37883739844729298618e-02) (347, -5.50075821532337652653e-02) (348, 2.40175240456811725509e-02) (349, 9.47869891519709101280e-02) (350, 1.40831508919194436924e-01) (351, -1.15327861822721713936e-01) (352, -9.09477452937489661000e-02) (353, -1.44698059462356701937e-02) (354, -2.04157064900024276533e-01) (355, -1.30840260088952192730e-01) (356, -1.67690546141515461898e-01) (357, -3.65609027290517349384e-02) (358, 5.89105446950445241217e-02) (359, -2.55057654248639319172e-02) (360, 6.01014774505494869805e-02) (361, -7.82936382105684225419e-02) (362, -5.97326751837886360530e-02) (363, 7.45851907682926057452e-02) (364, 6.13441129525347517149e-02) (365, -5.22205944594858906954e-03) (366, 1.15593492095292738053e-01) (367, 2.19107946526374934570e-02) (368, -2.15618653945860855314e-02) (369, 1.57563904264400478361e-01) (370, 4.93751243561365155132e-02) (371, -1.14254262607296055987e-01) (372, -1.47475999651368299553e-02) (373, 5.28186469570934499784e-03) (374, -2.54510007756558638559e-02) (375, -1.25756959205087864850e-01) (376, 6.43541893155650662761e-02) (377, -1.08735623153661559170e-01) (378, -8.36971003539520863601e-02) (379, -4.92484877410013510701e-02) (380, -7.24464147162229843424e-02) (381, -7.67155435642849214961e-02) (382, -1.42614400636073779260e-01) (383, 4.69465884048241577364e-02) (384, 3.25168993556879670770e-02) (385, -5.50985762946195126166e-03) (386, -2.58591791701691872674e-02) (387, 3.39178680982745311967e-02) (388, 4.14830872589912955095e-02) (389, 1.60579550099450851786e-01) (390, 1.13314866279364906410e-01) (391, -4.55300573623307227970e-04) (392, -2.77442464840951114047e-02) (393, 9.15211474566766380878e-02) (394, 1.05325758018810930472e-01) (395, 6.53489184732933825472e-02) (396, 2.96481324151832217884e-02) (397, 1.49618106763904652051e-02) (398, 7.04276036733954280411e-02) (399, -8.51930541907332805618e-02) (400, 1.06022655829701620278e-01) (401, 3.03480178439832944115e-02) (402, 3.35683697036095185506e-02) (403, 3.33160224496210563561e-02) (404, -3.64791931019613005494e-02) (405, -3.02342189377925243954e-02) (406, 6.26528713356412636504e-02) (407, 2.03209944213891824383e-02) (408, -3.52548203860528069908e-02) (409, 3.04664539311629836357e-03) (410, -5.26993574829328625952e-02) (411, -1.19304159985303609437e-01) (412, -3.98463517866039715343e-02) (413, 7.94646006400271665004e-02) (414, 8.26283985359949485483e-02) (415, -1.61106908209840332669e-01) (416, 1.15886513381789083010e-01) (417, 1.65560990408244457228e-02) (418, 5.59708619735843973531e-03) (419, 1.45661083435794452834e-01) (420, -2.19218462655890872215e-02) (421, -4.97223585187686542564e-02) (422, -3.58113595809417470384e-02) (423, -4.85545862538505016565e-03) (424, -1.31872950532856775263e-01) (425, 6.33668347137065768315e-02) (426, -7.64115307591269471432e-02) (427, 1.23446704628078721827e-02) (428, 9.03372485805736813447e-02) (429, -4.11720777459521555808e-03) (430, 4.88472203151191428083e-02) (431, 4.49865279566758549668e-02) (432, -6.80689800710788245341e-02) (433, -5.17646750010194167668e-02) (434, 3.16267507312110009512e-03) (435, 3.20929194322996632141e-03) (436, -1.56360090673805157691e-01) (437, -1.47520151264209573028e-02) (438, 5.44341232234845373572e-02) (439, 2.27726010182752042210e-02) (440, 7.11286990847584815745e-02) (441, -1.55207108620634103013e-02) (442, 7.40652174331050405787e-02) (443, -9.09756197085688222970e-02) (444, -4.20654090148815176797e-02) (445, -8.62302044042198567730e-02) (446, 9.10679714560234526699e-02) (447, -4.79711229301740399444e-02) (448, -7.29074602553238942937e-02) (449, 8.26569897959831823009e-02) (450, 1.05641093837473248884e-01) (451, -1.47422254085540771484e-02) (452, 7.50676539469509740421e-02) (453, -9.70473369652231493410e-02) (454, 6.49441525172177874792e-02) (455, 6.46040746391744746813e-02) (456, -2.42606313224686467866e-02) (457, 5.67601283210546966873e-02) (458, -9.33197179122258330120e-02) (459, 9.96297111044390781842e-02) (460, -5.63622840860618368186e-03) (461, 3.02270357791934590752e-02) (462, 5.10614508064280783750e-03) (463, -1.00412830720786785954e-01) (464, 6.66914746563280480540e-02) (465, 8.60208727013342666634e-02) (466, 9.50649463103848263446e-03) (467, -8.11829298930488163499e-02) (468, -1.13113325943483888913e-01) (469, -3.11521086038181425903e-02) (470, 9.85342173864599546462e-02) (471, -1.01101615268002029135e-01) (472, 9.80790182948112487793e-02) (473, 7.98259401403223350924e-02) (474, -7.53302355267685130880e-02) (475, -5.49737055212137226690e-02) (476, -7.14649828729032182695e-02) (477, 1.03203227925199758630e-01) (478, -2.79792164705416727954e-03) (479, -1.97523351853370401909e-02) (480, 7.01708437892116509982e-02) (481, 3.68468166697281454547e-02) (482, -1.09332196657472041634e-01) (483, 4.42833205943592850273e-02) (484, 1.77851922874826089138e-02) (485, 9.66530708579982772433e-02) (486, -2.65819369696704971284e-02) (487, -3.86730661634662464810e-02) (488, 5.25942146945338404040e-02) (489, -1.44724321398124761845e-02) (490, 2.41093705637115303386e-02) (491, 6.44084568578000560279e-02) (492, 5.59451630287729692603e-02) (493, 5.71435764431953430176e-02) (494, 1.43362607210978099115e-01) (495, 3.31495888751317940857e-02) (496, 8.86893803670818492435e-02) (497, 4.86913260654395496640e-02) (498, 4.34381606812814305418e-02) (499, 5.80971291110901830179e-02) (500, -1.59672690835162417455e-02) (501, -1.00073229545588365808e-01) (502, -6.58506484117877127771e-02) (503, -1.37415034633161757538e-02) (504, -1.41793538838286631298e-01) (505, -6.76266696584669202430e-02) (506, -2.95922336972926497412e-02) (507, -1.00243704980722998787e-02) (508, -4.54291118476257554937e-02) (509, 2.07743181591197832725e-02) (510, -8.11426553891882867964e-02) (511, 9.65532438284610466939e-02) (512, -6.17237555198759668684e-02) (513, 1.81227380627310141747e-02) (514, -3.31299901008605957031e-02) (515, -9.60963712148787674305e-02) (516, 6.18922813978101601928e-02) (517, -5.63474835005694923984e-02) (518, -5.10543343968240543457e-03) (519, 2.16717410531544224517e-01) (520, -1.40859861739548758441e-01) (521, 2.56961058226760083803e-03) (522, 1.30336312868940512599e-01) (523, -1.09565111862988895375e-01) (524, -1.42170064516895233719e-01) (525, 6.00951104171788055841e-02) (526, 4.68427626137638761228e-02) (527, -6.96689134146428763056e-03) (528, 2.60689095650391070014e-02) (529, -3.61950502320068090434e-02) (530, -2.05001339588135156333e-01) (531, 5.50165555297409559349e-03) (532, 8.28825265510754194409e-02) (533, 1.94945276167637099318e-01) (534, -4.77145597658619122217e-02) (535, -5.97934424877166748047e-03) (536, 6.50064241052918795338e-02) (537, -1.11982579237857204912e-01) (538, -9.04598051490643380312e-03) (539, 1.37624890659358151135e-01) (540, 1.14760742114703925831e-01) (541, -9.46192826476401349645e-02) (542, -7.76179425097473646433e-03) (543, 9.39876403803968918371e-02) (544, 2.18257230521519546285e-02) (545, -6.85325544098722982955e-02) (546, -1.99493324215191426829e-02) (547, 3.26083589875262591651e-02) (548, 7.43703992153219722860e-02) (549, 7.11891518251905053294e-02) (550, -1.43183001050653124775e-01) (551, 3.66046662137912010015e-02) (552, 2.90567344217763888492e-02) (553, 5.58737890779101159522e-02) (554, 9.58023813586041973756e-03) (555, 6.81665015786586669932e-02) (556, -3.39209958910942077637e-02) (557, 5.37183715988700932753e-02) (558, -9.65071630510118128043e-02) (559, -8.19855106912328601698e-02) (560, -2.15192097159927417382e-02) (561, 5.66280274906922342915e-02) (562, -3.34524952979587050783e-02) (563, 8.22927830302986468292e-02) (564, 9.39708404661240143119e-02) (565, 3.03722334208044557335e-02) (566, -5.53946936852255794603e-02) (567, 2.30552390886006076942e-02) (568, 5.70952001089196706229e-02) (569, -4.33991991275301802755e-02) (570, 5.00218118693706789712e-02) (571, 5.94554297416339389004e-02) (572, 6.27257086917160644468e-02) (573, -1.57469924258882808255e-02) (574, 1.74252999777399879278e-02) (575, -1.77735814570328769235e-02) (576, -6.19887979056928870025e-02) (577, -4.35868315398693084717e-02) (578, -4.64858445420316475534e-04) (579, -1.40008820035145836735e-03) (580, -8.74715876771415407065e-03) (581, -6.70154072873740264127e-02) (582, 1.11851575346254727972e-01) (583, 2.66774799245551551274e-02) (584, -1.29576530831820913026e-01) (585, 7.76685952179664712558e-02) (586, -2.30939633048226310164e-02) (587, 6.91274383297760391942e-02) (588, -8.44754651276559687112e-02) (589, 1.68685363947028814369e-02) (590, 8.26396593257168118885e-03) (591, 4.23973284223293500617e-02) (592, 1.12234440747949748562e-02) (593, -3.91109908701271352660e-02) (594, -3.17422253523826298008e-03) (595, -1.68392163410927032940e-02) (596, 9.65686762422945065010e-03) (597, 7.80758809872766912363e-02) (598, -8.09082683962807497347e-02) (599, 7.39085263837302164358e-02) (600, -6.76291101062321958759e-02) (601, 6.46985838313472311212e-02) (602, -1.01936335999837303541e-03) (603, 5.44552075533113327799e-02) (604, -6.55601472615369162966e-02) (605, -3.60471156346233584378e-02) (606, -1.99757763024515852535e-03) (607, 8.45110022185718706700e-02) (608, -1.55868338262296884239e-02) (609, -7.33889770089691112487e-02) (610, 4.63819113059367391094e-02) (611, 8.91511044541615366166e-02) (612, 4.78564128084146556130e-02) (613, 2.62218135657215321854e-02) (614, -1.28665441278235787026e-01) (615, 4.05928803815715638637e-02) (616, -9.69119357360282707159e-02) (617, 4.77683295439249380743e-02) (618, -2.14877895713234401409e-02) (619, 4.79410382353608315736e-03) (620, -5.13447602518989354436e-02) (621, -2.79130950732087157462e-02) (622, -1.34402886640837715415e-01) (623, 3.64293574460161943482e-03) (624, 2.41268012021877142903e-02) (625, 1.73911172187576623660e-02) (626, -5.68493015169707141543e-02) (627, -6.82207807438170721337e-02) (628, -8.82698748072333477799e-02) (629, -8.53314012667419491409e-02) (630, -4.76885328917697470796e-02) (631, -3.55283661431464378722e-02) (632, -7.43807293031939348316e-02) (633, 1.08665636101439491701e-01) (634, -9.31052927123856288727e-02) (635, -2.38059365778254330981e-02) (636, -1.04292377988665654898e-01) (637, 2.74119654377157906389e-02) (638, -5.64423427816543657465e-02) (639, 9.17610045828563536396e-02) (640, 2.02055932715867400673e-02) (641, 6.66544853541868320690e-02) (642, -5.77450090384751327233e-02) (643, -9.16171721450145110088e-03) (644, -2.39919011148719066306e-02) (645, -1.31373499731206946906e-02) (646, 5.60607117027029939332e-03) (647, 1.79314349142051694674e-02) (648, 4.45308636049089319291e-04) (649, 4.30192975470415212014e-02) (650, 7.10223581892201749621e-02) (651, 1.30268029744076446752e-01) (652, 5.24982778768282379311e-03) (653, -7.17600413587175661734e-02) (654, -9.19913282511112262441e-02) (655, -1.38115982152431510110e-01) (656, -4.50850484623843902887e-02) (657, -1.12987728886902574765e-01) (658, -1.98736264838701576219e-02) (659, -3.07730270577352129843e-03) (660, -7.05197550725872833455e-03) (661, -8.48609248698141832579e-02) (662, -2.94259706554995427441e-02) (663, 4.98604663515553672704e-02) (664, -1.31736010559143856824e-01) (665, -9.77015281572821275846e-02) (666, 8.77675399322010857395e-02) (667, -7.14492073548458200838e-02) (668, -7.70743228789910889143e-02) (669, 1.35576104795467368425e-02) (670, -9.35323606609918672961e-02) (671, -7.61367776226872516876e-02) (672, -5.30529453233329617579e-02) (673, -1.74306596560404422798e-03) (674, -2.16296720409037794564e-02) (675, -1.86824276305383202290e-01) (676, 1.02586474123436438566e-01) (677, 3.78164791038016062652e-02) (678, 7.37884331249466073749e-03) (679, -8.76493279194120178399e-02) (680, 5.07781882439677367813e-02) (681, -1.82477015230582684246e-01) (682, 2.48292525955952116112e-02) (683, 8.93717661631423521129e-02) (684, 6.14647082136720174228e-02) (685, 8.30286743398074011946e-02) (686, 1.24337648944751785751e-01) (687, -7.22652762571761309029e-02) (688, -2.52485165221364993293e-02) (689, 1.02371273870290602215e-01) (690, -8.09359942072772481358e-02) (691, 8.20698494376064235922e-02) (692, 4.05336811808372360355e-02) (693, 6.14544141770915416934e-02) (694, 5.92944896220251663199e-02) (695, 3.41584376140830967006e-02) (696, 5.07677766028791568886e-02) (697, -7.67095398531373196677e-03) (698, -2.89975164446798217011e-02) (699, 1.08337692176780145403e-02) (700, -3.72377008197031650338e-02) (701, -6.58617351050053562167e-02) (702, -1.03786180934594979980e-02) (703, 4.49935637432212279241e-02) (704, -2.14727322989999996894e-02) (705, 1.29771109433746451023e-01) (706, 1.79917162779482747714e-01) (707, 1.34716772549983709872e-02) (708, -7.05854947480585442898e-02) (709, 6.92145737441727942896e-02) (710, 1.23325286424604343982e-03) (711, 6.39056853794987000938e-02) (712, 1.64832050144253061674e-01) (713, -1.81632335031253450142e-01) (714, 1.26186010312131571820e-02) (715, 1.69838182297323489478e-02) (716, -5.42894309842077758908e-05) (717, -1.14963086282855370124e-01) (718, 1.67217174438892626775e-02) (719, 1.69019375055934825691e-02) (720, 3.97498932513252398180e-02) (721, 2.89966977574747132584e-02) (722, -3.44243798115574824170e-03) (723, 3.71432559197128128736e-02) (724, 5.17383061918688831604e-03) (725, -1.42183683306730757057e-01) (726, -6.41878200170651058709e-02) (727, -3.34018016516238261393e-02) (728, 5.19261013712467855985e-02) (729, -9.61430131008900873413e-02) (730, -3.98074918311404901683e-02) (731, -9.03158719814009108839e-02) (732, -6.20813065723642837357e-02) (733, -9.73038958518116815777e-03) (734, 8.14400341884435330364e-02) (735, 8.24483543204943963856e-02) (736, -8.54004582391788280571e-02) (737, 1.22534270371656053844e-01) (738, 2.02768480055556636621e-02) (739, 1.92930151610257553940e-02) (740, 5.98379285210533240491e-02) (741, 9.41710296427611254222e-02) (742, -1.88080326143891807256e-02) (743, -8.37213523888238192461e-03) (744, -7.07790242302901578819e-02) (745, 6.69542975606438744984e-02) (746, 1.99977380016143381491e-02) (747, -1.10265475841553342584e-01) (748, 6.48926894858042613290e-02) (749, -2.90608765512947592180e-02) (750, 9.33517576490940637068e-02) (751, 3.79889520819446102617e-02) (752, 7.98028933800792872333e-02) (753, 7.04637126995412005348e-02) (754, -8.05892169662662388729e-02) (755, -4.30396750473861361419e-02) (756, 1.26658433197742559262e-01) (757, -2.92670697258567355514e-02) (758, 7.32292753528655804285e-02) (759, 4.37321677985203494110e-02) (760, 6.83100843297024806766e-02) (761, 1.82551738401747452867e-02) (762, 1.29335442451898683519e-02) (763, 7.36412109063522279939e-02) (764, 8.58715214545492794285e-02) (765, 8.12066350007329129657e-02) (766, 9.23420995130237592941e-02) (767, -7.34672595893963529395e-03) (768, 2.92828404249884533678e-03) (769, -6.44990032681995867359e-02) (770, 8.42392044666160078048e-02) (771, -1.74112509194915901500e-02) (772, -7.61911038495812348303e-02) (773, -5.97299700485691420493e-03) (774, 2.40556440536277785919e-03) (775, -6.45573996221610463264e-02) (776, -7.14891926015200351863e-02) (777, 5.38826513237295676162e-02) (778, -2.16593641265101256865e-02) (779, -1.02328920018943378412e-01) (780, 8.23452858246163793554e-02) (781, -1.06324511007889602188e-01) (782, 1.07546165167579671484e-01) (783, 1.30822604501322128229e-02) (784, 1.08442428604267435133e-01) (785, 1.30068453540021028436e-01) (786, -2.91544362332116831910e-03) (787, 9.87996871758453354406e-02) (788, -2.20046401681719336341e-02) (789, 1.38906426665895310624e-01) (790, 4.48671666485974274946e-03) (791, -1.49540133010786224776e-01) (792, 5.00964311874649778633e-02) (793, -2.63112219420420304083e-02) (794, 9.41460815093135322713e-04) (795, -8.62401833460072347881e-02) (796, -3.98806337721219691939e-02) (797, 2.17973790957133872759e-01) (798, 1.40906150461386464601e-01) (799, -1.20938239360159391356e-01) (800, -6.34684384907261561759e-02) (801, 7.96146208426299489824e-02) (802, 9.31988363000411761117e-03) (803, -1.08773911203274412096e-01) (804, -8.15296316402013064410e-04) (805, 9.33320941513346262475e-03) (806, 2.66690690185461577733e-02) (807, -5.47713617642376360273e-02) (808, -7.48763442697275433124e-02) (809, 1.37834065334651034718e-01) (810, 1.37119639534628412481e-01) (811, 8.76307821617668680769e-02) (812, -8.33114138250336255798e-02) (813, -3.80006568217539780763e-02) (814, 9.28350820195394388357e-02) (815, 1.36430733842178908422e-01) (816, -5.29928491130126771980e-02) (817, -5.77390689098894807629e-02) (818, 7.10899517275953296558e-02) (819, 1.54154259263009768555e-02) (820, 8.52360600517711175517e-03) (821, 1.99076402570768189182e-02) (822, 6.05103176098964329332e-02) (823, 4.78474722202695476603e-02) (824, 5.00299053727835882355e-02) (825, 2.90717811205447665412e-02) (826, 5.87120578428851763730e-02) (827, 1.38672795859157371723e-01) (828, 6.81765678795505508658e-02) (829, -3.21852785434751237359e-02) (830, 9.16519915297963130851e-03) (831, 4.81092751812379135212e-02) (832, 3.11112767373579214569e-02) (833, 7.16116639873370236513e-02) (834, -3.03255432460996926514e-02) (835, 3.94846513763473933034e-02) (836, -2.79610380990904308640e-02) (837, 8.34336660878402108787e-02) (838, -9.01626640008369589774e-02) (839, 4.53728433704188999220e-02) (840, 1.44495376277754463551e-02) (841, 5.91223016027685802087e-02) (842, 1.84885897474479331259e-02) (843, 6.12800217558595733403e-02) (844, 5.38197541665493967011e-02) (845, -8.53903503074418673835e-02) (846, -3.72465407284931354637e-02) (847, -1.17565540511692698256e-01) (848, -3.11605683097371279067e-02) (849, -3.91615806505699742823e-02) (850, -7.65463783932661123721e-02) (851, 1.75489218617264075561e-01) (852, 2.05653698672565755923e-02) (853, 4.01196009771189743276e-02) (854, -1.42790563362059363950e-01) (855, 4.40888415372312700291e-02) (856, 2.59656336249671770844e-02) (857, -2.65369210436660341035e-02) (858, 8.43430644994840467144e-02) (859, -8.79454399142507448062e-02) (860, -1.53730568130869358484e-03) (861, 4.61442335974924285752e-03) (862, -6.49205967329789662701e-02) (863, -1.60413698255366721224e-01) (864, 1.52105317991492444002e-02) (865, -1.29570891660629156084e-01) (866, -9.09887076476462858254e-02) (867, 1.83342876855007413939e-01) (868, -3.50711436647562838087e-02) (869, -7.12228616954268256567e-02) (870, 5.09966361636590218009e-02) (871, -1.03424520941192324419e-01) (872, -1.11287886183301598653e-01) (873, 9.10981855423673159144e-02) (874, -1.08963831919850970276e-02) (875, 1.33973138084416493188e-01) (876, 1.84813698670239640043e-02) (877, 2.28806234290708815360e-01) (878, 1.37882729987271381716e-02) (879, 7.28692329050774523225e-01) (880, -2.40916069663233034515e-01) (881, 4.15149814884673340476e-01) (882, 7.51260278683163734009e-03) (883, 1.93425506561268528705e-01) (884, -1.16555421241344978056e-01) (885, -1.09702984839428838854e-02) (886, 9.43580447665932908752e-02) (887, 9.06502954848853875758e-02) (888, -1.71489780051736956379e-01) (889, 1.10866877333834740194e-01) (890, -1.26731838598246909777e-01) (891, 8.08080305018631234182e-02) (892, -1.72562054321422020386e-01) (893, 4.47828834730448765988e-02) (894, 2.57797279566102155446e-01) (895, -5.65599391382986121934e-02) (896, 1.24926343600748925022e-02) (897, 5.30553455146327901382e-01) (898, 9.77521191469272326957e-03) (899, -4.09028838428625238222e-02) (900, 1.54645320096493871231e-01) (901, 2.87270697027273425039e-02) (902, 7.22197943918002960295e-01) (903, 3.15809000039612014499e-02) (904, -1.58097345055007998393e-01) (905, 2.97285817768049798193e-01) (906, -5.67563372685307432342e-01) (907, -3.05847650042174873386e-02) (908, 3.85382218147785424872e-03) (909, -8.74286973691073554527e-02) (910, 6.65175222149653466719e-02) (911, -6.31995038543323034430e-02) (912, -4.84950590624788190758e-03) (913, 1.90652272248889309569e-01) (914, 2.35599176629204334898e-02) (915, -1.27499798156662680348e-01) (916, -1.00506412133041414525e-01) (917, -2.91461102409556992165e-02) (918, -2.66648905381454729650e-04) (919, -1.98328924265283479400e-01) (920, 2.02982885305714538804e-01) (921, 1.67873702553095832668e-01) (922, -1.28311028672375870840e-01) (923, -1.73833332066431589524e-01) (924, 9.37526701921138072571e-02) (925, 7.18032997968575253944e-02) (926, -4.06975508012244122091e-02) (927, -9.64657664299011230469e-02) (928, 2.09543753171474514407e-02) (0, -3.21538258538735244318e-03) (1, 5.49986664025634841568e-02) (2, 5.21857449851037200061e-02) (3, 3.34959252734095339066e-02) (4, 8.88818732195894162240e-02) (5, -7.71137945708389675042e-03) (6, 8.17100502728903693717e-02) (7, -7.26373348243107980204e-02) (8, -1.05263634196901975648e-01) (9, 1.84383143063468549205e-02) (10, 6.54586735675504044485e-02) (11, 2.11790387306025097713e-02) (12, 5.12205370750506566724e-02) (13, 1.90454667426882898185e-02) (14, -4.24364393009552046121e-02) (15, -3.70756168024007418116e-02) (16, 9.16973610311876963230e-02) (17, 2.77145808356997064292e-02) (18, -2.72351426597695935039e-02) (19, -6.73888839712874915255e-02) (20, 7.89754591150529511312e-02) (21, 3.92849136470511811625e-02) (22, -2.21747951496414935635e-01) (23, 1.23678876721360839208e-01) (24, 6.87897115209264511937e-03) (25, -1.07833573408314759012e-01) (26, -7.61911782576458473937e-02) (27, -5.94146549701690673828e-03) (28, 2.88803055882453918457e-02) (29, -8.12295340123822713629e-03) (30, 2.33012188464987279879e-01) (31, -9.61691019534331725804e-02) (32, 7.95008096975770156556e-02) (33, -1.92874402819250174990e-02) (34, 4.25640764696596923811e-02) (35, 1.07629116194645005344e-01) (36, -3.84768796667398762720e-03) (37, -1.50092626897546488340e-01) (38, 2.46856115083629840123e-01) (39, -6.03127768709460707064e-02) (40, 8.95217806100845336914e-03) (41, -5.92309015021701568832e-03) (42, 1.53815033913056509185e-01) (43, -1.57347874642045304494e-01) (44, -2.29166422590871334550e-04) (45, 1.31892461992204834687e-01) (46, -4.63536479020604311185e-02) (47, -1.58364251185162979718e-01) (48, -2.48513282277193908731e-01) (49, -3.25793513117650646027e-01) (50, -1.79867990986338738280e-01) (51, -7.88823154049891200890e-02) (52, -3.43735021478670521589e-02) (53, -1.26901660618797241208e-03) (54, 1.43030114326776064404e-01) (55, 1.31291839542738153490e-01) (56, 1.12449018071741665969e-01) (57, -1.17129952561844316583e-01) (58, 1.44151214547567803337e-02) (59, -2.06573187873696634265e-02) (60, -4.54485825938950802061e-02) (61, -6.87006826332721004524e-02) (62, 1.10619779410232862982e-01) (63, 5.89671525848105768097e-02) (64, 2.07616944496800431841e-01) (65, 9.33265495582726450907e-02) (66, 1.12152927868222784813e-01) (67, -1.02067744739817861666e-01) (68, 1.42179435330100689683e-01) (69, 9.53086269510252520609e-02) (70, -2.47348285270242509992e-02) (71, -2.17109733200199356284e-01) (72, 6.91693247927142635008e-04) (73, 1.20821265869472227461e-01) (74, -2.82401605823287375763e-02) (75, 1.15961815277416890879e-01) (76, 1.26170444100242445939e-01) (77, 1.66121488370973499626e-02) (78, 9.71342904006078228241e-02) (79, -3.44278205767805560791e-03) (80, -2.48886867420709499699e-02) (81, -2.88977589880056937033e-02) (82, 7.26002635984027283600e-02) (83, 1.40441348104565905119e-01) (84, -8.14906544577500141502e-02) (85, 6.81615225772787824976e-02) (86, 1.03829415296443544614e-01) (87, 4.46507359190397509763e-02) (88, 8.51791790246412272580e-02) (89, 7.43324331560435425104e-02) (90, 9.77473406157631785618e-02) (91, 9.46315302165622214414e-03) (92, -9.86240246992258345893e-02) (93, -7.92381100128140697381e-02) (94, -1.56052572258082916656e-01) (95, 1.96836386363507059860e-01) (96, -9.36200579507422553371e-02) (97, -8.22864788975819355654e-02) (98, -1.11424683548230221697e-01) (99, -6.89477198062409257773e-02) (100, 1.14956959455305235407e-01) (101, -9.45030035619826846993e-02) (102, -1.28995446133413849132e-01) (103, 9.72738307198279111843e-02) (104, 2.60254889267066025216e-01) (105, 6.91083886448196627050e-02) (106, 3.63873041546020625780e-02) (107, 4.36144076395537233504e-02) (108, 1.03478745748723802156e-01) (109, 1.17011322836955505844e-01) (110, -3.99876239017637954976e-02) (111, -2.71383012236051046617e-01) (112, 6.22778453083796326717e-02) (113, -7.57632748008307561199e-03) (114, 7.86216101265492101069e-02) (115, 3.58970156821423608262e-02) (116, 9.41203825456743831124e-02) (117, -6.01112765940559345967e-02) (118, 1.68153245890641997451e-02) (119, 1.80279778034787112329e-02) (120, 1.37036403041497722999e-01) (121, -6.80384193988773505746e-02) (122, 8.20911669075629346626e-02) (123, 2.19836406320643579226e-01) (124, -1.80534016289387172494e-02) (125, -5.80350729417788493980e-02) (126, 1.04230399391701020195e-01) (127, 1.22988905082641753613e-02) (128, 1.39209912345611974693e-01) (129, 1.26908875035282836530e-01) (130, -3.22001827414706356945e-02) (131, -3.31293475384602173484e-02) (132, -1.03391757298880407334e-01) (133, 9.96390724754531303953e-02) (134, 8.82647646185049095102e-02) (135, 4.67790995918003077447e-02) (136, 3.12034357823840514945e-02) (137, -2.15289630044764035421e-03) (138, 2.25998097357111821237e-01) (139, -2.72198713155776678141e-03) (140, -1.32281364627648334586e-01) (141, -2.63453251971413171528e-01) (142, -7.26607876619473208590e-02) (143, 1.44609083520479075879e-01) (144, -5.79922558891396563649e-04) (145, 7.92265528513442784941e-02) (146, 4.67032561895575140665e-02) (147, -6.60390940968325346194e-02) (148, -4.37617510861475905726e-02) (149, 5.50326108303900787821e-02) (150, -5.83753981044089903518e-02) (151, -1.21747454308160280023e-01) (152, 1.05542067780624221340e-01) (153, 7.92722125129948634870e-03) (154, -5.10089962375916278203e-02) (155, 1.26126472914365544975e-01) (156, -1.01486553961299026672e-02) (157, -4.48195219647976941801e-02) (158, -1.17183816920150229990e-01) (159, -7.10486768780057981187e-02) (160, -8.77913488860712909467e-02) (161, 5.76562671023700262785e-02) (162, 5.42720234605023957308e-02) (163, -5.45411849877819321364e-02) (164, -3.20616931620866041711e-03) (165, -9.45854000351694229609e-02) (166, -2.64915234314858534515e-02) (167, 9.08294336855750700233e-02) (168, -8.14758799867793537253e-02) (169, -2.25880849984229532812e-02) (170, -9.81984875599810208557e-02) (171, -2.52365956025972851262e-02) (172, 6.66570534428311683994e-02) (173, -2.53851112344428975209e-03) (174, 1.95800069267114268401e-01) (175, 6.03884991594273445870e-02) (176, -1.66257785861581401654e-02) (177, 2.15612605107223659351e-02) (178, 1.06330124279185381231e-01) (179, 2.82336534441058779887e-02) (180, 8.78886768043372623715e-02) (181, 4.24626824335207694872e-02) (182, 7.06680324996994957409e-02) (183, 7.89851158493927278659e-03) (184, 1.40194735882751386757e-01) (185, 7.08300459531088499876e-02) (186, 5.35913234234735857964e-02) (187, 2.76720329575044290960e-02) (188, 1.65407906931529131989e-02) (189, 5.12443798267017899817e-02) (190, 6.13422284709982529316e-02) (191, -2.50582076029726629959e-03) (192, 7.64559165842187103690e-03) (193, -6.69607061622062155193e-02) (194, 7.73160741607109439424e-04) (195, 2.14508290043021569715e-02) (196, 4.30312386650235842445e-02) (197, -1.35636675434261787937e-02) (198, 1.68463826129416655020e-01) (199, 4.04033858351851640767e-02) (200, 7.47987536364839722403e-02) (201, 7.93372816186572876740e-02) (202, 1.03624928687524472948e-01) (203, -9.15807447593473128444e-02) (204, -2.37909061620025230610e-02) (205, -1.02930876608009883033e-01) (206, 3.07956752546932228942e-02) (207, 7.73079480690886527983e-02) (208, -7.78158810589754112996e-02) (209, -1.78990598453617130725e-02) (210, -7.68895367220512049311e-02) (211, -2.48779063549568781044e-02) (212, 7.44569168681953261202e-03) (213, 5.15154138583735210499e-02) (214, 1.64728079471170907322e-01) (215, -2.63184976924530980580e-02) (216, -1.74170006497792149991e-02) (217, -9.10125262394815559563e-02) (218, 1.27008226365773635447e-01) (219, -7.64184255990517646850e-02) (220, 7.04064558075320756636e-02) (221, -8.26407386336512062019e-02) (222, 5.52568633770729594756e-02) (223, 1.46154212544945816266e-01) (224, 5.49962625601067359171e-02) (225, 7.32050788576799754681e-02) (226, 6.09514842406230217264e-02) (227, 1.21527526367569402299e-01) (228, 1.98629712557989654420e-02) (229, 1.79372800964576160909e-02) (230, -1.70232518143706920699e-02) (231, 2.13214293805936740134e-02) (232, -3.87161063419462422863e-02) (233, 1.81597337059964086814e-01) (234, -3.12677329348340499182e-02) (235, -3.09535629959845105807e-02) (236, -6.51106861541283360451e-02) (237, -3.14953356195644684767e-02) (238, -5.35682098725364930214e-02) (239, -5.79721202171763413946e-02) (240, 7.73169427542144405141e-02) (241, -6.96572846419625350822e-03) (242, 6.76156938730528012105e-02) (243, 7.84530159810658753172e-03) (244, 3.05155691631935274688e-02) (245, -5.97160133131450100025e-03) (246, 6.66662157032689856040e-02) (247, -2.98980279350577679565e-02) (248, 4.81490834987103669129e-02) (249, -5.86546284330768073756e-03) (250, -2.93414182423167545222e-02) (251, -8.79427088914130211661e-02) (252, 8.66928124790449783355e-02) (253, -2.59078529329532687708e-02) (254, 1.01130380032336195106e-01) (255, -2.70945207055274146779e-02) (256, -8.30541004319022280189e-02) (257, -2.90936580539244878107e-02) (258, 1.46558646711069551216e-01) (259, -4.43752702344710273086e-02) (260, -2.16726505700783680930e-02) (261, -4.45059921610489739319e-02) (262, -8.83723477922896197279e-03) (263, 7.50888747690766147902e-03) (264, 2.20058394629271715515e-02) (265, -9.72365713516301216623e-02) (266, 7.29060700352825719062e-02) (267, -6.03640991223667738863e-02) (268, 1.39573236256445659675e-01) (269, 2.17245116340224891927e-03) (270, -1.75094399838202664788e-02) (271, 3.01929332973751504698e-02) (272, -1.03725336543311914134e-02) (273, 1.04398492856768068671e-01) (274, 1.38798735602485290297e-01) (275, -1.14753688357177238699e-01) (276, -1.27337982583070989662e-02) (277, 2.37824154170262896946e-02) (278, -1.28395431239635513659e-02) (279, 1.99667986426077595508e-02) (280, 1.33449473179038189535e-02) (281, 5.54140335086199427306e-03) (282, -7.79353813554349017512e-02) (283, 4.47143866597441708155e-02) (284, 9.36393712023189835059e-03) (285, -1.45551406448376191571e-01) (286, 2.39257583446915583769e-02) (287, 9.35562504360827884575e-02) (288, 3.63051646849716913579e-02) (289, 1.11948254008695499695e-01) (290, 7.55932988351481951333e-03) (291, -9.44119300199262878603e-03) (292, -1.85292427816480878566e-02) (293, 3.73007158698863000579e-02) (294, -1.11480556826957011296e-01) (295, -2.02424412389664229450e-02) (296, -2.18358455338743456808e-01) (297, -1.25289901826181410138e-01) (298, 5.77549184492584938289e-02) (299, -2.28857672077319024284e-01) (300, -4.26251983773601739180e-02) (301, 5.81250278739101275405e-02) (302, -1.26971383830888989719e-01) (303, 4.85323265599361050593e-02) (304, 1.44415483403920963390e-01) (305, -9.95303368348908479302e-02) (306, -3.04520971535758100748e-03) (307, -1.80097112513553064828e-01) (308, 2.20775379759663506474e-02) (309, 5.50703172006274527250e-02) (310, -1.47566115357355170934e-01) (311, -9.15922139890351649782e-02) (312, 1.15153458216661605529e-01) (313, 2.94893618446821735579e-02) (314, 9.59913670599214646773e-02) (315, -4.90378567803053319607e-02) (316, 5.37008756638085449353e-03) (317, -6.23331181602074166359e-02) (318, 4.09782274701953261320e-02) (319, -8.37593732010497443730e-02) (320, 3.48467989037523628859e-02) (321, 2.20387572623050240206e-02) (322, 7.04506812061631848554e-02) (323, 3.22332049651381444266e-02) (324, -2.31039935579603269988e-03) (325, -8.98895850448512140352e-02) (326, 7.84500699787543664954e-02) (327, 1.18660019861260550983e-02) (328, -2.69523817134901463866e-02) (329, 7.76103670824588864896e-02) (330, 5.25076521427869161163e-02) (331, 4.75807080733627804636e-02) (332, -7.10716524630184420808e-02) (333, 1.07799711879697543426e-01) (334, -1.44896670403518029735e-02) (335, -1.70319881898081143534e-01) (336, -7.95522442914623484356e-02) (337, -7.57632090379602163299e-02) (338, -1.83184177599560217564e-02) (339, -7.00210633120542796926e-02) (340, 1.02739466120398387217e-01) (341, -7.76976012911487767809e-02) (342, -8.67466933571339332554e-02) (343, 6.69223779611066438289e-02) (344, -9.62531814048648128382e-04) (345, -1.25519705178201823603e-01) (346, -3.59124048052214955851e-02) (347, 4.27774717446737298698e-02) (348, 2.18443800490464475061e-03) (349, 3.87974305051998966110e-02) (350, 1.11721252285641267643e-01) (351, 5.31092931337547383142e-02) (352, -9.96979253649942637194e-02) (353, 1.15960730873384931794e-01) (354, -1.24035239482692127844e-01) (355, 7.30763431647227651444e-02) (356, 2.32272763192746915795e-02) (357, 5.07545264024543349435e-02) (358, 7.81947378641325158144e-02) (359, -6.52591842346682271536e-02) (360, 3.86273928704534280643e-02) (361, -7.69435910908204123704e-02) (362, -3.23327314901022330740e-02) (363, 1.29062138858975855582e-01) (364, 1.32270986295167009006e-01) (365, -2.04686175565553379885e-02) (366, 9.37604552606755708988e-02) (367, -7.22711923474371042021e-05) (368, 2.73721077646628500879e-02) (369, 1.86476283500471434751e-01) (370, 9.18986540066346613287e-02) (371, -7.68861632014384288603e-02) (372, -1.81430373606208311665e-01) (373, -4.59371595779471675325e-02) (374, -1.07668135790118926765e-01) (375, -7.06820732424114778203e-02) (376, -1.28601151591975944311e-02) (377, -2.98884154200108644039e-02) (378, -1.34353907919347898003e-01) (379, 4.67810666401489647082e-02) (380, -3.62658347181864307296e-02) (381, 4.57668012201975851760e-02) (382, -5.82914669199366825003e-02) (383, 9.30187063435149175117e-02) (384, 5.67401648935187338796e-02) (385, 8.07221431531962019257e-02) (386, -6.20274569685246718320e-02) (387, 3.10802452208117745147e-02) (388, 2.86188183760597708583e-02) (389, 1.76451833075931513450e-01) (390, 7.05428583608274512029e-02) (391, -7.79083900436492032826e-02) (392, -2.23074354622858905817e-02) (393, 7.79320167071972519368e-02) (394, 1.08275093466690702781e-01) (395, -5.23751949750589154697e-02) (396, -7.20002067316196248808e-03) (397, -1.28835019601369442366e-02) (398, 1.21916990021449608839e-01) (399, -6.05691138200063761143e-02) (400, 1.01886963674937977564e-01) (401, -4.99622998036734281002e-02) (402, 9.43927592764535194902e-02) (403, 1.04704752546021573334e-01) (404, 5.56990727525323997549e-02) (405, -3.44988879439970114182e-02) (406, -3.19762628937125051309e-02) (407, 2.47545140681285427697e-03) (408, 8.47070813766076652351e-02) (409, -5.43563174307716626132e-02) (410, 1.27220598438738830699e-02) (411, -2.21185071218651163605e-01) (412, -4.28179058623671948691e-02) (413, 4.80507901175179150122e-02) (414, 2.30778567591200106657e-02) (415, -1.56558558947012621543e-01) (416, 3.42570855639339894028e-02) (417, -4.49535485813864627014e-02) (418, -1.64104643171731519324e-02) (419, -1.05852826018863789559e-02) (420, 1.37290091957423587843e-01) (421, -6.26469369617098231773e-02) (422, -2.13897608566379140993e-02) (423, -1.63704117405685280195e-02) (424, 3.60477891237147296533e-02) (425, -1.21695080867190538743e-01) (426, -3.13013744273706942534e-02) (427, -7.12068762860512960433e-02) (428, -5.49015406673030448292e-02) (429, 1.47402041925127180733e-01) (430, -3.30247781434190104677e-03) (431, 7.62226952855297734679e-02) (432, -8.51923201052982685677e-03) (433, 3.01606877730653984149e-02) (434, -7.76387575367565724305e-02) (435, -4.66988999055087117274e-02) (436, -1.01879192332371928953e-01) (437, 2.16551121287077048827e-02) (438, -5.72670774888042188877e-02) (439, -2.89435724450873566038e-02) (440, -1.52775661016768034978e-02) (441, 5.54216074278480325122e-03) (442, -6.14582174780881826393e-02) (443, 2.59466926158781335809e-02) (444, -3.01559092190383220417e-03) (445, -7.13621664521710830087e-02) (446, 2.54507542057768217092e-02) (447, 3.23025567850746264664e-02) (448, 9.20700506760877557255e-02) (449, 2.64159878107417915583e-02) (450, 7.29098163012642259267e-03) (451, 8.40957835316658020020e-02) (452, -4.72353866898180766581e-03) (453, 7.77938379566634197193e-02) (454, -9.92240279075117109775e-02) (455, -3.78457240155988111630e-02) (456, -2.93646104849957303995e-02) (457, -4.05439464980909478053e-02) (458, 8.09166184708545212223e-03) (459, -1.13878057353558020948e-01) (460, 5.28495794086033116033e-02) (461, 1.80761902804515289800e-02) (462, 5.38821390285804044384e-02) (463, 2.43398701542751928761e-02) (464, -9.45254326394984883963e-02) (465, -6.47447881515837431188e-02) (466, -8.47699505218243443139e-02) (467, 2.39869292867797637148e-02) (468, -4.11068727113700210785e-02) (469, 2.33235290201848979863e-02) (470, 1.14709663554938737229e-01) (471, -1.15166559710604576861e-01) (472, -1.90401598811149597168e-02) (473, -6.15088732584965214301e-02) (474, 1.76638844067941308547e-02) (475, 4.62087688494748557999e-02) (476, 1.37703969138876416295e-02) (477, 7.97304563613455280491e-02) (478, -3.95466225867910567415e-02) (479, 4.90688748303154398389e-03) (480, -8.67715555256585481525e-03) (481, 1.03615723392371975042e-01) (482, 8.61420169335374991126e-02) (483, 6.25950279780212170966e-02) (484, 3.20479417813193875886e-02) (485, 9.72788717192027557745e-02) (486, -7.54289998756396545820e-02) (487, 1.11819907327804658054e-02) (488, 4.80562698257670523755e-03) (489, -3.68544095016285350175e-02) (490, 8.59952989545557100470e-02) (491, 1.07383125867253043095e-01) (492, 8.27478459155666853930e-03) (493, 1.33957266807556152344e-02) (494, 1.13128475107239237496e-01) (495, -5.51851438147997475081e-03) (496, 6.61669169769909804035e-02) (497, -8.69779064055084122353e-02) (498, 8.81933283860029115786e-02) (499, -9.18138099880505403894e-02) (500, -2.77279220741856943788e-02) (501, -5.44536204703017501227e-02) (502, -3.40287333403485950378e-02) (503, 3.72160812605388038876e-02) (504, 1.00431860405944435588e-02) (505, 4.97460374460233292759e-02) (506, 1.15918738329111828400e-01) (507, -4.21808259753523734359e-02) (508, 1.87800679906135609132e-02) (509, 9.05309435620184205229e-02) (510, -8.35024391044527150574e-03) (511, 9.37910202644936380478e-02) (512, 8.98440602393899417910e-02) (513, 2.11854468342787122248e-02) (514, 4.59628179669380187988e-02) (515, -1.13029408733014508082e-01) (516, 9.16119876108428404793e-02) (517, -7.67054896477297517426e-03) (518, -2.54306984986099916812e-02) (519, 1.93557776095523076387e-01) (520, -1.31994823781920150862e-01) (521, 8.61681831558650107583e-02) (522, 1.19591322505937347476e-01) (523, -1.01237656732152667138e-01) (524, -1.64773269704770269906e-01) (525, 1.24694846215341187401e-02) (526, 5.87330981814794678142e-02) (527, -5.14588952612053951441e-02) (528, 1.04900800898563628660e-01) (529, -8.02130450584987580998e-02) (530, -1.12178908072683436448e-01) (531, -1.66750433512345558329e-01) (532, 9.59876989562043619886e-02) (533, 2.09721137813132507688e-01) (534, -1.42724026385098123892e-01) (535, -8.43160897493362426758e-02) (536, -2.03522979647902842182e-02) (537, -2.36334962176314080512e-03) (538, 6.87020503086845368834e-02) (539, 1.53217721778699994539e-01) (540, 8.89415376047440475737e-02) (541, -1.33224252772724233163e-01) (542, 3.58769948724628404135e-02) (543, -4.10679148858615269968e-02) (544, 2.32866776269157436940e-02) (545, -6.39788749946959989928e-03) (546, -1.29148385341365662393e-01) (547, -2.66122323180516652877e-03) (548, -4.97976605357460574280e-03) (549, -4.09242785921969387530e-02) (550, 1.38529058732276832977e-02) (551, -6.93674662759021093406e-02) (552, -5.63843124200944859070e-02) (553, -9.19234143242417603425e-03) (554, -7.73585221299054603961e-02) (555, -1.91930608691660113674e-02) (556, 9.53376814723014831543e-02) (557, 7.19965773323163610309e-02) (558, 2.73532979625356210268e-03) (559, -1.48394155709776955770e-02) (560, -6.55230786702994394410e-02) (561, -8.64955219649420938011e-03) (562, 1.01497512328636699253e-01) (563, 7.28467412465152591716e-02) (564, 5.33735606180130647824e-02) (565, 1.10228334124569796182e-01) (566, 1.14756574885518866647e-01) (567, -1.14806976333272539592e-01) (568, 4.40878419303243401436e-04) (569, 3.23977826338898988734e-02) (570, 6.69016452855832055580e-02) (571, -3.68095568275931817048e-02) (572, 1.29406868829257032383e-01) (573, 1.79677869911872012398e-02) (574, 4.46600381561797349361e-02) (575, -1.20717876126438389273e-02) (576, 1.51084563596568331040e-02) (577, 7.12474510073661804199e-02) (578, -7.81742352982262578287e-02) (579, 1.75006755376514444578e-02) (580, 3.22833238203272445549e-04) (581, -6.81709409963725393444e-02) (582, 4.64502522699377431992e-02) (583, -6.91433448733116441665e-03) (584, -5.09215611640726553699e-02) (585, 5.62443969090847817327e-02) (586, 5.10279217462009729300e-02) (587, 1.06767425664316181061e-02) (588, -2.86128334271942711201e-03) (589, -4.95662107005503428658e-04) (590, 5.09916402411253744109e-02) (591, -1.09647599933793096771e-01) (592, 9.00109969111258512164e-02) (593, -8.17112959052787857228e-02) (594, 6.86565372216923486270e-02) (595, 8.64847717912091834558e-02) (596, 7.82254463485516360333e-02) (597, 1.05685723799121028543e-01) (598, 5.83042214502556346845e-02) (599, -3.83629354752527485309e-03) (600, -1.02258175621010114625e-02) (601, 3.29480479230011072400e-02) (602, 5.73526406726868956398e-02) (603, -6.66708783400860580982e-05) (604, -1.54486373628107964695e-02) (605, 1.64773174846860603893e-02) (606, -7.43774371257672345381e-02) (607, 1.36451767603841620652e-02) (608, -3.21576234072213154591e-02) (609, 6.23115405505657027341e-02) (610, -3.31854430241396297641e-02) (611, 8.26064701446605070823e-02) (612, -1.20101783553261023951e-01) (613, -8.01439305646288874252e-02) (614, -1.74986731593423650022e-02) (615, -3.29157598575455373480e-02) (616, 8.74449752348515317590e-03) (617, 3.39932694855389350153e-02) (618, 7.20707941160222548271e-02) (619, -6.26841958774740082294e-02) (620, -4.21772788446444502064e-02) (621, -8.74408469638623397913e-02) (622, -1.66852867020451128832e-01) (623, -9.18721540732232583304e-02) (624, -5.49800537744777675919e-02) (625, -1.14358613121267646551e-01) (626, -8.45526392728546127842e-02) (627, -1.54550487638622530140e-01) (628, 4.86239030128384614165e-04) (629, 5.73976363814043648304e-03) (630, 1.18052933780838323341e-01) (631, -7.66348764519305947207e-02) (632, 6.10280464780796963464e-02) (633, 1.13653800555604367339e-01) (634, 3.81146429167761174872e-02) (635, 7.88942953401652047329e-02) (636, -3.96382649150981043740e-03) (637, -1.37853270772897201941e-03) (638, -9.60631259057222880449e-03) (639, 1.03854805302576722048e-01) (640, 1.81554970693094341883e-01) (641, 4.62219651256668903616e-03) (642, -3.47969134292951676191e-02) (643, -8.17812085332066812660e-02) (644, -1.86594836892241509874e-02) (645, -8.44315681320575994739e-02) (646, -1.47819941727361514605e-01) (647, -9.03316965550121919737e-02) (648, 1.16753072838891094887e-01) (649, 3.42107913449966050123e-02) (650, 8.80558750099866838212e-02) (651, 9.43433560884397309776e-02) (652, -2.97465489527416124260e-02) (653, 1.07706035277175017628e-02) (654, -5.09016030357051924016e-02) (655, -6.59972327949610720887e-02) (656, 1.43126254884623025504e-02) (657, -9.61215321536484090803e-02) (658, 1.13144350786400036540e-02) (659, -5.78196561493274294175e-02) (660, -7.76370274722704423187e-02) (661, 3.81730565063915713853e-02) (662, -1.06977742947732629153e-01) (663, 4.74969851795984318588e-02) (664, 4.14405066164806514667e-03) (665, -6.31685437131940669131e-02) (666, 4.60839985328789225605e-02) (667, -8.50898005346856778353e-02) (668, -5.03332796017810363276e-02) (669, -1.07988833899645680220e-02) (670, -6.92796178620220387545e-02) (671, 4.17751539897008999924e-02) (672, -1.39594414113521164689e-01) (673, 6.22656571877180028962e-02) (674, -1.25024808728687736314e-01) (675, -2.03194295895864629475e-02) (676, 1.33687612284144052843e-01) (677, 1.57025202409003909743e-02) (678, 5.26354222819052156024e-02) (679, 9.24876851455179865846e-02) (680, -4.19597484346089216051e-03) (681, -1.48355627815128510161e-01) (682, -5.99194139677051637594e-02) (683, -1.26174978952529014131e-03) (684, 1.01343922407624381643e-01) (685, 3.78569832474579814896e-02) (686, 1.21381559269057220929e-01) (687, 8.30374342731197284673e-02) (688, -6.72099961496832737362e-02) (689, 1.15753798943256658305e-01) (690, 2.16006205507380324993e-02) (691, -2.76249061438449128314e-02) (692, 2.39023006103692287061e-02) (693, 3.70021847840480699876e-02) (694, -5.64125188816284386939e-02) (695, -8.10314157146972691148e-02) (696, 3.55212617696795684985e-03) (697, 6.69237266433103522578e-02) (698, -3.97195066247367015166e-02) (699, 1.61381846755778712854e-02) (700, -6.52635390407003967983e-02) (701, -1.22969298888353974902e-02) (702, 4.75064030495483610728e-02) (703, -2.60016521302224926093e-02) (704, 3.10787118445951943135e-02) (705, 8.82255166192643519585e-02) (706, -3.14291827910964868820e-02) (707, 1.04677804716922798201e-01) (708, 4.19818893024344955145e-02) (709, 5.04036786959830215848e-02) (710, 4.36796485440016785118e-02) (711, 1.27418642987157548774e-01) (712, -3.32070382221232099362e-02) (713, -4.66386935792506701626e-02) (714, -3.43008467974557501590e-02) (715, -8.56679914746196341513e-02) (716, 9.51322176971340985330e-03) (717, 5.23427609279204161807e-02) (718, 2.01775182321030886745e-02) (719, 6.24675542943693498654e-02) (720, -6.20732394039244170236e-02) (721, -8.01531110183102135647e-02) (722, 7.11217037863393769515e-02) (723, -3.01747964455700984354e-02) (724, 4.88739854808992874036e-02) (725, -1.34494593383795352226e-01) (726, -9.79099962841884219333e-02) (727, 3.97405582054728631625e-02) (728, 8.42605251027004620301e-02) (729, -4.70970251791990521251e-02) (730, -1.48630018769141409446e-02) (731, -3.12810917893212563773e-03) (732, -1.96173186177605249347e-02) (733, 1.20428816549818601400e-01) (734, 7.23589883579324553292e-03) (735, 6.96942835847585706599e-02) (736, 3.44566932837237424603e-02) (737, 1.60775992164278874741e-02) (738, 3.18746280513298937964e-02) (739, 7.44647139131795338107e-02) (740, 6.62735993629065822663e-02) (741, -1.58779663192653741621e-01) (742, 3.12820862187064771542e-02) (743, 5.78066827656199683227e-02) (744, 5.64566589998333132061e-02) (745, 3.54935067921341995678e-02) (746, 8.29515716639314254488e-02) (747, -5.21283759123473411368e-02) (748, -4.90887974585067082822e-02) (749, 4.02096045965136331124e-02) (750, 7.64780528313136337415e-02) (751, -6.03562550317721102644e-02) (752, 2.66549652911216086726e-02) (753, -5.99220296581666408975e-02) (754, -6.91208825453011183049e-02) (755, 6.24558025547402011907e-03) (756, -1.48562607274521727568e-02) (757, -2.27224983732792311375e-02) (758, -4.42153269472006921204e-02) (759, 1.10198838017039786596e-02) (760, 7.23442534341234982920e-02) (761, -4.13274616151228513239e-02) (762, 7.41443525099301416897e-03) (763, 3.52219490034840626569e-02) (764, -8.85970644385819933175e-02) (765, 1.98816621725736684956e-02) (766, -2.97788903587182622601e-02) (767, -2.81475279835073435852e-02) (768, -1.26484346832207800171e-01) (769, 4.65000406187677794989e-02) (770, -7.96254910344170764580e-03) (771, 9.21648957601314683385e-02) (772, 5.98837954859164287025e-02) (773, -2.00309704267405200295e-02) (774, 8.40759847821397343637e-02) (775, 1.07891270845534723022e-01) (776, 6.60005788002648446922e-02) (777, 1.80799632461081383195e-02) (778, -1.09619037048675690982e-01) (779, -6.05060189916316049086e-02) (780, -3.60976065574547810844e-02) (781, 5.32237127030911819081e-02) (782, 3.33961615680705703468e-02) (783, -1.19310721371486336273e-01) (784, -6.61121474920974977474e-02) (785, 3.82425878042536512846e-02) (786, 8.05648331450259103104e-02) (787, 3.01534852234756275968e-02) (788, 7.57914623357448663521e-02) (789, 8.84568675331274117957e-02) (790, 1.07943922547640583365e-01) (791, -2.98096363557527783972e-02) (792, 9.02444255472752004943e-02) (793, 4.01505698668644384064e-02) (794, 5.75028466908376334477e-02) (795, -1.51976064951046541118e-01) (796, 1.41784466278460502542e-01) (797, 1.81278249463705937172e-01) (798, 2.29370482284363998160e-02) (799, -2.33597312094598358323e-01) (800, 1.49230641902248772901e-02) (801, 8.82793061324724515071e-02) (802, 1.10466753057892764361e-02) (803, -8.82341933571584718932e-02) (804, 3.44577328432022367971e-03) (805, 8.58752644030267298092e-02) (806, 4.45808024576457937599e-03) (807, -1.25207221998976492294e-01) (808, -3.55766052268403562553e-02) (809, 2.92605655521372895467e-02) (810, 1.05791588920163881493e-01) (811, 2.29115915242822966447e-02) (812, -3.81087328039803052704e-02) (813, -1.03624934571579285780e-01) (814, 3.91328825202605645739e-02) (815, 5.78658686034659169861e-02) (816, 5.80473993932275125762e-02) (817, 7.09649609181467466712e-02) (818, -1.08201242755512308524e-01) (819, 3.52706111284380521842e-02) (820, -7.50504854840518959014e-03) (821, -7.08761700645647862995e-02) (822, -1.72417939936408645164e-03) (823, -1.18152735207108630644e-01) (824, -3.23187793627833716559e-02) (825, 3.76791198874063815172e-02) (826, 5.96246161161941776174e-02) (827, 8.62617391121748705585e-02) (828, 6.09067013032861884203e-02) (829, -1.55617332368089018174e-02) (830, 3.62959334106753017668e-02) (831, -4.36763337272599722061e-02) (832, 3.56252503322839475519e-02) (833, 6.08953144508077720554e-02) (834, 1.50106577000050991910e-02) (835, 2.44937974514669171144e-02) (836, 1.82539031977938491502e-02) (837, -4.93356218300633336815e-02) (838, 5.97524927284820150941e-02) (839, -3.76492034236266329139e-02) (840, 5.62822207211109842850e-02) (841, 5.04901128931086531915e-02) (842, 1.00577800735060438053e-01) (843, -3.65704716617857999994e-02) (844, -1.53747649120137414025e-02) (845, -5.21075166465523598180e-02) (846, -2.31847539021650742019e-02) (847, -9.73343913377885949778e-02) (848, 1.18638805928091575770e-01) (849, 2.25310940606571058487e-02) (850, 9.26108938406731141413e-02) (851, 9.31704712010225366559e-02) (852, 2.30793539762803763538e-02) (853, -6.29127107814356767435e-02) (854, -8.59304028277293463489e-02) (855, -3.30563528195653918984e-02) (856, 3.08841569100158034461e-03) (857, -3.43835367970823022055e-02) (858, -8.59934030623778489222e-02) (859, 6.10893731696134645315e-02) (860, -6.78077606659221055613e-03) (861, 9.19369157361943217799e-02) (862, -1.70114881139228069085e-02) (863, -1.31936673328870324173e-01) (864, 9.00664035317329247921e-02) (865, 9.80901084661617572724e-02) (866, -2.17541208103232408533e-02) (867, 8.54626170329144951854e-02) (868, -5.71255550156113539595e-02) (869, -4.48993426288716787620e-02) (870, 5.68457925478663972374e-02) (871, 1.10594224808144903083e-01) (872, -1.15992718412217740709e-01) (873, -5.40837183403273247251e-02) (874, -8.78327689444742265579e-02) (875, 2.24103536327433766617e-01) (876, -4.35183983411543268138e-02) (877, 3.25226095113353930177e-01) (878, 9.33845891126255517323e-02) (879, 8.15052325774874963926e-01) (880, -3.47156128575219602439e-01) (881, 4.59535475486402500422e-01) (882, -6.52232436938686155337e-02) (883, 3.97329264457614017569e-01) (884, -1.56768876766494119623e-01) (885, -1.53161676253359764661e-03) (886, 3.00069057252936276237e-03) (887, -4.68270386713268288448e-02) (888, -5.84678987713619757304e-05) (889, 2.80183228109535725422e-03) (890, -1.18817877828688422265e-02) (891, -6.88092407724265851809e-03) (892, -1.27051518876226954280e-01) (893, 4.99833783692018376876e-02) (894, -5.14247334200054252197e-04) (895, 3.83936971377776756209e-02) (896, 3.06260627320112041594e-02) (897, 5.08709994380866947772e-01) (898, -2.94613534778368066011e-04) (899, -6.07601868915525339387e-02) (900, 1.26679228054522141633e-01) (901, 5.88015232783223665280e-02) (902, 7.64477801670982226590e-01) (903, -2.17445546177198155424e-02) (904, -2.68333006192997380879e-01) (905, 3.23734593464825193276e-01) (906, -5.94000556778113919520e-01) (907, 3.02243083484681762663e-01) (908, -9.79649010431413030942e-02) (909, -2.12674950388495875853e-03) (910, 1.41706847921402478985e-01) (911, -2.47691862785526406565e-01) (912, -5.40334739136066263820e-02) (913, 2.37956501760132554946e-01) (914, 2.01293305598842509063e-01) (915, -1.02343663082974448142e-01) (916, -7.99974655227639469546e-02) (917, -5.68449072766053220551e-02) (918, 6.73827086038995409778e-02) (919, -2.23413186053130374820e-01) (920, 8.33287922016599374997e-02) (921, 2.53998698021429214489e-01) (922, -8.92939184918081635400e-02) (923, -1.56458238911434649454e-01) (924, 2.59614595923132983335e-02) (925, -7.13498546116513726600e-02) (926, -1.28572235195599932078e-01) (927, 2.13069170713424682617e-02) (928, 4.37275639387786560497e-02) (0, -4.88748082109697126740e-02) (1, -8.18911225373565310193e-02) (2, 1.21086161035145693093e-02) (3, 2.24186163148317879612e-02) (4, 3.10343846359909213140e-02) (5, 6.84457236414852954187e-02) (6, -5.72313392462302228392e-02) (7, -1.02170729122267059386e-01) (8, 2.63417645834119820702e-02) (9, -7.28130904862091393737e-02) (10, -8.48615643538974950832e-02) (11, 1.67113365060577172445e-03) (12, 3.03372397205728221159e-02) (13, -6.28889934636621961150e-02) (14, -8.94944489434228301894e-02) (15, 1.93712734154854876456e-02) (16, -5.41549481811492011696e-02) (17, 2.02959318106614647337e-02) (18, 9.05751810458453043839e-02) (19, -2.78742306921146362764e-02) (20, -1.91679891868296592428e-02) (21, -7.71383704816308440888e-02) (22, 7.25978337410849855482e-02) (23, 1.25513034402984988147e-02) (24, 3.40226371127876209277e-02) (25, -1.46004241628894998462e-01) (26, 2.97635295261065302430e-02) (27, 6.41696527600288391113e-02) (28, -4.93198409676551818848e-02) (29, -3.49642138488447246081e-02) (30, -3.21011588049473425843e-02) (31, -5.70734611187974499869e-02) (32, -3.59161044074769869594e-02) (33, 5.96627474948386513076e-02) (34, -7.14085108317411010326e-02) (35, 2.63527180627952661851e-02) (36, 7.97133312134026411622e-02) (37, -1.07003410165453505254e-01) (38, 9.52289506828357251722e-02) (39, -1.86514204278118919667e-02) (40, 1.70869603753089904785e-02) (41, 5.36134637756502593908e-02) (42, 2.01622011472598977599e-01) (43, -3.69770698023746610672e-02) (44, -3.65803747055852071512e-02) (45, 8.42037270737646670327e-02) (46, 3.84967248967821654149e-02) (47, -1.25176854069515564039e-02) (48, -2.15717302446146209916e-02) (49, 6.04195081730980222690e-03) (50, 1.53000848072550099666e-01) (51, 9.64724503966455232407e-02) (52, 6.52625124577926457592e-02) (53, -4.88179407686136490607e-02) (54, -2.45353418552305621581e-02) (55, 2.66676869598314533749e-02) (56, 1.58210908800212081415e-02) (57, 6.39755914501795863725e-02) (58, 