FANN_FLO_2.1
num_layers=3
learning_rate=0.010000
connection_rate=1.000000
network_type=0
learning_momentum=0.300000
training_algorithm=0
train_error_function=0
train_stop_function=0
cascade_output_change_fraction=0.010000
quickprop_decay=-0.000100
quickprop_mu=1.750000
rprop_increase_factor=1.200000
rprop_decrease_factor=0.500000
rprop_delta_min=0.000000
rprop_delta_max=50.000000
rprop_delta_zero=0.100000
cascade_output_stagnation_epochs=12
cascade_candidate_change_fraction=0.010000
cascade_candidate_stagnation_epochs=12
cascade_max_out_epochs=150
cascade_max_cand_epochs=150
cascade_num_candidate_groups=2
bit_fail_limit=3.49999999999999977796e-01
cascade_candidate_limit=1.00000000000000000000e+03
cascade_weight_multiplier=4.00000000000000022204e-01
cascade_activation_functions_count=10
cascade_activation_functions=3 5 7 8 10 11 14 15 16 17 
cascade_activation_steepnesses_count=4
cascade_activation_steepnesses=2.50000000000000000000e-01 5.00000000000000000000e-01 7.50000000000000000000e-01 1.00000000000000000000e+00 
layer_sizes=831 26 3 
scale_included=0
neurons (num_inputs, activation_function, activation_steepness)=(0, 0, 0.00000000000000000000e+00) (0, 0, 0.00000000000000000000e+00) (0, 0, 0.00000000000000000000e+00) (0, 0, 0.00000000000000000000e+00) (0, 0, 0.00000000000000000000e+00) (0, 0, 0.00000000000000000000e+00) (0, 0, 0.00000000000000000000e+00) (0, 0, 0.00000000000000000000e+00) (0, 0, 0.00000000000000000000e+00) (0, 0, 0.00000000000000000000e+00) (0, 0, 0.00000000000000000000e+00) (0, 0, 0.00000000000000000000e+00) (0, 0, 0.00000000000000000000e+00) (0, 0, 0.00000000000000000000e+00) (0, 0, 0.00000000000000000000e+00) (0, 0, 0.00000000000000000000e+00) (0, 0, 0.00000000000000000000e+00) (0, 0, 0.00000000000000000000e+00) (0, 0, 0.00000000000000000000e+00) (0, 0, 0.00000000000000000000e+00) (0, 0, 0.00000000000000000000e+00) (0, 0, 0.00000000000000000000e+00) (0, 0, 0.00000000000000000000e+00) (0, 0, 0.00000000000000000000e+00) (0, 0, 0.00000000000000000000e+00) (0, 0, 0.00000000000000000000e+00) (0, 0, 0.00000000000000000000e+00) (0, 0, 0.00000000000000000000e+00) (0, 0, 0.00000000000000000000e+00) (0, 0, 0.00000000000000000000e+00) (0, 0, 0.00000000000000000000e+00) (0, 0, 0.00000000000000000000e+00) (0, 0, 0.00000000000000000000e+00) (0, 0, 0.00000000000000000000e+00) (0, 0, 0.00000000000000000000e+00) (0, 0, 0.00000000000000000000e+00) (0, 0, 0.00000000000000000000e+00) (0, 0, 0.00000000000000000000e+00) (0, 0, 0.00000000000000000000e+00) (0, 0, 0.00000000000000000000e+00) (0, 0, 0.00000000000000000000e+00) (0, 0, 0.00000000000000000000e+00) (0, 0, 0.00000000000000000000e+00) (0, 0, 0.00000000000000000000e+00) (0, 0, 0.00000000000000000000e+00) (0, 0, 0.00000000000000000000e+00) (0, 0, 0.00000000000000000000e+00) (0, 0, 0.00000000000000000000e+00) (0, 0, 0.00000000000000000000e+00) (0, 0, 0.00000000000000000000e+00) (0, 0, 0.00000000000000000000e+00) (0, 0, 0.00000000000000000000e+00) (0, 0, 0.00000000000000000000e+00) (0, 0, 0.00000000000000000000e+00) (0, 0, 0.00000000000000000000e+00) (0, 0, 0.00000000000000000000e+00) (0, 0, 0.00000000000000000000e+00) (0, 0, 0.00000000000000000000e+00) (0, 0, 0.00000000000000000000e+00) (0, 0, 0.00000000000000000000e+00) (0, 0, 0.00000000000000000000e+00) (0, 0, 0.00000000000000000000e+00) (0, 0, 0.00000000000000000000e+00) (0, 0, 0.00000000000000000000e+00) (0, 0, 0.00000000000000000000e+00) (0, 0, 0.00000000000000000000e+00) (0, 0, 0.00000000000000000000e+00) (0, 0, 0.00000000000000000000e+00) (0, 0, 0.00000000000000000000e+00) (0, 0, 0.00000000000000000000e+00) (0, 0, 0.00000000000000000000e+00) (0, 0, 0.00000000000000000000e+00) (0, 0, 0.00000000000000000000e+00) (0, 0, 0.00000000000000000000e+00) (0, 0, 0.00000000000000000000e+00) (0, 0, 0.00000000000000000000e+00) (0, 0, 0.00000000000000000000e+00) (0, 0, 0.00000000000000000000e+00) (0, 0, 0.00000000000000000000e+00) (0, 0, 0.00000000000000000000e+00) (0, 0, 0.00000000000000000000e+00) (0, 0, 0.00000000000000000000e+00) (0, 0, 0.00000000000000000000e+00) (0, 0, 0.00000000000000000000e+00) (0, 0, 0.00000000000000000000e+00) (0, 0, 0.00000000000000000000e+00) (0, 0, 0.00000000000000000000e+00) (0, 0, 0.00000000000000000000e+00) (0, 0, 0.00000000000000000000e+00) (0, 0, 0.00000000000000000000e+00) (0, 0, 0.00000000000000000000e+00) (0, 0, 0.00000000000000000000e+00) (0, 0, 0.00000000000000000000e+00) (0, 0, 0.00000000000000000000e+00) (0, 0, 0.00000000000000000000e+00) (0, 0, 0.00000000000000000000e+00) (0, 0, 0.00000000000000000000e+00) (0, 0, 0.00000000000000000000e+00) (0, 0, 0.00000000000000000000e+00) (0, 0, 0.00000000000000000000e+00) (0, 0, 0.00000000000000000000e+00) (0, 0, 0.00000000000000000000e+00) (0, 0, 0.00000000000000000000e+00) (0, 0, 0.00000000000000000000e+00) (0, 0, 0.00000000000000000000e+00) (0, 0, 0.00000000000000000000e+00) (0, 0, 0.00000000000000000000e+00) (0, 0, 0.00000000000000000000e+00) (0, 0, 0.00000000000000000000e+00) (0, 0, 0.00000000000000000000e+00) (0, 0, 0.00000000000000000000e+00) (0, 0, 0.00000000000000000000e+00) (0, 0, 0.00000000000000000000e+00) (0, 0, 0.00000000000000000000e+00) (0, 0, 0.00000000000000000000e+00) (0, 0, 0.00000000000000000000e+00) (0, 0, 0.00000000000000000000e+00) (0, 0, 0.00000000000000000000e+00) (0, 0, 0.00000000000000000000e+00) (0, 0, 0.00000000000000000000e+00) (0, 0, 0.00000000000000000000e+00) (0, 0, 0.00000000000000000000e+00) (0, 0, 0.00000000000000000000e+00) (0, 0, 0.00000000000000000000e+00) (0, 0, 0.00000000000000000000e+00) (0, 0, 0.00000000000000000000e+00) (0, 0, 0.00000000000000000000e+00) (0, 0, 0.00000000000000000000e+00) (0, 0, 0.00000000000000000000e+00) (0, 0, 0.00000000000000000000e+00) (0, 0, 0.00000000000000000000e+00) (0, 0, 0.00000000000000000000e+00) (0, 0, 0.00000000000000000000e+00) (0, 0, 0.00000000000000000000e+00) (0, 0, 0.00000000000000000000e+00) (0, 0, 0.00000000000000000000e+00) (0, 0, 0.00000000000000000000e+00) (0, 0, 0.00000000000000000000e+00) (0, 0, 0.00000000000000000000e+00) (0, 0, 0.00000000000000000000e+00) (0, 0, 0.00000000000000000000e+00) (0, 0, 0.00000000000000000000e+00) (0, 0, 0.00000000000000000000e+00) (0, 0, 0.00000000000000000000e+00) (0, 0, 0.00000000000000000000e+00) (0, 0, 0.00000000000000000000e+00) (0, 0, 0.00000000000000000000e+00) (0, 0, 0.00000000000000000000e+00) (0, 0, 0.00000000000000000000e+00) (0, 0, 0.00000000000000000000e+00) (0, 0, 0.00000000000000000000e+00) (0, 0, 0.00000000000000000000e+00) (0, 0, 0.00000000000000000000e+00) (0, 0, 0.00000000000000000000e+00) (0, 0, 0.00000000000000000000e+00) (0, 0, 0.00000000000000000000e+00) (0, 0, 0.00000000000000000000e+00) (0, 0, 0.00000000000000000000e+00) (0, 0, 0.00000000000000000000e+00) (0, 0, 0.00000000000000000000e+00) (0, 0, 0.00000000000000000000e+00) (0, 0, 0.00000000000000000000e+00) (0, 0, 0.00000000000000000000e+00) (0, 0, 0.00000000000000000000e+00) (0, 0, 0.00000000000000000000e+00) (0, 0, 0.00000000000000000000e+00) (0, 0, 0.00000000000000000000e+00) (0, 0, 0.00000000000000000000e+00) (0, 0, 0.00000000000000000000e+00) (0, 0, 0.00000000000000000000e+00) (0, 0, 0.00000000000000000000e+00) (0, 0, 0.00000000000000000000e+00) (0, 0, 0.00000000000000000000e+00) (0, 0, 0.00000000000000000000e+00) (0, 0, 0.00000000000000000000e+00) (0, 0, 0.00000000000000000000e+00) (0, 0, 0.00000000000000000000e+00) (0, 0, 0.00000000000000000000e+00) (0, 0, 0.00000000000000000000e+00) (0, 0, 0.00000000000000000000e+00) (0, 0, 0.00000000000000000000e+00) (0, 0, 0.00000000000000000000e+00) (0, 0, 0.00000000000000000000e+00) (0, 0, 0.00000000000000000000e+00) (0, 0, 0.00000000000000000000e+00) (0, 0, 0.00000000000000000000e+00) (0, 0, 0.00000000000000000000e+00) (0, 0, 0.00000000000000000000e+00) (0, 0, 0.00000000000000000000e+00) (0, 0, 0.00000000000000000000e+00) (0, 0, 0.00000000000000000000e+00) (0, 0, 0.00000000000000000000e+00) (0, 0, 0.00000000000000000000e+00) (0, 0, 0.00000000000000000000e+00) (0, 0, 0.00000000000000000000e+00) (0, 0, 0.00000000000000000000e+00) (0, 0, 0.00000000000000000000e+00) (0, 0, 0.00000000000000000000e+00) (0, 0, 0.00000000000000000000e+00) (0, 0, 0.00000000000000000000e+00) (0, 0, 0.00000000000000000000e+00) (0, 0, 0.00000000000000000000e+00) (0, 0, 0.00000000000000000000e+00) (0, 0, 0.00000000000000000000e+00) (0, 0, 0.00000000000000000000e+00) (0, 0, 0.00000000000000000000e+00) (0, 0, 0.00000000000000000000e+00) (0, 0, 0.00000000000000000000e+00) (0, 0, 0.00000000000000000000e+00) (0, 0, 0.00000000000000000000e+00) (0, 0, 0.00000000000000000000e+00) (0, 0, 0.00000000000000000000e+00) (0, 0, 0.00000000000000000000e+00) (0, 0, 0.00000000000000000000e+00) (0, 0, 0.00000000000000000000e+00) (0, 0, 0.00000000000000000000e+00) (0, 0, 0.00000000000000000000e+00) (0, 0, 0.00000000000000000000e+00) (0, 0, 0.00000000000000000000e+00) (0, 0, 0.00000000000000000000e+00) (0, 0, 0.00000000000000000000e+00) (0, 0, 0.00000000000000000000e+00) (0, 0, 0.00000000000000000000e+00) (0, 0, 0.00000000000000000000e+00) (0, 0, 0.00000000000000000000e+00) (0, 0, 0.00000000000000000000e+00) (0, 0, 0.00000000000000000000e+00) (0, 0, 0.00000000000000000000e+00) (0, 0, 0.00000000000000000000e+00) (0, 0, 0.00000000000000000000e+00) (0, 0, 0.00000000000000000000e+00) (0, 0, 0.00000000000000000000e+00) (0, 0, 0.00000000000000000000e+00) (0, 0, 0.00000000000000000000e+00) (0, 0, 0.00000000000000000000e+00) (0, 0, 0.00000000000000000000e+00) (0, 0, 0.00000000000000000000e+00) (0, 0, 0.00000000000000000000e+00) (0, 0, 0.00000000000000000000e+00) (0, 0, 0.00000000000000000000e+00) (0, 0, 0.00000000000000000000e+00) (0, 0, 0.00000000000000000000e+00) (0, 0, 0.00000000000000000000e+00) (0, 0, 0.00000000000000000000e+00) (0, 0, 0.00000000000000000000e+00) (0, 0, 0.00000000000000000000e+00) (0, 0, 0.00000000000000000000e+00) (0, 0, 0.00000000000000000000e+00) (0, 0, 0.00000000000000000000e+00) (0, 0, 0.00000000000000000000e+00) (0, 0, 0.00000000000000000000e+00) (0, 0, 0.00000000000000000000e+00) (0, 0, 0.00000000000000000000e+00) (0, 0, 0.00000000000000000000e+00) (0, 0, 0.00000000000000000000e+00) (0, 0, 0.00000000000000000000e+00) (0, 0, 0.00000000000000000000e+00) (0, 0, 0.00000000000000000000e+00) (0, 0, 0.00000000000000000000e+00) (0, 0, 0.00000000000000000000e+00) (0, 0, 0.00000000000000000000e+00) (0, 0, 0.00000000000000000000e+00) (0, 0, 0.00000000000000000000e+00) (0, 0, 0.00000000000000000000e+00) (0, 0, 0.00000000000000000000e+00) (0, 0, 0.00000000000000000000e+00) (0, 0, 0.00000000000000000000e+00) (0, 0, 0.00000000000000000000e+00) (0, 0, 0.00000000000000000000e+00) (0, 0, 0.00000000000000000000e+00) (0, 0, 0.00000000000000000000e+00) (0, 0, 0.00000000000000000000e+00) (0, 0, 0.00000000000000000000e+00) (0, 0, 0.00000000000000000000e+00) (0, 0, 0.00000000000000000000e+00) (0, 0, 0.00000000000000000000e+00) (0, 0, 0.00000000000000000000e+00) (0, 0, 0.00000000000000000000e+00) (0, 0, 0.00000000000000000000e+00) (0, 0, 0.00000000000000000000e+00) (0, 0, 0.00000000000000000000e+00) (0, 0, 0.00000000000000000000e+00) (0, 0, 0.00000000000000000000e+00) (0, 0, 0.00000000000000000000e+00) (0, 0, 0.00000000000000000000e+00) (0, 0, 0.00000000000000000000e+00) (0, 0, 0.00000000000000000000e+00) (0, 0, 0.00000000000000000000e+00) (0, 0, 0.00000000000000000000e+00) (0, 0, 0.00000000000000000000e+00) (0, 0, 0.00000000000000000000e+00) (0, 0, 0.00000000000000000000e+00) (0, 0, 0.00000000000000000000e+00) (0, 0, 0.00000000000000000000e+00) (0, 0, 0.00000000000000000000e+00) (0, 0, 0.00000000000000000000e+00) (0, 0, 0.00000000000000000000e+00) (0, 0, 0.00000000000000000000e+00) (0, 0, 0.00000000000000000000e+00) (0, 0, 0.00000000000000000000e+00) (0, 0, 0.00000000000000000000e+00) (0, 0, 0.00000000000000000000e+00) (0, 0, 0.00000000000000000000e+00) (0, 0, 0.00000000000000000000e+00) (0, 0, 0.00000000000000000000e+00) (0, 0, 0.00000000000000000000e+00) (0, 0, 0.00000000000000000000e+00) (0, 0, 0.00000000000000000000e+00) (0, 0, 0.00000000000000000000e+00) (0, 0, 0.00000000000000000000e+00) (0, 0, 0.00000000000000000000e+00) (0, 0, 0.00000000000000000000e+00) (0, 0, 0.00000000000000000000e+00) (0, 0, 0.00000000000000000000e+00) (0, 0, 0.00000000000000000000e+00) (0, 0, 0.00000000000000000000e+00) (0, 0, 0.00000000000000000000e+00) (0, 0, 0.00000000000000000000e+00) (0, 0, 0.00000000000000000000e+00) (0, 0, 0.00000000000000000000e+00) (0, 0, 0.00000000000000000000e+00) (0, 0, 0.00000000000000000000e+00) (0, 0, 0.00000000000000000000e+00) (0, 0, 0.00000000000000000000e+00) (0, 0, 0.00000000000000000000e+00) (0, 0, 0.00000000000000000000e+00) (0, 0, 0.00000000000000000000e+00) (0, 0, 0.00000000000000000000e+00) (0, 0, 0.00000000000000000000e+00) (0, 0, 0.00000000000000000000e+00) (0, 0, 0.00000000000000000000e+00) (0, 0, 0.00000000000000000000e+00) (0, 0, 0.00000000000000000000e+00) (0, 0, 0.00000000000000000000e+00) (0, 0, 0.00000000000000000000e+00) (0, 0, 0.00000000000000000000e+00) (0, 0, 0.00000000000000000000e+00) (0, 0, 0.00000000000000000000e+00) (0, 0, 0.00000000000000000000e+00) (0, 0, 0.00000000000000000000e+00) (0, 0, 0.00000000000000000000e+00) (0, 0, 0.00000000000000000000e+00) (0, 0, 0.00000000000000000000e+00) (0, 0, 0.00000000000000000000e+00) (0, 0, 0.00000000000000000000e+00) (0, 0, 0.00000000000000000000e+00) (0, 0, 0.00000000000000000000e+00) (0, 0, 0.00000000000000000000e+00) (0, 0, 0.00000000000000000000e+00) (0, 0, 0.00000000000000000000e+00) (0, 0, 0.00000000000000000000e+00) (0, 0, 0.00000000000000000000e+00) (0, 0, 0.00000000000000000000e+00) (0, 0, 0.00000000000000000000e+00) (0, 0, 0.00000000000000000000e+00) (0, 0, 0.00000000000000000000e+00) (0, 0, 0.00000000000000000000e+00) (0, 0, 0.00000000000000000000e+00) (0, 0, 0.00000000000000000000e+00) (0, 0, 0.00000000000000000000e+00) (0, 0, 0.00000000000000000000e+00) (0, 0, 0.00000000000000000000e+00) (0, 0, 0.00000000000000000000e+00) (0, 0, 0.00000000000000000000e+00) (0, 0, 0.00000000000000000000e+00) (0, 0, 0.00000000000000000000e+00) (0, 0, 0.00000000000000000000e+00) (0, 0, 0.00000000000000000000e+00) (0, 0, 0.00000000000000000000e+00) (0, 0, 0.00000000000000000000e+00) (0, 0, 0.00000000000000000000e+00) (0, 0, 0.00000000000000000000e+00) (0, 0, 0.00000000000000000000e+00) (0, 0, 0.00000000000000000000e+00) (0, 0, 0.00000000000000000000e+00) (0, 0, 0.00000000000000000000e+00) (0, 0, 0.00000000000000000000e+00) (0, 0, 0.00000000000000000000e+00) (0, 0, 0.00000000000000000000e+00) (0, 0, 0.00000000000000000000e+00) (0, 0, 0.00000000000000000000e+00) (0, 0, 0.00000000000000000000e+00) (0, 0, 0.00000000000000000000e+00) (0, 0, 0.00000000000000000000e+00) (0, 0, 0.00000000000000000000e+00) (0, 0, 0.00000000000000000000e+00) (0, 0, 0.00000000000000000000e+00) (0, 0, 0.00000000000000000000e+00) (0, 0, 0.00000000000000000000e+00) (0, 0, 0.00000000000000000000e+00) (0, 0, 0.00000000000000000000e+00) (0, 0, 0.00000000000000000000e+00) (0, 0, 0.00000000000000000000e+00) (0, 0, 0.00000000000000000000e+00) (0, 0, 0.00000000000000000000e+00) (0, 0, 0.00000000000000000000e+00) (0, 0, 0.00000000000000000000e+00) (0, 0, 0.00000000000000000000e+00) (0, 0, 0.00000000000000000000e+00) (0, 0, 0.00000000000000000000e+00) (0, 0, 0.00000000000000000000e+00) (0, 0, 0.00000000000000000000e+00) (0, 0, 0.00000000000000000000e+00) (0, 0, 0.00000000000000000000e+00) (0, 0, 0.00000000000000000000e+00) (0, 0, 0.00000000000000000000e+00) (0, 0, 0.00000000000000000000e+00) (0, 0, 0.00000000000000000000e+00) (0, 0, 0.00000000000000000000e+00) (0, 0, 0.00000000000000000000e+00) (0, 0, 0.00000000000000000000e+00) (0, 0, 0.00000000000000000000e+00) (0, 0, 0.00000000000000000000e+00) (0, 0, 0.00000000000000000000e+00) (0, 0, 0.00000000000000000000e+00) (0, 0, 0.00000000000000000000e+00) (0, 0, 0.00000000000000000000e+00) (0, 0, 0.00000000000000000000e+00) (0, 0, 0.00000000000000000000e+00) (0, 0, 0.00000000000000000000e+00) (0, 0, 0.00000000000000000000e+00) (0, 0, 0.00000000000000000000e+00) (0, 0, 0.00000000000000000000e+00) (0, 0, 0.00000000000000000000e+00) (0, 0, 0.00000000000000000000e+00) (0, 0, 0.00000000000000000000e+00) (0, 0, 0.00000000000000000000e+00) (0, 0, 0.00000000000000000000e+00) (0, 0, 0.00000000000000000000e+00) (0, 0, 0.00000000000000000000e+00) (0, 0, 0.00000000000000000000e+00) (0, 0, 0.00000000000000000000e+00) (0, 0, 0.00000000000000000000e+00) (0, 0, 0.00000000000000000000e+00) (0, 0, 0.00000000000000000000e+00) (0, 0, 0.00000000000000000000e+00) (0, 0, 0.00000000000000000000e+00) (0, 0, 0.00000000000000000000e+00) (0, 0, 0.00000000000000000000e+00) (0, 0, 0.00000000000000000000e+00) (0, 0, 0.00000000000000000000e+00) (0, 0, 0.00000000000000000000e+00) (0, 0, 0.00000000000000000000e+00) (0, 0, 0.00000000000000000000e+00) (0, 0, 0.00000000000000000000e+00) (0, 0, 0.00000000000000000000e+00) (0, 0, 0.00000000000000000000e+00) (0, 0, 0.00000000000000000000e+00) (0, 0, 0.00000000000000000000e+00) (0, 0, 0.00000000000000000000e+00) (0, 0, 0.00000000000000000000e+00) (0, 0, 0.00000000000000000000e+00) (0, 0, 0.00000000000000000000e+00) (0, 0, 0.00000000000000000000e+00) (0, 0, 0.00000000000000000000e+00) (0, 0, 0.00000000000000000000e+00) (0, 0, 0.00000000000000000000e+00) (0, 0, 0.00000000000000000000e+00) (0, 0, 0.00000000000000000000e+00) (0, 0, 0.00000000000000000000e+00) (0, 0, 0.00000000000000000000e+00) (0, 0, 0.00000000000000000000e+00) (0, 0, 0.00000000000000000000e+00) (0, 0, 0.00000000000000000000e+00) (0, 0, 0.00000000000000000000e+00) (0, 0, 0.00000000000000000000e+00) (0, 0, 0.00000000000000000000e+00) (0, 0, 0.00000000000000000000e+00) (0, 0, 0.00000000000000000000e+00) (0, 0, 0.00000000000000000000e+00) (0, 0, 0.00000000000000000000e+00) (0, 0, 0.00000000000000000000e+00) (0, 0, 0.00000000000000000000e+00) (0, 0, 0.00000000000000000000e+00) (0, 0, 0.00000000000000000000e+00) (0, 0, 0.00000000000000000000e+00) (0, 0, 0.00000000000000000000e+00) (0, 0, 0.00000000000000000000e+00) (0, 0, 0.00000000000000000000e+00) (0, 0, 0.00000000000000000000e+00) (0, 0, 0.00000000000000000000e+00) (0, 0, 0.00000000000000000000e+00) (0, 0, 0.00000000000000000000e+00) (0, 0, 0.00000000000000000000e+00) (0, 0, 0.00000000000000000000e+00) (0, 0, 0.00000000000000000000e+00) (0, 0, 0.00000000000000000000e+00) (0, 0, 0.00000000000000000000e+00) (0, 0, 0.00000000000000000000e+00) (0, 0, 0.00000000000000000000e+00) (0, 0, 0.00000000000000000000e+00) (0, 0, 0.00000000000000000000e+00) (0, 0, 0.00000000000000000000e+00) (0, 0, 0.00000000000000000000e+00) (0, 0, 0.00000000000000000000e+00) (0, 0, 0.00000000000000000000e+00) (0, 0, 0.00000000000000000000e+00) (0, 0, 0.00000000000000000000e+00) (0, 0, 0.00000000000000000000e+00) (0, 0, 0.00000000000000000000e+00) (0, 0, 0.00000000000000000000e+00) (0, 0, 0.00000000000000000000e+00) (0, 0, 0.00000000000000000000e+00) (0, 0, 0.00000000000000000000e+00) (0, 0, 0.00000000000000000000e+00) (0, 0, 0.00000000000000000000e+00) (0, 0, 0.00000000000000000000e+00) (0, 0, 0.00000000000000000000e+00) (0, 0, 0.00000000000000000000e+00) (0, 0, 0.00000000000000000000e+00) (0, 0, 0.00000000000000000000e+00) (0, 0, 0.00000000000000000000e+00) (0, 0, 0.00000000000000000000e+00) (0, 0, 0.00000000000000000000e+00) (0, 0, 0.00000000000000000000e+00) (0, 0, 0.00000000000000000000e+00) (0, 0, 0.00000000000000000000e+00) (0, 0, 0.00000000000000000000e+00) (0, 0, 0.00000000000000000000e+00) (0, 0, 0.00000000000000000000e+00) (0, 0, 0.00000000000000000000e+00) (0, 0, 0.00000000000000000000e+00) (0, 0, 0.00000000000000000000e+00) (0, 0, 0.00000000000000000000e+00) (0, 0, 0.00000000000000000000e+00) (0, 0, 0.00000000000000000000e+00) (0, 0, 0.00000000000000000000e+00) (0, 0, 0.00000000000000000000e+00) (0, 0, 0.00000000000000000000e+00) (0, 0, 0.00000000000000000000e+00) (0, 0, 0.00000000000000000000e+00) (0, 0, 0.00000000000000000000e+00) (0, 0, 0.00000000000000000000e+00) (0, 0, 0.00000000000000000000e+00) (0, 0, 0.00000000000000000000e+00) (0, 0, 0.00000000000000000000e+00) (0, 0, 0.00000000000000000000e+00) (0, 0, 0.00000000000000000000e+00) (0, 0, 0.00000000000000000000e+00) (0, 0, 0.00000000000000000000e+00) (0, 0, 0.00000000000000000000e+00) (0, 0, 0.00000000000000000000e+00) (0, 0, 0.00000000000000000000e+00) (0, 0, 0.00000000000000000000e+00) (0, 0, 0.00000000000000000000e+00) (0, 0, 0.00000000000000000000e+00) (0, 0, 0.00000000000000000000e+00) (0, 0, 0.00000000000000000000e+00) (0, 0, 0.00000000000000000000e+00) (0, 0, 0.00000000000000000000e+00) (0, 0, 0.00000000000000000000e+00) (0, 0, 0.00000000000000000000e+00) (0, 0, 0.00000000000000000000e+00) (0, 0, 0.00000000000000000000e+00) (0, 0, 0.00000000000000000000e+00) (0, 0, 0.00000000000000000000e+00) (0, 0, 0.00000000000000000000e+00) (0, 0, 0.00000000000000000000e+00) (0, 0, 0.00000000000000000000e+00) (0, 0, 0.00000000000000000000e+00) (0, 0, 0.00000000000000000000e+00) (0, 0, 0.00000000000000000000e+00) (0, 0, 0.00000000000000000000e+00) (0, 0, 0.00000000000000000000e+00) (0, 0, 0.00000000000000000000e+00) (0, 0, 0.00000000000000000000e+00) (0, 0, 0.00000000000000000000e+00) (0, 0, 0.00000000000000000000e+00) (0, 0, 0.00000000000000000000e+00) (0, 0, 0.00000000000000000000e+00) (0, 0, 0.00000000000000000000e+00) (0, 0, 0.00000000000000000000e+00) (0, 0, 0.00000000000000000000e+00) (0, 0, 0.00000000000000000000e+00) (0, 0, 0.00000000000000000000e+00) (0, 0, 0.00000000000000000000e+00) (0, 0, 0.00000000000000000000e+00) (0, 0, 0.00000000000000000000e+00) (0, 0, 0.00000000000000000000e+00) (0, 0, 0.00000000000000000000e+00) (0, 0, 0.00000000000000000000e+00) (0, 0, 0.00000000000000000000e+00) (0, 0, 0.00000000000000000000e+00) (0, 0, 0.00000000000000000000e+00) (0, 0, 0.00000000000000000000e+00) (0, 0, 0.00000000000000000000e+00) (0, 0, 0.00000000000000000000e+00) (0, 0, 0.00000000000000000000e+00) (0, 0, 0.00000000000000000000e+00) (0, 0, 0.00000000000000000000e+00) (0, 0, 0.00000000000000000000e+00) (0, 0, 0.00000000000000000000e+00) (0, 0, 0.00000000000000000000e+00) (0, 0, 0.00000000000000000000e+00) (0, 0, 0.00000000000000000000e+00) (0, 0, 0.00000000000000000000e+00) (0, 0, 0.00000000000000000000e+00) (0, 0, 0.00000000000000000000e+00) (0, 0, 0.00000000000000000000e+00) (0, 0, 0.00000000000000000000e+00) (0, 0, 0.00000000000000000000e+00) (0, 0, 0.00000000000000000000e+00) (0, 0, 0.00000000000000000000e+00) (0, 0, 0.00000000000000000000e+00) (0, 0, 0.00000000000000000000e+00) (0, 0, 0.00000000000000000000e+00) (0, 0, 0.00000000000000000000e+00) (0, 0, 0.00000000000000000000e+00) (0, 0, 0.00000000000000000000e+00) (0, 0, 0.00000000000000000000e+00) (0, 0, 0.00000000000000000000e+00) (0, 0, 0.00000000000000000000e+00) (0, 0, 0.00000000000000000000e+00) (0, 0, 0.00000000000000000000e+00) (0, 0, 0.00000000000000000000e+00) (0, 0, 0.00000000000000000000e+00) (0, 0, 0.00000000000000000000e+00) (0, 0, 0.00000000000000000000e+00) (0, 0, 0.00000000000000000000e+00) (0, 0, 0.00000000000000000000e+00) (0, 0, 0.00000000000000000000e+00) (0, 0, 0.00000000000000000000e+00) (0, 0, 0.00000000000000000000e+00) (0, 0, 0.00000000000000000000e+00) (0, 0, 0.00000000000000000000e+00) (0, 0, 0.00000000000000000000e+00) (0, 0, 0.00000000000000000000e+00) (0, 0, 0.00000000000000000000e+00) (0, 0, 0.00000000000000000000e+00) (0, 0, 0.00000000000000000000e+00) (0, 0, 0.00000000000000000000e+00) (0, 0, 0.00000000000000000000e+00) (0, 0, 0.00000000000000000000e+00) (0, 0, 0.00000000000000000000e+00) (0, 0, 0.00000000000000000000e+00) (0, 0, 0.00000000000000000000e+00) (0, 0, 0.00000000000000000000e+00) (0, 0, 0.00000000000000000000e+00) (0, 0, 0.00000000000000000000e+00) (0, 0, 0.00000000000000000000e+00) (0, 0, 0.00000000000000000000e+00) (0, 0, 0.00000000000000000000e+00) (0, 0, 0.00000000000000000000e+00) (0, 0, 0.00000000000000000000e+00) (0, 0, 0.00000000000000000000e+00) (0, 0, 0.00000000000000000000e+00) (0, 0, 0.00000000000000000000e+00) (0, 0, 0.00000000000000000000e+00) (0, 0, 0.00000000000000000000e+00) (0, 0, 0.00000000000000000000e+00) (0, 0, 0.00000000000000000000e+00) (0, 0, 0.00000000000000000000e+00) (0, 0, 0.00000000000000000000e+00) (0, 0, 0.00000000000000000000e+00) (0, 0, 0.00000000000000000000e+00) (0, 0, 0.00000000000000000000e+00) (0, 0, 0.00000000000000000000e+00) (0, 0, 0.00000000000000000000e+00) (0, 0, 0.00000000000000000000e+00) (0, 0, 0.00000000000000000000e+00) (0, 0, 0.00000000000000000000e+00) (0, 0, 0.00000000000000000000e+00) (0, 0, 0.00000000000000000000e+00) (0, 0, 0.00000000000000000000e+00) (0, 0, 0.00000000000000000000e+00) (0, 0, 0.00000000000000000000e+00) (0, 0, 0.00000000000000000000e+00) (0, 0, 0.00000000000000000000e+00) (0, 0, 0.00000000000000000000e+00) (0, 0, 0.00000000000000000000e+00) (0, 0, 0.00000000000000000000e+00) (0, 0, 0.00000000000000000000e+00) (0, 0, 0.00000000000000000000e+00) (0, 0, 0.00000000000000000000e+00) (0, 0, 0.00000000000000000000e+00) (0, 0, 0.00000000000000000000e+00) (0, 0, 0.00000000000000000000e+00) (0, 0, 0.00000000000000000000e+00) (0, 0, 0.00000000000000000000e+00) (0, 0, 0.00000000000000000000e+00) (0, 0, 0.00000000000000000000e+00) (0, 0, 0.00000000000000000000e+00) (0, 0, 0.00000000000000000000e+00) (0, 0, 0.00000000000000000000e+00) (0, 0, 0.00000000000000000000e+00) (0, 0, 0.00000000000000000000e+00) (0, 0, 0.00000000000000000000e+00) (0, 0, 0.00000000000000000000e+00) (0, 0, 0.00000000000000000000e+00) (0, 0, 0.00000000000000000000e+00) (0, 0, 0.00000000000000000000e+00) (0, 0, 0.00000000000000000000e+00) (0, 0, 0.00000000000000000000e+00) (0, 0, 0.00000000000000000000e+00) (0, 0, 0.00000000000000000000e+00) (0, 0, 0.00000000000000000000e+00) (0, 0, 0.00000000000000000000e+00) (0, 0, 0.00000000000000000000e+00) (0, 0, 0.00000000000000000000e+00) (0, 0, 0.00000000000000000000e+00) (0, 0, 0.00000000000000000000e+00) (0, 0, 0.00000000000000000000e+00) (0, 0, 0.00000000000000000000e+00) (0, 0, 0.00000000000000000000e+00) (0, 0, 0.00000000000000000000e+00) (0, 0, 0.00000000000000000000e+00) (0, 0, 0.00000000000000000000e+00) (0, 0, 0.00000000000000000000e+00) (0, 0, 0.00000000000000000000e+00) (0, 0, 0.00000000000000000000e+00) (0, 0, 0.00000000000000000000e+00) (0, 0, 0.00000000000000000000e+00) (0, 0, 0.00000000000000000000e+00) (0, 0, 0.00000000000000000000e+00) (0, 0, 0.00000000000000000000e+00) (0, 0, 0.00000000000000000000e+00) (0, 0, 0.00000000000000000000e+00) (0, 0, 0.00000000000000000000e+00) (0, 0, 0.00000000000000000000e+00) (0, 0, 0.00000000000000000000e+00) (0, 0, 0.00000000000000000000e+00) (0, 0, 0.00000000000000000000e+00) (0, 0, 0.00000000000000000000e+00) (0, 0, 0.00000000000000000000e+00) (0, 0, 0.00000000000000000000e+00) (0, 0, 0.00000000000000000000e+00) (0, 0, 0.00000000000000000000e+00) (0, 0, 0.00000000000000000000e+00) (0, 0, 0.00000000000000000000e+00) (0, 0, 0.00000000000000000000e+00) (0, 0, 0.00000000000000000000e+00) (0, 0, 0.00000000000000000000e+00) (0, 0, 0.00000000000000000000e+00) (0, 0, 0.00000000000000000000e+00) (0, 0, 0.00000000000000000000e+00) (0, 0, 0.00000000000000000000e+00) (0, 0, 0.00000000000000000000e+00) (0, 0, 0.00000000000000000000e+00) (0, 0, 0.00000000000000000000e+00) (0, 0, 0.00000000000000000000e+00) (0, 0, 0.00000000000000000000e+00) (0, 0, 0.00000000000000000000e+00) (0, 0, 0.00000000000000000000e+00) (0, 0, 0.00000000000000000000e+00) (0, 0, 0.00000000000000000000e+00) (0, 0, 0.00000000000000000000e+00) (0, 0, 0.00000000000000000000e+00) (0, 0, 0.00000000000000000000e+00) (0, 0, 0.00000000000000000000e+00) (0, 0, 0.00000000000000000000e+00) (0, 0, 0.00000000000000000000e+00) (0, 0, 0.00000000000000000000e+00) (0, 0, 0.00000000000000000000e+00) (0, 0, 0.00000000000000000000e+00) (0, 0, 0.00000000000000000000e+00) (0, 0, 0.00000000000000000000e+00) (0, 0, 0.00000000000000000000e+00) (0, 0, 0.00000000000000000000e+00) (0, 0, 0.00000000000000000000e+00) (0, 0, 0.00000000000000000000e+00) (0, 0, 0.00000000000000000000e+00) (0, 0, 0.00000000000000000000e+00) (0, 0, 0.00000000000000000000e+00) (0, 0, 0.00000000000000000000e+00) (0, 0, 0.00000000000000000000e+00) (0, 0, 0.00000000000000000000e+00) (0, 0, 0.00000000000000000000e+00) (0, 0, 0.00000000000000000000e+00) (0, 0, 0.00000000000000000000e+00) (0, 0, 0.00000000000000000000e+00) (0, 0, 0.00000000000000000000e+00) (0, 0, 0.00000000000000000000e+00) (0, 0, 0.00000000000000000000e+00) (0, 0, 0.00000000000000000000e+00) (0, 0, 0.00000000000000000000e+00) (0, 0, 0.00000000000000000000e+00) (0, 0, 0.00000000000000000000e+00) (0, 0, 0.00000000000000000000e+00) (0, 0, 0.00000000000000000000e+00) (0, 0, 0.00000000000000000000e+00) (0, 0, 0.00000000000000000000e+00) (0, 0, 0.00000000000000000000e+00) (0, 0, 0.00000000000000000000e+00) (0, 0, 0.00000000000000000000e+00) (0, 0, 0.00000000000000000000e+00) (0, 0, 0.00000000000000000000e+00) (0, 0, 0.00000000000000000000e+00) (0, 0, 0.00000000000000000000e+00) (0, 0, 0.00000000000000000000e+00) (0, 0, 0.00000000000000000000e+00) (0, 0, 0.00000000000000000000e+00) (0, 0, 0.00000000000000000000e+00) (0, 0, 0.00000000000000000000e+00) (0, 0, 0.00000000000000000000e+00) (0, 0, 0.00000000000000000000e+00) (0, 0, 0.00000000000000000000e+00) (0, 0, 0.00000000000000000000e+00) (0, 0, 0.00000000000000000000e+00) (0, 0, 0.00000000000000000000e+00) (0, 0, 0.00000000000000000000e+00) (0, 0, 0.00000000000000000000e+00) (0, 0, 0.00000000000000000000e+00) (0, 0, 0.00000000000000000000e+00) (0, 0, 0.00000000000000000000e+00) (0, 0, 0.00000000000000000000e+00) (0, 0, 0.00000000000000000000e+00) (0, 0, 0.00000000000000000000e+00) (0, 0, 0.00000000000000000000e+00) (0, 0, 0.00000000000000000000e+00) (0, 0, 0.00000000000000000000e+00) (0, 0, 0.00000000000000000000e+00) (0, 0, 0.00000000000000000000e+00) (0, 0, 0.00000000000000000000e+00) (0, 0, 0.00000000000000000000e+00) (0, 0, 0.00000000000000000000e+00) (0, 0, 0.00000000000000000000e+00) (0, 0, 0.00000000000000000000e+00) (0, 0, 0.00000000000000000000e+00) (0, 0, 0.00000000000000000000e+00) (0, 0, 0.00000000000000000000e+00) (0, 0, 0.00000000000000000000e+00) (0, 0, 0.00000000000000000000e+00) (0, 0, 0.00000000000000000000e+00) (0, 0, 0.00000000000000000000e+00) (0, 0, 0.00000000000000000000e+00) (0, 0, 0.00000000000000000000e+00) (0, 0, 0.00000000000000000000e+00) (0, 0, 0.00000000000000000000e+00) (0, 0, 0.00000000000000000000e+00) (0, 0, 0.00000000000000000000e+00) (0, 0, 0.00000000000000000000e+00) (831, 3, 5.00000000000000000000e-01) (831, 3, 5.00000000000000000000e-01) (831, 3, 5.00000000000000000000e-01) (831, 3, 5.00000000000000000000e-01) (831, 3, 5.00000000000000000000e-01) (831, 3, 5.00000000000000000000e-01) (831, 3, 5.00000000000000000000e-01) (831, 3, 5.00000000000000000000e-01) (831, 3, 5.00000000000000000000e-01) (831, 3, 5.00000000000000000000e-01) (831, 3, 5.00000000000000000000e-01) (831, 3, 5.00000000000000000000e-01) (831, 3, 5.00000000000000000000e-01) (831, 3, 5.00000000000000000000e-01) (831, 3, 5.00000000000000000000e-01) (831, 3, 5.00000000000000000000e-01) (831, 3, 5.00000000000000000000e-01) (831, 3, 5.00000000000000000000e-01) (831, 3, 5.00000000000000000000e-01) (831, 3, 5.00000000000000000000e-01) (831, 3, 5.00000000000000000000e-01) (831, 3, 5.00000000000000000000e-01) (831, 3, 5.00000000000000000000e-01) (831, 3, 5.00000000000000000000e-01) (831, 3, 5.00000000000000000000e-01) (0, 3, 0.00000000000000000000e+00) (26, 3, 5.00000000000000000000e-01) (26, 3, 5.00000000000000000000e-01) (0, 3, 0.00000000000000000000e+00) 
connections (connected_to_neuron, weight)=(0, -7.08004425265272990808e-02) (1, -4.29945240978009887711e-02) (2, -3.81888537489955895432e-02) (3, 5.79288293097162051981e-02) (4, 1.08389632559217505281e-01) (5, 1.91544371449618756886e-02) (6, 1.12238830096142203074e-01) (7, -5.03625683375974048106e-02) (8, -4.36546998240750702691e-02) (9, -7.99298855243023992356e-02) (10, -3.14125452848091901714e-02) (11, -2.87748643741510580496e-02) (12, -5.98384310199682467601e-02) (13, 4.51143810234179362673e-02) (14, -3.14595804026219436067e-02) (15, 6.07422585610003507028e-02) (16, -4.07347611188418404216e-02) (17, -6.31490431130466919885e-03) (18, -3.62653965128855726441e-02) (19, 4.39027407008019468493e-03) (20, -4.69159817331991496614e-02) (21, -4.81111675394774798709e-02) (22, 6.65597935895634179593e-02) (23, -4.06609295039491169810e-02) (24, 7.20749356750995939791e-02) (25, -2.16438426583900084266e-01) (26, 8.50778582432881042008e-02) (27, 4.10488918423652648926e-02) (28, 2.46519073843955993652e-02) (29, 1.33546110818948543519e-01) (30, 1.44282590445541118382e-03) (31, -5.18145250192384720922e-02) (32, -5.20745910476728204874e-02) (33, 1.00447736264471051970e-01) (34, 7.42179204357653610202e-02) (35, -9.15270909349759631546e-02) (36, 2.40462796196645109403e-02) (37, -1.40740627372913457149e-01) (38, -7.78750980395240266496e-02) (39, -1.97672963155406077040e-02) (40, 7.48739317059516906738e-02) (41, -5.28622032348407822067e-02) (42, 2.56953405114360933226e-01) (43, -1.18363780267433493787e-01) (44, 3.19620358759518108371e-02) (45, -9.04114994837438151754e-02) (46, 6.68915158386120672906e-02) (47, 2.35077455334457618985e-01) (48, 7.75365802864254882731e-02) (49, -1.29780642200431811650e-01) (50, 4.77851498092439069820e-02) (51, 2.01999806254127035887e-02) (52, -1.26065602213575767010e-01) (53, 1.59295248814899197132e-02) (54, 5.83216058089388172947e-02) (55, 1.31639630555170028536e-01) (56, 1.01322632224476322227e-01) (57, 1.16591940132653743706e-02) (58, 1.83744589113954415183e-01) (59, -5.30981894383113842140e-02) (60, 1.28763624773786139466e-01) (61, 2.06349673955461172803e-02) (62, -9.31141371231390263530e-02) (63, -6.28783642538179206316e-03) (64, -5.50544526371394699060e-02) (65, -9.79203951071550976470e-02) (66, 7.79644295115567483728e-03) (67, -6.36196603268279481380e-02) (68, 3.10290039537412937198e-02) (69, 4.74738488788057407669e-03) (70, 1.11967379055784743702e-01) (71, 1.20770554102546237574e-01) (72, 4.13759405156797870073e-03) (73, -1.13363403877194277025e-01) (74, 7.97611486703957983657e-02) (75, -7.49619290818559907974e-02) (76, 5.66472155749368003197e-02) (77, 1.31956991175035068947e-02) (78, -2.98960927457032968335e-02) (79, -2.71424136120984350884e-02) (80, -9.91019906610740436426e-02) (81, -2.72751724434382135376e-02) (82, 4.66854211087444140316e-02) (83, 4.11383285023598915808e-02) (84, 1.01031172409472153051e-01) (85, 5.14111021519462405016e-02) (86, 4.88552783740986637517e-02) (87, 1.43127036910863422031e-02) (88, -1.41891779485818714246e-01) (89, -1.04639538956955713278e-01) (90, -2.07703550185178303922e-02) (91, -4.90934102044706735524e-02) (92, -9.06466109786696894179e-02) (93, -2.11099198233397379598e-02) (94, 8.35378781635571499020e-02) (95, 8.54896070028255683493e-02) (96, -4.08974420941682140218e-02) (97, 5.06233544993171524773e-02) (98, 1.93786725879551674501e-01) (99, -5.25002190050513073416e-02) (100, -6.94032707795334963263e-02) (101, 4.69067817846716625385e-02) (102, -7.46167171291781256004e-02) (103, -7.00851747528036597701e-03) (104, -5.62241224046505783107e-02) (105, 2.99719030322964687107e-02) (106, -5.96079729090320808993e-03) (107, 5.82171118611587157243e-02) (108, 4.59863675474760646988e-02) (109, -9.80142418505078882873e-02) (110, 7.45088930007415939372e-02) (111, -1.76484351213090806532e-01) (112, 4.21234098588656527551e-02) (113, 2.54578743790139470915e-02) (114, -9.43432289218442687861e-02) (115, -8.72206580770205491815e-02) (116, -4.22755723269639255291e-02) (117, -1.74358552750313339219e-01) (118, -1.56884655060711586394e-01) (119, -2.22497501563596010443e-02) (120, -1.08027705390127792828e-01) (121, -2.34802656241957841132e-01) (122, -2.27040207409110128545e-01) (123, 6.34803978906132021498e-02) (124, -1.08641981934539569310e-01) (125, -6.29984851775219623082e-02) (126, 7.31150840662965900707e-02) (127, 1.11355690173875060411e-01) (128, -1.47474155493524189398e-01) (129, -1.23296417213166642490e-01) (130, -8.24086402190205881413e-03) (131, -1.89187662372264468746e-02) (132, 2.14727159873920117605e-02) (133, -6.35867882110312809818e-02) (134, -1.54670722770941571067e-01) (135, -8.15715858844698327168e-02) (136, -3.10003399818983733927e-02) (137, -6.04696275347691922231e-02) (138, -5.97785339736819076872e-02) (139, 5.00999502691985912350e-02) (140, 4.62108401241715857632e-02) (141, 1.08468208851324507402e-01) (142, -1.80579992751627449454e-01) (143, 1.42490978099715476235e-01) (144, 6.78272223663716061770e-02) (145, 2.22438916426071359167e-01) (146, -7.93084040185163124947e-02) (147, -4.71475118947829868743e-02) (148, -1.27018016716875375982e-01) (149, -2.73425233529419886569e-02) (150, -3.62260232689486233459e-02) (151, 2.09442268003566633983e-01) (152, 5.25791094774516257204e-02) (153, -3.03480449150625962440e-02) (154, -5.71911010043408586656e-03) (155, 9.58880787026522574124e-02) (156, -1.07279787725508314600e-02) (157, -1.70305708110106396314e-01) (158, -5.99207597928988738162e-03) (159, 3.66371142528634854973e-02) (160, 4.13493733238029931298e-02) (161, 2.26589683514423351207e-02) (162, -2.98004401272414882682e-03) (163, 1.21784416364356190554e-01) (164, -8.71764851383313582600e-02) (165, -1.88827398881662944508e-01) (166, -7.22325532683814885981e-02) (167, 2.34351336617435491994e-02) (168, 2.68784222579949039905e-03) (169, 8.65506468644728840789e-03) (170, -3.02062604189431670176e-02) (171, 1.01573806978872763218e-01) (172, -8.61058185624519883961e-02) (173, -6.55073203842890666726e-02) (174, -6.65817111612592993364e-02) (175, -9.88748269397422829829e-02) (176, -6.19409943197345158605e-02) (177, -1.83125301050596323016e-01) (178, 5.22308297067663532265e-02) (179, -2.40940519727011887019e-02) (180, 1.19352268603367728250e-01) (181, -4.97722233570217359455e-02) (182, -2.14582333660718604929e-01) (183, 1.32531806735206609399e-02) (184, -2.41551948831076578050e-02) (185, -7.59809123837015681913e-02) (186, 1.75982074089221868229e-01) (187, 2.28472852564506022366e-02) (188, -3.51148219139428077740e-02) (189, 9.21567046401022479940e-03) (190, 7.84294362939594313922e-02) (191, 8.12735711082459288956e-02) (192, -9.07532012538030258275e-02) (193, -1.72462869212877678571e-02) (194, 7.73673008407223528060e-02) (195, -2.25249565044921690182e-02) (196, 7.40084227216352835699e-02) (197, 8.33149199032070519877e-02) (198, 9.83636842621135876197e-02) (199, 1.85117683961791672231e-02) (200, -3.49463565776722620559e-02) (201, 8.26918516952364901496e-02) (202, 1.32666889810967823793e-02) (203, -4.31682144216085222910e-02) (204, 6.20381861670027956457e-02) (205, -6.26588001660599996923e-02) (206, 5.38504085813769836633e-02) (207, 9.85127404393167094288e-02) (208, -3.70284414112096380012e-02) (209, 4.93499292193967931119e-02) (210, -5.29605817338492934621e-02) (211, -8.86435263002609101501e-03) (212, -8.07928871406397297594e-02) (213, -3.84063598434607259002e-02) (214, 5.52089954902178145502e-02) (215, 5.52701946450009050371e-03) (216, -2.11231114842203478166e-02) (217, -4.79446727195458957671e-02) (218, -8.13242657687345826822e-02) (219, 9.37291920920589466393e-02) (220, 1.05992079411295798963e-02) (221, 9.89229648438794822995e-02) (222, 4.72821944491493284524e-02) (223, 3.48451904081545776881e-02) (224, 1.28206363380797896956e-02) (225, 7.66199425853598872077e-03) (226, -1.49299124080133228248e-02) (227, -6.00465539484738922149e-02) (228, -3.48098821006672595746e-02) (229, 8.60082992544533020407e-02) (230, -2.08952149578495068039e-02) (231, 3.28080566987605515283e-02) (232, 3.67418710926677299922e-02) (233, -7.60065561124174393637e-02) (234, 4.85390807697911180751e-02) (235, 6.20056406952242539221e-02) (236, -1.10348418034129980292e-01) (237, -1.83568382089256687539e-02) (238, 3.54602538686739181262e-03) (239, 3.10296209518667008564e-03) (240, -2.84848706199818911544e-02) (241, -4.61720021393535826754e-03) (242, 8.63743077056559477311e-02) (243, -9.58000832587543871277e-03) (244, -4.81896657807103362403e-02) (245, -1.62707037606432715349e-02) (246, 5.83197074601866857768e-02) (247, -3.19454131453397460749e-02) (248, 2.48934443165231139572e-02) (249, 4.47731400089344949711e-02) (250, -3.03220807997783177445e-02) (251, -7.88101401476867524654e-02) (252, 1.18372268528823695877e-01) (253, -4.66123431050694050914e-02) (254, 1.81742153231806043145e-02) (255, -4.85122152958149879809e-02) (256, 3.29904621189359981148e-02) (257, 1.25882652978861142579e-01) (258, -9.16782413974162047055e-02) (259, -2.99125216465760818130e-02) (260, -2.68333467757961748046e-02) (261, -1.11943370235370404098e-01) (262, 1.24534115489314270442e-01) (263, -7.05398240682505867083e-02) (264, -1.44114542731811373644e-01) (265, -7.38809426205050273628e-02) (266, 5.87724549057088915816e-02) (267, 9.00502517219062270648e-03) (268, -2.69393726208416034451e-02) (269, -2.16752703785443937012e-02) (270, 5.61268925870041165971e-02) (271, 6.52996045040878658750e-02) (272, -3.19851674259170534742e-02) (273, 4.57331667048828660604e-02) (274, -5.55106665720304787159e-02) (275, -6.13929386591608866608e-02) (276, -4.80693185124504984707e-02) (277, -7.88760961477703165246e-02) (278, 5.23801862549080898823e-02) (279, 1.16297070960943618734e-01) (280, 3.89178159861912134621e-02) (281, -4.68320591615579429057e-02) (282, -5.39331126028757545932e-02) (283, 1.83323242752166000458e-02) (284, -6.40466698196693606793e-02) (285, 5.62837292276810868819e-02) (286, 8.76923557390746760687e-02) (287, 8.44019350451843120009e-02) (288, -6.67365534887024991484e-02) (289, -2.74983754522472728654e-02) (290, 9.06465169249127261653e-02) (291, -1.33149395592712521674e-02) (292, 5.79005027519147695558e-03) (293, 6.65907401614795751987e-02) (294, 4.89450320310281933311e-02) (295, 8.90282860885925481087e-02) (296, -3.67328010661971682271e-02) (297, 2.19074609381335952407e-02) (298, -1.60071890077019725329e-02) (299, 6.01663529965150850609e-02) (300, 3.24204603541758257235e-02) (301, -6.75967056743581040656e-02) (302, 3.50594914308081512244e-02) (303, -1.11351889488053620858e-01) (304, 7.05744464538236165874e-02) (305, 6.01712731901136790857e-02) (306, 2.71054124214508557200e-02) (307, -2.39439885724080127327e-02) (308, -2.98414929840744823364e-03) (309, 1.82243574038296854596e-03) (310, 7.00412956919129747746e-02) (311, 4.24473908679698641588e-02) (312, 1.03170771835149697321e-02) (313, -2.53851522481584948587e-02) (314, -3.75133241235769757105e-02) (315, 8.62928572214439471022e-02) (316, 7.77881359003573386035e-02) (317, -7.85802957897334120041e-02) (318, 1.04555503602001997887e-01) (319, 7.51413414828167175452e-02) (320, 1.01872551531416478954e-02) (321, 1.46508963093405858436e-01) (322, 1.75165905841516006403e-02) (323, -3.00621399553759327539e-02) (324, 3.64591310073846958106e-02) (325, -4.45535595303091864951e-04) (326, -4.21233310017839479578e-02) (327, -1.12782725229250702093e-01) (328, 6.42448544962998524532e-02) (329, -2.61056604254858947139e-04) (330, 1.79768858906259355879e-02) (331, 3.02302487287806412319e-02) (332, -4.69621488697264596879e-02) (333, 6.14560874312887681081e-02) (334, 1.43983741933630199350e-01) (335, -1.88271678986838275627e-02) (336, -1.07723384939078167810e-01) (337, -7.84130519319510971288e-02) (338, 1.31118918889085833701e-01) (339, 6.22390828028431264407e-02) (340, 4.94845005133951743037e-02) (341, -1.04706014610871436799e-02) (342, -9.67208008243494905820e-03) (343, -4.89011668929114351467e-02) (344, 3.25805899178613841971e-02) (345, 5.42988493853145751111e-02) (346, 4.69412563318287456848e-02) (347, 1.11585445238412017677e-01) (348, -1.37487243569899608708e-01) (349, -4.87152173054161072296e-02) (350, 3.28072814652441008265e-02) (351, 1.48172287326413520958e-01) (352, -6.80235528318730992003e-02) (353, -8.73523366520483901532e-02) (354, -7.14243956218081343934e-02) (355, 8.87983569533519201400e-02) (356, -5.19891602618697407090e-03) (357, -8.78422116721336160294e-02) (358, 1.91499456328665024207e-01) (359, -2.31915130281726764028e-02) (360, 1.17930758491504236729e-01) (361, 6.06576477515321718648e-02) (362, -9.72296384063610491522e-02) (363, -5.53053892208152930721e-02) (364, 3.38691655384077069946e-02) (365, -3.92954932860789044047e-02) (366, 9.42908117662289435579e-02) (367, 5.19953905823005019249e-02) (368, 2.16631933842589066708e-02) (369, 6.95675111954659978336e-03) (370, 6.81349450932962124802e-04) (371, 1.40836465814564090748e-02) (372, -1.08631115022749219490e-01) (373, 7.49560226454713679489e-02) (374, 1.74173977014023567689e-01) (375, 8.04316305336862970299e-03) (376, 2.89399796327034497523e-02) (377, -8.98109205924527281839e-02) (378, 4.28006413213615419244e-02) (379, -7.43669695888834192399e-02) (380, -1.93061579579282931174e-02) (381, -1.72008492129556517236e-01) (382, -8.07295795049392667098e-02) (383, -4.26792549988699101982e-02) (384, -1.20213056558968425791e-01) (385, 5.47549702575047311098e-03) (386, 5.72353498810620198167e-02) (387, 8.56772946108124988651e-02) (388, -5.29411117754215940212e-02) (389, 3.58941719183978949492e-02) (390, -2.80295584563563932035e-02) (391, -9.15576522664999781220e-02) (392, -5.25535731028730704328e-02) (393, 2.18898090650897865148e-03) (394, 8.75409014014805753057e-02) (395, -1.71128217308387231554e-01) (396, -2.99622713001555518453e-01) (397, 1.47107225769116996966e-02) (398, 7.69630833462652819144e-02) (399, -1.11089006063205014696e-01) (400, -1.30181765785693015491e-01) (401, -1.53648919752952917150e-01) (402, -2.43473330974617707678e-01) (403, -1.13865671283881517151e-01) (404, -2.56507732525617870856e-01) (405, -1.84125601419444978601e-01) (406, -2.07274055411643648439e-01) (407, -7.70013855085281417878e-02) (408, -1.72394831191779340784e-01) (409, -1.58211349813829643685e-01) (410, -1.24560423050664448308e-01) (411, -8.39139949534419282706e-02) (412, 1.48996867727428806277e-02) (413, 5.65065678798759296608e-02) (414, -1.34186854181998493907e-01) (415, 2.11152342504796197709e-02) (416, -3.31360685725365436416e-02) (417, -6.57031116764510147998e-02) (418, 1.08487533263668473049e-01) (419, -1.26087615497613408921e-01) (420, -2.39419057842816009052e-02) (421, 8.20496524276615943339e-03) (422, -9.06735589035132794056e-02) (423, 1.42438318422810183961e-01) (424, -1.66775281766197575051e-01) (425, 9.05411387035397335898e-02) (426, -4.04617541354982679369e-02) (427, -3.83219765413020108102e-02) (428, -1.30184862037462517614e-01) (429, -1.09372241445476844901e-01) (430, -6.14431063559445836408e-02) (431, 2.97561779089164802486e-03) (432, -6.63056452506025767457e-02) (433, -6.78299676208905105712e-03) (434, -5.27494578323969426359e-02) (435, -4.15203626289536789629e-02) (436, -7.33158217980091619914e-02) (437, -6.47710479173674719133e-02) (438, 1.66800744256620420147e-01) (439, -1.10039066973621230128e-01) (440, -3.92879971671068126127e-02) (441, -3.33136755882260382489e-02) (442, -6.09300879405257206356e-02) (443, 1.12857353442759461570e-01) (444, -1.02995023361703214038e-01) (445, -1.37834934265375231438e-02) (446, 1.14638508802837241207e-01) (447, -3.83079756081836225734e-02) (448, -4.22457293726680310764e-02) (449, -5.41034118973244063100e-02) (450, 1.63665498333275642728e-02) (451, -1.26300105489238773809e-02) (452, 3.69639156560932838347e-02) (453, 1.17675550155518421347e-01) (454, -1.47851149691575617373e-01) (455, -1.08476452477708221189e-01) (456, -1.21837215206674495671e-01) (457, -9.48075883075545355894e-02) (458, 1.91217773908078474132e-02) (459, 4.40849183138418351802e-02) (460, 1.20633344953674434552e-02) (461, -1.06610219084668066819e-03) (462, -5.45509767950058538366e-02) (463, 1.05120640441820567546e-01) (464, 8.70278190762574926920e-02) (465, -4.99198655371062560704e-02) (466, 7.62148834411944670064e-02) (467, -2.52301442014955489002e-02) (468, -4.92237450166957205000e-02) (469, 6.16640027479483793238e-02) (470, 2.03272579489096709426e-02) (471, 2.41725991798336821426e-02) (472, -1.06432753341957259119e-01) (473, 1.25482749428644402290e-01) (474, -4.12226254807253472690e-02) (475, 9.40714919512374188326e-03) (476, -1.81316533638058080546e-01) (477, -1.14317982551713076544e-02) (478, 9.12184427913055040360e-02) (479, 7.99239581494305267872e-02) (480, -3.86728048782884956114e-02) (481, -1.02862656765986566071e-02) (482, 7.23253147027246579004e-02) (483, -1.07535114965742820137e-01) (484, -2.82267594209079236700e-02) (485, 7.93962591001762946208e-02) (486, 2.87833985211013478056e-02) (487, 4.56774729092064915581e-02) (488, -3.33744082198484739998e-02) (489, 1.53219190553549933220e-01) (490, -8.09026559590271809874e-02) (491, -1.94772407412528991699e-02) (492, 1.80143891403266205586e-02) (493, 3.44394257929551070307e-02) (494, 4.37464631085003746724e-02) (495, -1.01244325285579639395e-01) (496, 5.38396765900049367737e-02) (497, 3.37651216182031504998e-02) (498, -4.72856488008244757459e-02) (499, -2.43952077062312361680e-03) (500, 5.92995990699593453210e-02) (501, 1.12753553200419340263e-01) (502, 7.30940234850632614139e-02) (503, 2.51563839651748055726e-02) (504, -6.35785528533247407124e-02) (505, -1.57375297079919256038e-02) (506, 1.98012744219326942974e-02) (507, 7.78704481068815818068e-02) (508, -6.43012021706992203951e-02) (509, -9.14462572356909975113e-02) (510, -3.32460836609818760623e-02) (511, 1.56030302756794608809e-01) (512, 3.24299708008766174316e-02) (513, -5.55399314369453417362e-02) (514, 9.42414577740567638298e-02) (515, 1.23876428013484449903e-02) (516, -1.09260808794929289989e-01) (517, -9.61822967399793421484e-02) (518, -6.16571547838414869835e-03) (519, 1.20769772378451841106e-03) (520, -1.84012587274773958823e-01) (521, -1.53676675883800961664e-02) (522, -2.57247908691300500306e-02) (523, -6.14046928357056612247e-02) (524, -1.09191164850683905541e-01) (525, -3.78190614096335156469e-02) (526, 7.07141576222827372006e-03) (527, -4.43430642531135663087e-02) (528, 5.77087932812904644275e-02) (529, 1.64101914623106977242e-02) (530, 4.37556693612389593917e-02) (531, 4.40408670462546780744e-02) (532, 4.40397288152692759078e-02) (533, 3.46567481756210327148e-03) (534, -1.32991822088228739407e-01) (535, 1.86928866983743335872e-01) (536, -8.03452252919743467596e-03) (537, 1.20421409719041069830e-01) (538, -1.59520090282890825151e-01) (539, -1.66216357125733876776e-01) (540, 1.24041041701801954544e-01) (541, 9.59769576951386288455e-02) (542, 7.00106700461637365684e-02) (543, -1.91823505670429911296e-01) (544, 8.42837116968424672828e-04) (545, 4.63217800445642827190e-02) (546, -1.26630442317502339700e-01) (547, -6.89573344032702040263e-02) (548, -3.08474045594133682024e-02) (549, 5.60954025124963603921e-02) (550, 7.81350651666335854761e-02) (551, 4.22658459939689798435e-02) (552, 3.05214250731216454882e-02) (553, -9.72936718772242636888e-02) (554, -8.36801677942276000977e-02) (555, 2.76721413996474617514e-02) (556, 1.81495463224814537750e-02) (557, 7.04526411475185077027e-02) (558, -1.01428103639372463318e-01) (559, -1.72886858441194356251e-02) (560, -4.71377545618622828538e-02) (561, -2.00577456709372693722e-02) (562, -3.10007907429567831914e-02) (563, 1.12409083058649481024e-01) (564, -1.00190185397885003771e-01) (565, 1.02425511124897714033e-01) (566, -4.72091521979050299240e-02) (567, 6.19213823063446827666e-02) (568, 4.71123422127756180666e-02) (569, -6.73068221328364801881e-02) (570, 9.19469875378574608149e-02) (571, 3.01832114848461403878e-02) (572, 4.69138422151168868468e-02) (573, -3.48727008517946759913e-02) (574, -4.79162758902727040078e-02) (575, -7.72812962532043457031e-02) (576, -3.54642448573870699979e-02) (577, 2.35256358532210975432e-02) (578, -4.66415067991712908868e-02) (579, 2.65506903339147760923e-02) (580, 7.82685447531309697045e-02) (581, -7.47025578117044633530e-03) (582, -1.43319877032744126891e-03) (583, 6.07107481057222453380e-02) (584, 1.03399639221102235265e-01) (585, 4.59511352869628950102e-03) (586, -2.55433080486656138852e-02) (587, 1.03640429017054891414e-01) (588, -1.36032999792419610763e-02) (589, 3.84565598497371430309e-02) (590, 1.10776997550602496201e-01) (591, 8.25141311931260335033e-02) (592, -2.36591926964010990098e-02) (593, 8.33076729899706047711e-02) (594, 3.32633281518349352424e-02) (595, 1.14116318036177298578e-02) (596, 1.31653174757957458496e-02) (597, 1.50194944556548831693e-01) (598, -2.58008741064998450843e-02) (599, 2.25432307550179830691e-02) (600, 1.13706436988874559635e-01) (601, -2.58943524314365694505e-02) (602, 3.59721594555407614413e-02) (603, -1.44454589810483369217e-01) (604, 3.35923974898131236233e-02) (605, -1.00299684439367667310e-01) (606, 6.78473015071850375085e-03) (607, 5.75592077024202550262e-02) (608, 9.05466579568679902357e-02) (609, -6.30105140722193451941e-02) (610, -2.18035545404102713840e-02) (611, -7.98615935935562994141e-03) (612, -3.26751162085532013274e-03) (613, -5.20504065641294796918e-02) (614, 6.42275602256746173946e-03) (615, -4.72027128056864697658e-02) (616, 6.11236253776739207888e-02) (617, -9.83801817274506523736e-02) (618, -8.43118500094301448478e-02) (619, 8.50769073102553528842e-03) (620, -5.71377152954437236843e-02) (621, -9.83232880575286155578e-02) (622, 7.87482196832866715441e-02) (623, -2.12034498557122280671e-01) (624, -9.76424344251317355425e-02) (625, -2.45889274960572543072e-02) (626, -1.63872125586576766754e-01) (627, 1.60207121914765528159e-02) (628, 1.93320857650767672850e-03) (629, -4.39338741880903882464e-02) (630, -9.88794146544191981940e-02) (631, 1.61378820886331736384e-01) (632, -2.15229792472567404982e-01) (633, -1.16075070915050232445e-01) (634, 2.97949352021454130779e-02) (635, -7.85928211066076187752e-02) (636, -5.16691478585909677590e-02) (637, 1.28262628340484102774e-01) (638, -1.68341237570188650974e-01) (639, 4.44528429517396413140e-03) (640, 1.68788158551933631379e-01) (641, 4.99991409805998921617e-03) (642, 1.79732507849280631618e-01) (643, 6.61095659565305304728e-02) (644, -5.52121729054038112849e-02) (645, -1.58558733596576378888e-01) (646, -1.18986604286265298946e-01) (647, 1.31543145105071840328e-01) (648, -8.99767989394664041702e-02) (649, -4.92343534082356967807e-02) (650, -7.59689055868034562868e-02) (651, 1.45209287070174108969e-01) (652, 6.56608999009248711642e-02) (653, 2.85346775395931909203e-02) (654, -1.32129769980208200408e-01) (655, 3.98560690777729348389e-02) (656, -7.87697615737281420234e-02) (657, -8.05712338241168085640e-02) (658, 1.27609822358859703595e-01) (659, 1.09391978726901054064e-01) (660, -1.96696236109062567998e-02) (661, -1.89490136146414550611e-01) (662, -8.00548874654028463915e-02) (663, 1.17099582725361403557e-01) (664, -1.33993321666332487752e-01) (665, 4.77292724425649236147e-03) (666, 2.72658346093585524095e-02) (667, -7.06056006972769489849e-02) (668, 4.29272182630187071339e-02) (669, -3.58548009211562199172e-02) (670, 6.98786850196990265427e-03) (671, -1.45982028534161839550e-01) (672, 1.27346282231115912748e-02) (673, -3.31970758066264859387e-01) (674, 6.10654309849523596609e-02) (675, -9.24383592774097873068e-02) (676, -1.22730586292076337962e-02) (677, -3.93072532263509938355e-02) (678, -1.91750039557574525340e-01) (679, -1.88370351117653850315e-01) (680, 1.69408333938437849486e-01) (681, 4.77510541658972276213e-02) (682, -7.41872837287603920098e-02) (683, -1.94366260824890522974e-02) (684, -8.14705355324590457800e-02) (685, -7.12097499699405334095e-02) (686, 1.36497920042411347019e-01) (687, -1.54949385018749493520e-02) (688, 5.31977079151961171344e-02) (689, 1.11644555616466842340e-01) (690, -5.98449166661822809510e-02) (691, -4.32601060380505830771e-01) (692, 9.52955753043924214118e-02) (693, 7.52709808551639270036e-02) (694, 1.45338585077423781966e-01) (695, -9.35776948620877790930e-02) (696, -6.35563766517106554232e-02) (697, -1.00294862280548999212e-01) (698, -4.28918957327394934076e-02) (699, -9.55464350026832415219e-02) (700, -1.96028271614380154853e-02) (701, -8.72748077605372540866e-02) (702, -1.15135136360137502187e-01) (703, 1.84725274112154863593e-01) (704, 1.11439516190898983000e-02) (705, -1.06340487963504620739e-01) (706, 1.49318386901076544104e-01) (707, 7.34189963602589201752e-02) (708, -6.10422157290889666470e-02) (709, 1.38111506412475909533e-01) (710, 2.57739623361394228074e-02) (711, -1.54040847483784493210e-01) (712, 6.34398486854496485021e-02) (713, 4.13752965574103459545e-02) (714, -1.81116978243198029075e-01) (715, 8.69132105080295744304e-03) (716, -1.28966261140943699859e-01) (717, 5.46115101143761771940e-02) (718, 1.79380161431358375879e-02) (719, 5.12803423488481027737e-02) (720, -4.13110934105810068129e-02) (721, 1.44147690482466952870e-03) (722, -7.76645745461258252273e-02) (723, 1.61750317739337762246e-01) (724, 4.69549958010012022380e-02) (725, 5.29637175028208950778e-01) (726, 3.68607699982862260790e-02) (727, 7.99598434152855697121e-01) (728, -1.13053865993590393901e-01) (729, -3.22035977479466842266e-02) (730, 5.69508044315440234429e-02) (731, -9.90761565339902117167e-02) (732, -7.88632284145467377101e-02) (733, -8.83453464900117182122e-04) (734, -1.27428615133938522019e-01) (735, -7.40010765270358722434e-02) (736, 9.51209798319807703360e-02) (737, 1.62283158528788024055e-01) (738, -1.02288120883309754938e-01) (739, -7.33554390145506607368e-02) (740, 9.58654323234169325474e-02) (741, 7.26940729787139972018e-01) (742, 1.33129065075187597023e-01) (743, -7.33947935901792802849e-02) (744, 2.32734901650952674679e-01) (745, 8.48731025339811429031e-02) (746, 3.77784689542500551340e-01) (747, 8.29041282605898210978e-02) (748, -2.34449972354926622353e-01) (749, 3.33754832717959193378e-01) (750, -5.15319599989505605642e-01) (751, -5.34152796784180816658e-01) (752, 1.61467045748554638429e-01) (753, 1.45104021964526874733e-01) (754, 2.77505721428558393971e-01) (755, -3.96605741562495506258e-01) (756, 2.76353866145287105360e-02) (757, 8.72537038819547333679e-02) (758, -4.46637116496397396093e-02) (759, 5.79098414555657969860e-02) (760, -3.37228266388275160770e-02) (761, -7.19131525021035958312e-03) (762, 8.56416772202168025130e-02) (763, -4.81643317762287595518e-02) (764, 3.06600564186590325566e-02) (765, 1.07682228665044385507e-01) (766, -2.35827820517402531042e-01) (767, -4.74752582022931260419e-02) (768, 1.16868828228733107229e-03) (769, -6.32331472171288461182e-02) (770, 1.01258204188238651322e-01) (771, 7.85475447773933410645e-02) (772, -8.10611026834270331776e-02) (773, -2.91593015980383847563e-02) (774, 7.98431463851556610933e-02) (775, 3.31970976151979915714e-02) (776, -3.67298403337800866142e-02) (777, 1.88942047949939469220e-02) (778, 1.30887893032592683706e-01) (779, 9.42825735673856052399e-02) (780, 7.92860787721668541783e-03) (781, -9.58167296596852333113e-03) (782, 1.32847179746167720626e-01) (783, -1.57999739811566425329e-01) (784, -5.36738554400737963301e-02) (785, 4.55734149143218053579e-02) (786, -2.68304203589174580444e-03) (787, 1.88838810145466814983e-02) (788, -3.29993269224661961436e-02) (789, 3.96983800994891930514e-02) (790, 9.12302661769499867450e-02) (791, -7.89450270196445473558e-03) (792, -1.30198881146878386872e-01) (793, 1.41692273508980837171e-01) (794, 2.61623162156416788626e-01) (795, 2.16764618329470006020e-02) (796, -1.12338758914277025980e-01) (797, -2.52331233256406328724e-01) (798, 6.27002526274695048958e-02) (799, -3.28384639140161638249e-01) (800, 1.61412339567768819970e-01) (801, -2.43924931924057147858e-01) (802, 1.46882212223853697575e-01) (803, 1.87708841688705135864e-01) (804, -7.66553295055305561334e-02) (805, -3.04373435150101012692e-01) (806, -2.62858336066094065708e-02) (807, -1.19240459255085364323e-03) (808, -1.08001034923736645432e-02) (809, -4.87588540527384914358e-02) (810, 3.87657776533521514217e-02) (811, -1.48928706629834706199e-01) (812, 1.47392703252866661551e-02) (813, -5.51189602404437706262e-02) (814, 1.10719913933878061352e-01) (815, -1.30995725677236662943e-01) (816, 1.37919329063848988826e-01) (817, -1.44628280523199759244e-01) (818, 2.57642959271831839541e-02) (819, 3.44047949110568074271e-01) (820, 1.79946873928936657006e-01) (821, 2.21649225183525283578e-01) (822, 1.46774944984046418206e-01) (823, -2.96157366951600331539e-01) (824, 1.70380782820513887454e-01) (825, -2.32575148323088343183e-01) (826, -2.14317423062221519559e-02) (827, 1.61999103359956847514e-01) (828, 7.17143490910530090332e-02) (829, 3.43015268445014953613e-02) (830, 4.50069232789653689286e-02) (0, -5.49365592017212606146e-02) (1, -5.28981911130529738885e-02) (2, 2.68859660608910221169e-02) (3, -1.51222139091984147941e-01) (4, 2.05119941175493092356e-02) (5, 4.68116382309371054093e-02) (6, 6.96231749449575249011e-02) (7, -4.81642934889608548277e-02) (8, 5.32240859227212023685e-02) (9, -8.07824584239469900560e-02) (10, 2.77905178489259753472e-02) (11, -6.10152492495971768283e-02) (12, -8.22170273140418288171e-03) (13, -4.16062550802522509996e-02) (14, 2.94758999073445535077e-02) (15, 9.29067937585801445488e-02) (16, -2.56156716765319029949e-02) (17, 2.61256902941678324781e-02) (18, 9.04867163853227407522e-02) (19, 9.02000941148606155684e-02) (20, 3.66935265797491555473e-02) (21, 7.98027067032105880129e-02) (22, -3.80148751450954835995e-01) (23, 6.63972876968208919335e-02) (24, 8.57985963057996889325e-03) (25, -2.03623006889153496113e-01) (26, 7.52930482870576428533e-03) (27, -6.29452466964721679688e-02) (28, 9.56756249070167541504e-02) (29, 8.52307218294078156040e-02) (30, 5.55786566155208494600e-01) (31, 8.02263553407800283912e-02) (32, -1.36990848306890906916e-02) (33, -2.28795864634111750791e-01) (34, -1.33720139391348524782e-01) (35, 4.91461250585103273658e-02) (36, 2.76608362483543646082e-01) (37, -3.57459707721123398638e-01) (38, 1.31343419726274085457e-01) (39, 9.22528329196718593908e-02) (40, -1.10056251287460327148e-02) (41, -9.90062789482730881696e-02) (42, 4.05616891906080967445e-01) (43, 2.78978332164952269601e-01) (44, 3.58487429246380703840e-02) (45, 7.32915258476643655117e-02) (46, -8.60232000286794001864e-02) (47, -1.75745663938999235887e-01) (48, -2.69522532642671230896e-01) (49, -3.64833567647966539038e-01) (50, -9.39616133720768027804e-03) (51, -2.10897995366896989777e-01) (52, -1.09895846312389501576e-02) (53, 2.10257233296830964298e-01) (54, 2.75176975776131524376e-02) (55, 3.24715109079959374228e-02) (56, 1.77815770187657873347e-01) (57, 6.49711879961233640390e-02) (58, 4.00503312076291445587e-02) (59, 5.26978655794542033552e-02) (60, 8.14699825153076817585e-02) (61, -4.59279392451140827669e-02) (62, 5.38846490516758022671e-02) (63, -5.22560409895687430493e-02) (64, -7.69115945731492361981e-02) (65, 1.13507929751940989105e-01) (66, 1.36368589241117416089e-01) (67, 1.25364515082661165390e-01) (68, -1.48561443535113857362e-01) (69, -4.63111765263429526335e-03) (70, 3.94116452590625512831e-02) (71, -8.81876232933315462592e-02) (72, 2.69532236758578506997e-02) (73, -2.90749698241375281738e-02) (74, 1.59005638496022977391e-01) (75, -3.03137278335218578185e-02) (76, 2.38626665223957284967e-01) (77, 1.53032564801240528185e-01) (78, 4.72507591427053091904e-02) (79, -5.76966547103166041421e-02) (80, -1.15519570529263454484e-01) (81, -1.94456221134372275738e-02) (82, 4.57033627024260660776e-02) (83, 6.66393507027273138132e-03) (84, 2.33311473202885179268e-02) (85, -2.01309579193942947417e-02) (86, 8.22840724246109989082e-02) (87, 2.22934018857076816922e-02) (88, -1.18121989644123459584e-01) (89, -5.88349799936719736193e-02) (90, 1.12770403336903010660e-01) (91, -9.79530658737018805615e-02) (92, 6.32827853420621258378e-04) (93, 1.41218749254221787037e-01) (94, 1.30528219941040635188e-01) (95, 2.46268906170319379356e-02) (96, 1.80832393115060025002e-01) (97, 5.91966961075297143369e-02) (98, 1.07772379112033717119e-01) (99, -4.47128992877180841264e-03) (100, 5.60960744247188045075e-02) (101, 7.62289734443881983328e-02) (102, -8.41281114494600440468e-02) (103, 5.43674829506774551224e-02) (104, -1.04660595899794428565e-01) (105, 1.74746822385824590596e-01) (106, 1.05248811414164408773e-01) (107, 7.21049436484001854408e-02) (108, -1.34857805019952564640e-01) (109, -6.93522723869122170726e-02) (110, 3.76684126153054091302e-02) (111, -1.83668221554738608781e-01) (112, -4.73341380614899012724e-02) (113, 1.81582723609947649379e-01) (114, -6.52294498129449701329e-02) (115, 7.12100040599127487306e-02) (116, 7.60243706286043985365e-02) (117, -1.36335042724974181416e-01) (118, -9.46117775588601050973e-02) (119, -3.50776770821830050084e-02) (120, -3.20023840681263049834e-02) (121, -2.09414570730571292234e-01) (122, -2.37502378360293170401e-01) (123, 6.11931631650664414890e-02) (124, -6.97910720157984554302e-02) (125, 5.22858729042305139800e-02) (126, 2.71306930146863023445e-01) (127, 2.65850553497557595684e-01) (128, -3.51722133511277439827e-03) (129, 9.54825517898790221416e-02) (130, -4.97658067832974365663e-02) (131, -2.07122855501354230512e-01) (132, -4.96520362700766729191e-02) (133, 1.91795052153845513310e-01) (134, -1.37775888276243929642e-01) (135, -6.59059766221969794975e-02) (136, 6.77028351288677526787e-02) (137, -3.15554285540474363514e-02) (138, -1.24325000138584620957e-01) (139, -4.70109293141348846823e-02) (140, -5.60875253820001112848e-02) (141, -1.74461173870951835596e-01) (142, 7.46894302691553657603e-02) (143, 9.14396549287792848038e-02) (144, -1.67425626768099355957e-01) (145, -9.50022161967582073894e-03) (146, 7.66639054526733060291e-02) (147, 1.94041125441714867872e-01) (148, -1.72175044933695231553e-01) (149, -1.85738136726354086115e-01) (150, -4.32465917548561021300e-02) (151, -1.89391346018639647464e-02) (152, 8.53155849401603522120e-02) (153, -1.60643873034231089714e-02) (154, 4.33272647862329787771e-02) (155, -7.46594188883187466488e-04) (156, -2.20672804625661397870e-02) (157, -1.73237290390631515358e-01) (158, 6.28725856347036732297e-02) (159, -1.25824828998379933953e-01) (160, -4.31939880600908029940e-02) (161, -1.28955674323712021767e-01) (162, 2.01649303394241877219e-02) (163, 1.14405856077220577371e-01) (164, -1.88947495133330728434e-01) (165, 8.73317003957171933415e-02) (166, 8.86865507452970214253e-02) (167, 1.12926687590594876376e-01) (168, -4.83452765479330942577e-02) (169, -1.31472488103053425368e-01) (170, -6.92127828286002028113e-02) (171, -1.13530334410135977374e-01) (172, -5.70596588716931127361e-02) (173, 3.97913420084727437187e-02) (174, 9.89766592629188479702e-02) (175, -3.70037373587419685106e-02) (176, 8.17600171575683792868e-02) (177, 1.07297203761857321003e-01) (178, -2.22006741686869707442e-02) (179, 1.45444013937040227125e-02) (180, -9.29419143474461278975e-02) (181, -1.81842606966641950894e-01) (182, -8.28458910435202547373e-03) (183, 1.74246116520473642852e-01) (184, -5.80461057603210428546e-02) (185, 3.75512466110811335418e-02) (186, 2.40775174690041671166e-01) (187, 1.09702662079534510320e-01) (188, -1.36865789978113078229e-01) (189, 3.19179880829329187808e-02) (190, -2.10082827893371673275e-03) (191, -1.02034354799096727007e-01) (192, 1.04549800627705413714e-01) (193, -5.41919648635811462833e-02) (194, 3.79922667085203710768e-02) (195, 1.15510794550866949248e-01) (196, 2.09127397455447774574e-03) (197, 6.73805832159721784791e-02) (198, 3.47508790397147229734e-03) (199, 2.41081347252399096071e-02) (200, 1.09559806631813489580e-02) (201, 3.84842112752850074031e-02) (202, 6.00612698819053773130e-04) (203, -2.25600090480063519838e-01) (204, 3.93601020262549297635e-03) (205, -8.49793981452046376379e-02) (206, 4.31750114200895457328e-02) (207, 5.20546794481028321511e-02) (208, -9.61800448922385531336e-02) (209, -1.38596092952978311441e-01) (210, 1.50062133111969978755e-02) (211, -7.03463461283734686758e-02) (212, -5.50829937491021937035e-02) (213, -6.52413168607128279852e-02) (214, -9.09718852864783121548e-03) (215, 4.62715993115167603666e-02) (216, 6.71317789872290238140e-02) (217, 9.20477183939126947232e-02) (218, -1.25802223043544325609e-01) (219, 7.86131679895783475054e-02) (220, -6.30171103326722659155e-02) (221, 5.25222197825550712880e-02) (222, 1.09712019548205391706e-01) (223, -1.37883283265281597618e-01) (224, -3.42200302437730072280e-02) (225, 3.77796318436755332315e-02) (226, -4.54167128713967305220e-02) (227, 7.07248598745925920878e-03) (228, -8.15474304024295104654e-02) (229, 1.75359143258214562888e-02) (230, -1.49546774824299538720e-01) (231, -7.00719603942697149418e-03) (232, -1.21023193525520003644e-01) (233, -5.53291477140728932271e-02) (234, -5.33996317741827208891e-02) (235, 8.49505308691670540933e-02) (236, -6.44814588266807847683e-02) (237, 6.89563707822198751485e-02) (238, -1.00642198491938589244e-01) (239, -6.82894691712438717257e-02) (240, 8.83190158712451045542e-02) (241, -1.90444851264855233297e-02) (242, 4.54247443331755040852e-02) (243, -1.06222104864149832770e-01) (244, 3.83690160451568701427e-02) (245, 6.98996566224870385931e-02) (246, 2.14479787222304867089e-02) (247, -4.20669386456883412362e-02) (248, -4.60054468241852879129e-02) (249, 4.79395374938953594546e-02) (250, -3.00294922278182309372e-02) (251, -8.33328370944103752338e-02) (252, 6.64123919901356829509e-02) (253, -4.08681308754797814609e-02) (254, 5.53000033341068258919e-02) (255, 9.61163920648938491231e-02) (256, 7.44976600527878229929e-02) (257, 1.73294560975592371044e-01) (258, -1.10730754176137216604e-01) (259, 1.44261239768554844209e-01) (260, -2.47248375663958949722e-02) (261, -1.06492984117372416208e-01) (262, 1.68593208234479874363e-01) (263, 4.17757778187718975538e-02) (264, -4.69472320417562288819e-02) (265, -1.16303703445411896200e-01) (266, 9.80679014782884911350e-03) (267, 1.23207024240447771124e-01) (268, 1.52576317197635688561e-02) (269, -1.42453999842603838688e-02) (270, -1.58638395087551425933e-01) (271, -2.58381141513090474560e-02) (272, 9.89404646934471665443e-02) (273, 3.20785581579180675837e-02) (274, 5.92480253938524950574e-02) (275, 4.57858194456070566325e-02) (276, -5.79125802177267723359e-02) (277, 1.37771832253326901446e-02) (278, -1.06630487779486457511e-01) (279, -1.10316723426509520622e-02) (280, -9.65644578761298139069e-02) (281, -4.86967003626517166981e-02) (282, -8.79690010463883426128e-02) (283, 4.79084517193911971211e-02) (284, -1.10007389855012988056e-01) (285, 6.99610346822146234036e-02) (286, 7.53309189316966471006e-02) (287, -7.41118428703173848238e-02) (288, 9.94599689253402446942e-02) (289, 5.00604199468404550966e-02) (290, -1.43255663311017550354e-01) (291, -1.14332252805107392746e-01) (292, -3.71723859897364825033e-02) (293, 1.20554483502989542854e-01) (294, -1.41737291898871381468e-01) (295, 1.38941877332080493401e-01) (296, -7.14036029892412410502e-02) (297, -4.25249717351144744526e-03) (298, 1.05772105112349606992e-01) (299, 5.55389033877016075058e-02) (300, -1.12529102960410749834e-02) (301, 5.92475712740078847007e-02) (302, 1.66800677482424478462e-03) (303, -2.40111808903789268610e-02) (304, -1.03595667502593635767e-01) (305, -7.76248844334504611853e-02) (306, -7.10745703225509339873e-02) (307, 7.42925374713097053103e-02) (308, -9.14021871948180186784e-02) (309, -9.67901075479314469685e-03) (310, 4.54978595340315497553e-02) (311, -2.21676690999853473474e-02) (312, 5.52805158131529777998e-02) (313, 1.19172559759761861886e-01) (314, -5.12671822684376762846e-02) (315, -9.44832599023949157302e-03) (316, 1.16337647602292218463e-01) (317, 5.49026041816345553026e-02) (318, -1.59684483652637543294e-01) (319, 6.58113021397610260116e-03) (320, 2.03841281462995918550e-02) (321, -7.60634612277605870467e-02) (322, -6.36710703815463324728e-02) (323, -8.72671462698389882595e-02) (324, -1.12777403189659827798e-01) (325, -7.00664902588164495434e-02) (326, 1.48689758026435830951e-01) (327, -5.62982477822632915165e-02) (328, -6.08901662220983352913e-02) (329, 5.83196309535692347659e-02) (330, -1.12362385682707510703e-01) (331, -1.17995873955773322717e-01) (332, 7.62154167075815291987e-02) (333, 1.33887160565236890131e-01) (334, 1.16865897344386571177e-01) (335, 1.35493560419503323439e-02) (336, 7.24710545203541556258e-02) (337, 8.98320282763562655282e-02) (338, 1.06107651768064276121e-01) (339, 6.50623398586803874943e-02) (340, -5.10882998800977518317e-04) (341, 9.10326110377694154574e-03) (342, 1.11305169302085754657e-01) (343, 1.24551808093361304763e-01) (344, -8.57935727481881765799e-02) (345, 1.26082850905609278325e-01) (346, 1.78611159249767170731e-01) (347, 2.27362088287166308476e-01) (348, 5.88551677355457908414e-02) (349, 2.84194117414806914079e-02) (350, 1.04958942335023786008e-01) (351, 3.87495238401529620842e-02) (352, 4.05931865064233093898e-02) (353, 1.12173377277394265006e-01) (354, 6.68375606448909920232e-02) (355, 1.48948184053313299052e-02) (356, 5.84146159529556757706e-02) (357, -1.07906133043696710744e-02) (358, 2.02893353877834636823e-01) (359, -1.40281446409612486903e-01) (360, 7.70844706782248256793e-02) (361, 9.30676257678464402545e-02) (362, -3.40225794002453896248e-02) (363, 6.17355548044349333736e-02) (364, 5.93981663467621975872e-02) (365, 9.90483148461214490954e-02) (366, 3.12918316133483226382e-02) (367, 1.64742802869837889901e-01) (368, 1.04210813991068476647e-01) (369, 1.02740262500507467669e-01) (370, 1.21851620796453133377e-01) (371, 3.31958194468059269999e-02) (372, 1.22855497412567515880e-01) (373, 9.74726855517645679461e-02) (374, 1.85096776657570988300e-01) (375, 6.43857992643161874957e-02) (376, 5.84767274855803112499e-02) (377, 6.01443491760680556957e-02) (378, 1.24909101216860107808e-01) (379, -2.30149814307121863832e-01) (380, 1.77743008366223781413e-01) (381, -5.84181259340562988869e-02) (382, -2.18133953867802043991e-02) (383, -3.24707681776777376537e-02) (384, 6.92796921120232139790e-02) (385, 1.30010745265837251994e-01) (386, 4.22470159688054097691e-02) (387, 3.67569638651005781149e-02) (388, -1.48537599320291840987e-01) (389, 8.60466178268027431786e-02) (390, 9.41719939854366444587e-02) (391, -1.50729223864179640024e-01) (392, 6.61879283579880628441e-02) (393, 1.96939852665616560445e-01) (394, 7.85266832138281634101e-02) (395, 6.55698375080890488720e-02) (396, -6.42482458405412848457e-02) (397, -4.74455471492789687682e-02) (398, 1.26436533564623532211e-01) (399, -1.76148524451351734532e-01) (400, 3.88266698210125368873e-02) (401, -1.84235362559646703717e-01) (402, -2.06959040601177701735e-01) (403, 8.37603887661815260657e-02) (404, 8.62840227840464130127e-02) (405, -6.85527232882684467441e-02) (406, 6.00312402156695512634e-02) (407, -6.22882112948149671561e-02) (408, 7.44645782371236991670e-02) (409, 4.47918117633165704938e-02) (410, -1.43100322190044149107e-01) (411, -1.55273000029837571212e-01) (412, 1.74730965237793328670e-01) (413, 2.07930042463033648570e-01) (414, 4.29419746196522678083e-02) (415, 1.35843449649600656048e-01) (416, 5.61668478876687915502e-02) (417, -9.62385380201482426576e-02) (418, 4.34197920055030966990e-02) (419, -5.56711316488142024528e-02) (420, 6.12226830498923107332e-03) (421, -6.24158786284600558547e-02) (422, -7.24894292642266381554e-03) (423, 1.23746187038683272408e-01) (424, -1.80083105583051100718e-01) (425, 7.90776757263170482215e-02) (426, 2.65313477791696283870e-02) (427, 1.09499925506714279599e-01) (428, -3.50458406477607009588e-02) (429, 1.94772632973685910773e-01) (430, 1.28661118506938794426e-02) (431, -3.77154374087020349826e-02) (432, 6.09584155787682435701e-02) (433, 1.78830258590841562061e-01) (434, -3.52307177076025893059e-02) (435, 1.45663076653798975735e-02) (436, -1.48620217556363065636e-01) (437, -1.52387913800600349745e-01) (438, 1.04556319840992825720e-01) (439, -8.19795977951837395725e-02) (440, 9.88580687115840905932e-02) (441, 6.25751254070002899121e-02) (442, 2.43440366882783920666e-02) (443, 6.84312531976023624702e-02) (444, -6.69896575669261529207e-02) (445, 6.13975578128973242809e-02) (446, 9.20111152874264308366e-03) (447, 1.53412293192854182200e-01) (448, -1.19679326021078467901e-02) (449, 7.77806164511514810944e-03) (450, 7.55492499966547020884e-02) (451, -1.71578625226492050178e-03) (452, 9.48851675995105864336e-02) (453, 1.71006005054635173979e-01) (454, -1.40657199185930281704e-01) (455, 2.72587090789194463891e-02) (456, -9.93904139897142657745e-02) (457, 1.75532710796495183825e-02) (458, 1.57962985686167567412e-01) (459, -2.67632517137306527588e-02) (460, 2.08158028147665923047e-02) (461, -1.26530055138668856562e-01) (462, -2.05426580982755700722e-02) (463, 1.56960613281665675722e-02) (464, 1.04611163031532755641e-01) (465, 2.87658901127896028671e-02) (466, 1.18095350203348090079e-01) (467, 1.70183799372995075982e-01) (468, -1.87603966748372236184e-01) (469, 6.97922198534434296002e-02) (470, 9.84960794424271229852e-02) (471, 8.26388664883192652910e-02) (472, 5.50692666191633511952e-02) (473, 3.41979710713997617222e-02) (474, -1.18933571679974828261e-01) (475, 1.27801420083229644309e-01) (476, -1.78915752700173902312e-01) (477, 4.36849355638828928949e-02) (478, -6.94918295413121250848e-02) (479, 5.35069527196395250401e-02) (480, -8.99743949979121965255e-02) (481, 1.37043940372684105306e-02) (482, -1.14875861091332479025e-01) (483, -1.58941529179125129456e-01) (484, -7.48244489681562999217e-03) (485, -7.99989332945941905573e-02) (486, -9.19674542603577949151e-02) (487, 8.93649304973326008561e-02) (488, 5.66070868295826187810e-02) (489, 1.18813542748769374047e-01) (490, -4.29736537980939317660e-02) (491, 1.09235867857933044434e-02) (492, 1.48047988490906140546e-01) (493, 1.18554909566572677648e-01) (494, -3.96185066629445997721e-02) (495, 4.18439219791006886129e-02) (496, -4.91051756766451574787e-02) (497, -1.10109751434981605056e-02) (498, 6.98860841264344473389e-02) (499, 1.98292821360412201137e-02) (500, -1.46489641224058827346e-02) (501, 7.82926781760160811485e-02) (502, -1.21079746963865086951e-01) (503, -4.13331650892639762551e-02) (504, -8.15903366526121304192e-02) (505, -3.02865122491966232143e-02) (506, -3.02826075364445827798e-02) (507, -4.14633403539242315072e-02) (508, -4.54723986180608358287e-02) (509, 2.58859729409388165944e-02) (510, 5.19188350867599290872e-02) (511, 8.84707181747797499760e-02) (512, -7.76538252830505371094e-03) (513, 2.05500026419513287523e-01) (514, 8.36401962246613311924e-02) (515, 6.55070880603396826780e-02) (516, -1.90509571688472045814e-01) (517, 8.92659013419349472995e-02) (518, 2.59001503570448973757e-02) (519, -2.65597072098847815369e-02) (520, -9.78312933384548888416e-02) (521, -2.79738734361453314503e-02) (522, -8.04658641266718516194e-02) (523, 1.87189981566930202517e-02) (524, -7.29265219918275031663e-02) (525, 7.32430232899495131660e-02) (526, -2.06743813927406788755e-01) (527, 9.20979692044432834974e-02) (528, 1.28033123038160584484e-01) (529, -2.24393517674516332350e-02) (530, 1.00540406450270874972e-01) (531, 6.03920315854751602047e-02) (532, -1.11276748374256301277e-01) (533, -8.96251127123832702637e-02) (534, -1.37649846935858521935e-01) (535, 3.63713362775024209861e-02) (536, -6.30479711009927501486e-02) (537, 6.74919447353675427959e-02) (538, 1.10318577507505996560e-01) (539, -1.73442284187970391374e-01) (540, 2.52162101152405664084e-02) (541, 2.28773191868405251226e-01) (542, 8.71112474111724321979e-02) (543, -8.51410764592026303443e-02) (544, 2.73767905252222595869e-02) (545, 8.66671292333159176691e-02) (546, 1.20899001651531261964e-02) (547, 8.94841000303896461077e-02) (548, -1.66837856570915994692e-02) (549, -2.01462275005760860225e-01) (550, -1.51347142292864500490e-01) (551, 8.94263417000717847349e-02) (552, 2.27731285856398818490e-01) (553, -1.89745921365067626851e-01) (554, 1.98300033807754516602e-02) (555, 7.95049276344179101095e-02) (556, 5.41573081474807302427e-02) (557, 8.27964291431179805203e-02) (558, -2.91514041717854631430e-02) (559, 2.44256789719651368209e-01) (560, -1.09406514171246874167e-01) (561, -9.28393204887020678795e-02) (562, 1.05417809069841550418e-02) (563, 4.78657061229761787713e-02) (564, -1.33085223433662636072e-01) (565, -8.70242860290810771318e-02) (566, 2.62071320532713744611e-03) (567, 1.22286225235687689983e-01) (568, 3.36128537649715147806e-02) (569, -2.81058450723655622872e-02) (570, 1.13742678375622074949e-01) (571, 4.45526847030914135983e-02) (572, -7.86978996920107420898e-02) (573, -4.82162069249232744239e-02) (574, -3.83356706335496177918e-02) (575, 6.24202564358711242676e-02) (576, 1.07697809066991060517e-02) (577, -4.01053304591727707851e-02) (578, -5.45142476941830045334e-02) (579, -1.97557032467609999804e-01) (580, 6.13393019854549803593e-02) (581, 9.49288523229332714681e-02) (582, -7.24535729060831468207e-02) (583, 5.23508257689472775165e-02) (584, -2.94087194277916491592e-02) (585, 1.99632478644153586733e-02) (586, -1.13893315767195292716e-03) (587, 1.35358908537744331707e-02) (588, -2.18429783715725668591e-02) (589, -1.72973073837667690178e-01) (590, 5.59116923331976489742e-02) (591, 1.29915810305406137504e-01) (592, 5.48220151892230694868e-02) (593, -1.18593923083488275716e-01) (594, -5.81911746712462860098e-02) (595, 1.45820662936522339043e-02) (596, -7.23979175090789794922e-02) (597, 5.11993917252339461599e-02) (598, 1.12270090103875286314e-01) (599, 7.14559891847543621202e-02) (600, -1.21435353183284300282e-02) (601, 1.56971011011886069086e-01) (602, 3.17260326112474635996e-02) (603, -3.55766478176207934236e-02) (604, -9.36381567282072307945e-02) (605, 4.12786921802443459995e-02) (606, -4.67019850859784896313e-02) (607, -4.00467585074186643856e-02) (608, -1.22178572815937608320e-01) (609, 1.05575986229477267186e-01) (610, -2.84253936167106618926e-02) (611, -3.90747975424149823764e-02) (612, -5.69976939799765602856e-04) (613, -8.72026091150865934054e-02) (614, -2.27800885504105266044e-02) (615, -6.90227156903766986273e-02) (616, 8.16781708105804721276e-02) (617, 8.10926140795629607494e-02) (618, 1.17684390208635442088e-01) (619, -1.17881340367042120043e-01) (620, 6.65668659886263641701e-02) (621, 4.37025224390440239497e-02) (622, -2.61994656546312765233e-01) (623, 9.28013589167496211196e-02) (624, 4.64636769293645876533e-02) (625, -2.39560625138364902131e-01) (626, 2.36214029916324647074e-01) (627, 1.01222619131194804809e-01) (628, -9.62872260905028032330e-02) (629, 2.41893916075630127649e-01) (630, -1.49498529490390986291e-02) (631, -2.87832882973360661139e-02) (632, 1.31594919140946592373e-01) (633, 8.63631877222388599780e-02) (634, -2.63463513397417414819e-01) (635, 1.56067109135909265483e-01) (636, 8.90662803451454376802e-02) (637, -2.24723090012357462619e-01) (638, 3.19335790447915268686e-01) (639, 2.71185160554512430520e-02) (640, -1.52346524604569585892e-02) (641, 1.79502882965462545739e-02) (642, -2.03982613231797199616e-02) (643, 1.66301722771674195811e-02) (644, 7.97805022012146314303e-02) (645, -7.72717589121901526905e-02) (646, -2.00443116339478727417e-01) (647, -4.81418615309447614492e-02) (648, -5.04995736610200848804e-02) (649, 5.63931499138479869204e-02) (650, 4.39492131114162729033e-02) (651, -1.07444608544478806267e-01) (652, 4.65210896623210398704e-02) (653, 6.63720252088333129148e-02) (654, -5.95786029015982071533e-02) (655, -1.27825123306436638781e-01) (656, -8.73639745746643964219e-02) (657, 1.08941217314792906934e-01) (658, 4.11388896132033402009e-02) (659, -8.71010074993099590868e-03) (660, -2.45831257610176663608e-02) (661, 8.48434008815229928624e-02) (662, -1.15342672079714422817e-01) (663, -7.89982211906524456335e-02) (664, 7.10808010124789994844e-03) (665, 1.00005045076781984292e-01) (666, 8.49303752136882598046e-05) (667, -6.17564475773367468903e-02) (668, 6.43583390351090828263e-02) (669, -2.20280435467866304855e-02) (670, -1.22595499175685879178e-01) (671, 6.77870424993384235179e-02) (672, -7.46337228113484185688e-02) (673, -1.51685802972976568892e-01) (674, -5.37577687451735591884e-02) (675, 3.54386649563769419793e-03) (676, 2.29060857212831855967e-02) (677, 1.16780013503446425394e-01) (678, -2.55489783686436489063e-01) (679, 2.76870486283139309591e-02) (680, -6.74669527902199261254e-03) (681, 2.20187882149681345145e-02) (682, 3.10571533018582542074e-02) (683, -2.05911329071379739508e-02) (684, -2.31329100680256784239e-02) (685, -2.49242331168413669418e-02) (686, 5.31686095451019136160e-02) (687, 3.46296966773955230967e-02) (688, 1.38460591021550311064e-01) (689, 1.42900940898811446012e-01) (690, 4.13925166985014275634e-02) (691, -2.55777202593210351012e-01) (692, 2.98580154785280729723e-02) (693, 5.40648619735143651233e-02) (694, 7.84451044833427320324e-03) (695, 5.23508079345565008333e-02) (696, -1.22305392574446239462e-01) (697, 1.24232814227654888434e-02) (698, 2.78395571150478693401e-01) (699, -3.08513152356318619274e-02) (700, -3.52339864217623491283e-02) (701, 2.64998980805425457530e-02) (702, -5.50994211180286866392e-02) (703, 2.38142711179936517052e-01) (704, -6.05230898433265426806e-02) (705, -1.67688496451783908281e-01) (706, 8.73392837483317335812e-02) (707, -5.31835979658373189660e-02) (708, -4.43464342349370252427e-02) (709, 9.17222994222110510343e-02) (710, -2.15609832458697574242e-02) (711, -1.80009401398055157717e-01) (712, 2.13642149160515493200e-01) (713, -7.45943346723481823246e-03) (714, -1.11771687165284544507e-01) (715, -8.33045492891612039676e-03) (716, 3.36950783648350127297e-02) (717, 3.67629689943562085186e-02) (718, 5.51412378153300214434e-02) (719, -7.40666574543206446268e-02) (720, -2.55739427544095648814e-02) (721, 3.84095331991865379662e-02) (722, 3.05171296378662533499e-02) (723, 2.08613610169809837735e-01) (724, -1.85287238707154376660e-02) (725, 4.58466687132752459544e-01) (726, 5.63698812277691335693e-02) (727, 1.10869299968252343902e+00) (728, -2.69399952494386529800e-01) (729, 1.85365614228086894588e-01) (730, 1.63449126364430714908e-02) (731, 1.07249164369197208524e-01) (732, 5.08161286380140117536e-02) (733, -6.12787210824466688219e-02) (734, 1.07362512858508521441e-01) (735, 1.02101325023175495965e-01) (736, -6.47633441197962150815e-02) (737, 6.30198364500129809551e-02) (738, -1.19560921831024263851e-01) (739, 5.76625283822715037352e-02) (740, -3.57404943331683586094e-02) (741, 6.72351743403544865885e-01) (742, 1.76527511264035846805e-01) (743, -6.35564020210352409457e-02) (744, 1.44890213375246240668e-01) (745, -3.45022191293744631690e-02) (746, 1.04702538659249899666e+00) (747, -1.69834506079888265806e-02) (748, -2.22808404721992509012e-01) (749, 2.71771060375743667148e-01) (750, -6.54221928198229552009e-01) (751, 3.23848915534418635431e-01) (752, 4.12756683389792211614e-02) (753, -3.49137994251702693527e-02) (754, 1.15129055639663635535e-01) (755, -3.26072469592030511620e-01) (756, -9.89120550432453643497e-02) (757, 1.18957825483216955709e-01) (758, 1.25403958692961559063e-01) (759, -1.92030171619753414758e-01) (760, -2.26936276484917570651e-01) (761, -2.45318811072045735167e-02) (762, -4.11734453188660268208e-03) (763, -9.49902575488126982295e-02) (764, 1.09881586921206045315e-01) (765, 2.48921841862990295136e-01) (766, -1.81100422188440468574e-01) (767, -2.11653376262881887104e-01) (768, 1.21097178223390014584e-01) (769, 7.23014001235747216789e-02) (770, -1.51612662077161064467e-01) (771, -2.43005901575088500977e-02) (772, 6.60822823810133519462e-02) (773, 1.46343838771645473606e-01) (774, 4.06102250222710320360e-02) (775, 4.48189395812473301284e-02) (776, -1.84110766703358408325e-02) (777, 1.46222176247409359207e-02) (778, -8.43095948416378582202e-02) (779, 3.53328303946474422959e-02) (780, -6.83574389688138134291e-02) (781, 7.24188938305880824942e-02) (782, -3.40283373957209894778e-02) (783, -1.74304820594131798517e-01) (784, -1.14374959587356609531e-02) (785, 9.76978332800893141397e-03) (786, -2.82295545195921961101e-02) (787, 2.83563359173649200129e-02) (788, 1.57574507605307001512e-01) (789, -2.99608762814475466929e-02) (790, 1.51155758343154450474e-01) (791, 5.51767239504879769552e-02) (792, -9.81011456279660271074e-03) (793, 1.44948479196054958590e-02) (794, 3.04900547787911146980e-01) (795, -1.08396018313770575725e-01) (796, -1.07408944779605039499e-01) (797, 1.06408965382538106548e-01) (798, 9.24553082915418461551e-03) (799, 3.86644394958039344656e-02) (800, 6.97966931163892384538e-02) (801, -1.31754622020452995257e-02) (802, -4.79211711025467803488e-03) (803, -3.65502119769887945377e-02) (804, 7.51060927199335981452e-02) (805, -3.28227293413750342843e-02) (806, -9.99210057036643145567e-02) (807, 1.80802313082087731666e-02) (808, -2.85329969638817857250e-03) (809, -1.85953089940729898721e-01) (810, 3.65758849170156163932e-01) (811, -1.89205540812612607593e-02) (812, 3.76845752924270388506e-02) (813, 1.07942181540250682625e-02) (814, 1.76053670116516597366e-01) (815, -2.23200546905256563823e-02) (816, 2.51138242792317389895e-01) (817, -3.07149764295711197315e-02) (818, 1.40857697097640788275e-01) (819, 1.58352084074297544403e-01) (820, 2.51859784867207503467e-01) (821, -6.36211053899462947170e-02) (822, 1.86455496903553868959e-01) (823, 7.48686774707987279243e-02) (824, 1.83300866973900911105e-01) (825, 4.25475389968007558505e-02) (826, 1.24953522688760476633e-02) (827, -1.47340054754352717259e-01) (828, 9.66792628169059753418e-02) (829, -4.98074293136596679688e-03) (830, 9.41458764684200283268e-02) (0, 1.00884779059465079509e-01) (1, -5.49484223589261980281e-02) (2, 5.23477231018506933280e-02) (3, -1.18998243557984755697e-02) (4, 6.59622642236367684454e-02) (5, -8.67290344559691200876e-02) (6, 2.56587767933951806099e-02) (7, 2.38318001397135569019e-02) (8, 3.66476735358733443637e-02) (9, 9.70765231349205032219e-02) (10, 9.38220221431381416755e-03) (11, -5.51116003508685461942e-02) (12, -8.45871573272984345060e-02) (13, 4.26348388083926180259e-02) (14, 1.00579079161200526937e-01) (15, -8.19888237433570067625e-03) (16, -1.90453005202647317196e-02) (17, -3.76463587830701829073e-02) (18, -5.84541363078245890250e-02) (19, -9.56695009431220572127e-02) (20, -7.78919440827859910215e-02) (21, -3.64066873818736716495e-02) (22, 4.04054331317897849618e-02) (23, 5.09033689612034545569e-02) (24, -8.50103037844773257170e-02) (25, -6.55811790285502488329e-02) (26, 2.06128859007330723918e-02) (27, -7.34886378049850463867e-02) (28, -6.16836026310920715332e-02) (29, -1.07173822061170473385e-01) (30, 3.97707644150066680355e-02) (31, -4.47853590769306114661e-02) (32, -3.82282642585593523954e-02) (33, 2.02201229271977943325e-02) (34, 1.36876346232933498309e-02) (35, -4.46186014916578402301e-02) (36, 2.85063398094236412905e-02) (37, -3.38157752261964705820e-02) (38, 4.01834656754383387489e-02) (39, -2.67326330477524222451e-02) (40, -5.53820356726646423340e-02) (41, -3.46563082542729189450e-02) (42, -2.91997655830849682512e-02) (43, -3.28298105685223204353e-02) (44, -9.87856574725500813372e-02) (45, 1.20040457472468838074e-02) (46, 5.02400860815235758561e-02) (47, -2.57752889163244611193e-02) (48, 1.03600032080866003015e-01) (49, -5.53723050680457185013e-02) (50, 1.10902685529667994341e-02) (51, -8.77233239198001307768e-02) (52, -3.43021360225684648904e-02) (53, -8.82620897256221892402e-02) (54, 4.31847194402914941191e-02) (55, -2.15136019115308926852e-02) (56, -3.36565619712226316018e-02) (57, -2.08861557971254906130e-02) (58, 1.73766781723369903839e-04) (59, 2.34392776581599171981e-04) (60, -1.11718881415983177507e-02) (61, 1.12687356604599330477e-03) (62, 4.13394280070233238744e-02) (63, 5.70965187907033142056e-02) (64, -8.49336877598341477569e-02) (65, -4.13832148182778636336e-02) (66, 7.79356077384297935007e-02) (67, 6.29038263870732167193e-02) (68, 7.77743138183204212738e-03) (69, 4.03323218557432444653e-02) (70, -7.38056828198151299025e-02) (71, 6.36266865138649939659e-02) (72, -1.13642783806343100617e-01) (73, 4.64648611313761492059e-02) (74, -1.01610739501403798957e-01) (75, -1.07472598620679038461e-01) (76, -3.66883437006520971013e-02) (77, 7.66692001921664839648e-02) (78, -2.90132427686120124288e-02) (79, -5.06396506846498936638e-02) (80, 1.04426475559039749763e-01) (81, 1.02066975504523191343e-01) (82, -4.77229186282116871198e-02) (83, -4.26230448138437481576e-02) (84, -9.57390026922187997727e-02) (85, -8.13616549388926635356e-02) (86, 4.05164941084955113060e-02) (87, -1.04682696475912814793e-02) (88, 3.57659070255111725956e-03) (89, -2.49172432650495399853e-02) (90, 9.89872908601647782945e-02) (91, -9.32765967055375205819e-02) (92, 6.09794598320559794180e-02) (93, 3.76642603095051139994e-02) (94, 6.04624781995578564064e-02) (95, 7.64337382081818894619e-02) (96, -9.63495217977294315936e-02) (97, 4.88376092465807529197e-02) (98, 1.58023778804894272920e-02) (99, 1.78928252259837362870e-02) (100, -3.54140334627398630646e-03) (101, 6.95572547445614808304e-02) (102, -1.98847058853352416652e-02) (103, -1.77525536889295947052e-02) (104, 1.86089488502040600881e-02) (105, -5.45440999930085074210e-03) (106, -1.34568821337665636695e-02) (107, -1.02821833441034835022e-01) (108, -1.54478073646921679890e-02) (109, 8.61236246413917411191e-02) (110, -3.96016313273376413528e-02) (111, -6.03975956032716965877e-03) (112, 8.29393080403725141414e-02) (113, 5.54593488361859315861e-02) (114, 4.02127469497769660101e-02) (115, -1.00800438214377216517e-01) (116, 8.24700585159442028926e-02) (117, 1.71413608532443202670e-02) (118, -1.31708715232419643071e-02) (119, -2.14031790314311715084e-02) (120, 6.80098382176728549764e-02) (121, -1.03957401074599685431e-02) (122, 1.12499766408838131060e-02) (123, 3.54679055298097248294e-02) (124, -9.14136996899451853560e-02) (125, -5.80619555903215123216e-02) (126, 1.26861752181656843586e-02) (127, -5.64910106735247857790e-02) (128, 8.71569282877768664042e-02) (129, -5.67034422420911315976e-02) (130, 6.05162189924814547526e-02) (131, -1.99837025616786262416e-02) (132, -7.53892443702426223728e-02) (133, -6.39596349476952985569e-02) (134, 5.60678919845030571123e-02) (135, 4.88902498028349410952e-02) (136, 4.66621752051467469924e-02) (137, -4.21880618708803598049e-02) (138, 4.80840596229771405357e-02) (139, -5.39217511546977723569e-02) (140, -5.81050038395471354913e-02) (141, -6.79003835676995626258e-02) (142, 1.41398140545505660026e-02) (143, -7.99236058447206770827e-02) (144, 5.78491758617193096992e-02) (145, -5.59194442025634438909e-02) (146, -7.31003715514796093000e-02) (147, 1.29060170041736498037e-02) (148, 3.88912644114315711463e-02) (149, 2.10460646525221055370e-02) (150, -8.71106230386901048135e-02) (151, 5.75392976292663123339e-03) (152, -9.60225887841062997197e-02) (153, -2.67947319805782249724e-02) (154, -5.82213832324499289128e-02) (155, -7.45282026299276256776e-02) (156, 1.58575888686075423817e-02) (157, 7.46589568162065314594e-02) (158, -5.03250205771200997962e-02) (159, -1.36401228632568294850e-03) (160, -4.05247480448098704175e-02) (161, -4.77524937210412545041e-02) (162, 8.95261214255512471905e-02) (163, -2.90781009265390806562e-02) (164, -3.99503611342425929420e-02) (165, 4.12340827275212151726e-02) (166, -7.45283024644004116199e-02) (167, -7.45040060443792756528e-02) (168, 1.01145912556599534837e-01) (169, 7.05724670509227797188e-02) (170, -2.64810634622715951325e-02) (171, -4.82774846454506537108e-02) (172, 9.43221630724085380315e-02) (173, 7.11611883758900831687e-02) (174, -2.39585462729354180256e-02) (175, 4.39862375440095987322e-02) (176, -7.15778634805505215022e-02) (177, 6.92125927760963832042e-03) (178, -2.34302166728034520771e-02) (179, 7.21182803425371027339e-02) (180, -5.65675786474483938138e-02) (181, 9.89080163702390005587e-04) (182, -1.36946206283108853213e-02) (183, -5.43140911535798798226e-02) (184, 7.55879862131181856633e-02) (185, 3.69266464040808248259e-02) (186, -2.70757399068824559929e-02) (187, -2.03700727662864487094e-03) (188, 3.37218584704725640733e-02) (189, 5.35027313378210744865e-02) (190, -9.05476746076082500414e-02) (191, 7.39766375006941645509e-02) (192, 7.97984952032776417852e-02) (193, 9.90938567282709653616e-02) (194, -5.68302811554496078994e-02) (195, -4.63657022992174303044e-02) (196, 3.60949286326721699436e-02) (197, -2.47204592533944826627e-02) (198, -3.41286912876106879322e-02) (199, 3.84613345114268798119e-02) (200, -4.35658253300347866888e-02) (201, 2.96656710845603667492e-02) (202, 7.96653055557073330739e-02) (203, -3.04384926568859078000e-02) (204, 1.09919282934863929424e-02) (205, -3.61696394324092299066e-02) (206, -8.94839627098177048392e-02) (207, 3.23188609275221402917e-02) (208, 7.56656733357937011375e-02) (209, -7.26895008159392577718e-03) (210, 4.95986604602048370555e-03) (211, -8.55005815006990993465e-02) (212, 7.41812918508502061599e-02) (213, 9.94363902382973674499e-02) (214, -4.47619860892941173747e-02) (215, 3.76664197429689498464e-02) (216, 4.99670388113856375756e-02) (217, 5.00756108679882502854e-02) (218, -6.60277881065220867418e-02) (219, -3.09796105636650463688e-02) (220, 1.34465860468243065401e-02) (221, -4.19895380568803128218e-02) (222, -5.62540198798862287055e-02) (223, -7.93982118092669691967e-03) (224, -5.57126692650190130651e-02) (225, -3.83442137938168857436e-03) (226, 3.10033558222636146384e-02) (227, 9.30592630058160313888e-02) (228, 7.48472719692137161696e-02) (229, -9.18851080404647219124e-02) (230, 3.59359067942049623112e-02) (231, -7.18552518169344872634e-02) (232, 5.12165062870232196124e-02) (233, 1.16667329038910271011e-02) (234, -2.41121940149919902763e-02) (235, -4.81003700081677892930e-02) (236, 8.05175784935740629367e-02) (237, -6.08223783183726302015e-03) (238, 9.38546871824391115702e-02) (239, 5.54785572241347155198e-02) (240, 7.90081512625876725142e-02) (241, 8.12840921137434301025e-03) (242, 6.35839215858022138717e-02) (243, 5.54148545723432209287e-02) (244, -5.48392650191023740824e-03) (245, -6.95123632567768989787e-02) (246, -3.27364494461101747727e-03) (247, -5.17355065311038211928e-02) (248, 8.55765385425125563179e-02) (249, 3.16011967991866593586e-02) (250, 1.86658319548677412159e-02) (251, -1.53357147397097299570e-03) (252, 7.91655017291355567188e-02) (253, 7.21856614490964387798e-02) (254, 6.71962115971464352127e-02) (255, -6.78200084116696022551e-02) (256, -3.04659300151096205933e-02) (257, 4.91127216412623988917e-03) (258, -7.30790499992363118409e-02) (259, -6.54119876946075845536e-02) (260, 2.58855153946774378670e-02) (261, 5.06841493353527086652e-02) (262, -3.97140993972774775100e-02) (263, -2.31554408177506339250e-02) (264, -3.33709072756145155858e-02) (265, 5.32703657188585838478e-02) (266, 3.24343733139596801518e-02) (267, -6.35362661496966518726e-02) (268, -5.54322229067534741342e-02) (269, 1.69271183652797488350e-02) (270, 9.54740264884598455186e-02) (271, -8.11592850611905503033e-02) (272, -7.70694172379454145450e-02) (273, 6.30956991153641399972e-02) (274, 6.63686368041213753388e-02) (275, 2.18291515563169176428e-02) (276, 9.88003482123513548929e-02) (277, -3.82303432236008530754e-02) (278, 7.16456482518299936357e-02) (279, 8.03298483068459467926e-02) (280, -9.17416293166070928589e-02) (281, -7.38556968938775936645e-03) (282, -3.11299408465397220436e-02) (283, 9.11402651023335425018e-02) (284, -3.44208599676967541559e-02) (285, -5.29339623848196078049e-02) (286, -7.81589825913833746718e-02) (287, 2.64570580525488145696e-02) (288, 5.70744020762614448494e-02) (289, -5.16139877199423210974e-02) (290, 7.14119393888130726822e-02) (291, -6.95655922553962014626e-03) (292, 9.88626386887530433922e-02) (293, -6.81243289256300704748e-02) (294, 6.43109626997559191697e-02) (295, -4.52092583729220287569e-02) (296, 8.14019294562224465794e-02) (297, -1.43370537698866828275e-02) (298, -1.54095197421249170688e-02) (299, -7.50015681589070171142e-02) (300, -7.51104772540029524963e-02) (301, -1.30030685009641412686e-02) (302, -5.70094067952854263726e-02) (303, -5.21577079032261720082e-02) (304, -5.15260339135226314022e-02) (305, -8.05383155216315704816e-02) (306, 6.07479505361665159113e-02) (307, -5.83422124264018210349e-02) (308, -2.57496738911425129132e-03) (309, 2.51541177053393530394e-02) (310, -6.40280663519457587940e-02) (311, -7.09420229904519569764e-03) (312, -8.40682855987431032485e-02) (313, -2.22259735596684599021e-04) (314, -1.63137458550651412437e-02) (315, -2.71752079059507899161e-02) (316, 4.30055764901814893686e-02) (317, 4.29824704370776120022e-03) (318, -9.65677003260945604479e-02) (319, 1.14817937091840540503e-02) (320, 5.96413371455646948438e-02) (321, 7.91755877178570710573e-02) (322, 9.50749493222304703499e-02) (323, 4.94114695768491304917e-02) (324, -8.42566698165481964278e-02) (325, 5.40571823166031140140e-02) (326, -9.58893092209917308200e-02) (327, 9.70253987946867180181e-02) (328, -4.04977665348248971888e-02) (329, 2.11942062565711412253e-03) (330, -8.06479868500990515479e-02) (331, -2.83691421463880023845e-02) (332, 7.53655682129732718000e-02) (333, -5.84986784358616646040e-02) (334, -3.27783393610874039872e-03) (335, -6.47383910876976331750e-02) (336, -1.66575218860458909576e-02) (337, -2.00550100519393884047e-02) (338, 