FANN_FLO_2.1
num_layers=3
learning_rate=0.010000
connection_rate=1.000000
network_type=0
learning_momentum=0.300000
training_algorithm=0
train_error_function=0
train_stop_function=0
cascade_output_change_fraction=0.010000
quickprop_decay=-0.000100
quickprop_mu=1.750000
rprop_increase_factor=1.200000
rprop_decrease_factor=0.500000
rprop_delta_min=0.000000
rprop_delta_max=50.000000
rprop_delta_zero=0.100000
cascade_output_stagnation_epochs=12
cascade_candidate_change_fraction=0.010000
cascade_candidate_stagnation_epochs=12
cascade_max_out_epochs=150
cascade_max_cand_epochs=150
cascade_num_candidate_groups=2
bit_fail_limit=3.49999999999999977796e-01
cascade_candidate_limit=1.00000000000000000000e+03
cascade_weight_multiplier=4.00000000000000022204e-01
cascade_activation_functions_count=10
cascade_activation_functions=3 5 7 8 10 11 14 15 16 17 
cascade_activation_steepnesses_count=4
cascade_activation_steepnesses=2.50000000000000000000e-01 5.00000000000000000000e-01 7.50000000000000000000e-01 1.00000000000000000000e+00 
layer_sizes=741 51 3 
scale_included=0
neurons (num_inputs, activation_function, activation_steepness)=(0, 0, 0.00000000000000000000e+00) (0, 0, 0.00000000000000000000e+00) (0, 0, 0.00000000000000000000e+00) (0, 0, 0.00000000000000000000e+00) (0, 0, 0.00000000000000000000e+00) (0, 0, 0.00000000000000000000e+00) (0, 0, 0.00000000000000000000e+00) (0, 0, 0.00000000000000000000e+00) (0, 0, 0.00000000000000000000e+00) (0, 0, 0.00000000000000000000e+00) (0, 0, 0.00000000000000000000e+00) (0, 0, 0.00000000000000000000e+00) (0, 0, 0.00000000000000000000e+00) (0, 0, 0.00000000000000000000e+00) (0, 0, 0.00000000000000000000e+00) (0, 0, 0.00000000000000000000e+00) (0, 0, 0.00000000000000000000e+00) (0, 0, 0.00000000000000000000e+00) (0, 0, 0.00000000000000000000e+00) (0, 0, 0.00000000000000000000e+00) (0, 0, 0.00000000000000000000e+00) (0, 0, 0.00000000000000000000e+00) (0, 0, 0.00000000000000000000e+00) (0, 0, 0.00000000000000000000e+00) (0, 0, 0.00000000000000000000e+00) (0, 0, 0.00000000000000000000e+00) (0, 0, 0.00000000000000000000e+00) (0, 0, 0.00000000000000000000e+00) (0, 0, 0.00000000000000000000e+00) (0, 0, 0.00000000000000000000e+00) (0, 0, 0.00000000000000000000e+00) (0, 0, 0.00000000000000000000e+00) (0, 0, 0.00000000000000000000e+00) (0, 0, 0.00000000000000000000e+00) (0, 0, 0.00000000000000000000e+00) (0, 0, 0.00000000000000000000e+00) (0, 0, 0.00000000000000000000e+00) (0, 0, 0.00000000000000000000e+00) (0, 0, 0.00000000000000000000e+00) (0, 0, 0.00000000000000000000e+00) (0, 0, 0.00000000000000000000e+00) (0, 0, 0.00000000000000000000e+00) (0, 0, 0.00000000000000000000e+00) (0, 0, 0.00000000000000000000e+00) (0, 0, 0.00000000000000000000e+00) (0, 0, 0.00000000000000000000e+00) (0, 0, 0.00000000000000000000e+00) (0, 0, 0.00000000000000000000e+00) (0, 0, 0.00000000000000000000e+00) (0, 0, 0.00000000000000000000e+00) (0, 0, 0.00000000000000000000e+00) (0, 0, 0.00000000000000000000e+00) (0, 0, 0.00000000000000000000e+00) (0, 0, 0.00000000000000000000e+00) (0, 0, 0.00000000000000000000e+00) (0, 0, 0.00000000000000000000e+00) (0, 0, 0.00000000000000000000e+00) (0, 0, 0.00000000000000000000e+00) (0, 0, 0.00000000000000000000e+00) (0, 0, 0.00000000000000000000e+00) (0, 0, 0.00000000000000000000e+00) (0, 0, 0.00000000000000000000e+00) (0, 0, 0.00000000000000000000e+00) (0, 0, 0.00000000000000000000e+00) (0, 0, 0.00000000000000000000e+00) (0, 0, 0.00000000000000000000e+00) (0, 0, 0.00000000000000000000e+00) (0, 0, 0.00000000000000000000e+00) (0, 0, 0.00000000000000000000e+00) (0, 0, 0.00000000000000000000e+00) (0, 0, 0.00000000000000000000e+00) (0, 0, 0.00000000000000000000e+00) (0, 0, 0.00000000000000000000e+00) (0, 0, 0.00000000000000000000e+00) (0, 0, 0.00000000000000000000e+00) (0, 0, 0.00000000000000000000e+00) (0, 0, 0.00000000000000000000e+00) (0, 0, 0.00000000000000000000e+00) (0, 0, 0.00000000000000000000e+00) (0, 0, 0.00000000000000000000e+00) (0, 0, 0.00000000000000000000e+00) (0, 0, 0.00000000000000000000e+00) (0, 0, 0.00000000000000000000e+00) (0, 0, 0.00000000000000000000e+00) (0, 0, 0.00000000000000000000e+00) (0, 0, 0.00000000000000000000e+00) (0, 0, 0.00000000000000000000e+00) (0, 0, 0.00000000000000000000e+00) (0, 0, 0.00000000000000000000e+00) (0, 0, 0.00000000000000000000e+00) (0, 0, 0.00000000000000000000e+00) (0, 0, 0.00000000000000000000e+00) (0, 0, 0.00000000000000000000e+00) (0, 0, 0.00000000000000000000e+00) (0, 0, 0.00000000000000000000e+00) (0, 0, 0.00000000000000000000e+00) (0, 0, 0.00000000000000000000e+00) (0, 0, 0.00000000000000000000e+00) (0, 0, 0.00000000000000000000e+00) (0, 0, 0.00000000000000000000e+00) (0, 0, 0.00000000000000000000e+00) (0, 0, 0.00000000000000000000e+00) (0, 0, 0.00000000000000000000e+00) (0, 0, 0.00000000000000000000e+00) (0, 0, 0.00000000000000000000e+00) (0, 0, 0.00000000000000000000e+00) (0, 0, 0.00000000000000000000e+00) (0, 0, 0.00000000000000000000e+00) (0, 0, 0.00000000000000000000e+00) (0, 0, 0.00000000000000000000e+00) (0, 0, 0.00000000000000000000e+00) (0, 0, 0.00000000000000000000e+00) (0, 0, 0.00000000000000000000e+00) (0, 0, 0.00000000000000000000e+00) (0, 0, 0.00000000000000000000e+00) (0, 0, 0.00000000000000000000e+00) (0, 0, 0.00000000000000000000e+00) (0, 0, 0.00000000000000000000e+00) (0, 0, 0.00000000000000000000e+00) (0, 0, 0.00000000000000000000e+00) (0, 0, 0.00000000000000000000e+00) (0, 0, 0.00000000000000000000e+00) (0, 0, 0.00000000000000000000e+00) (0, 0, 0.00000000000000000000e+00) (0, 0, 0.00000000000000000000e+00) (0, 0, 0.00000000000000000000e+00) (0, 0, 0.00000000000000000000e+00) (0, 0, 0.00000000000000000000e+00) (0, 0, 0.00000000000000000000e+00) (0, 0, 0.00000000000000000000e+00) (0, 0, 0.00000000000000000000e+00) (0, 0, 0.00000000000000000000e+00) (0, 0, 0.00000000000000000000e+00) (0, 0, 0.00000000000000000000e+00) (0, 0, 0.00000000000000000000e+00) (0, 0, 0.00000000000000000000e+00) (0, 0, 0.00000000000000000000e+00) (0, 0, 0.00000000000000000000e+00) (0, 0, 0.00000000000000000000e+00) (0, 0, 0.00000000000000000000e+00) (0, 0, 0.00000000000000000000e+00) (0, 0, 0.00000000000000000000e+00) (0, 0, 0.00000000000000000000e+00) (0, 0, 0.00000000000000000000e+00) (0, 0, 0.00000000000000000000e+00) (0, 0, 0.00000000000000000000e+00) (0, 0, 0.00000000000000000000e+00) (0, 0, 0.00000000000000000000e+00) (0, 0, 0.00000000000000000000e+00) (0, 0, 0.00000000000000000000e+00) (0, 0, 0.00000000000000000000e+00) (0, 0, 0.00000000000000000000e+00) (0, 0, 0.00000000000000000000e+00) (0, 0, 0.00000000000000000000e+00) (0, 0, 0.00000000000000000000e+00) (0, 0, 0.00000000000000000000e+00) (0, 0, 0.00000000000000000000e+00) (0, 0, 0.00000000000000000000e+00) (0, 0, 0.00000000000000000000e+00) (0, 0, 0.00000000000000000000e+00) (0, 0, 0.00000000000000000000e+00) (0, 0, 0.00000000000000000000e+00) (0, 0, 0.00000000000000000000e+00) (0, 0, 0.00000000000000000000e+00) (0, 0, 0.00000000000000000000e+00) (0, 0, 0.00000000000000000000e+00) (0, 0, 0.00000000000000000000e+00) (0, 0, 0.00000000000000000000e+00) (0, 0, 0.00000000000000000000e+00) (0, 0, 0.00000000000000000000e+00) (0, 0, 0.00000000000000000000e+00) (0, 0, 0.00000000000000000000e+00) (0, 0, 0.00000000000000000000e+00) (0, 0, 0.00000000000000000000e+00) (0, 0, 0.00000000000000000000e+00) (0, 0, 0.00000000000000000000e+00) (0, 0, 0.00000000000000000000e+00) (0, 0, 0.00000000000000000000e+00) (0, 0, 0.00000000000000000000e+00) (0, 0, 0.00000000000000000000e+00) (0, 0, 0.00000000000000000000e+00) (0, 0, 0.00000000000000000000e+00) (0, 0, 0.00000000000000000000e+00) (0, 0, 0.00000000000000000000e+00) (0, 0, 0.00000000000000000000e+00) (0, 0, 0.00000000000000000000e+00) (0, 0, 0.00000000000000000000e+00) (0, 0, 0.00000000000000000000e+00) (0, 0, 0.00000000000000000000e+00) (0, 0, 0.00000000000000000000e+00) (0, 0, 0.00000000000000000000e+00) (0, 0, 0.00000000000000000000e+00) (0, 0, 0.00000000000000000000e+00) (0, 0, 0.00000000000000000000e+00) (0, 0, 0.00000000000000000000e+00) (0, 0, 0.00000000000000000000e+00) (0, 0, 0.00000000000000000000e+00) (0, 0, 0.00000000000000000000e+00) (0, 0, 0.00000000000000000000e+00) (0, 0, 0.00000000000000000000e+00) (0, 0, 0.00000000000000000000e+00) (0, 0, 0.00000000000000000000e+00) (0, 0, 0.00000000000000000000e+00) (0, 0, 0.00000000000000000000e+00) (0, 0, 0.00000000000000000000e+00) (0, 0, 0.00000000000000000000e+00) (0, 0, 0.00000000000000000000e+00) (0, 0, 0.00000000000000000000e+00) (0, 0, 0.00000000000000000000e+00) (0, 0, 0.00000000000000000000e+00) (0, 0, 0.00000000000000000000e+00) (0, 0, 0.00000000000000000000e+00) (0, 0, 0.00000000000000000000e+00) (0, 0, 0.00000000000000000000e+00) (0, 0, 0.00000000000000000000e+00) (0, 0, 0.00000000000000000000e+00) (0, 0, 0.00000000000000000000e+00) (0, 0, 0.00000000000000000000e+00) (0, 0, 0.00000000000000000000e+00) (0, 0, 0.00000000000000000000e+00) (0, 0, 0.00000000000000000000e+00) (0, 0, 0.00000000000000000000e+00) (0, 0, 0.00000000000000000000e+00) (0, 0, 0.00000000000000000000e+00) (0, 0, 0.00000000000000000000e+00) (0, 0, 0.00000000000000000000e+00) (0, 0, 0.00000000000000000000e+00) (0, 0, 0.00000000000000000000e+00) (0, 0, 0.00000000000000000000e+00) (0, 0, 0.00000000000000000000e+00) (0, 0, 0.00000000000000000000e+00) (0, 0, 0.00000000000000000000e+00) (0, 0, 0.00000000000000000000e+00) (0, 0, 0.00000000000000000000e+00) (0, 0, 0.00000000000000000000e+00) (0, 0, 0.00000000000000000000e+00) (0, 0, 0.00000000000000000000e+00) (0, 0, 0.00000000000000000000e+00) (0, 0, 0.00000000000000000000e+00) (0, 0, 0.00000000000000000000e+00) (0, 0, 0.00000000000000000000e+00) (0, 0, 0.00000000000000000000e+00) (0, 0, 0.00000000000000000000e+00) (0, 0, 0.00000000000000000000e+00) (0, 0, 0.00000000000000000000e+00) (0, 0, 0.00000000000000000000e+00) (0, 0, 0.00000000000000000000e+00) (0, 0, 0.00000000000000000000e+00) (0, 0, 0.00000000000000000000e+00) (0, 0, 0.00000000000000000000e+00) (0, 0, 0.00000000000000000000e+00) (0, 0, 0.00000000000000000000e+00) (0, 0, 0.00000000000000000000e+00) (0, 0, 0.00000000000000000000e+00) (0, 0, 0.00000000000000000000e+00) (0, 0, 0.00000000000000000000e+00) (0, 0, 0.00000000000000000000e+00) (0, 0, 0.00000000000000000000e+00) (0, 0, 0.00000000000000000000e+00) (0, 0, 0.00000000000000000000e+00) (0, 0, 0.00000000000000000000e+00) (0, 0, 0.00000000000000000000e+00) (0, 0, 0.00000000000000000000e+00) (0, 0, 0.00000000000000000000e+00) (0, 0, 0.00000000000000000000e+00) (0, 0, 0.00000000000000000000e+00) (0, 0, 0.00000000000000000000e+00) (0, 0, 0.00000000000000000000e+00) (0, 0, 0.00000000000000000000e+00) (0, 0, 0.00000000000000000000e+00) (0, 0, 0.00000000000000000000e+00) (0, 0, 0.00000000000000000000e+00) (0, 0, 0.00000000000000000000e+00) (0, 0, 0.00000000000000000000e+00) (0, 0, 0.00000000000000000000e+00) (0, 0, 0.00000000000000000000e+00) (0, 0, 0.00000000000000000000e+00) (0, 0, 0.00000000000000000000e+00) (0, 0, 0.00000000000000000000e+00) (0, 0, 0.00000000000000000000e+00) (0, 0, 0.00000000000000000000e+00) (0, 0, 0.00000000000000000000e+00) (0, 0, 0.00000000000000000000e+00) (0, 0, 0.00000000000000000000e+00) (0, 0, 0.00000000000000000000e+00) (0, 0, 0.00000000000000000000e+00) (0, 0, 0.00000000000000000000e+00) (0, 0, 0.00000000000000000000e+00) (0, 0, 0.00000000000000000000e+00) (0, 0, 0.00000000000000000000e+00) (0, 0, 0.00000000000000000000e+00) (0, 0, 0.00000000000000000000e+00) (0, 0, 0.00000000000000000000e+00) (0, 0, 0.00000000000000000000e+00) (0, 0, 0.00000000000000000000e+00) (0, 0, 0.00000000000000000000e+00) (0, 0, 0.00000000000000000000e+00) (0, 0, 0.00000000000000000000e+00) (0, 0, 0.00000000000000000000e+00) (0, 0, 0.00000000000000000000e+00) (0, 0, 0.00000000000000000000e+00) (0, 0, 0.00000000000000000000e+00) (0, 0, 0.00000000000000000000e+00) (0, 0, 0.00000000000000000000e+00) (0, 0, 0.00000000000000000000e+00) (0, 0, 0.00000000000000000000e+00) (0, 0, 0.00000000000000000000e+00) (0, 0, 0.00000000000000000000e+00) (0, 0, 0.00000000000000000000e+00) (0, 0, 0.00000000000000000000e+00) (0, 0, 0.00000000000000000000e+00) (0, 0, 0.00000000000000000000e+00) (0, 0, 0.00000000000000000000e+00) (0, 0, 0.00000000000000000000e+00) (0, 0, 0.00000000000000000000e+00) (0, 0, 0.00000000000000000000e+00) (0, 0, 0.00000000000000000000e+00) (0, 0, 0.00000000000000000000e+00) (0, 0, 0.00000000000000000000e+00) (0, 0, 0.00000000000000000000e+00) (0, 0, 0.00000000000000000000e+00) (0, 0, 0.00000000000000000000e+00) (0, 0, 0.00000000000000000000e+00) (0, 0, 0.00000000000000000000e+00) (0, 0, 0.00000000000000000000e+00) (0, 0, 0.00000000000000000000e+00) (0, 0, 0.00000000000000000000e+00) (0, 0, 0.00000000000000000000e+00) (0, 0, 0.00000000000000000000e+00) (0, 0, 0.00000000000000000000e+00) (0, 0, 0.00000000000000000000e+00) (0, 0, 0.00000000000000000000e+00) (0, 0, 0.00000000000000000000e+00) (0, 0, 0.00000000000000000000e+00) (0, 0, 0.00000000000000000000e+00) (0, 0, 0.00000000000000000000e+00) (0, 0, 0.00000000000000000000e+00) (0, 0, 0.00000000000000000000e+00) (0, 0, 0.00000000000000000000e+00) (0, 0, 0.00000000000000000000e+00) (0, 0, 0.00000000000000000000e+00) (0, 0, 0.00000000000000000000e+00) (0, 0, 0.00000000000000000000e+00) (0, 0, 0.00000000000000000000e+00) (0, 0, 0.00000000000000000000e+00) (0, 0, 0.00000000000000000000e+00) (0, 0, 0.00000000000000000000e+00) (0, 0, 0.00000000000000000000e+00) (0, 0, 0.00000000000000000000e+00) (0, 0, 0.00000000000000000000e+00) (0, 0, 0.00000000000000000000e+00) (0, 0, 0.00000000000000000000e+00) (0, 0, 0.00000000000000000000e+00) (0, 0, 0.00000000000000000000e+00) (0, 0, 0.00000000000000000000e+00) (0, 0, 0.00000000000000000000e+00) (0, 0, 0.00000000000000000000e+00) (0, 0, 0.00000000000000000000e+00) (0, 0, 0.00000000000000000000e+00) (0, 0, 0.00000000000000000000e+00) (0, 0, 0.00000000000000000000e+00) (0, 0, 0.00000000000000000000e+00) (0, 0, 0.00000000000000000000e+00) (0, 0, 0.00000000000000000000e+00) (0, 0, 0.00000000000000000000e+00) (0, 0, 0.00000000000000000000e+00) (0, 0, 0.00000000000000000000e+00) (0, 0, 0.00000000000000000000e+00) (0, 0, 0.00000000000000000000e+00) (0, 0, 0.00000000000000000000e+00) (0, 0, 0.00000000000000000000e+00) (0, 0, 0.00000000000000000000e+00) (0, 0, 0.00000000000000000000e+00) (0, 0, 0.00000000000000000000e+00) (0, 0, 0.00000000000000000000e+00) (0, 0, 0.00000000000000000000e+00) (0, 0, 0.00000000000000000000e+00) (0, 0, 0.00000000000000000000e+00) (0, 0, 0.00000000000000000000e+00) (0, 0, 0.00000000000000000000e+00) (0, 0, 0.00000000000000000000e+00) (0, 0, 0.00000000000000000000e+00) (0, 0, 0.00000000000000000000e+00) (0, 0, 0.00000000000000000000e+00) (0, 0, 0.00000000000000000000e+00) (0, 0, 0.00000000000000000000e+00) (0, 0, 0.00000000000000000000e+00) (0, 0, 0.00000000000000000000e+00) (0, 0, 0.00000000000000000000e+00) (0, 0, 0.00000000000000000000e+00) (0, 0, 0.00000000000000000000e+00) (0, 0, 0.00000000000000000000e+00) (0, 0, 0.00000000000000000000e+00) (0, 0, 0.00000000000000000000e+00) (0, 0, 0.00000000000000000000e+00) (0, 0, 0.00000000000000000000e+00) (0, 0, 0.00000000000000000000e+00) (0, 0, 0.00000000000000000000e+00) (0, 0, 0.00000000000000000000e+00) (0, 0, 0.00000000000000000000e+00) (0, 0, 0.00000000000000000000e+00) (0, 0, 0.00000000000000000000e+00) (0, 0, 0.00000000000000000000e+00) (0, 0, 0.00000000000000000000e+00) (0, 0, 0.00000000000000000000e+00) (0, 0, 0.00000000000000000000e+00) (0, 0, 0.00000000000000000000e+00) (0, 0, 0.00000000000000000000e+00) (0, 0, 0.00000000000000000000e+00) (0, 0, 0.00000000000000000000e+00) (0, 0, 0.00000000000000000000e+00) (0, 0, 0.00000000000000000000e+00) (0, 0, 0.00000000000000000000e+00) (0, 0, 0.00000000000000000000e+00) (0, 0, 0.00000000000000000000e+00) (0, 0, 0.00000000000000000000e+00) (0, 0, 0.00000000000000000000e+00) (0, 0, 0.00000000000000000000e+00) (0, 0, 0.00000000000000000000e+00) (0, 0, 0.00000000000000000000e+00) (0, 0, 0.00000000000000000000e+00) (0, 0, 0.00000000000000000000e+00) (0, 0, 0.00000000000000000000e+00) (0, 0, 0.00000000000000000000e+00) (0, 0, 0.00000000000000000000e+00) (0, 0, 0.00000000000000000000e+00) (0, 0, 0.00000000000000000000e+00) (0, 0, 0.00000000000000000000e+00) (0, 0, 0.00000000000000000000e+00) (0, 0, 0.00000000000000000000e+00) (0, 0, 0.00000000000000000000e+00) (0, 0, 0.00000000000000000000e+00) (0, 0, 0.00000000000000000000e+00) (0, 0, 0.00000000000000000000e+00) (0, 0, 0.00000000000000000000e+00) (0, 0, 0.00000000000000000000e+00) (0, 0, 0.00000000000000000000e+00) (0, 0, 0.00000000000000000000e+00) (0, 0, 0.00000000000000000000e+00) (0, 0, 0.00000000000000000000e+00) (0, 0, 0.00000000000000000000e+00) (0, 0, 0.00000000000000000000e+00) (0, 0, 0.00000000000000000000e+00) (0, 0, 0.00000000000000000000e+00) (0, 0, 0.00000000000000000000e+00) (0, 0, 0.00000000000000000000e+00) (0, 0, 0.00000000000000000000e+00) (0, 0, 0.00000000000000000000e+00) (0, 0, 0.00000000000000000000e+00) (0, 0, 0.00000000000000000000e+00) (0, 0, 0.00000000000000000000e+00) (0, 0, 0.00000000000000000000e+00) (0, 0, 0.00000000000000000000e+00) (0, 0, 0.00000000000000000000e+00) (0, 0, 0.00000000000000000000e+00) (0, 0, 0.00000000000000000000e+00) (0, 0, 0.00000000000000000000e+00) (0, 0, 0.00000000000000000000e+00) (0, 0, 0.00000000000000000000e+00) (0, 0, 0.00000000000000000000e+00) (0, 0, 0.00000000000000000000e+00) (0, 0, 0.00000000000000000000e+00) (0, 0, 0.00000000000000000000e+00) (0, 0, 0.00000000000000000000e+00) (0, 0, 0.00000000000000000000e+00) (0, 0, 0.00000000000000000000e+00) (0, 0, 0.00000000000000000000e+00) (0, 0, 0.00000000000000000000e+00) (0, 0, 0.00000000000000000000e+00) (0, 0, 0.00000000000000000000e+00) (0, 0, 0.00000000000000000000e+00) (0, 0, 0.00000000000000000000e+00) (0, 0, 0.00000000000000000000e+00) (0, 0, 0.00000000000000000000e+00) (0, 0, 0.00000000000000000000e+00) (0, 0, 0.00000000000000000000e+00) (0, 0, 0.00000000000000000000e+00) (0, 0, 0.00000000000000000000e+00) (0, 0, 0.00000000000000000000e+00) (0, 0, 0.00000000000000000000e+00) (0, 0, 0.00000000000000000000e+00) (0, 0, 0.00000000000000000000e+00) (0, 0, 0.00000000000000000000e+00) (0, 0, 0.00000000000000000000e+00) (0, 0, 0.00000000000000000000e+00) (0, 0, 0.00000000000000000000e+00) (0, 0, 0.00000000000000000000e+00) (0, 0, 0.00000000000000000000e+00) (0, 0, 0.00000000000000000000e+00) (0, 0, 0.00000000000000000000e+00) (0, 0, 0.00000000000000000000e+00) (0, 0, 0.00000000000000000000e+00) (0, 0, 0.00000000000000000000e+00) (0, 0, 0.00000000000000000000e+00) (0, 0, 0.00000000000000000000e+00) (0, 0, 0.00000000000000000000e+00) (0, 0, 0.00000000000000000000e+00) (0, 0, 0.00000000000000000000e+00) (0, 0, 0.00000000000000000000e+00) (0, 0, 0.00000000000000000000e+00) (0, 0, 0.00000000000000000000e+00) (0, 0, 0.00000000000000000000e+00) (0, 0, 0.00000000000000000000e+00) (0, 0, 0.00000000000000000000e+00) (0, 0, 0.00000000000000000000e+00) (0, 0, 0.00000000000000000000e+00) (0, 0, 0.00000000000000000000e+00) (0, 0, 0.00000000000000000000e+00) (0, 0, 0.00000000000000000000e+00) (0, 0, 0.00000000000000000000e+00) (0, 0, 0.00000000000000000000e+00) (0, 0, 0.00000000000000000000e+00) (0, 0, 0.00000000000000000000e+00) (0, 0, 0.00000000000000000000e+00) (0, 0, 0.00000000000000000000e+00) (0, 0, 0.00000000000000000000e+00) (0, 0, 0.00000000000000000000e+00) (0, 0, 0.00000000000000000000e+00) (0, 0, 0.00000000000000000000e+00) (0, 0, 0.00000000000000000000e+00) (0, 0, 0.00000000000000000000e+00) (0, 0, 0.00000000000000000000e+00) (0, 0, 0.00000000000000000000e+00) (0, 0, 0.00000000000000000000e+00) (0, 0, 0.00000000000000000000e+00) (0, 0, 0.00000000000000000000e+00) (0, 0, 0.00000000000000000000e+00) (0, 0, 0.00000000000000000000e+00) (0, 0, 0.00000000000000000000e+00) (0, 0, 0.00000000000000000000e+00) (0, 0, 0.00000000000000000000e+00) (0, 0, 0.00000000000000000000e+00) (0, 0, 0.00000000000000000000e+00) (0, 0, 0.00000000000000000000e+00) (0, 0, 0.00000000000000000000e+00) (0, 0, 0.00000000000000000000e+00) (0, 0, 0.00000000000000000000e+00) (0, 0, 0.00000000000000000000e+00) (0, 0, 0.00000000000000000000e+00) (0, 0, 0.00000000000000000000e+00) (0, 0, 0.00000000000000000000e+00) (0, 0, 0.00000000000000000000e+00) (0, 0, 0.00000000000000000000e+00) (0, 0, 0.00000000000000000000e+00) (0, 0, 0.00000000000000000000e+00) (0, 0, 0.00000000000000000000e+00) (0, 0, 0.00000000000000000000e+00) (0, 0, 0.00000000000000000000e+00) (0, 0, 0.00000000000000000000e+00) (0, 0, 0.00000000000000000000e+00) (0, 0, 0.00000000000000000000e+00) (0, 0, 0.00000000000000000000e+00) (0, 0, 0.00000000000000000000e+00) (0, 0, 0.00000000000000000000e+00) (0, 0, 0.00000000000000000000e+00) (0, 0, 0.00000000000000000000e+00) (0, 0, 0.00000000000000000000e+00) (0, 0, 0.00000000000000000000e+00) (0, 0, 0.00000000000000000000e+00) (0, 0, 0.00000000000000000000e+00) (0, 0, 0.00000000000000000000e+00) (0, 0, 0.00000000000000000000e+00) (0, 0, 0.00000000000000000000e+00) (0, 0, 0.00000000000000000000e+00) (0, 0, 0.00000000000000000000e+00) (0, 0, 0.00000000000000000000e+00) (0, 0, 0.00000000000000000000e+00) (0, 0, 0.00000000000000000000e+00) (0, 0, 0.00000000000000000000e+00) (0, 0, 0.00000000000000000000e+00) (0, 0, 0.00000000000000000000e+00) (0, 0, 0.00000000000000000000e+00) (0, 0, 0.00000000000000000000e+00) (0, 0, 0.00000000000000000000e+00) (0, 0, 0.00000000000000000000e+00) (0, 0, 0.00000000000000000000e+00) (0, 0, 0.00000000000000000000e+00) (0, 0, 0.00000000000000000000e+00) (0, 0, 0.00000000000000000000e+00) (0, 0, 0.00000000000000000000e+00) (0, 0, 0.00000000000000000000e+00) (0, 0, 0.00000000000000000000e+00) (0, 0, 0.00000000000000000000e+00) (0, 0, 0.00000000000000000000e+00) (0, 0, 0.00000000000000000000e+00) (0, 0, 0.00000000000000000000e+00) (0, 0, 0.00000000000000000000e+00) (0, 0, 0.00000000000000000000e+00) (0, 0, 0.00000000000000000000e+00) (0, 0, 0.00000000000000000000e+00) (0, 0, 0.00000000000000000000e+00) (0, 0, 0.00000000000000000000e+00) (0, 0, 0.00000000000000000000e+00) (0, 0, 0.00000000000000000000e+00) (0, 0, 0.00000000000000000000e+00) (0, 0, 0.00000000000000000000e+00) (0, 0, 0.00000000000000000000e+00) (0, 0, 0.00000000000000000000e+00) (0, 0, 0.00000000000000000000e+00) (0, 0, 0.00000000000000000000e+00) (0, 0, 0.00000000000000000000e+00) (0, 0, 0.00000000000000000000e+00) (0, 0, 0.00000000000000000000e+00) (0, 0, 0.00000000000000000000e+00) (0, 0, 0.00000000000000000000e+00) (0, 0, 0.00000000000000000000e+00) (0, 0, 0.00000000000000000000e+00) (0, 0, 0.00000000000000000000e+00) (0, 0, 0.00000000000000000000e+00) (0, 0, 0.00000000000000000000e+00) (0, 0, 0.00000000000000000000e+00) (0, 0, 0.00000000000000000000e+00) (0, 0, 0.00000000000000000000e+00) (0, 0, 0.00000000000000000000e+00) (0, 0, 0.00000000000000000000e+00) (0, 0, 0.00000000000000000000e+00) (0, 0, 0.00000000000000000000e+00) (0, 0, 0.00000000000000000000e+00) (0, 0, 0.00000000000000000000e+00) (0, 0, 0.00000000000000000000e+00) (0, 0, 0.00000000000000000000e+00) (0, 0, 0.00000000000000000000e+00) (0, 0, 0.00000000000000000000e+00) (0, 0, 0.00000000000000000000e+00) (0, 0, 0.00000000000000000000e+00) (0, 0, 0.00000000000000000000e+00) (0, 0, 0.00000000000000000000e+00) (0, 0, 0.00000000000000000000e+00) (0, 0, 0.00000000000000000000e+00) (0, 0, 0.00000000000000000000e+00) (0, 0, 0.00000000000000000000e+00) (0, 0, 0.00000000000000000000e+00) (0, 0, 0.00000000000000000000e+00) (0, 0, 0.00000000000000000000e+00) (0, 0, 0.00000000000000000000e+00) (0, 0, 0.00000000000000000000e+00) (0, 0, 0.00000000000000000000e+00) (0, 0, 0.00000000000000000000e+00) (0, 0, 0.00000000000000000000e+00) (0, 0, 0.00000000000000000000e+00) (0, 0, 0.00000000000000000000e+00) (0, 0, 0.00000000000000000000e+00) (0, 0, 0.00000000000000000000e+00) (0, 0, 0.00000000000000000000e+00) (0, 0, 0.00000000000000000000e+00) (0, 0, 0.00000000000000000000e+00) (0, 0, 0.00000000000000000000e+00) (0, 0, 0.00000000000000000000e+00) (0, 0, 0.00000000000000000000e+00) (0, 0, 0.00000000000000000000e+00) (0, 0, 0.00000000000000000000e+00) (0, 0, 0.00000000000000000000e+00) (0, 0, 0.00000000000000000000e+00) (0, 0, 0.00000000000000000000e+00) (0, 0, 0.00000000000000000000e+00) (0, 0, 0.00000000000000000000e+00) (0, 0, 0.00000000000000000000e+00) (0, 0, 0.00000000000000000000e+00) (0, 0, 0.00000000000000000000e+00) (0, 0, 0.00000000000000000000e+00) (0, 0, 0.00000000000000000000e+00) (0, 0, 0.00000000000000000000e+00) (0, 0, 0.00000000000000000000e+00) (0, 0, 0.00000000000000000000e+00) (0, 0, 0.00000000000000000000e+00) (0, 0, 0.00000000000000000000e+00) (0, 0, 0.00000000000000000000e+00) (0, 0, 0.00000000000000000000e+00) (0, 0, 0.00000000000000000000e+00) (0, 0, 0.00000000000000000000e+00) (0, 0, 0.00000000000000000000e+00) (0, 0, 0.00000000000000000000e+00) (0, 0, 0.00000000000000000000e+00) (0, 0, 0.00000000000000000000e+00) (0, 0, 0.00000000000000000000e+00) (0, 0, 0.00000000000000000000e+00) (0, 0, 0.00000000000000000000e+00) (0, 0, 0.00000000000000000000e+00) (0, 0, 0.00000000000000000000e+00) (0, 0, 0.00000000000000000000e+00) (0, 0, 0.00000000000000000000e+00) (0, 0, 0.00000000000000000000e+00) (0, 0, 0.00000000000000000000e+00) (0, 0, 0.00000000000000000000e+00) (0, 0, 0.00000000000000000000e+00) (0, 0, 0.00000000000000000000e+00) (0, 0, 0.00000000000000000000e+00) (0, 0, 0.00000000000000000000e+00) (0, 0, 0.00000000000000000000e+00) (0, 0, 0.00000000000000000000e+00) (0, 0, 0.00000000000000000000e+00) (0, 0, 0.00000000000000000000e+00) (0, 0, 0.00000000000000000000e+00) (0, 0, 0.00000000000000000000e+00) (0, 0, 0.00000000000000000000e+00) (0, 0, 0.00000000000000000000e+00) (0, 0, 0.00000000000000000000e+00) (0, 0, 0.00000000000000000000e+00) (0, 0, 0.00000000000000000000e+00) (0, 0, 0.00000000000000000000e+00) (0, 0, 0.00000000000000000000e+00) (0, 0, 0.00000000000000000000e+00) (0, 0, 0.00000000000000000000e+00) (0, 0, 0.00000000000000000000e+00) (0, 0, 0.00000000000000000000e+00) (0, 0, 0.00000000000000000000e+00) (0, 0, 0.00000000000000000000e+00) (0, 0, 0.00000000000000000000e+00) (0, 0, 0.00000000000000000000e+00) (0, 0, 0.00000000000000000000e+00) (0, 0, 0.00000000000000000000e+00) (0, 0, 0.00000000000000000000e+00) (0, 0, 0.00000000000000000000e+00) (0, 0, 0.00000000000000000000e+00) (0, 0, 0.00000000000000000000e+00) (0, 0, 0.00000000000000000000e+00) (0, 0, 0.00000000000000000000e+00) (0, 0, 0.00000000000000000000e+00) (0, 0, 0.00000000000000000000e+00) (0, 0, 0.00000000000000000000e+00) (0, 0, 0.00000000000000000000e+00) (0, 0, 0.00000000000000000000e+00) (0, 0, 0.00000000000000000000e+00) (0, 0, 0.00000000000000000000e+00) (0, 0, 0.00000000000000000000e+00) (0, 0, 0.00000000000000000000e+00) (0, 0, 0.00000000000000000000e+00) (0, 0, 0.00000000000000000000e+00) (0, 0, 0.00000000000000000000e+00) (0, 0, 0.00000000000000000000e+00) (0, 0, 0.00000000000000000000e+00) (0, 0, 0.00000000000000000000e+00) (0, 0, 0.00000000000000000000e+00) (0, 0, 0.00000000000000000000e+00) (0, 0, 0.00000000000000000000e+00) (0, 0, 0.00000000000000000000e+00) (0, 0, 0.00000000000000000000e+00) (0, 0, 0.00000000000000000000e+00) (0, 0, 0.00000000000000000000e+00) (0, 0, 0.00000000000000000000e+00) (0, 0, 0.00000000000000000000e+00) (741, 3, 5.00000000000000000000e-01) (741, 3, 5.00000000000000000000e-01) (741, 3, 5.00000000000000000000e-01) (741, 3, 5.00000000000000000000e-01) (741, 3, 5.00000000000000000000e-01) (741, 3, 5.00000000000000000000e-01) (741, 3, 5.00000000000000000000e-01) (741, 3, 5.00000000000000000000e-01) (741, 3, 5.00000000000000000000e-01) (741, 3, 5.00000000000000000000e-01) (741, 3, 5.00000000000000000000e-01) (741, 3, 5.00000000000000000000e-01) (741, 3, 5.00000000000000000000e-01) (741, 3, 5.00000000000000000000e-01) (741, 3, 5.00000000000000000000e-01) (741, 3, 5.00000000000000000000e-01) (741, 3, 5.00000000000000000000e-01) (741, 3, 5.00000000000000000000e-01) (741, 3, 5.00000000000000000000e-01) (741, 3, 5.00000000000000000000e-01) (741, 3, 5.00000000000000000000e-01) (741, 3, 5.00000000000000000000e-01) (741, 3, 5.00000000000000000000e-01) (741, 3, 5.00000000000000000000e-01) (741, 3, 5.00000000000000000000e-01) (741, 3, 5.00000000000000000000e-01) (741, 3, 5.00000000000000000000e-01) (741, 3, 5.00000000000000000000e-01) (741, 3, 5.00000000000000000000e-01) (741, 3, 5.00000000000000000000e-01) (741, 3, 5.00000000000000000000e-01) (741, 3, 5.00000000000000000000e-01) (741, 3, 5.00000000000000000000e-01) (741, 3, 5.00000000000000000000e-01) (741, 3, 5.00000000000000000000e-01) (741, 3, 5.00000000000000000000e-01) (741, 3, 5.00000000000000000000e-01) (741, 3, 5.00000000000000000000e-01) (741, 3, 5.00000000000000000000e-01) (741, 3, 5.00000000000000000000e-01) (741, 3, 5.00000000000000000000e-01) (741, 3, 5.00000000000000000000e-01) (741, 3, 5.00000000000000000000e-01) (741, 3, 5.00000000000000000000e-01) (741, 3, 5.00000000000000000000e-01) (741, 3, 5.00000000000000000000e-01) (741, 3, 5.00000000000000000000e-01) (741, 3, 5.00000000000000000000e-01) (741, 3, 5.00000000000000000000e-01) (741, 3, 5.00000000000000000000e-01) (0, 3, 0.00000000000000000000e+00) (51, 3, 5.00000000000000000000e-01) (51, 3, 5.00000000000000000000e-01) (0, 3, 0.00000000000000000000e+00) 
connections (connected_to_neuron, weight)=(0, -8.88122451495410858424e-02) (1, -7.11270987049392178214e-02) (2, 6.84256860978127434691e-02) (3, 1.07599650382011899352e-01) (4, -1.14834773812414053795e-02) (5, -4.15095917020168528322e-02) (6, -2.25093998837094409413e-03) (7, -5.94946582184953873251e-02) (8, -4.53530186083089953408e-02) (9, 1.06037254506930633813e-01) (10, -4.43563146542337236045e-02) (11, 3.56953296253088997458e-02) (12, 2.94588520711639781369e-02) (13, 5.42705557648287470474e-02) (14, 1.25921266919939763701e-02) (15, -2.35915763383271054332e-02) (16, -1.70863930195532358336e-02) (17, -3.36287900477539036803e-02) (18, -9.85016363888976953511e-02) (19, -4.25901137008360009678e-03) (20, 7.59584048881454115820e-02) (21, -8.24579376747368308909e-03) (22, -1.03111970602295811156e-02) (23, -1.17506892092969460195e-02) (24, 8.89260525800921880490e-02) (25, 1.83240073030183840512e-03) (26, 9.53419858294351496575e-02) (27, 5.17982617020606994629e-02) (28, -8.83390381932258605957e-02) (29, -1.21617375593771684383e-01) (30, -9.61630633095125059162e-02) (31, 1.44383881403676948146e-02) (32, -5.32203917247528121570e-02) (33, -8.59860614142972795593e-02) (34, -9.99269950914754290228e-02) (35, 1.09886092939120286194e-01) (36, -5.93085872769354427447e-02) (37, 1.00811862217796865959e-01) (38, 3.11457568380637227212e-02) (39, 3.09736455566668629491e-02) (40, 7.56897777318954467773e-03) (41, -1.41252999163921123815e-02) (42, -1.70191507431683458629e-01) (43, 8.97021474279982057587e-03) (44, 7.07807452397247183207e-02) (45, 9.43982003016548554264e-02) (46, 4.43798333277915166284e-02) (47, -4.17646116999972130679e-02) (48, 5.11166905361639112293e-02) (49, 1.76660566284325720732e-01) (50, 4.24538654466255216402e-02) (51, -4.83504704155513428954e-02) (52, -7.33486058927263762097e-02) (53, -7.53470488231351839467e-04) (54, 4.59171685523217590341e-03) (55, -1.20290345037234125414e-01) (56, 2.37954099930753233683e-02) (57, 6.54704919650410110954e-02) (58, 4.00605085442190048117e-02) (59, 1.06638534168180705575e-02) (60, 8.24657008126758878097e-02) (61, -7.57100145878969194718e-03) (62, 1.26749320242218448812e-02) (63, 5.33448963356398658808e-02) (64, -7.70588773273091914850e-02) (65, 1.92424741614690454627e-02) (66, 4.69380522167948694562e-03) (67, 8.04369874747457580533e-02) (68, -3.14478781244784122428e-02) (69, 1.83860284945620714239e-03) (70, -1.79410551491907509225e-02) (71, 1.22181370977632916541e-01) (72, 3.15581889433858009397e-02) (73, 5.61096670667326075099e-02) (74, -1.23716377859501291958e-01) (75, -3.22405599569768330781e-02) (76, 8.03885298470647380320e-02) (77, 9.59327905888242016275e-02) (78, -2.72184713651028309389e-02) (79, -5.91669397976996996880e-02) (80, 1.33327691678121005442e-02) (81, 3.65803708514083891767e-02) (82, -3.18418297061943966764e-02) (83, -1.67778637250072396384e-03) (84, 9.10146678181498886007e-02) (85, -1.22035247036051189284e-01) (86, 6.42053760117448357736e-02) (87, -1.40436614011049849815e-02) (88, 4.18527991761738701881e-02) (89, 7.67996929699417407722e-02) (90, -3.38442908263078198750e-02) (91, 4.47754230638933020670e-02) (92, -9.29272629032677349725e-02) (93, -4.63276592692821037600e-02) (94, 2.10361272262176227099e-02) (95, -9.89975136862481126798e-04) (96, 1.24806436087855826544e-01) (97, 2.94623138928138024462e-02) (98, -4.99674987785732604983e-02) (99, -5.21120046150535740082e-02) (100, 2.26113515496485159573e-02) (101, 9.52041560735518987979e-02) (102, 5.23837224314507646228e-02) (103, -1.06516643931724913630e-01) (104, 3.03671134461017261374e-02) (105, -3.75461018975116189722e-02) (106, -1.39735815391638668742e-02) (107, 2.66769359586227564063e-02) (108, -8.33573022685137748899e-02) (109, -3.79669188879504237999e-02) (110, 7.23434339119274211205e-02) (111, 5.61340591533882674047e-02) (112, -5.60485254144885286509e-02) (113, -8.50174089749504147129e-02) (114, -4.31417344083582302017e-02) (115, -4.79576118238246099090e-02) (116, -3.41232359409937846539e-02) (117, -4.26802229088321938288e-02) (118, -1.48739672214672890432e-02) (119, 1.03900898575612632424e-01) (120, -1.15247437090915158531e-01) (121, -4.74232586890021776127e-02) (122, 3.58420699278003754285e-02) (123, -1.30049394771485804512e-01) (124, -5.06693927396402107877e-02) (125, 5.64793765560175978213e-02) (126, 4.62866189096175755652e-03) (127, 3.43608489869786579152e-02) (128, -8.17506455411124016708e-02) (129, 8.95749028539639113866e-02) (130, -1.83154043343526466703e-02) (131, 2.26837415693608504541e-02) (132, 4.97681469842643706136e-02) (133, -9.88132697695430078921e-02) (134, 5.50784745915007881156e-03) (135, -5.16621464989726053574e-02) (136, -1.66459795220463661891e-02) (137, 1.76739093190551761758e-02) (138, 2.54311659069429256419e-02) (139, -3.32972849626640976517e-02) (140, -4.60669247160758188464e-02) (141, 9.57523170531739825639e-02) (142, 1.43776538106891033086e-01) (143, -9.28306189342889831462e-02) (144, 5.25381740258065166316e-02) (145, -4.69838559031117916631e-02) (146, -3.73327595966361320753e-03) (147, -6.87322461807395312938e-02) (148, -1.14281763131957492426e-03) (149, -9.55790058786142732172e-02) (150, -3.41125793184883369102e-02) (151, 2.56290683689876300222e-02) (152, -1.07875820584468262719e-01) (153, 1.21602419247402691871e-02) (154, -2.53649118134411256237e-03) (155, -5.83266126564823961242e-02) (156, 1.42831384056632641755e-02) (157, -7.63224907972063770778e-02) (158, -4.19200655990377563098e-02) (159, 6.71436057205610902637e-03) (160, -6.33816375467823045486e-02) (161, -1.29845261016968815254e-02) (162, -5.75325944748970932729e-02) (163, 5.72232913941818077674e-02) (164, 3.16607516300123834063e-02) (165, -3.32311953884979402463e-02) (166, -6.64582997958799437388e-02) (167, 8.82597124017043682676e-02) (168, 7.11575509730716648793e-02) (169, -8.12891582275499929855e-02) (170, 5.84813126753866863866e-03) (171, 8.30412771673699062758e-02) (172, 1.54505847887838800719e-02) (173, -4.52304936593340631279e-03) (174, -1.51694153599472719707e-01) (175, 2.22784410632011972697e-02) (176, 6.43237396562253288534e-02) (177, 1.75532231646824410376e-02) (178, 2.82157142058840383625e-02) (179, -9.23703594563259067218e-02) (180, 2.14106208884657679692e-03) (181, 3.17753454362933313027e-02) (182, -1.28556867108448272946e-02) (183, 7.11931332413906492462e-02) (184, -2.52899746973986386256e-02) (185, -4.60769241092917267166e-02) (186, -1.27128155947897669709e-01) (187, -1.30346894795920043020e-01) (188, 1.30875905925924226891e-02) (189, -9.77323564375552067407e-02) (190, -1.77107646594266907036e-02) (191, 6.29466738631643540902e-02) (192, 3.91853560663964293337e-03) (193, 1.38670854343853150459e-01) (194, -7.22388783055011307610e-03) (195, -8.09880070976278787498e-02) (196, -8.79674718514643766420e-02) (197, 7.23709995939343792015e-02) (198, -1.49134152982831225120e-01) (199, 8.44663495811266984425e-02) (200, 2.18200560417412744996e-02) (201, 3.50162099149206986273e-03) (202, 6.08895937642126294786e-02) (203, 4.81885336381923864990e-02) (204, 8.71631481628468152145e-02) (205, -9.56693196264206124901e-02) (206, -3.11668054806596406779e-04) (207, -8.95582152998123466516e-05) (208, 2.72494089903172025113e-02) (209, -7.40037142883361170886e-02) (210, 2.28759216751984600924e-02) (211, 2.15269454013826862238e-02) (212, -7.17130383889037353873e-02) (213, -1.50644023583845487746e-02) (214, -4.90965160255762006480e-02) (215, 2.81569914441814339590e-02) (216, 3.13279222075695043537e-02) (217, 2.46157574558294699185e-02) (218, -3.25366705089723817768e-02) (219, -7.14406694314712181759e-02) (220, -6.14936226009941619419e-03) (221, -4.17512695897181221327e-02) (222, 1.35239115869601467246e-01) (223, -1.01835951899650584140e-01) (224, -1.03565945390855951302e-01) (225, -5.15910902745501942501e-03) (226, -5.14972436956907669847e-02) (227, -7.82326757869493821795e-02) (228, -9.92289482231480390872e-02) (229, -6.46322854186132528254e-02) (230, -1.06547842971797798728e-01) (231, 1.49184244562028361925e-01) (232, 6.23076594191605201423e-02) (233, 4.94519725862684264572e-02) (234, 7.94643807772769418529e-03) (235, 9.28509316463577705214e-02) (236, 1.05546180755170998511e-01) (237, -2.76976842491819599812e-02) (238, -4.88628605429810500271e-02) (239, 5.09422228021805742482e-02) (240, -4.50866980164226494043e-02) (241, -8.52949120468985133581e-02) (242, -8.54685264070805111869e-02) (243, -1.76121373476631863653e-02) (244, 3.76963820211307990005e-02) (245, -6.01917076697996381723e-03) (246, 6.55704884165067281021e-02) (247, -1.05976246249568514801e-01) (248, 6.67433948817768157857e-02) (249, -1.67933441795513928307e-02) (250, -6.90078265125371459465e-02) (251, -1.69858649811015678666e-02) (252, 1.54922944270978772338e-03) (253, -7.29824361634397594800e-02) (254, 2.46219222928282417684e-02) (255, -1.67764759774537731973e-02) (256, 4.50615715154940588150e-02) (257, 1.13064777523273762849e-01) (258, 2.18250988227015885190e-02) (259, 8.26904572909544777204e-02) (260, -9.09686133144336217526e-02) (261, 9.89905502522223645911e-02) (262, 6.70792446927555158220e-02) (263, 7.47547863438192961016e-02) (264, 3.61689919341001836495e-02) (265, 5.59452642560739413224e-02) (266, 1.13836909363305895798e-03) (267, 7.16437820388979573760e-02) (268, -1.69849692308575092592e-02) (269, 3.98484581133131052222e-02) (270, 3.34153892808446628324e-03) (271, 6.74930195792189518977e-02) (272, 6.40461721198522099252e-02) (273, 1.18536547673431837124e-02) (274, -1.35478408831407798329e-01) (275, -1.86215784715445392683e-02) (276, 9.85605036297188541461e-02) (277, 1.05737432011722531922e-01) (278, -3.88089745159197474500e-02) (279, 1.15690903599520417133e-01) (280, -7.74812470583059603735e-02) (281, 7.55165600594939062651e-02) (282, -2.53070791995380732498e-02) (283, 3.25015476942481229550e-02) (284, 9.81738063501021718249e-02) (285, 9.92057507829621626483e-02) (286, -4.19584325133390140250e-02) (287, -9.37153150811843513313e-03) (288, 6.83621826852631869764e-02) (289, -1.12373226379967619537e-01) (290, -7.95531063133925325781e-02) (291, 1.17588558585715152738e-01) (292, -9.05308097073519307818e-02) (293, 6.87000137753168149679e-02) (294, 2.82727039782476041729e-02) (295, 1.12886925104599515624e-02) (296, 6.20379475885184314410e-02) (297, -5.13266153392282625800e-02) (298, 6.82052836224755903993e-02) (299, 1.41705119960633202369e-01) (300, 1.20283456508088512638e-01) (301, 5.49253952503820086495e-02) (302, 1.02070457380853366058e-01) (303, 4.69405129695320902372e-02) (304, -5.52611659239232236307e-02) (305, 9.22420824960972912665e-02) (306, 1.44850207795434726687e-01) (307, -1.71154415146384276947e-02) (308, 2.38882219471972939706e-02) (309, -3.20279345239094445641e-02) (310, 1.50626558535906923675e-01) (311, 1.41452205348174930855e-01) (312, 7.28386580121490323503e-02) (313, -9.48834503545269575264e-02) (314, 3.38281922222751774143e-02) (315, 9.57003047429235420562e-02) (316, -9.24426356014022565510e-02) (317, 1.34409933207393944565e-01) (318, -6.99698507706058986377e-02) (319, 9.07896495925556018536e-02) (320, -7.67885699197306120789e-02) (321, 2.81080347404983731802e-03) (322, 6.61980906634742349848e-02) (323, -1.06939570146326698441e-01) (324, 1.54052621485121950251e-02) (325, -6.26965257713654189331e-02) (326, -4.20010379314922702165e-02) (327, 2.63171814464926261123e-02) (328, -6.22015501067556871723e-03) (329, -6.80048562165857795048e-02) (330, -2.81513496549022843030e-02) (331, -3.90690992001855585958e-02) (332, 7.55431986455448595263e-02) (333, 3.43554719796019952804e-02) (334, 9.94948509091174299046e-02) (335, 1.43110983204632447041e-01) (336, 5.56159466940177038552e-02) (337, 1.21126861230076557363e-01) (338, -1.37745679695358252959e-01) (339, -1.07804709912433724361e-02) (340, -6.36637972078424735356e-02) (341, -9.91841383089387129690e-02) (342, -6.34047054202058202321e-02) (343, -7.97027347070976138754e-02) (344, -4.99931961966689694665e-02) (345, 6.71991018941022616451e-02) (346, -9.85431278973214058725e-02) (347, -4.06425872466023505036e-02) (348, 1.96439938585633230850e-02) (349, -8.73936703110676782469e-03) (350, -1.19319358207710488062e-01) (351, 6.71880244636269136072e-02) (352, 9.21005428781985630016e-02) (353, 2.47790286346620536317e-03) (354, 1.36556850282244346406e-01) (355, -2.71525563557921192914e-02) (356, -5.64804517998830288295e-02) (357, -3.82254874089186444386e-02) (358, 2.36767166950642635181e-02) (359, -1.57684418337741862060e-02) (360, -5.01331189614502917284e-03) (361, -6.88727111758880884695e-03) (362, 1.26590831848941487436e-01) (363, -7.42526925726876285694e-02) (364, -7.44847532920153293512e-02) (365, 4.21272174121954459669e-02) (366, -6.94786669581709814825e-02) (367, 2.87986920968527002063e-02) (368, 1.16110878799794273175e-01) (369, -6.18762991473545895249e-02) (370, 1.09772506098116340301e-01) (371, -3.81881819839876984757e-02) (372, 2.69920424636891503889e-02) (373, -9.24345901782742812580e-02) (374, -1.21641282133482468014e-02) (375, 5.48233246139845017963e-02) (376, 2.61255383788419164037e-02) (377, 1.34464863605041973563e-03) (378, 8.62320629144736616745e-02) (379, -3.21411428507623261885e-02) (380, 6.97911341427211312505e-02) (381, 1.38001695271040308866e-01) (382, -1.43498082646290880948e-02) (383, 7.61460152012370227598e-03) (384, 7.02139585248604397583e-02) (385, -1.19817874219330947061e-01) (386, 9.31820406024696928915e-02) (387, 6.72453398570280053148e-02) (388, 2.23990087430388194745e-02) (389, 2.55554289077222530902e-02) (390, -2.14939127208573881045e-02) (391, 8.01403235271312130994e-02) (392, -9.75250378932118605624e-02) (393, -6.49313945737840375605e-02) (394, -8.70343124549646796062e-02) (395, -7.58782058732614256291e-02) (396, 7.63861979798037965539e-02) (397, 2.79854995293075912988e-02) (398, 3.48085891848656835482e-03) (399, 7.63620465578919715988e-02) (400, 5.83960441223158599477e-02) (401, 1.07465746383291080313e-01) (402, 4.03985772519161526195e-02) (403, -5.12860198652479032377e-02) (404, 8.48390522900509952420e-02) (405, -1.24290120187612915248e-01) (406, 6.55530928665407353062e-02) (407, -1.84394033583244430774e-02) (408, -1.59290410264159164495e-03) (409, 9.24871030619218437163e-02) (410, -6.13257421491914325729e-02) (411, -1.61571361757824848160e-02) (412, 5.43628504564647868635e-02) (413, -9.82567007732241121110e-02) (414, 6.22537190388983627254e-02) (415, 1.02729760098980132943e-01) (416, -6.07999583887369812740e-02) (417, 3.56142491141462902426e-02) (418, -6.84002049319492183566e-02) (419, -2.26297802623420529766e-02) (420, -1.05802986519195115628e-02) (421, 3.53644098055537273173e-02) (422, -1.42808696120787781414e-02) (423, -8.26874267029426685514e-04) (424, 9.61406949009422223673e-02) (425, 4.26630622486472918520e-02) (426, 7.59563259045833299998e-02) (427, 6.15589660925020265569e-02) (428, -2.57235055717415714294e-02) (429, 3.72426877186732493974e-02) (430, 5.55353567521522234474e-03) (431, -8.40634225555327435631e-02) (432, 7.26817587499291057479e-03) (433, -5.15224189451174569010e-02) (434, 5.28959116343711982511e-02) (435, 2.12189414916110902221e-02) (436, 3.13116489515020066103e-02) (437, 3.36233867536762801378e-03) (438, -8.66836702400557573833e-02) (439, 2.74054581893773546719e-02) (440, 1.19380422402438814838e-02) (441, -3.03561444923550645403e-02) (442, 1.12819097212476890379e-01) (443, -2.30394071145341682028e-02) (444, 1.31857538239011536085e-02) (445, 1.39264854259316284146e-01) (446, 1.93680350276746356120e-02) (447, 1.53340548202337695338e-02) (448, 3.05517874105168188437e-02) (449, -4.35710926666939557528e-02) (450, -4.98580291820339902009e-02) (451, -8.21951106190681457520e-02) (452, -8.43385794214632916743e-02) (453, 3.33389115427870641462e-02) (454, 2.73236845794395388776e-02) (455, 9.90358919152753980342e-02) (456, -4.74613882392075289718e-02) (457, 7.10272067069002421835e-03) (458, 1.16344777082411129920e-01) (459, 3.93365120294249942523e-03) (460, -1.29093985664039068162e-01) (461, 1.04335540880468296415e-02) (462, 5.30970146726009173399e-02) (463, 3.47560059924990963354e-02) (464, 7.57348799918270976228e-02) (465, 4.36539640572319777995e-03) (466, 1.07896693030358203913e-02) (467, -7.38388399119587479635e-02) (468, 9.91412649223033792811e-02) (469, 4.80822840649154387843e-03) (470, 2.58683871914016164095e-02) (471, -5.08714209453255128413e-03) (472, 8.67266133427619934082e-02) (473, 2.64069706809499787914e-02) (474, 6.15867324066086685441e-02) (475, -1.03459730450330203433e-02) (476, 5.67179028126655396247e-02) (477, -1.11062982367145981349e-02) (478, 1.10680347626922956361e-01) (479, -4.08988762276555409270e-02) (480, -1.09076279766085179612e-01) (481, -9.74178625220202543122e-02) (482, -3.32788823173569975333e-02) (483, -9.29386497273041178868e-02) (484, 3.50081728551204993116e-02) (485, 1.19379492646403545519e-01) (486, 1.07010877380668431580e-01) (487, -9.51909614691432218181e-03) (488, -1.11975160974417675686e-02) (489, 1.00216644586719097476e-01) (490, 5.64116758800434353605e-02) (491, 1.74536179142776269602e-02) (492, -8.22265437885476013768e-02) (493, 9.95401293039321899414e-03) (494, -6.40335594200565072498e-02) (495, 5.74198280707673772150e-02) (496, 7.35591233390308907314e-02) (497, 6.93999210390157938999e-02) (498, 9.79275517210787121991e-02) (499, 9.17115026188264348406e-02) (500, 1.55873648388311063923e-02) (501, 1.21754609976714556208e-01) (502, -3.64980148376278443201e-02) (503, -5.38402623798617859657e-03) (504, 7.56164852959652356024e-02) (505, -7.96421217763903788178e-02) (506, 2.94561816752467071912e-02) (507, -5.44121296390178040003e-03) (508, 4.76611025359809648005e-02) (509, 3.72991664980753395708e-02) (510, 2.36991921848153236363e-02) (511, 3.58283593824047924548e-02) (512, 5.88565642798909716138e-02) (513, 5.22029629927330818262e-02) (514, 6.88209757208824157715e-02) (515, 1.60479737399202043724e-01) (516, -9.62613109542730799317e-02) (517, 1.33228913395822434751e-01) (518, 5.12374046436697497264e-02) (519, -5.69006011688729090164e-03) (520, 8.89452460549453732819e-02) (521, 1.85416706731033921474e-02) (522, -2.96545203736463570954e-02) (523, 7.42521475975585834584e-03) (524, 4.41588512474911307204e-02) (525, -1.63721145053157962623e-02) (526, -4.82411366980726591391e-02) (527, -5.72878329482622572488e-02) (528, -6.98717738559630208162e-02) (529, 8.52747146081348356139e-02) (530, 3.03742669473430456153e-03) (531, 2.80977777060814927490e-02) (532, -1.09834851598360344616e-01) (533, -1.76058988191179488503e-01) (534, -5.92860787072241532392e-02) (535, 8.41175243258476257324e-02) (536, -2.92616648163775763813e-02) (537, 1.21038030974897625747e-01) (538, -7.19215385761770020778e-02) (539, -9.48204883301954487562e-02) (540, -1.29594418851549774557e-02) (541, 9.74184182262475828473e-02) (542, 1.27896772665633096100e-01) (543, -1.95708184421591428748e-02) (544, 5.66092243439385561093e-03) (545, 9.94178057220909544567e-02) (546, -3.56631226070056386868e-02) (547, -3.03650432899765891637e-02) (548, 2.83006029118345603379e-02) (549, -4.96904863030991975070e-02) (550, 8.45058046063127815684e-02) (551, -6.82102924910950175752e-02) (552, 5.42507993394477291971e-02) (553, 3.04497391433013568640e-02) (554, -5.04055298549404076636e-02) (555, -9.06196232382700667118e-02) (556, 8.57184752821922302246e-02) (557, 9.00370834148313606282e-03) (558, -3.85259998412891824238e-02) (559, -4.62300824864710566131e-02) (560, -5.40339349474705313292e-02) (561, -7.83014485900918738581e-02) (562, 2.10466320309674673195e-02) (563, -3.99464964502946259794e-02) (564, 1.00769361370023190910e-02) (565, 2.71795825728620536743e-02) (566, -1.16653401967731287781e-02) (567, -8.44613031416082821190e-02) (568, 9.14478657125238070247e-03) (569, 1.25100200003788221415e-02) (570, -4.30959596026908586808e-02) (571, -6.25391978588810959483e-02) (572, -2.88432318047711806763e-02) (573, -4.78858769815783819057e-02) (574, 5.37419990028383809388e-02) (575, 7.03139952806416390629e-02) (576, -5.51667435421285476393e-02) (577, 8.54331776499748229980e-02) (578, 9.04223081690394732413e-03) (579, 2.57086687824456226747e-02) (580, -1.16628456632767413259e-01) (581, 1.34778292427842477652e-02) (582, -1.32794912012534904733e-01) (583, 8.53043920239316411092e-02) (584, 1.38914225331479707082e-01) (585, -1.20869452055142545532e-01) (586, -9.54447373132800147566e-02) (587, 1.09415650356917290575e-01) (588, 9.87575165769480761702e-02) (589, -5.89585024423574036168e-02) (590, 4.09754576983956605996e-02) (591, 1.05344144790382787669e-01) (592, -3.05613540239440886759e-02) (593, 2.32708458415390624652e-02) (594, -6.46674016069498924786e-02) (595, -8.64765343034742117734e-02) (596, 1.87879840402385353548e-02) (597, 3.24993306474117699123e-02) (598, -6.87599620252142273991e-02) (599, 1.45528302597973356602e-02) (600, -4.06558932259215993765e-02) (601, -1.64273488033496103955e-02) (602, 6.53424185309336991168e-02) (603, 1.97186588321207048255e-03) (604, 1.97449412790792859507e-02) (605, 4.87007440280237680064e-02) (606, 1.38637197119342390345e-02) (607, 9.09876615572836715262e-03) (608, 2.69774217994993049941e-02) (609, -4.15166172357222529321e-02) (610, 3.51927116406052786779e-02) (611, 1.19429225065191199628e-02) (612, 4.73109743156453627089e-02) (613, 3.29027918184419121417e-02) (614, 3.72899641434111667193e-02) (615, -2.98073893509398432644e-02) (616, 6.31719670630005170064e-02) (617, 3.32039499311121075187e-02) (618, -4.96544645068707490854e-02) (619, -1.99121848775544937893e-02) (620, 1.27390209614262839288e-01) (621, -6.59809835357236668107e-02) (622, 4.24128887724423923183e-03) (623, -4.03130256869886557936e-02) (624, 1.53969617085008780855e-01) (625, 7.17461290701829762506e-02) (626, -3.56081317187569804800e-03) (627, -8.68568693046107842548e-02) (628, -6.79260212149387643255e-02) (629, 8.74636257686725454574e-02) (630, 1.16309252916478131357e-01) (631, 9.76230156289159024807e-03) (632, -8.77283827302581115104e-02) (633, 1.07711735211853107397e-01) (634, -7.89676640099521987004e-02) (635, 9.68857487990537613598e-02) (636, 6.52401448296398983606e-02) (637, -1.78187110698630260530e-02) (638, 6.46945710040356253279e-02) (639, -2.99804447874904150817e-02) (640, 3.22651299219179690803e-02) (641, -5.00225146528413822100e-02) (642, 7.58154297251949910175e-02) (643, -4.67707587809125940881e-02) (644, 6.23489291888410721021e-02) (645, -7.20098339643450296998e-02) (646, -2.67727716762842377074e-02) (647, -2.09630884050472032776e-01) (648, -1.06996490706327926357e-01) (649, -4.10614836574533403901e-01) (650, 1.15942882578234526814e-01) (651, -3.87951391905907994051e-01) (652, 4.01558044715675035996e-02) (653, 1.36481551624156705049e-01) (654, -3.17193601782964490488e-02) (655, 5.16564940059879296186e-02) (656, -3.36833295844925661999e-01) (657, 1.00248989732572152400e-01) (658, 1.07674736226871708977e-01) (659, -1.45732925706957335693e-02) (660, 3.02216365630920413832e-01) (661, 1.52021931401781884574e-01) (662, -9.52992442371447118221e-02) (663, 2.02927161144555480432e-02) (664, -6.41326849183780078878e-02) (665, 1.13832364782456507690e-01) (666, 5.89283938834002114088e-03) (667, -1.58212588778255586197e-01) (668, 2.25561872413152682271e-02) (669, 1.08854638083677429661e-01) (670, 2.49616573579844874819e-02) (671, 2.28346490366692946028e-02) (672, 1.57614374544995244909e-02) (673, 1.54830115725112082287e-02) (674, 3.31641373288385499229e-02) (675, -1.17093744588674400497e-01) (676, 1.56087891032673536928e-01) (677, 7.51024692562281548369e-02) (678, 1.13469689851285089610e-02) (679, 1.00703781207876458259e-01) (680, 4.92427032297380190551e-04) (681, -6.51357322931289672852e-03) (682, -7.42004724864226000713e-02) (683, -4.45209031687768749808e-02) (684, -1.79721168280775472903e-02) (685, 2.85658508499220843702e-02) (686, 7.89894910113467241253e-02) (687, 7.77318015041507937024e-02) (688, 5.53562296512203743520e-03) (689, 4.27026557970182629731e-02) (690, 3.69508002242920075009e-02) (691, 4.88356433289692412570e-05) (692, -1.64410642925656609592e-02) (693, 9.38190280908092616441e-02) (694, 8.91431760122712024685e-02) (695, -6.83912156595180426022e-02) (696, -6.55074353704853257208e-02) (697, -1.67744532360198893295e-02) (698, -3.85797999772533525831e-02) (699, -7.92344440563594598625e-02) (700, -1.01949399648487468162e-01) (701, 8.78723911453500039492e-02) (702, 1.23429504092814820715e-01) (703, -1.47195254217593225754e-02) (704, -1.77578407374278657294e-01) (705, 1.25794342850136908751e-01) (706, 1.15972588496138492853e-01) (707, 3.70185929483064432577e-02) (708, -3.49305510434536961584e-02) (709, 4.93261690332977911777e-02) (710, 5.58763063928848641160e-03) (711, -1.09984333127858078388e-02) (712, 3.79525109406395125267e-02) (713, -9.83468277719281996907e-02) (714, 2.86266060929627544351e-02) (715, 6.55176798576854405726e-03) (716, 6.47180600503923786349e-02) (717, -3.12811782295118259722e-02) (718, -2.89091012400882023392e-02) (719, -1.11560900399348669754e-01) (720, -1.35742228472436055053e-01) (721, 1.40465527733360684426e-01) (722, -6.07331044688583371327e-02) (723, -9.24108993716015250652e-03) (724, 1.49504558848849479491e-02) (725, -8.49182075315566137208e-02) (726, 9.07879198991116444228e-03) (727, -3.02452923091879287421e-02) (728, 4.13742947113334303549e-03) (729, -6.56621450995280991902e-03) (730, -1.35346324397857126209e-01) (731, 1.22479562240527348194e-01) (732, -1.23296239027739618077e-01) (733, -4.03098632121219324631e-02) (734, -1.33343548554361951419e-01) (735, -2.48229302118577570269e-02) (736, 1.19876817232136723135e-01) (737, 5.86194234184312101821e-02) (738, -2.54322960972785949707e-02) (739, -8.21835026144981384277e-02) (740, -4.19329431936042162921e-02) (0, -3.45377688498539822670e-02) (1, 5.13201753265786399932e-03) (2, -5.64233922618956190709e-02) (3, -2.19964738571623887042e-02) (4, -7.03319360317723740739e-02) (5, 1.10350010951985218199e-02) (6, -9.60333577272964450389e-02) (7, 4.13062855498284309252e-02) (8, 6.81551258125905473628e-02) (9, -4.72073944338047141178e-02) (10, -1.02010513349870352018e-01) (11, 5.48057890877956879749e-02) (12, 4.51125331119612976716e-02) (13, 5.59887123309720374786e-02) (14, 2.87494936291252146943e-02) (15, -7.72460206114743141992e-02) (16, 4.28887860623403671667e-02) (17, 4.12675093247218197079e-02) (18, 7.17764015961370738239e-02) (19, -8.29653158617138786202e-02) (20, 8.50898931108610284690e-02) (21, 4.50063727870458896163e-02) (22, -5.65366805483823939293e-02) (23, -1.00456418803849562016e-01) (24, 9.85981805509555664369e-02) (25, 3.89294874201379786927e-02) (26, 7.98452520969044898802e-02) (27, 6.27267882227897644043e-02) (28, -7.74754509329795837402e-02) (29, 7.24458722625231921199e-02) (30, -9.38008772576812976940e-02) (31, -3.09531748982566634609e-03) (32, 4.56890794841373782537e-03) (33, -5.79229812457579540386e-02) (34, 5.86286823918453700588e-02) (35, 3.78790676590301800264e-02) (36, 7.20561429558209814994e-02) (37, 6.14722746163448852119e-02) (38, -2.80857566193674808297e-02) (39, 4.42342886089653400394e-02) (40, -7.35487267374992370605e-02) (41, -4.04918929528111717908e-02) (42, -2.87091632878140254337e-02) (43, 7.85535302626015063954e-02) (44, -6.60159793272354217253e-02) (45, -9.18416812819854572192e-02) (46, 7.55926723447800791300e-02) (47, 5.50837158278127819733e-02) (48, 5.68273382738228444166e-02) (49, 5.87781128045798892390e-02) (50, 7.42949448551509378236e-02) (51, 5.25173704744887337448e-02) (52, 3.03625880493641926716e-02) (53, -4.31690003628326240959e-02) (54, 5.03320661373189634502e-02) (55, 2.90603756119138592617e-02) (56, -9.70017535998448782175e-02) (57, 3.69136979984415400380e-02) (58, -8.01010748924384577419e-03) (59, -7.78287519027259511173e-02) (60, 3.83213973479929123633e-02) (61, 1.95634843640507122275e-02) (62, 1.26369184460323937674e-02) (63, -6.61300712064161050341e-02) (64, 7.68561895183943605270e-02) (65, -2.12761210337961241545e-02) (66, 6.70991165671403627657e-02) (67, 5.57154444121924843913e-02) (68, -4.24279899684005604166e-02) (69, -5.16496852073487153212e-02) (70, 6.24517754061984617549e-04) (71, -1.51982028362147823797e-02) (72, 2.61906750658876252835e-02) (73, -1.01286580957324220953e-01) (74, -4.93044836151526819079e-02) (75, 5.91560845055164458151e-02) (76, -6.92661758099302887759e-02) (77, -4.64917619918740199214e-02) (78, 3.23077840788159251217e-02) (79, -9.49797372116837901324e-02) (80, -7.36897815087131091705e-02) (81, 3.72836840659279689092e-02) (82, 6.41350005892206281866e-02) (83, 5.88795805960628040876e-02) (84, -9.96888757218837850971e-02) (85, 2.34221863717962615337e-02) (86, 7.16369059590102395634e-04) (87, -8.96207669932801570534e-02) (88, -3.28461193235930967727e-02) (89, -9.36082541557487213257e-02) (90, -5.03261793149263544911e-02) (91, -9.55050113819959078931e-02) (92, 2.31029549572186534978e-02) (93, 6.94812659642832508577e-02) (94, -4.92044853666623732691e-02) (95, 1.57636914500800529026e-02) (96, -3.83126305899593525006e-02) (97, -6.67160324527793502369e-02) (98, -2.34289036455139799975e-02) (99, 2.59003854982055164990e-02) (100, -1.59501888721576591534e-02) (101, 8.57798420800227751082e-02) (102, -7.72804934286151906653e-02) (103, -8.71598988659720019800e-02) (104, -1.04687622865055812715e-01) (105, -1.88289539510455954108e-02) (106, 7.87483237150669174165e-02) (107, -7.25604721376845451797e-02) (108, 4.71905546049835450395e-02) (109, 3.57401242474784455738e-02) (110, -5.55961568883553691744e-02) (111, 7.84475804653939345901e-02) (112, -2.06782977152259947462e-02) (113, -8.33512755101915442379e-02) (114, 4.63969122073301584730e-02) (115, -7.64913949753311204344e-03) (116, 5.08624984600743387797e-02) (117, -4.03744024172760784808e-02) (118, 7.55062956704821448134e-03) (119, -7.24998428022846225227e-02) (120, -2.88372998043320664940e-02) (121, 6.81959719109157119776e-02) (122, -5.20484489608087907975e-02) (123, -9.57417430085162474152e-02) (124, 4.53681086871842303987e-02) (125, 5.93896209105182135146e-03) (126, 3.13609805274722014401e-02) (127, -8.97294054848577216088e-02) (128, 4.77996487402976566461e-02) (129, -8.45023797846767149577e-02) (130, 5.36959552738202200439e-02) (131, -5.92781704761678532312e-02) (132, -9.19224119495319069717e-02) (133, 7.37722075854000680639e-02) (134, -3.26999130533942861110e-02) (135, -9.25898292166640463075e-02) (136, -3.61050987935657083372e-02) (137, -3.10967721128835028477e-02) (138, -5.49785795302813115604e-02) (139, -8.53788216226240292972e-02) (140, -8.69559312445233600908e-02) (141, 7.96235275186900522126e-03) (142, -9.61612203077987504063e-02) (143, -5.70659789680087216335e-03) (144, 2.92670382374652267299e-02) (145, 5.71276466047125758285e-02) (146, -1.01653106343663673927e-01) (147, -5.92867220988845845808e-03) (148, -7.12145224580993385644e-02) (149, 1.16142013764324956299e-02) (150, 3.41745463017521441951e-02) (151, 1.64566096876369617752e-02) (152, -8.87227003353479107273e-03) (153, 9.17447394855265968561e-02) (154, 3.20039887308080500672e-02) (155, -5.17334629434966428163e-02) (156, 7.74958930908184202152e-03) (157, -2.89632246870200858735e-02) (158, -2.73989701713339278699e-02) (159, -3.71931125064500350819e-02) (160, -2.43198088867073837840e-03) (161, -6.94275113973860796834e-02) (162, 1.20825271214403881515e-02) (163, 1.33203882120747005291e-02) (164, -8.17879921049377428544e-02) (165, 9.67475711199879129243e-02) (166, 2.91535279294786731086e-02) (167, -1.20518991227550557183e-02) (168, -2.54483508436125251129e-02) (169, 8.91583833296085981335e-02) (170, 1.53049859614715413891e-02) (171, -1.50945514895914050663e-02) (172, -9.38756876422995947817e-03) (173, 1.72114277185270794779e-02) (174, -1.11482022864880736535e-01) (175, -6.79282344863078452191e-02) (176, -1.55098669723251810643e-02) (177, -1.00575029736175311501e-01) (178, 3.29356479317648720428e-02) (179, 1.63678670501992973296e-02) (180, 1.74943533799215358848e-02) (181, -3.00462325199717522617e-02) (182, -6.69925987677886941585e-02) (183, -8.51581751370171918802e-02) (184, -3.42471873453873421056e-02) (185, 7.11210069427355845439e-02) (186, -4.07531065450852658660e-02) (187, 7.31300617262809204977e-02) (188, -5.38886653895164768890e-02) (189, 3.28071601494657541509e-02) (190, -6.41478506544063825645e-02) (191, 4.61648602243447600535e-02) (192, 6.69778154850048795810e-02) (193, 5.97821617618367398550e-02) (194, -4.10974380169672748320e-02) (195, 8.46183963389833676549e-02) (196, 5.01800908178602345089e-02) (197, 9.33505271561624744292e-02) (198, -3.08345474189292423350e-02) (199, -7.52865684551088099052e-02) (200, 7.58114374485151787386e-02) (201, 8.79716291855502235952e-02) (202, 1.89364610133366771672e-02) (203, -1.81998210741877476659e-02) (204, 1.33004130020265322332e-02) (205, 2.35368296675961333198e-02) (206, 2.59071960658999247973e-02) (207, -9.76343146895185670653e-02) (208, 3.08211794522503072791e-02) (209, -3.27504390496395972332e-02) (210, 2.76145117299007002154e-02) (211, -3.69958759137212489509e-02) (212, 5.11231258872779856239e-02) (213, 7.27035675650137824810e-02) (214, -1.66219924826705202359e-02) (215, -7.01784723661512122028e-02) (216, 4.97536794824906813961e-02) (217, 5.99697354227765599965e-02) (218, -9.18494378897697222319e-02) (219, -9.57084720740399852446e-02) (220, -9.96399233283583015200e-04) (221, -3.91786630087021803259e-02) (222, 6.16933578055532463869e-02) (223, -2.66380585603866945621e-02) (224, -7.77413655732170638668e-02) (225, -7.29728302650627519421e-02) (226, -3.35385884584907256745e-02) (227, 7.93054192559737164414e-02) (228, -7.49055003269281649558e-02) (229, 4.77434211461632354578e-02) (230, -8.80757570703550041191e-02) (231, -8.29439042961541000976e-02) (232, 4.44312487014293933107e-02) (233, 3.71837087511067004852e-02) (234, 1.03513586390154032658e-03) (235, -2.68056989086978558756e-02) (236, -2.87055939868450550601e-02) (237, -5.96539190424761819886e-02) (238, -1.94030752005212546452e-02) (239, -8.77628314317013963342e-02) (240, 1.51930846185392588038e-02) (241, -8.05722989668994360457e-02) (242, -2.01145213615159350329e-02) (243, -2.63913187566445217591e-02) (244, -9.45837068552544818489e-02) (245, 7.64877698682903950367e-02) (246, 5.43892412762686343342e-03) (247, 5.70057107196597842580e-02) (248, 4.37105637343514277782e-02) (249, 2.72553470098485899065e-02) (250, 7.22189767226211337681e-02) (251, -4.89485404718053712658e-02) (252, -1.08604560211898765187e-01) (253, 3.79311504674975652485e-02) (254, 3.69058279071761696777e-02) (255, -7.76140141367115399262e-02) (256, 7.46838618821442506990e-02) (257, -8.47485255574932649925e-02) (258, -8.84408500612184761414e-02) (259, -9.02181362975957717998e-02) (260, 6.94779511233634683443e-02) (261, -6.15810120768617713649e-02) (262, -6.83173739716794042875e-02) (263, 2.34602905788853025038e-02) (264, 8.63021908835625295442e-02) (265, 5.04833602571196776720e-02) (266, -1.02597405224938556523e-01) (267, -3.17024237914175638364e-02) (268, -1.06336357563363320677e-01) (269, -1.41868681292627515922e-02) (270, -9.56603641116235241248e-03) (271, 1.41222088511070691802e-02) (272, 1.36684757890076710729e-02) (273, 7.82935907447996765063e-02) (274, -1.08772623257666525842e-01) (275, 2.84859326956702248179e-02) (276, 6.18557670880834353788e-02) (277, 1.07567095625345273552e-02) (278, -7.31677919317828828749e-03) (279, 1.82064119104283182737e-02) (280, -5.71592917934129959856e-02) (281, -2.24721842922016926125e-02) (282, 7.69649116404829414240e-02) (283, -5.59729763235458019355e-02) (284, -7.27920122923328277720e-02) (285, 2.45921700677842122729e-02) (286, -2.35290139938509057504e-02) (287, -9.37385257271433069981e-02) (288, 4.80751867009322347846e-02) (289, -3.83465332582602885098e-04) (290, -7.69731198066804928049e-02) (291, 2.32972009645732343330e-02) (292, 4.75746329690796762590e-02) (293, -3.91244468507633696985e-02) (294, -4.71046559040729645451e-02) (295, 5.61830871910860840668e-02) (296, -7.69738911126935931861e-02) (297, -3.95836217157325490068e-02) (298, -7.52284301139992256369e-02) (299, -7.55732124848857156341e-02) (300, 5.85098375252971134031e-02) (301, 2.81657743493899208331e-02) (302, 4.62498828419625265806e-02) (303, -2.00129485020860940769e-02) (304, 1.85475551909954419760e-02) (305, 5.23107433859405154819e-02) (306, -8.30430660158199274168e-02) (307, -9.42666007745751426128e-03) (308, -2.74278607359655680897e-02) (309, 1.95490774295266310501e-02) (310, -8.47438233662129447588e-02) (311, 2.70165622895634123524e-02) (312, -1.02072398367918620865e-01) (313, -1.04682673987694097040e-01) (314, 7.73706435673763570637e-02) (315, -6.06328559718580448190e-02) (316, 2.77968545767574327920e-02) (317, -3.33720003315093466378e-02) (318, -4.98894037983363056177e-02) (319, -1.49238896745341135391e-02) (320, 7.65818748461715159692e-02) (321, -1.47745905060657992808e-02) (322, -8.30963915488836107892e-02) (323, 2.99843551686499419640e-02) (324, 6.27433508262929401367e-02) (325, -2.10181547980258544295e-02) (326, -9.57502350315209312115e-03) (327, 8.47975848928850389763e-02) (328, 5.40932003691413365587e-02) (329, 2.74638063644141415531e-02) (330, -8.79984235240957174407e-02) (331, 1.75826701991568419559e-02) (332, -3.56545197688865125873e-02) (333, 6.02863142837913729144e-02) (334, -8.91695552161789056766e-02) (335, 9.45887880853832629935e-02) (336, 2.28174100863004492012e-02) (337, -6.43976881491915426059e-02) (338, -1.51497612617613620217e-02) (339, -9.76948647374658862841e-02) (340, 5.90108396332341827994e-02) (341, 9.96085573853132746902e-03) (342, 3.13848396811972421561e-02) (343, 6.92863151501445367897e-02) (344, 2.11877385412604021808e-02) (345, 2.11458150858257094840e-02) (346, -8.44981543444102561891e-02) (347, -3.95023011143820004798e-02) (348, -1.03258132128124568982e-01) (349, -1.98591929547891517249e-02) (350, 5.00876728829107303875e-02) (351, 8.14560684893285841257e-02) (352, 7.34626218278243842130e-02) (353, 7.53311826000541417958e-02) (354, 2.79954586025542642713e-02) (355, 4.47272083723856753168e-02) (356, -3.03099646658254243126e-02) (357, -7.36521035611100299834e-02) (358, 3.39191714938810798263e-02) (359, -7.18929681565153438916e-02) (360, 6.39514321057684242966e-02) (361, 6.31562660987470964047e-02) (362, 6.27168857746275704157e-02) (363, -6.59000347312468232053e-02) (364, 3.46037642678185750067e-02) (365, 7.74297568223443616331e-02) (366, -6.54526379946644559782e-02) (367, -3.78640000292426795458e-02) (368, -6.87613451471719705488e-02) (369, 3.36115405126520550017e-02) (370, -2.55804656892118856271e-02) (371, -1.01429347343003892212e-01) (372, -4.00485267418118767724e-02) (373, -8.60966076859336487681e-02) (374, 7.72521542450589765449e-02) (375, 9.02199170953645185334e-02) (376, 4.01633206843328635638e-02) (377, -9.54332841481714960752e-02) (378, -4.20689480151121980578e-02) (379, 4.60748105631533649840e-02) (380, -5.63226689032875378615e-03) (381, -7.65999815365847325221e-02) (382, 4.25956706461421627519e-02) (383, -2.65983321712420124616e-02) (384, -8.76752194445629823294e-02) (385, -2.77863541405492381342e-02) (386, -7.24009066653783645018e-02) (387, -1.09334916782040172945e-02) (388, 1.74361369404794908089e-02) (389, 7.19871550524926601122e-02) (390, 3.08199294521969979765e-02) (391, -1.25127523651833195972e-02) (392, 4.35241490789030002762e-02) (393, -3.86513067324567409500e-03) (394, 3.15297788740089360293e-02) (395, -1.08540918702506976323e-02) (396, -1.72296411496996385027e-02) (397, 8.30009858835049768588e-02) (398, 5.76189341667116064483e-02) (399, 1.92640021488040720510e-02) (400, 2.61651281766369682436e-02) (401, -5.12081657677754542579e-02) (402, 2.08432152521919634991e-02) (403, -1.06091881861117759422e-01) (404, -2.88457010697663364385e-02) (405, 8.86988602807058969246e-03) (406, -1.10772790355086664382e-01) (407, -8.02082061611280178193e-02) (408, 2.62700175096931831664e-02) (409, -4.14229028815438909961e-02) (410, 8.43880787685541838838e-02) (411, -7.15419511362609811256e-02) (412, -1.19119185576295767010e-02) (413, 2.71244555031763881492e-02) (414, 1.03860284899875022352e-02) (415, 1.60562975317037198719e-02) (416, -8.87727319981529428006e-02) (417, 4.54709828964242959715e-02) (418, -9.61346549989368359679e-02) (419, 3.15514873750943961039e-02) (420, 2.86125539577618548392e-02) (421, 4.37179079263370212738e-02) (422, -7.04233490760554081689e-02) (423, -1.73061356036716233742e-02) (424, -4.59262240706389338052e-02) (425, 7.69250403273726568454e-02) (426, 8.44597779995076014536e-02) (427, 4.75290632736164661565e-02) (428, 6.94488975013580339679e-02) (429, 5.43818853274608757231e-02) (430, -2.51917537408092861995e-02) (431, 1.11732297591786086666e-02) (432, -8.16790241851597792477e-02) (433, -8.45472228940483266912e-02) (434, 2.12683887715934862028e-02) (435, 2.60364480338127297562e-03) (436, 4.12313288917392911648e-02) (437, 2.22001520266357638134e-02) (438, 3.14296952158550912948e-02) (439, -3.17616186466252586884e-02) (440, 9.11045071788232907473e-02) (441, 2.32592624720371968228e-02) (442, 5.81852926971730601696e-03) (443, -1.07776370924191934597e-02) (444, -3.46793288635037846857e-02) (445, -6.97431482745620584529e-02) (446, -9.83682052962237402083e-02) (447, -1.56809383014903623577e-02) (448, 8.26664322985370680907e-02) (449, -7.89692982508728019697e-02) (450, -6.97228607975381581285e-02) (451, 2.22827047109603881836e-02) (452, 7.39904875508896331393e-02) (453, -3.13047634056104404077e-02) (454, -8.47990747037540987252e-02) (455, -6.21640787040324827029e-02) (456, -4.70864940875959439581e-02) (457, -8.90912323867292799129e-02) (458, 9.82995555665556186575e-02) (459, -7.05698411151820248488e-02) (460, 6.97032415352883544246e-02) (461, -1.41259970365175194229e-02) (462, 4.20901121539985906272e-02) (463, 9.46243998795336105356e-02) (464, 3.61494084883905815106e-03) (465, -3.18329853413132426998e-02) (466, -1.47429311512346696705e-03) (467, -6.07832140940895507275e-02) (468, 8.87874481591931774549e-02) (469, -6.87460846169494488311e-02) (470, 5.27178591241128646772e-03) (471, 7.90145069313013120871e-02) (472, 5.96606805920600891113e-02) (473, -8.95561773798389249013e-02) (474, -3.28405181610946506066e-02) (475, -7.62946546651154106078e-02) (476, -5.80285351075151140110e-02) (477, -2.72258422002690757269e-02) (478, 9.81984210681541812293e-03) (479, -7.70997526452405074204e-02) (480, -3.98863504677307492002e-03) (481, 3.67125510219471623552e-02) (482, 4.40880487183396216344e-02) (483, -2.68119398477399926983e-02) (484, -9.29834206440442456731e-02) (485, 6.24974458917276209924e-02) (486, 1.66538079827915456999e-02) (487, -3.51601925488946587262e-02) (488, 6.94620236197387719290e-02) (489, 1.34817204164621087109e-02) (490, -5.59881405352802632991e-03) (491, 4.49207475007311202164e-02) (492, 9.23613425413638833295e-02) (493, -6.07320629060268402100e-02) (494, 3.83247603576224588062e-02) (495, -7.60787109331298536802e-03) (496, 3.45358735244542065443e-03) (497, -5.76743155156791489913e-02) (498, 3.45093474174301695356e-02) (499, -4.86351604508058425053e-03) (500, -2.39826680733595531958e-02) (501, -5.25306878195080650951e-02) (502, -2.57640483522650204362e-02) (503, -6.28473095621385896559e-02) (504, -4.23220845444145024605e-02) (505, 4.19740455996617384260e-02) (506, -4.41531480982154320158e-02) (507, 9.72357405632410447087e-04) (508, -8.28382885679870700768e-02) (509, 6.76084806182226938365e-02) (510, 2.15584214700981595392e-02) (511, 1.68633101583333493145e-02) (512, 7.26317864079242554026e-03) (513, -3.64337355576545493530e-02) (514, 9.46275070309638977051e-02) (515, 2.35820889906958146287e-02) (516, -8.49519720873228856295e-02) (517, 1.10013387750109437047e-02) (518, 7.97358415932572228702e-02) (519, 1.02290643928276983599e-01) (520, -7.46450859191976623386e-02) (521, -2.81782763938063091080e-02) (522, 3.71594459077857069973e-02) (523, -8.90314218081662278603e-02) (524, 1.93981060132822381858e-02) (525, -1.22014276955781323514e-02) (526, 3.24549234583344434202e-03) (527, -7.88375343178582682624e-02) (528, 3.17957081812839797985e-02) (529, -5.06947791257146354593e-02) (530, 2.16219125700333018869e-02) (531, -9.37273618467817509758e-02) (532, -1.72353346770697454793e-02) (533, 8.16519556860017259314e-02) (534, -5.57363639201295460457e-02) (535, 4.50588390231132507324e-02) (536, 2.97791648762598080979e-02) (537, 5.84977886543132548358e-03) (538, -5.83975680734876573252e-02) (539, 4.96923560260647476094e-02) (540, -2.95471089167439401879e-02) (541, 6.75728809436954847012e-02) (542, -2.74511114111988356601e-02) (543, 8.10032849337293248126e-02) (544, -7.08164452858481008324e-02) (545, -3.02659965317197965362e-02) (546, 6.78752748828359802995e-04) (547, -4.60196907527839829677e-02) (548, 7.69710142042347861269e-02) (549, -1.49603944850022069213e-02) (550, -4.14406031426498150383e-02) (551, 9.89535122915175396896e-02) (552, 5.89305080157441901756e-02) (553, -9.71061663358553789349e-02) (554, -8.23029809551954066871e-02) (555, -2.56974100920393348779e-02) (556, -8.18873196840286254883e-03) (557, 1.83240276530343866590e-02) (558, -1.84189687131236317329e-03) (559, -7.50441203929372163683e-02) (560, 6.90093113000833091597e-02) (561, -8.83565820880583968622e-02) (562, -7.20754315845653220629e-02) (563, -4.86660843810209423066e-02) (564, -9.82343174211421366060e-02) (565, -2.95904249127592333668e-02) (566, -1.00947846347344938334e-01) (567, 3.59284281949192527139e-02) (568, 7.41992699250273307632e-02) (569, -5.70258552952972383454e-02) (570, -6.21387566956767365550e-03) (571, -5.23085390932503738193e-02) (572, -9.21007369813699461325e-02) (573, 6.71205689223572377067e-02) (574, -6.62832659443727267856e-02) (575, -6.15579624497468239075e-02) (576, -6.25048993879154107800e-02) (577, 3.36478725075721740723e-02) (578, -1.18907341543073616190e-03) (579, -9.09248820451093731076e-02) (580, -8.52688318262489058919e-02) (581, 5.83719000432990769989e-02) (582, -8.98597039743985470661e-02) (583, 7.72767195146177171550e-02) (584, 6.36837900956792879459e-02) (585, -7.77192290309845074114e-02) (586, -4.39089378486588466366e-02) (587, -4.48034847478077438709e-02) (588, 5.20389584113213274352e-02) (589, 5.13845889940154759712e-02) (590, -2.67472399209119256203e-02) (591, 2.24230589931376338153e-02) (592, 6.19868222232413806916e-02) (593, 5.01061485636503795016e-03) (594, 7.18790504636260818572e-02) (595, 6.93567741859633657420e-02) (596, 8.06799680776791733328e-02) (597, 7.50507447308433883748e-02) (598, 9.03677468297203224934e-03) (599, 4.82992635259788249957e-02) (600, -8.14576472031965370668e-02) (601, -9.77557518112549261868e-02) (602, -1.03712302711810144817e-01) (603, -7.25693526551913353773e-02) (604, 6.78805282752018013248e-02) (605, -6.66768343148280429045e-02) (606, -3.25275668183686653134e-02) (607, -9.89153980613990541082e-02) (608, 6.87030938519735817627e-02) (609, 7.14588007420805942926e-02) (610, -7.92547983437386083239e-02) (611, 8.42104895901026884175e-02) (612, 3.19718818601797821755e-02) (613, -7.01012276321776178767e-02) (614, 6.46623030467232129403e-02) (615, -1.23472444892295772634e-02) (616, -4.11483821232643195986e-02) (617, -7.92388327512704437883e-02) (618, 4.21914355333477056331e-02) (619, -9.04251345726213712206e-02) (620, 7.05795567856574573851e-02) (621, -8.27520282557228231690e-02) (622, 2.38586648644516403917e-02) (623, 3.75108945395977999571e-02) (624, 1.89606509543004571328e-02) (625, 8.11127277874522031875e-03) (626, 2.52499991021098556948e-03) (627, 6.67496633051065948149e-04) (628, -2.84127683180474439884e-02) (629, -7.78260978179213941397e-02) (630, -5.38161599734218246138e-02) (631, -8.23032183446249961112e-03) (632, -8.25061526688054963641e-02) (633, -5.32203165253999146977e-02) (634, 2.07000827702006721942e-02) (635, 9.10713854495670549483e-02) (636, -1.87393942313775242747e-02) (637, 8.72695994000154406933e-02) (638, 9.60499815375649435012e-02) (639, -5.07982512117180345923e-02) (640, 5.86583159747125770789e-02) (641, -8.67633348306318524790e-02) (642, -6.67949882137807288141e-02) (643, -1.06367703452106485140e-02) (644, -5.57788688844127258926e-02) (645, -9.11427335674915156671e-02) (646, 6.93488319098213013003e-02) (647, -5.40452479964611230689e-03) (648, -8.54967501723381401169e-02) (649, -5.30342276512604272887e-03) (650, 3.80198121838923146221e-03) (651, -1.12843184199295856751e-01) (652, 4.29195161490501173041e-02) (653, -5.52075225828735707823e-02) (654, 4.47959409249984105705e-02) (655, -2.92294755271546129183e-02) (656, 2.08097342568169738075e-02) (657, -6.42568912990551799336e-02) (658, 3.24144617638489410116e-02) (659, -5.61525012702803125175e-02) (660, -2.27036717267691881550e-02) (661, -6.55233345578054293679e-02) (662, 2.36776672159348666735e-02) (663, -2.13310451847704626860e-03) (664, -2.11096435925253698984e-02) (665, -2.97366238618325257059e-02) (666, -6.78879359089811559164e-03) (667, 7.31107835543323841820e-02) (668, -5.09386247076861267691e-02) (669, -9.24709580594261677799e-03) (670, -5.62234378961035743960e-02) (671, -8.05721415608974395051e-02) (672, -2.80892590929483895387e-03) (673, -7.60228767724518451898e-03) (674, 1.64083869026158714333e-02) (675, 4.03898562705600136513e-02) (676, 7.79998832489235422588e-03) (677, 1.24927022435384928178e-02) (678, -4.94715177828413329997e-02) (679, 3.40705413260207548576e-02) (680, -6.36783567579958936777e-02) (681, 6.74346163868904113770e-02) (682, 4.26839233830712608264e-02) (683, 7.05255850159033081948e-02) (684, -9.07278125489845016505e-02) (685, -1.67809583128532419094e-02) (686, -4.78604672869827052484e-02) (687, 4.79527994766048987207e-02) (688, 4.78728174775913326022e-02) (689, -8.41654271193652825378e-02) (690, 8.46793985802004045560e-02) (691, -7.94157130517103848621e-02) (692, -4.69995837447973879852e-02) (693, 2.36206661756180064798e-03) (694, 2.82297005891032973257e-02) (695, 3.10578995654009239191e-02) (696, 6.86221279565946140622e-02) (697, -8.75369338040624112018e-02) (698, 2.25335289658164898696e-02) (699, -8.67711731976117395249e-02) (700, 4.42652170771087871692e-03) (701, 5.45759947404304973650e-02) (702, -4.80278872853014890398e-02) (703, -9.28544964236017594805e-02) (704, -5.41316308137421500768e-02) (705, 6.51936967625816460314e-02) (706, 7.12545182911702296158e-02) (707, 4.69804443879897268288e-02) (708, -2.13336361830435070064e-02) (709, -9.01950050208148446096e-02) (710, -1.49158192785728282992e-02) (711, 5.05540948095776522531e-03) (712, 8.10701877543875681909e-02) (713, -7.33419808126132555248e-02) (714, -4.64989640724247643710e-03) (715, 9.00645450385328533160e-02) (716, 3.04355436897727864298e-02) (717, 3.67172178314077377048e-02) (718, 5.54356873580159822956e-02) (719, -3.21000348428141513146e-02) (720, 6.69805909077975242250e-02) (721, 3.21808739022757459014e-02) (722, 4.64724183939545579247e-03) (723, -8.29535360308293195919e-02) (724, -4.91407039692342353931e-02) (725, -7.47520520110397934666e-02) (726, 6.96291750414530230540e-02) (727, -7.75297301214100398337e-02) (728, -4.35708286610565556640e-02) (729, -1.10889306891496803448e-02) (730, -5.27237988830656645334e-02) (731, 6.01359632548920039485e-02) (732, -3.62799270683160229867e-02) (733, -4.37163003208292186980e-03) (734, 8.07605830803518748295e-02) (735, 1.74513175100277813379e-02) (736, -2.17298854870969608555e-02) (737, 4.09427385664982226854e-02) (738, -1.26718580722808837891e-02) (739, 5.52878603339195251465e-02) (740, 4.84155158810133864900e-02) (0, 8.05200130493212290483e-02) (1, -3.10388176780430069535e-02) (2, 5.74805773536393310730e-02) (3, -8.04894892266299483152e-02) (4, 6.50718115187293028034e-02) (5, 5.37565784067042182204e-02) (6, 4.71226071941072410798e-02) (7, 1.57653658069977220535e-02) (8, 1.13243835723192930176e-02) (9, -7.10250269247760246394e-02) (10, -8.82955807443258980372e-03) (11, -4.94852349525088663906e-02) (12, 3.81082802548830257283e-02) (13, 2.61483712945488229462e-02) (14, 9.15954783336916412984e-03) (15, 7.65762452742121679794e-02) (16, 2.09559178246311638219e-03) (17, 3.74785148486588767791e-02) (18, -6.07505683264238371954e-02) (19, -9.50332266105358702823e-02) (20, 9.20950025383714537819e-02) (21, -1.08822084234063226615e-01) (22, -2.88295864982554619904e-02) (23, -5.93777306023366910348e-03) (24, 9.95884381754897907157e-02) (25, -1.05259157399425706814e-01) (26, 7.39318925547634703266e-02) (27, 5.21887317299842834473e-02) (28, -6.74333423376083374023e-03) (29, 6.80422269423004797556e-03) (30, 1.36349998920768039970e-03) (31, -2.48986160993316073264e-02) (32, 9.94674157190251484462e-02) (33, -3.48436550764913213762e-02) (34, -1.44533469747053916477e-02) (35, 6.41218112824887553902e-02) (36, -6.59526727872375845285e-02) (37, -6.22099413850153437622e-02) (38, -2.42300812643121595003e-02) (39, 4.83180189283839364722e-02) (40, -2.69503369927406311035e-02) (41, 5.72646246648764109533e-02) (42, -1.22783713431296584440e-01) (43, -8.86390495747406970128e-02) (44, 1.52256132417779958821e-03) (45, -1.02415035671255365279e-02) (46, 7.11196863668042827955e-02) (47, -1.11170355266302797737e-01) (48, -5.79296848054576749010e-02) (49, -6.97557520631056360294e-02) (50, -9.56356253113689880330e-02) (51, -6.47854537078621783852e-02) (52, -6.40452472837207131828e-02) (53, -1.88559006217111010950e-02) (54, 2.80951951773714368732e-02) (55, -6.71427457256961041088e-02) (56, -1.37453631679400108817e-02) (57, 6.07833355124271466907e-03) (58, 8.58639493590738767104e-02) (59, 7.95299529224890028312e-02) (60, -6.48557161803787474152e-02) (61, 1.65359583641694722622e-02) (62, -4.67226888499377157604e-02) (63, -7.00001439836177991038e-02) (64, -1.07761647780393057805e-01) (65, 4.98181482363040037398e-02) (66, -1.05067904540059195440e-01) (67, -6.96320276995760212291e-02) (68, -1.06055053575885835371e-01) (69, -1.78730322178403469580e-02) (70, 7.87543290085971070535e-02) (71, -2.80302780500165070465e-02) (72, -4.25795149924643248629e-02) (73, 7.92331584820302192718e-02) (74, -2.19143165222818354920e-02) (75, 5.58841382727676416753e-02) (76, -8.28637382632768301760e-03) (77, -2.67417875484198576397e-02) (78, 6.11308245883898024320e-02) (79, 4.15640898633549277230e-02) (80, 6.96506104135651222045e-04) (81, 7.63552139286567538301e-02) (82, 8.50652080346617628370e-02) (83, 4.00008548032064689681e-02) (84, -3.74918140836630262025e-02) (85, 2.26777301722552344920e-02) (86, 8.65681508449318154463e-02) (87, 5.63623296799914685895e-02) (88, -6.56479370421640118227e-02) (89, 8.22371407444621588256e-02) (90, 4.80315617905167982493e-02) (91, -1.90226864322276846553e-02) (92, 6.10451575931025315624e-03) (93, -8.59089459463332899558e-02) (94, 1.96810247336912033655e-02) (95, 6.67463425178516957248e-03) (96, 7.29482992229177479304e-02) (97, 2.95146801157749223699e-02) (98, 4.65483263972159486133e-02) (99, 7.18991469013224443474e-02) (100, -8.71540036849407923070e-02) (101, 3.75423253725587352525e-02) (102, -4.41861097267339658634e-02) (103, -2.93562965071177336962e-02) (104, 2.08676894426287340423e-02) (105, 3.71610694982539430109e-02) (106, -6.64809556172023946585e-02) (107, -7.67495084533539040361e-02) (108, -8.64617221455653423012e-02) (109, -9.46080985500716564740e-02) (110, 7.49593255544402231605e-02) (111, 2.32847424980388399696e-02) (112, 9.11088463298626027864e-02) (113, 6.11414125806474806346e-02) (114, -2.43437065861570600678e-02) (115, -3.54606253068398824535e-02) (116, -8.66918517902656726726e-03) (117, -2.94886697863516872298e-02) (118, -7.20663560371216094236e-02) (119, 3.35395027260672884406e-02) (120, -4.18331671068584501350e-02) (121, 8.74982874560686213483e-02) (122, -8.17437316689244714008e-02) (123, 6.47127011263169960031e-02) (124, -9.68565026957409064279e-02) (125, 4.12528922878486400960e-02) (126, -2.07496416520682805396e-02) (127, 7.39505529726321442219e-02) (128, -3.06700281054067755426e-02) (129, -6.60857414554886779534e-02) (130, 5.93083878131334951700e-02) (131, -1.45553164095454917043e-02) (132, 7.43992533296284896949e-02) (133, -9.40135385977319687489e-02) (134, 6.25835890613519740810e-02) (135, 7.95534484600416411972e-04) (136, 4.77074365844992673291e-02) (137, -8.94853642635730778254e-02) (138, 2.83835554370062727314e-02) (139, 6.52372152477068423249e-02) (140, -7.31084965033753642061e-02) (141, 1.47291172970620068416e-02) (142, -3.43128846602979006505e-03) (143, -8.21000881121348446978e-02) (144, -2.29275113822135639952e-02) (145, 7.46879796919228122754e-02) (146, -1.21924335143146732319e-02) (147, 7.57916812879819712379e-02) (148, -4.99094414772251124268e-02) (149, 2.27622656014874399921e-02) (150, 1.85035223945596224993e-02) (151, 2.26043886817887777763e-02) (152, 1.97889036246377547634e-02) (153, 4.38817375154358577105e-02) (154, -3.45156452894042169166e-03) (155, 3.12948757195709997836e-02) (156, -9.38589485595423163311e-03) (157, 8.71061995071799738399e-02) (158, 1.79995311914378196272e-02) (159, 6.40620247993341496162e-02) (160, -6.92789245658180230514e-02) (161, -1.66389881131519638824e-02) (162, -4.26884590276228811923e-02) (163, -8.94856897371164999866e-02) (164, 1.39237206805241478828e-04) (165, -6.74516580257811665389e-02) (166, 1.80102830554618002779e-02) (167, -4.53643690213615877194e-02) (168, -5.13550142629681724560e-02) (169, -4.43693720746946018707e-02) (170, -6.97924433373242059098e-02) (171, -2.95883157200906091178e-02) (172, 5.95708698067829792167e-02) (173, 2.02364103377329178357e-02) (174, -6.43176311263023679776e-03) (175, -5.19324237779574190976e-02) (176, 2.01410028408851140072e-03) (177, -1.05070934929295783933e-01) (178, -6.96308829873076573502e-02) (179, 5.61187106500490862082e-02) (180, 2.66601751176283666145e-02) (181, 5.19109225306261523603e-02) (182, -2.34825170505473940219e-02) (183, -4.85174983031711540282e-02) (184, -1.12369181167035116914e-03) (185, 8.00857072996521424102e-02) (186, 8.08371974999944897800e-02) (187, 8.73070158602589213581e-02) (188, 7.18358148718355737916e-02) (189, 1.68046227311603366648e-03) (190, 5.34801151109694089536e-02) (191, -9.89680137383154856501e-02) (192, 8.56113573845856956623e-02) (193, -8.30632097150574150168e-02) (194, -9.00028323439261562777e-02) (195, -1.22010872335469623684e-02) (196, -5.39873174849206591275e-02) (197, 3.25807195705678856457e-02) (198, 3.93293795762110001690e-02) (199, -4.46377926557497625715e-03) (200, 8.65839431272690529529e-02) (201, 7.31554168415286809601e-02) (202, 7.50316037391424300873e-02) (203, 6.22641732496111155459e-02) (204, 4.50742747258801521038e-03) (205, -1.44589056719179008537e-02) (206, -8.08668720284362041451e-02) (207, -8.73945307735620180445e-02) (208, -6.99351547992912558199e-03) (209, -3.93105782134328951560e-02) (210, 7.95037483403693984174e-02) (211, -6.72286875025630559222e-02) (212, -7.54742223074306023411e-02) (213, -3.01271187877621589302e-02) (214, -7.94913615233133058480e-03) (215, 3.47736198319074651941e-02) (216, -4.13729556697442629742e-02) (217, -1.10100123093516792661e-02) (218, 3.07343967593803057969e-02) (219, -6.23201252507529709912e-02) (220, -1.02039373637497474134e-01) (221, -1.40008962051838318184e-04) (222, -5.03440632075699487369e-02) (223, -1.07155948677354437293e-01) (224, 2.29250532904734342921e-02) (225, -2.97961066923485666524e-02) (226, -1.08754507203020125278e-02) (227, 7.78836847220059358410e-02) (228, -8.86238685623451094564e-02) (229, -5.91383105616355569945e-02) (230, -1.66847447422240058312e-02) (231, -8.91188167939222786185e-02) (232, -7.56553299769706921740e-02) (233, -3.16759578652893239448e-02) (234, 7.84223444499797528451e-02) (235, 4.06480563492509217038e-02) (236, 6.50461572227087198028e-02) (237, -8.85723810173608405716e-02) (238, 6.03045082113887256914e-02) (239, -3.24425159684712111074e-02) (240, -2.15435811898798922071e-02) (241, 5.16679591938932966655e-02) (242, 5.87623846733050479718e-03) (243, 1.19849854257642780830e-02) (244, -6.51745263435615090897e-02) (245, -9.04114963449463571177e-02) (246, -4.79065534843329532411e-02) (247, -2.37141675265257860505e-03) (248, 6.67704307223502754876e-03) (249, -1.03681619092962890027e-01) (250, 4.52957271035967848349e-02) (251, 1.31499676114628614998e-02) (252, 2.73078286255551590245e-03) (253, -9.67496336045244320623e-02) (254, 1.85861166655674620030e-02) (255, -6.57953924002203371924e-02) (256, -1.64345971323117331919e-02) (257, -7.97496584670889518964e-02) (258, -7.72664328324734334119e-02) (259, 4.44844578199473424801e-03) (260, -3.26275027751868409998e-02) (261, 1.96538354556110191063e-02) (262, 1.97898281002667104922e-02) (263, 1.14146513041018973604e-03) (264, -1.01898959614529646678e-01) (265, 1.32695542317224062651e-02) (266, -5.39222063328293199636e-02) (267, 7.21693860673494475000e-02) (268, 2.89697100185168920916e-02) (269, -8.27923027676019523957e-02) (270, -5.23646359878265840737e-02) (271, -8.48530955840633288600e-02) (272, 7.74811083394769256616e-02) (273, 6.36363174955378724240e-02) (274, 3.29676168527610821690e-02) (275, -7.96573508644446842686e-02) (276, 8.16704747713190015723e-02) (277, -1.01174984217369035022e-01) (278, 2.63016028487694265847e-02) (279, -1.58286913198898830137e-03) (280, -1.01925534376333309927e-01) (281, -1.65703512287292756278e-02) (282, -8.01037734393801048594e-02) (283, 9.72993850073392875510e-03) (284, -2.96277586141312047896e-03) (285, 4.86077840168452415814e-02) (286, 5.45006454693325176342e-02) (287, 8.55361980274485789177e-02) (288, 7.49957488201142274953e-02) (289, 8.69751828862715264945e-02) (290, -4.98739444819917745327e-03) (291, -4.66033291844009170402e-02) (292, 1.72491762891005991076e-02) (293, -7.63631542252030115492e-02) (294, 6.01001310860999407581e-02) (295, 3.17245218082434846107e-02) (296, 4.78483574729010041615e-02) (297, -8.29248092528739322304e-02) (298, 7.77521946211097263191e-03) (299, -1.81596939937147296151e-02) (300, -5.40196400150475541935e-02) (301, 7.10078820947074862424e-02) (302, 5.92970043141237759809e-03) (303, -7.13389129791472120790e-02) (304, 4.16244297777353874923e-02) (305, -4.99699112883338555924e-02) (306, -4.46817146842248755223e-02) (307, 3.42782981326090474550e-02) (308, -4.63044118015171965452e-02) (309, 8.76404577679834734250e-02) (310, -5.98487514102895371004e-02) (311, -3.66720764424198208964e-02) (312, -2.23922354051964977995e-02) (313, -3.88622277230711299367e-02) (314, 8.33386272713645126498e-02) (315, 8.57617548926751793736e-02) (316, -8.33846531351921799180e-02) (317, 4.88981665483487135115e-02) (318, 7.65683351111668270006e-02) (319, -9.98218299735135344841e-02) (320, 4.40597714153346114996e-02) (321, -1.64305266122771777282e-02) (322, -4.03894212684627398890e-02) (323, -3.30011946245604426142e-02) (324, 1.94465539867465474211e-02) (325, -7.25234549698524216810e-02) (326, -9.56567841316362799109e-02) (327, -3.35382070745534749401e-02) (328, -4.60067931244615008213e-02) (329, 2.24095329610205576398e-02) (330, 5.26333633579858656271e-02) (331, 9.86167864833871867306e-04) (332, 8.61601733456529160667e-04) (333, -3.98343841371490009484e-02) (334, 3.85558492307483263728e-02) (335, -4.71548655299761504400e-02) (336, 1.72943597883644904767e-02) (337, -9.83336922473339730688e-02) (338, 8.53690410364025820122e-02) (339, 7.93066833254886666138e-02) (340, -1.05580493766602709349e-01) (341, -6.79924195439723655365e-02) (342, -5.38126307633283867959e-02) (343, -1.89548203311657795234e-02) (344, 3.90541053456313312642e-03) (345, -6.23821830750882419525e-02) (346, -2.74323470819370883456e-02) (347, 2.85041091732156845473e-02) (348, 9.21674265531429448561e-02) (349, -3.82971112907690494631e-02) (350, 3.33413994823748283114e-02) (351, 4.44586228692360543868e-02) (352, 5.36513092446395251089e-02) (353, -1.01067136824535400152e-01) (354, -7.40200489940007755330e-02) (355, -1.90824270112197949545e-02) (356, -6.09380368892446788731e-02) (357, -6.12764172193159747937e-02) (358, 5.25924617593859361486e-02) (359, -3.02661590845304095260e-03) (360, 6.93153017180430791599e-02) (361, 1.86372373017892264957e-02) (362, -8.84189843404890041256e-02) (363, -2.57392375512969853735e-02) (364, 8.81048263836117090397e-02) (365, 5.47327636386877799946e-02) (366, 3.19644257844216503339e-02) (367, 1.12476114756423894309e-02) (368, 6.84396176416181833968e-02) (369, 2.85262820401133744552e-02) (370, -1.95611406520668782219e-03) (371, 7.07578716587253103709e-02) (372, 7.52763332463725343136e-02) (373, 5.01541454681953199901e-02) (374, -3.77686654314044467640e-02) (375, -1.35292285457116884251e-02) (376, -1.05948542618889932077e-01) (377, 4.52086027608543244982e-02) (378, -7.73979552978529966589e-02) (379, -1.05959186340642233515e-01) (380, -8.56310818901605541598e-02) (381, 6.92278109011167097631e-02) (382, 5.03670511988345490084e-02) (383, 7.27478488727257288637e-02) (384, 7.99541039917873036513e-02) (385, 7.76946785486396368503e-02) (386, -3.80472976808609378296e-02) (387, -7.59328203271209534186e-02) (388, -7.07546464940873864879e-02) (389, -7.61228957927258670368e-02) (390, 3.25931621374805080560e-02) (391, -9.61762872153901215988e-02) (392, 5.16667277712486230912e-02) (393, 4.82483963195464715668e-02) (394, -1.12567874062339378510e-02) (395, 4.89164495207634678065e-02) (396, 1.15490130607886470199e-02) (397, -6.53743558141021835484e-02) (398, -3.36910227746333515442e-02) (399, -1.33672713242289596669e-02) (400, 7.13286021087710664368e-02) (401, 7.72069116461321924838e-02) (402, -3.86908243387600811469e-02) (403, 5.16507497372325971585e-02) (404, 3.61889601282427281204e-02) (405, 2.95459981290979271928e-02) (406, -5.54074077588552760254e-02) (407, 3.58096456761576864558e-02) (408, -1.46331035398669338787e-02) (409, -2.03948988772967888805e-02) (410, 4.36850303953891308528e-02) (411, 7.37398696834425191465e-03) (412, -4.74027338092942868153e-02) (413, -5.75796498198383188694e-03) (414, -1.10205106716044897580e-02) (415, -5.24735107755711083222e-02) (416, -1.66386931159147460901e-02) (417, 5.92673295493058860384e-02) (418, -2.74482527301077063042e-02) (419, 1.62963679013264778339e-02) (420, -1.04675051538538677054e-01) (421, -8.45774643380736851350e-02) (422, 2.95157668238346937439e-02) (423, 5.49730040119918578201e-02) (424, 7.46758475691663842211e-02) (425, -6.88225175660689414414e-02) (426, 1.23898219780399845846e-02) (427, -5.69688606869324463272e-03) (428, -2.44320552183993448814e-02) (429, -1.08806548008839015784e-01) (430, 8.86215071948388694034e-02) (431, -3.81908076577502295090e-02) (432, 8.34686028813640956692e-02) (433, -3.41994452881654725784e-02) (434, -7.31144315566933516992e-02) (435, 3.05417539508269011983e-02) (436, -9.04219257215500837876e-02) (437, -1.84155641003052004956e-02) (438, -2.54234848768547655462e-02) (439, -2.83594144056499575246e-03) (440, 7.04789015855373374153e-02) (441, -7.06585845410005880529e-02) (442, -8.75424777305061907473e-02) (443, -6.53676219697475607839e-02) (444, 3.74581643713366649329e-02) (445, 1.38861107545009826447e-02) (446, -2.13373402991459092115e-02) (447, -7.12410398717245596512e-02) (448, -1.96257564332186495992e-02) (449, 6.60842288405791011829e-02) (450, 5.56675038704113334109e-02) (451, -1.54949426651000976562e-02) (452, 8.97380685237218200800e-02) (453, -4.25669164767417985973e-03) (454, -5.14787438443930142618e-02) (455, 7.33061905651124778860e-02) (456, 3.39917186521113204312e-02) (457, 7.15936548024733027118e-02) (458, -1.97600440683322088609e-02) (459, -8.66051952370013033988e-02) (460, 6.84213842940678274029e-02) (461, -2.38171160548398992696e-02) (462, -2.01184863401882296774e-02) (463, 5.60173121892270364786e-02) (464, 4.57010458182830342500e-02) (465, 8.24140130147808964989e-03) (466, -1.05625259031471973453e-02) (467, 5.10004421759168297124e-02) (468, 8.94116683699870962165e-02) (469, 6.58944716198801294649e-02) (470, -5.25831145845126607385e-02) (471, 5.96327201033784032314e-02) (472, 9.79557111859321594238e-02) (473, -4.03461719384616904205e-02) (474, 9.46754731736466487169e-02) (475, 3.34932169899833376281e-02) (476, 7.44905381997703619490e-02) (477, -2.41392735792621201951e-02) (478, 6.43396874373200894359e-02) (479, -4.47861562455243514269e-02) (480, -5.50940497168343756851e-02) (481, 2.01226350827693259427e-02) (482, 3.71904332254448105610e-02) (483, -6.18755108980349396997e-02) (484, -8.32797302343121353951e-02) (485, 8.89884527627258781202e-02) (486, -8.69567799448521389083e-02) (487, 5.71858192174837937083e-02) (488, 5.80679053883829468519e-02) (489, -7.68092107428348415399e-03) (490, 7.24193222623940868754e-02) (491, 3.20322565059063188442e-02) (492, 6.50501011338262269401e-02) (493, -4.81568537652492523193e-02) (494, -1.19930067331059896085e-02) (495, 1.15260016792760391913e-02) (496, 5.59976009807556657227e-02) (497, 7.83364586180236022184e-02) (498, -3.54065032579744393137e-02) (499, 4.99406582939416476830e-02) (500, 4.71267780699237692765e-02) (501, 1.56764704330012022426e-02) (502, 9.57159944746714501373e-03) (503, 4.37652433884128458375e-02) (504, 7.73636884212919456738e-02) (505, 4.81171924927749090212e-03) (506, -2.28022141602107104863e-02) (507, 5.34408786177589106847e-02) (508, 8.43575901814369449871e-02) (509, -5.72325394612949178708e-02) (510, -9.26608005868079925849e-02) (511, -6.93479387608031960788e-02) (512, 6.34585798493997182979e-02) (513, 4.48615574902004529689e-02) (514, -2.93885096907615661621e-02) (515, 9.09423579028539735836e-02) (516, 2.31777546445354892812e-02) (517, -1.34536697506427455756e-02) (518, 3.63374578810145218433e-02) (519, -4.85290287453192872857e-03) (520, 7.91509474813179986219e-02) (521, 9.55429327730233403371e-03) (522, -7.97467425032037519061e-02) (523, 3.86940848645037360765e-02) (524, 7.01526737510556747113e-02) (525, 1.93457432070150182890e-02) (526, -4.76830553205658674853e-02) (527, 2.42834805559742836212e-02) (528, -2.91094348752830552399e-03) (529, 2.36733703030489739394e-02) (530, -2.26461719137336231489e-02) (531, -5.53690189652158645806e-02) (532, -6.99161538678104155231e-02) (533, 7.38230766303711177789e-02) (534, 9.18618348232881076765e-02) (535, -8.82584750652313232422e-02) (536, -1.24875343441631092567e-02) (537, -2.99357221990685200275e-02) (538, 6.34592454358006291537e-02) (539, -2.66079149336586641417e-02) (540, 1.11739772186480595950e-02) (541, 7.37026562381243449673e-02) (542, 7.03119661169933872491e-03) (543, -2.31262425272302958590e-02) (544, 1.72758235992568481842e-02) (545, 7.76740639303861168941e-02) (546, -3.47669590957309371237e-02) (547, -4.67959872628193052080e-02) (548, -3.97227891138027325302e-02) (549, -9.28186004255466962087e-02) (550, 5.28617154508977324379e-02) (551, -6.45213926197939213747e-02) (552, 1.77566927064185253737e-02) (553, 7.95642064919256791766e-02) (554, 8.11687567551142574729e-02) (555, -1.83135621716920236890e-02) (556, -2.13363766670227050781e-03) (557, -6.74329112560545090860e-02) (558, -8.94334421100685950101e-02) (559, 9.64695386240337210415e-02) (560, 5.52431649516049866344e-02) (561, -1.94585966008397129312e-02) (562, -6.24427901331565046728e-02) (563, 8.60452300944823805784e-02) (564, -3.64718560364446914290e-02) (565, -7.27142970552122902550e-02) (566, -1.00361428886526646287e-01) (567, 5.44102522842054986407e-02) (568, -3.52711081681889157199e-03) (569, 6.38976665586687836429e-02) (570, -6.84519442801495292539e-02) (571, -8.89621651735996860078e-02) (572, 3.51148052845984270931e-02) (573, 3.63984374010566241742e-02) (574, -7.82605415924672066785e-03) (575, -4.66269846711292804131e-02) (576, 1.68510317548778119912e-02) (577, 5.72970733046531677246e-02) (578, 1.29427485735993524907e-02) (579, 7.38239701741813247882e-02) (580, 6.11987188160544384741e-02) (581, -3.36611300439371985416e-02) (582, 