FANN_FLO_2.1
num_layers=3
learning_rate=0.010000
connection_rate=1.000000
network_type=0
learning_momentum=0.300000
training_algorithm=0
train_error_function=0
train_stop_function=0
cascade_output_change_fraction=0.010000
quickprop_decay=-0.000100
quickprop_mu=1.750000
rprop_increase_factor=1.200000
rprop_decrease_factor=0.500000
rprop_delta_min=0.000000
rprop_delta_max=50.000000
rprop_delta_zero=0.100000
cascade_output_stagnation_epochs=12
cascade_candidate_change_fraction=0.010000
cascade_candidate_stagnation_epochs=12
cascade_max_out_epochs=150
cascade_max_cand_epochs=150
cascade_num_candidate_groups=2
bit_fail_limit=3.49999999999999977796e-01
cascade_candidate_limit=1.00000000000000000000e+03
cascade_weight_multiplier=4.00000000000000022204e-01
cascade_activation_functions_count=10
cascade_activation_functions=3 5 7 8 10 11 14 15 16 17 
cascade_activation_steepnesses_count=4
cascade_activation_steepnesses=2.50000000000000000000e-01 5.00000000000000000000e-01 7.50000000000000000000e-01 1.00000000000000000000e+00 
layer_sizes=831 26 3 
scale_included=0
neurons (num_inputs, activation_function, activation_steepness)=(0, 0, 0.00000000000000000000e+00) (0, 0, 0.00000000000000000000e+00) (0, 0, 0.00000000000000000000e+00) (0, 0, 0.00000000000000000000e+00) (0, 0, 0.00000000000000000000e+00) (0, 0, 0.00000000000000000000e+00) (0, 0, 0.00000000000000000000e+00) (0, 0, 0.00000000000000000000e+00) (0, 0, 0.00000000000000000000e+00) (0, 0, 0.00000000000000000000e+00) (0, 0, 0.00000000000000000000e+00) (0, 0, 0.00000000000000000000e+00) (0, 0, 0.00000000000000000000e+00) (0, 0, 0.00000000000000000000e+00) (0, 0, 0.00000000000000000000e+00) (0, 0, 0.00000000000000000000e+00) (0, 0, 0.00000000000000000000e+00) (0, 0, 0.00000000000000000000e+00) (0, 0, 0.00000000000000000000e+00) (0, 0, 0.00000000000000000000e+00) (0, 0, 0.00000000000000000000e+00) (0, 0, 0.00000000000000000000e+00) (0, 0, 0.00000000000000000000e+00) (0, 0, 0.00000000000000000000e+00) (0, 0, 0.00000000000000000000e+00) (0, 0, 0.00000000000000000000e+00) (0, 0, 0.00000000000000000000e+00) (0, 0, 0.00000000000000000000e+00) (0, 0, 0.00000000000000000000e+00) (0, 0, 0.00000000000000000000e+00) (0, 0, 0.00000000000000000000e+00) (0, 0, 0.00000000000000000000e+00) (0, 0, 0.00000000000000000000e+00) (0, 0, 0.00000000000000000000e+00) (0, 0, 0.00000000000000000000e+00) (0, 0, 0.00000000000000000000e+00) (0, 0, 0.00000000000000000000e+00) (0, 0, 0.00000000000000000000e+00) (0, 0, 0.00000000000000000000e+00) (0, 0, 0.00000000000000000000e+00) (0, 0, 0.00000000000000000000e+00) (0, 0, 0.00000000000000000000e+00) (0, 0, 0.00000000000000000000e+00) (0, 0, 0.00000000000000000000e+00) (0, 0, 0.00000000000000000000e+00) (0, 0, 0.00000000000000000000e+00) (0, 0, 0.00000000000000000000e+00) (0, 0, 0.00000000000000000000e+00) (0, 0, 0.00000000000000000000e+00) (0, 0, 0.00000000000000000000e+00) (0, 0, 0.00000000000000000000e+00) (0, 0, 0.00000000000000000000e+00) (0, 0, 0.00000000000000000000e+00) (0, 0, 0.00000000000000000000e+00) (0, 0, 0.00000000000000000000e+00) (0, 0, 0.00000000000000000000e+00) (0, 0, 0.00000000000000000000e+00) (0, 0, 0.00000000000000000000e+00) (0, 0, 0.00000000000000000000e+00) (0, 0, 0.00000000000000000000e+00) (0, 0, 0.00000000000000000000e+00) (0, 0, 0.00000000000000000000e+00) (0, 0, 0.00000000000000000000e+00) (0, 0, 0.00000000000000000000e+00) (0, 0, 0.00000000000000000000e+00) (0, 0, 0.00000000000000000000e+00) (0, 0, 0.00000000000000000000e+00) (0, 0, 0.00000000000000000000e+00) (0, 0, 0.00000000000000000000e+00) (0, 0, 0.00000000000000000000e+00) (0, 0, 0.00000000000000000000e+00) (0, 0, 0.00000000000000000000e+00) (0, 0, 0.00000000000000000000e+00) (0, 0, 0.00000000000000000000e+00) (0, 0, 0.00000000000000000000e+00) (0, 0, 0.00000000000000000000e+00) (0, 0, 0.00000000000000000000e+00) (0, 0, 0.00000000000000000000e+00) (0, 0, 0.00000000000000000000e+00) (0, 0, 0.00000000000000000000e+00) (0, 0, 0.00000000000000000000e+00) (0, 0, 0.00000000000000000000e+00) (0, 0, 0.00000000000000000000e+00) (0, 0, 0.00000000000000000000e+00) (0, 0, 0.00000000000000000000e+00) (0, 0, 0.00000000000000000000e+00) (0, 0, 0.00000000000000000000e+00) (0, 0, 0.00000000000000000000e+00) (0, 0, 0.00000000000000000000e+00) (0, 0, 0.00000000000000000000e+00) (0, 0, 0.00000000000000000000e+00) (0, 0, 0.00000000000000000000e+00) (0, 0, 0.00000000000000000000e+00) (0, 0, 0.00000000000000000000e+00) (0, 0, 0.00000000000000000000e+00) (0, 0, 0.00000000000000000000e+00) (0, 0, 0.00000000000000000000e+00) (0, 0, 0.00000000000000000000e+00) (0, 0, 0.00000000000000000000e+00) (0, 0, 0.00000000000000000000e+00) (0, 0, 0.00000000000000000000e+00) (0, 0, 0.00000000000000000000e+00) (0, 0, 0.00000000000000000000e+00) (0, 0, 0.00000000000000000000e+00) (0, 0, 0.00000000000000000000e+00) (0, 0, 0.00000000000000000000e+00) (0, 0, 0.00000000000000000000e+00) (0, 0, 0.00000000000000000000e+00) (0, 0, 0.00000000000000000000e+00) (0, 0, 0.00000000000000000000e+00) (0, 0, 0.00000000000000000000e+00) (0, 0, 0.00000000000000000000e+00) (0, 0, 0.00000000000000000000e+00) (0, 0, 0.00000000000000000000e+00) (0, 0, 0.00000000000000000000e+00) (0, 0, 0.00000000000000000000e+00) (0, 0, 0.00000000000000000000e+00) (0, 0, 0.00000000000000000000e+00) (0, 0, 0.00000000000000000000e+00) (0, 0, 0.00000000000000000000e+00) (0, 0, 0.00000000000000000000e+00) (0, 0, 0.00000000000000000000e+00) (0, 0, 0.00000000000000000000e+00) (0, 0, 0.00000000000000000000e+00) (0, 0, 0.00000000000000000000e+00) (0, 0, 0.00000000000000000000e+00) (0, 0, 0.00000000000000000000e+00) (0, 0, 0.00000000000000000000e+00) (0, 0, 0.00000000000000000000e+00) (0, 0, 0.00000000000000000000e+00) (0, 0, 0.00000000000000000000e+00) (0, 0, 0.00000000000000000000e+00) (0, 0, 0.00000000000000000000e+00) (0, 0, 0.00000000000000000000e+00) (0, 0, 0.00000000000000000000e+00) (0, 0, 0.00000000000000000000e+00) (0, 0, 0.00000000000000000000e+00) (0, 0, 0.00000000000000000000e+00) (0, 0, 0.00000000000000000000e+00) (0, 0, 0.00000000000000000000e+00) (0, 0, 0.00000000000000000000e+00) (0, 0, 0.00000000000000000000e+00) (0, 0, 0.00000000000000000000e+00) (0, 0, 0.00000000000000000000e+00) (0, 0, 0.00000000000000000000e+00) (0, 0, 0.00000000000000000000e+00) (0, 0, 0.00000000000000000000e+00) (0, 0, 0.00000000000000000000e+00) (0, 0, 0.00000000000000000000e+00) (0, 0, 0.00000000000000000000e+00) (0, 0, 0.00000000000000000000e+00) (0, 0, 0.00000000000000000000e+00) (0, 0, 0.00000000000000000000e+00) (0, 0, 0.00000000000000000000e+00) (0, 0, 0.00000000000000000000e+00) (0, 0, 0.00000000000000000000e+00) (0, 0, 0.00000000000000000000e+00) (0, 0, 0.00000000000000000000e+00) (0, 0, 0.00000000000000000000e+00) (0, 0, 0.00000000000000000000e+00) (0, 0, 0.00000000000000000000e+00) (0, 0, 0.00000000000000000000e+00) (0, 0, 0.00000000000000000000e+00) (0, 0, 0.00000000000000000000e+00) (0, 0, 0.00000000000000000000e+00) (0, 0, 0.00000000000000000000e+00) (0, 0, 0.00000000000000000000e+00) (0, 0, 0.00000000000000000000e+00) (0, 0, 0.00000000000000000000e+00) (0, 0, 0.00000000000000000000e+00) (0, 0, 0.00000000000000000000e+00) (0, 0, 0.00000000000000000000e+00) (0, 0, 0.00000000000000000000e+00) (0, 0, 0.00000000000000000000e+00) (0, 0, 0.00000000000000000000e+00) (0, 0, 0.00000000000000000000e+00) (0, 0, 0.00000000000000000000e+00) (0, 0, 0.00000000000000000000e+00) (0, 0, 0.00000000000000000000e+00) (0, 0, 0.00000000000000000000e+00) (0, 0, 0.00000000000000000000e+00) (0, 0, 0.00000000000000000000e+00) (0, 0, 0.00000000000000000000e+00) (0, 0, 0.00000000000000000000e+00) (0, 0, 0.00000000000000000000e+00) (0, 0, 0.00000000000000000000e+00) (0, 0, 0.00000000000000000000e+00) (0, 0, 0.00000000000000000000e+00) (0, 0, 0.00000000000000000000e+00) (0, 0, 0.00000000000000000000e+00) (0, 0, 0.00000000000000000000e+00) (0, 0, 0.00000000000000000000e+00) (0, 0, 0.00000000000000000000e+00) (0, 0, 0.00000000000000000000e+00) (0, 0, 0.00000000000000000000e+00) (0, 0, 0.00000000000000000000e+00) (0, 0, 0.00000000000000000000e+00) (0, 0, 0.00000000000000000000e+00) (0, 0, 0.00000000000000000000e+00) (0, 0, 0.00000000000000000000e+00) (0, 0, 0.00000000000000000000e+00) (0, 0, 0.00000000000000000000e+00) (0, 0, 0.00000000000000000000e+00) (0, 0, 0.00000000000000000000e+00) (0, 0, 0.00000000000000000000e+00) (0, 0, 0.00000000000000000000e+00) (0, 0, 0.00000000000000000000e+00) (0, 0, 0.00000000000000000000e+00) (0, 0, 0.00000000000000000000e+00) (0, 0, 0.00000000000000000000e+00) (0, 0, 0.00000000000000000000e+00) (0, 0, 0.00000000000000000000e+00) (0, 0, 0.00000000000000000000e+00) (0, 0, 0.00000000000000000000e+00) (0, 0, 0.00000000000000000000e+00) (0, 0, 0.00000000000000000000e+00) (0, 0, 0.00000000000000000000e+00) (0, 0, 0.00000000000000000000e+00) (0, 0, 0.00000000000000000000e+00) (0, 0, 0.00000000000000000000e+00) (0, 0, 0.00000000000000000000e+00) (0, 0, 0.00000000000000000000e+00) (0, 0, 0.00000000000000000000e+00) (0, 0, 0.00000000000000000000e+00) (0, 0, 0.00000000000000000000e+00) (0, 0, 0.00000000000000000000e+00) (0, 0, 0.00000000000000000000e+00) (0, 0, 0.00000000000000000000e+00) (0, 0, 0.00000000000000000000e+00) (0, 0, 0.00000000000000000000e+00) (0, 0, 0.00000000000000000000e+00) (0, 0, 0.00000000000000000000e+00) (0, 0, 0.00000000000000000000e+00) (0, 0, 0.00000000000000000000e+00) (0, 0, 0.00000000000000000000e+00) (0, 0, 0.00000000000000000000e+00) (0, 0, 0.00000000000000000000e+00) (0, 0, 0.00000000000000000000e+00) (0, 0, 0.00000000000000000000e+00) (0, 0, 0.00000000000000000000e+00) (0, 0, 0.00000000000000000000e+00) (0, 0, 0.00000000000000000000e+00) (0, 0, 0.00000000000000000000e+00) (0, 0, 0.00000000000000000000e+00) (0, 0, 0.00000000000000000000e+00) (0, 0, 0.00000000000000000000e+00) (0, 0, 0.00000000000000000000e+00) (0, 0, 0.00000000000000000000e+00) (0, 0, 0.00000000000000000000e+00) (0, 0, 0.00000000000000000000e+00) (0, 0, 0.00000000000000000000e+00) (0, 0, 0.00000000000000000000e+00) (0, 0, 0.00000000000000000000e+00) (0, 0, 0.00000000000000000000e+00) (0, 0, 0.00000000000000000000e+00) (0, 0, 0.00000000000000000000e+00) (0, 0, 0.00000000000000000000e+00) (0, 0, 0.00000000000000000000e+00) (0, 0, 0.00000000000000000000e+00) (0, 0, 0.00000000000000000000e+00) (0, 0, 0.00000000000000000000e+00) (0, 0, 0.00000000000000000000e+00) (0, 0, 0.00000000000000000000e+00) (0, 0, 0.00000000000000000000e+00) (0, 0, 0.00000000000000000000e+00) (0, 0, 0.00000000000000000000e+00) (0, 0, 0.00000000000000000000e+00) (0, 0, 0.00000000000000000000e+00) (0, 0, 0.00000000000000000000e+00) (0, 0, 0.00000000000000000000e+00) (0, 0, 0.00000000000000000000e+00) (0, 0, 0.00000000000000000000e+00) (0, 0, 0.00000000000000000000e+00) (0, 0, 0.00000000000000000000e+00) (0, 0, 0.00000000000000000000e+00) (0, 0, 0.00000000000000000000e+00) (0, 0, 0.00000000000000000000e+00) (0, 0, 0.00000000000000000000e+00) (0, 0, 0.00000000000000000000e+00) (0, 0, 0.00000000000000000000e+00) (0, 0, 0.00000000000000000000e+00) (0, 0, 0.00000000000000000000e+00) (0, 0, 0.00000000000000000000e+00) (0, 0, 0.00000000000000000000e+00) (0, 0, 0.00000000000000000000e+00) (0, 0, 0.00000000000000000000e+00) (0, 0, 0.00000000000000000000e+00) (0, 0, 0.00000000000000000000e+00) (0, 0, 0.00000000000000000000e+00) (0, 0, 0.00000000000000000000e+00) (0, 0, 0.00000000000000000000e+00) (0, 0, 0.00000000000000000000e+00) (0, 0, 0.00000000000000000000e+00) (0, 0, 0.00000000000000000000e+00) (0, 0, 0.00000000000000000000e+00) (0, 0, 0.00000000000000000000e+00) (0, 0, 0.00000000000000000000e+00) (0, 0, 0.00000000000000000000e+00) (0, 0, 0.00000000000000000000e+00) (0, 0, 0.00000000000000000000e+00) (0, 0, 0.00000000000000000000e+00) (0, 0, 0.00000000000000000000e+00) (0, 0, 0.00000000000000000000e+00) (0, 0, 0.00000000000000000000e+00) (0, 0, 0.00000000000000000000e+00) (0, 0, 0.00000000000000000000e+00) (0, 0, 0.00000000000000000000e+00) (0, 0, 0.00000000000000000000e+00) (0, 0, 0.00000000000000000000e+00) (0, 0, 0.00000000000000000000e+00) (0, 0, 0.00000000000000000000e+00) (0, 0, 0.00000000000000000000e+00) (0, 0, 0.00000000000000000000e+00) (0, 0, 0.00000000000000000000e+00) (0, 0, 0.00000000000000000000e+00) (0, 0, 0.00000000000000000000e+00) (0, 0, 0.00000000000000000000e+00) (0, 0, 0.00000000000000000000e+00) (0, 0, 0.00000000000000000000e+00) (0, 0, 0.00000000000000000000e+00) (0, 0, 0.00000000000000000000e+00) (0, 0, 0.00000000000000000000e+00) (0, 0, 0.00000000000000000000e+00) (0, 0, 0.00000000000000000000e+00) (0, 0, 0.00000000000000000000e+00) (0, 0, 0.00000000000000000000e+00) (0, 0, 0.00000000000000000000e+00) (0, 0, 0.00000000000000000000e+00) (0, 0, 0.00000000000000000000e+00) (0, 0, 0.00000000000000000000e+00) (0, 0, 0.00000000000000000000e+00) (0, 0, 0.00000000000000000000e+00) (0, 0, 0.00000000000000000000e+00) (0, 0, 0.00000000000000000000e+00) (0, 0, 0.00000000000000000000e+00) (0, 0, 0.00000000000000000000e+00) (0, 0, 0.00000000000000000000e+00) (0, 0, 0.00000000000000000000e+00) (0, 0, 0.00000000000000000000e+00) (0, 0, 0.00000000000000000000e+00) (0, 0, 0.00000000000000000000e+00) (0, 0, 0.00000000000000000000e+00) (0, 0, 0.00000000000000000000e+00) (0, 0, 0.00000000000000000000e+00) (0, 0, 0.00000000000000000000e+00) (0, 0, 0.00000000000000000000e+00) (0, 0, 0.00000000000000000000e+00) (0, 0, 0.00000000000000000000e+00) (0, 0, 0.00000000000000000000e+00) (0, 0, 0.00000000000000000000e+00) (0, 0, 0.00000000000000000000e+00) (0, 0, 0.00000000000000000000e+00) (0, 0, 0.00000000000000000000e+00) (0, 0, 0.00000000000000000000e+00) (0, 0, 0.00000000000000000000e+00) (0, 0, 0.00000000000000000000e+00) (0, 0, 0.00000000000000000000e+00) (0, 0, 0.00000000000000000000e+00) (0, 0, 0.00000000000000000000e+00) (0, 0, 0.00000000000000000000e+00) (0, 0, 0.00000000000000000000e+00) (0, 0, 0.00000000000000000000e+00) (0, 0, 0.00000000000000000000e+00) (0, 0, 0.00000000000000000000e+00) (0, 0, 0.00000000000000000000e+00) (0, 0, 0.00000000000000000000e+00) (0, 0, 0.00000000000000000000e+00) (0, 0, 0.00000000000000000000e+00) (0, 0, 0.00000000000000000000e+00) (0, 0, 0.00000000000000000000e+00) (0, 0, 0.00000000000000000000e+00) (0, 0, 0.00000000000000000000e+00) (0, 0, 0.00000000000000000000e+00) (0, 0, 0.00000000000000000000e+00) (0, 0, 0.00000000000000000000e+00) (0, 0, 0.00000000000000000000e+00) (0, 0, 0.00000000000000000000e+00) (0, 0, 0.00000000000000000000e+00) (0, 0, 0.00000000000000000000e+00) (0, 0, 0.00000000000000000000e+00) (0, 0, 0.00000000000000000000e+00) (0, 0, 0.00000000000000000000e+00) (0, 0, 0.00000000000000000000e+00) (0, 0, 0.00000000000000000000e+00) (0, 0, 0.00000000000000000000e+00) (0, 0, 0.00000000000000000000e+00) (0, 0, 0.00000000000000000000e+00) (0, 0, 0.00000000000000000000e+00) (0, 0, 0.00000000000000000000e+00) (0, 0, 0.00000000000000000000e+00) (0, 0, 0.00000000000000000000e+00) (0, 0, 0.00000000000000000000e+00) (0, 0, 0.00000000000000000000e+00) (0, 0, 0.00000000000000000000e+00) (0, 0, 0.00000000000000000000e+00) (0, 0, 0.00000000000000000000e+00) (0, 0, 0.00000000000000000000e+00) (0, 0, 0.00000000000000000000e+00) (0, 0, 0.00000000000000000000e+00) (0, 0, 0.00000000000000000000e+00) (0, 0, 0.00000000000000000000e+00) (0, 0, 0.00000000000000000000e+00) (0, 0, 0.00000000000000000000e+00) (0, 0, 0.00000000000000000000e+00) (0, 0, 0.00000000000000000000e+00) (0, 0, 0.00000000000000000000e+00) (0, 0, 0.00000000000000000000e+00) (0, 0, 0.00000000000000000000e+00) (0, 0, 0.00000000000000000000e+00) (0, 0, 0.00000000000000000000e+00) (0, 0, 0.00000000000000000000e+00) (0, 0, 0.00000000000000000000e+00) (0, 0, 0.00000000000000000000e+00) (0, 0, 0.00000000000000000000e+00) (0, 0, 0.00000000000000000000e+00) (0, 0, 0.00000000000000000000e+00) (0, 0, 0.00000000000000000000e+00) (0, 0, 0.00000000000000000000e+00) (0, 0, 0.00000000000000000000e+00) (0, 0, 0.00000000000000000000e+00) (0, 0, 0.00000000000000000000e+00) (0, 0, 0.00000000000000000000e+00) (0, 0, 0.00000000000000000000e+00) (0, 0, 0.00000000000000000000e+00) (0, 0, 0.00000000000000000000e+00) (0, 0, 0.00000000000000000000e+00) (0, 0, 0.00000000000000000000e+00) (0, 0, 0.00000000000000000000e+00) (0, 0, 0.00000000000000000000e+00) (0, 0, 0.00000000000000000000e+00) (0, 0, 0.00000000000000000000e+00) (0, 0, 0.00000000000000000000e+00) (0, 0, 0.00000000000000000000e+00) (0, 0, 0.00000000000000000000e+00) (0, 0, 0.00000000000000000000e+00) (0, 0, 0.00000000000000000000e+00) (0, 0, 0.00000000000000000000e+00) (0, 0, 0.00000000000000000000e+00) (0, 0, 0.00000000000000000000e+00) (0, 0, 0.00000000000000000000e+00) (0, 0, 0.00000000000000000000e+00) (0, 0, 0.00000000000000000000e+00) (0, 0, 0.00000000000000000000e+00) (0, 0, 0.00000000000000000000e+00) (0, 0, 0.00000000000000000000e+00) (0, 0, 0.00000000000000000000e+00) (0, 0, 0.00000000000000000000e+00) (0, 0, 0.00000000000000000000e+00) (0, 0, 0.00000000000000000000e+00) (0, 0, 0.00000000000000000000e+00) (0, 0, 0.00000000000000000000e+00) (0, 0, 0.00000000000000000000e+00) (0, 0, 0.00000000000000000000e+00) (0, 0, 0.00000000000000000000e+00) (0, 0, 0.00000000000000000000e+00) (0, 0, 0.00000000000000000000e+00) (0, 0, 0.00000000000000000000e+00) (0, 0, 0.00000000000000000000e+00) (0, 0, 0.00000000000000000000e+00) (0, 0, 0.00000000000000000000e+00) (0, 0, 0.00000000000000000000e+00) (0, 0, 0.00000000000000000000e+00) (0, 0, 0.00000000000000000000e+00) (0, 0, 0.00000000000000000000e+00) (0, 0, 0.00000000000000000000e+00) (0, 0, 0.00000000000000000000e+00) (0, 0, 0.00000000000000000000e+00) (0, 0, 0.00000000000000000000e+00) (0, 0, 0.00000000000000000000e+00) (0, 0, 0.00000000000000000000e+00) (0, 0, 0.00000000000000000000e+00) (0, 0, 0.00000000000000000000e+00) (0, 0, 0.00000000000000000000e+00) (0, 0, 0.00000000000000000000e+00) (0, 0, 0.00000000000000000000e+00) (0, 0, 0.00000000000000000000e+00) (0, 0, 0.00000000000000000000e+00) (0, 0, 0.00000000000000000000e+00) (0, 0, 0.00000000000000000000e+00) (0, 0, 0.00000000000000000000e+00) (0, 0, 0.00000000000000000000e+00) (0, 0, 0.00000000000000000000e+00) (0, 0, 0.00000000000000000000e+00) (0, 0, 0.00000000000000000000e+00) (0, 0, 0.00000000000000000000e+00) (0, 0, 0.00000000000000000000e+00) (0, 0, 0.00000000000000000000e+00) (0, 0, 0.00000000000000000000e+00) (0, 0, 0.00000000000000000000e+00) (0, 0, 0.00000000000000000000e+00) (0, 0, 0.00000000000000000000e+00) (0, 0, 0.00000000000000000000e+00) (0, 0, 0.00000000000000000000e+00) (0, 0, 0.00000000000000000000e+00) (0, 0, 0.00000000000000000000e+00) (0, 0, 0.00000000000000000000e+00) (0, 0, 0.00000000000000000000e+00) (0, 0, 0.00000000000000000000e+00) (0, 0, 0.00000000000000000000e+00) (0, 0, 0.00000000000000000000e+00) (0, 0, 0.00000000000000000000e+00) (0, 0, 0.00000000000000000000e+00) (0, 0, 0.00000000000000000000e+00) (0, 0, 0.00000000000000000000e+00) (0, 0, 0.00000000000000000000e+00) (0, 0, 0.00000000000000000000e+00) (0, 0, 0.00000000000000000000e+00) (0, 0, 0.00000000000000000000e+00) (0, 0, 0.00000000000000000000e+00) (0, 0, 0.00000000000000000000e+00) (0, 0, 0.00000000000000000000e+00) (0, 0, 0.00000000000000000000e+00) (0, 0, 0.00000000000000000000e+00) (0, 0, 0.00000000000000000000e+00) (0, 0, 0.00000000000000000000e+00) (0, 0, 0.00000000000000000000e+00) (0, 0, 0.00000000000000000000e+00) (0, 0, 0.00000000000000000000e+00) (0, 0, 0.00000000000000000000e+00) (0, 0, 0.00000000000000000000e+00) (0, 0, 0.00000000000000000000e+00) (0, 0, 0.00000000000000000000e+00) (0, 0, 0.00000000000000000000e+00) (0, 0, 0.00000000000000000000e+00) (0, 0, 0.00000000000000000000e+00) (0, 0, 0.00000000000000000000e+00) (0, 0, 0.00000000000000000000e+00) (0, 0, 0.00000000000000000000e+00) (0, 0, 0.00000000000000000000e+00) (0, 0, 0.00000000000000000000e+00) (0, 0, 0.00000000000000000000e+00) (0, 0, 0.00000000000000000000e+00) (0, 0, 0.00000000000000000000e+00) (0, 0, 0.00000000000000000000e+00) (0, 0, 0.00000000000000000000e+00) (0, 0, 0.00000000000000000000e+00) (0, 0, 0.00000000000000000000e+00) (0, 0, 0.00000000000000000000e+00) (0, 0, 0.00000000000000000000e+00) (0, 0, 0.00000000000000000000e+00) (0, 0, 0.00000000000000000000e+00) (0, 0, 0.00000000000000000000e+00) (0, 0, 0.00000000000000000000e+00) (0, 0, 0.00000000000000000000e+00) (0, 0, 0.00000000000000000000e+00) (0, 0, 0.00000000000000000000e+00) (0, 0, 0.00000000000000000000e+00) (0, 0, 0.00000000000000000000e+00) (0, 0, 0.00000000000000000000e+00) (0, 0, 0.00000000000000000000e+00) (0, 0, 0.00000000000000000000e+00) (0, 0, 0.00000000000000000000e+00) (0, 0, 0.00000000000000000000e+00) (0, 0, 0.00000000000000000000e+00) (0, 0, 0.00000000000000000000e+00) (0, 0, 0.00000000000000000000e+00) (0, 0, 0.00000000000000000000e+00) (0, 0, 0.00000000000000000000e+00) (0, 0, 0.00000000000000000000e+00) (0, 0, 0.00000000000000000000e+00) (0, 0, 0.00000000000000000000e+00) (0, 0, 0.00000000000000000000e+00) (0, 0, 0.00000000000000000000e+00) (0, 0, 0.00000000000000000000e+00) (0, 0, 0.00000000000000000000e+00) (0, 0, 0.00000000000000000000e+00) (0, 0, 0.00000000000000000000e+00) (0, 0, 0.00000000000000000000e+00) (0, 0, 0.00000000000000000000e+00) (0, 0, 0.00000000000000000000e+00) (0, 0, 0.00000000000000000000e+00) (0, 0, 0.00000000000000000000e+00) (0, 0, 0.00000000000000000000e+00) (0, 0, 0.00000000000000000000e+00) (0, 0, 0.00000000000000000000e+00) (0, 0, 0.00000000000000000000e+00) (0, 0, 0.00000000000000000000e+00) (0, 0, 0.00000000000000000000e+00) (0, 0, 0.00000000000000000000e+00) (0, 0, 0.00000000000000000000e+00) (0, 0, 0.00000000000000000000e+00) (0, 0, 0.00000000000000000000e+00) (0, 0, 0.00000000000000000000e+00) (0, 0, 0.00000000000000000000e+00) (0, 0, 0.00000000000000000000e+00) (0, 0, 0.00000000000000000000e+00) (0, 0, 0.00000000000000000000e+00) (0, 0, 0.00000000000000000000e+00) (0, 0, 0.00000000000000000000e+00) (0, 0, 0.00000000000000000000e+00) (0, 0, 0.00000000000000000000e+00) (0, 0, 0.00000000000000000000e+00) (0, 0, 0.00000000000000000000e+00) (0, 0, 0.00000000000000000000e+00) (0, 0, 0.00000000000000000000e+00) (0, 0, 0.00000000000000000000e+00) (0, 0, 0.00000000000000000000e+00) (0, 0, 0.00000000000000000000e+00) (0, 0, 0.00000000000000000000e+00) (0, 0, 0.00000000000000000000e+00) (0, 0, 0.00000000000000000000e+00) (0, 0, 0.00000000000000000000e+00) (0, 0, 0.00000000000000000000e+00) (0, 0, 0.00000000000000000000e+00) (0, 0, 0.00000000000000000000e+00) (0, 0, 0.00000000000000000000e+00) (0, 0, 0.00000000000000000000e+00) (0, 0, 0.00000000000000000000e+00) (0, 0, 0.00000000000000000000e+00) (0, 0, 0.00000000000000000000e+00) (0, 0, 0.00000000000000000000e+00) (0, 0, 0.00000000000000000000e+00) (0, 0, 0.00000000000000000000e+00) (0, 0, 0.00000000000000000000e+00) (0, 0, 0.00000000000000000000e+00) (0, 0, 0.00000000000000000000e+00) (0, 0, 0.00000000000000000000e+00) (0, 0, 0.00000000000000000000e+00) (0, 0, 0.00000000000000000000e+00) (0, 0, 0.00000000000000000000e+00) (0, 0, 0.00000000000000000000e+00) (0, 0, 0.00000000000000000000e+00) (0, 0, 0.00000000000000000000e+00) (0, 0, 0.00000000000000000000e+00) (0, 0, 0.00000000000000000000e+00) (0, 0, 0.00000000000000000000e+00) (0, 0, 0.00000000000000000000e+00) (0, 0, 0.00000000000000000000e+00) (0, 0, 0.00000000000000000000e+00) (0, 0, 0.00000000000000000000e+00) (0, 0, 0.00000000000000000000e+00) (0, 0, 0.00000000000000000000e+00) (0, 0, 0.00000000000000000000e+00) (0, 0, 0.00000000000000000000e+00) (0, 0, 0.00000000000000000000e+00) (0, 0, 0.00000000000000000000e+00) (0, 0, 0.00000000000000000000e+00) (0, 0, 0.00000000000000000000e+00) (0, 0, 0.00000000000000000000e+00) (0, 0, 0.00000000000000000000e+00) (0, 0, 0.00000000000000000000e+00) (0, 0, 0.00000000000000000000e+00) (0, 0, 0.00000000000000000000e+00) (0, 0, 0.00000000000000000000e+00) (0, 0, 0.00000000000000000000e+00) (0, 0, 0.00000000000000000000e+00) (0, 0, 0.00000000000000000000e+00) (0, 0, 0.00000000000000000000e+00) (0, 0, 0.00000000000000000000e+00) (0, 0, 0.00000000000000000000e+00) (0, 0, 0.00000000000000000000e+00) (0, 0, 0.00000000000000000000e+00) (0, 0, 0.00000000000000000000e+00) (0, 0, 0.00000000000000000000e+00) (0, 0, 0.00000000000000000000e+00) (0, 0, 0.00000000000000000000e+00) (0, 0, 0.00000000000000000000e+00) (0, 0, 0.00000000000000000000e+00) (0, 0, 0.00000000000000000000e+00) (0, 0, 0.00000000000000000000e+00) (0, 0, 0.00000000000000000000e+00) (0, 0, 0.00000000000000000000e+00) (0, 0, 0.00000000000000000000e+00) (0, 0, 0.00000000000000000000e+00) (0, 0, 0.00000000000000000000e+00) (0, 0, 0.00000000000000000000e+00) (0, 0, 0.00000000000000000000e+00) (0, 0, 0.00000000000000000000e+00) (0, 0, 0.00000000000000000000e+00) (0, 0, 0.00000000000000000000e+00) (0, 0, 0.00000000000000000000e+00) (0, 0, 0.00000000000000000000e+00) (0, 0, 0.00000000000000000000e+00) (0, 0, 0.00000000000000000000e+00) (0, 0, 0.00000000000000000000e+00) (0, 0, 0.00000000000000000000e+00) (0, 0, 0.00000000000000000000e+00) (0, 0, 0.00000000000000000000e+00) (0, 0, 0.00000000000000000000e+00) (0, 0, 0.00000000000000000000e+00) (0, 0, 0.00000000000000000000e+00) (0, 0, 0.00000000000000000000e+00) (0, 0, 0.00000000000000000000e+00) (0, 0, 0.00000000000000000000e+00) (0, 0, 0.00000000000000000000e+00) (0, 0, 0.00000000000000000000e+00) (0, 0, 0.00000000000000000000e+00) (0, 0, 0.00000000000000000000e+00) (0, 0, 0.00000000000000000000e+00) (0, 0, 0.00000000000000000000e+00) (0, 0, 0.00000000000000000000e+00) (0, 0, 0.00000000000000000000e+00) (0, 0, 0.00000000000000000000e+00) (0, 0, 0.00000000000000000000e+00) (0, 0, 0.00000000000000000000e+00) (0, 0, 0.00000000000000000000e+00) (0, 0, 0.00000000000000000000e+00) (0, 0, 0.00000000000000000000e+00) (0, 0, 0.00000000000000000000e+00) (0, 0, 0.00000000000000000000e+00) (0, 0, 0.00000000000000000000e+00) (0, 0, 0.00000000000000000000e+00) (0, 0, 0.00000000000000000000e+00) (0, 0, 0.00000000000000000000e+00) (0, 0, 0.00000000000000000000e+00) (0, 0, 0.00000000000000000000e+00) (0, 0, 0.00000000000000000000e+00) (0, 0, 0.00000000000000000000e+00) (0, 0, 0.00000000000000000000e+00) (0, 0, 0.00000000000000000000e+00) (0, 0, 0.00000000000000000000e+00) (0, 0, 0.00000000000000000000e+00) (0, 0, 0.00000000000000000000e+00) (0, 0, 0.00000000000000000000e+00) (0, 0, 0.00000000000000000000e+00) (0, 0, 0.00000000000000000000e+00) (0, 0, 0.00000000000000000000e+00) (0, 0, 0.00000000000000000000e+00) (0, 0, 0.00000000000000000000e+00) (0, 0, 0.00000000000000000000e+00) (0, 0, 0.00000000000000000000e+00) (0, 0, 0.00000000000000000000e+00) (0, 0, 0.00000000000000000000e+00) (0, 0, 0.00000000000000000000e+00) (0, 0, 0.00000000000000000000e+00) (0, 0, 0.00000000000000000000e+00) (0, 0, 0.00000000000000000000e+00) (0, 0, 0.00000000000000000000e+00) (0, 0, 0.00000000000000000000e+00) (0, 0, 0.00000000000000000000e+00) (0, 0, 0.00000000000000000000e+00) (0, 0, 0.00000000000000000000e+00) (0, 0, 0.00000000000000000000e+00) (0, 0, 0.00000000000000000000e+00) (0, 0, 0.00000000000000000000e+00) (0, 0, 0.00000000000000000000e+00) (0, 0, 0.00000000000000000000e+00) (0, 0, 0.00000000000000000000e+00) (0, 0, 0.00000000000000000000e+00) (0, 0, 0.00000000000000000000e+00) (0, 0, 0.00000000000000000000e+00) (0, 0, 0.00000000000000000000e+00) (0, 0, 0.00000000000000000000e+00) (0, 0, 0.00000000000000000000e+00) (0, 0, 0.00000000000000000000e+00) (0, 0, 0.00000000000000000000e+00) (0, 0, 0.00000000000000000000e+00) (0, 0, 0.00000000000000000000e+00) (0, 0, 0.00000000000000000000e+00) (0, 0, 0.00000000000000000000e+00) (0, 0, 0.00000000000000000000e+00) (0, 0, 0.00000000000000000000e+00) (0, 0, 0.00000000000000000000e+00) (0, 0, 0.00000000000000000000e+00) (0, 0, 0.00000000000000000000e+00) (0, 0, 0.00000000000000000000e+00) (0, 0, 0.00000000000000000000e+00) (0, 0, 0.00000000000000000000e+00) (0, 0, 0.00000000000000000000e+00) (0, 0, 0.00000000000000000000e+00) (0, 0, 0.00000000000000000000e+00) (0, 0, 0.00000000000000000000e+00) (0, 0, 0.00000000000000000000e+00) (0, 0, 0.00000000000000000000e+00) (0, 0, 0.00000000000000000000e+00) (0, 0, 0.00000000000000000000e+00) (0, 0, 0.00000000000000000000e+00) (0, 0, 0.00000000000000000000e+00) (0, 0, 0.00000000000000000000e+00) (0, 0, 0.00000000000000000000e+00) (0, 0, 0.00000000000000000000e+00) (0, 0, 0.00000000000000000000e+00) (0, 0, 0.00000000000000000000e+00) (0, 0, 0.00000000000000000000e+00) (0, 0, 0.00000000000000000000e+00) (0, 0, 0.00000000000000000000e+00) (0, 0, 0.00000000000000000000e+00) (0, 0, 0.00000000000000000000e+00) (0, 0, 0.00000000000000000000e+00) (0, 0, 0.00000000000000000000e+00) (0, 0, 0.00000000000000000000e+00) (0, 0, 0.00000000000000000000e+00) (0, 0, 0.00000000000000000000e+00) (0, 0, 0.00000000000000000000e+00) (0, 0, 0.00000000000000000000e+00) (0, 0, 0.00000000000000000000e+00) (0, 0, 0.00000000000000000000e+00) (0, 0, 0.00000000000000000000e+00) (0, 0, 0.00000000000000000000e+00) (0, 0, 0.00000000000000000000e+00) (0, 0, 0.00000000000000000000e+00) (0, 0, 0.00000000000000000000e+00) (0, 0, 0.00000000000000000000e+00) (0, 0, 0.00000000000000000000e+00) (0, 0, 0.00000000000000000000e+00) (0, 0, 0.00000000000000000000e+00) (0, 0, 0.00000000000000000000e+00) (0, 0, 0.00000000000000000000e+00) (0, 0, 0.00000000000000000000e+00) (0, 0, 0.00000000000000000000e+00) (0, 0, 0.00000000000000000000e+00) (0, 0, 0.00000000000000000000e+00) (0, 0, 0.00000000000000000000e+00) (0, 0, 0.00000000000000000000e+00) (0, 0, 0.00000000000000000000e+00) (0, 0, 0.00000000000000000000e+00) (0, 0, 0.00000000000000000000e+00) (0, 0, 0.00000000000000000000e+00) (0, 0, 0.00000000000000000000e+00) (0, 0, 0.00000000000000000000e+00) (0, 0, 0.00000000000000000000e+00) (0, 0, 0.00000000000000000000e+00) (0, 0, 0.00000000000000000000e+00) (0, 0, 0.00000000000000000000e+00) (0, 0, 0.00000000000000000000e+00) (0, 0, 0.00000000000000000000e+00) (0, 0, 0.00000000000000000000e+00) (0, 0, 0.00000000000000000000e+00) (0, 0, 0.00000000000000000000e+00) (0, 0, 0.00000000000000000000e+00) (0, 0, 0.00000000000000000000e+00) (0, 0, 0.00000000000000000000e+00) (0, 0, 0.00000000000000000000e+00) (0, 0, 0.00000000000000000000e+00) (0, 0, 0.00000000000000000000e+00) (0, 0, 0.00000000000000000000e+00) (0, 0, 0.00000000000000000000e+00) (0, 0, 0.00000000000000000000e+00) (0, 0, 0.00000000000000000000e+00) (0, 0, 0.00000000000000000000e+00) (0, 0, 0.00000000000000000000e+00) (831, 3, 5.00000000000000000000e-01) (831, 3, 5.00000000000000000000e-01) (831, 3, 5.00000000000000000000e-01) (831, 3, 5.00000000000000000000e-01) (831, 3, 5.00000000000000000000e-01) (831, 3, 5.00000000000000000000e-01) (831, 3, 5.00000000000000000000e-01) (831, 3, 5.00000000000000000000e-01) (831, 3, 5.00000000000000000000e-01) (831, 3, 5.00000000000000000000e-01) (831, 3, 5.00000000000000000000e-01) (831, 3, 5.00000000000000000000e-01) (831, 3, 5.00000000000000000000e-01) (831, 3, 5.00000000000000000000e-01) (831, 3, 5.00000000000000000000e-01) (831, 3, 5.00000000000000000000e-01) (831, 3, 5.00000000000000000000e-01) (831, 3, 5.00000000000000000000e-01) (831, 3, 5.00000000000000000000e-01) (831, 3, 5.00000000000000000000e-01) (831, 3, 5.00000000000000000000e-01) (831, 3, 5.00000000000000000000e-01) (831, 3, 5.00000000000000000000e-01) (831, 3, 5.00000000000000000000e-01) (831, 3, 5.00000000000000000000e-01) (0, 3, 0.00000000000000000000e+00) (26, 3, 5.00000000000000000000e-01) (26, 3, 5.00000000000000000000e-01) (0, 3, 0.00000000000000000000e+00) 
connections (connected_to_neuron, weight)=(0, -7.85071852812865428328e-02) (1, -4.81167777649949782864e-03) (2, -2.62243248674018276934e-02) (3, -9.08939453872772001874e-02) (4, 9.31820856807892700102e-02) (5, 4.34044762462034230954e-03) (6, -5.39147437751196639821e-02) (7, -4.33434306439627568819e-03) (8, -5.77232112588031698319e-02) (9, 8.53774689809304876409e-02) (10, 8.68197923633038659563e-02) (11, 1.49602542111019701926e-02) (12, -2.24813897399474306449e-02) (13, -4.54835349105021796712e-02) (14, -7.44674507995297663143e-02) (15, -2.57129142787664646819e-02) (16, -2.00053556272254906773e-04) (17, 6.64185936709748153683e-02) (18, 6.48387204673991079940e-02) (19, -4.17771016419674970366e-02) (20, 5.51754294022577113088e-02) (21, -5.06769659556796647770e-02) (22, -1.20755842865684623333e-01) (23, 2.94478984334283246105e-02) (24, -3.92333905026105503322e-02) (25, 6.21059622332281319190e-02) (26, -4.00051615891777595513e-02) (27, -3.82952578365802764893e-02) (28, 5.26564791798591613770e-02) (29, 2.01202972717617716014e-02) (30, 1.07961454034722625916e-01) (31, -4.47027521654516091232e-02) (32, -7.37168646949421385584e-02) (33, -3.76946050386996606152e-02) (34, -8.17235876538753430731e-02) (35, -1.95808562342960429392e-01) (36, 1.92577228415422158081e-02) (37, -1.59556585917222104598e-01) (38, 6.73263841828937864564e-02) (39, 4.85540914869004927579e-02) (40, -5.47981821000576019287e-02) (41, -5.94482164440740257216e-02) (42, 7.54284812702886581226e-02) (43, -6.47461558707050494066e-02) (44, -1.13111910898437167949e-01) (45, -5.56062087925433337632e-02) (46, 8.72330851707110582760e-02) (47, -6.41926617300460217175e-02) (48, -6.13990857268792364354e-02) (49, -1.47364390557100766177e-01) (50, 5.29020214432032453988e-02) (51, -1.49016642486291150949e-01) (52, 4.55722171247181350590e-03) (53, 1.20148309510592840588e-01) (54, 6.51130282695612655486e-02) (55, 5.87088295895288048154e-02) (56, 9.94881368987121650349e-02) (57, 2.80877634646613423552e-02) (58, 1.47166627068118033295e-01) (59, 7.14306496648639543956e-02) (60, 3.42572496833487144530e-02) (61, -4.17797635417673646208e-02) (62, -2.42710484484352471968e-02) (63, 5.12009641024481210181e-02) (64, 5.68001289445227638963e-02) (65, 4.90835348416663527771e-02) (66, -3.15299881301618883239e-03) (67, -1.12507622640442173090e-01) (68, 6.55213761415882334216e-02) (69, -3.81967832691729597405e-02) (70, -1.15118109879291982689e-01) (71, -3.03296637444583176701e-02) (72, 8.38475452459489928314e-02) (73, -4.43664739381803285845e-02) (74, 1.12039344368226309601e-01) (75, 1.55943432774901552529e-01) (76, 6.64381373847999084914e-02) (77, 7.48318953359667499159e-02) (78, 7.31902364927464743616e-02) (79, 1.06275933267268196669e-01) (80, -1.13647145484803285820e-01) (81, -7.43813708049456401294e-02) (82, 1.40296815921676754080e-01) (83, 1.17332302643495187122e-02) (84, -5.11460636682102703920e-02) (85, 5.36922747828410141385e-03) (86, 1.03373758559839407090e-01) (87, -1.04024926580948376409e-01) (88, -3.60110895771962730150e-02) (89, -2.07796548077262797916e-02) (90, 6.76747176804155387009e-02) (91, 1.47438582389076422441e-01) (92, 3.60158712433798836039e-02) (93, -5.49353547730714510816e-03) (94, 6.52040280584046810786e-02) (95, -3.43528168047640830585e-02) (96, 9.81860314596576522206e-02) (97, -1.14274167115938352079e-01) (98, 1.22017077528247086526e-01) (99, 9.11125858747223876799e-02) (100, -5.42391265269288463946e-02) (101, -3.27768218904854607976e-02) (102, 1.33583546655003854164e-01) (103, -5.53764334519422224412e-02) (104, 1.12340690495547013139e-01) (105, 7.87415618029245895082e-02) (106, -8.55529894407433266768e-02) (107, 4.87315027238287221123e-02) (108, -6.49647377239117862491e-02) (109, -2.43522016052030235156e-02) (110, -3.50118739011412508089e-02) (111, -9.99057275590738286253e-02) (112, 1.17040354475109853460e-01) (113, -7.93475235583533250461e-02) (114, -1.90235523526158245566e-02) (115, -1.43560885237748847576e-01) (116, -1.12037787085560780476e-01) (117, -3.79455252344992497934e-03) (118, -8.49727511334913837571e-02) (119, 3.83496023728496521904e-03) (120, 1.42856000793708630414e-02) (121, -1.13316762286209335442e-02) (122, -1.13060808015047017938e-01) (123, 7.68587317215344428822e-02) (124, -1.31338441998662906057e-02) (125, -1.34522362780173321273e-01) (126, -6.06431104894264300098e-02) (127, -1.48566887799248120716e-01) (128, -9.76003050681468198313e-02) (129, 5.21092478558550509238e-02) (130, 2.68608665967631672633e-02) (131, 9.61086304570425709048e-02) (132, -3.98490801417376340476e-03) (133, 2.01379346884560557485e-02) (134, -7.60189062452371611123e-02) (135, -1.81132568818840565539e-02) (136, -1.32675992477797894536e-02) (137, -5.78983354323574436751e-02) (138, -4.81399261921163813815e-03) (139, -2.51981017879502645906e-02) (140, -4.25945865326631603609e-02) (141, -5.44255540843888649394e-02) (142, 7.26188398949403485227e-02) (143, 1.64336911947455921457e-01) (144, -6.37778843550327045886e-02) (145, 1.30024830434857879835e-01) (146, 1.13072395102174719228e-01) (147, -1.37324942045428527448e-02) (148, 7.61250724750244401468e-03) (149, -1.10082125661478069656e-01) (150, -1.72422587503331642411e-01) (151, 5.65573532487852817519e-02) (152, 1.59855413561803300082e-01) (153, 4.31325650462293513909e-03) (154, 1.36638282181706007673e-02) (155, 7.98966071131181694749e-04) (156, 9.76244144678065361997e-02) (157, 2.95952477638488677114e-02) (158, -4.09382402863425580442e-03) (159, 3.94715944448793612520e-02) (160, -9.87474498197252470444e-02) (161, -1.03841658362791730563e-01) (162, -9.49254072256896785920e-02) (163, 1.24996800824312942479e-01) (164, -9.07422487893103507650e-02) (165, -7.43331202367173982104e-02) (166, -1.20172210576609109212e-01) (167, -7.13364926738765670056e-02) (168, 3.31554453486507874627e-02) (169, 7.50294670913062653611e-03) (170, 1.09092286700337871147e-02) (171, 8.93819228957202921437e-02) (172, 6.93370053448766759940e-02) (173, -2.93966178239806995298e-02) (174, -3.96103737566587468799e-02) (175, 1.76517977964315370132e-01) (176, -5.28548019240559288634e-02) (177, -9.58968919128224822623e-02) (178, -3.37249697002044435123e-02) (179, 7.15300701024993140081e-03) (180, -1.74523433706004547743e-03) (181, -7.01729453352366999708e-02) (182, -7.87838811715007789060e-03) (183, 6.15100323722105324364e-02) (184, 7.95257157236656936350e-02) (185, -5.78731724217106391350e-02) (186, 5.67541478712065283752e-02) (187, 4.33666193690580292763e-02) (188, 2.48715352700832198485e-02) (189, -1.02638376882615761643e-01) (190, 5.17989903083383926297e-02) (191, -7.27159393682511312473e-02) (192, -8.17083625278188820096e-03) (193, -7.47142103570427873471e-02) (194, 7.54996743430201705527e-02) (195, -3.41357201152536482436e-02) (196, -4.01403735683694262021e-03) (197, -1.00830167057371494765e-01) (198, 1.01237085396324713593e-01) (199, -8.53958191461613030926e-02) (200, -8.36609981060293106392e-02) (201, 3.61400759454235387391e-02) (202, 8.15534966450033732555e-02) (203, 3.59943774293712062673e-02) (204, -7.57272408387787282491e-02) (205, 3.40494411535554805659e-02) (206, 7.34981280377436096973e-02) (207, 2.73914649684584253497e-02) (208, -5.76694978070177929896e-02) (209, -8.23026087486067869925e-02) (210, -8.61202709747512784588e-02) (211, 4.85862946361766481762e-02) (212, -2.13914277263702601317e-02) (213, 7.60606977967751424208e-02) (214, -3.38319006743448350005e-02) (215, 4.14705620770838001565e-02) (216, -1.27245281387087821878e-01) (217, 7.29863499432610030038e-02) (218, -1.77830629527750139207e-02) (219, 7.77452173564399107164e-02) (220, 1.95231423662578507106e-02) (221, -1.70302675324965763215e-02) (222, 1.18512904908865346343e-01) (223, -1.01436961515488782704e-01) (224, -3.00717514628668219911e-02) (225, 2.60914023952970794418e-02) (226, 5.03154096060590763639e-02) (227, 5.38574913683237538331e-02) (228, 6.86571231364725420576e-02) (229, 5.91406731676800013348e-03) (230, 3.34380147555710244278e-02) (231, -1.59692274675470348433e-02) (232, 7.50733181946141026053e-02) (233, 9.08540369834812261418e-02) (234, -4.60800355157180013821e-02) (235, -7.45068792918459343877e-02) (236, -1.17012988541995068686e-02) (237, -1.11854945386798340645e-01) (238, 3.38826794358569188814e-02) (239, 1.83909164313067509389e-02) (240, -1.67979592285997826606e-02) (241, 4.51704312038963551323e-02) (242, 1.59411179565913559142e-02) (243, 6.14198195343793121315e-02) (244, 8.41431308823689383392e-02) (245, -1.24578471833290405080e-02) (246, -3.56530937242381801289e-02) (247, 3.46578326659409338695e-02) (248, -2.62284860856772696069e-02) (249, 8.70013921563406039672e-02) (250, -1.61577397781531122145e-02) (251, -8.27176374828192534361e-02) (252, -6.77100145233223722069e-03) (253, 7.06825301052872723151e-03) (254, 1.07643040543780165591e-02) (255, -2.05911485699983862543e-03) (256, -2.86930387539324448232e-02) (257, 3.55965602234201913823e-02) (258, -9.29903048391774872394e-02) (259, 2.35370987750624788282e-02) (260, -1.47357496890586376487e-02) (261, -6.59180095748839178782e-02) (262, 4.00164013285916192464e-02) (263, -2.54089119717505439178e-02) (264, -1.31900425115096420203e-01) (265, -2.72694132208106225501e-02) (266, -9.52465231245688305484e-03) (267, 3.57293227632587903631e-02) (268, 8.32469720627622769560e-03) (269, -1.66026162135257081276e-02) (270, -4.47502269865760679557e-02) (271, -5.74249076825673401836e-02) (272, -4.23806981805005811292e-02) (273, 2.15999458132688192114e-02) (274, -6.61484104676478140705e-02) (275, -9.67656714719739990960e-02) (276, -2.37949751618671719033e-02) (277, 2.13680180846145297002e-02) (278, 5.62823903925972479634e-02) (279, 6.44416676446754738139e-02) (280, -1.49620029194797981437e-02) (281, -7.44521996287313830853e-02) (282, 8.54495982372870943600e-02) (283, 5.95720440973843690102e-02) (284, 5.67554463856229235441e-02) (285, -2.86019782449553582049e-02) (286, -1.19961023965343069331e-02) (287, -5.09676675587092606334e-02) (288, -1.71912639051854010570e-03) (289, -8.55463045890743171984e-03) (290, 1.49744157385746055888e-02) (291, -9.50649460828420500569e-02) (292, 5.11041226933700368229e-02) (293, -4.48702691603709083457e-02) (294, -1.93825292158646168839e-02) (295, -1.00381112488445486952e-01) (296, 6.39746721736567380834e-02) (297, -6.06914259767550798297e-02) (298, 7.75462670026729611328e-02) (299, -7.42872105294891727813e-04) (300, -2.19536469795974346908e-02) (301, -1.03897478429457595928e-01) (302, 5.25126304502215521253e-02) (303, 5.11602080929378713603e-02) (304, 5.87737440581989137312e-02) (305, 8.52256858202993239360e-03) (306, 6.90646820395374866353e-02) (307, -4.50637282744783262967e-02) (308, -8.63851730099403913865e-02) (309, 8.62348057125506411991e-02) (310, 4.17018953526341676352e-02) (311, 1.44458886868731262165e-01) (312, -9.20028034691875440387e-02) (313, 7.59615424945677547575e-02) (314, -7.23050605814203658367e-03) (315, 1.04599863901405965017e-01) (316, -4.21827952665174560343e-02) (317, 6.69759566951237533816e-02) (318, -6.12693313745366410772e-02) (319, 7.03514262078845931114e-02) (320, -4.78457962684658288932e-02) (321, 5.13847381315342827124e-02) (322, 8.25725883279108396895e-02) (323, -4.88139116020141969332e-02) (324, -1.15511027843966385120e-01) (325, -2.85692058138861636196e-02) (326, -5.65395452786804850187e-02) (327, 6.14118040457912114927e-02) (328, -3.12056460176437962251e-02) (329, 6.99651442741923978996e-02) (330, -3.41694434486482651048e-02) (331, 3.15018553251662225545e-02) (332, -4.68493433377106874294e-02) (333, -1.51841316897441402922e-02) (334, 4.55496467488064119000e-02) (335, 2.85301883955771662382e-02) (336, 5.84195860177632031451e-02) (337, -2.70403065163079409094e-02) (338, 4.29737731368468947601e-02) (339, -1.33067002515488586045e-01) (340, -5.48761223893009450481e-02) (341, -7.39759716935572547714e-02) (342, 4.10883701862172767694e-02) (343, -6.29848960429421622642e-02) (344, -1.06927771786749836735e-01) (345, -4.74877279474184912922e-02) (346, -8.75864489311859589771e-02) (347, -1.79187186706356860189e-02) (348, 1.10941869393321720927e-01) (349, 3.00381003342115593391e-02) (350, -3.15175638098267527076e-02) (351, -1.73415976039045251732e-03) (352, 2.57215098097971911484e-02) (353, -2.31708932031099087978e-03) (354, 2.39944304433540415988e-02) (355, 5.34371467700879357321e-02) (356, 2.16732547384517505729e-02) (357, 2.86354596361664166804e-03) (358, 7.88275909637013993958e-02) (359, -1.45951514724660197375e-01) (360, 6.19292154915372164425e-02) (361, 8.48203574849785701950e-02) (362, 3.41458104083727995159e-02) (363, 9.74253059450587780010e-03) (364, 1.39762285661387153368e-01) (365, -9.05197811917324846043e-02) (366, 3.89318222251713655369e-02) (367, 9.36692346489063631942e-02) (368, -7.00370306750740384549e-02) (369, 1.07901482252473590595e-01) (370, 1.03581445924296022820e-01) (371, -1.15025835180984567496e-02) (372, -4.65153754096683733077e-02) (373, -7.93368847367108102897e-03) (374, 9.62247670406224248074e-02) (375, -1.59213921792007911948e-01) (376, 6.22156162462515413547e-02) (377, 5.67618417405193961822e-02) (378, 9.66589577959232337800e-02) (379, -1.44749067788363661169e-02) (380, 6.44873918350640906033e-03) (381, -1.42187911671183581097e-01) (382, -1.21620176986526370988e-01) (383, 2.69530171008311482395e-02) (384, -4.20114269011145069488e-02) (385, -2.71279509066757115732e-02) (386, -2.52414726033665035021e-02) (387, 5.98503137399569798416e-02) (388, 1.96730667354617482639e-03) (389, 1.20827938178218574627e-01) (390, 8.75975195354421337646e-02) (391, -1.34040944569019992993e-01) (392, 5.15189338002386421067e-02) (393, -4.08888752840775703684e-03) (394, 9.83655209848171702136e-02) (395, -9.17129234098562895472e-02) (396, -1.72338118133303408452e-01) (397, 3.75524120078267950595e-02) (398, 6.02482542511284524522e-02) (399, -6.75156441606509227782e-02) (400, -9.33630705586126208306e-03) (401, -1.40088560193589006797e-01) (402, -6.95420185205889995750e-02) (403, -2.39215405924688394312e-02) (404, 1.84312779696835654653e-02) (405, -8.93723483973588306295e-02) (406, 1.17948709958990739788e-02) (407, -2.51115831958291894910e-02) (408, 2.03636160575179393784e-02) (409, 1.31792402115545013996e-02) (410, -3.27500755956640077216e-02) (411, -1.53931452209541519416e-01) (412, 5.13929862389109828880e-02) (413, 2.79922122629281608375e-02) (414, 1.03960868536562570097e-01) (415, -2.01961780643687610626e-01) (416, -6.46224068288166197949e-03) (417, -6.76776427117143086765e-02) (418, 1.49552964291107814976e-01) (419, 9.53713269704119519406e-04) (420, 4.10176877469861644876e-03) (421, 5.96007524067725391603e-02) (422, 2.23291120919759285279e-02) (423, 1.63140234110949224056e-02) (424, -9.07150173376329166386e-02) (425, 8.96319908927819819500e-02) (426, 8.90867862655108505576e-02) (427, 6.35158441614110252926e-02) (428, 1.30087908846446484445e-02) (429, -4.29881246776431247270e-03) (430, 5.39701278904925006025e-03) (431, -1.86531689944975723194e-02) (432, 9.79791373057775638600e-02) (433, 2.62936538300135753954e-02) (434, -2.42724891760512234695e-02) (435, -5.95977104942542607047e-02) (436, 4.72508417564618879436e-02) (437, -7.46925578389402433643e-02) (438, 1.29612565521642526811e-02) (439, -8.23853505281600256849e-02) (440, 6.38557128470143842147e-02) (441, 6.72060222308993593376e-02) (442, -4.94027695046438328208e-02) (443, 2.60096933884566804129e-02) (444, 2.38074353785734625644e-02) (445, -1.20525673007475075948e-01) (446, 5.11394373846169036923e-02) (447, 5.63070211525828479004e-02) (448, 6.13714288101921551233e-02) (449, -4.16048610216090616887e-02) (450, 3.24861049860841674675e-02) (451, -6.32124090178336345280e-02) (452, -7.81434117174797659988e-02) (453, -2.36010127588926928166e-02) (454, -6.93952098288719565478e-02) (455, 6.77405108709565467739e-02) (456, -9.44296905570686795350e-02) (457, -4.33137188099525713425e-02) (458, 1.39416428886278004340e-01) (459, 8.36317286088633787822e-02) (460, 1.09148999977370625425e-01) (461, -7.01894513730555030806e-02) (462, -1.30734175753346920645e-01) (463, 3.50590190727723752251e-02) (464, -6.34264785855235581347e-03) (465, -6.05074363943567164990e-04) (466, 1.55316428589398307369e-02) (467, -2.42509939989288964002e-02) (468, -9.61232239845746516682e-02) (469, 1.17613358719070040803e-01) (470, -1.38655692418895130913e-02) (471, -6.49176200472748460291e-02) (472, 7.96815163405089899040e-02) (473, 1.29783296835323108676e-01) (474, 6.07576326692122956064e-02) (475, 3.18697546981989293657e-02) (476, -7.72690088966379307056e-02) (477, -1.33656529375751009781e-01) (478, 8.37238587312591833745e-03) (479, 1.53427061228928629522e-01) (480, -4.64452891187669761330e-02) (481, 9.12022213870298803506e-02) (482, -1.10118292145581109232e-01) (483, 4.04912165892376205156e-02) (484, -3.03761762972460241938e-02) (485, 2.34551677150389784043e-02) (486, 5.16290687148236171478e-02) (487, -3.71307650852270645925e-02) (488, 1.24780547907760386295e-01) (489, 3.41278240107424982175e-02) (490, -3.46462729044633571673e-02) (491, 3.72441187500953674316e-02) (492, 1.43804562952881076487e-01) (493, 5.29672413782997508758e-02) (494, -9.56278921629224870626e-02) (495, 1.27744039404394040156e-03) (496, -9.59336994800964390495e-03) (497, 8.09411254090732501520e-02) (498, 7.53333914289740051717e-03) (499, 9.33638764369108392627e-02) (500, 6.66696783770801826297e-02) (501, -3.29133051347697616618e-02) (502, 8.10752105165056385916e-02) (503, 4.07371865052191597933e-02) (504, -1.07457091789221692579e-01) (505, 1.50628060897663174078e-02) (506, -1.51394304777644983506e-01) (507, -2.52588895261868333353e-02) (508, 3.00229919696660893513e-02) (509, -1.40673416752983143629e-02) (510, -4.66435876348971351080e-02) (511, 4.01522093187626494259e-02) (512, -3.30646038055419921875e-02) (513, 1.04794304060619444807e-01) (514, 2.05014248837351552301e-02) (515, 6.28521770231475623847e-02) (516, 6.78264163275149045695e-02) (517, -7.48361606992236638725e-02) (518, -1.01169334121005191629e-01) (519, 2.56189744520164165709e-03) (520, -1.62988671605212270821e-01) (521, 3.48314513399821390482e-02) (522, -7.42078718032360973300e-02) (523, -2.43400007943780000153e-01) (524, -2.25716132492662473197e-02) (525, 5.83699163611469742929e-02) (526, -5.90060353994962486640e-03) (527, 4.59360383310940881274e-02) (528, 2.34583934259888493568e-02) (529, -2.54201316870970583928e-02) (530, 4.75411297975506658142e-03) (531, 5.04121236892858398670e-02) (532, 2.48219004877416465904e-02) (533, -4.08473722636699676514e-02) (534, -1.51764561957722421415e-01) (535, 2.09071283027922300013e-01) (536, 5.08604431216991455245e-03) (537, 2.61507013619502910740e-02) (538, 3.81645662120140907736e-02) (539, -5.56422863734882394704e-02) (540, 6.89145028611291010634e-02) (541, 1.18218257749985775074e-01) (542, -4.96167731952612805352e-03) (543, -2.11186859315306063589e-01) (544, 2.77476328767690960664e-03) (545, 1.17192098315709161693e-01) (546, -9.64060894333740141249e-03) (547, 2.90559647847130108136e-03) (548, -1.63468531108100556537e-01) (549, -1.49762266301262606666e-02) (550, 8.07917061166541355943e-02) (551, 2.18242411133014596603e-02) (552, 1.50999895997966787631e-01) (553, -2.01690821277155304947e-02) (554, -6.68046623468399047852e-03) (555, -2.44664432538354049973e-02) (556, -1.36492892735587151298e-01) (557, 1.24306083795947902582e-01) (558, -7.89680866418188964762e-02) (559, 6.39832144515543183028e-03) (560, -2.16235951389414336743e-02) (561, -8.19551167077890163615e-02) (562, 1.05380807340342427803e-01) (563, 5.92534221370008620799e-02) (564, 1.65352959839538925235e-02) (565, 7.53005018230527567447e-02) (566, -7.09513845710121795335e-03) (567, 8.13621145195067840827e-02) (568, -3.49426118405470123585e-02) (569, -4.27756264862044974229e-02) (570, 2.04866462507701657669e-02) (571, 1.11091688306673319619e-01) (572, 1.02913864692066401446e-02) (573, -3.33242451110678378212e-02) (574, -1.37946435872764394670e-01) (575, -6.53768032789230346680e-02) (576, 3.94879533534336565892e-02) (577, -6.19826520776544168112e-03) (578, -2.55176328435762385383e-02) (579, -1.02464620421309840492e-01) (580, 2.81844318178392123919e-02) (581, 5.82039530394477602759e-02) (582, 4.44249739018007377966e-02) (583, -7.07181143936196909827e-02) (584, 6.13759997141691965306e-02) (585, -1.03796558843232425429e-01) (586, 4.24448123267352848270e-03) (587, 7.83096439633549773474e-02) (588, 1.16509879152347797793e-01) (589, 2.92580585780745673630e-02) (590, -3.39421251421518979652e-02) (591, -6.00412870590629199619e-02) (592, 4.20519465476024909001e-02) (593, -3.81606050114725522948e-02) (594, 1.40320229942168972492e-01) (595, -4.20865302741452312896e-02) (596, -4.21504788100719451904e-02) (597, -2.05599708401685496439e-02) (598, -5.73394208590383147595e-02) (599, 1.95174719903437425550e-02) (600, 1.60491064693457012418e-03) (601, 7.53060681979892121429e-02) (602, 9.00146501423245738727e-03) (603, -1.05645532856610005479e-01) (604, 3.29717575434298609816e-02) (605, -1.22308370326516032550e-02) (606, 2.58536243556875822147e-02) (607, -4.77740996774919171597e-02) (608, -4.94253053100872086212e-02) (609, -7.99696014656620275673e-03) (610, -2.11237904063470982585e-02) (611, 7.56287847955620790019e-02) (612, 2.14238183428067489877e-02) (613, -8.81435127947793745085e-02) (614, -8.20789960229625359389e-02) (615, -1.04194667056663775595e-01) (616, -8.44634901458395787044e-02) (617, 2.44317354820706052199e-02) (618, -1.03491508019595251922e-01) (619, -1.87313407024867373263e-01) (620, -2.06180044785439331445e-01) (621, -2.43764078324833662059e-02) (622, -1.96671447502888119274e-01) (623, -2.18583883469846834702e-01) (624, 3.73108213000099692147e-02) (625, -2.47140511707624382920e-01) (626, -6.50570353661978212356e-02) (627, -9.62831585600749384479e-02) (628, -5.60357865468501664674e-02) (629, -1.49005837336899038537e-01) (630, -8.59985687075534056822e-03) (631, -9.16647392675478261959e-02) (632, -1.01365318898370207479e-01) (633, -8.85460491336887006719e-02) (634, -3.34415551320041276595e-02) (635, -3.23185675186100779266e-02) (636, 1.56993360661863215477e-02) (637, -1.23666952964857509989e-01) (638, 4.37755218221072550655e-02) (639, -2.49915376313448198229e-04) (640, -8.93204930905467514579e-02) (641, -1.78064963502079960656e-02) (642, 4.97197478579825061229e-02) (643, 2.44942850150743976489e-02) (644, -6.10430566961177034635e-02) (645, 3.23270409768104602377e-02) (646, 7.25486410679887418901e-03) (647, 2.90098486886804091123e-02) (648, -3.42046824617872266550e-02) (649, -1.89907340549884423586e-01) (650, 5.66493598624329477986e-03) (651, -4.51799104657417925635e-03) (652, -1.84567258073296443233e-02) (653, 7.22233337446285955652e-02) (654, 1.19106791969401659692e-02) (655, 3.93136250745057015676e-03) (656, 5.09450505961501765029e-02) (657, -6.49757635915164943885e-02) (658, 1.21180398453658920259e-03) (659, 3.58513526854804184807e-02) (660, 1.57942428886449315155e-03) (661, -4.67953911170538336232e-04) (662, -5.31900558704326356652e-02) (663, -2.77136109035482428031e-02) (664, -1.51611900920713221774e-01) (665, -7.41162802949516530404e-02) (666, 1.14130621411661324627e-02) (667, -4.67988670526256131388e-02) (668, -2.03970748590270208045e-02) (669, 2.96536562460030569260e-03) (670, -2.48282194877716896886e-02) (671, -6.71817199690456362537e-02) (672, 1.04247276173676128863e-01) (673, -2.11940299692177480662e-01) (674, 6.74370316527963670206e-02) (675, -3.85076322360341644080e-02) (676, -7.67771280252542154265e-02) (677, 8.55370728978312594437e-02) (678, -3.21026355451603587210e-02) (679, -1.26898217501591831224e-01) (680, 1.56734268656291503286e-01) (681, -3.15129840332884492149e-02) (682, -1.00691935950435088043e-01) (683, -5.79504625312008206373e-02) (684, 1.30005381853071727560e-01) (685, 4.94944760206378134293e-02) (686, 2.86547924453937723210e-02) (687, 8.67155594813776714469e-02) (688, -1.22492688635636531869e-01) (689, -1.70009017754063130635e-03) (690, -1.36414269832428519669e-01) (691, -7.57283238548972226223e-02) (692, -1.03586645740014818284e-01) (693, 4.50224198117373745204e-03) (694, 2.42273545098567744116e-02) (695, -8.65779472749205192272e-02) (696, 1.01334401247151987407e-02) (697, -1.02137005677779252322e-01) (698, 1.36092254869671691608e-01) (699, -1.88982635627755690688e-01) (700, 1.04381568763686732870e-01) (701, -9.15124734568442677052e-02) (702, -9.54052087586344244041e-02) (703, 6.38855467496366041802e-02) (704, -1.91812241208095340950e-01) (705, -9.69777190240551645317e-02) (706, -1.17230472142165462190e-01) (707, -4.60997383304590363506e-02) (708, -1.58968296598975461498e-01) (709, 2.80285319205295160860e-02) (710, -1.95715644163982460668e-01) (711, -1.92510345948485928069e-01) (712, 1.44931301371879206474e-01) (713, -2.00948089419752590201e-01) (714, -4.64964063212680439596e-02) (715, 6.82874815631979159569e-02) (716, -4.90943209796653387555e-02) (717, -1.40078912283078272499e-02) (718, -1.05209971773777468534e-02) (719, -1.30440032824980622905e-01) (720, 4.80284898259407226628e-03) (721, -1.44617871777662693189e-01) (722, -1.66142076982867509249e-01) (723, 2.28238255892618313592e-01) (724, 9.85668039176577498450e-02) (725, 1.93824969431330956793e-01) (726, -1.13178449469519895598e-01) (727, 5.93418343591047614538e-01) (728, 2.22426961909198660228e-02) (729, 7.69484845846355736132e-02) (730, 6.31889093047791755575e-02) (731, 3.03377258993038564916e-02) (732, -4.63431505385686962062e-02) (733, -1.83165284934944279371e-02) (734, -6.72290717500779039240e-02) (735, 9.67762012201672794376e-02) (736, -9.90032746261427717971e-03) (737, 6.85781645088067715044e-02) (738, 2.77554961903773902282e-03) (739, -4.51667078639575517163e-02) (740, -1.11721069838327073664e-02) (741, 4.22463100860305251771e-01) (742, 5.66809047966467943747e-02) (743, -1.33260346655546785266e-01) (744, 3.64285238529816271513e-02) (745, 5.66179176015827179125e-02) (746, 1.94652523345356154305e-01) (747, 3.50885697569536074425e-03) (748, -1.27715324578786842968e-01) (749, 1.57523981154647774172e-01) (750, -4.92197012420995227977e-01) (751, -8.15540269017430430321e-02) (752, 1.15730738457639495409e-01) (753, -9.42046549053327311740e-03) (754, 1.60832415927491589880e-01) (755, -9.81629066104700576112e-02) (756, 2.63306401089294511708e-02) (757, 1.73139920736503472032e-01) (758, 7.90265564230294009773e-02) (759, 5.88670323166881406807e-02) (760, -2.58551205793429265956e-03) (761, -2.44780667811534506650e-02) (762, 1.12297227779322633667e-01) (763, -1.68800605055790503561e-01) (764, 1.07158887963086750517e-02) (765, 6.07402202809738944733e-02) (766, -6.47816343367121905139e-02) (767, -7.21013894680892358791e-02) (768, 6.22345290929297370597e-02) (769, 5.17130762359773593628e-04) (770, -7.56613153173460728507e-02) (771, 8.39373841881752014160e-02) (772, -5.33760050664738097681e-02) (773, 9.38938877312760558635e-03) (774, -4.86933749732588738723e-02) (775, 1.58656470139651784024e-01) (776, 1.48657890107212805469e-02) (777, -1.52080942361977576593e-02) (778, 6.52803435353639105454e-02) (779, 1.01739054770859732590e-01) (780, -8.51728037644631369441e-02) (781, 1.97397616319768508253e-02) (782, 4.03756079233094644643e-02) (783, 1.64198861444983662539e-01) (784, -9.43639984018917188369e-02) (785, -1.25916602635402830046e-01) (786, 1.48354023181867539921e-02) (787, -4.25920866035854120413e-02) (788, -2.77567269550956438606e-02) (789, -5.09790747577139949365e-02) (790, 1.57959062400631150558e-01) (791, 6.27418791551185295319e-02) (792, -9.30089033462936365382e-02) (793, -7.87051209055917161406e-02) (794, 1.90360263478430741246e-01) (795, 3.03595736232457761097e-03) (796, -8.42826639371842684101e-02) (797, 4.54168276550970806404e-02) (798, -1.73030092287244988136e-02) (799, -2.03819454148454176634e-01) (800, 5.52670135586289731910e-02) (801, -4.71785544233458628560e-02) (802, -2.01590329343862111056e-02) (803, 4.64844978786137993931e-02) (804, -5.77965384454419625615e-02) (805, -1.11603284327982388291e-01) (806, -8.33738339172735987148e-02) (807, 9.25375062655847679949e-02) (808, -3.06768560304604837041e-02) (809, 1.41880981001861861124e-01) (810, 1.23808235814567457744e-01) (811, -1.32318412012459030169e-02) (812, 1.02720289724094263062e-01) (813, -6.47298320337572896666e-02) (814, 2.96853328191791637769e-02) (815, 8.26461356824199910864e-02) (816, 1.12042208067069978816e-01) (817, 3.68476891201842890466e-02) (818, 1.03133699648192619924e-01) (819, 9.12628046679127002960e-02) (820, 1.64282736018200758998e-01) (821, 4.89997538677434257837e-02) (822, 5.71426318745327441184e-02) (823, -2.65911596477227507584e-01) (824, 1.14897141743860640127e-03) (825, -1.34750744092411944841e-01) (826, -1.36765581316009243729e-01) (827, 1.03191948220870896580e-01) (828, 7.53227099776268005371e-02) (829, 7.29211419820785522461e-03) (830, 2.70563175247295652215e-02) (0, -7.20254958953126522836e-02) (1, -4.84681689590620856656e-02) (2, 8.92466600679337196400e-02) (3, 8.35197417942794007040e-02) (4, -9.64824126761149314380e-02) (5, -1.86339044444665091760e-01) (6, 2.04756330281361600965e-02) (7, 1.44915375943285518190e-01) (8, 7.84827394582381515642e-02) (9, 2.50548093416880501838e-02) (10, -5.88556623163105918639e-02) (11, -1.38103993525298951450e-01) (12, -5.43951186199354425055e-02) (13, 6.47545117109975670866e-02) (14, -2.66075766806940991471e-02) (15, -1.23132473206045381375e-01) (16, 2.23024357306370844822e-02) (17, -5.47266750766439921683e-02) (18, 8.83585813405413783572e-02) (19, -2.19921093641373393418e-03) (20, -6.70944891697543843723e-02) (21, 4.31005493960152988309e-02) (22, 5.09540543290617820027e-01) (23, -3.53324419498878272705e-01) (24, 2.31666259174723729655e-04) (25, 5.12821256747184595071e-02) (26, 5.57307154592131246719e-04) (27, -6.51414096355438232422e-02) (28, 7.71497562527656555176e-02) (29, -1.31389056138657561723e-01) (30, -3.39162893979812196665e-01) (31, -8.47522230505337315076e-02) (32, -7.01814285310145558050e-02) (33, 2.56684248431610806396e-01) (34, -3.89040001631791101944e-02) (35, -2.08967039105289270617e-01) (36, -2.01199309999509190483e-01) (37, 3.30846843525855360824e-01) (38, -2.18343770567275108352e-01) (39, 4.81437807660559519141e-02) (40, 6.60456642508506774902e-02) (41, 1.44053211767797756382e-01) (42, 6.97869561428818563353e-02) (43, -2.27678223374488286623e-01) (44, -1.63902332744968959322e-01) (45, -1.24184495830458610510e-01) (46, 4.26736130795915824532e-02) (47, 2.44617904294856802760e-01) (48, 1.74198897403717412047e-01) (49, 3.37861058179371398502e-01) (50, 1.74165775226530795960e-02) (51, 6.20476682382570185470e-02) (52, -4.91805235654612024621e-02) (53, -1.80795284635504954762e-01) (54, 2.27041954701355380708e-02) (55, -8.90198344123648149795e-02) (56, -1.42599759528556357946e-01) (57, -1.24020553256056598190e-01) (58, -6.08388155088490090172e-02) (59, 8.70452654898910826997e-02) (60, -1.37346701482429028873e-01) (61, 6.39772306303981325160e-02) (62, -1.59774297077018401225e-01) (63, -1.00234413684234149877e-01) (64, -3.74162792863222057327e-02) (65, -1.31810052035846362152e-04) (66, -2.05437107355480735871e-01) (67, -2.00689033742046774034e-01) (68, 2.24202892099887751698e-01) (69, 1.17368406963156646228e-01) (70, -1.18375579498298466596e-01) (71, 1.70846510500490850193e-01) (72, 8.01499408358685022646e-02) (73, -5.52751431025039381695e-03) (74, 1.71411397783006076712e-02) (75, 1.31415297299047023616e-01) (76, -4.00759675109821911221e-02) (77, -1.15622217713218844448e-01) (78, -8.17414153727047398945e-03) (79, 9.99936452509653239673e-03) (80, -7.11468760517493525874e-02) (81, 2.38138901408072971300e-02) (82, -5.95970002980507271295e-02) (83, 4.92148063240310656985e-02) (84, -1.51483938845349934421e-02) (85, -3.87055934147058772199e-02) (86, -8.25059450020761003808e-02) (87, -1.46879537389679987180e-01) (88, 2.21265556604945644315e-02) (89, 1.43926648948255991867e-01) (90, -6.95175568383153003049e-02) (91, 2.15865333955611804484e-01) (92, -6.91562198063512961754e-02) (93, -1.91154766689106726807e-02) (94, -5.05781074378172240680e-02) (95, 9.70513817468110079334e-02) (96, -1.34434341777184496181e-01) (97, -6.36015292865206322698e-03) (98, -6.45153254635395523309e-02) (99, 1.32788692926919499326e-01) (100, 6.16547441406413987419e-02) (101, 1.65234773251383484927e-02) (102, 7.44529465641921486124e-03) (103, -1.02152142891325292684e-01) (104, 1.09410159987430657957e-01) (105, -1.86210264460936775199e-01) (106, -5.10443999704509529525e-02) (107, 3.85322532857091601399e-02) (108, 1.56411764209570675055e-01) (109, 1.95905452977586047592e-01) (110, -5.60851490168984972984e-02) (111, 2.62227777410525719759e-01) (112, -1.59415074042194605808e-02) (113, 1.26024692928819611291e-03) (114, 1.77674930606658620924e-01) (115, 4.95582884980621668491e-02) (116, -1.35789683932297844393e-01) (117, 8.34763305415107681462e-02) (118, 1.40034784002776857559e-01) (119, 1.02635407455688443257e-01) (120, -1.55583991268418209142e-01) (121, 3.23225563881976984959e-02) (122, -1.30978692030927160866e-02) (123, -1.40444615929983973590e-01) (124, -1.66555885437699918716e-01) (125, -1.29001704341053902159e-01) (126, -2.58204151428676142999e-01) (127, -3.14373094076420056542e-01) (128, 1.14875348965251991573e-01) (129, -1.78258178620975704654e-01) (130, 6.67795852759753977290e-02) (131, 1.69772473662017059359e-01) (132, 1.08737305663915387322e-01) (133, 2.38508186474540376243e-02) (134, 2.54826042162959398585e-01) (135, -9.46434593428115422675e-02) (136, 7.42224284205725837182e-02) (137, 2.05995684749298496596e-01) (138, 1.44406514717430184414e-01) (139, 4.33432029629945286819e-02) (140, -1.13833862545972788749e-01) (141, 1.79562836539023884530e-01) (142, 4.38358170290222698418e-02) (143, -1.83813032321260283464e-01) (144, -7.92396577678383395860e-02) (145, 1.07326892527101175334e-01) (146, -1.00872683623135034336e-01) (147, -1.87899193549634913047e-01) (148, -1.04777126606254260277e-02) (149, 1.24422208297591999071e-01) (150, -4.48111011045622537052e-02) (151, 7.68863763064264599256e-02) (152, 5.21461124886913665599e-02) (153, 1.39453178400941162768e-02) (154, 2.35384121887736774692e-01) (155, 1.20144058767476524796e-02) (156, -9.42732119718213273929e-02) (157, 2.31933423813099642841e-01) (158, 1.32086583215088093635e-01) (159, 9.66534287595940816429e-02) (160, -1.45433344758576083011e-01) (161, 3.47408212674364877404e-02) (162, 4.46906950960087381852e-02) (163, -1.75934070292112249012e-01) (164, -1.30157710827679878873e-01) (165, 6.19697385354969487725e-02) (166, -8.87079070463710900318e-03) (167, -3.52482069285018628779e-02) (168, -9.35078920251913858763e-02) (169, -1.49924273698112692915e-02) (170, -1.37702051781235235151e-01) (171, 7.96484984870653028866e-02) (172, 2.53534110185992360431e-02) (173, -2.47810637000289796239e-01) (174, 7.63975429368097258553e-02) (175, -4.50148207931118857217e-02) (176, -2.58831298805677761932e-02) (177, 1.00870147880237348570e-01) (178, 6.01308489751140179402e-02) (179, 3.19079627403817886466e-02) (180, 1.66498467489334996822e-03) (181, -5.93610703995406802091e-02) (182, -9.66712015267289642706e-03) (183, -7.46261440735086489795e-02) (184, 9.97459692525071717206e-02) (185, 2.37446034867034375115e-02) (186, -1.82043344763909292761e-01) (187, 7.18577219664605637561e-02) (188, 1.96888656755433225087e-02) (189, -1.08113751893012755012e-01) (190, 1.51833347647050975748e-01) (191, 1.13168037760177087048e-01) (192, 4.67417739148425076534e-02) (193, 4.36907565927321661636e-02) (194, 8.39909729374902352950e-02) (195, -9.48211890345730945562e-02) (196, -1.14659889950842183715e-01) (197, -7.34439038907273439305e-02) (198, 1.04057436751456761082e-01) (199, -4.33467675897431584109e-02) (200, -4.20473085268802532211e-02) (201, -7.64485518120076312787e-02) (202, -6.21966231583372594627e-02) (203, 1.44159459967071246211e-01) (204, 7.98222132598253031333e-02) (205, -7.03352158087537232545e-02) (206, 5.90319995783143147694e-02) (207, -8.73225301165192480113e-02) (208, 6.40582288749444589415e-02) (209, 1.74486126119602034945e-02) (210, -1.07411204623850814466e-01) (211, 2.39354855394740932695e-02) (212, -7.82519535920971759380e-03) (213, -1.09234891832684644086e-01) (214, -1.25040005658136083033e-01) (215, -6.61344018653385462558e-02) (216, -7.16279368953698231115e-02) (217, -2.55838465557546648754e-02) (218, 1.21815524966779192839e-01) (219, 3.10189937881041773171e-02) (220, 9.47246550646358709269e-02) (221, -2.63989224265331681729e-02) (222, 1.11979301569422803886e-02) (223, 1.26949266582529862735e-01) (224, -3.23564267226391089061e-02) (225, -4.50497699557200897980e-02) (226, 3.48020288123414983650e-02) (227, -1.17973911961977637186e-01) (228, 6.62518807253711927707e-02) (229, 1.80578856675193237524e-02) (230, 4.91005701080950915371e-02) (231, 1.66441773808024384707e-01) (232, 1.03084568848682875397e-01) (233, 6.98230160297675789272e-02) (234, 2.73594955315318438815e-02) (235, 3.07262217536248723182e-03) (236, 7.47955558265534919959e-02) (237, -7.30752302897339986454e-03) (238, -6.73998337192019125741e-02) (239, 1.10442930817868392723e-01) (240, 1.89260622517441710888e-02) (241, -6.96810003983293207996e-02) (242, -1.21468730202746455493e-01) (243, -1.58978682272152005428e-02) (244, -6.06495133415903275864e-02) (245, -9.63624254547744557575e-02) (246, -1.23445079139122334405e-02) (247, -1.98493584753606268356e-02) (248, 4.49414442298372990292e-02) (249, -6.11357803927311954650e-02) (250, -6.36655659039589705284e-02) (251, 1.26618781141517394717e-01) (252, -3.91843902734933871579e-02) (253, 3.27545067843484707937e-02) (254, -5.54930448690211866603e-02) (255, -1.20205560359170376961e-01) (256, -1.16002933695815269033e-01) (257, -5.53839842330392830017e-03) (258, 8.28346865451453640006e-02) (259, 4.88095612289784347437e-02) (260, 6.81750900555074951237e-02) (261, 6.54692170899117964478e-02) (262, -1.68064679566417643497e-02) (263, 7.68621948545618284207e-04) (264, 1.50234375742336039722e-02) (265, 3.79492558418609016169e-02) (266, -9.56026866977572470363e-02) (267, -7.32514483761738111056e-02) (268, 7.54156634907904716014e-02) (269, -1.53253311719694206711e-02) (270, 3.33016630377222641254e-03) (271, -1.60229528449533191459e-03) (272, 2.88505118839445587331e-03) (273, 7.24120375978535343181e-03) (274, 1.89168816543286294474e-02) (275, 7.15033582288408103844e-03) (276, -2.52519286871836952379e-02) (277, 6.53332453097596743685e-02) (278, -2.02763574117137516939e-02) (279, -6.17438563542199586598e-02) (280, -4.82564041394550682917e-02) (281, -2.56991416350229491539e-02) (282, 7.52408573828911159120e-02) (283, 1.09674692951315183587e-01) (284, -8.10628387374611944494e-03) (285, 5.77661651062066905382e-02) (286, 2.11154310539281506176e-02) (287, -6.13011572787555622521e-02) (288, 1.86554621859216819557e-02) (289, -3.84785512519285749500e-02) (290, -4.31536049468212307145e-02) (291, 3.67138051007540530679e-02) (292, 6.99189426058867136149e-02) (293, 1.82127126699178007452e-02) (294, 1.23678120434173699493e-01) (295, -8.48443802328773255539e-02) (296, -6.69749662045091564977e-02) (297, 7.81329345087095478162e-02) (298, 6.75505045436359651684e-03) (299, 1.36378712637897636650e-01) (300, -1.72081348184641436116e-02) (301, 9.32392007270312350720e-02) (302, -1.46456055903337878377e-02) (303, 9.66796504232324410699e-02) (304, -8.43289260418401964703e-03) (305, -1.18822430876155127333e-02) (306, 1.29704562324836642634e-02) (307, -9.39414452211707710905e-03) (308, -8.89499577322639192745e-03) (309, 1.21902542395720056567e-02) (310, -6.37748823638534384495e-02) (311, -4.99495494589607680336e-02) (312, 9.25710357247839787931e-02) (313, -2.35065067822863918434e-02) (314, -2.03225222637787791835e-02) (315, 2.27226706529772837229e-02) (316, -5.94944105101727627183e-02) (317, -1.61809241483236165848e-02) (318, 8.24014226904487001590e-02) (319, 1.10424315707692857758e-01) (320, 6.50635305445505240929e-02) (321, 3.24964716766757283350e-02) (322, -6.86567293584165738718e-02) (323, 2.62250270142542554752e-02) (324, -1.59274285837124433829e-02) (325, 6.95842543675617708487e-02) (326, 5.19356799982316069686e-02) (327, 2.06721406646459132661e-02) (328, 1.18159190405337288787e-01) (329, 1.59686145910391055769e-02) (330, 1.91877247523245288152e-02) (331, -5.63257792244788377256e-02) (332, -1.40768606343197794084e-01) (333, -6.30885722845811180992e-02) (334, -9.07697374430203735018e-02) (335, 1.73711243472057158543e-01) (336, -1.36905157659713283547e-01) (337, 3.96280655052964059237e-02) (338, -1.48009881223188755062e-01) (339, 2.25728785591908058528e-02) (340, -1.14502068570009399306e-01) (341, -4.01036895213685712358e-02) (342, -1.18674134389646898646e-01) (343, -8.71506360247243094808e-02) (344, -8.03980881077440284743e-02) (345, -9.44187972526523977557e-02) (346, -1.16321306532703085818e-02) (347, -1.24013917173080912004e-01) (348, -8.18013690694473633025e-02) (349, -2.97459407291853460131e-02) (350, -9.44715877136231424460e-02) (351, -1.18385827401117457724e-01) (352, -1.81428909266048599136e-01) (353, -1.10500711403319129555e-01) (354, 2.58534869713649556600e-03) (355, -1.94856077777695209374e-02) (356, 2.05682780279717904171e-02) (357, 6.91714793500494973255e-02) (358, -3.28534678683810532629e-01) (359, 1.95758835718498697132e-01) (360, -1.56673754477337223712e-01) (361, -5.73798058586720005625e-02) (362, -1.10680088563476941577e-01) (363, 6.75641178235458911283e-02) (364, -1.41360008492136424163e-01) (365, 4.24316639788901855956e-02) (366, 1.08295641439020220997e-01) (367, -1.66706574233486837233e-01) (368, -1.40212007724957871124e-01) (369, 1.86481222364420079485e-02) (370, -7.22009214022972661828e-02) (371, 1.28282691897113082513e-01) (372, -7.96562917280127652520e-02) (373, -3.40980806639782432765e-02) (374, -1.58543903753001730328e-01) (375, 2.17014212357466318437e-01) (376, -9.16600638047674748377e-02) (377, 5.45084137710673405364e-02) (378, -1.04547527412741925179e-01) (379, 1.12424825823271193337e-01) (380, -1.21661619265783907395e-01) (381, -7.01388007714433825424e-02) (382, -1.23622029728899213152e-01) (383, -7.38655372110159497145e-02) (384, -7.03345116663952468761e-02) (385, -1.04467109457362414271e-01) (386, -1.49517968124911852790e-02) (387, -9.27443879737087778503e-02) (388, 1.28261695295352362578e-01) (389, -1.08548556488326314318e-01) (390, -1.35144478900132924970e-01) (391, 5.59433272049948346338e-02) (392, -3.39291946860041174205e-02) (393, -6.17363898279072731423e-02) (394, -3.16611563929339381862e-02) (395, -1.16923382188658303571e-01) (396, 1.59410409867589392130e-01) (397, -5.65011338367819443418e-02) (398, -5.38373840541224793488e-02) (399, 8.44770514619913592824e-02) (400, 1.55311206893155792641e-02) (401, 7.80826463876986565094e-02) (402, 2.85771668009905874253e-02) (403, -4.61776629004573106740e-03) (404, -1.82404246525867452799e-01) (405, 2.76523311004825238235e-02) (406, -5.58320259953934833197e-02) (407, 4.15823111698992026186e-02) (408, -1.77400853351089488052e-01) (409, -2.04654258109015385614e-01) (410, 9.10277531414036694679e-02) (411, 9.72503032172894188445e-02) (412, -7.97954213436724152375e-02) (413, -1.42518453075337253599e-01) (414, -2.21601774713873836409e-02) (415, 2.74141762330359327338e-02) (416, -1.13326804359631758135e-01) (417, 1.12406573113210422887e-01) (418, -1.54454218341956828198e-01) (419, 7.35024828224634663165e-02) (420, -3.24300109807467221157e-02) (421, -1.29999173124576775096e-02) (422, 7.81991200827657738370e-03) (423, -1.46396014311468480873e-01) (424, 2.24571385250325813998e-02) (425, -6.01404517228586107946e-02) (426, -3.70335359282573384210e-02) (427, 6.39983990750959963467e-02) (428, -7.73540459853649421673e-03) (429, -1.43011130682505149814e-01) (430, -1.94127645024578437960e-01) (431, 2.03600024469064166954e-02) (432, 6.40542488061790482590e-02) (433, -1.57490583916500087591e-01) (434, 7.91246888372618140117e-02) (435, 1.53016268696622714796e-01) (436, 4.14356699141115239482e-02) (437, 8.50438970553749756798e-03) (438, 1.26632074414599164747e-02) (439, 2.56117876639232355807e-01) (440, -2.70004800215979834377e-01) (441, -1.00199302069998191778e-01) (442, 8.50026777268369504448e-02) (443, -1.10832649112434761252e-01) (444, -2.31858581311853301221e-02) (445, 1.94317452560308828735e-01) (446, -3.98911122636780857142e-02) (447, -4.44750762267790387960e-03) (448, -1.13017313125266444240e-01) (449, -1.82798942823879616293e-02) (450, -2.84282951532784489146e-01) (451, -3.57980046871221244120e-02) (452, -6.86830282907605060849e-02) (453, -9.99918832088885767284e-02) (454, 7.94185384918283943101e-02) (455, 7.08952251684367897727e-04) (456, 1.10984742066501718138e-01) (457, -6.11620949951542439149e-02) (458, -1.91441431021960817294e-01) (459, 9.58723909364966597746e-02) (460, -1.42267304006108596948e-01) (461, -6.78000241848151878610e-03) (462, 1.73996727589761313038e-01) (463, -1.58222976960979311301e-01) (464, -2.09938093254158839041e-02) (465, -6.12480127562929008156e-02) (466, -1.74329729584275755494e-01) (467, -1.35119579190454613959e-01) (468, 1.51091137261105318279e-01) (469, -1.73357484495785391099e-01) (470, 9.17683522676100843496e-02) (471, -1.18657284489738182320e-01) (472, 8.62615505031035234573e-02) (473, 6.52392165497995418777e-02) (474, 1.13743849463073309902e-01) (475, -7.07007396465349213788e-02) (476, 6.17182257605327841410e-02) (477, -7.09873171531731905759e-02) (478, 7.28158038968130527646e-02) (479, 6.33611223303954529396e-02) (480, 7.31498859227184550225e-02) (481, 6.41631608988030982532e-02) (482, 9.43415155132968502594e-03) (483, -1.32939132680954225085e-01) (484, -9.96445222864343199687e-02) (485, 1.09399634526227904074e-01) (486, -6.05949515926340002286e-03) (487, -1.57064427797431960254e-01) (488, -1.14210099221612779163e-01) (489, -5.82241702311199482711e-03) (490, 1.33768230714702163892e-02) (491, 4.74105551838874816895e-02) (492, -1.30705180183143004902e-01) (493, -8.12087530459996570498e-02) (494, 1.13246981301867027936e-01) (495, 1.47918468277816544942e-01) (496, -2.37716826791301155675e-02) (497, -2.09189135727935911213e-02) (498, -7.14123584497099728186e-02) (499, -1.25258161106571341836e-01) (500, 5.24788334537390280254e-02) (501, -1.71426455199416821751e-01) (502, 7.78979729999788039763e-02) (503, 3.44033910202981990656e-02) (504, -7.94199109180145426667e-03) (505, 1.33930472177703180359e-01) (506, -8.25983091656695353477e-03) (507, -3.99419684973841906950e-02) (508, -2.09196957496169677615e-01) (509, 6.09655171010955315714e-02) (510, -3.05006019659333632577e-02) (511, 1.31012362632086432068e-01) (512, -1.73122063279151916504e-02) (513, -1.05182813675822814381e-01) (514, 9.39342506394321569152e-03) (515, 6.71568522528629280322e-02) (516, 1.96527340951969491101e-02) (517, 4.14077459352857057961e-02) (518, -2.27950172096229239371e-02) (519, 8.24439688881395960074e-02) (520, 2.50260473674988569159e-02) (521, -4.94682367321798086013e-02) (522, -1.11898186943920480152e-01) (523, 4.26259434353233532256e-02) (524, -1.71152841744217631970e-02) (525, -1.73866054721636520419e-01) (526, 1.27690136724730535223e-01) (527, -1.31451001604263525979e-02) (528, -8.10349878004762436134e-02) (529, -3.35062876401903270152e-02) (530, -6.48883125701428392640e-02) (531, -9.38937333728019213330e-02) (532, 1.15323028877015454352e-01) (533, -3.74630242586135864258e-02) (534, 1.76505548968367426133e-01) (535, -6.84413446212515513833e-02) (536, 7.98204774941127376264e-02) (537, -1.28060782640050802028e-01) (538, -1.18031645463474957336e-01) (539, 1.00562502844306733696e-01) (540, 7.47500139524393952817e-02) (541, -1.55785097833831376324e-01) (542, -7.71274914591526666863e-02) (543, 1.04918426091683530954e-01) (544, 1.76329338792583049933e-02) (545, -1.43605177080336793294e-01) (546, 9.62457981948824231599e-02) (547, -1.89515039844895150090e-01) (548, 1.75833258431804223543e-01) (549, 1.08728138294262005603e-01) (550, 1.02950114542871229428e-01) (551, -2.11601003637960943804e-01) (552, -2.92995117789887238313e-01) (553, 1.94590637115039599703e-01) (554, 7.68478140234947204590e-02) (555, -3.38140416504879443016e-02) (556, -3.55258494196016780253e-02) (557, 5.04521777680773525487e-02) (558, 9.85486469266757814101e-02) (559, -1.90760828045049679602e-01) (560, -1.69041167151083478182e-02) (561, 5.56443808958462099445e-02) (562, -2.38494992716795466137e-02) (563, -6.72013998414260210756e-02) (564, -8.92547110410514127343e-02) (565, 1.17757473054106748256e-01) (566, 5.43500237505377611913e-02) (567, -3.05899737304969332463e-02) (568, 1.01904151999313852262e-01) (569, 1.02094712783020083458e-01) (570, -6.62098985863420752551e-02) (571, -2.62726778111914797964e-02) (572, 2.97279953455458195027e-03) (573, 1.25969805112522703627e-01) (574, 8.92518616292934663381e-02) (575, -2.67771482467651367188e-02) (576, 7.67971810253668119017e-02) (577, 4.22242503849947214967e-02) (578, 3.22781644893681621267e-02) (579, 1.07648759458799439526e-01) (580, -1.66844324521946085760e-01) (581, -2.01906273682649989309e-01) (582, 1.65477343890527150982e-03) (583, 1.03400736315400976206e-01) (584, -9.95785310056097189291e-02) (585, 7.75475603211413146848e-03) (586, -3.74603470602614396778e-02) (587, -3.87240497170391858098e-03) (588, -4.99288076699799659997e-02) (589, -6.90493694921032186151e-02) (590, 9.08392148046317238208e-02) (591, -6.18359769810152490321e-02) (592, 3.97252840576367977077e-02) (593, 1.25869384162207609279e-01) (594, -1.91023415547148911475e-01) (595, 4.73506687391863911873e-02) (596, -6.86354935169219970703e-04) (597, 1.19319261419465943996e-01) (598, -1.64124836698760434572e-01) (599, -8.75403527789719998475e-02) (600, 1.13615942897390104216e-01) (601, -9.94806904465996566511e-02) (602, -1.50088247385871981221e-01) (603, -8.30458926463160662657e-02) (604, 1.46289491422166816059e-02) (605, 8.58900087834521541730e-02) (606, 3.16312040129772334418e-02) (607, 7.90375063571689545627e-02) (608, 9.10016349559905485256e-02) (609, -1.65058322736502116612e-02) (610, -3.06175478979631571219e-02) (611, 6.36731889695718172861e-02) (612, -7.89146978277330407581e-02) (613, -1.27443112072071623730e-02) (614, -7.29389450296061558898e-02) (615, -3.96546099828884238137e-02) (616, 3.58485908135903075938e-03) (617, -8.29581407196440002993e-03) (618, -1.85859316298302379433e-01) (619, 1.14271946081441894139e-01) (620, -1.35016689526563093970e-01) (621, -1.42230298973350044456e-01) (622, 2.02232858123830211428e-01) (623, -1.64116425445683611350e-01) (624, -1.76150822993347361267e-01) (625, 1.93849496114286395931e-01) (626, -2.34292495718515042524e-01) (627, -1.05153258385889458726e-01) (628, -5.82941565170644240140e-03) (629, -2.71526919581786041480e-01) (630, -1.87701500923622810468e-01) (631, 7.63189990478244650873e-02) (632, -1.30216211446709417832e-01) (633, -1.97483069349495860001e-01) (634, 1.47856028854729149025e-01) (635, -1.35562488710929546221e-01) (636, -1.06261104235401259571e-02) (637, 2.28305498869192484424e-02) (638, -2.78079129966414373420e-01) (639, -1.92017939676250547210e-02) (640, -1.37535768499838145784e-01) (641, 6.20551285682404557553e-02) (642, -7.85247170218186102408e-03) (643, 3.49959299446359062280e-02) (644, 1.69376075851739062161e-02) (645, -2.75938459001054160746e-02) (646, 1.30832740333843761116e-01) (647, 7.63474567700590106556e-02) (648, 9.62166558470007454718e-02) (649, 1.15340353437138679049e-01) (650, 9.08664050716872367941e-02) (651, -1.68312241985746832706e-02) (652, -3.03155347350391318750e-02) (653, 1.29954344621675856042e-02) (654, 8.62535770143645248720e-03) (655, -6.49487072809188936695e-02) (656, 6.56983114374980053940e-02) (657, 1.72553680806567075363e-03) (658, -2.03587820419551361606e-02) (659, 6.09084492147932213268e-02) (660, -1.17761338361319814472e-01) (661, -5.18332465902720598838e-02) (662, 7.61084810345760559569e-02) (663, 2.25380744055207610232e-02) (664, -1.14789558695855151149e-01) (665, -1.60949125124013846244e-02) (666, 3.10384814705157406622e-02) (667, -1.43859659794523964821e-02) (668, 1.00953969300820567412e-01) (669, 5.50521117081131799997e-02) (670, 1.60339403637989708074e-01) (671, -4.49412228038030825417e-02) (672, 1.49278090743278357699e-01) (673, 4.04691461424362269872e-02) (674, 7.96220888437220719602e-02) (675, 5.34224560811574003538e-02) (676, -5.00173024861624362924e-02) (677, 1.26363081542837773358e-02) (678, 7.55140022724713338986e-02) (679, 7.44994642558327313520e-02) (680, -8.17066634664695250201e-03) (681, 3.08790032139781532583e-02) (682, -9.37053158266246133401e-02) (683, -6.60266698886014229836e-03) (684, -3.14169450500598537723e-02) (685, 1.59664904103123464485e-02) (686, 6.21983886332496821447e-02) (687, -1.43642949886358312073e-01) (688, -1.67441954611379034690e-01) (689, -5.90177855061359418753e-02) (690, -1.90165721912179432052e-02) (691, 7.76074920921402677809e-02) (692, -1.19006591461272029364e-01) (693, -1.41344844099461824927e-01) (694, 6.56019195894198409169e-02) (695, -9.29184166407323597348e-02) (696, 1.70805758179373240457e-01) (697, -4.75010241629551313580e-02) (698, -2.35666354978863901160e-01) (699, 2.41997885229114667593e-01) (700, 2.41557598158679831535e-02) (701, 2.96892376160850617051e-02) (702, -4.06671377988414919913e-02) (703, -3.90237842416865793327e-02) (704, 2.41369627948722798028e-01) (705, 1.38599659983182577072e-01) (706, -1.07014433101327355313e-01) (707, 4.48760365866226890175e-02) (708, 6.00013740878673554335e-02) (709, -4.34462229596407276122e-02) (710, 7.37527112144399036447e-03) (711, 1.47298364095946265895e-01) (712, -2.04920825172889925492e-01) (713, 3.56838739925050552060e-02) (714, 2.34536610978052562082e-01) (715, -1.79848918614138597594e-01) (716, -3.10901393503708357857e-02) (717, 1.83754251900619419713e-01) (718, -9.57913860498182251346e-02) (719, -6.28779102800952477414e-02) (720, 2.08519578360969209951e-01) (721, -1.48763415626798178870e-01) (722, -1.09567344348547812682e-01) (723, -3.11210617709807790821e-01) (724, 1.12813629002346177410e-01) (725, -3.06057494117340844753e-01) (726, 1.87969898796063600299e-01) (727, -1.07096227292577950152e+00) (728, 2.96328520464042122207e-01) (729, -5.93016813718987186033e-03) (730, -7.40937955199733565281e-03) (731, -6.28397603910992308407e-02) (732, -1.20937622706695530050e-01) (733, 1.10819695006661549097e-02) (734, -9.09248436634370743592e-02) (735, 6.46994919426667758344e-02) (736, -5.83457337453553576134e-02) (737, -6.23841086557918172995e-02) (738, -5.59351598057882953841e-02) (739, -2.21327974525979520593e-01) (740, 1.65400852277414162073e-01) (741, -3.75772726895971298511e-01) (742, -1.60510722717294634920e-01) (743, 8.45370500038710032120e-02) (744, -3.12033919322049158040e-01) (745, -1.07382734829850556846e-01) (746, -6.60605374489601215870e-01) (747, -2.65628642313525363539e-02) (748, 5.47749433499376769952e-01) (749, -7.23122379896546485512e-01) (750, 7.93642488238281873514e-01) (751, -3.01240488405065787170e-01) (752, 1.85519505416946936527e-02) (753, -5.41982155427105996570e-02) (754, -5.65225849121000073483e-02) (755, 2.79054326050063999931e-02) (756, 9.51242075047787349895e-02) (757, -1.44758892492739293933e-01) (758, 7.65619481308146138110e-02) (759, 5.67310754513982717917e-02) (760, 2.30042031110085115619e-01) (761, 4.40940120319826128759e-02) (762, 1.83897589141353602626e-02) (763, 2.56483982228456086627e-01) (764, -2.31817859213708565846e-01) (765, -3.57494996791392405378e-01) (766, 1.31919127700348221000e-01) (767, 1.61645931766937922536e-01) (768, -1.47664731538875271255e-01) (769, -5.09656762739509813787e-02) (770, -1.00424442363778211595e-02) (771, -4.60929572582244873047e-02) (772, -1.24203317582391142837e-01) (773, 3.46681865381118364811e-02) (774, -2.24851728809174547519e-02) (775, -3.12569111568029994741e-02) (776, -4.89248918132957101579e-03) (777, 6.88651302850936675171e-02) (778, -6.00231960083258339611e-02) (779, -2.02805461182362298245e-02) (780, 2.37811811453784993642e-02) (781, 8.14047930194103097623e-02) (782, -1.98471813389579782028e-02) (783, 3.84450235768148892990e-02) (784, -4.30771729368110145586e-02) (785, -5.75363453415298209404e-02) (786, 3.21548586432585312145e-02) (787, 2.81238991840920202203e-02) (788, -1.88105758064894795778e-01) (789, 1.05820759791910523617e-01) (790, -1.57787963918776530381e-01) (791, -1.94730960270042413596e-01) (792, 1.82886354741837564575e-01) (793, -5.35233701815711754302e-02) (794, -1.36642339949390956289e-01) (795, -8.65225945218798531133e-02) (796, -1.83337341867690406527e-01) (797, 6.20817051635541294896e-02) (798, -3.23716013690584988871e-02) (799, -7.20414635284970239493e-02) (800, -2.39914247232548338840e-01) (801, -1.50183482034459497845e-01) (802, -1.78635502371906368380e-01) (803, 8.28166436632576524746e-02) (804, 2.99264739255644743321e-02) (805, -4.64131830648464999145e-02) (806, 6.18204249665476601727e-02) (807, 1.36970448210355311147e-01) (808, -3.30083649903179579543e-02) (809, 8.25355527673108796405e-02) (810, -2.35567608989383142637e-01) (811, 5.00358041828078831115e-02) (812, -1.62187291769562508259e-01) (813, -8.39740309664626649599e-02) (814, -1.83270220468952499404e-01) (815, 4.65225092774643328442e-02) (816, -3.06276323651001547432e-01) (817, -5.63937329696640801679e-02) (818, 7.75278485046463575886e-03) (819, 2.22049878254283912515e-02) (820, -2.76261342503828666306e-01) (821, -2.39848899183420791528e-03) (822, -1.87624290671503768380e-01) (823, -1.73133506583807911250e-01) (824, -7.94354263313419572956e-02) (825, -1.69432090596744244770e-01) (826, 3.30205229446175769353e-03) (827, 1.54805449914260179201e-01) (828, -6.73625916242599487305e-02) (829, -1.44869834184646606445e-02) (830, -1.09875684073181933975e-01) (0, 1.46787782657157163217e-03) (1, 1.09792633016286989706e-02) (2, -4.03432159279462423940e-02) (3, -8.83398660085964043676e-02) (4, -4.77769129667398369937e-03) (5, -3.88807979644837861666e-02) (6, 5.87877353461020366043e-02) (7, -1.08784005911929854138e-01) (8, -6.18756253776533843292e-02) (9, 1.27486326049180698217e-02) (10, 8.59178383271263501619e-02) (11, -1.67960628586672870710e-02) (12, 7.29698499587893290030e-02) (13, -1.12695005087686067613e-01) (14, -4.44982239592723802235e-03) (15, 3.06451754411192177352e-02) (16, -3.22915235913389039868e-02) (17, -3.03799855931092578631e-02) (18, -1.10407209791066546548e-04) (19, 3.66779320497184271876e-02) (20, 9.79055062143635579375e-03) (21, 8.08661159375588661780e-02) (22, -1.46540847878266045079e-01) (23, 6.17982056360207292894e-03) (24, 7.79878990013249534519e-02) (25, 3.67575603036403037588e-03) (26, 6.97537694377814848634e-02) (27, -4.49466481804847717285e-02) (28, 2.89449170231819152832e-02) (29, -3.61552805229513815610e-02) (30, 4.84941605767179456654e-02) (31, -1.57877617498789840633e-01) (32, 8.56005694167391861793e-02) (33, 6.48206251312998249503e-02) (34, -2.99818972030399255591e-02) (35, -9.50890161092701052814e-02) (36, 7.93762602056863469935e-02) (37, -1.46075929381405344998e-01) (38, 2.69712446494386158535e-02) (39, -9.58257633681150883254e-02) (40, 3.43433097004890441895e-02) (41, -8.86106823317370090320e-02) (42, 3.12651921772298113655e-02) (43, -8.13682711288842425157e-02) (44, -2.93159826179471040553e-02) (45, 4.63768191621040520856e-02) (46, -8.25360168498574658935e-02) (47, 3.77064683216321843567e-03) (48, -6.24290014041197285910e-02) (49, -1.51164603830231031312e-01) (50, -3.05343808175194270094e-02) (51, -1.25686196102660213691e-02) (52, 9.72904694005691517145e-02) (53, 4.48184667326056648817e-02) (54, 7.43172185424293817863e-03) (55, 4.01070264748190699611e-02) (56, -4.94153431153217942429e-02) (57, -8.26505357914846944256e-02) (58, 9.52018479823247415483e-02) (59, 4.89580937967691587343e-02) (60, 2.58845950773598232342e-02) (61, -1.03381240078469202603e-01) (62, 8.72971007582142716208e-02) (63, -2.28100132757567998498e-02) (64, 7.12196663255990677216e-03) (65, -2.67743680523528336523e-02) (66, 3.27150211551326050574e-02) (67, -1.07501401780354232524e-02) (68, -1.02793166864166410357e-01) (69, -1.33218122566228752701e-01) (70, 4.94013022807111845669e-02) (71, 1.10187402393665895284e-01) (72, 5.30569173256162929242e-02) (73, -7.98613092973625843252e-02) (74, 1.57570688854837027970e-02) (75, 1.27313370426763411425e-01) (76, 9.31286042408308450957e-02) (77, -6.36543853018621801770e-03) (78, 1.33127931872624144516e-01) (79, -6.01805189095278997291e-02) (80, -1.31552843532764862644e-01) (81, -6.89739475590949585593e-02) (82, 1.37407619595285024339e-01) (83, 8.28481593327098225776e-02) (84, 9.30097986301428175659e-02) (85, -1.36531600504799528056e-02) (86, 4.45790112229321137255e-03) (87, 6.69083262386778454545e-02) (88, -1.16994304829568678862e-03) (89, -9.48789948461221110954e-02) (90, 8.16077748609159853155e-02) (91, -9.09815001998494077284e-02) (92, 2.65309247159749780898e-02) (93, -8.33618009038969258462e-03) (94, -2.21866102272033870191e-02) (95, 3.22521050598447919788e-02) (96, 3.96970055698469478922e-02) (97, -1.32176370965093326060e-01) (98, 1.57312165974943275748e-02) (99, 1.05884426518487409496e-01) (100, -6.69791167587444474796e-02) (101, 6.08532944703344194637e-02) (102, 1.51275880802442891371e-01) (103, 4.91525391029343852733e-02) (104, -6.04428255911141562584e-02) (105, 5.02072991988996089607e-03) (106, 5.52815055211559047699e-02) (107, -8.21510516302664806076e-02) (108, 1.11764753313054021611e-01) (109, 7.35760454468073615830e-02) (110, -1.13506600799945081559e-01) (111, -1.83423316293772536989e-01) (112, 1.34539441458341707536e-01) (113, -1.58289943024847223896e-01) (114, 1.64209411331929372446e-02) (115, -1.28484201957623014878e-02) (116, -5.90346796884284319429e-02) (117, -1.24774667802581229470e-01) (118, 3.97334452151340902781e-02) (119, -1.21114519339141885057e-01) (120, 1.02195757925322653487e-02) (121, -8.73805060117815307619e-02) (122, -2.01744800573492061302e-01) (123, -1.44859771253590535744e-01) (124, -8.57788975960906974194e-02) (125, -1.23198666321369647986e-02) (126, 1.40339334934839569946e-02) (127, 6.87913383386284417453e-03) (128, -4.14246521342946164013e-02) (129, 5.51423993629268846539e-02) (130, 1.29459011084546021797e-02) (131, -5.17995657819872862282e-02) (132, 5.46310764793234426850e-02) (133, 6.70202920827696890793e-02) (134, -3.56038871437494922056e-02) (135, 5.49857100583123828419e-02) (136, 1.15154264184037707919e-01) (137, -5.64664335478150120062e-02) (138, 1.40276178019247355078e-01) (139, 3.06275868476095884663e-02) (140, 9.32879865386366385893e-02) (141, -1.61378852098010810989e-01) (142, 1.07159238349501542698e-01) (143, 8.40736525089465919214e-02) (144, -1.21464730353224956150e-01) (145, 9.32390852062454505988e-02) (146, 5.51826322440101546540e-02) (147, 2.90007341450866755472e-02) (148, -1.27135690565660625095e-01) (149, -1.81438045317304616662e-03) (150, -4.57111826207827406932e-02) (151, 1.11216952357153481268e-01) (152, 6.95048343022906106592e-02) (153, 1.26552379848125923223e-02) (154, 1.54131459729615144516e-01) (155, 8.47578979469415932924e-02) (156, -5.50959156437815372742e-02) (157, -4.55944939999021817134e-03) (158, 6.82953595585654993361e-02) (159, -1.62952115985811434029e-02) (160, -9.90089529742013835234e-02) (161, -6.76381096768380735140e-02) (162, -7.50604138067143267232e-02) (163, -9.54441686163413072208e-02) (164, -8.37484262508201987574e-02) (165, -4.12532297681086527292e-05) (166, 3.02606261234391396564e-02) (167, -1.30756209296686964905e-01) (168, -1.23581242415013881769e-02) (169, 8.65752617823363490590e-02) (170, 4.90306842459778124965e-02) (171, 3.91471608411497404290e-02) (172, 7.81266093186613747035e-02) (173, -5.90121487756345170644e-03) (174, -3.26164257701622647967e-02) (175, 1.26113196555322826242e-01) (176, 3.01793499588054112137e-02) (177, -1.03577704942542037081e-01) (178, -4.82644766141461598746e-03) (179, -7.95381775252074485483e-02) (180, 1.29797746141039095635e-02) (181, -7.54486509454473097680e-02) (182, 5.99122758408240363437e-02) (183, -1.82860255445989883238e-02) (184, 1.09598913509026146818e-01) (185, 7.01845052380643125156e-02) (186, -6.48931662542009263239e-02) (187, -6.82766154758898957677e-02) (188, -9.15298762410991229022e-02) (189, 1.23037196473606919023e-01) (190, -2.52800353240825760592e-02) (191, 1.79622321346048705037e-02) (192, 9.88118087528618016524e-03) (193, 5.42488103214788935924e-02) (194, 2.51246418420721824571e-02) (195, -9.98021410839313415087e-03) (196, -3.37333818481672488912e-03) (197, -1.37861022830312335979e-02) (198, 4.38261145363705237332e-02) (199, -7.38145864184957395393e-02) (200, -8.86907428506137074375e-02) (201, 2.40551489923567854423e-02) (202, 9.88007156247021067763e-02) (203, 4.11549412696197089434e-02) (204, -4.02508084481841138524e-02) (205, 3.00681443602416297034e-02) (206, 5.74112426767915615122e-02) (207, -7.51405059549508924643e-02) (208, 5.29258340093523987901e-02) (209, -5.08463265680117182388e-02) (210, -4.37122977239956661544e-02) (211, -3.67894205616786096336e-02) (212, 2.65864146613925718399e-03) (213, -5.69463966809225022314e-02) (214, 5.86976546072216359695e-02) (215, 3.39021204537376802390e-02) (216, -1.26981359423266937370e-01) (217, 9.51616684320219924365e-02) (218, 8.97618418251566463351e-02) (219, 7.03191172555570846031e-03) (220, 5.36824239267057676250e-02) (221, -4.05003910098578057131e-02) (222, -6.46111105533765661679e-02) (223, -4.00828578844197799813e-02) (224, 9.08364509129264419141e-02) (225, -8.88239152712935568779e-03) (226, 1.17943228022994228699e-01) (227, -3.73969837807109420358e-02) (228, -8.66649187720820446401e-02) (229, 3.39646343490262181408e-02) (230, -2.46092831050864872811e-02) (231, -1.43074821680038983922e-03) (232, -1.02601920588597891881e-01) (233, 1.72181749590134131056e-02) (234, -3.40523829076420717077e-02) (235, 2.82804933956874423109e-03) (236, -8.96601422020876365204e-02) (237, -1.02855746631141317660e-01) (238, -7.45299473040452083172e-03) (239, 5.20075771597140606994e-02) (240, 1.73377895678687166114e-02) (241, 5.62368414464484572823e-02) (242, -3.25999808283000125364e-02) (243, -7.81761588536084295331e-02) (244, -6.83140855817012671025e-02) (245, 5.39969848777400660000e-02) (246, 2.83609805231499825795e-02) (247, -1.00382182254642918218e-01) (248, 6.70360081209982611172e-02) (249, 7.22124963263838515193e-02) (250, -3.89060816740026890748e-02) (251, 2.74044115561416917748e-02) (252, 1.36745029543389462479e-01) (253, 1.20824884822606586597e-03) (254, -2.99428170288854392234e-02) (255, 7.49996425891555212884e-02) (256, -8.19758004712255461399e-02) (257, 2.16885445684449097714e-02) (258, -8.60662001215994204584e-02) (259, 6.14156963394550989939e-05) (260, 4.13525775014432009358e-02) (261, 6.78729281363087133538e-02) (262, 5.42894496927910502615e-02) (263, 5.24470318419270470356e-02) (264, -5.76234650744987045301e-02) (265, 2.43644004501895258819e-02) (266, -6.57787698039029589125e-02) (267, 1.98546900730016441516e-02) (268, 6.09737957240674768866e-02) (269, 8.06085551523286480968e-02) (270, -3.18951641083045078773e-02) (271, 2.85474621126905435398e-02) (272, 3.27438734741278825169e-02) (273, 3.83840038073993529769e-03) (274, 9.61579025922478375366e-02) (275, 4.56124890470553379096e-02) (276, -9.88214842200013654505e-03) (277, 3.40097212583455252299e-02) (278, 4.43302987374201498683e-02) (279, -3.27137274661495544570e-02) (280, -3.95840780314216378333e-02) (281, -6.90115350168322982949e-02) (282, -9.00716203670225562528e-02) (283, -2.28575921004308471596e-02) (284, 3.17110436054635139169e-02) (285, -5.35323303884047349555e-02) (286, -1.72155348097727707579e-02) (287, 7.58029208634214829443e-02) (288, -3.55552450486951426151e-03) (289, 9.52336337887194593621e-03) (290, -7.57458274927280128530e-02) (291, -4.82622788464452182056e-02) (292, -2.50733492724657634765e-02) (293, 8.38847083375890284485e-02) (294, -8.27871277357114521145e-02) (295, 7.93190514360010562323e-02) (296, 2.75092528346910572545e-02) (297, 6.42311632217577237018e-04) (298, 4.38129467390704560592e-02) (299, 1.39962819764188201033e-02) (300, -6.31833374100619210578e-02) (301, 8.43950028365175741740e-02) (302, -6.09375595981333367801e-02) (303, -1.09261569618891746236e-01) (304, -3.08225469353082650106e-03) (305, 5.59296995835123350593e-02) (306, 4.85299477019509456488e-02) (307, 9.87383601530952281777e-02) (308, -2.01093093631231067953e-02) (309, 6.18078867093518197207e-02) (310, -9.00651129985006043688e-02) (311, 1.36520505626180926884e-01) (312, 8.27067147953579051567e-02) (313, -4.49685275463257635997e-02) (314, -4.47446515985216522471e-02) (315, 5.46775507696880685993e-02) (316, 1.05073354790620847321e-02) (317, 4.43462473830601097702e-02) (318, 1.55324703921578665539e-02) (319, -8.24664712320913040333e-02) (320, -7.97882117103573124117e-02) (321, 5.36419337813847513230e-02) (322, -1.93794663479143064455e-02) (323, 5.05737464632422945021e-02) (324, 1.19156380894649797930e-02) (325, -2.26924831004407939750e-02) (326, 2.93929526854610698172e-02) (327, -5.04471385350733561581e-02) (328, 3.74987853882889146662e-02) (329, -4.96658290661537299426e-02) (330, 7.23661039920712179097e-02) (331, 6.15937086372266087708e-02) (332, 1.46675784666135296253e-02) (333, -4.04836419204926550863e-02) (334, 1.26276208184452010119e-01) (335, 5.75970816264096806963e-03) (336, 1.07241016527836255379e-01) 