FANN_FLO_2.1
num_layers=3
learning_rate=0.010000
connection_rate=1.000000
network_type=0
learning_momentum=0.300000
training_algorithm=0
train_error_function=0
train_stop_function=0
cascade_output_change_fraction=0.010000
quickprop_decay=-0.000100
quickprop_mu=1.750000
rprop_increase_factor=1.200000
rprop_decrease_factor=0.500000
rprop_delta_min=0.000000
rprop_delta_max=50.000000
rprop_delta_zero=0.100000
cascade_output_stagnation_epochs=12
cascade_candidate_change_fraction=0.010000
cascade_candidate_stagnation_epochs=12
cascade_max_out_epochs=150
cascade_max_cand_epochs=150
cascade_num_candidate_groups=2
bit_fail_limit=3.49999999999999977796e-01
cascade_candidate_limit=1.00000000000000000000e+03
cascade_weight_multiplier=4.00000000000000022204e-01
cascade_activation_functions_count=10
cascade_activation_functions=3 5 7 8 10 11 14 15 16 17 
cascade_activation_steepnesses_count=4
cascade_activation_steepnesses=2.50000000000000000000e-01 5.00000000000000000000e-01 7.50000000000000000000e-01 1.00000000000000000000e+00 
layer_sizes=831 26 3 
scale_included=0
neurons (num_inputs, activation_function, activation_steepness)=(0, 0, 0.00000000000000000000e+00) (0, 0, 0.00000000000000000000e+00) (0, 0, 0.00000000000000000000e+00) (0, 0, 0.00000000000000000000e+00) (0, 0, 0.00000000000000000000e+00) (0, 0, 0.00000000000000000000e+00) (0, 0, 0.00000000000000000000e+00) (0, 0, 0.00000000000000000000e+00) (0, 0, 0.00000000000000000000e+00) (0, 0, 0.00000000000000000000e+00) (0, 0, 0.00000000000000000000e+00) (0, 0, 0.00000000000000000000e+00) (0, 0, 0.00000000000000000000e+00) (0, 0, 0.00000000000000000000e+00) (0, 0, 0.00000000000000000000e+00) (0, 0, 0.00000000000000000000e+00) (0, 0, 0.00000000000000000000e+00) (0, 0, 0.00000000000000000000e+00) (0, 0, 0.00000000000000000000e+00) (0, 0, 0.00000000000000000000e+00) (0, 0, 0.00000000000000000000e+00) (0, 0, 0.00000000000000000000e+00) (0, 0, 0.00000000000000000000e+00) (0, 0, 0.00000000000000000000e+00) (0, 0, 0.00000000000000000000e+00) (0, 0, 0.00000000000000000000e+00) (0, 0, 0.00000000000000000000e+00) (0, 0, 0.00000000000000000000e+00) (0, 0, 0.00000000000000000000e+00) (0, 0, 0.00000000000000000000e+00) (0, 0, 0.00000000000000000000e+00) (0, 0, 0.00000000000000000000e+00) (0, 0, 0.00000000000000000000e+00) (0, 0, 0.00000000000000000000e+00) (0, 0, 0.00000000000000000000e+00) (0, 0, 0.00000000000000000000e+00) (0, 0, 0.00000000000000000000e+00) (0, 0, 0.00000000000000000000e+00) (0, 0, 0.00000000000000000000e+00) (0, 0, 0.00000000000000000000e+00) (0, 0, 0.00000000000000000000e+00) (0, 0, 0.00000000000000000000e+00) (0, 0, 0.00000000000000000000e+00) (0, 0, 0.00000000000000000000e+00) (0, 0, 0.00000000000000000000e+00) (0, 0, 0.00000000000000000000e+00) (0, 0, 0.00000000000000000000e+00) (0, 0, 0.00000000000000000000e+00) (0, 0, 0.00000000000000000000e+00) (0, 0, 0.00000000000000000000e+00) (0, 0, 0.00000000000000000000e+00) (0, 0, 0.00000000000000000000e+00) (0, 0, 0.00000000000000000000e+00) (0, 0, 0.00000000000000000000e+00) (0, 0, 0.00000000000000000000e+00) (0, 0, 0.00000000000000000000e+00) (0, 0, 0.00000000000000000000e+00) (0, 0, 0.00000000000000000000e+00) (0, 0, 0.00000000000000000000e+00) (0, 0, 0.00000000000000000000e+00) (0, 0, 0.00000000000000000000e+00) (0, 0, 0.00000000000000000000e+00) (0, 0, 0.00000000000000000000e+00) (0, 0, 0.00000000000000000000e+00) (0, 0, 0.00000000000000000000e+00) (0, 0, 0.00000000000000000000e+00) (0, 0, 0.00000000000000000000e+00) (0, 0, 0.00000000000000000000e+00) (0, 0, 0.00000000000000000000e+00) (0, 0, 0.00000000000000000000e+00) (0, 0, 0.00000000000000000000e+00) (0, 0, 0.00000000000000000000e+00) (0, 0, 0.00000000000000000000e+00) (0, 0, 0.00000000000000000000e+00) (0, 0, 0.00000000000000000000e+00) (0, 0, 0.00000000000000000000e+00) (0, 0, 0.00000000000000000000e+00) (0, 0, 0.00000000000000000000e+00) (0, 0, 0.00000000000000000000e+00) (0, 0, 0.00000000000000000000e+00) (0, 0, 0.00000000000000000000e+00) (0, 0, 0.00000000000000000000e+00) (0, 0, 0.00000000000000000000e+00) (0, 0, 0.00000000000000000000e+00) (0, 0, 0.00000000000000000000e+00) (0, 0, 0.00000000000000000000e+00) (0, 0, 0.00000000000000000000e+00) (0, 0, 0.00000000000000000000e+00) (0, 0, 0.00000000000000000000e+00) (0, 0, 0.00000000000000000000e+00) (0, 0, 0.00000000000000000000e+00) (0, 0, 0.00000000000000000000e+00) (0, 0, 0.00000000000000000000e+00) (0, 0, 0.00000000000000000000e+00) (0, 0, 0.00000000000000000000e+00) (0, 0, 0.00000000000000000000e+00) (0, 0, 0.00000000000000000000e+00) (0, 0, 0.00000000000000000000e+00) (0, 0, 0.00000000000000000000e+00) (0, 0, 0.00000000000000000000e+00) (0, 0, 0.00000000000000000000e+00) (0, 0, 0.00000000000000000000e+00) (0, 0, 0.00000000000000000000e+00) (0, 0, 0.00000000000000000000e+00) (0, 0, 0.00000000000000000000e+00) (0, 0, 0.00000000000000000000e+00) (0, 0, 0.00000000000000000000e+00) (0, 0, 0.00000000000000000000e+00) (0, 0, 0.00000000000000000000e+00) (0, 0, 0.00000000000000000000e+00) (0, 0, 0.00000000000000000000e+00) (0, 0, 0.00000000000000000000e+00) (0, 0, 0.00000000000000000000e+00) (0, 0, 0.00000000000000000000e+00) (0, 0, 0.00000000000000000000e+00) (0, 0, 0.00000000000000000000e+00) (0, 0, 0.00000000000000000000e+00) (0, 0, 0.00000000000000000000e+00) (0, 0, 0.00000000000000000000e+00) (0, 0, 0.00000000000000000000e+00) (0, 0, 0.00000000000000000000e+00) (0, 0, 0.00000000000000000000e+00) (0, 0, 0.00000000000000000000e+00) (0, 0, 0.00000000000000000000e+00) (0, 0, 0.00000000000000000000e+00) (0, 0, 0.00000000000000000000e+00) (0, 0, 0.00000000000000000000e+00) (0, 0, 0.00000000000000000000e+00) (0, 0, 0.00000000000000000000e+00) (0, 0, 0.00000000000000000000e+00) (0, 0, 0.00000000000000000000e+00) (0, 0, 0.00000000000000000000e+00) (0, 0, 0.00000000000000000000e+00) (0, 0, 0.00000000000000000000e+00) (0, 0, 0.00000000000000000000e+00) (0, 0, 0.00000000000000000000e+00) (0, 0, 0.00000000000000000000e+00) (0, 0, 0.00000000000000000000e+00) (0, 0, 0.00000000000000000000e+00) (0, 0, 0.00000000000000000000e+00) (0, 0, 0.00000000000000000000e+00) (0, 0, 0.00000000000000000000e+00) (0, 0, 0.00000000000000000000e+00) (0, 0, 0.00000000000000000000e+00) (0, 0, 0.00000000000000000000e+00) (0, 0, 0.00000000000000000000e+00) (0, 0, 0.00000000000000000000e+00) (0, 0, 0.00000000000000000000e+00) (0, 0, 0.00000000000000000000e+00) (0, 0, 0.00000000000000000000e+00) (0, 0, 0.00000000000000000000e+00) (0, 0, 0.00000000000000000000e+00) (0, 0, 0.00000000000000000000e+00) (0, 0, 0.00000000000000000000e+00) (0, 0, 0.00000000000000000000e+00) (0, 0, 0.00000000000000000000e+00) (0, 0, 0.00000000000000000000e+00) (0, 0, 0.00000000000000000000e+00) (0, 0, 0.00000000000000000000e+00) (0, 0, 0.00000000000000000000e+00) (0, 0, 0.00000000000000000000e+00) (0, 0, 0.00000000000000000000e+00) (0, 0, 0.00000000000000000000e+00) (0, 0, 0.00000000000000000000e+00) (0, 0, 0.00000000000000000000e+00) (0, 0, 0.00000000000000000000e+00) (0, 0, 0.00000000000000000000e+00) (0, 0, 0.00000000000000000000e+00) (0, 0, 0.00000000000000000000e+00) (0, 0, 0.00000000000000000000e+00) (0, 0, 0.00000000000000000000e+00) (0, 0, 0.00000000000000000000e+00) (0, 0, 0.00000000000000000000e+00) (0, 0, 0.00000000000000000000e+00) (0, 0, 0.00000000000000000000e+00) (0, 0, 0.00000000000000000000e+00) (0, 0, 0.00000000000000000000e+00) (0, 0, 0.00000000000000000000e+00) (0, 0, 0.00000000000000000000e+00) (0, 0, 0.00000000000000000000e+00) (0, 0, 0.00000000000000000000e+00) (0, 0, 0.00000000000000000000e+00) (0, 0, 0.00000000000000000000e+00) (0, 0, 0.00000000000000000000e+00) (0, 0, 0.00000000000000000000e+00) (0, 0, 0.00000000000000000000e+00) (0, 0, 0.00000000000000000000e+00) (0, 0, 0.00000000000000000000e+00) (0, 0, 0.00000000000000000000e+00) (0, 0, 0.00000000000000000000e+00) (0, 0, 0.00000000000000000000e+00) (0, 0, 0.00000000000000000000e+00) (0, 0, 0.00000000000000000000e+00) (0, 0, 0.00000000000000000000e+00) (0, 0, 0.00000000000000000000e+00) (0, 0, 0.00000000000000000000e+00) (0, 0, 0.00000000000000000000e+00) (0, 0, 0.00000000000000000000e+00) (0, 0, 0.00000000000000000000e+00) (0, 0, 0.00000000000000000000e+00) (0, 0, 0.00000000000000000000e+00) (0, 0, 0.00000000000000000000e+00) (0, 0, 0.00000000000000000000e+00) (0, 0, 0.00000000000000000000e+00) (0, 0, 0.00000000000000000000e+00) (0, 0, 0.00000000000000000000e+00) (0, 0, 0.00000000000000000000e+00) (0, 0, 0.00000000000000000000e+00) (0, 0, 0.00000000000000000000e+00) (0, 0, 0.00000000000000000000e+00) (0, 0, 0.00000000000000000000e+00) (0, 0, 0.00000000000000000000e+00) (0, 0, 0.00000000000000000000e+00) (0, 0, 0.00000000000000000000e+00) (0, 0, 0.00000000000000000000e+00) (0, 0, 0.00000000000000000000e+00) (0, 0, 0.00000000000000000000e+00) (0, 0, 0.00000000000000000000e+00) (0, 0, 0.00000000000000000000e+00) (0, 0, 0.00000000000000000000e+00) (0, 0, 0.00000000000000000000e+00) (0, 0, 0.00000000000000000000e+00) (0, 0, 0.00000000000000000000e+00) (0, 0, 0.00000000000000000000e+00) (0, 0, 0.00000000000000000000e+00) (0, 0, 0.00000000000000000000e+00) (0, 0, 0.00000000000000000000e+00) (0, 0, 0.00000000000000000000e+00) (0, 0, 0.00000000000000000000e+00) (0, 0, 0.00000000000000000000e+00) (0, 0, 0.00000000000000000000e+00) (0, 0, 0.00000000000000000000e+00) (0, 0, 0.00000000000000000000e+00) (0, 0, 0.00000000000000000000e+00) (0, 0, 0.00000000000000000000e+00) (0, 0, 0.00000000000000000000e+00) (0, 0, 0.00000000000000000000e+00) (0, 0, 0.00000000000000000000e+00) (0, 0, 0.00000000000000000000e+00) (0, 0, 0.00000000000000000000e+00) (0, 0, 0.00000000000000000000e+00) (0, 0, 0.00000000000000000000e+00) (0, 0, 0.00000000000000000000e+00) (0, 0, 0.00000000000000000000e+00) (0, 0, 0.00000000000000000000e+00) (0, 0, 0.00000000000000000000e+00) (0, 0, 0.00000000000000000000e+00) (0, 0, 0.00000000000000000000e+00) (0, 0, 0.00000000000000000000e+00) (0, 0, 0.00000000000000000000e+00) (0, 0, 0.00000000000000000000e+00) (0, 0, 0.00000000000000000000e+00) (0, 0, 0.00000000000000000000e+00) (0, 0, 0.00000000000000000000e+00) (0, 0, 0.00000000000000000000e+00) (0, 0, 0.00000000000000000000e+00) (0, 0, 0.00000000000000000000e+00) (0, 0, 0.00000000000000000000e+00) (0, 0, 0.00000000000000000000e+00) (0, 0, 0.00000000000000000000e+00) (0, 0, 0.00000000000000000000e+00) (0, 0, 0.00000000000000000000e+00) (0, 0, 0.00000000000000000000e+00) (0, 0, 0.00000000000000000000e+00) (0, 0, 0.00000000000000000000e+00) (0, 0, 0.00000000000000000000e+00) (0, 0, 0.00000000000000000000e+00) (0, 0, 0.00000000000000000000e+00) (0, 0, 0.00000000000000000000e+00) (0, 0, 0.00000000000000000000e+00) (0, 0, 0.00000000000000000000e+00) (0, 0, 0.00000000000000000000e+00) (0, 0, 0.00000000000000000000e+00) (0, 0, 0.00000000000000000000e+00) (0, 0, 0.00000000000000000000e+00) (0, 0, 0.00000000000000000000e+00) (0, 0, 0.00000000000000000000e+00) (0, 0, 0.00000000000000000000e+00) (0, 0, 0.00000000000000000000e+00) (0, 0, 0.00000000000000000000e+00) (0, 0, 0.00000000000000000000e+00) (0, 0, 0.00000000000000000000e+00) (0, 0, 0.00000000000000000000e+00) (0, 0, 0.00000000000000000000e+00) (0, 0, 0.00000000000000000000e+00) (0, 0, 0.00000000000000000000e+00) (0, 0, 0.00000000000000000000e+00) (0, 0, 0.00000000000000000000e+00) (0, 0, 0.00000000000000000000e+00) (0, 0, 0.00000000000000000000e+00) (0, 0, 0.00000000000000000000e+00) (0, 0, 0.00000000000000000000e+00) (0, 0, 0.00000000000000000000e+00) (0, 0, 0.00000000000000000000e+00) (0, 0, 0.00000000000000000000e+00) (0, 0, 0.00000000000000000000e+00) (0, 0, 0.00000000000000000000e+00) (0, 0, 0.00000000000000000000e+00) (0, 0, 0.00000000000000000000e+00) (0, 0, 0.00000000000000000000e+00) (0, 0, 0.00000000000000000000e+00) (0, 0, 0.00000000000000000000e+00) (0, 0, 0.00000000000000000000e+00) (0, 0, 0.00000000000000000000e+00) (0, 0, 0.00000000000000000000e+00) (0, 0, 0.00000000000000000000e+00) (0, 0, 0.00000000000000000000e+00) (0, 0, 0.00000000000000000000e+00) (0, 0, 0.00000000000000000000e+00) (0, 0, 0.00000000000000000000e+00) (0, 0, 0.00000000000000000000e+00) (0, 0, 0.00000000000000000000e+00) (0, 0, 0.00000000000000000000e+00) (0, 0, 0.00000000000000000000e+00) (0, 0, 0.00000000000000000000e+00) (0, 0, 0.00000000000000000000e+00) (0, 0, 0.00000000000000000000e+00) (0, 0, 0.00000000000000000000e+00) (0, 0, 0.00000000000000000000e+00) (0, 0, 0.00000000000000000000e+00) (0, 0, 0.00000000000000000000e+00) (0, 0, 0.00000000000000000000e+00) (0, 0, 0.00000000000000000000e+00) (0, 0, 0.00000000000000000000e+00) (0, 0, 0.00000000000000000000e+00) (0, 0, 0.00000000000000000000e+00) (0, 0, 0.00000000000000000000e+00) (0, 0, 0.00000000000000000000e+00) (0, 0, 0.00000000000000000000e+00) (0, 0, 0.00000000000000000000e+00) (0, 0, 0.00000000000000000000e+00) (0, 0, 0.00000000000000000000e+00) (0, 0, 0.00000000000000000000e+00) (0, 0, 0.00000000000000000000e+00) (0, 0, 0.00000000000000000000e+00) (0, 0, 0.00000000000000000000e+00) (0, 0, 0.00000000000000000000e+00) (0, 0, 0.00000000000000000000e+00) (0, 0, 0.00000000000000000000e+00) (0, 0, 0.00000000000000000000e+00) (0, 0, 0.00000000000000000000e+00) (0, 0, 0.00000000000000000000e+00) (0, 0, 0.00000000000000000000e+00) (0, 0, 0.00000000000000000000e+00) (0, 0, 0.00000000000000000000e+00) (0, 0, 0.00000000000000000000e+00) (0, 0, 0.00000000000000000000e+00) (0, 0, 0.00000000000000000000e+00) (0, 0, 0.00000000000000000000e+00) (0, 0, 0.00000000000000000000e+00) (0, 0, 0.00000000000000000000e+00) (0, 0, 0.00000000000000000000e+00) (0, 0, 0.00000000000000000000e+00) (0, 0, 0.00000000000000000000e+00) (0, 0, 0.00000000000000000000e+00) (0, 0, 0.00000000000000000000e+00) (0, 0, 0.00000000000000000000e+00) (0, 0, 0.00000000000000000000e+00) (0, 0, 0.00000000000000000000e+00) (0, 0, 0.00000000000000000000e+00) (0, 0, 0.00000000000000000000e+00) (0, 0, 0.00000000000000000000e+00) (0, 0, 0.00000000000000000000e+00) (0, 0, 0.00000000000000000000e+00) (0, 0, 0.00000000000000000000e+00) (0, 0, 0.00000000000000000000e+00) (0, 0, 0.00000000000000000000e+00) (0, 0, 0.00000000000000000000e+00) (0, 0, 0.00000000000000000000e+00) (0, 0, 0.00000000000000000000e+00) (0, 0, 0.00000000000000000000e+00) (0, 0, 0.00000000000000000000e+00) (0, 0, 0.00000000000000000000e+00) (0, 0, 0.00000000000000000000e+00) (0, 0, 0.00000000000000000000e+00) (0, 0, 0.00000000000000000000e+00) (0, 0, 0.00000000000000000000e+00) (0, 0, 0.00000000000000000000e+00) (0, 0, 0.00000000000000000000e+00) (0, 0, 0.00000000000000000000e+00) (0, 0, 0.00000000000000000000e+00) (0, 0, 0.00000000000000000000e+00) (0, 0, 0.00000000000000000000e+00) (0, 0, 0.00000000000000000000e+00) (0, 0, 0.00000000000000000000e+00) (0, 0, 0.00000000000000000000e+00) (0, 0, 0.00000000000000000000e+00) (0, 0, 0.00000000000000000000e+00) (0, 0, 0.00000000000000000000e+00) (0, 0, 0.00000000000000000000e+00) (0, 0, 0.00000000000000000000e+00) (0, 0, 0.00000000000000000000e+00) (0, 0, 0.00000000000000000000e+00) (0, 0, 0.00000000000000000000e+00) (0, 0, 0.00000000000000000000e+00) (0, 0, 0.00000000000000000000e+00) (0, 0, 0.00000000000000000000e+00) (0, 0, 0.00000000000000000000e+00) (0, 0, 0.00000000000000000000e+00) (0, 0, 0.00000000000000000000e+00) (0, 0, 0.00000000000000000000e+00) (0, 0, 0.00000000000000000000e+00) (0, 0, 0.00000000000000000000e+00) (0, 0, 0.00000000000000000000e+00) (0, 0, 0.00000000000000000000e+00) (0, 0, 0.00000000000000000000e+00) (0, 0, 0.00000000000000000000e+00) (0, 0, 0.00000000000000000000e+00) (0, 0, 0.00000000000000000000e+00) (0, 0, 0.00000000000000000000e+00) (0, 0, 0.00000000000000000000e+00) (0, 0, 0.00000000000000000000e+00) (0, 0, 0.00000000000000000000e+00) (0, 0, 0.00000000000000000000e+00) (0, 0, 0.00000000000000000000e+00) (0, 0, 0.00000000000000000000e+00) (0, 0, 0.00000000000000000000e+00) (0, 0, 0.00000000000000000000e+00) (0, 0, 0.00000000000000000000e+00) (0, 0, 0.00000000000000000000e+00) (0, 0, 0.00000000000000000000e+00) (0, 0, 0.00000000000000000000e+00) (0, 0, 0.00000000000000000000e+00) (0, 0, 0.00000000000000000000e+00) (0, 0, 0.00000000000000000000e+00) (0, 0, 0.00000000000000000000e+00) (0, 0, 0.00000000000000000000e+00) (0, 0, 0.00000000000000000000e+00) (0, 0, 0.00000000000000000000e+00) (0, 0, 0.00000000000000000000e+00) (0, 0, 0.00000000000000000000e+00) (0, 0, 0.00000000000000000000e+00) (0, 0, 0.00000000000000000000e+00) (0, 0, 0.00000000000000000000e+00) (0, 0, 0.00000000000000000000e+00) (0, 0, 0.00000000000000000000e+00) (0, 0, 0.00000000000000000000e+00) (0, 0, 0.00000000000000000000e+00) (0, 0, 0.00000000000000000000e+00) (0, 0, 0.00000000000000000000e+00) (0, 0, 0.00000000000000000000e+00) (0, 0, 0.00000000000000000000e+00) (0, 0, 0.00000000000000000000e+00) (0, 0, 0.00000000000000000000e+00) (0, 0, 0.00000000000000000000e+00) (0, 0, 0.00000000000000000000e+00) (0, 0, 0.00000000000000000000e+00) (0, 0, 0.00000000000000000000e+00) (0, 0, 0.00000000000000000000e+00) (0, 0, 0.00000000000000000000e+00) (0, 0, 0.00000000000000000000e+00) (0, 0, 0.00000000000000000000e+00) (0, 0, 0.00000000000000000000e+00) (0, 0, 0.00000000000000000000e+00) (0, 0, 0.00000000000000000000e+00) (0, 0, 0.00000000000000000000e+00) (0, 0, 0.00000000000000000000e+00) (0, 0, 0.00000000000000000000e+00) (0, 0, 0.00000000000000000000e+00) (0, 0, 0.00000000000000000000e+00) (0, 0, 0.00000000000000000000e+00) (0, 0, 0.00000000000000000000e+00) (0, 0, 0.00000000000000000000e+00) (0, 0, 0.00000000000000000000e+00) (0, 0, 0.00000000000000000000e+00) (0, 0, 0.00000000000000000000e+00) (0, 0, 0.00000000000000000000e+00) (0, 0, 0.00000000000000000000e+00) (0, 0, 0.00000000000000000000e+00) (0, 0, 0.00000000000000000000e+00) (0, 0, 0.00000000000000000000e+00) (0, 0, 0.00000000000000000000e+00) (0, 0, 0.00000000000000000000e+00) (0, 0, 0.00000000000000000000e+00) (0, 0, 0.00000000000000000000e+00) (0, 0, 0.00000000000000000000e+00) (0, 0, 0.00000000000000000000e+00) (0, 0, 0.00000000000000000000e+00) (0, 0, 0.00000000000000000000e+00) (0, 0, 0.00000000000000000000e+00) (0, 0, 0.00000000000000000000e+00) (0, 0, 0.00000000000000000000e+00) (0, 0, 0.00000000000000000000e+00) (0, 0, 0.00000000000000000000e+00) (0, 0, 0.00000000000000000000e+00) (0, 0, 0.00000000000000000000e+00) (0, 0, 0.00000000000000000000e+00) (0, 0, 0.00000000000000000000e+00) (0, 0, 0.00000000000000000000e+00) (0, 0, 0.00000000000000000000e+00) (0, 0, 0.00000000000000000000e+00) (0, 0, 0.00000000000000000000e+00) (0, 0, 0.00000000000000000000e+00) (0, 0, 0.00000000000000000000e+00) (0, 0, 0.00000000000000000000e+00) (0, 0, 0.00000000000000000000e+00) (0, 0, 0.00000000000000000000e+00) (0, 0, 0.00000000000000000000e+00) (0, 0, 0.00000000000000000000e+00) (0, 0, 0.00000000000000000000e+00) (0, 0, 0.00000000000000000000e+00) (0, 0, 0.00000000000000000000e+00) (0, 0, 0.00000000000000000000e+00) (0, 0, 0.00000000000000000000e+00) (0, 0, 0.00000000000000000000e+00) (0, 0, 0.00000000000000000000e+00) (0, 0, 0.00000000000000000000e+00) (0, 0, 0.00000000000000000000e+00) (0, 0, 0.00000000000000000000e+00) (0, 0, 0.00000000000000000000e+00) (0, 0, 0.00000000000000000000e+00) (0, 0, 0.00000000000000000000e+00) (0, 0, 0.00000000000000000000e+00) (0, 0, 0.00000000000000000000e+00) (0, 0, 0.00000000000000000000e+00) (0, 0, 0.00000000000000000000e+00) (0, 0, 0.00000000000000000000e+00) (0, 0, 0.00000000000000000000e+00) (0, 0, 0.00000000000000000000e+00) (0, 0, 0.00000000000000000000e+00) (0, 0, 0.00000000000000000000e+00) (0, 0, 0.00000000000000000000e+00) (0, 0, 0.00000000000000000000e+00) (0, 0, 0.00000000000000000000e+00) (0, 0, 0.00000000000000000000e+00) (0, 0, 0.00000000000000000000e+00) (0, 0, 0.00000000000000000000e+00) (0, 0, 0.00000000000000000000e+00) (0, 0, 0.00000000000000000000e+00) (0, 0, 0.00000000000000000000e+00) (0, 0, 0.00000000000000000000e+00) (0, 0, 0.00000000000000000000e+00) (0, 0, 0.00000000000000000000e+00) (0, 0, 0.00000000000000000000e+00) (0, 0, 0.00000000000000000000e+00) (0, 0, 0.00000000000000000000e+00) (0, 0, 0.00000000000000000000e+00) (0, 0, 0.00000000000000000000e+00) (0, 0, 0.00000000000000000000e+00) (0, 0, 0.00000000000000000000e+00) (0, 0, 0.00000000000000000000e+00) (0, 0, 0.00000000000000000000e+00) (0, 0, 0.00000000000000000000e+00) (0, 0, 0.00000000000000000000e+00) (0, 0, 0.00000000000000000000e+00) (0, 0, 0.00000000000000000000e+00) (0, 0, 0.00000000000000000000e+00) (0, 0, 0.00000000000000000000e+00) (0, 0, 0.00000000000000000000e+00) (0, 0, 0.00000000000000000000e+00) (0, 0, 0.00000000000000000000e+00) (0, 0, 0.00000000000000000000e+00) (0, 0, 0.00000000000000000000e+00) (0, 0, 0.00000000000000000000e+00) (0, 0, 0.00000000000000000000e+00) (0, 0, 0.00000000000000000000e+00) (0, 0, 0.00000000000000000000e+00) (0, 0, 0.00000000000000000000e+00) (0, 0, 0.00000000000000000000e+00) (0, 0, 0.00000000000000000000e+00) (0, 0, 0.00000000000000000000e+00) (0, 0, 0.00000000000000000000e+00) (0, 0, 0.00000000000000000000e+00) (0, 0, 0.00000000000000000000e+00) (0, 0, 0.00000000000000000000e+00) (0, 0, 0.00000000000000000000e+00) (0, 0, 0.00000000000000000000e+00) (0, 0, 0.00000000000000000000e+00) (0, 0, 0.00000000000000000000e+00) (0, 0, 0.00000000000000000000e+00) (0, 0, 0.00000000000000000000e+00) (0, 0, 0.00000000000000000000e+00) (0, 0, 0.00000000000000000000e+00) (0, 0, 0.00000000000000000000e+00) (0, 0, 0.00000000000000000000e+00) (0, 0, 0.00000000000000000000e+00) (0, 0, 0.00000000000000000000e+00) (0, 0, 0.00000000000000000000e+00) (0, 0, 0.00000000000000000000e+00) (0, 0, 0.00000000000000000000e+00) (0, 0, 0.00000000000000000000e+00) (0, 0, 0.00000000000000000000e+00) (0, 0, 0.00000000000000000000e+00) (0, 0, 0.00000000000000000000e+00) (0, 0, 0.00000000000000000000e+00) (0, 0, 0.00000000000000000000e+00) (0, 0, 0.00000000000000000000e+00) (0, 0, 0.00000000000000000000e+00) (0, 0, 0.00000000000000000000e+00) (0, 0, 0.00000000000000000000e+00) (0, 0, 0.00000000000000000000e+00) (0, 0, 0.00000000000000000000e+00) (0, 0, 0.00000000000000000000e+00) (0, 0, 0.00000000000000000000e+00) (0, 0, 0.00000000000000000000e+00) (0, 0, 0.00000000000000000000e+00) (0, 0, 0.00000000000000000000e+00) (0, 0, 0.00000000000000000000e+00) (0, 0, 0.00000000000000000000e+00) (0, 0, 0.00000000000000000000e+00) (0, 0, 0.00000000000000000000e+00) (0, 0, 0.00000000000000000000e+00) (0, 0, 0.00000000000000000000e+00) (0, 0, 0.00000000000000000000e+00) (0, 0, 0.00000000000000000000e+00) (0, 0, 0.00000000000000000000e+00) (0, 0, 0.00000000000000000000e+00) (0, 0, 0.00000000000000000000e+00) (0, 0, 0.00000000000000000000e+00) (0, 0, 0.00000000000000000000e+00) (0, 0, 0.00000000000000000000e+00) (0, 0, 0.00000000000000000000e+00) (0, 0, 0.00000000000000000000e+00) (0, 0, 0.00000000000000000000e+00) (0, 0, 0.00000000000000000000e+00) (0, 0, 0.00000000000000000000e+00) (0, 0, 0.00000000000000000000e+00) (0, 0, 0.00000000000000000000e+00) (0, 0, 0.00000000000000000000e+00) (0, 0, 0.00000000000000000000e+00) (0, 0, 0.00000000000000000000e+00) (0, 0, 0.00000000000000000000e+00) (0, 0, 0.00000000000000000000e+00) (0, 0, 0.00000000000000000000e+00) (0, 0, 0.00000000000000000000e+00) (0, 0, 0.00000000000000000000e+00) (0, 0, 0.00000000000000000000e+00) (0, 0, 0.00000000000000000000e+00) (0, 0, 0.00000000000000000000e+00) (0, 0, 0.00000000000000000000e+00) (0, 0, 0.00000000000000000000e+00) (0, 0, 0.00000000000000000000e+00) (0, 0, 0.00000000000000000000e+00) (0, 0, 0.00000000000000000000e+00) (0, 0, 0.00000000000000000000e+00) (0, 0, 0.00000000000000000000e+00) (0, 0, 0.00000000000000000000e+00) (0, 0, 0.00000000000000000000e+00) (0, 0, 0.00000000000000000000e+00) (0, 0, 0.00000000000000000000e+00) (0, 0, 0.00000000000000000000e+00) (0, 0, 0.00000000000000000000e+00) (0, 0, 0.00000000000000000000e+00) (0, 0, 0.00000000000000000000e+00) (0, 0, 0.00000000000000000000e+00) (0, 0, 0.00000000000000000000e+00) (0, 0, 0.00000000000000000000e+00) (0, 0, 0.00000000000000000000e+00) (0, 0, 0.00000000000000000000e+00) (0, 0, 0.00000000000000000000e+00) (0, 0, 0.00000000000000000000e+00) (0, 0, 0.00000000000000000000e+00) (0, 0, 0.00000000000000000000e+00) (0, 0, 0.00000000000000000000e+00) (0, 0, 0.00000000000000000000e+00) (0, 0, 0.00000000000000000000e+00) (0, 0, 0.00000000000000000000e+00) (0, 0, 0.00000000000000000000e+00) (0, 0, 0.00000000000000000000e+00) (0, 0, 0.00000000000000000000e+00) (0, 0, 0.00000000000000000000e+00) (0, 0, 0.00000000000000000000e+00) (0, 0, 0.00000000000000000000e+00) (0, 0, 0.00000000000000000000e+00) (0, 0, 0.00000000000000000000e+00) (0, 0, 0.00000000000000000000e+00) (0, 0, 0.00000000000000000000e+00) (0, 0, 0.00000000000000000000e+00) (0, 0, 0.00000000000000000000e+00) (0, 0, 0.00000000000000000000e+00) (0, 0, 0.00000000000000000000e+00) (0, 0, 0.00000000000000000000e+00) (0, 0, 0.00000000000000000000e+00) (0, 0, 0.00000000000000000000e+00) (0, 0, 0.00000000000000000000e+00) (0, 0, 0.00000000000000000000e+00) (0, 0, 0.00000000000000000000e+00) (0, 0, 0.00000000000000000000e+00) (0, 0, 0.00000000000000000000e+00) (0, 0, 0.00000000000000000000e+00) (0, 0, 0.00000000000000000000e+00) (0, 0, 0.00000000000000000000e+00) (0, 0, 0.00000000000000000000e+00) (0, 0, 0.00000000000000000000e+00) (0, 0, 0.00000000000000000000e+00) (0, 0, 0.00000000000000000000e+00) (0, 0, 0.00000000000000000000e+00) (0, 0, 0.00000000000000000000e+00) (0, 0, 0.00000000000000000000e+00) (0, 0, 0.00000000000000000000e+00) (0, 0, 0.00000000000000000000e+00) (0, 0, 0.00000000000000000000e+00) (0, 0, 0.00000000000000000000e+00) (0, 0, 0.00000000000000000000e+00) (0, 0, 0.00000000000000000000e+00) (0, 0, 0.00000000000000000000e+00) (0, 0, 0.00000000000000000000e+00) (0, 0, 0.00000000000000000000e+00) (0, 0, 0.00000000000000000000e+00) (0, 0, 0.00000000000000000000e+00) (0, 0, 0.00000000000000000000e+00) (0, 0, 0.00000000000000000000e+00) (0, 0, 0.00000000000000000000e+00) (0, 0, 0.00000000000000000000e+00) (0, 0, 0.00000000000000000000e+00) (0, 0, 0.00000000000000000000e+00) (0, 0, 0.00000000000000000000e+00) (0, 0, 0.00000000000000000000e+00) (0, 0, 0.00000000000000000000e+00) (0, 0, 0.00000000000000000000e+00) (0, 0, 0.00000000000000000000e+00) (0, 0, 0.00000000000000000000e+00) (0, 0, 0.00000000000000000000e+00) (0, 0, 0.00000000000000000000e+00) (0, 0, 0.00000000000000000000e+00) (0, 0, 0.00000000000000000000e+00) (0, 0, 0.00000000000000000000e+00) (0, 0, 0.00000000000000000000e+00) (0, 0, 0.00000000000000000000e+00) (0, 0, 0.00000000000000000000e+00) (0, 0, 0.00000000000000000000e+00) (0, 0, 0.00000000000000000000e+00) (0, 0, 0.00000000000000000000e+00) (0, 0, 0.00000000000000000000e+00) (0, 0, 0.00000000000000000000e+00) (0, 0, 0.00000000000000000000e+00) (0, 0, 0.00000000000000000000e+00) (0, 0, 0.00000000000000000000e+00) (0, 0, 0.00000000000000000000e+00) (0, 0, 0.00000000000000000000e+00) (0, 0, 0.00000000000000000000e+00) (0, 0, 0.00000000000000000000e+00) (0, 0, 0.00000000000000000000e+00) (0, 0, 0.00000000000000000000e+00) (0, 0, 0.00000000000000000000e+00) (0, 0, 0.00000000000000000000e+00) (0, 0, 0.00000000000000000000e+00) (0, 0, 0.00000000000000000000e+00) (0, 0, 0.00000000000000000000e+00) (0, 0, 0.00000000000000000000e+00) (0, 0, 0.00000000000000000000e+00) (0, 0, 0.00000000000000000000e+00) (0, 0, 0.00000000000000000000e+00) (0, 0, 0.00000000000000000000e+00) (0, 0, 0.00000000000000000000e+00) (0, 0, 0.00000000000000000000e+00) (0, 0, 0.00000000000000000000e+00) (0, 0, 0.00000000000000000000e+00) (0, 0, 0.00000000000000000000e+00) (0, 0, 0.00000000000000000000e+00) (0, 0, 0.00000000000000000000e+00) (0, 0, 0.00000000000000000000e+00) (0, 0, 0.00000000000000000000e+00) (0, 0, 0.00000000000000000000e+00) (0, 0, 0.00000000000000000000e+00) (0, 0, 0.00000000000000000000e+00) (0, 0, 0.00000000000000000000e+00) (0, 0, 0.00000000000000000000e+00) (0, 0, 0.00000000000000000000e+00) (0, 0, 0.00000000000000000000e+00) (0, 0, 0.00000000000000000000e+00) (0, 0, 0.00000000000000000000e+00) (0, 0, 0.00000000000000000000e+00) (0, 0, 0.00000000000000000000e+00) (0, 0, 0.00000000000000000000e+00) (0, 0, 0.00000000000000000000e+00) (0, 0, 0.00000000000000000000e+00) (0, 0, 0.00000000000000000000e+00) (0, 0, 0.00000000000000000000e+00) (0, 0, 0.00000000000000000000e+00) (0, 0, 0.00000000000000000000e+00) (0, 0, 0.00000000000000000000e+00) (0, 0, 0.00000000000000000000e+00) (0, 0, 0.00000000000000000000e+00) (0, 0, 0.00000000000000000000e+00) (0, 0, 0.00000000000000000000e+00) (0, 0, 0.00000000000000000000e+00) (0, 0, 0.00000000000000000000e+00) (0, 0, 0.00000000000000000000e+00) (0, 0, 0.00000000000000000000e+00) (0, 0, 0.00000000000000000000e+00) (0, 0, 0.00000000000000000000e+00) (0, 0, 0.00000000000000000000e+00) (0, 0, 0.00000000000000000000e+00) (0, 0, 0.00000000000000000000e+00) (0, 0, 0.00000000000000000000e+00) (0, 0, 0.00000000000000000000e+00) (0, 0, 0.00000000000000000000e+00) (0, 0, 0.00000000000000000000e+00) (0, 0, 0.00000000000000000000e+00) (0, 0, 0.00000000000000000000e+00) (0, 0, 0.00000000000000000000e+00) (0, 0, 0.00000000000000000000e+00) (0, 0, 0.00000000000000000000e+00) (0, 0, 0.00000000000000000000e+00) (0, 0, 0.00000000000000000000e+00) (0, 0, 0.00000000000000000000e+00) (0, 0, 0.00000000000000000000e+00) (0, 0, 0.00000000000000000000e+00) (0, 0, 0.00000000000000000000e+00) (0, 0, 0.00000000000000000000e+00) (0, 0, 0.00000000000000000000e+00) (0, 0, 0.00000000000000000000e+00) (0, 0, 0.00000000000000000000e+00) (0, 0, 0.00000000000000000000e+00) (0, 0, 0.00000000000000000000e+00) (0, 0, 0.00000000000000000000e+00) (0, 0, 0.00000000000000000000e+00) (0, 0, 0.00000000000000000000e+00) (0, 0, 0.00000000000000000000e+00) (0, 0, 0.00000000000000000000e+00) (0, 0, 0.00000000000000000000e+00) (0, 0, 0.00000000000000000000e+00) (0, 0, 0.00000000000000000000e+00) (0, 0, 0.00000000000000000000e+00) (0, 0, 0.00000000000000000000e+00) (0, 0, 0.00000000000000000000e+00) (0, 0, 0.00000000000000000000e+00) (0, 0, 0.00000000000000000000e+00) (0, 0, 0.00000000000000000000e+00) (0, 0, 0.00000000000000000000e+00) (0, 0, 0.00000000000000000000e+00) (0, 0, 0.00000000000000000000e+00) (0, 0, 0.00000000000000000000e+00) (0, 0, 0.00000000000000000000e+00) (0, 0, 0.00000000000000000000e+00) (0, 0, 0.00000000000000000000e+00) (0, 0, 0.00000000000000000000e+00) (0, 0, 0.00000000000000000000e+00) (0, 0, 0.00000000000000000000e+00) (0, 0, 0.00000000000000000000e+00) (831, 3, 5.00000000000000000000e-01) (831, 3, 5.00000000000000000000e-01) (831, 3, 5.00000000000000000000e-01) (831, 3, 5.00000000000000000000e-01) (831, 3, 5.00000000000000000000e-01) (831, 3, 5.00000000000000000000e-01) (831, 3, 5.00000000000000000000e-01) (831, 3, 5.00000000000000000000e-01) (831, 3, 5.00000000000000000000e-01) (831, 3, 5.00000000000000000000e-01) (831, 3, 5.00000000000000000000e-01) (831, 3, 5.00000000000000000000e-01) (831, 3, 5.00000000000000000000e-01) (831, 3, 5.00000000000000000000e-01) (831, 3, 5.00000000000000000000e-01) (831, 3, 5.00000000000000000000e-01) (831, 3, 5.00000000000000000000e-01) (831, 3, 5.00000000000000000000e-01) (831, 3, 5.00000000000000000000e-01) (831, 3, 5.00000000000000000000e-01) (831, 3, 5.00000000000000000000e-01) (831, 3, 5.00000000000000000000e-01) (831, 3, 5.00000000000000000000e-01) (831, 3, 5.00000000000000000000e-01) (831, 3, 5.00000000000000000000e-01) (0, 3, 0.00000000000000000000e+00) (26, 3, 5.00000000000000000000e-01) (26, 3, 5.00000000000000000000e-01) (0, 3, 0.00000000000000000000e+00) 
connections (connected_to_neuron, weight)=(0, 3.09998080167794391737e-02) (1, -1.28411535074280085816e-02) (2, 6.20976584595719499626e-02) (3, 1.31543398524138654970e-01) (4, -3.56908420026333245145e-02) (5, -1.13232774842227518208e-01) (6, -2.11262843001323724623e-02) (7, 8.44068874606577757014e-02) (8, -2.87705516495533712706e-02) (9, 2.95019282087785779389e-02) (10, 5.61949287413618520093e-02) (11, -7.93720586208908063242e-02) (12, -4.50194991201773794809e-02) (13, 1.31056878900971757185e-01) (14, -5.90865405177968885941e-02) (15, 5.08214008385046572824e-02) (16, 6.32570444085953642599e-02) (17, 6.88175176570802182852e-02) (18, 9.56437108948713504697e-03) (19, 8.32488946477092234266e-02) (20, 8.85412157334913157980e-02) (21, -6.11588425217530484712e-02) (22, 3.90846103348749321360e-02) (23, 7.28702367418595925441e-02) (24, -6.87488148461728038052e-02) (25, -4.57739316019050504480e-02) (26, -3.20293167177070001173e-02) (27, 8.70370343327522277832e-02) (28, -8.82210060954093933105e-02) (29, 8.83912604620027374247e-03) (30, -1.74248142815592206578e-02) (31, 1.55249172936240242837e-01) (32, 4.24928978531707232658e-02) (33, -1.54869961200213707153e-01) (34, -8.30073772369627482792e-02) (35, -1.03031858321210270657e-01) (36, -7.44682556586197166165e-03) (37, -5.50553036842449800004e-02) (38, 2.96251449259699317640e-02) (39, -7.76965296414598577401e-02) (40, 3.84368225932121276855e-02) (41, 1.06270368329139150432e-01) (42, -1.97906942570234903322e-02) (43, 2.24847335536449005611e-01) (44, 5.65854835814514484094e-02) (45, 1.17643851903933820829e-02) (46, 1.31798131407048879638e-01) (47, -4.76899311693985833438e-02) (48, -1.40470386813413644633e-01) (49, 2.28253990056741823400e-01) (50, 1.16210041745686443182e-01) (51, 9.55455867832985389354e-02) (52, 2.30526499505311587013e-02) (53, 1.62698706037772367061e-01) (54, 4.32067998519028995119e-02) (55, 4.61085761100329255546e-02) (56, -6.56589492779028893743e-02) (57, 3.12999891989751560795e-02) (58, -6.83672524895298765885e-03) (59, -1.58615540113420695756e-02) (60, 2.59577203317675683780e-02) (61, 7.20028800161067166624e-03) (62, -1.11465159055003842914e-01) (63, -7.38475486638244804638e-02) (64, 4.33750697734876372591e-02) (65, 1.14746717994791396639e-02) (66, 1.50880583404574442064e-01) (67, 1.16821198361562780810e-01) (68, 4.97623994110371545285e-02) (69, -7.77031086160462070023e-02) (70, 1.68967029204492025229e-02) (71, -1.48040067417395393434e-01) (72, -1.63548089757637599151e-01) (73, -8.66556506236254575626e-02) (74, -1.14598146917609153284e-01) (75, 3.11757065413000196419e-02) (76, 2.85202825624045093467e-02) (77, -8.89418140339297974561e-03) (78, -1.73374599427539195784e-02) (79, 1.07614373574420191249e-01) (80, 1.26016907011107459624e-01) (81, -5.15007674804223228304e-02) (82, -1.42347336143538699682e-01) (83, 1.95702783754425124751e-01) (84, 1.13918642194634336939e-01) (85, -3.59832543068936139274e-02) (86, 5.13166152260443458877e-02) (87, -1.94086431700816360035e-02) (88, 3.04168000261982977850e-02) (89, 1.83037182121370600729e-01) (90, 5.15574879765091399764e-03) (91, -8.68173314559549241798e-02) (92, -6.71758334949525692803e-02) (93, 7.24466852903618147019e-02) (94, 6.73659611260281482314e-02) (95, -2.98602005369483954056e-02) (96, 4.37020555647736272387e-02) (97, 3.11661621950982022089e-02) (98, -8.92377592251109297283e-02) (99, -1.29770901031275136261e-02) (100, -1.15703013652699665537e-01) (101, 2.15823372395580297123e-02) (102, -2.02293479030464518065e-01) (103, -8.27784481416491552119e-02) (104, -1.76830326264065557096e-01) (105, -5.26883500704298859962e-02) (106, 7.13289072738866325452e-02) (107, 5.39916768740395444648e-02) (108, 2.56575024996692109547e-02) (109, -1.62907797971318241137e-02) (110, 4.98456535402204241325e-03) (111, 8.66273886216383237624e-02) (112, -3.19925923669276343619e-02) (113, 1.23517267157107826780e-01) (114, 3.09729560541247228578e-01) (115, 2.10312502176819932087e-01) (116, 1.31903339854442108736e-01) (117, 3.02027479253762887179e-01) (118, 5.42541677311339093359e-02) (119, -1.10971378542933180045e-01) (120, 1.43837269848526797672e-02) (121, 1.01598961325243763998e-01) (122, 5.82820113127589661817e-02) (123, -1.10047548657525341709e-02) (124, 8.54792256286436916146e-03) (125, 5.71166929280220656007e-02) (126, 5.52323860533754651403e-02) (127, 5.94972602759908097969e-02) (128, 2.26607581693531456857e-01) (129, 4.94515590219375619774e-02) (130, 3.23698800834563357731e-02) (131, 5.12971368227775545434e-02) (132, 6.42804231015517563153e-02) (133, -5.38023329273278616558e-02) (134, 8.24908304766699138413e-04) (135, 5.33634347112909579458e-02) (136, -1.03501369683752716955e-01) (137, -1.38407443313141031993e-01) (138, -1.03915010906885901809e-01) (139, 1.85404993101936539646e-02) (140, 9.35297693052660472635e-02) (141, 1.97122152124101529536e-01) (142, -4.89863972015328122400e-02) (143, 1.07675620760044003094e-02) (144, 6.87697483848124790917e-02) (145, 1.03578856471398337430e-02) (146, 1.16871662580984109203e-01) (147, -7.78457831069758604547e-03) (148, 1.05797329839473416846e-01) (149, 3.61349048289398011580e-02) (150, 1.13427303524440900584e-01) (151, -2.64911288911891112940e-02) (152, -2.04245428726888361703e-01) (153, 3.65311369074725542094e-02) (154, -3.22327124992659377889e-02) (155, -5.37460212211857309150e-03) (156, 6.19819973634084947500e-02) (157, 5.83431012285294051112e-02) (158, -6.49061103876500122833e-02) (159, -8.66791462131111800637e-02) (160, 1.30088831341667987562e-01) (161, 7.25469444226809756504e-02) (162, -3.29369650269833100231e-02) (163, 1.65724268729767781894e-01) (164, 5.19769939550588297439e-02) (165, 6.99168883416694669775e-02) (166, 1.82531591721798724937e-01) (167, 2.03981657078819850204e-01) (168, 1.29711804871210974882e-03) (169, -8.10601667715325491237e-02) (170, 3.17586034498436699594e-03) (171, 5.43477297624116312269e-02) (172, -1.84924415119125495899e-01) (173, 9.57263669445701653737e-02) (174, 1.79198417527217573886e-01) (175, 1.15012074744967884854e-01) (176, 9.09536019348403806939e-02) (177, 1.18837295635550260764e-01) (178, 9.94530357163069950177e-02) (179, -9.06256065337776722801e-02) (180, -3.63801462572737113743e-02) (181, -6.02235564189043948158e-02) (182, -1.19747603702686666871e-01) (183, -7.03809662133731278599e-02) (184, -6.56124354224041916872e-02) (185, 1.80765828252044430391e-01) (186, -4.13335718961878248456e-02) (187, 7.84062664251304469731e-02) (188, -7.21431759540789308005e-02) (189, -9.64165700470951958501e-02) (190, -4.94025697176952438561e-02) (191, 4.31084155468740085060e-02) (192, -3.98561807635550297002e-02) (193, 2.37403898314999459163e-02) (194, -3.54139560382358761781e-02) (195, 4.44826845300271972450e-02) (196, 1.41386005466950046700e-02) (197, -8.54013618089677351009e-02) (198, -1.18151620480844057881e-01) (199, 2.37887974917573921663e-03) (200, 2.13496008927671100663e-02) (201, -5.63991559035184331083e-02) (202, 4.14356537999538906969e-02) (203, 7.12344409913711340554e-02) (204, 4.86289732389799667089e-02) (205, 1.38022780778913507771e-02) (206, 1.09486241184151532335e-02) (207, 9.31400367499899406454e-02) (208, 4.88925416561294609585e-03) (209, 1.70772372425868944681e-03) (210, -7.13740066578417153842e-02) (211, -1.45885823622433463687e-01) (212, 7.76037277197504093973e-02) (213, -8.24540511055439351296e-02) (214, -4.30281915140375698092e-02) (215, -3.76871662343877741885e-02) (216, -3.79920290379155527194e-03) (217, 4.47296314559881592887e-03) (218, -5.65657316082147781922e-02) (219, 6.51230945412832745722e-02) (220, 2.54645581665234599367e-02) (221, -4.68538967530590447219e-02) (222, -3.99631991968618094369e-02) (223, 1.61314938998286250271e-02) (224, -1.01534376150618652068e-01) (225, 1.50763678521431465640e-01) (226, 2.21875416993521541731e-02) (227, 8.15541563338324504429e-02) (228, -3.02791901102996106887e-02) (229, -1.32685460218379125408e-01) (230, 3.92066732799128177950e-03) (231, -9.46598141450920721462e-02) (232, 8.68936887839841382020e-02) (233, -9.82186093973408252955e-02) (234, 5.28960057170306321983e-02) (235, 1.58133950348704546696e-02) (236, 1.59705064384336736794e-01) (237, -5.21523998357274129467e-02) (238, 6.82277543542602477045e-02) (239, 3.60996701879273476643e-02) (240, -1.14576400367471561981e-01) (241, 3.21782958251232362179e-02) (242, -8.16630490967436700744e-02) (243, 8.43801051709144322999e-02) (244, -1.04023711974327668500e-02) (245, -1.30445481077577935675e-02) (246, -5.10213820782955216476e-03) (247, 1.29332226741357220190e-01) (248, 6.57490971695209869274e-02) (249, -8.51500932747002725609e-02) (250, 1.38393787402088991323e-01) (251, 1.20462254256299083899e-01) (252, 3.15868329295954028413e-02) (253, -2.95826468432828088018e-02) (254, -5.58131363909970396042e-02) (255, 9.70351984582495108445e-02) (256, 1.54078662062844245345e-03) (257, -2.04089256162787918703e-01) (258, 1.16338779344144702121e-01) (259, -3.62666902814311534198e-02) (260, -6.55053953963423279960e-02) (261, 7.16102877702865653342e-02) (262, -3.74891095980381811037e-02) (263, 1.09770717287690777741e-01) (264, 6.29417871632642969559e-03) (265, 8.82405071261626594570e-02) (266, 4.97238509550604057541e-02) (267, -8.80187444521103173889e-02) (268, 1.18869503419958152945e-01) (269, 1.14215828379082021127e-01) (270, 1.27122296286200642257e-02) (271, -1.12173095786109469629e-01) (272, 3.73809217243450536694e-02) (273, -6.49206036951492093667e-02) (274, -7.71676036565695135788e-03) (275, -3.21484536329340736538e-02) (276, -5.92205286592239536184e-05) (277, 1.79253322644302819089e-02) (278, -2.04752628168911807172e-02) (279, -1.48112605401566260754e-01) (280, 8.44467427425588113010e-03) (281, 2.36398013027000267194e-02) (282, 8.74990640970068206395e-02) (283, 1.07726233459211895305e-01) (284, 1.01035914216798722309e-01) (285, -7.68413969287602277580e-02) (286, 4.41555352597934672176e-02) (287, -1.31246121368176343891e-02) (288, -3.79006547697887524739e-02) (289, 3.45783945854644045315e-02) (290, 1.01962305732483451970e-01) (291, 4.23246695553260235401e-02) (292, -1.11885425649692390321e-02) (293, -4.56532569500806006957e-03) (294, -4.71456291794442247656e-02) (295, 2.15467853511023647861e-02) (296, 4.43471678939766356109e-03) (297, 4.24662935086359619175e-02) (298, -1.19724369817700501684e-01) (299, -3.61736682225248171174e-02) (300, 9.03177434532272949141e-02) (301, -8.50016051930736482589e-02) (302, -7.39778742446364490082e-02) (303, 3.18643139046962953209e-02) (304, 5.01307788019602490470e-03) (305, -3.24835109115553452575e-02) (306, 7.03755584871743056219e-02) (307, 8.48193729287550352014e-03) (308, -3.42635994132228990927e-02) (309, -1.43195347700467323637e-01) (310, 2.77167573096732261506e-02) (311, -1.19823553024444029447e-01) (312, -4.73394955683897125653e-02) (313, -3.65061212318830300219e-03) (314, -3.57822369468700982043e-02) (315, -5.48979760762293225729e-02) (316, 8.82914695204979615983e-02) (317, -1.27496954395815154104e-01) (318, -1.02754809776162952389e-02) (319, -5.16829112187290121150e-02) (320, 6.87380983169108977782e-02) (321, 1.30664098715373641624e-02) (322, -3.40535987746300042658e-03) (323, -8.51183609530873491744e-02) (324, -9.94884236678445221802e-02) (325, -8.15764963761720640623e-02) (326, 5.65055447251347486848e-02) (327, 3.44399784379342821516e-02) (328, 1.04046879336393158222e-01) (329, 8.55017018284726509902e-02) (330, 7.04477562646443622452e-02) (331, 1.51200919807875644452e-01) (332, 6.77899622659113854084e-02) (333, -1.51863700207649165996e-01) (334, -7.06940121837252577475e-02) (335, -1.29816909662691260668e-02) (336, -8.17205671462889055023e-02) (337, -5.13156461454776016695e-02) (338, -6.44786249267713801325e-02) (339, -2.57107027499762046119e-02) (340, -5.78203044259952142481e-02) (341, -8.76893352756897281886e-02) (342, 2.46759463963426182651e-03) (343, -6.18860594354403714679e-02) (344, 4.79443009869992900485e-02) (345, 6.38813838002668665794e-02) (346, 1.30338859583942062725e-01) (347, -9.19739463053718562732e-04) (348, -1.03659379052375280605e-01) (349, -1.14056916720565323931e-01) (350, 8.32442383167743688022e-02) (351, -1.67876193531057739394e-02) (352, -7.81963916635896316709e-02) (353, -8.06875055979250493943e-02) (354, 2.67920963276250014007e-02) (355, -7.87082560522915225532e-02) (356, -6.01336657910856858811e-02) (357, -2.86310394934317785642e-02) (358, 1.65067824451150639564e-02) (359, -2.94910779068549393223e-02) (360, -3.84374976566386888921e-02) (361, 3.17121441668627157551e-02) (362, -3.39128997164100387529e-02) (363, -5.16620376191709029801e-02) (364, 2.47710317181439598766e-02) (365, 1.35974681274076164561e-01) (366, -3.24680128557287700497e-02) (367, -1.35889967966521030274e-01) (368, 7.67932381237269867658e-02) (369, -7.76204244693780992526e-02) (370, -5.19076215486883874028e-02) (371, 4.25105398719095931015e-02) (372, -6.38826700157571897298e-02) (373, 1.16683798156413290337e-01) (374, -6.38314931219331749279e-02) (375, -6.79671009998755737413e-02) (376, 1.52225405552761011707e-01) (377, 1.37047950274307550611e-01) (378, 1.18301981236900236039e-02) (379, -7.27661560875966367812e-02) (380, -1.34224932192646251305e-01) (381, 9.40759386814376055708e-03) (382, 1.80920637529360772700e-01) (383, 2.54497915759537111924e-02) (384, 9.92210131268916536995e-03) (385, 1.79544385653969851280e-01) (386, 9.86635156440777982834e-02) (387, 1.06514835247404127117e-01) (388, -9.71558150903364670103e-02) (389, -1.89879932643705340300e-02) (390, -2.18150729168062884611e-02) (391, 2.95812824507121971407e-02) (392, -3.88090334882409196404e-02) (393, 8.41118276952214499742e-02) (394, 3.91052544312625106112e-04) (395, 1.37421969734642102079e-01) (396, 9.13751652188394269949e-02) (397, 1.20060375684326120505e-01) (398, 1.30400029608547674692e-02) (399, 1.56056433628913610034e-01) (400, 1.38978905545058317728e-01) (401, 1.72398181234675984541e-01) (402, 1.15481328161351648465e-01) (403, 9.23787424447874011557e-02) (404, 1.40927606623193674151e-01) (405, 2.21552037307535726329e-01) (406, 8.95529222801299401580e-02) (407, 1.36602459083706662124e-01) (408, 1.57538212840495905898e-01) (409, 1.81897265076049502452e-01) (410, 4.83234743796046722908e-02) (411, 1.69839634944331130395e-01) (412, -1.13943430557940678094e-01) (413, -4.16821443915492001464e-02) (414, -8.97889134956492279693e-02) (415, 1.69731482448322867906e-01) (416, -1.04345745142893520097e-01) (417, -3.37491732820147756142e-03) (418, -1.77463472788011063230e-02) (419, -4.71476782781285463919e-02) (420, -8.09914021695643943088e-02) (421, -4.82625611681329197422e-02) (422, 1.00573167401788274300e-01) (423, -4.86216922244909408035e-02) (424, 1.98175023352797297083e-01) (425, -9.20653790026684792913e-02) (426, -1.91116837426873550530e-04) (427, -3.34718120238927455135e-02) (428, -9.52763663503289684464e-03) (429, 6.16644190902769021023e-02) (430, 8.64780396870185180669e-02) (431, -8.94773551267854239111e-02) (432, -6.63780075838772826158e-02) (433, -4.77904756975821298770e-02) (434, -1.09427967689168695320e-01) (435, 1.66350730529709278649e-01) (436, 9.67396508791266475109e-05) (437, -2.02841663587624253251e-02) (438, 5.57869689476821611906e-02) (439, 1.46318710504990054377e-02) (440, -7.90582333788435037691e-02) (441, 5.48044792108879560977e-02) (442, -8.89953439640138038724e-02) (443, 1.94580944610151240770e-02) (444, -4.25651351863383931029e-02) (445, 6.64468241499274747675e-02) (446, -2.38555459426861224403e-02) (447, 9.83230211920295971151e-02) (448, 3.12683663311198109525e-02) (449, -3.68315150439118763059e-02) (450, -1.18820886708488504535e-01) (451, 7.18985362142589984336e-02) (452, -6.18415574133096695997e-02) (453, 6.87206953097277556397e-02) (454, 4.47736137544016005174e-02) (455, -3.66179529427843250544e-02) (456, -4.52422911786740013923e-03) (457, -1.15583075314526592670e-01) (458, -1.70883619113539914069e-01) (459, -8.35682186101889684648e-02) (460, 7.59998059697824523973e-02) (461, -6.79029429052249201837e-03) (462, 7.65777832193872097510e-03) (463, 3.00406538800894011565e-02) (464, -2.63136350390816764130e-03) (465, 6.90906517991087959496e-02) (466, 7.95773508151188385673e-02) (467, -9.74628173550822485272e-02) (468, 8.31766256178096807100e-04) (469, -5.51939642114531500011e-03) (470, 3.24297130119865564812e-02) (471, 1.26665612940545319054e-01) (472, 1.46642842091986691511e-01) (473, -1.08188809895825452378e-01) (474, -8.52221663161378539808e-02) (475, -9.20840999637612955819e-02) (476, 1.31620164965144170743e-01) (477, 1.45889524103588380521e-01) (478, 2.68001276058296607208e-02) (479, -1.05896934568736628829e-02) (480, 1.92621069618001267143e-01) (481, -1.69813653276727621888e-01) (482, -1.69058668911952147962e-01) (483, 1.06983891727037414010e-01) (484, -1.61628726784858706145e-01) (485, -1.18373443156589569503e-01) (486, 3.50914701976256654392e-02) (487, 5.90407366332275276161e-03) (488, -1.17120800004300709696e-01) (489, -3.72926260946459600665e-02) (490, 7.92588684605881055312e-02) (491, -2.93760821223258972168e-02) (492, -1.41094319114000554816e-01) (493, 1.55348475355750054172e-01) (494, 1.51501391554350661739e-01) (495, -5.55219973763456178806e-02) (496, 2.68729032871572771912e-02) (497, 9.70010317294405094435e-02) (498, -6.76926367890818142525e-02) (499, 8.44650513853551082599e-02) (500, 6.07220381642761611318e-02) (501, 1.07086803931196308803e-01) (502, -3.81082889744903258178e-02) (503, -7.21355309522991039461e-02) (504, -6.80807139089582985525e-02) (505, -5.92120121840011698344e-02) (506, 1.30011419984525811167e-01) (507, 2.07666526680567661844e-02) (508, 1.85102134578664173636e-01) (509, 9.27865984065981697082e-02) (510, -2.38080192254528089091e-02) (511, 7.19712255131405298503e-02) (512, 2.65401825308799743652e-02) (513, 1.06296739437399950789e-02) (514, -7.27693443043267301773e-02) (515, -8.21608192336924225696e-02) (516, -8.43048028348361566664e-02) (517, 6.75325766103124780493e-02) (518, 1.67269239038143086029e-01) (519, -5.43061538952716114231e-03) (520, 2.30887175634893387910e-01) (521, -5.69082380336556267753e-03) (522, 3.61575994026454572428e-02) (523, 1.12515843223690945041e-01) (524, -9.33944109056307897321e-02) (525, 5.77877763590370976954e-02) (526, -2.17776616003836874513e-02) (527, 1.21018842465409670606e-01) (528, 1.15020012941417448804e-01) (529, 5.95189493360973667646e-02) (530, -7.50407829006390688503e-03) (531, -4.74102085282908803504e-03) (532, 6.21558153980348720991e-02) (533, -2.99317315220832824707e-02) (534, -1.84473822867010327220e-02) (535, -1.72779155592683558718e-01) (536, -1.35194285190634866378e-02) (537, -1.40613524960532421115e-01) (538, 7.96182997305965034496e-02) (539, 1.51447812638169199140e-01) (540, 1.25007568338260127705e-01) (541, -2.67761422004329646684e-02) (542, -1.59171349164657811859e-02) (543, 1.52122350954349089269e-01) (544, 4.65294354460827896958e-02) (545, -1.16364150712459465953e-01) (546, 1.28850379147470665148e-02) (547, 1.58146726202465365274e-01) (548, 2.07953449250322351671e-02) (549, 1.77408526949403344553e-01) (550, -4.87865568261611481926e-02) (551, -1.04644644631573663363e-01) (552, -1.96928584606504836207e-01) (553, -7.44781112184615678995e-02) (554, 3.21922376751899719238e-02) (555, 7.99520515660117614409e-02) (556, 7.88391625118178319964e-03) (557, -1.03920016272012555314e-01) (558, -6.11990571030494312499e-02) (559, 8.00528341314483277147e-02) (560, -1.22050867921041375497e-01) (561, -1.36275542881984096377e-01) (562, 5.91524195075938535870e-02) (563, 2.37643036192562821796e-02) (564, 6.77662412806311759139e-02) (565, -4.65312840587869883113e-02) (566, -3.82714179852367969437e-02) (567, 1.31967749542294537912e-01) (568, -7.33007890389564958911e-02) (569, 4.70352072521300068608e-02) (570, -7.01143696768596613733e-02) (571, -5.41919802145840248664e-02) (572, 5.30641879426782606122e-02) (573, 1.41045003592965845218e-01) (574, -1.12863056755801421244e-02) (575, 4.57526817917823791504e-02) (576, 4.43699363604562399543e-02) (577, 1.95233466137381961314e-02) (578, 1.06577188312654336233e-01) (579, 3.84934822995704473136e-02) (580, 1.62967196163370277306e-02) (581, -1.14938929650538354532e-01) (582, -2.01214897132177168715e-02) (583, -5.12930275774632696284e-02) (584, -5.75922816416020652563e-02) (585, -5.27599396740609655199e-02) (586, -1.26044319697149881376e-01) (587, -4.12138367678459294208e-02) (588, 6.91289870634715364339e-02) (589, 4.55601537303658432609e-02) (590, 2.41897739060387730048e-02) (591, -8.59819967299958742846e-02) (592, 1.04174670533311433673e-01) (593, -1.14638071716392356270e-01) (594, 6.44307966575984880642e-02) (595, -1.61420009444387668740e-02) (596, -8.38682278990745544434e-02) (597, 1.55610163905861749456e-02) (598, -4.73356074915848926143e-02) (599, -1.27151022875897998926e-02) (600, 1.24001880541914025896e-02) (601, 7.18353379083370817415e-03) (602, -1.02211693383015903014e-01) (603, -6.77228377450976304353e-02) (604, -5.56353975357817553959e-02) (605, 8.56297302050440800603e-02) (606, 8.54891127534669753585e-02) (607, 1.19127954969419525000e-01) (608, -1.38369407815821687802e-01) (609, -1.62627089689907633474e-02) (610, -9.57709556413161161581e-02) (611, -1.69161035089811090382e-02) (612, 1.77002646474909361429e-02) (613, -1.45205118079960199262e-01) (614, -9.47723548075970340099e-02) (615, 9.71592868403674259081e-03) (616, 7.40774732241279189326e-03) (617, -3.53929837635261410056e-02) (618, 8.12071701997213978019e-03) (619, 1.98267503094594510493e-01) (620, 1.12030907703823887078e-01) (621, -1.07143292274781712359e-01) (622, 2.53050923828994578368e-01) (623, 1.34948807364477507686e-01) (624, -1.07425094284587532845e-01) (625, 2.19578952497833823632e-01) (626, 1.56483107896600359688e-01) (627, -1.10115867309564754994e-01) (628, 1.24453774862796198719e-01) (629, 4.45999767224353541040e-02) (630, -2.31023947543618664302e-02) (631, 1.80018022248867454183e-01) (632, 1.37766010415554807089e-02) (633, 1.74480821455672875653e-02) (634, 3.78806609518502826472e-02) (635, -1.50049447448516337644e-01) (636, -1.05524675728361320981e-02) (637, 1.99674419132944286348e-01) (638, -9.11071125347960031338e-02) (639, 6.27292539190292888773e-03) (640, 2.70794599988008304059e-02) (641, 2.18766544183738032014e-02) (642, -1.11674227803082767863e-01) (643, -9.25617336857611217038e-02) (644, -8.18555053479894656476e-02) (645, 1.41424879982118723021e-01) (646, 1.99932498777682862712e-02) (647, -7.37530592310078475515e-02) (648, -4.60157042802009225158e-02) (649, 2.37219521736602295681e-01) (650, -2.00782600201698441245e-01) (651, -1.00838711679909439657e-03) (652, -1.85762242542022337766e-01) (653, 1.23753792706641413401e-01) (654, -1.16608719455778872542e-01) (655, -3.82872359428074043874e-02) (656, -4.86280855229571581932e-02) (657, 1.44362748823223002725e-01) (658, -2.44193632166392254890e-01) (659, -5.41596125036999317959e-02) (660, -7.90840177824555373709e-03) (661, 9.02336154707133880626e-02) (662, -1.22127935790830963181e-01) (663, -1.76942334864151756824e-02) (664, 5.98321207370205582210e-02) (665, -1.69650000127339849187e-02) (666, 8.83775912257368789771e-02) (667, -3.38783617709231751891e-02) (668, -1.48706666734350373416e-01) (669, -1.27656913177988828867e-01) (670, 1.46449070792772587796e-02) (671, 4.22433435147107766428e-02) (672, -1.21695518797456825322e-01) (673, 2.42030676828199842188e-01) (674, 3.30757955126160596918e-03) (675, -2.75547948323785416025e-03) (676, -6.42817530849289497930e-02) (677, -1.53410026847781849613e-01) (678, 7.52148653337824241172e-02) (679, 3.57607949013517625869e-02) (680, -1.68007368440149906785e-01) (681, 5.97715168214742673114e-02) (682, -4.63770098713924515399e-03) (683, 1.07515146379544030558e-02) (684, -1.83821726455548062340e-01) (685, 7.73624245971493429419e-02) (686, 2.20806762411275558922e-02) (687, -8.14378613486480551487e-02) (688, 9.29977967586989584525e-02) (689, 6.25356497270170286207e-02) (690, 9.93758676593839151980e-02) (691, 2.78979352263754643015e-01) (692, 1.82141761512268185452e-01) (693, 8.29875231630742143940e-02) (694, 1.81431812888465304398e-03) (695, -1.19088616331264579573e-01) (696, 1.61777700827909459713e-01) (697, -1.23547314038305613981e-01) (698, -1.24807443498237566337e-01) (699, -4.12168505802860685172e-02) (700, -8.61696008366940879863e-02) (701, 8.34845222410476039965e-02) (702, 5.64693530532721296722e-02) (703, 4.04652287803400345645e-02) (704, 2.49290555182071299489e-01) (705, 3.73111324192142573830e-02) (706, 2.55317636570973408028e-02) (707, -4.27845992352162210470e-02) (708, 1.21211222941209270654e-01) (709, -2.17347157475065617949e-02) (710, 1.77992015619250321112e-01) (711, 3.05739341580360058162e-03) (712, 4.76915508657845266249e-02) (713, -1.53956982708264421972e-02) (714, 5.17321164382066045473e-03) (715, 2.41393283720619661326e-02) (716, 1.09309761612825115384e-01) (717, -1.67744461277303330560e-01) (718, 1.03545663892830000496e-01) (719, -7.36504042860861574127e-02) (720, 3.32509657505911798703e-02) (721, 1.69566535376783011912e-01) (722, 1.40257052997518727455e-01) (723, -2.83848950104672148598e-01) (724, 1.88787481797543662231e-03) (725, -3.34488887700318038299e-01) (726, -2.28338440542812867728e-02) (727, -7.44171080279990238004e-01) (728, 9.84989866833479582597e-02) (729, -8.83697701198686708102e-02) (730, -3.09638560720190796072e-02) (731, 4.14903318677520283053e-02) (732, -1.23453801645447336366e-01) (733, -2.18609566957308376622e-01) (734, -5.42307560500708118328e-03) (735, -4.46328405219567000972e-02) (736, -9.51375134104889552678e-02) (737, -1.11858375327787654130e-01) (738, 3.63195634088002497486e-02) (739, 7.12038766826482844019e-02) (740, -6.92824218174377393087e-02) (741, -4.95715425162908951418e-01) (742, -6.91851818769168985801e-02) (743, 1.45257219492199884936e-01) (744, -2.67212154309556144949e-02) (745, -1.64645523252144702908e-02) (746, -2.38112127676707030499e-01) (747, 2.79609465658436848190e-02) (748, 6.38006490174401891258e-02) (749, -1.36487127538018476747e-01) (750, 5.00065885618045324890e-01) (751, 2.00017201826181129087e-01) (752, -7.58437994063723142091e-02) (753, -1.82696851088411903186e-02) (754, -1.32969433869707248652e-01) (755, 1.87422264289992451802e-01) (756, 1.01015796200012789030e-01) (757, -1.52019417971011400192e-01) (758, -3.35719400798096395677e-02) (759, 1.42632965872719619238e-02) (760, 3.72196070917992991034e-02) (761, -1.99030102354451399194e-01) (762, -1.07414388399163576726e-01) (763, 4.51780708328978486410e-02) (764, -3.47257865463293860508e-02) (765, -2.84506742025684655761e-01) (766, 1.88992072563231805482e-01) (767, 1.32682837060829311726e-01) (768, 6.38043739400177833954e-02) (769, 6.99512203435431190179e-02) (770, -3.30747836670749473242e-02) (771, -4.46997359395027160645e-02) (772, 2.48687850252642429771e-02) (773, -8.22068518681328685993e-02) (774, -1.36938798128692310746e-02) (775, -9.38557611224826761342e-03) (776, -6.93598064277036741032e-02) (777, -8.06705099916822793160e-02) (778, 4.74323137084522242213e-02) (779, 8.09116944227324247363e-02) (780, -1.04690934248094169590e-01) (781, -1.04829327495013599481e-01) (782, -1.48053629447422369081e-01) (783, -1.55431158128072455238e-01) (784, -1.23267750373444257006e-01) (785, 3.40801634150202426010e-01) (786, -1.33208340329971114402e-01) (787, 6.83771473408800456451e-02) (788, -1.69110891055265166738e-01) (789, 1.46931662333020018885e-01) (790, -1.40321167327942808445e-01) (791, 1.88469816917585353266e-01) (792, -1.02354120458761944923e-02) (793, 1.66035616615747144698e-02) (794, -2.27710996121171044271e-01) (795, -9.78726039117219503982e-02) (796, 6.84983096965092325137e-02) (797, 1.84767740980663563999e-01) (798, -2.26802768708426888411e-02) (799, -1.37446165254306224002e-01) (800, -1.44928266005192485366e-01) (801, 6.80401098189653830151e-02) (802, -1.15765626849250097274e-01) (803, -2.60006399691746548086e-01) (804, 8.37246646432955772543e-03) (805, 5.65480410491739707290e-02) (806, 3.54136159099386130245e-02) (807, -3.11320547109823764220e-01) (808, 8.19090207450223206642e-02) (809, -2.04246902611465892818e-02) (810, -4.73462743829047225108e-02) (811, 7.53071083866219820324e-02) (812, -1.69900206001402348521e-01) (813, 1.51149980694820523786e-01) (814, -9.20310521201433001659e-02) (815, -8.41882270503114260585e-02) (816, -1.41428148783609680672e-01) (817, 1.89856027527458837145e-01) (818, -4.89016391631575605969e-02) (819, -3.13433321523116578677e-02) (820, -1.11731322819170975080e-01) (821, 3.58667426734634725571e-02) (822, -7.79166404767243636620e-02) (823, 1.99362913110293915597e-01) (824, -5.61895176170368673696e-02) (825, 9.14730434854237328679e-02) (826, 1.36096648080801553571e-02) (827, -4.97298025797547962878e-02) (828, 1.37793794274330139160e-02) (829, 7.57249221205711364746e-02) (830, -1.74034698416978966806e-02) (0, 8.54157128989124631024e-02) (1, 6.60760861853188080639e-02) (2, 8.72492803388134723075e-03) (3, -4.73029251601047723286e-02) (4, -1.31449796546270689102e-02) (5, -2.70100755401824800528e-03) (6, 5.54652091097953547916e-02) (7, 3.58922792450818775589e-02) (8, 6.62572026336002151137e-02) (9, 7.12579267840754860402e-04) (10, -2.75682855503073670489e-02) (11, 6.03149258856330097722e-02) (12, 2.91430267273950494022e-02) (13, -2.42124896832579539208e-02) (14, 1.12632404063251843201e-02) (15, 7.02081544884649161320e-02) (16, 4.42017370724733862919e-02) (17, -9.33068351103937126956e-02) (18, 1.18723396878712226382e-02) (19, -1.49961557159385729110e-02) (20, 2.65007632794111262775e-02) (21, -5.41010401359066639415e-02) (22, -1.24136647111312420355e-01) (23, -3.80985247286501653094e-03) (24, -4.41875871792028612761e-02) (25, 9.98579240538428197782e-02) (26, 8.36718026753164451081e-02) (27, 1.22459232807159423828e-03) (28, -3.78748774528503417969e-03) (29, 7.10679870180965130022e-03) (30, 5.19258105388578292128e-02) (31, 1.33760638791559742511e-02) (32, 2.55682156502712613563e-03) (33, -1.30085933311463175510e-01) (34, 3.06467166133408096262e-02) (35, 1.02581512151065548655e-01) (36, -1.02458508868050635066e-01) (37, 4.12591002779595303340e-02) (38, -5.54214133111627788031e-02) (39, 9.11597960283196395714e-02) (40, 7.16079398989677429199e-02) (41, 1.04601035616083942736e-01) (42, -4.73090685011319372899e-02) (43, 1.58165299923703456253e-01) (44, -4.38015422475845073169e-02) (45, -4.19384138408956455568e-02) (46, 1.74235072706972124457e-02) (47, 1.36549545615488848727e-01) (48, -2.76325449879493006966e-02) (49, -2.18578376338869687090e-02) (50, -2.75308788258394436521e-02) (51, -5.03747167658257916090e-02) (52, -3.89904684645457910719e-02) (53, -3.98621952099430937322e-02) (54, -8.57641520758146841397e-02) (55, -4.07854399180771279299e-02) (56, -4.67927507442991857944e-02) (57, -1.55183929713445696585e-02) (58, -1.06545477520957554418e-01) (59, -3.85249787200054386038e-02) (60, -7.03620409813867642157e-02) (61, 1.55017840471437629013e-01) (62, -1.68589059799374892112e-02) (63, 1.37465977637707750802e-02) (64, -6.78787983007223122423e-02) (65, 4.86772765723077205369e-03) (66, 6.11064108625325799751e-02) (67, 5.25287282540057576252e-02) (68, -1.44356590880342194883e-01) (69, -1.26098543390321699009e-01) (70, -5.91286603004208891066e-02) (71, 1.05445027492414925008e-01) (72, -1.20014600079415417744e-01) (73, -2.37527582931546313305e-02) (74, -7.27463727932584902636e-02) (75, -8.41959755462669268145e-02) (76, 3.30772481342816587757e-02) (77, -1.15839644649542466981e-01) (78, -1.38115288651447121193e-01) (79, -1.65632974604553617759e-01) (80, -5.75906736675339640807e-03) (81, -5.86710064858690562989e-03) (82, -1.20714821426426283102e-01) (83, -4.70523742227854716025e-02) (84, -1.63618920485035998502e-02) (85, -2.57465153855620625112e-02) (86, -8.17641266773961594705e-02) (87, -3.43979022825336433478e-02) (88, -1.37858880101615177693e-01) (89, -1.11004198295608993985e-01) (90, 6.47888283632368222609e-02) (91, -3.83428435663203046047e-02) (92, -1.65240498282812869890e-01) (93, 5.92294955922117172253e-02) (94, -1.28569442019696417168e-01) (95, -5.16033293573819745736e-02) (96, 1.81685873323547547598e-02) (97, 6.83535923489575342193e-02) (98, 3.32534589177235981317e-02) (99, -1.01239976285116238530e-02) (100, -8.33536164082085140326e-02) (101, -3.48294397041610179211e-02) (102, 2.10539477408314447404e-02) (103, -9.62011282757260638432e-02) (104, 1.14708173042869319286e-02) (105, -1.07523434545330032197e-01) (106, 8.85289433157851989031e-03) (107, -2.04747720053107505611e-02) (108, -1.23969930689091664688e-01) (109, 1.48954749489481584612e-02) (110, 2.24748142943532701332e-02) (111, -5.15562825615400247004e-02) (112, -6.21617129275081684026e-02) (113, 6.42158336177634792019e-02) (114, 7.90263382617132081887e-02) (115, -9.89159373844603756476e-02) (116, 3.27682207169624692411e-02) (117, 1.49322017006725177302e-01) (118, -1.04700285358304556738e-01) (119, -5.68823269296313480115e-02) (120, -1.01243505293494934216e-01) (121, 1.36457847680960892012e-01) (122, 2.02932363008848370978e-01) (123, -8.19928930165481212322e-02) (124, 2.94371308787231347748e-02) (125, 6.31548742786838673835e-02) (126, -3.39831317732495682971e-02) (127, 1.63984816619467399512e-02) (128, 5.95384480166723448202e-02) (129, 8.99926575625193889141e-03) (130, -7.57567494928344520311e-02) (131, 8.59403948526193534052e-02) (132, -8.01941046725956202534e-02) (133, 6.74377735261738192607e-02) (134, -1.10637843290224038850e-01) (135, 3.21412696655414484304e-02) (136, -5.55443603956813358735e-02) (137, -1.72494137421694213042e-02) (138, -8.82753096156074640311e-02) (139, -4.70438560416610446202e-02) (140, -9.49429347631197406709e-02) (141, 1.55133514208218470376e-01) (142, 6.38096961639546267353e-02) (143, -1.53744681517094892303e-02) (144, 3.47975916309049143615e-02) (145, -1.54032686626934672836e-02) (146, 1.22287409032328028835e-02) (147, -8.34904310248647252291e-02) (148, -6.11306807162671911327e-02) (149, -2.92598390532505282791e-02) (150, 6.68820997889314483587e-02) (151, -8.03217429538530952593e-02) (152, -7.00032670687832092593e-02) (153, -3.13289979780144167698e-02) (154, -5.46799414410133535758e-02) (155, -9.66156800929387493682e-02) (156, 4.20710817241867589267e-03) (157, -1.42134054089153132050e-02) (158, -2.30402631506907533410e-02) (159, -1.30153748094159221749e-01) (160, 1.07257007155672753895e-01) (161, 1.65026045302100743406e-01) (162, -3.45491867134160926534e-02) (163, 6.35407807799060614373e-02) (164, 2.30175454081538027884e-02) (165, -1.13596349601651061545e-01) (166, 1.00040112530934574564e-01) (167, -4.88573103243265527418e-02) (168, -2.03727240664887962809e-03) (169, -1.45520305107969261105e-01) (170, 2.13971562115856037134e-02) (171, -5.37745138884140327917e-02) (172, -8.11878154175078164956e-02) (173, -3.04057687993316630437e-02) (174, -3.56294208486599428554e-02) (175, 3.89966665979256249530e-02) (176, 5.11957613917227299938e-02) (177, -1.06234026929113656301e-01) (178, -1.40911494608670057049e-01) (179, -9.67525192998605065853e-02) (180, 4.68524846419789281482e-02) (181, 1.11499827119623820537e-01) (182, 3.41657412845879984720e-02) (183, -8.00887253973079082936e-02) (184, -1.02198314566181266971e-01) (185, -5.27314013090515176785e-02) (186, -1.52417926081843541075e-02) (187, 4.83662494415995486419e-02) (188, -3.32740547580743298295e-02) (189, -1.34194782968508868892e-01) (190, 1.05806725883465055360e-01) (191, -6.78448925673805821462e-03) (192, -7.61589907520281994557e-02) (193, -8.79501431172436953787e-02) (194, -3.27707278128340009915e-02) (195, 9.17892283557280169726e-02) (196, -8.67471146799205367062e-02) (197, -5.99957129579162182220e-02) (198, 6.23984130138633824592e-02) (199, 8.84503245047111585908e-02) (200, 4.23079649715651096020e-02) (201, -3.95331581014159508247e-02) (202, 9.68144101622839120536e-02) (203, 9.52651607637068770229e-02) (204, 3.03679073434692803346e-02) (205, -2.53741371201904883717e-03) (206, 5.50267776105191550040e-02) (207, 1.40086559999518956571e-02) (208, 1.97593040862009960978e-02) (209, 6.87031689297167846853e-02) (210, 3.69994712265432415532e-02) (211, -2.83139440189365959588e-02) (212, 7.07780692346669706300e-03) (213, -3.81676428534229450484e-02) (214, -1.91322993131289344204e-02) (215, 2.70398118607532884916e-02) (216, 2.68338388819399087382e-02) (217, 6.79298800830135524054e-02) (218, -1.51612702173392881883e-02) (219, -9.82460361771802098696e-02) (220, 1.36858472003832276620e-01) (221, -7.04242754484051131092e-02) (222, -1.65470058529360412869e-02) (223, 1.25711765711562895032e-01) (224, -5.38582770081920264582e-02) (225, 9.21515019099043569684e-02) (226, 5.38351032363531128988e-02) (227, 6.20440471078233073132e-03) (228, -3.78060076209670095637e-02) (229, 2.11315605519408478141e-02) (230, 2.34347365688174699705e-02) (231, 8.59770267791704241589e-03) (232, -2.09762244580899981372e-02) (233, -3.43700517455877707640e-02) (234, -3.11657474508013898618e-02) (235, 9.07942890369986960186e-02) (236, 1.05222874801269739020e-01) (237, -5.76005290587796731083e-02) (238, 4.03585590704958960262e-02) (239, 9.97844923887700532839e-03) (240, 3.64707039801965282599e-02) (241, -4.11552259205031634171e-02) (242, 3.95054226601372349137e-02) (243, -3.33008576018791538353e-02) (244, -6.44095055604507887859e-03) (245, -1.18126772948119393436e-02) (246, 1.09830361979998916699e-01) (247, -4.15721384004277896840e-02) (248, -4.98362006121807962766e-02) (249, -7.01446849348201922902e-02) (250, -8.67919021187098412018e-03) (251, -5.43796876387746749848e-02) (252, 4.91824534606054926573e-04) (253, 6.04455806383751362287e-02) (254, -9.51853288000460845408e-02) (255, 4.97937828227643097811e-02) (256, 7.03108263054272042414e-02) (257, 2.58881983143599003760e-02) (258, -5.97203676773827053792e-03) (259, -1.22704023998377584337e-01) (260, 5.78698719550217247076e-02) (261, 3.33106465736623669205e-02) (262, 2.83750668288630519820e-02) (263, -7.75185088026305590958e-02) (264, 1.51948300397426128150e-01) (265, -5.40412351179185082573e-02) (266, -8.66691958592201577849e-02) (267, 7.86785906532507794964e-02) (268, -2.50230705622377057329e-02) (269, 1.76838899005513604246e-02) (270, -1.19634237227416607291e-02) (271, -1.11646569325776323645e-01) (272, 7.51899637277634036447e-02) (273, -4.92871429893880219630e-02) (274, -7.32308916858783465198e-02) (275, -4.56689621141009600286e-03) (276, 3.93196693240949607384e-02) (277, -9.37612423552540569238e-02) (278, 5.79759915235542253042e-02) (279, 3.28934077230660648627e-02) (280, 1.67643031412498463850e-02) (281, -3.77023440871181031442e-02) (282, 9.33267416506638469720e-02) (283, 7.00831049147680185119e-02) (284, -7.61889293150981444791e-02) (285, -8.44618458872996580311e-02) (286, 1.19070953426675466003e-02) (287, 8.76878514396646491225e-02) (288, 7.69784760046507282594e-02) (289, 9.28012240380107489290e-02) (290, 1.07937523116131570133e-01) (291, 5.24956496053179400008e-02) (292, 1.64935863099664146991e-02) (293, -4.20181120839842239117e-03) (294, 4.98134506268634383308e-02) (295, 1.49087419352113576682e-02) (296, 8.82852996758099195507e-02) (297, 4.68032800712698954237e-02) (298, -7.46938366588443258820e-02) (299, -7.33608245545915582664e-02) (300, -2.41706350734958060056e-02) (301, 8.20290345611622423450e-02) (302, -7.63506527942321155944e-02) (303, -3.88049289610876840806e-02) (304, -5.57900464992929084884e-02) (305, -1.01694294463044098906e-03) (306, 2.98034653686057963984e-02) (307, 3.06766190748866372784e-02) (308, 6.90122928880628760950e-02) (309, -7.19751291250979308156e-02) (310, 2.87213556415493800889e-02) (311, -1.17622286976015205662e-01) (312, -7.60074628478980308943e-03) (313, -1.84120843143916815277e-02) (314, 5.99762403757157433470e-02) (315, -3.90444392504023848195e-03) (316, -2.66965403436424325925e-03) (317, -2.93318576521680749944e-03) (318, -2.69938470444875157350e-02) (319, -1.82930094441037418944e-03) (320, 3.12977295614596806583e-02) (321, 2.03103448151855971171e-02) (322, -8.14451996435017061549e-02) (323, -8.75750196836573985282e-02) (324, -7.66432615157294216957e-02) (325, 8.04949363179327942452e-02) (326, 3.80967479403439765462e-02) (327, 8.76717228605974063793e-02) (328, 5.34820252439334245520e-02) (329, 9.29216620833707290794e-02) (330, 1.01210069222347029405e-01) (331, -6.09158079454312079148e-02) (332, 3.45433029151020823400e-02) (333, -1.17855573021686227397e-01) (334, -7.75561683156057307675e-02) (335, 6.12081038021630025048e-02) (336, 3.63554962986291640981e-02) (337, 1.11680153943792978555e-01) (338, -8.68290182140801641841e-02) (339, -5.07339741435657090585e-02) (340, -4.41020295159701564147e-02) (341, 8.47013911296778665427e-02) (342, -3.27470415409689737801e-03) (343, 7.67277019819912614595e-02) (344, -1.61453391768108522886e-02) (345, -6.30225531666573843270e-03) (346, -2.82285117009717576031e-02) (347, 6.01890720109923144099e-02) (348, -1.01173536796557619888e-01) (349, 6.93953385558633648739e-03) (350, -2.57753768854057652149e-02) (351, 8.95363839610585285356e-03) (352, 8.24981300425356167683e-02) (353, -3.04616441584929058262e-02) (354, 3.31317489189371303104e-02) (355, -1.58874010414347510700e-01) (356, -2.88113638898023945167e-02) (357, -4.98455822804166268081e-02) (358, -3.46007323122280666811e-03) (359, -7.84171221589167743993e-02) (360, -6.24567453496646871058e-02) (361, 5.18130261659888666226e-02) (362, -2.30097895680359924853e-02) (363, 9.11899340339511199627e-02) (364, -1.55540302438211763825e-01) (365, 5.66295843311831262334e-02) (366, 6.26053753621919062411e-02) (367, 3.96328179086805482134e-02) (368, -3.75341512778739130884e-04) (369, -1.13937014592725996409e-01) (370, -7.89976272479760988077e-02) (371, 5.54896671787835568668e-02) (372, -1.04957156699303610914e-01) (373, 1.25242655042510954433e-02) (374, -1.42989499745950331827e-02) (375, 3.32703752599504756771e-02) (376, -7.84860200166555693757e-02) (377, 6.93376114585235042709e-02) (378, -2.61114753199654658911e-02) (379, -2.51108348370229321478e-02) (380, -4.51906546042381562778e-02) (381, 4.94770871053555535979e-02) (382, 1.18609950788964704782e-01) (383, -2.69532242940479886684e-02) (384, -4.20545550084940322755e-02) (385, 6.48687245678610246991e-02) (386, -3.13089375633877967098e-02) (387, 3.35084415452733264118e-02) (388, 7.28810957916564000625e-02) (389, -1.19264460558976756466e-01) (390, 5.14179900994341035347e-02) (391, 1.01970081351011196413e-01) (392, -7.27442663680666345982e-02) (393, -6.38866760378501291617e-02) (394, 4.83618741578210470378e-02) (395, -1.41944700150420533707e-02) (396, 1.37030442221072162878e-01) (397, 3.41578398981614173718e-03) (398, 5.65025178980072470547e-02) (399, 4.44215965661753087179e-02) (400, 2.28219908331647042266e-02) (401, -5.09535017619188873583e-02) (402, 4.23070596188099973256e-02) (403, 9.47597103898155795898e-02) (404, 6.37919233067183039099e-02) (405, 1.30878470840115695983e-01) (406, -1.01555563063241115207e-02) (407, 9.25884601253766786888e-02) (408, 6.17745094884401824142e-02) (409, 7.17419222626506092322e-02) (410, -8.97782267077814333245e-02) (411, -4.66281812050974922568e-02) (412, -2.08118319230867487857e-02) (413, -1.34099339781592413745e-01) (414, -6.33442468214798770632e-02) (415, 4.93801789443000238577e-02) (416, 2.28005260746518313708e-02) (417, 6.37726080316824706085e-02) (418, -7.93254835788814310904e-02) (419, -9.48716535451532734513e-03) (420, -1.10059425180761963348e-01) (421, -3.37079296243765549890e-02) (422, 5.09103219564219777737e-02) (423, -1.20090465260641904299e-01) (424, 2.82193937547151399436e-02) (425, -1.81372490557955082235e-02) (426, -3.47743172492424312825e-02) (427, -3.07994620932269362601e-02) (428, 7.23032169369876992482e-02) (429, -5.19481890002752369484e-02) (430, 4.55602932157894366383e-02) (431, -4.52030097772840172565e-02) (432, -5.23569862891513290726e-02) (433, -1.51536000796569952920e-01) (434, -1.08500748391400794746e-01) (435, 4.30778312887864639480e-03) (436, 9.27521976117723773170e-02) (437, -2.41764354361242161939e-02) (438, -1.37624297010275120634e-01) (439, 4.93211022988782332721e-02) (440, -7.81034556509786481726e-02) (441, -6.29128606538954804339e-02) (442, 4.36505168637173271429e-02) (443, 4.60578427398753154076e-02) (444, -7.31002267279273615364e-02) (445, -6.23427097384115155854e-02) (446, -3.59505211203183377977e-02) (447, 9.75669942293963948776e-02) (448, 5.91825687000008537897e-02) (449, 7.47488121786964720972e-02) (450, -1.64054970854154123783e-02) (451, 7.50882798918019178647e-02) (452, -6.78816448832347402176e-02) (453, -1.21371962440741373856e-01) (454, -1.21525573177602069785e-01) (455, -1.24997107955787598033e-02) (456, 2.26922989741087152010e-03) (457, -5.77780895557748683244e-02) (458, -1.98195568134025426957e-03) (459, -7.27987405049260183354e-02) (460, 3.88408781908107236802e-02) (461, 5.48274816726557617796e-02) (462, 9.75239539794838794506e-02) (463, -5.08394888993337901173e-02) (464, 2.06407945030654925433e-02) (465, 6.28146589962600560009e-02) (466, -1.50993308872265398490e-02) (467, -1.19233558457105658784e-02) (468, 4.68396731738132954259e-02) (469, -9.00671791241504371417e-02) (470, -5.29153003428051924018e-02) (471, 3.17074736877961185777e-02) (472, 4.90757347208816488426e-02) (473, 4.91246880800365118280e-02) (474, -2.34934017981954824938e-02) (475, 4.54890231259114513618e-02) (476, 1.33667534721938818798e-01) (477, 1.23957264600931565957e-01) (478, 6.17958411204610480461e-02) (479, 1.51925859042938166815e-02) (480, 1.13364001140273826240e-01) (481, -7.77672569583499062595e-02) (482, 5.99716939562012357756e-02) (483, 1.78284609331562093892e-01) (484, -5.85990699965894049073e-02) (485, 4.77884123684494677153e-02) (486, -3.02165353555044619016e-02) (487, 8.08930370371079010550e-02) (488, -1.03329431972830024233e-01) (489, -7.68871670949476115897e-02) (490, -7.76572861661884716877e-02) (491, -8.98912623524665832520e-02) (492, 1.41545387281855668954e-02) (493, 8.60377827003728501420e-02) (494, -8.83369704244118571224e-03) (495, 1.36951244769302430543e-02) (496, 1.02077678079949080159e-01) (497, 3.01948363897788160659e-02) (498, 1.00907890941821246078e-01) (499, -4.03693846558174293526e-02) (500, -8.65539635673881063704e-02) (501, -4.16096737442241543237e-02) (502, -1.09457294036693492112e-01) (503, -1.51095588873340173908e-02) (504, 1.02604088618097818997e-01) (505, 5.63295195533279335898e-02) (506, -2.47311010169980281109e-03) (507, 6.81206550910048863612e-02) (508, 9.57200220527714834562e-02) (509, -4.54846826846843216297e-02) (510, 2.66786101361745908722e-02) (511, -2.29789911264624870102e-02) (512, -1.11141949892044067383e-02) (513, -3.15349518053052169098e-02) (514, -3.57796748101139247544e-02) (515, 4.21449950440268977792e-04) (516, -1.98220437651868801321e-02) (517, 8.86922223331662179513e-02) (518, 2.50828813044558160406e-02) (519, 3.15528684558816219230e-02) (520, 4.67276267151828673257e-03) (521, 6.90032123107438884885e-03) (522, 3.94444024790039163286e-02) (523, 7.53043487325425475731e-02) (524, 1.43370739510027614405e-02) (525, 7.48156131293378767744e-02) (526, -4.78689823233955508153e-02) (527, -1.10302578478730095579e-02) (528, 3.74330972659931522292e-03) (529, -7.70774943297887066285e-02) (530, 3.50479067787637585396e-02) (531, -6.20420237215793014818e-03) (532, -3.72424216644072908489e-02) (533, 7.35383257269859313965e-02) (534, -5.43903035967144218854e-02) (535, -9.17855140658761364802e-02) (536, 1.92031023028250008577e-02) (537, 2.42215807769682253681e-02) (538, -4.58865215415508106989e-02) (539, 2.14331083172599433373e-02) (540, -7.66284578167116953162e-02) (541, -1.71341613743662080083e-01) (542, 2.84472386333849275308e-02) (543, 4.87989887025291890765e-02) (544, 3.08432783596549048299e-02) (545, -8.69181267118736139432e-02) (546, -4.16939713167717371234e-02) (547, 7.07811278562406470671e-02) (548, 1.38761613585376974989e-01) (549, 6.37924925791869268377e-02) (550, -5.75615008714059316064e-03) (551, 2.74934615358637529647e-02) (552, -1.12912163771631768316e-01) (553, 6.68783146142251233579e-02) (554, 4.44595739245414733887e-02) (555, 9.47053272914756133494e-02) (556, 8.88018037588023251283e-02) (557, -1.11464057394177265548e-01) (558, -8.45082858631855254883e-02) (559, -5.70530389134244683702e-02) (560, -3.15629672081856535448e-02) (561, 6.30431883837086481925e-02) (562, -1.16181479595635961388e-01) (563, -1.21435611418260758221e-02) (564, 1.02096551356004983102e-01) (565, 5.36110456334741060369e-03) (566, -7.85873752983019396856e-02) (567, -5.19432282957608890128e-02) (568, -9.72853743293577849505e-02) (569, -1.57174190660022278232e-02) (570, 1.93460352780965468000e-02) (571, -6.07613208814233377031e-02) (572, -4.13654487035105752901e-02) (573, -3.92620035094354141725e-02) (574, 3.75760522262601204257e-02) (575, 7.29916766285896301270e-02) (576, -8.75503172719112876532e-02) (577, 1.06102689054720589201e-01) (578, 4.89295816326838287069e-02) (579, -5.80951175824936313918e-02) (580, 2.80675480529376970840e-02) (581, -1.23941959645166049908e-01) (582, 7.99865525629337714708e-02) (583, 7.73773338364744794893e-02) (584, 4.34771599487536672402e-02) (585, 3.84126697105434747326e-02) (586, 7.75529682209579740437e-02) (587, 3.83549526355064299143e-02) (588, 6.76332769191895916139e-02) (589, 8.37956692483658449611e-02) (590, -1.07557271865644718534e-01) (591, 1.12660491455569472530e-01) (592, 1.17447818446150528682e-01) (593, -8.81812099514166919390e-02) (594, 6.92604623424166853524e-03) (595, 6.22122989286106875539e-02) (596, -2.21686810255050659180e-03) (597, 2.82452162301046957871e-02) (598, -4.42514444613706994791e-02) (599, 5.97110421943874980499e-02) (600, -1.20981613191125658702e-01) (601, 3.39315747827542094767e-03) (602, 2.90375361931209004240e-02) (603, 1.79508858591858992682e-02) (604, -4.73810665261892630627e-04) (605, 6.05698366205870836199e-03) (606, -3.44669176652946315786e-02) (607, -8.11446977289856791193e-02) (608, -5.90659480646124335212e-02) (609, 4.64324169236802614114e-02) (610, -3.49605447788511880525e-02) (611, 5.05920339662689830251e-02) (612, 1.16945202871040848658e-01) (613, -5.86904060877612501756e-02) (614, 2.60522621320785525978e-02) (615, 1.02443816350101524204e-01) (616, 4.11873601708373573982e-02) (617, 1.91151409840365077430e-02) (618, 1.38188101910181569687e-02) (619, -2.52514574972088762239e-02) (620, 3.47980266942138696806e-02) (621, 1.91310481137812078700e-02) (622, 2.02465806531317779604e-02) (623, 1.75664437982241926350e-02) (624, 3.21513443844453628007e-02) (625, -6.83563409174644115440e-02) (626, -6.93956585176197376930e-02) (627, -9.27038479230937878528e-02) (628, -4.81590625287631884932e-03) (629, -1.26868161805940321551e-01) (630, 5.94656660625179495083e-02) (631, 1.27724362113908352506e-02) (632, 3.99046034718949713116e-02) (633, 1.07105713973038134401e-02) (634, -7.13986714042428582960e-02) (635, -8.79053601241414211964e-02) (636, -8.60578514156074420027e-02) (637, -7.92196658508690677858e-03) (638, -7.08361330819640977463e-02) (639, 9.22777261635572693121e-02) (640, -8.72910776498463970852e-03) (641, -3.09145364095002421478e-02) (642, -8.49356732716892992574e-02) (643, 1.47153565422457463172e-03) (644, 5.98335314903293905009e-02) (645, -6.63762479365658103481e-02) (646, -8.31945325788847334092e-02) (647, 1.04019663636345082586e-02) (648, 3.33410616201736814679e-02) (649, 1.24145919470046800503e-01) (650, -1.55345270932651796647e-01) (651, 1.09447587078646164926e-02) (652, -4.00088867960513849820e-02) (653, -9.44719455387717579886e-03) (654, 2.08896165648829110206e-02) (655, -2.85740262906385711350e-02) (656, 3.66216999862785039244e-02) (657, 7.75120013718488265475e-02) (658, -1.08317540987793475837e-01) (659, 5.05526451431039802742e-02) (660, -1.03232277335431679721e-01) (661, -1.35028805109202905410e-02) (662, 2.11824561729567484303e-02) (663, 1.12403552003046539043e-01) (664, -6.76294314828589787636e-02) (665, 4.61771594753139710821e-02) (666, -7.50174130703574748580e-02) (667, 6.43319923285894795795e-02) (668, -8.46261184919653991487e-02) (669, 8.00476597320960853166e-02) (670, 6.28067390986600943004e-02) (671, 8.57058107844080874216e-02) (672, -7.51696054454761009023e-02) (673, -1.65867926452541647117e-03) (674, -1.05901931958650663557e-01) (675, -9.19637368889497375246e-02) (676, -5.93182812016096721458e-03) (677, -8.27826244696207719231e-02) (678, 7.12947166263390441632e-02) (679, -4.77259716166334307941e-02) (680, -1.01799721508666271563e-01) (681, 6.79353362778203906380e-02) (682, 1.80618185409020769183e-02) (683, 3.87033250719290913833e-02) (684, -6.29166482862615894511e-02) (685, 1.99646093155120794849e-02) (686, 8.76761746928819418745e-02) (687, -5.44259291104054257482e-02) (688, 1.57533480986510113220e-02) (689, 6.56097408235182220915e-03) (690, 7.65557009507755459321e-02) (691, 3.52813620921059306612e-02) (692, 1.27174783039822214548e-01) (693, -1.25755543532753526204e-02) (694, -6.13125790119892766228e-02) (695, -5.71696366478521428300e-02) (696, -4.68260748809255569758e-02) (697, -3.27109104255269150796e-02) (698, 9.62532475218422049756e-03) (699, 3.38804501677592642683e-02) (700, -5.96061960970391963022e-02) (701, 7.07799628468248204216e-02) (702, 2.40196176376548525822e-02) (703, 1.88151502378243185021e-02) (704, 1.82080986686991540269e-02) (705, 6.61601144438401927994e-02) (706, 5.82643699835672032594e-02) (707, 3.57785690055029553802e-02) (708, -3.36531367051187690898e-02) (709, 9.62530756500903049433e-03) (710, -8.09769648308508588341e-02) (711, 1.86090805715813760457e-02) (712, -8.74030111486869681903e-02) (713, 2.80419042647846311622e-02) (714, -5.62915914060339028779e-02) (715, 2.43949847438046721337e-02) (716, -3.30204770270076733429e-02) (717, -1.21818013134179017887e-01) (718, 1.05384368581682097421e-01) (719, 5.43649342476789088074e-02) (720, -8.85077328796305545788e-03) (721, 5.85153580902716755063e-02) (722, -1.61999942451010910116e-02) (723, -1.58496321397319922530e-02) (724, -1.96509367118396678642e-02) (725, -9.29963314132856710970e-02) (726, -2.06529571516127045949e-02) (727, -2.55429603848943365119e-01) (728, 7.57937512712655026004e-02) (729, -2.39880428432389658511e-02) (730, 2.34727028531563509245e-03) (731, -6.19984152606173899436e-02) (732, -3.84544419664235095913e-02) (733, -1.40337815126223619533e-01) (734, 1.88725669787306871150e-02) (735, -3.64107701130832878134e-02) (736, 7.45078012414944063080e-02) (737, -3.87176738227406475046e-02) (738, 1.01773960558382878250e-01) (739, -7.09603437040808165959e-02) (740, -1.51577418134345498490e-01) (741, -1.01444125526682069061e-01) (742, -6.66469631335152995488e-02) (743, -3.32769081371194347385e-02) (744, 1.02923038247275163565e-02) (745, 6.04379539582568722778e-02) (746, -1.58516932644204022740e-01) (747, 6.36771378051779052276e-02) (748, -1.89112976294660284360e-02) (749, 9.40562389787149288889e-02) (750, 1.70758377860457138953e-01) (751, 2.88579541240834812343e-02) (752, -9.68365212788292600843e-02) (753, 2.98642354348410861420e-02) (754, -1.15071160726102975080e-01) (755, 1.84043876247908438915e-01) (756, 3.26140822975742247780e-02) (757, -1.21574418278805246318e-01) (758, -3.12198218465468135818e-02) (759, -5.98408326922651098712e-02) (760, 5.15728043179752779213e-02) (761, -9.25922679708821444455e-02) (762, -6.58899785378694452520e-02) (763, 1.40711871815187516965e-01) (764, -5.34986373117579336323e-02) (765, 1.30139513440245694134e-03) (766, -2.29958000416612372285e-02) (767, 2.00067653796095305807e-02) (768, 5.72685519416781581986e-03) (769, 8.07691384511784599143e-02) (770, -3.52544703343053295042e-02) (771, 8.38430225849151611328e-03) (772, 4.31210263206534966107e-02) (773, 1.89265833801001669146e-02) (774, 3.28010856065159006612e-02) (775, -2.61562839198784778671e-02) (776, -3.09328048564019072314e-03) (777, -3.59519000441733058149e-02) (778, -6.52325053570511209644e-02) (779, -3.09552216761490722741e-02) (780, -6.03763034474223553305e-02) (781, 3.79637473942059863741e-02) (782, -9.39192212450612184949e-02) (783, -9.94684167097884125441e-02) (784, 1.71632339444593266797e-02) (785, 4.13310761696263420650e-02) (786, -8.76970801346463740833e-02) (787, -4.19869239328760513602e-03) (788, -2.35662730750704207949e-02) (789, 5.56662646890113479992e-02) (790, 1.13443130303785850305e-02) (791, -4.92338158342221776653e-02) (792, -5.84755959213547650555e-03) (793, 1.47742135932607238091e-01) (794, -1.58708627591730128126e-01) (795, 9.01140193038900139122e-02) (796, 1.47804431055017948538e-01) (797, -9.69327258149057929826e-02) (798, -1.00205433043240865754e-01) (799, 3.50301433251866281907e-03) (800, -1.24708749207631766631e-01) (801, -2.45073441362655616849e-02) (802, -1.35881886428180942428e-01) (803, -6.49688837330210378074e-02) (804, -1.07994403001688998867e-01) (805, 4.65539418037404090223e-02) (806, 1.53267583622763593071e-02) (807, -3.97686570186337393085e-02) (808, 4.60547728725232800862e-03) (809, 5.97096730360553995531e-02) (810, -1.53740369242347935108e-01) (811, 5.49444090434067708428e-02) (812, -2.92015846673742513959e-03) (813, -8.50123916845667570996e-02) (814, -1.43587433541594505781e-01) (815, -5.55220169592822443416e-02) (816, -4.94090101557553007527e-02) (817, 8.59625745749375419491e-03) (818, -1.29994660068578848922e-01) (819, -3.45330496295682479180e-02) (820, -1.48622331739173912935e-01) (821, 2.85234326366671959996e-02) (822, -2.04536702848591260551e-02) (823, 5.35355676013928635099e-03) (824, -1.54976898189431171356e-03) (825, 4.97130021377683098405e-02) (826, -1.90623778356871324824e-02) (827, 2.13131394381824643136e-02) (828, -6.74722492694854736328e-02) (829, -2.39992290735244750977e-02) (830, -3.65844534880855470904e-02) (0, -2.66602580055182586394e-02) (1, 3.88722654869030695424e-02) (2, -9.56508269179903204693e-03) (3, -1.73567543375890281920e-02) (4, 7.67693816879107260309e-02) (5, -2.89897604800391887891e-02) (6, 9.29957660208487330022e-02) (7, 3.75466499454675875502e-03) (8, 6.63410627602941671555e-02) (9, 6.61167393493578142705e-02) (10, 3.71521519297026564521e-02) (11, 3.05550452301748508288e-02) (12, 2.48065946522705201016e-02) (13, 8.45178416191784825928e-02) (14, 4.24285156452295919571e-02) (15, 9.95388496625943530738e-02) (16, 3.81508284098235825321e-02) (17, 9.24679538000610229398e-02) (18, -8.35775143619106319903e-02) (19, -9.23618990610861473334e-02) (20, -7.26320944758277048381e-02) (21, 6.94079941173775111229e-02) (22, 2.08653062610687431433e-02) (23, 2.53544296001553814968e-02) (24, 6.61526233875819047459e-02) (25, 1.49046322203096170272e-02) (26, 9.37599398694968916290e-02) (27, 3.98681536316871643066e-02) (28, 6.03637322783470153809e-02) (29, -4.76392315871342203470e-02) (30, -8.67211199408613880868e-02) (31, -6.77059931284442889643e-02) (32, -8.50539802632057362342e-02) (33, -5.90431358807199432176e-03) (34, 9.32285580378633405019e-03) (35, 9.27400758744723885396e-02) (36, 7.27298096232302515585e-02) (37, -2.11841179335775821324e-02) (38, 4.11648644376018911506e-03) (39, 3.51584025253209309092e-02) (40, -1.30340009927749633789e-02) (41, -9.01627063838449233080e-02) (42, -3.93916814197792716779e-02) (43, -9.91605385653531873347e-02) (44, -7.29689831429428392706e-02) (45, -1.15061399626497931625e-01) (46, -1.19393420394404245477e-01) (47, 3.15765770742457360654e-02) (48, -1.27493177669620316728e-01) (49, -1.12106824257650852794e-01) (50, 5.47472591146770243276e-02) (51, -9.47797189636167269899e-02) (52, -9.59964190989811144705e-02) (53, 2.24273411264273823951e-02) (54, 6.49566179086530776088e-02) (55, 7.92927963458007756259e-02) (56, -5.25046718925777367026e-02) (57, 4.38206242910328322426e-02) (58, 2.35753381015375053364e-02) (59, -8.64998393134696341722e-02) (60, -8.40653571891168960306e-02) (61, 1.73778964713508544959e-02) (62, -6.22814183393332193583e-02) (63, -7.21635446935565555426e-02) (64, -6.71710863801079083313e-02) (65, 7.33496595016669972189e-02) (66, -8.20806468413446538301e-02) (67, -1.01954769191947985929e-01) (68, -1.77703771925211452543e-02) (69, 1.74833970143226311023e-02) (70, 4.55012269876541516900e-02) (71, 7.31004971583603530005e-02) (72, 6.03877042993094456658e-02) (73, -9.55275043549992236569e-02) (74, 1.01594343374861062479e-01) (75, 9.97323296411038590081e-02) (76, -8.98851678702531492471e-02) (77, -1.02343153428266858684e-01) (78, 7.33203563144952663588e-02) (79, -8.03621336101609656799e-02) (80, -1.00835750621212333344e-01) (81, 1.52758021328360197449e-02) (82, -4.19435699406847176118e-02) (83, -7.17796236847264290670e-02) (84, -3.13499452290620858608e-02) (85, -8.81612861545456732992e-02) (86, -6.30272462116750198380e-02) (87, 1.92733582996936769760e-02) (88, 4.58951416096309711135e-02) (89, 4.54698025002360159408e-02) (90, 3.17408491943951681646e-02) (91, 6.65364055398355441762e-02) (92, -6.73017829372672855837e-03) (93, 9.81122266462816638999e-02) (94, -7.78891107379348773820e-02) (95, 4.06028825072839369414e-02) (96, 6.49653649144724121278e-02) (97, -6.13135126226524510007e-02) (98, 7.76220860995089911860e-02) (99, -3.31690577098578964765e-02) (100, 5.51530309084657804908e-02) (101, -7.62763090531913545700e-03) (102, -5.54771678046492716652e-02) (103, 2.69805389127732268839e-02) (104, 1.01999341214029440317e-02) (105, -5.28456644279816159515e-02) (106, 4.32077073600517572172e-02) (107, 3.53554420696386428880e-02) (108, -6.33178958711948236537e-02) (109, -1.86995004425196369039e-04) (110, 4.49050672414891688389e-02) (111, -6.13335201460009082908e-02) (112, -6.20742322351163847149e-02) (113, -1.06376888284136605911e-01) (114, -5.72432375789435916175e-03) (115, -2.04163827942597294468e-03) (116, -9.55382835800543811500e-02) (117, 1.58333692911503537415e-02) (118, -6.08439914906215781332e-02) (119, 7.36037955285282624596e-02) (120, -4.48554851135736770001e-03) (121, 7.16430370506971059275e-02) (122, 3.49216732999257026271e-02) (123, -1.14517573286664398058e-01) (124, 9.85674262615083562888e-02) (125, 7.41407741856268259761e-02) (126, 4.16300928058906533069e-02) (127, 5.34902895238565170843e-02) (128, -8.53045389841862178315e-02) (129, 7.50467536437656422554e-03) (130, -6.80452195542459725708e-02) (131, -9.52651865102460831958e-02) (132, -9.53437735944880349059e-02) (133, -1.48805108652085120446e-02) (134, 5.65105440844983694659e-02) (135, 2.88086907467043351616e-02) (136, 2.93982824701878309170e-02) (137, -2.33798948367079867730e-03) (138, -2.82727284465931344437e-02) (139, 5.18112343854870358029e-02) (140, -8.61383839919573485178e-02) (141, -7.86990287114770897814e-02) (142, -5.44832640514628235850e-02) (143, -4.67228097657172505852e-02) (144, -5.40182377463063606582e-02) (145, 5.77211405180539857684e-02) (146, 6.98269455117275367195e-02) (147, -1.81827153239253365424e-02) (148, -1.72943310421496132534e-02) (149, -7.48169112889038867564e-02) (150, -4.79863091959856769009e-02) (151, -8.90623593929421308868e-02) (152, -7.29455541429913645324e-02) (153, -6.72369657335691456312e-02) (154, -7.80452533152917876658e-02) (155, -7.26262484158925331057e-02) (156, -8.49622470272850677242e-02) (157, 5.07875566851675591673e-02) (158, -8.22719913090979443338e-02) (159, -3.94979998684141450638e-02) (160, -4.27862376300720895217e-02) (161, -8.77482013195107907189e-02) (162, -2.94033973392636670263e-02) (163, -2.80637389685622351543e-02) (164, 2.64119915600309861092e-02) (165, -5.28202494670761205087e-02) (166, -7.83299449851107831844e-02) (167, -4.54737667661171546252e-02) (168, 3.49631351267069637179e-02) (169, 1.11075006249339164333e-02) (170, -6.90218293275167288359e-02) (171, 5.14445464967292764857e-02) (172, 4.83596764658122471592e-02) (173, -3.01904827931660062201e-02) (174, -8.31411832451501159325e-02) (175, -8.11688524440827147144e-02) (176, -5.93332969409242835801e-02) (177, -1.01026422198728302315e-01) (178, -6.87756383066631411111e-03) (179, 5.76848480713958514099e-02) (180, -6.37442593123984241332e-02) (181, 4.10951483390539495932e-02) (182, 5.60228937777812810439e-02) (183, -2.62365742210105105936e-02) (184, -1.00170215027110501294e-01) (185, 8.01796145277252486627e-02) (186, 3.95678985613197743004e-03) (187, -9.08359442287031276786e-02) (188, 4.34435179467897031325e-02) (189, 2.11533251028911059577e-02) (190, -1.44523663384401902798e-02) (191, -7.31353706723168600634e-02) (192, 6.11288555640337114006e-02) (193, 8.07233669262166775304e-02) (194, 2.54586217811619656970e-02) (195, 3.70667216260083367055e-03) (196, -6.17207818614009112723e-02) (197, 6.03186864569066824582e-02) (198, 8.02667678887362401330e-02) (199, 8.92005207501742197751e-02) (200, -3.12944165778258620580e-02) (201, -7.67194688482017439490e-02) (202, 5.48753816033319338774e-02) (203, -7.35694594940050766718e-02) (204, 1.17090064011091989082e-02) (205, 8.40781843206927087531e-02) (206, -5.28681967111375300528e-02) (207, 5.90541915132692871171e-02) (208, 9.61160980822283878000e-02) (209, 4.40561596914450515072e-02) (210, 1.86248364303319181856e-02) (211, -5.83179966603298086114e-02) (212, 6.66217982361862193219e-03) (213, -9.80522542422608903157e-03) (214, 2.64804806888711066759e-02) (215, 1.82303641322848555828e-02) (216, -2.77282088514336291785e-02) (217, -5.64969098674624747858e-02) (218, 4.12597818390588941262e-02) (219, -6.68888467086922039462e-02) (220, 5.37328102269218343956e-02) (221, -6.29553343782389973615e-02) (222, -3.42855467435182817426e-02) (223, 2.31675837675408800853e-02) (224, -7.74153873704020029090e-02) (225, 8.44886715265095594729e-02) (226, -5.80505122875094384249e-02) (227, -4.29601320737755532075e-02) (228, 4.08528003910443790470e-02) (229, -8.06524059519204278290e-02) (230, -6.09515282320946469308e-02) (231, -7.67109392679980461871e-02) (232, -7.33555126782027555610e-02) (233, -9.58941773242078659978e-02) (234, -4.09441625439258480301e-02) (235, 4.80717078719968271550e-02) (236, 8.22231175295373567513e-02) (237, 2.33739136693848856968e-03) (238, 4.40168638640128263850e-03) (239, 7.94665926191479993212e-02) (240, -4.10032887505980617182e-02) (241, -7.76125048596465472173e-02) (242, -6.96941690055389029279e-02) (243, 7.04413274012277434988e-02) (244, 1.80690647389959366254e-02) (245, 4.68436936647384435939e-02) (246, -1.42625553771511311835e-02) (247, 8.89063487801600577098e-02) (248, 9.02260439126332247639e-02) (249, -6.20524549429034566472e-02) (250, -8.40794695503915973100e-02) (251, 4.45578395224624640436e-02) (252, -2.29699591008162250227e-02) (253, -1.55308652943364888105e-02) (254, -9.48652288464950019242e-03) (255, -1.27298794127200039401e-03) (256, -3.08876904772937208032e-02) (257, 3.70308346346816391614e-02) (258, 4.85839408272206174644e-02) (259, -7.78733281757266748713e-02) (260, 3.57319621879697429945e-02) (261, -9.88790120047785409119e-02) (262, -5.79964592847382470753e-02) (263, 6.87150673099378161979e-02) (264, -9.75487798702290576092e-02) (265, -1.37194339024615131334e-02) (266, 1.39401133248749555665e-02) (267, 9.64738551423984930233e-02) (268, -1.00593622637430921141e-01) (269, -7.23875484265050772592e-02) (270, 7.89176537907368413904e-02) (271, -3.59555488429202235734e-02) (272, -5.05322573530254323670e-02) (273, -9.63889739149156044018e-02) (274, -5.70231277014861190344e-02) (275, 6.62073338996358451425e-02) (276, 5.36945168593848248806e-02) (277, 3.15162741978872243398e-02) (278, 5.09902335867442949024e-02) (279, 5.04249825969645890100e-02) (280, 5.87330832310650197137e-02) (281, 7.11355920781559791788e-02) (282, 4.40125105087052406055e-03) (283, -5.89332140235915846738e-02) (284, -3.96700444484692424374e-02) (285, 8.88380689903869730228e-02) (286, 3.92371492954472003700e-02) (287, 3.31932519488508659400e-02) (288, 1.50999715741713894795e-02) (289, -7.82538471057902217110e-03) (290, 4.75047477118072034030e-02) (291, -5.08417055510378274041e-02) (292, -5.00592036210741487406e-03) (293, 9.59201041340977250682e-02) (294, -7.50573519239723235819e-02) (295, 1.28309604299370310504e-02) (296, -1.66472311407445568154e-02) (297, 4.67242854392142456521e-02) (298, 2.37658086062127460458e-02) (299, -1.41797548333906630463e-02) (300, 6.97521789781645473738e-02) (301, -1.66785443987681643307e-02) (302, 4.96718171939902822243e-02) (303, -8.01437002580758228731e-02) (304, -9.59103074289742278669e-03) (305, 8.55680577339001657844e-02) (306, 9.27430800852923065136e-02) (307, -4.57614284391819892139e-02) (308, 8.94894236571999908414e-03) (309, 6.14428578103860117965e-02) (310, -1.03758002772736890318e-01) (311, -1.35314118780082461024e-02) (312, 3.27937493555305950577e-02) (313, 3.97414079070077756045e-03) (314, 2.20901659391980788316e-02) (315, -9.79017422993541386322e-02) (316, -7.27275671510270015768e-03) (317, -3.79535028797958889912e-02) (318, 3.20577270380652742943e-02) (319, -9.17208224703175978298e-02) (320, 4.83365185269046121475e-02) (321, -2.40298525104949180220e-02) (322, -3.76392262593043397390e-02) (323, -4.29070917340329607836e-02) (324, -2.76056651395286505035e-02) (325, -9.43662360131596045232e-03) (326, 6.62758334040258606512e-02) (327, 5.53069075481325903021e-02) (328, -6.77894237357330592397e-02) (329, -1.77454917750501546536e-02) (330, -5.55720947256075695209e-02) (331, -1.07851822988661680269e-01) (332, 6.88200169983075177305e-02) (333, 9.18946961482354079953e-02) (334, -6.89835523673714839932e-02) (335, -4.32751518881779664860e-02) (336, 7.17793280272644024231e-02) (337, 